{"type":"LSTM","options":{"inputSize":51,"inputRange":51,"hiddenLayers":[20,20],"outputSize":51,"decayRate":0.999,"smoothEps":1e-8,"regc":0.000001,"clipval":5,"maxPredictionLength":100,"dataFormatter":{"values":["oi","Olá! Como posso lhe ajudar?","olá","Oi! Tudo bem contigo? Espero que sim :) em que posso lhe ajudar?","hey","Ho, let's go! Posso lhe ajudar em algo?","hello","Hi there, how can I help? You would like to convert into english?","alguem ai?","Sempre quando sou ligado, claro!","oi tudo bem?","Opa! Tudo tranquilo por aqui, obrigado por perguntar :D no que posso lhe ajudar?","tudo bem?","Tudo na medida do possivel, no que posso lhe ajudar?","bom dia","Lhe desejo um ótimo dia também :D","oi bom dia","Olá! Um ótimo dia para você também :D","bom","Dia! XD","boa tarde","Boa tarde! Posso lhe ajudar em algo?","boa noite","Boa noite, amigo! Em que posso lhe servir?"],"indexTable":{"o":0,"i":1,"O":2,"l":3,"á":4,"!":5," ":6,"C":7,"m":8,"p":9,"s":10,"h":11,"e":12,"a":13,"j":14,"u":15,"d":16,"r":17,"?":18,"T":19,"b":20,"c":21,"n":22,"t":23,"g":24,"E":25,"q":26,":":27,")":28,"y":29,"H":30,",":31,"'":32,"P":33,"w":34,"I":35,"Y":36,"k":37,"v":38,"S":39,"D":40,"L":41,"ó":42,"é":43,"U":44,"ê":45,"X":46,"B":47,"stop-input":48,"start-output":49,"unrecognized":50},"characterTable":{"0":"o","1":"i","2":"O","3":"l","4":"á","5":"!","6":" ","7":"C","8":"m","9":"p","10":"s","11":"h","12":"e","13":"a","14":"j","15":"u","16":"d","17":"r","18":"?","19":"T","20":"b","21":"c","22":"n","23":"t","24":"g","25":"E","26":"q","27":":","28":")","29":"y","30":"H","31":",","32":"'","33":"P","34":"w","35":"I","36":"Y","37":"k","38":"v","39":"S","40":"D","41":"L","42":"ó","43":"é","44":"U","45":"ê","46":"X","47":"B","48":null,"49":null,"50":null},"characters":["o","i","O","l","á","!"," ","C","m","p","s","h","e","a","j","u","d","r","?","T","b","c","n","t","g","E","q",":",")","y","H",",","'","P","w","I","Y","k","v","S","D","L","ó","é","U","ê","X","B","stop-input","start-output","unrecognized"],"specialIndexes":[48,49,50]}},"input":{"rows":52,"columns":51,"weights":{"0":0.24219977855682373,"1":-3.7601499557495117,"2":-0.4106547236442566,"3":-0.27783599495887756,"4":-1.212286353111267,"5":-0.8458495140075684,"6":1.1966416835784912,"7":1.974906325340271,"8":1.2380088567733765,"9":-1.0269968509674072,"10":0.7584227919578552,"11":3.12221097946167,"12":-1.8651379346847534,"13":1.9720333814620972,"14":-1.2595573663711548,"15":-1.3293169736862183,"16":-1.0415267944335938,"17":1.1123073101043701,"18":0.017668038606643677,"19":-0.8803117871284485,"20":2.1018030643463135,"21":0.25387948751449585,"22":0.26280540227890015,"23":-0.7910531163215637,"24":3.124300956726074,"25":0.42869293689727783,"26":0.03344140574336052,"27":2.551286458969116,"28":0.1496785283088684,"29":0.4346321225166321,"30":-1.7144957780838013,"31":-0.8186129331588745,"32":-2.167994499206543,"33":-1.1983187198638916,"34":0.5922279953956604,"35":2.6281278133392334,"36":-0.15289664268493652,"37":-1.8697805404663086,"38":0.48630380630493164,"39":2.448720693588257,"40":2.284656524658203,"41":3.157182216644287,"42":-4.8708176612854,"43":-0.5126742124557495,"44":-0.5440506339073181,"45":-2.3602592945098877,"46":-0.9954473972320557,"47":-1.0819305181503296,"48":-0.9986543655395508,"49":-2.4909746646881104,"50":1.3891024589538574,"51":2.7536327838897705,"52":-0.8460620641708374,"53":-1.137287974357605,"54":3.462144374847412,"55":1.7624479532241821,"56":0.9685440063476562,"57":0.6970968246459961,"58":-3.157480239868164,"59":-2.3989803791046143,"60":-0.1250750571489334,"61":-0.16653113067150116,"62":-1.3884670734405518,"63":1.2455447912216187,"64":1.118569016456604,"65":1.8143478631973267,"66":1.0346499681472778,"67":-1.2610435485839844,"68":-0.3258151412010193,"69":-0.43214455246925354,"70":-1.3268072605133057,"71":-0.07341580837965012,"72":2.5670788288116455,"73":-2.2586023807525635,"74":4.007181167602539,"75":-0.5999687910079956,"76":1.7807408571243286,"77":1.0249665975570679,"78":-1.822324275970459,"79":-0.2270849496126175,"80":-0.9936911463737488,"81":3.6256790161132812,"82":1.4386996030807495,"83":-1.627844214439392,"84":1.6487292051315308,"85":0.03229275718331337,"86":-1.7378950119018555,"87":0.056245192885398865,"88":0.608696699142456,"89":-0.5181965231895447,"90":0.9356420636177063,"91":-4.205325603485107,"92":0.33963072299957275,"93":0.3087746500968933,"94":-0.9645524621009827,"95":4.621855735778809,"96":-1.1348298788070679,"97":-0.513840913772583,"98":-2.2716853618621826,"99":0.848544180393219,"100":1.3328814506530762,"101":-3.1405794620513916,"102":-2.800976276397705,"103":6.057222843170166,"104":-2.2142581939697266,"105":-0.16024212539196014,"106":0.4714529812335968,"107":-1.4897044897079468,"108":-1.8332394361495972,"109":-0.8126177787780762,"110":2.5984668731689453,"111":2.3441476821899414,"112":-2.391644239425659,"113":-0.6046663522720337,"114":-1.1412023305892944,"115":-2.340177059173584,"116":-0.09796131402254105,"117":0.3665519654750824,"118":0.8203132152557373,"119":0.1543736308813095,"120":2.2858364582061768,"121":0.9647336602210999,"122":-0.8065950870513916,"123":1.1034884452819824,"124":1.7840930223464966,"125":0.004633164498955011,"126":-0.016649091616272926,"127":-0.40422579646110535,"128":0.27689293026924133,"129":4.0448503494262695,"130":1.0910565853118896,"131":0.43708914518356323,"132":1.5554033517837524,"133":-2.9600088596343994,"134":-0.7332125306129456,"135":0.9078394174575806,"136":0.0910644456744194,"137":-0.4640105068683624,"138":-1.2411761283874512,"139":0.9500855207443237,"140":2.047741413116455,"141":-0.9894291162490845,"142":-1.3774776458740234,"143":1.2365869283676147,"144":-3.679785966873169,"145":2.779838800430298,"146":-2.186964988708496,"147":-0.9133806228637695,"148":3.968674659729004,"149":-1.213676929473877,"150":-1.9261233806610107,"151":0.09646745771169662,"152":-0.4575589895248413,"153":-5.178142070770264,"154":2.4826419353485107,"155":0.6432691216468811,"156":1.6713558435440063,"157":0.14402924478054047,"158":3.485973358154297,"159":0.334491491317749,"160":-4.96570348739624,"161":1.2320774793624878,"162":-5.2581095695495605,"163":-0.7095988392829895,"164":-2.450580596923828,"165":-1.181463599205017,"166":-1.3314478397369385,"167":-1.4853265285491943,"168":-4.2014851570129395,"169":1.070813775062561,"170":-1.4333947896957397,"171":5.070062637329102,"172":0.5401365756988525,"173":0.2046969085931778,"174":1.5524526834487915,"175":-7.397554874420166,"176":-1.0827643871307373,"177":-6.097270965576172,"178":-1.3443142175674438,"179":-1.5263903141021729,"180":5.356085777282715,"181":-1.0971444845199585,"182":-1.4890458583831787,"183":-1.8973802328109741,"184":-3.7533912658691406,"185":0.6095484495162964,"186":-4.287096977233887,"187":-4.534680366516113,"188":2.571324110031128,"189":3.048025131225586,"190":-2.419372797012329,"191":-1.7741633653640747,"192":-2.1147923469543457,"193":0.10092998296022415,"194":-1.0231534242630005,"195":3.162961483001709,"196":2.97977352142334,"197":-6.4939141273498535,"198":-0.43912702798843384,"199":6.127128601074219,"200":-0.7867646813392639,"201":3.8123180866241455,"202":3.8334317207336426,"203":-3.4270195960998535,"204":0.9417706727981567,"205":-2.878093957901001,"206":5.2204437255859375,"207":-1.6508790254592896,"208":1.2563127279281616,"209":3.6466410160064697,"210":0.06775931268930435,"211":-3.3093132972717285,"212":0.7406665086746216,"213":0.12911123037338257,"214":2.7008845806121826,"215":-0.3862903416156769,"216":-3.226625442504883,"217":0.3252769112586975,"218":-3.0771329402923584,"219":-1.821263313293457,"220":-4.865316390991211,"221":2.08266019821167,"222":-2.029294729232788,"223":-2.019890785217285,"224":1.9481422901153564,"225":-2.36629319190979,"226":-1.890255331993103,"227":-2.4862663745880127,"228":0.34228837490081787,"229":0.7257727384567261,"230":1.8216501474380493,"231":-2.496645450592041,"232":1.0513670444488525,"233":0.31477585434913635,"234":-4.729188919067383,"235":2.546644449234009,"236":-0.37023112177848816,"237":-0.07600739598274231,"238":3.041738748550415,"239":4.102298736572266,"240":0.054432980716228485,"241":-0.29671263694763184,"242":1.1046562194824219,"243":0.33038267493247986,"244":2.9370625019073486,"245":0.7174406051635742,"246":-0.971923291683197,"247":1.2781767845153809,"248":-0.6235904097557068,"249":3.541131019592285,"250":-1.7343082427978516,"251":0.08609721064567566,"252":1.4258131980895996,"253":-1.6570073366165161,"254":2.1580636501312256,"255":0.035446178168058395,"256":7.946665287017822,"257":-3.490082263946533,"258":1.193975567817688,"259":-1.2773205041885376,"260":2.7815654277801514,"261":3.4654695987701416,"262":2.246936798095703,"263":-4.6181559562683105,"264":-0.6799497008323669,"265":-3.6375725269317627,"266":0.10036436468362808,"267":5.210452556610107,"268":2.211390495300293,"269":3.7948687076568604,"270":3.9530346393585205,"271":-0.4670294523239136,"272":2.5637972354888916,"273":-5.879347324371338,"274":-2.7121970653533936,"275":2.733673334121704,"276":5.210224628448486,"277":-1.922463297843933,"278":5.381253719329834,"279":-4.1175713539123535,"280":-0.5799903273582458,"281":-3.8845760822296143,"282":-2.630723714828491,"283":1.9045535326004028,"284":-3.8924989700317383,"285":-1.6105637550354004,"286":1.0213418006896973,"287":-1.5982168912887573,"288":2.0082204341888428,"289":-3.944052219390869,"290":-4.441014289855957,"291":-2.3629162311553955,"292":2.292388439178467,"293":0.2885083258152008,"294":-5.39264440536499,"295":-4.916701793670654,"296":0.43147239089012146,"297":1.9326658248901367,"298":0.4720524549484253,"299":3.8374531269073486,"300":-8.958429336547852,"301":0.699497640132904,"302":-3.3243050575256348,"303":-0.9722403883934021,"304":-5.830426216125488,"305":-1.1043778657913208,"306":-1.9476737976074219,"307":1.3668800592422485,"308":4.96117639541626,"309":-0.3916946351528168,"310":-1.097774863243103,"311":1.6065291166305542,"312":0.5320226550102234,"313":0.15221764147281647,"314":2.378509521484375,"315":-1.001112461090088,"316":1.5381748676300049,"317":0.8904340267181396,"318":0.9891793727874756,"319":-2.0109262466430664,"320":0.5364022254943848,"321":-3.3028504848480225,"322":2.158414840698242,"323":1.7130367755889893,"324":-0.6634544730186462,"325":3.8983402252197266,"326":3.489659070968628,"327":-1.4601813554763794,"328":4.6516265869140625,"329":1.5520623922348022,"330":-1.9176303148269653,"331":-0.43800461292266846,"332":0.6914910078048706,"333":1.2137142419815063,"334":2.9536936283111572,"335":0.7947522401809692,"336":-6.92786979675293,"337":-0.5865910649299622,"338":-1.6770374774932861,"339":2.5184285640716553,"340":1.6686255931854248,"341":0.5292129516601562,"342":1.0709022283554077,"343":-2.990967035293579,"344":1.4287307262420654,"345":-2.9488368034362793,"346":-2.3515191078186035,"347":1.3084378242492676,"348":4.059345245361328,"349":-1.0268720388412476,"350":-1.5221470594406128,"351":3.5577023029327393,"352":0.914451539516449,"353":1.0855798721313477,"354":-1.3105175495147705,"355":-2.251060724258423,"356":1.2512208223342896,"357":-1.2467684745788574,"358":0.2525096535682678,"359":0.1923314779996872,"360":-0.25016316771507263,"361":-0.9586968421936035,"362":-1.172677993774414,"363":0.45327669382095337,"364":-1.428516149520874,"365":-0.996100902557373,"366":-0.3565986454486847,"367":2.426852226257324,"368":-0.33245977759361267,"369":-2.869903802871704,"370":-0.9362512230873108,"371":-3.393925189971924,"372":-1.020225167274475,"373":3.231084108352661,"374":-1.8283615112304688,"375":-0.6570562124252319,"376":-0.5340830683708191,"377":-0.9577378630638123,"378":0.4229564666748047,"379":2.7240214347839355,"380":1.0855940580368042,"381":1.5307655334472656,"382":-0.48054516315460205,"383":1.872429370880127,"384":-0.9738516807556152,"385":2.1968674659729004,"386":-3.362961530685425,"387":-1.0215588808059692,"388":-1.6194151639938354,"389":0.9534056782722473,"390":-1.0962954759597778,"391":1.8624740839004517,"392":2.757458209991455,"393":2.399292469024658,"394":0.5639743208885193,"395":-2.1274776458740234,"396":1.5211431980133057,"397":2.235600709915161,"398":0.29530593752861023,"399":0.9483978152275085,"400":-0.037128545343875885,"401":-1.63064706325531,"402":0.9733594655990601,"403":-0.9448304176330566,"404":-0.474846214056015,"405":-3.3049941062927246,"406":-1.2109545469284058,"407":1.0339809656143188,"408":-0.215142160654068,"409":-3.141427993774414,"410":-11.385111808776855,"411":4.524545192718506,"412":-19.548357009887695,"413":-16.52090072631836,"414":-9.240562438964844,"415":-0.25472724437713623,"416":-8.779207229614258,"417":-5.835545539855957,"418":-3.815279722213745,"419":8.598411560058594,"420":-0.6236670613288879,"421":-5.6341705322265625,"422":11.539127349853516,"423":4.642382621765137,"424":1.3259854316711426,"425":7.8306121826171875,"426":11.428285598754883,"427":1.296757459640503,"428":4.969459533691406,"429":-13.031411170959473,"430":5.023123741149902,"431":6.596912384033203,"432":3.317274808883667,"433":5.853338241577148,"434":-18.127365112304688,"435":-3.304751396179199,"436":4.445490837097168,"437":-6.176717758178711,"438":-4.48720645904541,"439":-10.092100143432617,"440":0.9674279093742371,"441":-6.760040283203125,"442":5.716477870941162,"443":7.522924423217773,"444":-3.657193660736084,"445":-7.38330602645874,"446":-9.337786674499512,"447":10.24841594696045,"448":3.462118148803711,"449":-13.86426830291748,"450":-1.9946550130844116,"451":2.3112363815307617,"452":4.387579917907715,"453":-6.700863838195801,"454":3.051149845123291,"455":-14.59158706665039,"456":11.473542213439941,"457":-4.678666114807129,"458":4.285220146179199,"459":-1.3109997510910034,"460":3.6529934406280518,"461":0.776884913444519,"462":1.7144120931625366,"463":-0.8950904607772827,"464":-2.2436654567718506,"465":1.0636616945266724,"466":1.4696345329284668,"467":0.8287445902824402,"468":5.638075828552246,"469":-0.9498993754386902,"470":-2.363077402114868,"471":1.3331958055496216,"472":1.1119732856750488,"473":1.4338555335998535,"474":2.463007926940918,"475":-1.3895405530929565,"476":-3.356219530105591,"477":0.5728726387023926,"478":-0.22639423608779907,"479":0.7116415500640869,"480":-1.192022442817688,"481":1.894965648651123,"482":1.0791499614715576,"483":3.080868721008301,"484":-1.7704514265060425,"485":-0.8102136254310608,"486":1.5934473276138306,"487":-3.165186882019043,"488":1.5532150268554688,"489":1.3169963359832764,"490":-0.9637120366096497,"491":-1.8564178943634033,"492":-2.2917068004608154,"493":2.7622339725494385,"494":1.4827405214309692,"495":-1.8170586824417114,"496":0.5859778523445129,"497":-2.458909749984741,"498":1.0622280836105347,"499":-5.691398620605469,"500":-1.082585334777832,"501":-0.358835905790329,"502":3.8125510215759277,"503":-0.4677491784095764,"504":-0.5774704217910767,"505":4.31323766708374,"506":0.37024739384651184,"507":0.6933691501617432,"508":0.5619679689407349,"509":0.04190928116440773,"510":-3.552919387817383,"511":3.0803372859954834,"512":0.6509787440299988,"513":-3.382648468017578,"514":-1.6702734231948853,"515":-4.149918556213379,"516":-0.8382329344749451,"517":-0.47882622480392456,"518":1.7681999206542969,"519":4.265309810638428,"520":3.4044747352600098,"521":-1.9428220987319946,"522":0.7389053106307983,"523":1.178834319114685,"524":1.0263525247573853,"525":2.6356253623962402,"526":-4.386033535003662,"527":4.693813323974609,"528":0.13567282259464264,"529":3.123497247695923,"530":3.26177716255188,"531":-0.37112683057785034,"532":-0.29511570930480957,"533":-0.2626463770866394,"534":2.8443031311035156,"535":-1.6982011795043945,"536":0.3111104369163513,"537":3.8094985485076904,"538":1.2721048593521118,"539":0.7511155009269714,"540":-2.308656930923462,"541":-1.2600408792495728,"542":-3.712827682495117,"543":-1.8130000829696655,"544":0.16352561116218567,"545":-1.7101211547851562,"546":-0.46181419491767883,"547":0.8230664134025574,"548":1.3292665481567383,"549":-2.225005626678467,"550":-1.955724835395813,"551":3.138943910598755,"552":1.6849302053451538,"553":4.552949905395508,"554":0.8554856181144714,"555":-0.7105745673179626,"556":5.177748680114746,"557":-3.1278982162475586,"558":-2.309192180633545,"559":-0.30403992533683777,"560":2.87805438041687,"561":-1.2718852758407593,"562":-4.639164924621582,"563":1.5300554037094116,"564":-4.678987503051758,"565":-1.2461998462677002,"566":0.9181699156761169,"567":3.489016532897949,"568":4.129851341247559,"569":0.24744980037212372,"570":-0.6117671728134155,"571":4.413043022155762,"572":0.6947140097618103,"573":-2.8529856204986572,"574":5.01688814163208,"575":-0.8273783326148987,"576":4.471410751342773,"577":1.2748064994812012,"578":-0.6891224384307861,"579":2.7322444915771484,"580":-2.6414237022399902,"581":2.0493106842041016,"582":-2.272594690322876,"583":-1.0348681211471558,"584":0.6394944190979004,"585":3.5806522369384766,"586":3.594364881515503,"587":-1.747077226638794,"588":1.6524502038955688,"589":-2.0691611766815186,"590":-2.0140442848205566,"591":-0.8792141675949097,"592":-1.8081403970718384,"593":-3.267061948776245,"594":-0.5599055886268616,"595":-2.8673014640808105,"596":-1.0286775827407837,"597":2.1072070598602295,"598":-2.3088057041168213,"599":-2.474684238433838,"600":3.965350866317749,"601":0.909923791885376,"602":1.0258755683898926,"603":0.46303725242614746,"604":-3.0257294178009033,"605":1.1180790662765503,"606":-0.3524250090122223,"607":1.8034859895706177,"608":0.5378944277763367,"609":-2.348862409591675,"610":3.7558109760284424,"611":1.1525732278823853,"612":4.4323506355285645,"613":3.206104278564453,"614":2.288877010345459,"615":2.5812957286834717,"616":3.9972338676452637,"617":3.2840118408203125,"618":0.191527858376503,"619":-4.874903202056885,"620":-1.7789589166641235,"621":-3.23809814453125,"622":3.8196539878845215,"623":-5.2868781089782715,"624":-0.0448884554207325,"625":-2.1705360412597656,"626":-1.1954964399337769,"627":-3.476158857345581,"628":1.2275391817092896,"629":0.3404333293437958,"630":-0.22674156725406647,"631":0.6690880060195923,"632":0.28744742274284363,"633":1.7884284257888794,"634":1.306265950202942,"635":-3.103391647338867,"636":1.9496163129806519,"637":-4.598063945770264,"638":2.580860137939453,"639":-2.661280632019043,"640":1.7812782526016235,"641":2.065455913543701,"642":0.21153061091899872,"643":2.7340104579925537,"644":1.1690949201583862,"645":3.4158880710601807,"646":0.8688768148422241,"647":2.4432475566864014,"648":-0.4231727421283722,"649":3.061277389526367,"650":4.989531993865967,"651":-0.9867374897003174,"652":0.5385666489601135,"653":-0.8841977715492249,"654":-0.4593288004398346,"655":-0.5533041954040527,"656":-0.6251262426376343,"657":3.373046875,"658":-0.2244807481765747,"659":3.1013238430023193,"660":-3.7642621994018555,"661":-1.1438738107681274,"662":0.3875460624694824,"663":7.885522842407227,"664":2.717085361480713,"665":6.210248947143555,"666":-0.9570059776306152,"667":3.7509310245513916,"668":1.7911748886108398,"669":-0.7643904685974121,"670":-6.876663684844971,"671":-0.41898152232170105,"672":0.37852469086647034,"673":-1.4024404287338257,"674":-0.8823583126068115,"675":0.799156665802002,"676":-4.1337714195251465,"677":-1.2729038000106812,"678":0.8052626848220825,"679":0.4118393063545227,"680":-2.1185381412506104,"681":-3.2818942070007324,"682":4.729174613952637,"683":-1.3905727863311768,"684":-2.595942258834839,"685":0.4294607639312744,"686":-4.307034492492676,"687":-0.1915927529335022,"688":-1.6526340246200562,"689":4.5837016105651855,"690":-3.6208834648132324,"691":-2.5262341499328613,"692":-2.440795421600342,"693":3.3426191806793213,"694":0.8527377843856812,"695":-0.33839017152786255,"696":-1.7906345129013062,"697":0.1890970766544342,"698":3.0690999031066895,"699":0.748006284236908,"700":2.3937935829162598,"701":1.436382532119751,"702":-3.974193811416626,"703":2.0522851943969727,"704":-3.0672190189361572,"705":4.597774505615234,"706":-0.8693691492080688,"707":1.8071675300598145,"708":8.654057502746582,"709":0.41005977988243103,"710":2.3185243606567383,"711":0.6918683052062988,"712":-2.125035047531128,"713":-1.1014032363891602,"714":1.9628230333328247,"715":0.8026998043060303,"716":-0.6613129377365112,"717":2.8994977474212646,"718":0.1041121631860733,"719":1.9515546560287476,"720":5.512236595153809,"721":3.7838222980499268,"722":-1.1598198413848877,"723":2.1626625061035156,"724":-0.0691775530576706,"725":-1.2932792901992798,"726":1.6338160037994385,"727":0.403681218624115,"728":-3.297481060028076,"729":1.0457611083984375,"730":-0.5983180999755859,"731":-2.7691025733947754,"732":-4.931936264038086,"733":0.5484522581100464,"734":-0.9788641333580017,"735":2.573305606842041,"736":0.08096861839294434,"737":0.8042103052139282,"738":0.33212774991989136,"739":-0.3338126540184021,"740":0.5735117793083191,"741":-0.3177579939365387,"742":-1.6594632863998413,"743":-0.7660720348358154,"744":0.46580350399017334,"745":1.6544138193130493,"746":-2.5496015548706055,"747":0.7636165022850037,"748":0.4969588816165924,"749":-2.121778964996338,"750":-0.3872068524360657,"751":-0.7163546085357666,"752":-1.827934741973877,"753":1.514550805091858,"754":-2.3627614974975586,"755":1.376792311668396,"756":-3.988344430923462,"757":-1.3281437158584595,"758":1.0650237798690796,"759":-0.15339599549770355,"760":-0.43352288007736206,"761":-1.109563946723938,"762":-1.266226887702942,"763":0.21126626431941986,"764":0.08149722218513489,"765":-2.0385494232177734,"766":3.208359956741333,"767":-1.9901270866394043,"768":-4.116421222686768,"769":-1.0407975912094116,"770":1.103513240814209,"771":1.2890123128890991,"772":-3.5312159061431885,"773":-2.3991551399230957,"774":0.9061341285705566,"775":0.8441964387893677,"776":-0.8818591237068176,"777":-2.747446298599243,"778":-0.5676541328430176,"779":5.831664562225342,"780":5.618784427642822,"781":2.117440700531006,"782":-0.6566541194915771,"783":-3.9359829425811768,"784":-2.2369351387023926,"785":-7.116677284240723,"786":6.958902835845947,"787":-1.8261009454727173,"788":-0.14152754843235016,"789":0.21279937028884888,"790":-2.9104740619659424,"791":0.6241063475608826,"792":-2.8283450603485107,"793":4.831558704376221,"794":-0.03410327807068825,"795":0.9092232584953308,"796":-1.7450507879257202,"797":0.9548744559288025,"798":0.4369351267814636,"799":0.6444142460823059,"800":-1.866711974143982,"801":-1.7977821826934814,"802":4.558459758758545,"803":-0.9831609129905701,"804":0.7874239683151245,"805":0.8762874007225037,"806":1.8979817628860474,"807":4.02940559387207,"808":1.9481289386749268,"809":2.4003148078918457,"810":-3.957416296005249,"811":4.209079742431641,"812":-1.7880982160568237,"813":-2.702035665512085,"814":-6.490424156188965,"815":5.849552154541016,"816":-1.5237489938735962,"817":2.453187942504883,"818":-1.795039415359497,"819":-0.3776577413082123,"820":-2.0410356521606445,"821":1.2100597620010376,"822":-4.215267658233643,"823":-4.471277713775635,"824":0.47279107570648193,"825":0.07318537682294846,"826":0.8086493015289307,"827":-2.2319176197052,"828":2.5571682453155518,"829":-2.314941167831421,"830":2.5176453590393066,"831":-4.90440559387207,"832":-2.1920175552368164,"833":0.5890620946884155,"834":-3.967810869216919,"835":-2.3027687072753906,"836":0.06562484055757523,"837":-4.490252494812012,"838":-0.7975785136222839,"839":-0.24581141769886017,"840":2.6804323196411133,"841":-1.4723107814788818,"842":1.178688406944275,"843":-2.0736451148986816,"844":4.822279930114746,"845":2.0294430255889893,"846":0.856986939907074,"847":-1.514515995979309,"848":4.009838581085205,"849":-2.172943353652954,"850":-1.5182353258132935,"851":1.7498729228973389,"852":1.6065582036972046,"853":2.1182103157043457,"854":-2.195596218109131,"855":-1.4914501905441284,"856":1.883470058441162,"857":3.574516534805298,"858":0.9774760603904724,"859":0.8456847667694092,"860":-1.3002711534500122,"861":2.2643136978149414,"862":-1.7462542057037354,"863":1.5465507507324219,"864":-0.5374807119369507,"865":-3.4675405025482178,"866":6.290380477905273,"867":2.579329252243042,"868":3.9514176845550537,"869":-0.06669173389673233,"870":1.0255485773086548,"871":-0.6895352602005005,"872":0.9264484643936157,"873":-2.5287795066833496,"874":-0.46977460384368896,"875":2.9000535011291504,"876":-2.4621164798736572,"877":2.0216689109802246,"878":-1.4678610563278198,"879":-1.6977661848068237,"880":-3.0333240032196045,"881":-4.555217266082764,"882":-2.3050591945648193,"883":3.2919869422912598,"884":-3.306997299194336,"885":-2.5746750831604004,"886":-0.3446964621543884,"887":-2.28979229927063,"888":-3.0282156467437744,"889":1.7304997444152832,"890":-0.6984776854515076,"891":3.6979026794433594,"892":-2.57019305229187,"893":0.23724867403507233,"894":-3.6902682781219482,"895":0.6706227660179138,"896":-3.448577642440796,"897":3.611006259918213,"898":-0.9942513704299927,"899":4.561189651489258,"900":0.2673935890197754,"901":2.397531270980835,"902":2.786093235015869,"903":2.4592628479003906,"904":0.07629451900720596,"905":2.681440830230713,"906":0.44613543152809143,"907":3.984966516494751,"908":-1.6337215900421143,"909":-2.5716187953948975,"910":0.09567363560199738,"911":0.0405794195830822,"912":3.4822866916656494,"913":-0.7441257238388062,"914":1.877798080444336,"915":0.3430444300174713,"916":-1.1844156980514526,"917":1.1445229053497314,"918":-1.5924752950668335,"919":5.996984958648682,"920":-0.8269400596618652,"921":0.04258323088288307,"922":-0.23232974112033844,"923":-2.8443331718444824,"924":0.9304385185241699,"925":-0.9323092699050903,"926":1.2921112775802612,"927":2.3433656692504883,"928":-1.8071355819702148,"929":0.030529985204339027,"930":0.2878350019454956,"931":-2.695218086242676,"932":-1.0589276552200317,"933":0.08789806813001633,"934":-2.4238181114196777,"935":-0.373140811920166,"936":6.517049312591553,"937":0.45184439420700073,"938":-0.10120125114917755,"939":-1.5054962635040283,"940":1.6839628219604492,"941":-1.0294047594070435,"942":0.8345312476158142,"943":-3.5150868892669678,"944":2.4261815547943115,"945":0.5309797525405884,"946":-4.118211269378662,"947":-0.22513821721076965,"948":1.915433406829834,"949":-2.9705209732055664,"950":4.950871467590332,"951":-1.7626930475234985,"952":2.352705240249634,"953":2.1024341583251953,"954":3.5446789264678955,"955":4.306373596191406,"956":-2.079594612121582,"957":0.609860897064209,"958":0.7403661608695984,"959":0.6386340260505676,"960":-0.110887810587883,"961":0.31492549180984497,"962":-2.06544828414917,"963":-0.7445027232170105,"964":2.7448818683624268,"965":-0.9736238718032837,"966":-0.19898636639118195,"967":2.9026012420654297,"968":-0.7166315913200378,"969":0.4664783477783203,"970":1.380702257156372,"971":-3.0530335903167725,"972":-0.7774580121040344,"973":2.3007264137268066,"974":0.4116046726703644,"975":0.9175869226455688,"976":-2.0167958736419678,"977":-1.5323352813720703,"978":-0.9840659499168396,"979":0.3980841040611267,"980":-1.7145016193389893,"981":1.2719072103500366,"982":-1.1866183280944824,"983":1.9690722227096558,"984":-0.8519973158836365,"985":5.43785285949707,"986":2.284972667694092,"987":-4.2937774658203125,"988":-1.4470689296722412,"989":2.730193853378296,"990":1.946125864982605,"991":-4.4931793212890625,"992":-0.955985426902771,"993":-3.3162944316864014,"994":0.7838744521141052,"995":2.0368587970733643,"996":1.48627769947052,"997":3.8053407669067383,"998":-4.329349040985107,"999":3.2755677700042725,"1000":-2.3390164375305176,"1001":-1.8937232494354248,"1002":3.6268279552459717,"1003":-5.202864646911621,"1004":0.8208950757980347,"1005":1.7132821083068848,"1006":-1.369709849357605,"1007":2.6595451831817627,"1008":-4.49643087387085,"1009":-1.7801783084869385,"1010":-3.710209369659424,"1011":2.5869901180267334,"1012":-3.190162420272827,"1013":0.3896713852882385,"1014":0.765331506729126,"1015":-0.23593081533908844,"1016":-2.5154831409454346,"1017":-0.5463548302650452,"1018":-1.5912959575653076,"1019":0.25629061460494995,"1020":-4.683818817138672,"1021":0.9475250244140625,"1022":-2.9138753414154053,"1023":2.8667104244232178,"1024":7.024987697601318,"1025":-7.683835983276367,"1026":3.168588638305664,"1027":2.8201773166656494,"1028":4.590209484100342,"1029":-3.3643691539764404,"1030":-7.362512588500977,"1031":3.877934455871582,"1032":3.1769521236419678,"1033":-3.4578001499176025,"1034":1.100507378578186,"1035":-4.105681896209717,"1036":-5.228924751281738,"1037":-1.320065975189209,"1038":4.584784507751465,"1039":3.342461109161377,"1040":0.17405739426612854,"1041":4.4526166915893555,"1042":3.5479068756103516,"1043":-7.59879732131958,"1044":-1.413133978843689,"1045":-7.001208782196045,"1046":0.7607607245445251,"1047":3.341449499130249,"1048":1.2029337882995605,"1049":0.708010196685791,"1050":7.330889701843262,"1051":-2.428985118865967,"1052":-0.36376333236694336,"1053":-5.521410942077637,"1054":-6.678279399871826,"1055":7.130095481872559,"1056":2.452744722366333,"1057":1.2077968120574951,"1058":2.0604302883148193,"1059":-5.2472710609436035,"1060":-0.9879104495048523,"1061":-1.9395906925201416,"1062":-0.7350397109985352,"1063":0.23207798600196838,"1064":-5.199605464935303,"1065":-3.786123514175415,"1066":1.3088380098342896,"1067":4.523238182067871,"1068":4.061127185821533,"1069":4.313043594360352,"1070":2.7632932662963867,"1071":-1.7492769956588745,"1072":-1.1211121082305908,"1073":3.1235973834991455,"1074":-1.0745352506637573,"1075":-2.539064407348633,"1076":-3.226855754852295,"1077":5.2034831047058105,"1078":1.243729591369629,"1079":0.28611549735069275,"1080":5.227746486663818,"1081":-0.8289175629615784,"1082":-0.19942454993724823,"1083":2.7012438774108887,"1084":3.1783056259155273,"1085":5.66202449798584,"1086":3.691678285598755,"1087":2.012955904006958,"1088":1.7888847589492798,"1089":-1.7937982082366943,"1090":-1.6227070093154907,"1091":1.4957791566848755,"1092":0.6112979650497437,"1093":-3.082777738571167,"1094":-3.2843291759490967,"1095":2.285921812057495,"1096":1.236393690109253,"1097":-1.6703479290008545,"1098":1.8812341690063477,"1099":1.8144805431365967,"1100":3.74664568901062,"1101":2.9266765117645264,"1102":-3.6119844913482666,"1103":-5.9777703285217285,"1104":-5.608864784240723,"1105":-0.20482827723026276,"1106":2.2821381092071533,"1107":-1.5530180931091309,"1108":-3.0587668418884277,"1109":-0.051930494606494904,"1110":-0.31684526801109314,"1111":0.8812264204025269,"1112":-3.706592082977295,"1113":0.22705556452274323,"1114":-3.4379611015319824,"1115":-0.3971841037273407,"1116":-1.0007551908493042,"1117":0.9695358276367188,"1118":-0.5367634296417236,"1119":-0.918668270111084,"1120":-3.4081413745880127,"1121":-3.0800743103027344,"1122":0.08721015602350235,"1123":-4.215134143829346,"1124":0.9406979084014893,"1125":0.9285247325897217,"1126":8.47526741027832,"1127":1.860002875328064,"1128":1.0539522171020508,"1129":-3.5972933769226074,"1130":0.16750553250312805,"1131":-2.2822153568267822,"1132":0.25176259875297546,"1133":5.06550407409668,"1134":1.3797154426574707,"1135":-4.157995700836182,"1136":-2.007126808166504,"1137":-3.986417055130005,"1138":-1.5982006788253784,"1139":-2.3165993690490723,"1140":-5.748503684997559,"1141":4.4444193840026855,"1142":-4.087429523468018,"1143":3.130638360977173,"1144":2.7477736473083496,"1145":-3.0564510822296143,"1146":1.6948226690292358,"1147":-9.299720764160156,"1148":2.7458066940307617,"1149":0.6779372692108154,"1150":-1.2884577512741089,"1151":-5.191431522369385,"1152":2.095879554748535,"1153":4.386621952056885,"1154":0.6811312437057495,"1155":1.2922759056091309,"1156":4.378330707550049,"1157":7.227894306182861,"1158":-1.145946979522705,"1159":3.7631025314331055,"1160":-2.4099669456481934,"1161":-3.317157506942749,"1162":-0.5301617383956909,"1163":-5.155663967132568,"1164":5.640044689178467,"1165":-1.7485942840576172,"1166":2.298992872238159,"1167":4.774874687194824,"1168":1.234039306640625,"1169":5.304707050323486,"1170":0.9707829356193542,"1171":1.5515636205673218,"1172":4.959130764007568,"1173":-0.9308973550796509,"1174":4.4505615234375,"1175":-1.140010952949524,"1176":2.1568164825439453,"1177":-0.8164037466049194,"1178":2.489865779876709,"1179":-0.5937047004699707,"1180":2.974543333053589,"1181":-3.2930991649627686,"1182":5.3553466796875,"1183":3.755408525466919,"1184":2.125115394592285,"1185":2.190279245376587,"1186":-0.3565974533557892,"1187":1.2705637216567993,"1188":7.796682834625244,"1189":-2.0846943855285645,"1190":2.3389813899993896,"1191":0.7100843787193298,"1192":2.0421390533447266,"1193":-7.448639392852783,"1194":-0.045219846069812775,"1195":5.190187454223633,"1196":2.8905768394470215,"1197":1.7514444589614868,"1198":-0.8615018725395203,"1199":-3.9461822509765625,"1200":-1.2341575622558594,"1201":-3.3933935165405273,"1202":2.267437696456909,"1203":-1.2726815938949585,"1204":2.9145901203155518,"1205":-3.5790905952453613,"1206":-1.7284901142120361,"1207":1.6679893732070923,"1208":-6.338474750518799,"1209":-5.180469036102295,"1210":0.9034950137138367,"1211":3.0275580883026123,"1212":2.0615885257720947,"1213":-6.8209686279296875,"1214":0.15585149824619293,"1215":6.870861053466797,"1216":-2.944277048110962,"1217":4.556430339813232,"1218":-3.833081007003784,"1219":3.532642126083374,"1220":0.40421268343925476,"1221":-1.7516928911209106,"1222":-0.785050630569458,"1223":0.1717330664396286,"1224":0.16164977848529816,"1225":0.9442552328109741,"1226":-5.011927127838135,"1227":-2.5578229427337646,"1228":-3.4149351119995117,"1229":-1.7516136169433594,"1230":-0.6593038439750671,"1231":-0.5595453381538391,"1232":-0.5152300000190735,"1233":-1.581526517868042,"1234":1.7913662195205688,"1235":-0.15859895944595337,"1236":-0.8783490657806396,"1237":-1.0801085233688354,"1238":0.5518122911453247,"1239":2.7771100997924805,"1240":3.477991819381714,"1241":-0.9271093010902405,"1242":5.084632396697998,"1243":0.7717285752296448,"1244":3.4521238803863525,"1245":-4.556521892547607,"1246":-1.4383949041366577,"1247":-0.9558811783790588,"1248":0.7488212585449219,"1249":0.6263852119445801,"1250":-0.1817285418510437,"1251":5.0999627113342285,"1252":-2.160919189453125,"1253":-0.20381176471710205,"1254":0.8344827890396118,"1255":-2.9191324710845947,"1256":2.8353004455566406,"1257":2.1208927631378174,"1258":-1.2522389888763428,"1259":-1.2916617393493652,"1260":0.9128351211547852,"1261":2.4247238636016846,"1262":2.746086835861206,"1263":3.100891351699829,"1264":2.5888593196868896,"1265":-1.9446214437484741,"1266":-0.7961001396179199,"1267":-4.844525337219238,"1268":1.6050912141799927,"1269":-2.0606131553649902,"1270":1.1995937824249268,"1271":5.304672718048096,"1272":-1.2568682432174683,"1273":2.9773643016815186,"1274":1.3445959091186523,"1275":-6.454766273498535,"1276":-1.1363494396209717,"1277":-2.5700314044952393,"1278":-4.239455223083496,"1279":1.1072165966033936,"1280":-2.113250255584717,"1281":4.327406883239746,"1282":1.3063609600067139,"1283":2.141763925552368,"1284":1.3693852424621582,"1285":1.2427825927734375,"1286":-2.6108953952789307,"1287":-0.3525152802467346,"1288":7.559789657592773,"1289":4.628854274749756,"1290":3.5313949584960938,"1291":1.0331939458847046,"1292":-1.5076192617416382,"1293":-1.448755145072937,"1294":-3.2252070903778076,"1295":3.2042288780212402,"1296":0.8800654411315918,"1297":-1.6412378549575806,"1298":-2.062886953353882,"1299":5.170401573181152,"1300":-6.563941955566406,"1301":2.6480398178100586,"1302":-0.17495043575763702,"1303":3.0329771041870117,"1304":1.7634650468826294,"1305":1.444307565689087,"1306":0.8610535264015198,"1307":-4.669816017150879,"1308":-2.2212612628936768,"1309":2.631969451904297,"1310":4.291268348693848,"1311":0.639143705368042,"1312":-2.8934130668640137,"1313":-0.5768046379089355,"1314":0.5298463106155396,"1315":0.805944561958313,"1316":-0.8292984962463379,"1317":4.279393672943115,"1318":-3.027332305908203,"1319":-0.2518322467803955,"1320":-0.46234408020973206,"1321":2.8723223209381104,"1322":2.410013198852539,"1323":-4.023303508758545,"1324":0.38723692297935486,"1325":-3.751830577850342,"1326":8.36443042755127,"1327":-1.6264922618865967,"1328":6.628159999847412,"1329":-0.13395331799983978,"1330":0.9132124781608582,"1331":7.391414165496826,"1332":2.3422327041625977,"1333":-3.0428414344787598,"1334":-4.626940727233887,"1335":-0.39444494247436523,"1336":-2.9815452098846436,"1337":-2.699115514755249,"1338":-2.5232458114624023,"1339":-4.872292995452881,"1340":0.255611777305603,"1341":-6.081847667694092,"1342":2.599928855895996,"1343":-3.1993892192840576,"1344":-2.3541228771209717,"1345":5.216720104217529,"1346":-4.985142707824707,"1347":-5.935054302215576,"1348":4.027240753173828,"1349":5.397968769073486,"1350":2.339571237564087,"1351":3.2680604457855225,"1352":-2.4021623134613037,"1353":5.638721466064453,"1354":4.070455551147461,"1355":4.265448570251465,"1356":6.793600559234619,"1357":4.551777362823486,"1358":1.7499027252197266,"1359":7.918219566345215,"1360":7.674625396728516,"1361":-1.068477988243103,"1362":-5.421326637268066,"1363":3.322923421859741,"1364":6.058491230010986,"1365":-1.3165771961212158,"1366":4.132562637329102,"1367":0.7260711193084717,"1368":-4.16585111618042,"1369":-1.7786166667938232,"1370":4.179471015930176,"1371":4.938364028930664,"1372":-10.534736633300781,"1373":-4.687606334686279,"1374":-7.625678539276123,"1375":-5.073279857635498,"1376":-1.903263807296753,"1377":-2.6861934661865234,"1378":4.996715068817139,"1379":-2.388550043106079,"1380":-0.4443525969982147,"1381":-1.7185828685760498,"1382":-4.695343017578125,"1383":-2.678255796432495,"1384":1.2458083629608154,"1385":-1.38690185546875,"1386":0.9871288537979126,"1387":1.905771017074585,"1388":-2.3358144760131836,"1389":2.4875974655151367,"1390":-5.778237819671631,"1391":3.247544527053833,"1392":1.3232280015945435,"1393":-1.975602388381958,"1394":1.6217466592788696,"1395":1.2787983417510986,"1396":-2.0519185066223145,"1397":-3.078568696975708,"1398":1.0955456495285034,"1399":-3.0702433586120605,"1400":0.8459939360618591,"1401":0.8697406649589539,"1402":-2.3286938667297363,"1403":0.5320743918418884,"1404":0.6300461292266846,"1405":0.519687294960022,"1406":0.7569987177848816,"1407":6.048122406005859,"1408":-4.049892902374268,"1409":5.739588260650635,"1410":-3.904758930206299,"1411":1.4143261909484863,"1412":2.1776387691497803,"1413":-2.608361005783081,"1414":4.014148712158203,"1415":-2.2304112911224365,"1416":2.848463535308838,"1417":1.4142529964447021,"1418":-0.15978747606277466,"1419":1.8825186491012573,"1420":-3.523827075958252,"1421":-3.282956600189209,"1422":-2.265848398208618,"1423":5.263452053070068,"1424":-3.9863674640655518,"1425":0.7871338725090027,"1426":-0.5642499923706055,"1427":0.9201411604881287,"1428":2.960357189178467,"1429":-0.7397376894950867,"1430":1.8084198236465454,"1431":1.5041587352752686,"1432":-0.33652952313423157,"1433":-1.6320655345916748,"1434":4.864856243133545,"1435":5.792802810668945,"1436":0.3872590959072113,"1437":0.12222746014595032,"1438":0.5639512538909912,"1439":-5.721789360046387,"1440":2.8330538272857666,"1441":9.373228073120117,"1442":-3.8323590755462646,"1443":4.599176406860352,"1444":1.2752920389175415,"1445":-5.037182807922363,"1446":-2.074272871017456,"1447":-2.137519121170044,"1448":6.131518840789795,"1449":1.032860279083252,"1450":1.6220959424972534,"1451":-0.05457494407892227,"1452":4.114989757537842,"1453":-0.7910643219947815,"1454":2.6979026794433594,"1455":0.4047018587589264,"1456":-0.05769096314907074,"1457":-4.786718368530273,"1458":1.9476746320724487,"1459":0.021784963086247444,"1460":-8.528532981872559,"1461":1.425455927848816,"1462":0.34874603152275085,"1463":-0.5451278686523438,"1464":1.6854208707809448,"1465":-4.999851703643799,"1466":-3.307375431060791,"1467":2.2890045642852783,"1468":0.17757390439510345,"1469":1.843841314315796,"1470":-6.729024410247803,"1471":4.14544153213501,"1472":-1.6898761987686157,"1473":2.711350679397583,"1474":-2.23138165473938,"1475":0.9532323479652405,"1476":-1.770848035812378,"1477":0.7207094430923462,"1478":-2.3962299823760986,"1479":-2.255549669265747,"1480":17.7879638671875,"1481":-0.20763343572616577,"1482":-8.416717529296875,"1483":10.77662467956543,"1484":0.6630359888076782,"1485":-2.9358716011047363,"1486":1.8610706329345703,"1487":-0.5548206567764282,"1488":6.192196846008301,"1489":-7.115321636199951,"1490":-12.174903869628906,"1491":-6.539941787719727,"1492":-0.0552641935646534,"1493":-1.8440536260604858,"1494":-0.7208787798881531,"1495":-10.141925811767578,"1496":-11.208463668823242,"1497":-3.531798839569092,"1498":15.63105297088623,"1499":10.342384338378906,"1500":-0.707111120223999,"1501":-0.03051242232322693,"1502":6.2509846687316895,"1503":-2.3334603309631348,"1504":15.412562370300293,"1505":14.812247276306152,"1506":6.283792972564697,"1507":-8.472949981689453,"1508":4.473351001739502,"1509":5.645214557647705,"1510":-6.142349720001221,"1511":7.629210472106934,"1512":9.68811321258545,"1513":-6.049732685089111,"1514":-6.109476089477539,"1515":2.707108497619629,"1516":6.02362585067749,"1517":13.650046348571777,"1518":1.5215098857879639,"1519":-8.119821548461914,"1520":2.3009889125823975,"1521":-14.179950714111328,"1522":7.284837245941162,"1523":1.3510875701904297,"1524":4.9797749519348145,"1525":2.786672830581665,"1526":7.384160041809082,"1527":-8.756573677062988,"1528":4.519319534301758,"1529":7.547610759735107,"1530":-9.257946014404297,"1531":1.944061040878296,"1532":-6.759649753570557,"1533":-2.6221837997436523,"1534":-9.182315826416016,"1535":-6.03236722946167,"1536":-8.901124954223633,"1537":2.5516486167907715,"1538":1.6962651014328003,"1539":-6.707242965698242,"1540":8.636014938354492,"1541":4.690883159637451,"1542":4.468344688415527,"1543":-8.22824764251709,"1544":9.176934242248535,"1545":-5.144224643707275,"1546":14.154318809509277,"1547":-6.1810407638549805,"1548":13.065958976745605,"1549":-10.568198204040527,"1550":-9.297551155090332,"1551":-7.614998817443848,"1552":2.4091122150421143,"1553":-1.0517796277999878,"1554":17.787071228027344,"1555":4.905731201171875,"1556":-0.0805039033293724,"1557":-12.354875564575195,"1558":14.096938133239746,"1559":3.5104169845581055,"1560":6.872621536254883,"1561":-4.786020278930664,"1562":14.347006797790527,"1563":7.6393046379089355,"1564":8.755459785461426,"1565":-4.831346035003662,"1566":-0.6123115420341492,"1567":3.6015889644622803,"1568":9.998815536499023,"1569":15.628021240234375,"1570":-2.546095132827759,"1571":-2.020498275756836,"1572":-4.639089584350586,"1573":3.8494670391082764,"1574":-3.478498697280884,"1575":-6.084210395812988,"1576":5.083205223083496,"1577":7.60176420211792,"1578":-5.51698637008667,"1579":-11.134537696838379,"1580":10.667506217956543,"1581":6.408746242523193,"1582":0.5421074032783508,"1583":9.862324714660645,"1584":-8.198005676269531,"1585":-0.5381350517272949,"1586":16.071325302124023,"1587":-5.213006496429443,"1588":1.5193979740142822,"1589":5.725034236907959,"1590":-7.301692008972168,"1591":9.107460021972656,"1592":0.22410063445568085,"1593":-1.0822350978851318,"1594":-7.805556774139404,"1595":-9.042013168334961,"1596":-5.745561122894287,"1597":8.649650573730469,"1598":-7.511713027954102,"1599":1.5552496910095215,"1600":1.4851394891738892,"1601":-9.761184692382812,"1602":-5.140351295471191,"1603":2.6994688510894775,"1604":-6.553298473358154,"1605":3.8031415939331055,"1606":-10.077113151550293,"1607":5.893383026123047,"1608":-5.9886088371276855,"1609":2.6642258167266846,"1610":-0.7375894784927368,"1611":4.63265323638916,"1612":-6.822292804718018,"1613":-0.7776275873184204,"1614":-1.0214157104492188,"1615":-2.241352081298828,"1616":5.226853370666504,"1617":6.417303085327148,"1618":-1.7546277046203613,"1619":2.212336778640747,"1620":5.863888740539551,"1621":4.131983280181885,"1622":-3.755857467651367,"1623":-12.427699089050293,"1624":6.134516716003418,"1625":-6.21466588973999,"1626":0.5196371674537659,"1627":-5.967223167419434,"1628":11.230586051940918,"1629":-2.9780666828155518,"1630":-5.09160041809082,"1631":7.758247375488281,"1632":2.4649789333343506,"1633":3.665806293487549,"1634":4.822846412658691,"1635":1.1824517250061035,"1636":2.603881359100342,"1637":3.1027939319610596,"1638":0.830755352973938,"1639":0.5329077839851379,"1640":-1.9325553178787231,"1641":0.18898679316043854,"1642":-1.8047239780426025,"1643":-1.3374792337417603,"1644":4.638575077056885,"1645":6.669866561889648,"1646":2.0972893238067627,"1647":2.8332877159118652,"1648":-1.7853403091430664,"1649":4.676975250244141,"1650":2.479175329208374,"1651":-0.37779316306114197,"1652":2.8773655891418457,"1653":0.7581624984741211,"1654":-1.2397422790527344,"1655":-3.0067505836486816,"1656":0.7354121804237366,"1657":-1.6658000946044922,"1658":0.26732584834098816,"1659":-1.6188820600509644,"1660":1.9833006858825684,"1661":-2.1995186805725098,"1662":-3.7220253944396973,"1663":-1.2603551149368286,"1664":-9.772601127624512,"1665":1.4318841695785522,"1666":-0.030242683365941048,"1667":1.8053455352783203,"1668":1.5653570890426636,"1669":-4.351943016052246,"1670":-3.755046844482422,"1671":1.4054714441299438,"1672":-3.7623589038848877,"1673":1.2666257619857788,"1674":0.9645959138870239,"1675":1.4770616292953491,"1676":2.48673677444458,"1677":-3.8247146606445312,"1678":2.977609872817993,"1679":-1.4848706722259521,"1680":3.6998651027679443,"1681":-3.53995680809021,"1682":-0.5308114886283875,"1683":-10.79908275604248,"1684":1.1782727241516113,"1685":-1.8403592109680176,"1686":-5.920346260070801,"1687":-11.047849655151367,"1688":-6.363305568695068,"1689":-0.33838650584220886,"1690":9.47461223602295,"1691":-3.770768880844116,"1692":2.845478057861328,"1693":-8.397588729858398,"1694":3.4526190757751465,"1695":9.272439956665039,"1696":1.924064040184021,"1697":-5.30213737487793,"1698":-6.315214157104492,"1699":-7.425059795379639,"1700":3.6336636543273926,"1701":-14.606685638427734,"1702":-2.315204620361328,"1703":17.831253051757812,"1704":-10.886399269104004,"1705":9.204676628112793,"1706":-4.744778156280518,"1707":5.270573616027832,"1708":1.3934046030044556,"1709":-3.5107123851776123,"1710":-3.1565299034118652,"1711":-5.708352088928223,"1712":8.855366706848145,"1713":-24.200349807739258,"1714":2.348442792892456,"1715":-19.652524948120117,"1716":-3.452223300933838,"1717":-3.752197742462158,"1718":11.678345680236816,"1719":-9.80046272277832,"1720":-2.787482976913452,"1721":2.4162049293518066,"1722":-5.926325798034668,"1723":5.876615524291992,"1724":-7.417802333831787,"1725":-0.3881042003631592,"1726":17.895355224609375,"1727":0.9699710011482239,"1728":14.901092529296875,"1729":-1.8605962991714478,"1730":-7.842024326324463,"1731":4.316468238830566,"1732":-10.840723037719727,"1733":4.337980270385742,"1734":0.9442818760871887,"1735":-5.236940383911133,"1736":-6.364053726196289,"1737":0.09852872788906097,"1738":-9.841523170471191,"1739":4.774016380310059,"1740":-2.6103992462158203,"1741":-0.9208775758743286,"1742":-7.495129108428955,"1743":3.721515655517578,"1744":1.2204577922821045,"1745":5.335972309112549,"1746":-6.348068714141846,"1747":3.485408067703247,"1748":0.7898523211479187,"1749":12.67642879486084,"1750":-2.270331382751465,"1751":8.31185531616211,"1752":-0.7897911071777344,"1753":-0.006908700801432133,"1754":1.1995983123779297,"1755":1.5760498046875,"1756":5.977750301361084,"1757":4.9402546882629395,"1758":5.433822154998779,"1759":8.331329345703125,"1760":3.2899534702301025,"1761":-4.214430809020996,"1762":6.560873031616211,"1763":-1.2499604225158691,"1764":-7.034716606140137,"1765":-0.050295524299144745,"1766":-6.23954963684082,"1767":3.507577419281006,"1768":5.7163591384887695,"1769":-1.0686028003692627,"1770":-6.366103172302246,"1771":-1.1650731563568115,"1772":-3.3214986324310303,"1773":1.868815541267395,"1774":0.5368601679801941,"1775":1.727492094039917,"1776":6.942080974578857,"1777":9.172347068786621,"1778":1.5991108417510986,"1779":-14.115179061889648,"1780":-3.1202902793884277,"1781":0.4627704918384552,"1782":-3.1001386642456055,"1783":2.1451547145843506,"1784":-4.443918704986572,"1785":5.300088405609131,"1786":3.6312813758850098,"1787":0.4731702208518982,"1788":7.774588584899902,"1789":2.049494504928589,"1790":-1.5188654661178589,"1791":6.465078830718994,"1792":3.497641086578369,"1793":-4.675976276397705,"1794":4.161996364593506,"1795":0.5668668746948242,"1796":-3.817781686782837,"1797":0.8191013932228088,"1798":-0.2592068612575531,"1799":6.212517261505127,"1800":6.645735740661621,"1801":6.325883865356445,"1802":-4.277395725250244,"1803":4.454139232635498,"1804":12.093746185302734,"1805":-1.8822962045669556,"1806":-2.1030633449554443,"1807":5.866056442260742,"1808":-0.6546962857246399,"1809":-2.3050789833068848,"1810":-9.067283630371094,"1811":7.578404426574707,"1812":8.450657844543457,"1813":-7.049387454986572,"1814":10.072447776794434,"1815":6.219539165496826,"1816":0.8170294761657715,"1817":-3.575021982192993,"1818":7.8347883224487305,"1819":-1.6152175664901733,"1820":-6.786815643310547,"1821":-2.0286617279052734,"1822":3.6796939373016357,"1823":3.906301259994507,"1824":6.528955936431885,"1825":-3.1672329902648926,"1826":-1.416810154914856,"1827":-10.135763168334961,"1828":-4.522805690765381,"1829":14.45651626586914,"1830":5.779532432556152,"1831":-3.4047727584838867,"1832":3.9999969005584717,"1833":-9.496072769165039,"1834":5.72107458114624,"1835":-0.48797348141670227,"1836":4.338571548461914,"1837":-10.0670804977417,"1838":-4.393445014953613,"1839":10.17093563079834,"1840":-7.997485637664795,"1841":-10.63910961151123,"1842":2.8271169662475586,"1843":19.579408645629883,"1844":-4.12152624130249,"1845":-3.7345402240753174,"1846":4.829898357391357,"1847":0.06512760370969772,"1848":-3.2815167903900146,"1849":5.250509738922119,"1850":-2.9175760746002197,"1851":6.080015182495117,"1852":1.6400525569915771,"1853":-3.284212827682495,"1854":-1.4802578687667847,"1855":0.5649163722991943,"1856":-1.2362521886825562,"1857":-14.417034149169922,"1858":1.383912205696106,"1859":2.672698736190796,"1860":3.9159624576568604,"1861":3.042523145675659,"1862":-10.163363456726074,"1863":-6.555956840515137,"1864":-2.6250057220458984,"1865":-0.04451058432459831,"1866":9.857574462890625,"1867":7.691845417022705,"1868":5.808673858642578,"1869":-10.080947875976562,"1870":-0.844096302986145,"1871":-3.062647581100464,"1872":-8.800107955932617,"1873":-3.361024856567383,"1874":-1.645329236984253,"1875":5.530381202697754,"1876":1.4465773105621338,"1877":1.7005282640457153,"1878":-2.983018159866333,"1879":-6.798325538635254,"1880":1.2613139152526855,"1881":15.597424507141113,"1882":-4.147101879119873,"1883":3.000547409057617,"1884":-1.2904661893844604,"1885":2.3377907276153564,"1886":-5.142716884613037,"1887":5.917196273803711,"1888":-1.671187400817871,"1889":-1.3781869411468506,"1890":1.9949690103530884,"1891":-6.4095869064331055,"1892":2.8321444988250732,"1893":15.04307746887207,"1894":25.793588638305664,"1895":1.8551934957504272,"1896":6.5209574699401855,"1897":-2.806889057159424,"1898":14.281964302062988,"1899":15.631402969360352,"1900":-7.544596195220947,"1901":9.515687942504883,"1902":10.983835220336914,"1903":-3.8634707927703857,"1904":3.4015636444091797,"1905":-3.7422072887420654,"1906":-2.71464204788208,"1907":3.2710556983947754,"1908":-2.1996262073516846,"1909":9.043560028076172,"1910":-5.913700103759766,"1911":1.3800441026687622,"1912":1.3257564306259155,"1913":1.7077810764312744,"1914":-4.4864349365234375,"1915":6.8151164054870605,"1916":8.614346504211426,"1917":-6.531581878662109,"1918":10.081082344055176,"1919":-6.543059349060059,"1920":0.5703188180923462,"1921":4.36196756362915,"1922":-0.3999180197715759,"1923":-1.74062979221344,"1924":-8.532313346862793,"1925":5.47744083404541,"1926":-0.9615716934204102,"1927":-2.704680919647217,"1928":5.532659530639648,"1929":5.103312969207764,"1930":-4.166675567626953,"1931":-0.7900139093399048,"1932":-14.145966529846191,"1933":3.6208038330078125,"1934":0.4654805362224579,"1935":-2.6182405948638916,"1936":5.502722263336182,"1937":-4.534583568572998,"1938":6.901126384735107,"1939":5.4619269371032715,"1940":-0.22427527606487274,"1941":-1.7362151145935059,"1942":-3.2097597122192383,"1943":2.6399388313293457,"1944":4.571590423583984,"1945":0.6106767654418945,"1946":-5.323050498962402,"1947":-6.884824752807617,"1948":-3.819044351577759,"1949":0.6258872747421265,"1950":4.1983184814453125,"1951":0.4761810004711151,"1952":6.08479642868042,"1953":1.3832201957702637,"1954":-1.6738439798355103,"1955":5.0473952293396,"1956":6.703426361083984,"1957":2.0469300746917725,"1958":-8.994083404541016,"1959":7.8116350173950195,"1960":-2.8518521785736084,"1961":-3.5213327407836914,"1962":-12.853656768798828,"1963":-4.415213584899902,"1964":2.3389949798583984,"1965":-4.955801963806152,"1966":11.054068565368652,"1967":3.659822940826416,"1968":8.468294143676758,"1969":0.12574753165245056,"1970":2.6388301849365234,"1971":-1.88584566116333,"1972":-1.935684323310852,"1973":7.411250591278076,"1974":6.402294635772705,"1975":0.6480504870414734,"1976":-1.008353590965271,"1977":-9.05985164642334,"1978":-13.044954299926758,"1979":-8.852238655090332,"1980":5.102534770965576,"1981":3.9658374786376953,"1982":-0.8509867787361145,"1983":-6.654024600982666,"1984":7.716912746429443,"1985":-10.208203315734863,"1986":-1.8641976118087769,"1987":-6.4466872215271,"1988":-3.205495834350586,"1989":2.9938790798187256,"1990":-1.799267053604126,"1991":0.13205352425575256,"1992":-1.880266547203064,"1993":-2.5699050426483154,"1994":-4.869940280914307,"1995":5.167524814605713,"1996":-0.03620800003409386,"1997":1.489566445350647,"1998":5.713953018188477,"1999":-1.3374433517456055,"2000":-3.205477476119995,"2001":-3.2110533714294434,"2002":7.221261501312256,"2003":-2.7095911502838135,"2004":-1.0775166749954224,"2005":-6.997724533081055,"2006":-3.386199712753296,"2007":-1.238601803779602,"2008":0.6710975766181946,"2009":4.018622398376465,"2010":2.2286996841430664,"2011":5.184591293334961,"2012":5.173682689666748,"2013":2.028966188430786,"2014":0.1821105182170868,"2015":-3.1457436084747314,"2016":-0.35714855790138245,"2017":-3.455124855041504,"2018":3.8269615173339844,"2019":2.2089130878448486,"2020":2.426166534423828,"2021":-0.9411938190460205,"2022":-2.4924793243408203,"2023":1.4012482166290283,"2024":0.10522320121526718,"2025":-8.453441619873047,"2026":1.1730233430862427,"2027":1.983154535293579,"2028":2.4368085861206055,"2029":-2.121351480484009,"2030":0.3105957508087158,"2031":0.183334618806839,"2032":-4.828940391540527,"2033":-3.254448890686035,"2034":3.6224029064178467,"2035":3.653951406478882,"2036":0.3876820504665375,"2037":-1.2317924499511719,"2038":1.1327533721923828,"2039":-1.7690231800079346,"2040":-8.601296424865723,"2041":1.060068964958191,"2042":12.122018814086914,"2043":-5.206769943237305,"2044":9.55811595916748,"2045":3.9462451934814453,"2046":-11.05397891998291,"2047":-4.768260478973389,"2048":-3.880035161972046,"2049":-4.930864334106445,"2050":14.811500549316406,"2051":-13.694014549255371,"2052":-2.586684465408325,"2053":4.754081726074219,"2054":-4.097561359405518,"2055":-12.119959831237793,"2056":1.08919358253479,"2057":-11.247505187988281,"2058":-8.252270698547363,"2059":5.583351135253906,"2060":2.3736584186553955,"2061":5.065459728240967,"2062":-2.5418577194213867,"2063":-3.5602545738220215,"2064":-3.3095030784606934,"2065":8.301993370056152,"2066":8.176020622253418,"2067":-0.9229046702384949,"2068":9.460747718811035,"2069":2.9796810150146484,"2070":6.267919540405273,"2071":-1.584550142288208,"2072":-0.9239282011985779,"2073":18.77229118347168,"2074":-7.968335151672363,"2075":4.003730773925781,"2076":7.721009254455566,"2077":3.900299549102783,"2078":6.24634313583374,"2079":9.639928817749023,"2080":2.7815821170806885,"2081":-4.9131693840026855,"2082":-6.957030773162842,"2083":0.4182494282722473,"2084":-8.742237091064453,"2085":5.976359844207764,"2086":-11.107527732849121,"2087":8.47035026550293,"2088":-5.885267734527588,"2089":12.681496620178223,"2090":7.958924293518066,"2091":0.5306633114814758,"2092":6.347387313842773,"2093":2.0772135257720947,"2094":4.1369853019714355,"2095":-2.2372186183929443,"2096":4.2117109298706055,"2097":-3.7561278343200684,"2098":0.04737713187932968,"2099":-3.3495230674743652,"2100":3.4728288650512695,"2101":-2.373295545578003,"2102":-9.874021530151367,"2103":-3.7442686557769775,"2104":-1.2722562551498413,"2105":3.8215291500091553,"2106":-1.555138349533081,"2107":-1.0835978984832764,"2108":0.39770397543907166,"2109":7.052217483520508,"2110":6.895581245422363,"2111":4.271037578582764,"2112":-4.502687931060791,"2113":-4.265835285186768,"2114":1.5192044973373413,"2115":-1.7327827215194702,"2116":3.846275806427002,"2117":0.31099194288253784,"2118":8.420463562011719,"2119":-4.906477451324463,"2120":5.942480564117432,"2121":-2.4630086421966553,"2122":3.2529520988464355,"2123":-0.37306082248687744,"2124":6.881649971008301,"2125":0.30202236771583557,"2126":-1.1860570907592773,"2127":-6.435352325439453,"2128":1.4791667461395264,"2129":4.999749660491943,"2130":0.15894275903701782,"2131":-2.558579921722412,"2132":1.7844581604003906,"2133":-0.997653067111969,"2134":-2.7564358711242676,"2135":4.59157133102417,"2136":0.3292407691478729,"2137":4.473162651062012,"2138":-0.5320724844932556,"2139":-2.745516777038574,"2140":2.8965072631835938,"2141":-2.388617753982544,"2142":2.605044364929199,"2143":-4.1717753410339355,"2144":9.52137279510498,"2145":-8.635965347290039,"2146":-13.788511276245117,"2147":-10.273676872253418,"2148":5.241719722747803,"2149":1.4971725940704346,"2150":1.963094711303711,"2151":-6.827941417694092,"2152":1.386095404624939,"2153":-5.249388217926025,"2154":0.07802816480398178,"2155":11.753664016723633,"2156":1.9225635528564453,"2157":-2.4702658653259277,"2158":2.6205530166625977,"2159":6.145066738128662,"2160":-4.318374156951904,"2161":-6.497673988342285,"2162":22.805564880371094,"2163":0.4680290222167969,"2164":-4.459463119506836,"2165":1.8558976650238037,"2166":-7.699577808380127,"2167":-3.393529176712036,"2168":0.18442565202713013,"2169":-8.82339096069336,"2170":1.1452142000198364,"2171":-3.8842954635620117,"2172":-1.7625184059143066,"2173":-4.602656841278076,"2174":-6.124562740325928,"2175":-6.1541666984558105,"2176":-3.790041208267212,"2177":1.1944020986557007,"2178":6.214333534240723,"2179":-7.531757831573486,"2180":-6.147457122802734,"2181":-0.38161343336105347,"2182":2.973480701446533,"2183":-2.3634073734283447,"2184":3.090994358062744,"2185":15.153027534484863,"2186":-5.368210315704346,"2187":0.02651095949113369,"2188":6.985930919647217,"2189":-13.741459846496582,"2190":4.2251877784729,"2191":-2.337564706802368,"2192":-4.59837532043457,"2193":-8.87716293334961,"2194":7.9032416343688965,"2195":-1.7910374402999878,"2196":-2.7960762977600098,"2197":-3.8515608310699463,"2198":-1.2749340534210205,"2199":0.8330779075622559,"2200":-8.851573944091797,"2201":1.9367996454238892,"2202":0.015019080601632595,"2203":-1.222599744796753,"2204":-1.6305111646652222,"2205":-3.256727933883667,"2206":2.7967910766601562,"2207":2.0414514541625977,"2208":-2.404994487762451,"2209":-6.818413734436035,"2210":1.7664610147476196,"2211":3.9701318740844727,"2212":-3.952281951904297,"2213":-0.2521494925022125,"2214":3.055314540863037,"2215":-1.0738518238067627,"2216":4.310460090637207,"2217":-3.8540477752685547,"2218":6.06141996383667,"2219":-5.317195415496826,"2220":3.9525146484375,"2221":-3.868452787399292,"2222":-3.5412492752075195,"2223":4.037445545196533,"2224":-4.239657878875732,"2225":5.771233558654785,"2226":-1.2570642232894897,"2227":-3.7037453651428223,"2228":-0.5117247700691223,"2229":-3.8361382484436035,"2230":11.521416664123535,"2231":-0.8399730920791626,"2232":2.098707437515259,"2233":-2.0282106399536133,"2234":-7.134143352508545,"2235":-0.9961073398590088,"2236":-4.158516883850098,"2237":0.3190678060054779,"2238":-4.6845927238464355,"2239":5.054934978485107,"2240":-3.5492632389068604,"2241":5.605172634124756,"2242":8.309683799743652,"2243":-1.5814398527145386,"2244":2.2535014152526855,"2245":-10.007614135742188,"2246":-3.3139803409576416,"2247":-5.9014363288879395,"2248":-3.9095993041992188,"2249":0.17055930197238922,"2250":5.695474624633789,"2251":6.558982849121094,"2252":-2.684504508972168,"2253":-8.0923490524292,"2254":6.623644828796387,"2255":1.2489237785339355,"2256":-5.168672561645508,"2257":2.5361380577087402,"2258":0.8529983162879944,"2259":-1.9230042695999146,"2260":7.627821445465088,"2261":-2.7310898303985596,"2262":5.212684631347656,"2263":-5.631678581237793,"2264":-1.0226268768310547,"2265":5.047582149505615,"2266":-4.548338890075684,"2267":-1.7945566177368164,"2268":-5.466402053833008,"2269":6.98198938369751,"2270":1.4256982803344727,"2271":-2.0691025257110596,"2272":0.20114979147911072,"2273":-5.133474826812744,"2274":-1.9200812578201294,"2275":-6.696104049682617,"2276":2.612553119659424,"2277":5.739819049835205,"2278":-8.37503433227539,"2279":-4.642818927764893,"2280":0.1628917157649994,"2281":-2.5308539867401123,"2282":-6.485901355743408,"2283":5.501084327697754,"2284":-5.056931018829346,"2285":-0.8838750720024109,"2286":-0.4474093019962311,"2287":-0.5198469161987305,"2288":2.472555637359619,"2289":3.236693859100342,"2290":-6.6125712394714355,"2291":-4.293093204498291,"2292":1.672269344329834,"2293":3.5765128135681152,"2294":-4.373142719268799,"2295":11.26097583770752,"2296":6.497901916503906,"2297":-0.3747081160545349,"2298":4.852931976318359,"2299":-4.226306438446045,"2300":12.402678489685059,"2301":-12.191887855529785,"2302":-7.267886161804199,"2303":4.074188232421875,"2304":10.357927322387695,"2305":-2.448108434677124,"2306":-5.570115089416504,"2307":-0.27924954891204834,"2308":-4.263018608093262,"2309":-1.6595276594161987,"2310":-8.139754295349121,"2311":-7.335451602935791,"2312":-2.994663953781128,"2313":4.308868408203125,"2314":0.4977392256259918,"2315":8.266424179077148,"2316":5.208244323730469,"2317":-0.051046766340732574,"2318":-7.398081302642822,"2319":5.756192207336426,"2320":-20.738420486450195,"2321":14.618209838867188,"2322":-6.475192070007324,"2323":-1.6817193031311035,"2324":-4.590610504150391,"2325":6.237936973571777,"2326":-6.579670429229736,"2327":0.010432508774101734,"2328":-4.500586032867432,"2329":-1.8328804969787598,"2330":6.313138484954834,"2331":1.7684965133666992,"2332":6.245937347412109,"2333":-4.247124195098877,"2334":-10.27894115447998,"2335":-1.3920371532440186,"2336":-1.8871369361877441,"2337":-4.658328533172607,"2338":-2.8652255535125732,"2339":-5.338129043579102,"2340":5.913265228271484,"2341":5.53118371963501,"2342":4.640015125274658,"2343":4.819592475891113,"2344":-0.9055626392364502,"2345":-6.152950286865234,"2346":-0.020846420899033546,"2347":2.314002752304077,"2348":9.689995765686035,"2349":10.180743217468262,"2350":-1.1391406059265137,"2351":7.198022365570068,"2352":-8.53740406036377,"2353":-13.058910369873047,"2354":0.5213202238082886,"2355":-9.755460739135742,"2356":-8.712099075317383,"2357":-5.468358039855957,"2358":-3.7421059608459473,"2359":1.5792632102966309,"2360":-6.825381755828857,"2361":-4.750549793243408,"2362":8.251851081848145,"2363":-3.3868417739868164,"2364":10.237165451049805,"2365":-1.57620370388031,"2366":4.7425408363342285,"2367":-8.281168937683105,"2368":-6.429427146911621,"2369":3.0255606174468994,"2370":-9.283576965332031,"2371":4.356289863586426,"2372":-10.755655288696289,"2373":-9.667118072509766,"2374":1.1652418375015259,"2375":-11.742244720458984,"2376":5.115533351898193,"2377":-10.316067695617676,"2378":3.6263813972473145,"2379":-11.137052536010742,"2380":1.8787857294082642,"2381":13.447755813598633,"2382":13.104168891906738,"2383":2.0597984790802,"2384":4.541304111480713,"2385":-0.8665971159934998,"2386":3.792314052581787,"2387":-8.298521041870117,"2388":-3.7718262672424316,"2389":11.528141021728516,"2390":-15.385702133178711,"2391":10.584212303161621,"2392":0.057035624980926514,"2393":-0.400488942861557,"2394":10.406038284301758,"2395":-0.054512351751327515,"2396":-3.461652994155884,"2397":8.065972328186035,"2398":5.017788887023926,"2399":-5.3889665603637695,"2400":-5.217470645904541,"2401":-8.629940032958984,"2402":-3.118225336074829,"2403":-12.167810440063477,"2404":1.005460500717163,"2405":2.937410831451416,"2406":8.577483177185059,"2407":-4.333853244781494,"2408":6.899034023284912,"2409":8.767780303955078,"2410":-15.341947555541992,"2411":-12.619220733642578,"2412":-2.8880982398986816,"2413":3.892061471939087,"2414":1.4174323081970215,"2415":-13.126298904418945,"2416":3.3937225341796875,"2417":0.06503729522228241,"2418":-6.707441329956055,"2419":16.637861251831055,"2420":6.08398962020874,"2421":5.353328227996826,"2422":3.035684823989868,"2423":7.489192485809326,"2424":-17.021459579467773,"2425":3.075326919555664,"2426":5.477911949157715,"2427":7.855222225189209,"2428":-1.280977487564087,"2429":4.679033279418945,"2430":2.8694803714752197,"2431":14.261865615844727,"2432":11.431923866271973,"2433":-9.313064575195312,"2434":5.733574867248535,"2435":-1.1158857345581055,"2436":-2.8219172954559326,"2437":6.803595542907715,"2438":-4.983340740203857,"2439":-8.655472755432129,"2440":8.874231338500977,"2441":-4.788941383361816,"2442":-2.25701642036438,"2443":-0.6749305725097656,"2444":0.14531855285167694,"2445":1.1369296312332153,"2446":0.4784352779388428,"2447":8.566442489624023,"2448":2.358755588531494,"2449":-3.266616106033325,"2450":2.6488702297210693,"2451":0.902204155921936,"2452":-2.1087937355041504,"2453":-6.271712303161621,"2454":1.0393544435501099,"2455":2.405433177947998,"2456":-9.587830543518066,"2457":2.104379653930664,"2458":1.1332274675369263,"2459":-1.8502403497695923,"2460":-2.941041946411133,"2461":6.848236083984375,"2462":1.9475549459457397,"2463":2.2646450996398926,"2464":-0.8823553919792175,"2465":-11.905383110046387,"2466":-10.2268705368042,"2467":-2.2547836303710938,"2468":-2.796520471572876,"2469":2.666766405105591,"2470":1.3494371175765991,"2471":-0.10635305196046829,"2472":7.00034236907959,"2473":4.1176886558532715,"2474":4.986388683319092,"2475":-2.437228202819824,"2476":-1.0293188095092773,"2477":4.433215618133545,"2478":4.300497531890869,"2479":0.389497309923172,"2480":3.29117488861084,"2481":0.27227991819381714,"2482":-8.82863712310791,"2483":0.23949845135211945,"2484":-1.6678954362869263,"2485":-0.5460368394851685,"2486":-2.2394111156463623,"2487":-1.1577792167663574,"2488":4.458520412445068,"2489":-3.1223366260528564,"2490":-4.482061862945557,"2491":-1.5450022220611572,"2492":-0.8666979074478149,"2493":8.198232650756836,"2494":-9.009312629699707,"2495":-6.393328666687012,"2496":-5.054950714111328,"2497":-6.314490795135498,"2498":-8.461746215820312,"2499":-1.9887588024139404,"2500":-1.116766333580017,"2501":1.5884166955947876,"2502":-2.4676079750061035,"2503":-1.0464537143707275,"2504":-3.4634323120117188,"2505":1.555739164352417,"2506":2.5495853424072266,"2507":2.722623109817505,"2508":1.8894037008285522,"2509":-0.2236921489238739,"2510":1.6628851890563965,"2511":0.5032912492752075,"2512":-1.9067561626434326,"2513":3.6607415676116943,"2514":-0.7306103706359863,"2515":-0.44794946908950806,"2516":2.5432679653167725,"2517":-0.7360638380050659,"2518":-0.3016337752342224,"2519":-0.07452511042356491,"2520":-6.079535484313965,"2521":2.359649181365967,"2522":-2.7723309993743896,"2523":1.6227365732192993,"2524":-1.7065168619155884,"2525":-0.5252068638801575,"2526":3.016127347946167,"2527":1.8164914846420288,"2528":3.0260767936706543,"2529":-2.4492886066436768,"2530":1.9309202432632446,"2531":0.38490256667137146,"2532":-2.24257755279541,"2533":0.5060281157493591,"2534":2.7431633472442627,"2535":-1.3535689115524292,"2536":-0.4094465374946594,"2537":-0.19015507400035858,"2538":0.2307611107826233,"2539":3.409167766571045,"2540":-1.278385043144226,"2541":2.9210431575775146,"2542":0.7544314861297607,"2543":-3.6586108207702637,"2544":-0.33678916096687317,"2545":-1.8778101205825806,"2546":-0.17504839599132538,"2547":0.28168976306915283,"2548":-0.858984649181366,"2549":4.535855770111084,"2550":-0.6959836483001709,"2551":-2.427363634109497,"2552":1.6618194580078125,"2553":-1.3601279258728027,"2554":-2.197453498840332,"2555":-2.1710898876190186,"2556":-0.5209885239601135,"2557":3.445509672164917,"2558":1.8571274280548096,"2559":2.669309139251709,"2560":0.9571794271469116,"2561":-0.7163019180297852,"2562":-2.7823636531829834,"2563":1.0966143608093262,"2564":-1.125051736831665,"2565":1.248795747756958,"2566":-1.1063766479492188,"2567":0.4966103434562683,"2568":-0.6774643659591675,"2569":-1.6087675094604492,"2570":0.7129849791526794,"2571":-1.6256554126739502,"2572":0.7528560757637024,"2573":-0.1033530905842781,"2574":3.938861608505249,"2575":0.9387804269790649,"2576":1.1426591873168945,"2577":1.5390933752059937,"2578":-0.9058429598808289,"2579":1.3408997058868408,"2580":-3.4294838905334473,"2581":0.8777748346328735,"2582":-0.9571739435195923,"2583":-0.07659205794334412,"2584":0.30987048149108887,"2585":1.8513976335525513,"2586":-1.6562715768814087,"2587":-4.454353332519531,"2588":-2.4680612087249756,"2589":2.29262113571167,"2590":0.9760912656784058,"2591":4.460047245025635,"2592":-0.16836141049861908,"2593":0.3306230902671814,"2594":-2.5082478523254395,"2595":-0.21441417932510376,"2596":0.4862169623374939,"2597":0.5869874358177185,"2598":-0.8608962297439575,"2599":0.15099656581878662,"2600":-0.4972468912601471,"2601":-0.013951659202575684,"2602":0.021781090646982193,"2603":0.025635525584220886,"2604":-0.039711061865091324,"2605":0.0584699809551239,"2606":0.022289978340268135,"2607":0.04153826832771301,"2608":0.004837076645344496,"2609":-0.0022158955689519644,"2610":-0.05668780580163002,"2611":-0.01469007320702076,"2612":-0.05944065749645233,"2613":-0.03021221235394478,"2614":-0.008913544937968254,"2615":-0.004857158288359642,"2616":0.03659791499376297,"2617":-0.010721061378717422,"2618":-0.037271805107593536,"2619":0.04277137294411659,"2620":0.03538980334997177,"2621":-0.02406083419919014,"2622":0.024323472753167152,"2623":0.010016601532697678,"2624":0.05283338576555252,"2625":-0.0627162903547287,"2626":-0.007876008749008179,"2627":0.011363282799720764,"2628":-0.030555568635463715,"2629":0.05683480203151703,"2630":-0.05317433550953865,"2631":0.048342514783144,"2632":-0.010822489857673645,"2633":0.05813469737768173,"2634":0.02067524380981922,"2635":0.045784980058670044,"2636":0.012098615057766438,"2637":0.0498526506125927,"2638":0.01761944591999054,"2639":-0.0214279405772686,"2640":-0.03452768921852112,"2641":0.03049664944410324,"2642":-0.052839960902929306,"2643":0.006062166765332222,"2644":0.055588748306035995,"2645":0.05035705119371414,"2646":0.03065173700451851,"2647":-0.028484782204031944,"2648":-0.023954935371875763,"2649":0.007053311448544264,"2650":0.05064760148525238,"2651":-0.048239730298519135}},"hiddenLayers":[{"inputMatrix":{"rows":20,"columns":51,"weights":{"0":0.2353479117155075,"1":-0.5675671696662903,"2":-1.0996969938278198,"3":0.24532924592494965,"4":0.6524822115898132,"5":-4.842921733856201,"6":0.1638384908437729,"7":-0.4940682351589203,"8":-4.043694496154785,"9":1.210618019104004,"10":-1.7244563102722168,"11":-0.8191585540771484,"12":0.7142424583435059,"13":2.5503716468811035,"14":-0.24536333978176117,"15":0.49108073115348816,"16":2.2764859199523926,"17":-3.4242451190948486,"18":-2.932793140411377,"19":-2.796828508377075,"20":0.40897729992866516,"21":1.531129002571106,"22":0.9854700565338135,"23":-0.29669758677482605,"24":0.016533374786376953,"25":-1.3229680061340332,"26":0.4968143403530121,"27":-3.346902370452881,"28":0.9102426767349243,"29":-1.7996946573257446,"30":2.4784469604492188,"31":-1.5612585544586182,"32":2.3454627990722656,"33":-2.600896120071411,"34":-1.1874200105667114,"35":0.13969822227954865,"36":0.25338682532310486,"37":-0.22249174118041992,"38":-2.4352056980133057,"39":-0.08991837501525879,"40":-0.5293776392936707,"41":-1.4142848253250122,"42":-0.41312214732170105,"43":0.9773954153060913,"44":-2.0324134826660156,"45":2.8000309467315674,"46":-0.24050767719745636,"47":-4.041438579559326,"48":0.011901945807039738,"49":-1.1893831491470337,"50":-3.9364659786224365,"51":0.9373898506164551,"52":-0.3668693006038666,"53":-1.979053020477295,"54":-0.5841989517211914,"55":0.7707107067108154,"56":2.0112574100494385,"57":3.983257532119751,"58":-0.6593056917190552,"59":-1.356840968132019,"60":1.3061373233795166,"61":0.9254887700080872,"62":2.396486520767212,"63":-1.403817892074585,"64":3.4348325729370117,"65":-1.2223107814788818,"66":0.4665445387363434,"67":-0.5056105256080627,"68":-1.5606906414031982,"69":-2.908440589904785,"70":-3.2950329780578613,"71":-2.1484272480010986,"72":2.334695339202881,"73":-0.4569166600704193,"74":-0.021481625735759735,"75":0.5549575686454773,"76":2.025944948196411,"77":0.24393652379512787,"78":-1.2266925573349,"79":-1.6445273160934448,"80":-1.94093918800354,"81":-1.162147045135498,"82":3.5613210201263428,"83":-0.36632731556892395,"84":0.9777892231941223,"85":-0.6299123167991638,"86":-1.9261223077774048,"87":-0.8389493823051453,"88":2.484593629837036,"89":-1.4856877326965332,"90":-0.6890641450881958,"91":0.624004065990448,"92":0.7123180031776428,"93":0.24320723116397858,"94":-2.8112592697143555,"95":1.1735388040542603,"96":-1.3896077871322632,"97":-1.1560231447219849,"98":-1.6985427141189575,"99":-1.9158382415771484,"100":0.216713085770607,"101":-2.49287748336792,"102":-0.6247034668922424,"103":-2.6426427364349365,"104":-2.5067942142486572,"105":1.129526138305664,"106":1.9638872146606445,"107":-2.503659248352051,"108":-1.3012038469314575,"109":0.07133907824754715,"110":3.2918500900268555,"111":-1.3607386350631714,"112":-3.467362880706787,"113":1.7520015239715576,"114":2.2999582290649414,"115":0.14396464824676514,"116":1.3707070350646973,"117":-0.43047189712524414,"118":0.10874131321907043,"119":1.6895498037338257,"120":1.245023250579834,"121":-1.2083075046539307,"122":-1.5517786741256714,"123":3.406949758529663,"124":-1.193005919456482,"125":0.9982771873474121,"126":-3.984832286834717,"127":1.0189288854599,"128":-0.3895224928855896,"129":0.9504879117012024,"130":1.0418007373809814,"131":1.1575757265090942,"132":0.5620455145835876,"133":-0.07924465835094452,"134":-0.28580790758132935,"135":-0.21058130264282227,"136":-3.8235251903533936,"137":-0.2874699532985687,"138":0.030218016356229782,"139":-1.3325482606887817,"140":2.3878519535064697,"141":-3.599970579147339,"142":-0.9695272445678711,"143":-2.6479907035827637,"144":-0.7048108577728271,"145":1.5227174758911133,"146":-1.6660810708999634,"147":-1.541425347328186,"148":-1.266465425491333,"149":-0.47871458530426025,"150":1.195017695426941,"151":1.9040050506591797,"152":-3.0325756072998047,"153":-0.7222175598144531,"154":3.3175923824310303,"155":-0.3283572793006897,"156":0.6944808959960938,"157":3.3329904079437256,"158":1.6483094692230225,"159":-1.8479111194610596,"160":0.133475661277771,"161":-0.6540096998214722,"162":0.4409463703632355,"163":-0.861251950263977,"164":-1.453223466873169,"165":-0.05217966437339783,"166":-2.11332368850708,"167":-0.35069283843040466,"168":0.30811840295791626,"169":-5.1170334815979,"170":-0.3961162567138672,"171":0.8548352122306824,"172":2.3535478115081787,"173":-1.4570341110229492,"174":0.24177494645118713,"175":-0.7722257375717163,"176":-2.551347255706787,"177":-0.03178209438920021,"178":0.36599621176719666,"179":0.40536072850227356,"180":-0.22457963228225708,"181":0.1255316436290741,"182":0.7710874080657959,"183":3.3501439094543457,"184":0.23199354112148285,"185":0.8214269876480103,"186":2.3967387676239014,"187":-2.465146541595459,"188":-2.377439022064209,"189":-0.6690670847892761,"190":1.627751350402832,"191":-1.8776018619537354,"192":-2.4594738483428955,"193":-2.7183074951171875,"194":0.7914237976074219,"195":-0.37007376551628113,"196":1.5015517473220825,"197":1.8430407047271729,"198":-0.773321807384491,"199":4.029327869415283,"200":-0.5632511377334595,"201":0.8012849688529968,"202":-1.2129762172698975,"203":0.967389702796936,"204":2.893287181854248,"205":-0.8870964050292969,"206":2.2740209102630615,"207":-0.12545175850391388,"208":2.9925191402435303,"209":2.738569498062134,"210":2.0334513187408447,"211":-0.7102950215339661,"212":-0.5202970504760742,"213":-1.066061019897461,"214":0.43133580684661865,"215":-2.8203248977661133,"216":-1.0042117834091187,"217":1.5857545137405396,"218":-1.600748896598816,"219":0.2415851652622223,"220":1.8228354454040527,"221":-0.3830062448978424,"222":0.7485352158546448,"223":0.14633186161518097,"224":0.8433125019073486,"225":1.2911269664764404,"226":-4.496281147003174,"227":-2.403841018676758,"228":-2.390857458114624,"229":4.398636817932129,"230":0.7812426090240479,"231":-0.11962062865495682,"232":-1.5881489515304565,"233":-1.7765992879867554,"234":0.7928124666213989,"235":1.4495124816894531,"236":-0.8510118722915649,"237":4.594934940338135,"238":-2.037372589111328,"239":-2.2269949913024902,"240":0.5931106209754944,"241":0.6973574161529541,"242":1.6465601921081543,"243":0.04862174019217491,"244":0.5358617901802063,"245":-1.3886399269104004,"246":-1.9051350355148315,"247":0.6039190292358398,"248":2.4288406372070312,"249":0.6511217951774597,"250":-0.4696832597255707,"251":-2.9611587524414062,"252":0.047788478434085846,"253":0.5898220539093018,"254":-0.3039068579673767,"255":1.0278303623199463,"256":-4.507991790771484,"257":1.108207106590271,"258":-1.9004642963409424,"259":0.3922538459300995,"260":-1.6975523233413696,"261":1.1938375234603882,"262":1.0314069986343384,"263":-1.48992121219635,"264":0.6683534383773804,"265":0.6431794762611389,"266":2.312479019165039,"267":0.9325938820838928,"268":1.7442396879196167,"269":0.02139108255505562,"270":0.6337904930114746,"271":0.8706780672073364,"272":-0.2855220139026642,"273":-2.817434072494507,"274":-0.6186894774436951,"275":1.493577003479004,"276":-1.0758596658706665,"277":2.000885248184204,"278":2.0900018215179443,"279":1.0044312477111816,"280":1.1465883255004883,"281":0.045163385570049286,"282":-1.8644051551818848,"283":1.8099485635757446,"284":-0.6187036037445068,"285":-2.644139051437378,"286":1.3166216611862183,"287":-2.004804849624634,"288":-1.1987354755401611,"289":0.8781877160072327,"290":0.9363980889320374,"291":-1.413002848625183,"292":-2.4806182384490967,"293":-1.8878505229949951,"294":1.3631123304367065,"295":1.231460690498352,"296":2.3789384365081787,"297":0.2230854481458664,"298":-1.7904471158981323,"299":-0.10064063966274261,"300":1.6843916177749634,"301":-2.0683581829071045,"302":-2.695225715637207,"303":0.5856996774673462,"304":-0.002792948391288519,"305":-2.985325813293457,"306":3.7322723865509033,"307":0.9005089998245239,"308":2.9193711280822754,"309":-0.7272676229476929,"310":0.21992374956607819,"311":2.3920013904571533,"312":0.2302095741033554,"313":0.2942373752593994,"314":0.7591285109519958,"315":2.6609859466552734,"316":2.180022716522217,"317":-1.3428382873535156,"318":-0.40172451734542847,"319":-1.2160173654556274,"320":-1.1976567506790161,"321":-0.42047712206840515,"322":-1.5236097574234009,"323":-0.42120489478111267,"324":-1.2109887599945068,"325":1.155617594718933,"326":-0.6084995269775391,"327":-2.503539562225342,"328":3.0912256240844727,"329":0.018894311040639877,"330":0.6717618703842163,"331":-1.8409745693206787,"332":-0.08571477234363556,"333":0.8438684344291687,"334":-3.3700907230377197,"335":1.4524540901184082,"336":-0.7991841435432434,"337":5.048700332641602,"338":-0.4688512682914734,"339":0.8732670545578003,"340":3.477182388305664,"341":-0.04483507573604584,"342":-3.205491065979004,"343":-0.7004970908164978,"344":2.0156850814819336,"345":0.8346776962280273,"346":1.600815773010254,"347":-2.0197222232818604,"348":1.4930858612060547,"349":-1.7607094049453735,"350":2.30261492729187,"351":1.8129407167434692,"352":0.9772018790245056,"353":4.106134414672852,"354":0.2807391285896301,"355":1.3666090965270996,"356":1.6888654232025146,"357":1.0813183784484863,"358":0.5034549236297607,"359":2.0820119380950928,"360":1.359934687614441,"361":-0.07269038259983063,"362":0.01155727356672287,"363":-0.2654070556163788,"364":0.36065277457237244,"365":1.3949891328811646,"366":4.574820041656494,"367":-0.6696598529815674,"368":-1.8955121040344238,"369":2.228442907333374,"370":-1.7697792053222656,"371":-0.6076153516769409,"372":-2.5545382499694824,"373":-3.2429111003875732,"374":1.224472165107727,"375":0.0168515145778656,"376":0.833963930606842,"377":5.328567028045654,"378":-0.7915735244750977,"379":0.4541277289390564,"380":-1.4580752849578857,"381":-0.07871577888727188,"382":0.2747042179107666,"383":-0.3672557771205902,"384":1.4583133459091187,"385":-0.33067843317985535,"386":1.8484981060028076,"387":-1.1968517303466797,"388":2.015289545059204,"389":-3.0738937854766846,"390":-0.6114457845687866,"391":0.7135586142539978,"392":-0.3747413158416748,"393":-0.7888513207435608,"394":0.9584344625473022,"395":0.1519480049610138,"396":-1.8276077508926392,"397":-1.551518440246582,"398":1.5848997831344604,"399":-3.198143243789673,"400":1.3382151126861572,"401":-0.031846754252910614,"402":1.1487035751342773,"403":-0.01389867439866066,"404":-2.3673527240753174,"405":0.9236332178115845,"406":-0.8609843850135803,"407":1.8880983591079712,"408":0.2155940681695938,"409":-1.0176409482955933,"410":-0.7801096439361572,"411":2.49858021736145,"412":-2.927130699157715,"413":-4.713057518005371,"414":2.8542380332946777,"415":3.1577601432800293,"416":1.5852406024932861,"417":-1.3295016288757324,"418":-1.0600858926773071,"419":0.9138979315757751,"420":1.528185248374939,"421":2.1055099964141846,"422":-2.2339370250701904,"423":0.24738672375679016,"424":2.965604782104492,"425":-3.0614874362945557,"426":0.7053309082984924,"427":-1.4314210414886475,"428":-0.12965847551822662,"429":-0.7941110134124756,"430":2.1471829414367676,"431":-3.4013476371765137,"432":1.4726436138153076,"433":-1.2438746690750122,"434":-0.22029505670070648,"435":-0.2317558377981186,"436":-0.5381033420562744,"437":-0.8984243273735046,"438":-0.12758678197860718,"439":-0.6980444192886353,"440":-0.34611454606056213,"441":-0.20635882019996643,"442":-2.441807985305786,"443":1.1267099380493164,"444":0.046574197709560394,"445":-1.0468119382858276,"446":-0.45737510919570923,"447":1.6773823499679565,"448":0.08512817323207855,"449":-2.1645169258117676,"450":-1.7285810708999634,"451":0.27554526925086975,"452":-1.1953394412994385,"453":1.8262805938720703,"454":-1.304413914680481,"455":0.9269810318946838,"456":1.5865375995635986,"457":1.4001082181930542,"458":-1.3108283281326294,"459":-2.7298758029937744,"460":1.0469919443130493,"461":-0.9756650328636169,"462":-0.16145148873329163,"463":1.195833444595337,"464":-1.113911747932434,"465":-0.8906084299087524,"466":1.402003526687622,"467":-0.6344634890556335,"468":-0.06715957820415497,"469":-1.1621156930923462,"470":-0.3226022720336914,"471":-0.05733829736709595,"472":1.048127293586731,"473":1.961429238319397,"474":0.26197800040245056,"475":-1.4767215251922607,"476":2.302523374557495,"477":-0.6501232981681824,"478":1.7385841608047485,"479":1.6880340576171875,"480":3.5039775371551514,"481":-2.5389163494110107,"482":2.6408936977386475,"483":-4.158669471740723,"484":1.6372828483581543,"485":-2.076185464859009,"486":1.8273565769195557,"487":-0.29773062467575073,"488":0.11337053775787354,"489":0.8291833400726318,"490":0.49963265657424927,"491":-1.3504012823104858,"492":-0.754426121711731,"493":-2.2220675945281982,"494":-0.34962111711502075,"495":-4.168835163116455,"496":-3.092271566390991,"497":-1.7688671350479126,"498":-1.0782850980758667,"499":-3.5263047218322754,"500":-0.8289958834648132,"501":2.270552158355713,"502":-0.799788773059845,"503":0.35944315791130066,"504":-1.4029631614685059,"505":2.3827757835388184,"506":-3.892770290374756,"507":-0.44990435242652893,"508":-1.7987867593765259,"509":0.3461298644542694,"510":-2.825087547302246,"511":-3.1234524250030518,"512":-0.4897516071796417,"513":-2.12605619430542,"514":0.38787129521369934,"515":-0.9989932775497437,"516":0.37641775608062744,"517":0.5301634073257446,"518":-0.23891806602478027,"519":-4.1222920417785645,"520":0.061342716217041016,"521":-0.17028437554836273,"522":-1.901503324508667,"523":3.7008256912231445,"524":-1.965124249458313,"525":-0.21278460323810577,"526":2.597296953201294,"527":0.3409216105937958,"528":-0.17315128445625305,"529":1.5640202760696411,"530":2.4796371459960938,"531":1.8491181135177612,"532":-2.67132306098938,"533":2.250912666320801,"534":-3.1982345581054688,"535":1.5298521518707275,"536":-2.970606565475464,"537":2.6965558528900146,"538":-0.6224145889282227,"539":-1.5968420505523682,"540":-3.370624542236328,"541":-2.6749629974365234,"542":-0.11190205812454224,"543":0.16192097961902618,"544":-3.395561456680298,"545":2.006070375442505,"546":2.452026605606079,"547":-3.215095281600952,"548":-2.286742925643921,"549":2.384751081466675,"550":1.150461196899414,"551":-0.8558347225189209,"552":0.14239729940891266,"553":-1.174536108970642,"554":-1.845692753791809,"555":0.040139369666576385,"556":-1.0598787069320679,"557":-1.2852824926376343,"558":-0.4563041627407074,"559":0.3297700583934784,"560":0.6923303008079529,"561":3.6426072120666504,"562":1.4626481533050537,"563":-0.03191054239869118,"564":1.6472814083099365,"565":-2.162236452102661,"566":-1.8538107872009277,"567":-2.93999981880188,"568":-0.7880182266235352,"569":3.287377119064331,"570":2.5146877765655518,"571":-3.9969322681427,"572":-2.3079452514648438,"573":0.21126201748847961,"574":1.6524642705917358,"575":-0.03405044227838516,"576":-0.5344584584236145,"577":-0.043503399938344955,"578":-1.8489694595336914,"579":-4.1996331214904785,"580":-0.8495987057685852,"581":2.2157070636749268,"582":-4.437748908996582,"583":-0.248362198472023,"584":-0.0653344988822937,"585":-1.4090417623519897,"586":0.8009144067764282,"587":-0.33735325932502747,"588":-1.5928727388381958,"589":0.9566149115562439,"590":-3.467176914215088,"591":1.5246777534484863,"592":-0.2300138771533966,"593":-2.6789028644561768,"594":-0.2776950001716614,"595":0.4487333595752716,"596":0.4790666699409485,"597":-3.3656294345855713,"598":0.23467044532299042,"599":0.2805138826370239,"600":-1.019036889076233,"601":-0.7704625129699707,"602":3.4436275959014893,"603":-6.5365142822265625,"604":3.59151291847229,"605":-0.3389609754085541,"606":1.5928871631622314,"607":0.887465238571167,"608":-1.6660124063491821,"609":2.428877115249634,"610":-3.134627342224121,"611":-0.23752500116825104,"612":1.5549935102462769,"613":-0.7994095683097839,"614":3.896965503692627,"615":0.03795059025287628,"616":0.19217611849308014,"617":-0.46069037914276123,"618":1.0791140794754028,"619":-0.8018522262573242,"620":-1.2083561420440674,"621":2.778578519821167,"622":-0.18966583907604218,"623":0.43949729204177856,"624":2.311436653137207,"625":0.8191583752632141,"626":-5.053004264831543,"627":-1.2483136653900146,"628":-0.7688565850257874,"629":-2.271799087524414,"630":-2.244320869445801,"631":-0.20364578068256378,"632":0.29063916206359863,"633":-3.875159740447998,"634":2.4900386333465576,"635":-0.48710593581199646,"636":4.267767429351807,"637":-2.8812289237976074,"638":1.2240970134735107,"639":0.8249696493148804,"640":-1.4037054777145386,"641":1.0068858861923218,"642":0.8940185904502869,"643":1.8584752082824707,"644":0.25062096118927,"645":-1.8511384725570679,"646":2.322897434234619,"647":4.256190776824951,"648":0.3171197474002838,"649":1.5166568756103516,"650":-0.6380879878997803,"651":1.2830145359039307,"652":2.756134271621704,"653":0.8945492506027222,"654":-2.360562562942505,"655":-0.035071950405836105,"656":-0.0826946273446083,"657":4.6257500648498535,"658":-1.733906865119934,"659":0.3690665662288666,"660":1.0010151863098145,"661":1.8572649955749512,"662":-3.163334369659424,"663":1.8940703868865967,"664":-2.5593743324279785,"665":-0.4043424725532532,"666":-1.619652509689331,"667":-0.7503331303596497,"668":0.7629744410514832,"669":1.267058253288269,"670":1.496625542640686,"671":-0.8705137968063354,"672":1.975374460220337,"673":0.0278687234967947,"674":-1.1457229852676392,"675":0.18916447460651398,"676":1.0502374172210693,"677":3.111891746520996,"678":2.2895240783691406,"679":-0.966482937335968,"680":6.043478012084961,"681":-0.026474811136722565,"682":-1.2322618961334229,"683":-0.35735884308815,"684":-1.2386267185211182,"685":-2.5033581256866455,"686":-1.6628611087799072,"687":0.5592103600502014,"688":0.3280038833618164,"689":-2.1917052268981934,"690":-0.10478311032056808,"691":2.5495784282684326,"692":1.007808804512024,"693":-1.2086459398269653,"694":1.7843281030654907,"695":-0.8150112628936768,"696":-1.8035742044448853,"697":0.4214112162590027,"698":1.6142151355743408,"699":-1.7449418306350708,"700":-1.4209619760513306,"701":-1.4826534986495972,"702":-0.7647508978843689,"703":-0.051185499876737595,"704":-0.33582112193107605,"705":2.8416311740875244,"706":-2.6295700073242188,"707":1.6003882884979248,"708":-2.082061767578125,"709":-0.7936990261077881,"710":-3.2811779975891113,"711":2.3761496543884277,"712":-1.4460400342941284,"713":-0.9253288507461548,"714":0.8820099830627441,"715":0.16897648572921753,"716":0.3939123749732971,"717":-3.102684259414673,"718":-1.0383307933807373,"719":-0.3762357234954834,"720":-0.19848692417144775,"721":-0.3079146146774292,"722":-1.5840685367584229,"723":-0.4400959312915802,"724":1.3807966709136963,"725":-0.3358086943626404,"726":0.495554655790329,"727":-2.98451828956604,"728":0.4837534725666046,"729":-3.995840311050415,"730":2.1578381061553955,"731":0.005141802132129669,"732":0.6919918656349182,"733":0.48313379287719727,"734":-0.259985089302063,"735":-0.6193334460258484,"736":-0.029345836490392685,"737":-1.9654498100280762,"738":-1.020707368850708,"739":1.1661381721496582,"740":0.567950963973999,"741":-0.7838574647903442,"742":3.891951560974121,"743":0.3747853636741638,"744":0.4065248370170593,"745":-3.595047950744629,"746":2.4203290939331055,"747":0.024193448945879936,"748":-0.1909361183643341,"749":2.1692395210266113,"750":0.17031407356262207,"751":-0.0030196502339094877,"752":2.6088759899139404,"753":-1.493369460105896,"754":1.2632747888565063,"755":-1.3120121955871582,"756":-2.6671690940856934,"757":-0.7815054059028625,"758":-1.0425876379013062,"759":3.0890655517578125,"760":-2.063546895980835,"761":-2.9152772426605225,"762":0.006856168154627085,"763":-4.358042240142822,"764":1.4956120252609253,"765":0.5500579476356506,"766":-2.622269630432129,"767":-0.2029486447572708,"768":-0.9254254102706909,"769":-0.12455502152442932,"770":0.5579622983932495,"771":-2.2571780681610107,"772":0.2574997544288635,"773":0.9466981291770935,"774":-2.7522640228271484,"775":1.834286093711853,"776":-1.144394874572754,"777":-2.405891180038452,"778":0.7899554967880249,"779":-1.874745488166809,"780":-1.2471907138824463,"781":-0.01173462439328432,"782":-4.8094658851623535,"783":0.4693904519081116,"784":-1.1069403886795044,"785":0.26733842492103577,"786":-0.5183966755867004,"787":-2.1886398792266846,"788":1.338226079940796,"789":-0.458972692489624,"790":-0.6423418521881104,"791":-1.7348436117172241,"792":-2.4897379875183105,"793":1.3825308084487915,"794":-2.5823428630828857,"795":-1.0350863933563232,"796":0.3790903687477112,"797":0.8717668056488037,"798":-1.7448872327804565,"799":-1.042592167854309,"800":-1.2733246088027954,"801":3.0151479244232178,"802":-2.2024083137512207,"803":-3.096353530883789,"804":0.6174697875976562,"805":0.6356594562530518,"806":3.0861098766326904,"807":-2.963413953781128,"808":2.740872621536255,"809":-1.025282859802246,"810":0.8309386372566223,"811":-1.2617952823638916,"812":-1.8297905921936035,"813":2.6093170642852783,"814":-0.20805825293064117,"815":1.074301838874817,"816":1.825186848640442,"817":0.3780198395252228,"818":-2.814316749572754,"819":0.4193095564842224,"820":-2.670980453491211,"821":-1.4436357021331787,"822":2.7200305461883545,"823":0.9805157780647278,"824":-2.2543704509735107,"825":-0.6335310339927673,"826":-2.592963457107544,"827":1.298690676689148,"828":2.898733377456665,"829":2.951415777206421,"830":3.2588908672332764,"831":1.070475697517395,"832":0.17346659302711487,"833":1.1584066152572632,"834":-0.7641341090202332,"835":-2.940251111984253,"836":-0.1638495922088623,"837":1.1473687887191772,"838":-0.32004526257514954,"839":-0.5480564832687378,"840":0.023762444034218788,"841":0.11362703889608383,"842":-3.5481011867523193,"843":-2.580228090286255,"844":0.5309598445892334,"845":-1.5927799940109253,"846":-1.2130753993988037,"847":0.5849022269248962,"848":0.45196524262428284,"849":-0.9143402576446533,"850":-0.11828379333019257,"851":0.6458743810653687,"852":-2.510739326477051,"853":-1.2584949731826782,"854":-1.3208733797073364,"855":0.40095189213752747,"856":-1.1459338665008545,"857":-0.05702676996588707,"858":1.1843925714492798,"859":-1.470517873764038,"860":-0.08305185288190842,"861":0.5754414200782776,"862":-0.23415008187294006,"863":-3.7515854835510254,"864":0.6804329752922058,"865":-0.2754611372947693,"866":-0.38879284262657166,"867":-0.04332486167550087,"868":-0.828873872756958,"869":1.0671714544296265,"870":0.13087017834186554,"871":-1.4854391813278198,"872":-0.16770966351032257,"873":-0.10133630037307739,"874":2.085660934448242,"875":0.2036609649658203,"876":0.44820037484169006,"877":1.6961733102798462,"878":0.6130468845367432,"879":-0.8180461525917053,"880":-0.04227878153324127,"881":-0.7884400486946106,"882":1.291105031967163,"883":1.2120980024337769,"884":1.572489857673645,"885":0.3428371548652649,"886":-0.686212956905365,"887":-0.5903679132461548,"888":-1.822378396987915,"889":1.026565432548523,"890":-1.0484510660171509,"891":3.0459413528442383,"892":-1.5282808542251587,"893":1.262026071548462,"894":-0.7753833532333374,"895":2.090707302093506,"896":-0.8433603048324585,"897":-2.105700731277466,"898":0.5838733911514282,"899":0.4490937292575836,"900":-1.6099746227264404,"901":1.8132091760635376,"902":-0.7044883966445923,"903":-1.004748821258545,"904":-3.0785341262817383,"905":-1.4342615604400635,"906":0.7595380544662476,"907":1.861641526222229,"908":2.5833027362823486,"909":0.4715624451637268,"910":0.4987845718860626,"911":0.95514315366745,"912":-1.0980088710784912,"913":0.04791750758886337,"914":-1.1933536529541016,"915":-1.5444281101226807,"916":-4.2623419761657715,"917":1.484126091003418,"918":-1.4507229328155518,"919":0.7167217135429382,"920":-0.02307768166065216,"921":-0.23621906340122223,"922":-1.3079341650009155,"923":-2.3292315006256104,"924":-1.1713427305221558,"925":3.7278871536254883,"926":1.6498236656188965,"927":2.9264373779296875,"928":0.4053141474723816,"929":1.124734878540039,"930":-0.5513932108879089,"931":-2.4511115550994873,"932":-0.6883589625358582,"933":1.2051395177841187,"934":0.1356504112482071,"935":1.0353505611419678,"936":2.1577258110046387,"937":1.61935555934906,"938":-0.7151822447776794,"939":-3.031100034713745,"940":2.3344922065734863,"941":0.6440916061401367,"942":0.6058028936386108,"943":4.77928352355957,"944":-1.5070500373840332,"945":4.515777111053467,"946":-1.3654308319091797,"947":1.6202263832092285,"948":-1.113315463066101,"949":-0.13938561081886292,"950":0.9102992415428162,"951":0.14056293666362762,"952":2.1185779571533203,"953":-0.012849266640841961,"954":-2.4476048946380615,"955":-1.4222874641418457,"956":0.2727524936199188,"957":3.6134350299835205,"958":-1.8535887002944946,"959":0.5710340738296509,"960":-1.2507963180541992,"961":-0.4001460671424866,"962":-0.6190277934074402,"963":-0.7572697401046753,"964":-1.058343768119812,"965":-1.9416946172714233,"966":-1.8401521444320679,"967":0.8369147181510925,"968":-0.8749003410339355,"969":-0.7108762264251709,"970":-0.23298607766628265,"971":0.8445637226104736,"972":0.12896828353405,"973":1.6928067207336426,"974":0.5140396952629089,"975":-0.8671252131462097,"976":-0.12222053855657578,"977":-1.3502510786056519,"978":0.4835693836212158,"979":3.3982627391815186,"980":-0.7152256369590759,"981":-0.8345301747322083,"982":-1.6890851259231567,"983":-2.3295347690582275,"984":-0.37646937370300293,"985":-0.4945904612541199,"986":-2.9796793460845947,"987":-0.5851525068283081,"988":0.7371669411659241,"989":-4.800662040710449,"990":0.8872768878936768,"991":2.10007381439209,"992":2.363926410675049,"993":-0.15895487368106842,"994":1.2570868730545044,"995":1.583937168121338,"996":-3.295673370361328,"997":0.7477468252182007,"998":0.7117277979850769,"999":1.1858185529708862,"1000":1.0885010957717896,"1001":1.7704362869262695,"1002":0.6234971880912781,"1003":1.6916896104812622,"1004":-1.0859261751174927,"1005":-0.36697742342948914,"1006":1.0301319360733032,"1007":0.649395763874054,"1008":1.0633691549301147,"1009":-2.936349868774414,"1010":1.700807809829712,"1011":-0.48159241676330566,"1012":-1.301776647567749,"1013":0.15737849473953247,"1014":2.957505226135254,"1015":-1.949013113975525,"1016":-0.24073544144630432,"1017":-0.9936282634735107,"1018":0.6930047869682312,"1019":-1.0256813764572144}},"inputHidden":{"rows":20,"columns":20,"weights":{"0":0.5510333180427551,"1":2.118534803390503,"2":-0.6864815950393677,"3":-0.3880755603313446,"4":-2.1739182472229004,"5":2.724518299102783,"6":1.2434465885162354,"7":-0.9944167733192444,"8":2.501981735229492,"9":1.1042160987854004,"10":3.894087791442871,"11":-2.75754714012146,"12":-2.201761484146118,"13":0.8892912268638611,"14":2.6217687129974365,"15":0.1382572203874588,"16":-0.2585701048374176,"17":-2.772298812866211,"18":-1.7588080167770386,"19":-2.129122257232666,"20":-0.3539535701274872,"21":1.9111528396606445,"22":1.448114275932312,"23":1.241814136505127,"24":4.175964832305908,"25":2.665811538696289,"26":-1.5818662643432617,"27":0.771024763584137,"28":0.7018697261810303,"29":-2.0619146823883057,"30":-1.914703130722046,"31":-0.893258273601532,"32":1.6961525678634644,"33":0.3945170044898987,"34":-0.2229543775320053,"35":0.08880656957626343,"36":1.157476544380188,"37":-0.6962620615959167,"38":-1.679146647453308,"39":0.23793737590312958,"40":-0.9919387102127075,"41":-0.559570848941803,"42":1.2568984031677246,"43":-3.6984972953796387,"44":-0.9978036284446716,"45":-1.0319700241088867,"46":-2.415501832962036,"47":0.3690132200717926,"48":0.23862868547439575,"49":0.8726580739021301,"50":2.195192337036133,"51":2.6156647205352783,"52":0.7233211398124695,"53":-0.8742539286613464,"54":4.520639419555664,"55":2.9499807357788086,"56":-2.2123281955718994,"57":-1.1666840314865112,"58":-0.6179672479629517,"59":-3.6502251625061035,"60":-0.2648662328720093,"61":3.275117874145508,"62":0.061442796140909195,"63":2.010282516479492,"64":0.5415997505187988,"65":-1.0198725461959839,"66":-1.2441253662109375,"67":-2.5646049976348877,"68":-1.1668134927749634,"69":-0.3444170653820038,"70":2.0041344165802,"71":0.5402734279632568,"72":0.7126451134681702,"73":3.03031849861145,"74":2.597949981689453,"75":1.5821627378463745,"76":-1.309524416923523,"77":1.1636240482330322,"78":-4.083255767822266,"79":2.6682968139648438,"80":0.35464224219322205,"81":-0.21693289279937744,"82":0.705536961555481,"83":0.9147287607192993,"84":-1.3502376079559326,"85":-0.24440503120422363,"86":0.9523215889930725,"87":2.6416587829589844,"88":3.115813732147217,"89":0.5156483054161072,"90":5.854700088500977,"91":1.7514523267745972,"92":-3.512993574142456,"93":1.5661088228225708,"94":4.468688011169434,"95":1.7412092685699463,"96":-1.6228301525115967,"97":0.09410339593887329,"98":0.04418953135609627,"99":-3.4321000576019287,"100":-0.01729276217520237,"101":-0.7992116212844849,"102":2.693809747695923,"103":-1.7547439336776733,"104":-1.5179253816604614,"105":2.7817904949188232,"106":-2.7314977645874023,"107":-0.7057318091392517,"108":-0.47384485602378845,"109":2.1177332401275635,"110":0.611289381980896,"111":1.3241972923278809,"112":0.6711273193359375,"113":4.96380615234375,"114":2.5625736713409424,"115":-0.4227047562599182,"116":0.8873274922370911,"117":-2.5181806087493896,"118":0.16095341742038727,"119":-1.1148786544799805,"120":-0.05473339557647705,"121":0.1983713060617447,"122":0.9857106804847717,"123":-0.8431479930877686,"124":-0.7921470403671265,"125":4.688786029815674,"126":-1.2655080556869507,"127":-0.7263213992118835,"128":-2.302940845489502,"129":1.2772749662399292,"130":1.9258954524993896,"131":-0.7144281268119812,"132":-0.40866702795028687,"133":3.2425754070281982,"134":-0.521990954875946,"135":0.044025637209415436,"136":3.6980910301208496,"137":-2.6856930255889893,"138":-1.6770800352096558,"139":-0.03710556402802467,"140":1.469481110572815,"141":-0.5246917009353638,"142":-3.0640783309936523,"143":-2.244980812072754,"144":-1.9862403869628906,"145":0.6640369296073914,"146":2.240328788757324,"147":0.5724838972091675,"148":-2.4640281200408936,"149":4.178875923156738,"150":1.678539752960205,