{"type":"LSTM","options":{"inputSize":24,"inputRange":24,"hiddenLayers":[20,20],"outputSize":24,"decayRate":0.999,"smoothEps":1e-8,"regc":0.000001,"clipval":5,"maxPredictionLength":100,"dataFormatter":{"values":["Olá mundo!"," Meu nome é Sonny"," Como posso lhe ajudar?"],"indexTable":{"O":0,"l":1,"á":2," ":3,"m":4,"u":5,"n":6,"d":7,"o":8,"!":9,"M":10,"e":11,"é":12,"S":13,"y":14,"C":15,"p":16,"s":17,"h":18,"a":19,"j":20,"r":21,"?":22,"unrecognized":23},"characterTable":{"0":"O","1":"l","2":"á","3":" ","4":"m","5":"u","6":"n","7":"d","8":"o","9":"!","10":"M","11":"e","12":"é","13":"S","14":"y","15":"C","16":"p","17":"s","18":"h","19":"a","20":"j","21":"r","22":"?","23":null},"characters":["O","l","á"," ","m","u","n","d","o","!","M","e","é","S","y","C","p","s","h","a","j","r","?","unrecognized"],"specialIndexes":[23]}},"input":{"rows":25,"columns":24,"weights":{"0":-0.8593331575393677,"1":-0.036652740091085434,"2":-0.12596969306468964,"3":0.21131101250648499,"4":-0.9701681137084961,"5":0.08184795826673508,"6":-0.28952375054359436,"7":-0.45044398307800293,"8":0.9503563642501831,"9":0.0947791188955307,"10":0.09449339658021927,"11":-0.8019815683364868,"12":-0.7016713619232178,"13":-1.9427433013916016,"14":0.8536085486412048,"15":-0.30421730875968933,"16":0.2851843535900116,"17":-0.1847926676273346,"18":-0.7035306096076965,"19":0.31110456585884094,"20":-0.5481877326965332,"21":0.1548553854227066,"22":0.11224127560853958,"23":0.39908090233802795,"24":-0.4699017107486725,"25":2.4683737754821777,"26":2.366635322570801,"27":0.6753145456314087,"28":-0.39392468333244324,"29":-0.6891705393791199,"30":-0.5098113417625427,"31":-0.6189332008361816,"32":-0.862906277179718,"33":0.4865781366825104,"34":-0.993000864982605,"35":-0.242228701710701,"36":-0.5652551651000977,"37":-1.7040765285491943,"38":0.9120023250579834,"39":0.36847391724586487,"40":-1.9337471723556519,"41":1.1431242227554321,"42":-0.6806260347366333,"43":0.8817326426506042,"44":-0.859818160533905,"45":-0.7409259676933289,"46":-1.0331048965454102,"47":1.269708514213562,"48":-0.8693509101867676,"49":-1.798774003982544,"50":-1.188868522644043,"51":0.20553238689899445,"52":-0.9036194682121277,"53":2.6499440670013428,"54":0.2734273374080658,"55":-0.8933778405189514,"56":0.11295478045940399,"57":-0.6032859683036804,"58":2.277783155441284,"59":-1.0071245431900024,"60":-0.16965341567993164,"61":-0.8880290389060974,"62":0.1844577044248581,"63":-2.407249927520752,"64":1.3941810131072998,"65":-1.663822889328003,"66":0.5771567821502686,"67":-0.5951359868049622,"68":-0.13121159374713898,"69":2.1657869815826416,"70":1.625447154045105,"71":0.053392767906188965,"72":0.3479960262775421,"73":-0.08076287060976028,"74":-0.3291497826576233,"75":1.1617755889892578,"76":-1.3610930442810059,"77":1.3606183528900146,"78":0.38133928179740906,"79":-0.8408183455467224,"80":-0.5772508382797241,"81":-1.5178942680358887,"82":-3.1187217235565186,"83":0.6007225513458252,"84":-0.5331655740737915,"85":0.24938726425170898,"86":0.6904303431510925,"87":2.1068458557128906,"88":-1.8091976642608643,"89":1.6209110021591187,"90":-0.08377877622842789,"91":0.9035571217536926,"92":-0.5440340042114258,"93":-0.425728440284729,"94":-2.0774900913238525,"95":0.8335722088813782,"96":-0.5007464289665222,"97":-0.2627330720424652,"98":-0.37633147835731506,"99":0.5026328563690186,"100":-0.5067594051361084,"101":-0.4164464473724365,"102":-0.6543964147567749,"103":-0.5911977887153625,"104":0.43240490555763245,"105":0.49581295251846313,"106":-0.9211599230766296,"107":-0.4735301733016968,"108":-0.5662621259689331,"109":0.6941097378730774,"110":0.5455722212791443,"111":1.3243626356124878,"112":-0.8976078629493713,"113":1.1630589962005615,"114":-0.5802406668663025,"115":0.44927161931991577,"116":-0.5726619362831116,"117":-1.3792625665664673,"118":-0.5802976489067078,"119":0.3300900459289551,"120":-1.113694429397583,"121":0.36407527327537537,"122":0.3954804539680481,"123":1.7450730800628662,"124":0.15976476669311523,"125":-1.583318829536438,"126":-1.0150517225265503,"127":-0.7668210864067078,"128":0.050090208649635315,"129":1.4983333349227905,"130":0.8884934782981873,"131":-1.0814120769500732,"132":-1.296907663345337,"133":-0.11967407912015915,"134":-0.4447517395019531,"135":0.3135925829410553,"136":1.400707483291626,"137":-1.0564783811569214,"138":-1.3635377883911133,"139":0.9594511389732361,"140":-0.6394152045249939,"141":-0.15832772850990295,"142":1.1845647096633911,"143":-0.0970749706029892,"144":0.5752379894256592,"145":-0.2474883645772934,"146":-0.5577649474143982,"147":-0.3296074867248535,"148":0.7853558659553528,"149":0.570131242275238,"150":-0.07360626012086868,"151":0.998306393623352,"152":-1.2156733274459839,"153":-0.06880498677492142,"154":-0.014231645502150059,"155":0.37937304377555847,"156":0.26430973410606384,"157":0.08844227343797684,"158":-0.3414194881916046,"159":-0.2871873676776886,"160":0.062409065663814545,"161":-0.22878868877887726,"162":0.15716426074504852,"163":0.3668854236602783,"164":0.6744528412818909,"165":-0.5171684622764587,"166":0.20014594495296478,"167":-0.7319449782371521,"168":0.6764262914657593,"169":-1.1566886901855469,"170":1.3554401397705078,"171":-0.665556013584137,"172":1.3202515840530396,"173":0.38475197553634644,"174":0.48702311515808105,"175":1.1074965000152588,"176":-0.6418253183364868,"177":-0.2437717765569687,"178":0.5669748783111572,"179":1.0686105489730835,"180":0.30841049551963806,"181":-1.2360522747039795,"182":-1.4744280576705933,"183":-0.491707980632782,"184":0.9701316356658936,"185":-1.080533504486084,"186":0.1337788999080658,"187":-0.5225628614425659,"188":1.21602201461792,"189":0.5691179633140564,"190":0.7891566157341003,"191":-1.8387624025344849,"192":1.5533709526062012,"193":1.3101680278778076,"194":1.5536237955093384,"195":-1.4977456331253052,"196":0.3161219656467438,"197":-0.5958529114723206,"198":-0.046759333461523056,"199":1.874564528465271,"200":0.07011911273002625,"201":-0.0662708729505539,"202":-0.1845300793647766,"203":1.1637043952941895,"204":1.6500561237335205,"205":0.6150665879249573,"206":-0.0994713082909584,"207":-0.9818289875984192,"208":-1.2229785919189453,"209":1.0392614603042603,"210":0.061148203909397125,"211":-0.16506728529930115,"212":0.3944529592990875,"213":1.2902389764785767,"214":-0.22321508824825287,"215":-0.19779813289642334,"216":-1.277023434638977,"217":0.2774353325366974,"218":-1.1430271863937378,"219":0.7049769759178162,"220":-0.8983331918716431,"221":-0.9244517683982849,"222":-1.0544657707214355,"223":-1.1623352766036987,"224":0.2718210518360138,"225":0.7637629508972168,"226":0.2826608717441559,"227":-1.253367304801941,"228":-0.9921746850013733,"229":-0.48630255460739136,"230":0.7822572588920593,"231":1.417991042137146,"232":-0.6261038780212402,"233":0.7654144167900085,"234":-1.006034255027771,"235":0.7361407279968262,"236":-0.7945433259010315,"237":-1.9210327863693237,"238":0.5745049118995667,"239":0.8481927514076233,"240":1.5694423913955688,"241":-0.41540923714637756,"242":-0.630561888217926,"243":-0.8634995222091675,"244":1.296600580215454,"245":-0.3211880624294281,"246":1.4289939403533936,"247":0.7537593245506287,"248":-1.4411358833312988,"249":-1.712918996810913,"250":-0.3463302552700043,"251":1.346129298210144,"252":1.3884565830230713,"253":1.6746965646743774,"254":-1.2256686687469482,"255":0.3734140992164612,"256":-0.24722884595394135,"257":0.3373836278915405,"258":1.304083228111267,"259":-0.6228206753730774,"260":0.8338421583175659,"261":-0.1476813703775406,"262":-0.1529592126607895,"263":-0.6434027552604675,"264":1.5159211158752441,"265":-1.0279364585876465,"266":-2.177727222442627,"267":-1.4330339431762695,"268":1.3323309421539307,"269":1.1248626708984375,"270":1.058431625366211,"271":1.2869040966033936,"272":-1.2006728649139404,"273":-0.9510093927383423,"274":-0.431100994348526,"275":1.4089211225509644,"276":1.6291543245315552,"277":1.7438420057296753,"278":-1.329276442527771,"279":0.429118812084198,"280":-0.784349799156189,"281":0.721942126750946,"282":1.3462430238723755,"283":-0.8283059597015381,"284":1.3314296007156372,"285":-0.49140021204948425,"286":-0.47350576519966125,"287":-1.2407381534576416,"288":0.14779911935329437,"289":1.003456473350525,"290":0.44076886773109436,"291":0.03159594163298607,"292":0.3328034579753876,"293":-0.1767687052488327,"294":-0.14409463107585907,"295":0.3476424813270569,"296":-0.4735989570617676,"297":-0.0681777223944664,"298":-0.6907398104667664,"299":-0.14160428941249847,"300":0.23042477667331696,"301":1.3262759447097778,"302":-0.1917313188314438,"303":0.2807779312133789,"304":-0.9905566573143005,"305":0.8245593309402466,"306":0.07039251923561096,"307":0.074228934943676,"308":0.017269980162382126,"309":-0.07746610045433044,"310":-0.4567921459674835,"311":-0.018678298220038414,"312":0.12911492586135864,"313":0.7353677749633789,"314":1.5390291213989258,"315":0.44210973381996155,"316":0.27277106046676636,"317":-0.27458328008651733,"318":0.37789642810821533,"319":-0.05088683217763901,"320":0.3287443518638611,"321":-0.5092369914054871,"322":-1.4719055891036987,"323":-0.07876668125391006,"324":0.050599537789821625,"325":-0.20963655412197113,"326":-0.06511110812425613,"327":1.6631593704223633,"328":-1.1162028312683105,"329":1.275838851928711,"330":0.28288841247558594,"331":-0.7219631671905518,"332":0.28504908084869385,"333":-0.9587923288345337,"334":-2.1167778968811035,"335":0.18507879972457886,"336":0.7078266143798828,"337":-0.6385908126831055,"338":-0.5032433271408081,"339":-0.7547807097434998,"340":0.9745001792907715,"341":0.5777693390846252,"342":0.6847323179244995,"343":0.8564547896385193,"344":-0.8410029411315918,"345":-0.6159242391586304,"346":-0.7334585785865784,"347":0.6515930891036987,"348":0.813854992389679,"349":0.8888360261917114,"350":-0.8411939740180969,"351":0.6334125399589539,"352":-0.5818804502487183,"353":0.5631058812141418,"354":0.6658854484558105,"355":-0.6622521877288818,"356":0.8363631367683411,"357":-0.6576112508773804,"358":-0.6550431251525879,"359":-0.7365751266479492,"360":0.04992913827300072,"361":1.2668404579162598,"362":3.616170883178711,"363":0.3164866268634796,"364":-0.25282418727874756,"365":-1.0279592275619507,"366":-0.636630117893219,"367":0.0948987677693367,"368":0.5056307315826416,"369":0.71622234582901,"370":0.34145134687423706,"371":0.023541541770100594,"372":-0.19306805729866028,"373":-0.7584356069564819,"374":0.196320042014122,"375":-0.6074672937393188,"376":0.24320031702518463,"377":-0.1795954555273056,"378":-0.47159525752067566,"379":0.7970987558364868,"380":-0.31848224997520447,"381":1.0882591009140015,"382":0.14360009133815765,"383":0.13826541602611542,"384":-0.842178225517273,"385":2.420700788497925,"386":3.218945026397705,"387":0.09118416905403137,"388":-0.06560971587896347,"389":-1.8699661493301392,"390":-1.9079471826553345,"391":0.12386725842952728,"392":1.4438650608062744,"393":1.5938524007797241,"394":-0.3460133373737335,"395":-0.8881953358650208,"396":-1.308943510055542,"397":-0.9445751309394836,"398":1.2869712114334106,"399":-1.4221848249435425,"400":0.7739476561546326,"401":-0.48385387659072876,"402":-1.5869827270507812,"403":0.3552078902721405,"404":-0.6738867163658142,"405":2.323317289352417,"406":0.20968002080917358,"407":0.8611170053482056,"408":0.7791810035705566,"409":-0.8583779335021973,"410":-0.8824156522750854,"411":-1.2863258123397827,"412":1.3929352760314941,"413":0.42704907059669495,"414":0.11760109663009644,"415":1.6927573680877686,"416":-2.0309858322143555,"417":-0.14417453110218048,"418":-0.4562593996524811,"419":1.0571881532669067,"420":1.071506381034851,"421":3.9548633098602295,"422":-1.3390291929244995,"423":-0.24167712032794952,"424":1.1276359558105469,"425":-1.0752049684524536,"426":-0.0495176836848259,"427":0.08232876658439636,"428":1.068561315536499,"429":-0.3678325116634369,"430":1.9596232175827026,"431":-0.8781054019927979,"432":1.6024870872497559,"433":-1.5153764486312866,"434":-1.4473077058792114,"435":-2.7637712955474854,"436":1.0753567218780518,"437":1.2522231340408325,"438":2.80267333984375,"439":1.0987590551376343,"440":-0.6809815764427185,"441":-3.3288114070892334,"442":0.33355215191841125,"443":1.0320336818695068,"444":2.82598876953125,"445":-1.011122465133667,"446":-1.2668132781982422,"447":-0.6379252672195435,"448":0.012149916030466557,"449":-0.1837919056415558,"450":3.3283870220184326,"451":-1.9304968118667603,"452":1.5724215507507324,"453":0.8985300064086914,"454":-0.6739409565925598,"455":-1.6228516101837158,"456":0.414244681596756,"457":1.5874145030975342,"458":-0.13339869678020477,"459":-0.1205080896615982,"460":0.8590638637542725,"461":-1.3390803337097168,"462":-1.0876390933990479,"463":1.4358540773391724,"464":-0.2777688801288605,"465":1.261517882347107,"466":-0.28227150440216064,"467":0.15811145305633545,"468":0.33881130814552307,"469":2.371398687362671,"470":-0.10796193033456802,"471":0.7018834948539734,"472":-0.5151979327201843,"473":0.5343247652053833,"474":-0.7179288268089294,"475":1.0973737239837646,"476":-0.1153218150138855,"477":-0.4087151885032654,"478":0.6960694789886475,"479":-0.36208850145339966,"480":-0.5705131888389587,"481":0.7107669115066528,"482":-0.28702986240386963,"483":0.8003204464912415,"484":-0.6444407105445862,"485":-0.668411135673523,"486":-0.45785415172576904,"487":-0.933892011642456,"488":0.9760045409202576,"489":0.5949605703353882,"490":-0.8885722160339355,"491":-0.6402934193611145,"492":-0.5108363628387451,"493":0.45012733340263367,"494":0.7356249690055847,"495":1.139076590538025,"496":-1.0041123628616333,"497":1.0804022550582886,"498":-0.4737239480018616,"499":0.5872961282730103,"500":-0.8243024349212646,"501":-1.4778794050216675,"502":-0.8420558571815491,"503":0.8272352814674377,"504":0.9690590500831604,"505":-0.5181803703308105,"506":-0.6594445109367371,"507":-0.9829649329185486,"508":1.1133595705032349,"509":0.4794529676437378,"510":0.5046043992042542,"511":1.023640751838684,"512":-1.1716314554214478,"513":-0.7426799535751343,"514":-0.5307229161262512,"515":0.8684496283531189,"516":0.8602631092071533,"517":1.8066973686218262,"518":-1.130774974822998,"519":0.03486602008342743,"520":-1.3187596797943115,"521":1.2394739389419556,"522":0.6881653070449829,"523":-0.547806978225708,"524":1.0018882751464844,"525":0.22670510411262512,"526":-0.31161126494407654,"527":-1.0813965797424316,"528":0.6171849370002747,"529":-1.698093295097351,"530":-1.9603064060211182,"531":-0.3514268696308136,"532":0.3147006928920746,"533":2.0364534854888916,"534":1.0907279253005981,"535":0.4332413673400879,"536":-1.1198863983154297,"537":-0.7882975339889526,"538":1.5895214080810547,"539":1.0288649797439575,"540":0.877254068851471,"541":-1.8913434743881226,"542":-0.5448876023292542,"543":-2.3867170810699463,"544":0.4541303217411041,"545":-0.8307054042816162,"546":1.1612086296081543,"547":-0.7646958231925964,"548":0.7494726181030273,"549":2.4089648723602295,"550":1.4450054168701172,"551":-0.4664382040500641,"552":0.2534276247024536,"553":1.5055996179580688,"554":2.337476968765259,"555":-0.5815222859382629,"556":0.14387661218643188,"557":-0.9028646349906921,"558":-1.0121530294418335,"559":0.8047426342964172,"560":0.9276142716407776,"561":0.9478046298027039,"562":-0.5613141059875488,"563":0.1824384182691574,"564":0.038239266723394394,"565":-1.2026957273483276,"566":-0.07760016620159149,"567":-0.6915686130523682,"568":-0.13930080831050873,"569":0.32184210419654846,"570":-0.36651375889778137,"571":0.6019929051399231,"572":0.275282621383667,"573":1.194245457649231,"574":0.5621258616447449,"575":0.19839893281459808,"576":0.004586168099194765,"577":-0.028330454602837563,"578":0.07907257229089737,"579":-0.023374278098344803,"580":-0.058397188782691956,"581":-0.05799844115972519,"582":0.07728449255228043,"583":0.05847768858075142,"584":-0.056137144565582275,"585":0.003379471367225051,"586":0.0010002360213547945,"587":-0.04128490015864372,"588":0.030610648915171623,"589":-0.0734744593501091,"590":0.07759381085634232,"591":-0.07199878990650177,"592":-0.022095950320363045,"593":-0.01725754700601101,"594":-0.07772443443536758,"595":-0.003877532435581088,"596":-0.0499090813100338,"597":0.03549806773662567,"598":-0.0019247396849095821,"599":-0.073085717856884}},"hiddenLayers":[{"inputMatrix":{"rows":20,"columns":24,"weights":{"0":-0.8204944133758545,"1":0.9469500184059143,"2":0.6985682249069214,"3":0.5422549843788147,"4":-0.4378541111946106,"5":-0.913234531879425,"6":-1.3418514728546143,"7":-0.4810156524181366,"8":0.3784638047218323,"9":1.1177687644958496,"10":-0.7429394125938416,"11":-1.1572749614715576,"12":-0.7478889226913452,"13":0.2981632351875305,"14":0.7365553975105286,"15":0.6756946444511414,"16":-0.46335965394973755,"17":0.5895001292228699,"18":-1.0462952852249146,"19":0.9020859003067017,"20":-0.6251091361045837,"21":-0.39301276206970215,"22":-0.3960910141468048,"23":0.6758533120155334,"24":-0.2567950487136841,"25":-0.03913470357656479,"26":-1.0030173063278198,"27":-0.17957454919815063,"28":-0.040659066289663315,"29":-0.05461253598332405,"30":-0.14788322150707245,"31":-0.06704399734735489,"32":-0.6985637545585632,"33":-0.14651013910770416,"34":-0.09713160246610641,"35":-0.4607400894165039,"36":0.17736205458641052,"37":0.891457200050354,"38":-0.05616190284490585,"39":0.367147833108902,"40":-0.4357665181159973,"41":0.4445623755455017,"42":0.06264486908912659,"43":0.0652717649936676,"44":-0.07680308073759079,"45":-0.7825415134429932,"46":0.17598658800125122,"47":-0.12357507646083832,"48":-0.4614954888820648,"49":-0.3053683638572693,"50":0.8872714638710022,"51":-0.7756280303001404,"52":0.21204523742198944,"53":0.24725355207920074,"54":-0.17542196810245514,"55":0.6930478811264038,"56":1.126610517501831,"57":0.17017266154289246,"58":0.6851024627685547,"59":-0.39979737997055054,"60":0.022329432889819145,"61":-1.519880771636963,"62":-0.22719885408878326,"63":-0.796743631362915,"64":1.5960345268249512,"65":-1.3970643281936646,"66":-0.15781107544898987,"67":-0.45123574137687683,"68":0.939788818359375,"69":1.5073636770248413,"70":0.841541051864624,"71":-0.9503839612007141,"72":0.6065911650657654,"73":-1.275395154953003,"74":-1.036220908164978,"75":-1.4095479249954224,"76":0.4051114022731781,"77":0.5303230285644531,"78":0.40218648314476013,"79":0.5629194378852844,"80":-0.2615816593170166,"81":-0.3318541347980499,"82":0.7534253001213074,"83":0.7843284606933594,"84":0.9484199285507202,"85":0.2577321529388428,"86":-0.521085262298584,"87":-1.048998236656189,"88":0.26041877269744873,"89":-0.3767097592353821,"90":0.5230867266654968,"91":-0.543441653251648,"92":0.5526003241539001,"93":0.5312665700912476,"94":0.7053977847099304,"95":-0.393869549036026,"96":0.4689983129501343,"97":-0.8269156217575073,"98":-1.3329746723175049,"99":-0.6245874762535095,"100":0.06725721061229706,"101":1.0083191394805908,"102":0.14400391280651093,"103":0.5666186213493347,"104":-0.5403881072998047,"105":-0.20143768191337585,"106":-0.2210017889738083,"107":0.4708103537559509,"108":0.4870108366012573,"109":1.0975432395935059,"110":0.19470176100730896,"111":-0.4752587080001831,"112":-0.15054844319820404,"113":0.12494242191314697,"114":0.2445027083158493,"115":-0.08273275196552277,"116":0.37084195017814636,"117":-0.12839482724666595,"118":0.3054567873477936,"119":-0.09075278788805008,"120":-0.7835572361946106,"121":1.0022696256637573,"122":0.2343742847442627,"123":0.9034339785575867,"124":-0.2942519187927246,"125":-0.35284295678138733,"126":-0.6634611487388611,"127":-0.3522622287273407,"128":0.40447574853897095,"129":0.11259539425373077,"130":-0.6438629627227783,"131":-1.1995233297348022,"132":-0.7682971954345703,"133":0.12556973099708557,"134":0.4180561900138855,"135":1.0827796459197998,"136":0.1674875020980835,"137":-0.04311738163232803,"138":-0.5561189651489258,"139":0.5844912528991699,"140":-0.25160977244377136,"141":-1.0190908908843994,"142":-0.3692679703235626,"143":0.17921389639377594,"144":-0.5330609083175659,"145":1.723093032836914,"146":-0.03320607542991638,"147":0.2301957905292511,"148":-0.5191172957420349,"149":-0.4562285542488098,"150":-0.5807766914367676,"151":-0.35465407371520996,"152":-0.3620625436306,"153":-0.014934596605598927,"154":-0.5263651609420776,"155":-0.7441955804824829,"156":-0.37813040614128113,"157":-0.20439954102039337,"158":0.7362476587295532,"159":0.35654693841934204,"160":-0.7044293880462646,"161":0.7741416692733765,"162":-0.5073012113571167,"163":0.6378546953201294,"164":-0.4996883273124695,"165":-0.5165926218032837,"166":-0.2364639788866043,"167":0.7418399453163147,"168":1.1050660610198975,"169":-0.4489690363407135,"170":-0.4848472476005554,"171":-0.6790517568588257,"172":0.9405214190483093,"173":0.08245203644037247,"174":0.4584677219390869,"175":1.1565654277801514,"176":-0.5777946710586548,"177":-0.071385957300663,"178":-0.2903019189834595,"179":1.1842447519302368,"180":0.8035649657249451,"181":0.5140880942344666,"182":-0.7426210641860962,"183":0.10293044149875641,"184":0.08775532990694046,"185":-0.15523217618465424,"186":0.3131282925605774,"187":-0.04758848994970322,"188":0.7721854448318481,"189":-0.33263322710990906,"190":0.130262553691864,"191":-0.7866842746734619,"192":0.6795966029167175,"193":-0.751992404460907,"194":-0.42856767773628235,"195":-1.01166570186615,"196":0.6919596195220947,"197":1.0063204765319824,"198":0.8672898411750793,"199":0.5941293239593506,"200":-0.8531993627548218,"201":-1.3586647510528564,"202":0.22736187279224396,"203":0.2944459915161133,"204":1.0437813997268677,"205":0.17275729775428772,"206":-1.0367300510406494,"207":-0.37383341789245605,"208":0.03547029569745064,"209":-0.09917110204696655,"210":1.2509851455688477,"211":-1.070464849472046,"212":0.9646047353744507,"213":0.31238260865211487,"214":0.3099665939807892,"215":-0.4567278027534485,"216":0.37488773465156555,"217":0.8398724794387817,"218":1.647291898727417,"219":-0.3509010374546051,"220":0.11684814095497131,"221":-0.6072525978088379,"222":-0.8292592763900757,"223":0.9481915235519409,"224":0.05288773402571678,"225":0.73539799451828,"226":0.09728234261274338,"227":-0.1534494012594223,"228":0.4997607171535492,"229":0.03834718093276024,"230":0.5582325458526611,"231":-1.2258541584014893,"232":-0.8073598146438599,"233":0.8964990377426147,"234":-0.2555592954158783,"235":0.349860280752182,"236":-0.6257097125053406,"237":0.7693428993225098,"238":0.0991462916135788,"239":0.5303256511688232,"240":-0.3044232428073883,"241":-0.4317629337310791,"242":0.16653889417648315,"243":0.368312269449234,"244":0.3643431067466736,"245":0.2763361930847168,"246":-0.3449352979660034,"247":0.48588526248931885,"248":-0.5521235466003418,"249":0.6587377190589905,"250":0.6885122060775757,"251":0.13540714979171753,"252":-0.6825214624404907,"253":0.05938710644841194,"254":-0.2132887840270996,"255":-1.188547134399414,"256":1.8756264448165894,"257":-2.1179466247558594,"258":-0.7624831795692444,"259":0.3038715422153473,"260":0.0349922813475132,"261":0.3253933787345886,"262":2.0376369953155518,"263":-0.4043768346309662,"264":1.2083072662353516,"265":-0.4877450168132782,"266":-0.6648969650268555,"267":-0.9058110117912292,"268":0.857252836227417,"269":0.3641422986984253,"270":0.469388484954834,"271":1.4267138242721558,"272":-0.6875786781311035,"273":-0.06663420796394348,"274":0.06703182309865952,"275":1.3017942905426025,"276":0.8994632363319397,"277":0.909419059753418,"278":-0.7834104299545288,"279":-0.5267055630683899,"280":0.23737545311450958,"281":-0.36119064688682556,"282":0.41879451274871826,"283":0.06556999683380127,"284":0.8943086862564087,"285":0.2678169012069702,"286":0.5174219608306885,"287":-0.9506562352180481,"288":0.8108614683151245,"289":-0.7675946950912476,"290":-0.719380259513855,"291":-1.0791316032409668,"292":0.6649232506752014,"293":0.7540759444236755,"294":0.24864986538887024,"295":0.9716336727142334,"296":-0.720573902130127,"297":-0.3661230206489563,"298":0.49584847688674927,"299":0.646049439907074,"300":0.6843110918998718,"301":0.8755603432655334,"302":-0.5741214156150818,"303":-0.9342016577720642,"304":0.3694254755973816,"305":-0.5107923746109009,"306":0.44696271419525146,"307":-0.1364719420671463,"308":0.7969598174095154,"309":0.8728067278862,"310":0.7031705379486084,"311":-0.9357138872146606,"312":-0.32082369923591614,"313":-0.481874018907547,"314":-1.2288330793380737,"315":0.6838021278381348,"316":0.7029725909233093,"317":-0.20355863869190216,"318":-0.29224893450737,"319":-0.3000645637512207,"320":-0.5438104271888733,"321":-0.08085283637046814,"322":-0.47232159972190857,"323":-0.44299909472465515,"324":-0.34224456548690796,"325":2.731292247772217,"326":-0.7392600774765015,"327":1.7583192586898804,"328":-0.09120649844408035,"329":0.5299954414367676,"330":-0.1446792334318161,"331":0.20202907919883728,"332":0.13978715240955353,"333":-1.1989134550094604,"334":-0.019289636984467506,"335":-0.8684702515602112,"336":0.28648170828819275,"337":-1.2889381647109985,"338":-1.1165536642074585,"339":-0.2666061818599701,"340":0.49776774644851685,"341":0.9037383198738098,"342":0.25144162774086,"343":0.5469611883163452,"344":-0.7487618327140808,"345":-0.016935361549258232,"346":0.5712483525276184,"347":0.7634689211845398,"348":-0.013736669905483723,"349":-0.14821720123291016,"350":-0.5952479839324951,"351":-0.6585603356361389,"352":0.6671856045722961,"353":-0.7193295955657959,"354":0.19041860103607178,"355":-0.014120195060968399,"356":0.3281506299972534,"357":0.2962426245212555,"358":0.708251416683197,"359":-0.756299614906311,"360":-0.6467480063438416,"361":0.6928051710128784,"362":0.6132378578186035,"363":0.7094746828079224,"364":0.0020001064985990524,"365":-1.0366897583007812,"366":-0.6937814354896545,"367":-0.47835710644721985,"368":1.7511743307113647,"369":1.321660041809082,"370":0.38881465792655945,"371":-0.697252631187439,"372":-0.5620276927947998,"373":0.2668449878692627,"374":0.17559850215911865,"375":-0.39092981815338135,"376":0.6098155379295349,"377":-0.411363810300827,"378":-0.7909486293792725,"379":0.45183855295181274,"380":-0.6384473443031311,"381":0.22140301764011383,"382":0.19053532183170319,"383":0.09778877347707748,"384":0.5870108604431152,"385":-0.8466758131980896,"386":-1.0785084962844849,"387":-0.6105753183364868,"388":0.5792856812477112,"389":0.5413103699684143,"390":0.421586275100708,"391":0.4861714541912079,"392":-0.41141223907470703,"393":-0.12651565670967102,"394":0.5798279643058777,"395":0.6097328066825867,"396":0.6706570982933044,"397":0.839531660079956,"398":-0.5207552909851074,"399":-0.692124605178833,"400":0.005940102972090244,"401":-0.09692244231700897,"402":0.32198047637939453,"403":-0.07216513901948929,"404":0.15665285289287567,"405":0.6130146384239197,"406":0.6881455779075623,"407":-0.4925610423088074,"408":-0.5060915350914001,"409":1.1501045227050781,"410":0.4678798317909241,"411":0.014964093454182148,"412":-0.4764672815799713,"413":-1.1261582374572754,"414":-1.3883752822875977,"415":0.22529789805412292,"416":0.5743392109870911,"417":1.0152761936187744,"418":-0.5891863107681274,"419":-0.7140865921974182,"420":-0.2794291079044342,"421":0.2817370593547821,"422":0.8004080057144165,"423":0.39438003301620483,"424":-0.7026959657669067,"425":0.7576284408569336,"426":-1.1211252212524414,"427":0.8714507222175598,"428":-0.43377918004989624,"429":-0.1623172014951706,"430":-0.13277862966060638,"431":0.48756977915763855,"432":-0.9749969244003296,"433":-0.13532228767871857,"434":-0.8687275648117065,"435":0.7541773319244385,"436":-0.30337458848953247,"437":0.13190992176532745,"438":-0.42663681507110596,"439":-0.953371524810791,"440":-0.31626006960868835,"441":0.14699217677116394,"442":-0.10035712271928787,"443":-0.8521001935005188,"444":-0.7456855773925781,"445":-0.10455332696437836,"446":0.07723987102508545,"447":0.6510279178619385,"448":0.005987377837300301,"449":-0.012611509300768375,"450":-0.34707531332969666,"451":0.5128942131996155,"452":-0.0179686788469553,"453":-0.7472131848335266,"454":0.5590162873268127,"455":-0.716154158115387,"456":0.13330188393592834,"457":-0.5611093044281006,"458":-0.8938135504722595,"459":-0.775405764579773,"460":0.38304197788238525,"461":0.933874785900116,"462":0.484407901763916,"463":-0.00004350207018433139,"464":-0.533532440662384,"465":-0.8605650663375854,"466":0.5721995234489441,"467":-0.2829885184764862,"468":0.6414031386375427,"469":0.6671501398086548,"470":-0.6006675958633423,"471":-0.3937476575374603,"472":-0.07433805614709854,"473":0.04301206022500992,"474":0.921535849571228,"475":-1.008782982826233,"476":0.4658470153808594,"477":0.291816771030426,"478":0.6613554358482361,"479":-0.33601251244544983}},"inputHidden":{"rows":20,"columns":20,"weights":{"0":0.012577222660183907,"1":0.3819083571434021,"2":-0.4230583906173706,"3":-0.22414155304431915,"4":0.516910970211029,"5":-0.019538145512342453,"6":-0.08034616708755493,"7":-0.3910564184188843,"8":0.25061219930648804,"9":0.20804348587989807,"10":0.17329953610897064,"11":-0.10382071137428284,"12":0.00023277448781300336,"13":0.4020845890045166,"14":0.36648303270339966,"15":0.15262790024280548,"16":0.12313396483659744,"17":-0.12252184748649597,"18":-0.23579831421375275,"19":0.24513645470142365,"20":1.6356797218322754,"21":-1.2776788473129272,"22":-0.08592651784420013,"23":0.8000545501708984,"24":-1.151843786239624,"25":1.0904686450958252,"26":1.5042824745178223,"27":0.9366878271102905,"28":-0.7644226551055908,"29":0.40342190861701965,"30":1.7939167022705078,"31":1.1033799648284912,"32":1.7056214809417725,"33":-2.0433948040008545,"34":-0.9410182237625122,"35":-0.3124184310436249,"36":-0.6656083464622498,"37":1.2012231349945068,"38":1.8501840829849243,"39":0.5957722067832947,"40":-0.09292975068092346,"41":0.11206451803445816,"42":0.9164829254150391,"43":-0.6293302774429321,"44":0.2834506332874298,"45":-0.18750400841236115,"46":0.22171436250209808,"47":-0.11040360480546951,"48":-0.060340505093336105,"49":-0.7703010439872742,"50":0.3069292902946472,"51":0.5332468152046204,"52":-0.8240135312080383,"53":0.4157455861568451,"54":0.09208322316408157,"55":-0.2896486222743988,"56":0.0500783771276474,"57":-0.10672065615653992,"58":-0.020771564915776253,"59":-0.40514853596687317,"60":-0.4984700679779053,"61":-0.11454716324806213,"62":0.6216275691986084,"63":0.2822887599468231,"64":-1.0071557760238647,"65":0.0346822515130043,"66":-0.5280705690383911,"67":0.3697125315666199,"68":-0.07557394355535507,"69":-0.5286349058151245,"70":0.8108524084091187,"71":0.5820200443267822,"72":-0.5286162495613098,"73":0.7293539047241211,"74":-0.01958662085235119,"75":0.5702178478240967,"76":-0.45874062180519104,"77":-0.5172132849693298,"78":-0.4612537622451782,"79":-0.029513051733374596,"80":-0.46113982796669006,"81":-0.8782628774642944,"82":-1.0566126108169556,"83":2.2998716831207275,"84":-1.9283292293548584,"85":0.46372854709625244,"86":-0.044217709451913834,"87":0.8873310089111328,"88":-2.2777538299560547,"89":0.8955811858177185,"90":0.34673774242401123,"91":-0.09265108406543732,"92":1.9526829719543457,"93":0.08601527661085129,"94":-1.5154012441635132,"95":0.2173004448413849,"96":-1.8814420700073242,"97":-0.2927727699279785,"98":-0.17200379073619843,"99":2.363037109375,"100":0.5296239852905273,"101":0.40130048990249634,"102":-0.6489924788475037,"103":-1.0438836812973022,"104":0.7666096091270447,"105":0.40139397978782654,"106":0.554367184638977,"107":-0.7772975564002991,"108":0.19709061086177826,"109":0.6174623966217041,"110":0.47487157583236694,"111":-0.7715131640434265,"112":0.044380251318216324,"113":-0.442476361989975,"114":0.3731945753097534,"115":-0.17209208011627197,"116":0.4149869978427887,"117":0.41483983397483826,"118":0.4442957043647766,"119":-0.28494128584861755,"120":0.22023099660873413,"121":1.0014450550079346,"122":-0.26006197929382324,"123":-0.9223273992538452,"124":0.929530143737793,"125":0.43639686703681946,"126":0.22916220128536224,"127":-1.3043713569641113,"128":1.0839051008224487,"129":0.6365900039672852,"130":0.12013832479715347,"131":-1.0712348222732544,"132":-1.3036184310913086,"133":-0.023637263104319572,"134":1.2825732231140137,"135":-0.08863593637943268,"136":1.0095276832580566,"137":0.19429369270801544,"138":0.18122869729995728,"139":-0.9472572803497314,"140":-0.9167389869689941,"141":-0.43642327189445496,"142":-0.22852447628974915,"143":-0.1999155431985855,"144":0.31956031918525696,"145":0.20017479360103607,"146":-0.9134476780891418,"147":0.045096710324287415,"148":0.19579210877418518,"149":-0.27729350328445435,"150":1.1300406455993652,"151":0.34662923216819763,"152":-0.9530137777328491,"153":0.712573230266571,"154":0.6947899460792542,"155":0.241873636841774,"156":0.3063907325267792,"157":-1.0060923099517822,"158":-0.9989578127861023,"159":0.36090174317359924,"160":0.24884413182735443,"161":0.5955618023872375,"162":-0.27076059579849243,"163":-0.3357110023498535,"164":-0.10517904907464981,"165":0.5255239009857178,"166":0.12314571440219879,"167":-0.30339762568473816,"168":0.1628044992685318,"169":0.47615134716033936,"170":0.42730337381362915,"171":-0.13785433769226074,"172":-0.810221254825592,"173":-0.3803786039352417,"174":0.7642171382904053,"175":-0.5133991837501526,"176":0.3679710626602173,"177":0.36238810420036316,"178":0.002533298684284091,"179":-0.5993671417236328,"180":-0.5883690714836121,"181":-0.7162883877754211,"182":-0.5797023177146912,"183":0.37232592701911926,"184":-0.3544260859489441,"185":0.003310062689706683,"186":-0.45477521419525146,"187":0.21545010805130005,"188":-0.2988635003566742,"189":-0.3928215503692627,"190":0.7380523085594177,"191":0.4231235682964325,"192":-0.8155306577682495,"193":0.8202416300773621,"194":0.8470580577850342,"195":1.0877097845077515,"196":-0.28262653946876526,"197":-0.6953341960906982,"198":-0.5027697682380676,"199":0.5394852161407471,"200":0.22685833275318146,"201":-0.545604944229126,"202":-0.03881334140896797,"203":0.771623969078064,"204":-0.06480249017477036,"205":0.30052468180656433,"206":0.26393428444862366,"207":1.0945003032684326,"208":-1.1179929971694946,"209":-0.6596900224685669,"210":-0.6166282892227173,"211":0.1216406375169754,"212":0.8113170862197876,"213":0.07519906759262085,"214":-0.34418001770973206,"215":0.021530983969569206,"216":-0.8459671139717102,"217":0.2719864249229431,"218":0.12099942564964294,"219":0.11959253996610641,"220":-0.7283560037612915,"221":0.08161567151546478,"222":-0.3358621895313263,"223":-0.37147390842437744,"224":0.4394109547138214,"225":0.17062759399414062,"226":-0.6996790170669556,"227":-0.3268018066883087,"228":0.4506738483905792,"229":0.10577180236577988,"230":0.940650999546051,"231":0.23259755969047546,"232":-1.1542677879333496,"233":0.22676482796669006,"234":0.7217131853103638,"235":0.65870600938797,"236":0.3357081711292267,"237":-0.7307448387145996,"238":-0.727883517742157,"239":0.31455641984939575,"240":-0.2892669141292572,"241":-0.27238988876342773,"242":-0.9739037752151489,"243":0.36192792654037476,"244":0.14087706804275513,"245":0.3877560496330261,"246":-0.4028012454509735,"247":-0.43633729219436646,"248":-1.6786162853240967,"249":1.0639029741287231,"250":1.0156245231628418,"251":-0.46309393644332886,"252":0.247023344039917,"253":-0.03880658373236656,"254":0.2834380567073822,"255":-0.0633595883846283,"256":-0.5881949067115784,"257":-0.2997969090938568,"258":-0.41792032122612,"259":1.2753655910491943,"260":0.6325876712799072,"261":0.033711668103933334,"262":0.600962221622467,"263":-0.5917917490005493,"264":0.7621088027954102,"265":0.13141922652721405,"266":0.3189676105976105,"267":-0.42324018478393555,"268":-0.13431808352470398,"269":-0.19248205423355103,"270":-0.4227122366428375,"271":-0.42901477217674255,"272":0.1731204092502594,"273":0.51276695728302,"274":-0.08437760174274445,"275":-1.0545378923416138,"276":0.25098100304603577,"277":0.44167575240135193,"278":0.37834128737449646,"279":-0.30387890338897705,"280":-0.4381701946258545,"281":-0.7169406414031982,"282":-0.2927435040473938,"283":1.1326109170913696,"284":-0.6254845857620239,"285":0.5130009055137634,"286":-0.3755800426006317,"287":1.0815352201461792,"288":-0.9868847727775574,"289":-0.3861123323440552,"290":-0.10878495872020721,"291":0.5481957793235779,"292":-0.3562796711921692,"293":0.6798830032348633,"294":-0.16268368065357208,"295":0.8081080913543701,"296":-1.0368467569351196,"297":-0.34018683433532715,"298":-0.3804134726524353,"299":0.9382414817810059,"300":-0.3515850007534027,"301":-0.8425000905990601,"302":2.7059526443481445,"303":-1.0849637985229492,"304":0.5255693197250366,"305":-0.8825917840003967,"306":-0.45578423142433167,"307":-1.1370837688446045,"308":0.8089008927345276,"309":0.35278967022895813,"310":0.9141380190849304,"311":-0.6037580370903015,"312":-1.2117704153060913,"313":0.34699296951293945,"314":0.6985663771629333,"315":-1.196001648902893,"316":1.0065571069717407,"317":-0.4038480818271637,"318":-0.5617700815200806,"319":-0.8019211292266846,"320":-1.0742648839950562,"321":0.009807686321437359,"322":-0.22939790785312653,"323":0.019675614312291145,"324":-0.11314158886671066,"325":-0.33886778354644775,"326":-1.211633324623108,"327":0.5079985857009888,"328":-0.42165789008140564,"329":-1.4918040037155151,"330":1.393389105796814,"331":0.875511646270752,"332":-1.311955451965332,"333":0.6637882590293884,"334":0.873803973197937,"335":0.19563505053520203,"336":-0.2145237773656845,"337":-1.1918243169784546,"338":-1.3661412000656128,"339":0.5281465649604797,"340":0.28574034571647644,"341":0.26808595657348633,"342":0.04857074096798897,"343":-0.37877580523490906,"344":0.4993665814399719,"345":0.21934662759304047,"346":-0.13531433045864105,"347":-0.8589107990264893,"348":0.4203263521194458,"349":1.4309052228927612,"350":0.27018675208091736,"351":-0.12534627318382263,"352":-0.13510450720787048,"353":0.16964463889598846,"354":0.5365934371948242,"355":-0.46653351187705994,"356":0.22635364532470703,"357":0.08587634563446045,"358":-0.1313515603542328,"359":0.1727420836687088,"360":-0.3327743709087372,"361":1.2559070587158203,"362":-0.07923903316259384,"363":-0.7858026623725891,"364":1.042917251586914,"365":-0.3293953835964203,"366":-0.40395039319992065,"367":-0.6732804775238037,"368":0.8880729675292969,"369":0.15245117247104645,"370":-0.43961936235427856,"371":-0.7655713558197021,"372":-1.190229892730713,"373":0.2716553807258606,"374":1.074838399887085,"375":0.000352261820808053,"376":0.641810417175293,"377":-0.25971728563308716,"378":-0.4372509717941284,"379":-0.846592903137207,"380":-0.31028464436531067,"381":-0.06499074399471283,"382":0.19174912571907043,"383":-0.40498802065849304,"384":0.10913046449422836,"385":-0.10394234210252762,"386":-0.5170055627822876,"387":-0.3281876742839813,"388":0.9354745149612427,"389":-0.7331193685531616,"390":0.29157745838165283,"391":-0.08972250670194626,"392":-1.5190465450286865,"393":0.4002002477645874,"394":0.8982375860214233,"395":-0.005761801265180111,"396":0.36222729086875916,"397":-0.24827654659748077,"398":-0.4667718708515167,"399":-0.6352865099906921}},"inputBias":{"rows":20,"columns":1,"weights":{"0":0.585106611251831,"1":-0.654790997505188,"2":0.928023099899292,"3":-0.5833856463432312,"4":-0.34467828273773193,"5":0.8650549650192261,"6":0.8521865010261536,"7":-0.4669671654701233,"8":-0.5375906229019165,"9":-0.4518204927444458,"10":-0.8978096842765808,"11":-0.16826103627681732,"12":-0.4834793210029602,"13":-0.03617109730839729,"14":-0.31193408370018005,"15":0.9740649461746216,"16":-0.5913887023925781,"17":0.7292871475219727,"18":0.6553823947906494,"19":-0.6046464443206787}},"forgetMatrix":{"rows":20,"columns":24,"weights":{"0":-0.7606531977653503,"1":0.19228993356227875,"2":-0.10730220377445221,"3":0.5204069018363953,"4":-0.6254825592041016,"5":-0.6134583950042725,"6":-0.6719474792480469,"7":-0.7182990908622742,"8":0.08389218896627426,"9":1.0000874996185303,"10":-0.10642289370298386,"11":-0.5068867802619934,"12":-0.7664598226547241,"13":-0.05164770036935806,"14":0.6692476868629456,"15":0.11717180162668228,"16":-0.23039573431015015,"17":0.15401743352413177,"18":-0.9337705373764038,"19":0.9687566757202148,"20":-0.7898281216621399,"21":-0.5021292567253113,"22":0.06434538960456848,"23":0.5858568549156189,"24":0.21671447157859802,"25":0.6535394787788391,"26":0.3494189977645874,"27":0.7454754114151001,"28":-0.16858850419521332,"29":-0.1381095051765442,"30":-0.06868322193622589,"31":-0.4503108263015747,"32":0.11126487702131271,"33":-0.03289886564016342,"34":-0.45123761892318726,"35":0.0683225467801094,"36":-0.24009756743907928,"37":0.1884971261024475,"38":0.32081761956214905,"39":0.8912706971168518,"40":-1.4537506103515625,"41":1.350967288017273,"42":0.033416252583265305,"43":0.08818370848894119,"44":-0.37477871775627136,"45":-0.7113304734230042,"46":-1.0972678661346436,"47":0.09245214611291885,"48":0.27119046449661255,"49":0.1560288816690445,"50":-0.37387195229530334,"51":-0.128579244017601,"52":-0.7075851559638977,"53":0.0887208878993988,"54":0.1480478197336197,"55":-0.16630448400974274,"56":1.0009245872497559,"57":-0.3541004955768585,"58":-0.22980272769927979,"59":0.10936382412910461,"60":0.3199434280395508,"61":-0.30855342745780945,"62":0.5357649326324463,"63":-0.14381809532642365,"64":-0.5538187026977539,"65":0.659212589263916,"66":0.496491014957428,"67":-0.10232695937156677,"68":-0.3333142399787903,"69":0.5566197633743286,"70":-0.49792200326919556,"71":0.27884015440940857,"72":-0.2028583288192749,"73":1.3020678758621216,"74":0.08188972622156143,"75":0.3695935606956482,"76":-0.16301468014717102,"77":-0.4702722430229187,"78":-0.8506256341934204,"79":0.20446152985095978,"80":-0.0240122452378273,"81":0.57585209608078,"82":-0.3929084837436676,"83":-0.35753780603408813,"84":-0.3601546585559845,"85":1.3278334140777588,"86":0.27769505977630615,"87":0.15977410972118378,"88":-0.7850186228752136,"89":0.645883321762085,"90":-0.7095524668693542,"91":0.8264883160591125,"92":-0.3545328974723816,"93":-0.7386175394058228,"94":0.10741699486970901,"95":0.08720201253890991,"96":-0.27321657538414,"97":0.35336625576019287,"98":0.49340102076530457,"99":-0.016179747879505157,"100":-0.9774497151374817,"101":0.5079680681228638,"102":0.02965272217988968,"103":-0.388790100812912,"104":0.5715538263320923,"105":-0.4844841957092285,"106":-0.8729466199874878,"107":-0.2613816261291504,"108":-0.17794974148273468,"109":-0.23058690130710602,"110":0.9646440148353577,"111":-0.17968066036701202,"112":-0.9636791944503784,"113":0.976344883441925,"114":0.17246787250041962,"115":-0.3181559145450592,"116":-0.25878381729125977,"117":-0.02325398661196232,"118":-0.9996766448020935,"119":0.7219080328941345,"120":-1.4742845296859741,"121":-0.5360764861106873,"122":-0.31563761830329895,"123":0.18556182086467743,"124":-1.449265718460083,"125":-0.714037299156189,"126":-1.6217460632324219,"127":-0.8194296956062317,"128":1.2409948110580444,"129":0.8579204082489014,"130":-0.42138755321502686,"131":-1.3160078525543213,"132":-1.4374054670333862,"133":-0.4756403863430023,"134":0.9971615672111511,"135":0.5780233144760132,"136":0.056008100509643555,"137":0.18903236091136932,"138":-1.6251221895217896,"139":0.3575344383716583,"140":-0.7370259761810303,"141":-0.5176681280136108,"142":0.5537628531455994,"143":0.14571192860603333,"144":-1.0537047386169434,"145":0.056590478867292404,"146":0.1168455109000206,"147":0.5095253586769104,"148":-0.9593364000320435,"149":-0.4969714879989624,"150":-0.9361825585365295,"151":-1.2910219430923462,"152":0.43076688051223755,"153":1.32903254032135,"154":0.0620858408510685,"155":-0.3272511661052704,"156":-1.1439623832702637,"157":-0.6794727444648743,"158":1.307349443435669,"159":0.04320850595831871,"160":-0.09198177605867386,"161":-0.050849851220846176,"162":-1.1896252632141113,"163":1.1623458862304688,"164":-0.9907211661338806,"165":-0.45583173632621765,"166":0.1128726601600647,"167":0.8481518626213074,"168":-0.11131145060062408,"169":0.4586820602416992,"170":0.9534032940864563,"171":0.3882570266723633,"172":0.10858885943889618,"173":-0.1862907111644745,"174":-0.5702883005142212,"175":0.22778524458408356,"176":-0.19442963600158691,"177":0.498535692691803,"178":-0.731224775314331,"179":0.1331574022769928,"180":-0.5422534346580505,"181":0.7445629239082336,"182":0.2254287302494049,"183":0.155539870262146,"184":-0.15353283286094666,"185":0.0012173389550298452,"186":-0.7443069219589233,"187":0.7436596751213074,"188":-0.13811242580413818,"189":-0.39195168018341064,"190":0.19266100227832794,"191":0.0765070840716362,"192":0.6690636873245239,"193":0.6837648153305054,"194":0.9962307810783386,"195":-0.6905454397201538,"196":1.048214077949524,"197":-0.3453494906425476,"198":0.21314726769924164,"199":0.9491884708404541,"200":-0.17703242599964142,"201":0.06485675275325775,"202":0.5267704129219055,"203":0.361295223236084,"204":0.8021566867828369,"205":0.591563880443573,"206":-0.6229376792907715,"207":-0.8444914221763611,"208":0.1256735622882843,"209":-0.18674446642398834,"210":0.20810849964618683,"211":0.006499169394373894,"212":0.39960238337516785,"213":0.7024437189102173,"214":0.889940619468689,"215":-0.5639477968215942,"216":0.3728305399417877,"217":-0.5378012657165527,"218":-0.399067759513855,"219":-0.28371718525886536,"220":0.4977339208126068,"221":0.6044366359710693,"222":0.4873088002204895,"223":0.35094213485717773,"224":-0.1976698786020279,"225":-0.3748833239078522,"226":0.3066280782222748,"227":0.4571949541568756,"228":0.33198121190071106,"229":0.33206579089164734,"230":-0.6309537887573242,"231":-0.24807938933372498,"232":0.489337295293808,"233":-0.5172166228294373,"234":0.38023898005485535,"235":-0.46610963344573975,"236":0.4449072778224945,"237":0.1661451905965805,"238":0.2650871276855469,"239":-0.5400798916816711,"240":-1.1115628480911255,"241":0.6133556962013245,"242":0.20926468074321747,"243":0.8025959730148315,"244":-1.0072687864303589,"245":-0.68822181224823,"246":-0.8157193660736084,"247":-1.1583447456359863,"248":0.787687361240387,"249":0.712759256362915,"250":-0.6544533371925354,"251":-1.1192171573638916,"252":-0.9640641808509827,"253":-0.41963011026382446,"254":0.9653218388557434,"255":0.5858001708984375,"256":-0.440029501914978,"257":0.6355698108673096,"258":-0.8981196284294128,"259":0.5749959349632263,"260":-1.1696802377700806,"261":-0.4057374596595764,"262":-0.029031910002231598,"263":1.1062700748443604,"264":-0.6457086205482483,"265":0.3437921404838562,"266":0.42091700434684753,"267":0.6339148879051208,"268":-0.9193080067634583,"269":-0.11008696258068085,"270":-0.17424160242080688,"271":-0.6883008480072021,"272":0.2192462980747223,"273":0.03584149852395058,"274":-0.6963721513748169,"275":-0.8022909164428711,"276":-0.5951962471008301,"277":-0.10682199150323868,"278":0.5855892300605774,"279":0.12537719309329987,"280":-0.8280872106552124,"281":0.8914437890052795,"282":-0.3245656490325928,"283":0.4018033444881439,"284":-0.8522716760635376,"285":-0.0490117184817791,"286":-0.6978068351745605,"287":0.5590863823890686,"288":0.3062712550163269,"289":-1.144866704940796,"290":0.17885923385620117,"291":-0.3018810451030731,"292":0.20634150505065918,"293":0.7409285306930542,"294":0.3527173101902008,"295":0.20409256219863892,"296":-0.28321725130081177,"297":-0.3775557577610016,"298":0.167210191488266,"299":0.48377925157546997,"300":0.1833871603012085,"301":-1.0423738956451416,"302":-0.20878715813159943,"303":-0.7230170965194702,"304":0.36623796820640564,"305":-0.6028135418891907,"306":0.23337577283382416,"307":-0.10301749408245087,"308":0.41426414251327515,"309":-0.1280527114868164,"310":0.17009127140045166,"311":-0.5413791537284851,"312":-0.054896410554647446,"313":-0.812728226184845,"314":-0.9496474266052246,"315":-0.3608027994632721,"316":-0.6687237620353699,"317":0.6164693832397461,"318":-0.03377779945731163,"319":-0.43597957491874695,"320":0.1043003648519516,"321":0.14885814487934113,"322":0.20657163858413696,"323":0.12377192825078964,"324":0.026492876932024956,"325":-0.5262702703475952,"326":0.4373820722103119,"327":0.040492862462997437,"328":-0.033664900809526443,"329":0.042812447994947433,"330":-0.0002718846080824733,"331":0.1100497767329216,"332":0.04444856941699982,"333":-0.32633671164512634,"334":0.30339327454566956,"335":-0.09760904312133789,"336":-0.14051808416843414,"337":0.005264112260192633,"338":0.6819771528244019,"339":0.44138064980506897,"340":0.3630421459674835,"341":0.2961448132991791,"342":-0.6461318135261536,"343":0.48479390144348145,"344":-0.9794095754623413,"345":0.6214067339897156,"346":-0.46954408288002014,"347":0.2869334816932678,"348":-0.6545292139053345,"349":0.33904650807380676,"350":-0.14319027960300446,"351":0.5155267715454102,"352":0.14169417321681976,"353":-0.41091883182525635,"354":-0.8211959004402161,"355":0.9202588796615601,"356":0.007615418639034033,"357":-1.0830633640289307,"358":0.3890034556388855,"359":-0.257518470287323,"360":0.25173595547676086,"361":-0.7447577118873596,"362":-0.505907416343689,"363":0.13329963386058807,"364":-0.21257369220256805,"365":0.13270364701747894,"366":-0.11585861444473267,"367":-0.10044946521520615,"368":1.5503171682357788,"369":0.36859768629074097,"370":-0.7610370516777039,"371":0.014890630729496479,"372":-0.029167167842388153,"373":2.0277981758117676,"374":0.08590143173933029,"375":0.5834803581237793,"376":-0.27862417697906494,"377":0.6019483804702759,"378":0.12036316096782684,"379":-0.5157890915870667,"380":-0.2463572770357132,"381":-0.5488062500953674,"382":-1.6100080013275146,"383":-0.5969066619873047,"384":-0.6292651295661926,"385":1.3041362762451172,"386":0.0847676694393158,"387":0.7571751475334167,"388":-0.02510150894522667,"389":-0.09237417578697205,"390":-1.0125229358673096,"391":0.01844611205160618,"392":-0.1492665857076645,"393":0.7592369914054871,"394":-0.44980737566947937,"395":-0.5334802269935608,"396":-0.7027937173843384,"397":1.1672967672348022,"398":0.22903276979923248,"399":0.3340393900871277,"400":-0.7597929239273071,"401":0.6181198358535767,"402":-0.8909270167350769,"403":1.0623756647109985,"404":-0.37047645449638367,"405":-0.7838417887687683,"406":0.03957207500934601,"407":0.1806887537240982,"408":-0.9572665095329285,"409":0.10883039981126785,"410":0.004902884364128113,"411":0.342682808637619,"412":-0.997710108757019,"413":-0.5393343567848206,"414":-1.0029510259628296,"415":-0.8601912260055542,"416":0.46099960803985596,"417":1.2482471466064453,"418":-0.025988224893808365,"419":-0.7080546021461487,"420":-0.8680888414382935,"421":-0.3465747535228729,"422":1.0404558181762695,"423":0.19663284718990326,"424":-0.2505173981189728,"425":0.21303139626979828,"426":-0.9965559840202332,"427":0.8336734771728516,"428":-0.9723715782165527,"429":-0.29731467366218567,"430":0.12426118552684784,"431":0.7001463174819946,"432":-0.8176665902137756,"433":0.041845548897981644,"434":0.2566453814506531,"435":0.5774615406990051,"436":-0.9504621028900146,"437":-0.5086303353309631,"438":-0.8817310929298401,"439":-1.0095254182815552,"440":0.4540107548236847,"441":1.1675094366073608,"442":-0.14378207921981812,"443":-0.44026613235473633,"444":-0.8975009918212891,"445":-0.586186408996582,"446":0.9719732999801636,"447":0.13389547169208527,"448":-0.17474988102912903,"449":0.18356621265411377,"450":-1.0531697273254395,"451":0.9839668869972229,"452":-0.8843544721603394,"453":-0.3869580030441284,"454":-0.06571107357740402,"455":0.8209319114685059,"456":0.0533129908144474,"457":0.27781257033348083,"458":0.847689151763916,"459":0.36033278703689575,"460":0.13439421355724335,"461":0.3180065155029297,"462":-0.5757259726524353,"463":0.5872273445129395,"464":-0.30863144993782043,"465":0.4413406550884247,"466":-0.9287261962890625,"467":0.40897226333618164,"468":-0.3674962520599365,"469":0.29681041836738586,"470":-0.12359914183616638,"471":0.04193459451198578,"472":-0.5821182727813721,"473":0.397802472114563,"474":-0.7631251811981201,"475":0.8584732413291931,"476":0.15900105237960815,"477":-0.6220495700836182,"478":0.12135541439056396,"479":-0.7382276058197021}},"forgetHidden":{"rows":20,"columns":20,"weights":{"0":-0.19002601504325867,"1":1.2863447666168213,"2":-0.1118866577744484,"3":-0.3604457676410675,"4":0.3479045629501343,"5":-0.2137085646390915,"6":-0.2140607386827469,"7":-0.13415852189064026,"8":0.7559564113616943,"9":-0.09187773615121841,"10":-0.04816027730703354,"11":-0.14840295910835266,"12":-0.28013065457344055,"13":0.30806663632392883,"14":0.3377353250980377,"15":0.28701168298721313,"16":0.7054282426834106,"17":-0.1889219582080841,"18":-0.2769702076911926,"19":-0.5292529463768005,"20":0.6562861204147339,"21":-0.26904329657554626,"22":-0.23629464209079742,"23":-0.2522496283054352,"24":-0.17642298340797424,"25":0.5062804222106934,"26":0.42495977878570557,"27":-0.6321092844009399,"28":0.27061644196510315,"29":0.7798992395401001,"30":0.3822548985481262,"31":-0.43135061860084534,"32":0.06974061578512192,"33":-0.6852535605430603,"34":0.002361526945605874,"35":-0.5893886089324951,"36":0.23174124956130981,"37":0.6706341505050659,"38":0.4245058596134186,"39":0.5136688351631165,"40":-0.6257999539375305,"41":0.7666700482368469,"42":0.23794949054718018,"43":0.15531109273433685,"44":0.2645898461341858,"45":-0.5843381285667419,"46":-0.5979177951812744,"47":0.26282498240470886,"48":0.07047711312770844,"49":-0.42316076159477234,"50":0.9466450214385986,"51":0.7776171565055847,"52":-0.49360430240631104,"53":0.5805947780609131,"54":0.19796161353588104,"55":-0.14640532433986664,"56":0.06134694069623947,"57":-0.7097982168197632,"58":-0.7650549411773682,"59":0.3580790162086487,"60":0.6703823804855347,"61":0.8593961000442505,"62":-0.663125216960907,"63":-0.5252521634101868,"64":0.2990023195743561,"65":0.452945351600647,"66":-0.007255398202687502,"67":-0.42838582396507263,"68":0.4800609350204468,"69":0.33860844373703003,"70":0.365418404340744,"71":-0.8585911989212036,"72":-1.3245164155960083,"73":0.004314917605370283,"74":0.7214949131011963,"75":-0.7768571972846985,"76":0.595058262348175,"77":0.6095027327537537,"78":0.05624329298734665,"79":-0.6194687485694885,"80":-0.5851468443870544,"81":0.16125720739364624,"82":-0.12258828431367874,"83":0.3025979995727539,"84":-0.7248724699020386,"85":-0.28643810749053955,"86":-0.5296083092689514,"87":0.10984770208597183,"88":-0.3125213086605072,"89":0.12567277252674103,"90":-0.10767816007137299,"91":-0.21657024323940277,"92":0.3940276801586151,"93":0.36443811655044556,"94":-0.407641738653183,"95":0.04435252025723457,"96":-0.4421975910663605,"97":-0.5327692627906799,"98":-0.5731213092803955,"99":0.14116983115673065,"100":-0.12155792117118835,"101":-0.29655709862709045,"102":-0.1767997145652771,"103":0.40092480182647705,"104":-0.20244981348514557,"105":-0.20645733177661896,"106":-0.1232377141714096,"107":0.793901264667511,"108":0.13621416687965393,"109":-1.2231496572494507,"110":0.1770251989364624,"111":0.6869650483131409,"112":-0.34753021597862244,"113":0.3737568259239197,"114":-0.08464670926332474,"115":0.4093554615974426,"116":-0.1588190495967865,"117":-0.136470764875412,"118":-0.24257729947566986,"119":-0.16980114579200745,"120":-0.5250418186187744,"121":1.0685228109359741,"122":-0.2591536045074463,"123":0.31002315878868103,"124":0.2598412036895752,"125":-0.5457004308700562,"126":-0.392499178647995,"127":0.07993588596582413,"128":0.29722896218299866,"129":-0.17135146260261536,"130":0.36453789472579956,"131":-0.18503141403198242,"132":-0.33177101612091064,"133":0.5378454923629761,"134":0.32334622740745544,"135":0.5578218102455139,"136":0.010543828830122948,"137":-0.45400241017341614,"138":-0.4133816063404083,"139":0.08948207646608353,"140":0.2938491106033325,"141":0.6862732172012329,"142":-0.041924554854631424,"143":-0.6408771872520447,"144":0.7483225464820862,"145":-0.09273706376552582,"146":0.3896242082118988,"147":-0.7046250700950623,"148":0.7643042802810669,"149":0.3830372095108032,"150":-0.2593165934085846,"151":-0.7463018298149109,"152":-1.1854548454284668,"153":0.05650760978460312,"154":0.7626615166664124,"155":-0.2540872097015381,"156":0.6145997047424316,"157":0.4325962960720062,"158":0.3074754774570465,"159":-0.4775071442127228,"160":0.6283997893333435,"161":0.6163979172706604,"162":-0.7367835640907288,"163":-0.3319496512413025,"164":0.7552074790000916,"165":-0.005887310486286879,"166":0.6772094368934631,"167":-0.33199718594551086,"168":0.212845578789711,"169":0.20949138700962067,"170":0.4901123642921448,"171":-0.04966135323047638,"172":-1.0153752565383911,"173":-0.34018829464912415,"174":1.002687692642212,"175":-0.5455977320671082,"176":0.22461830079555511,"177":0.6455380916595459,"178":0.48803406953811646,"179":0.21913789212703705,"180":0.10066267848014832,"181":0.18825609982013702,"182":0.20393307507038116,"183":0.4644552767276764,"184":-0.16654638946056366,"185":-0.2584882080554962,"186":0.1700952798128128,"187":0.33391252160072327,"188":-0.42044103145599365,"189":-0.4210658371448517,"190":-0.07626384496688843,"191":0.16795282065868378,"192":0.16925755143165588,"193":0.034175172448158264,"194":-0.28061380982398987,"195":0.2138633280992508,"196":-0.5235373973846436,"197":0.09463945031166077,"198":0.21819408237934113,"199":0.3600299060344696,"200":-0.49664828181266785,"201":0.16953767836093903,"202":0.18289199471473694,"203":-0.10516393184661865,"204":0.13727004826068878,"205":-0.40832459926605225,"206":-0.41381901502609253,"207":-0.3151165544986725,"208":0.0037119961343705654,"209":0.2490445077419281,"210":-0.2678746283054352,"211":-0.5519083142280579,"212":-0.21668212115764618,"213":0.3399970829486847,"214":0.3742111027240753,"215":-0.17356617748737335,"216":0.026750922203063965,"217":-0.47358739376068115,"218":-0.4775908887386322,"219":-0.30640748143196106,"220":0.6504306793212891,"221":-0.2497282773256302,"222":0.6081068515777588,"223":-0.11471646279096603,"224":-0.021993083879351616,"225":0.32080352306365967,"226":0.6433033347129822,"227":-0.6554265022277832,"228":0.07559236139059067,"229":0.560788631439209,"230":-0.8752598166465759,"231":-1.106310486793518,"232":-0.219695046544075,"233":-0.3769938051700592,"234":0.018500812351703644,"235":-0.6420363187789917,"236":-0.08057942986488342,"237":0.7298067808151245,"238":0.8862146735191345,"239":-0.8029703497886658,"240":-0.33515122532844543,"241":0.09479864686727524,"242":0.14281176030635834,"243":-0.18927356600761414,"244":0.08827836066484451,"245":-0.45295479893684387,"246":-0.4947875440120697,"247":-0.03434883803129196,"248":0.20281387865543365,"249":-0.20477961003780365,"250":-0.9632875323295593,"251":-0.40454667806625366,"252":0.03713726997375488,"253":0.5189244747161865,"254":0.07862819731235504,"255":0.22448258101940155,"256":0.045851849019527435,"257":-0.37859296798706055,"258":-0.5660870671272278,"259":-0.4722937047481537,"260":-0.9986879825592041,"261":1.220384955406189,"262":0.08476552367210388,"263":0.24502010643482208,"264":-0.08405198156833649,"265":-1.015701174736023,"266":-1.1043410301208496,"267":0.3238077759742737,"268":0.13041691482067108,"269":-0.07625511288642883,"270":0.16235505044460297,"271":-0.09298749268054962,"272":-0.11317502707242966,"273":0.6365014314651489,"274":-0.2783007025718689,"275":0.3359476923942566,"276":-0.8462367057800293,"277":-1.1025481224060059,"278":-1.0901015996932983,"279":0.5285825729370117,"280":0.27459287643432617,"281":0.3753272294998169,"282":-0.1918342560529709,"283":-0.4559552073478699,"284":0.22529280185699463,"285":-0.13239751756191254,"286":0.32703956961631775,"287":-0.49492257833480835,"288":0.6473096013069153,"289":0.3239319324493408,"290":-0.3635234236717224,"291":-0.530733585357666,"292":-0.7961959838867188,"293":-0.5700543522834778,"294":0.5437883734703064,"295":-0.1288846880197525,"296":0.45329636335372925,"297":0.427761048078537,"298":0.4286666810512543,"299":-0.4623659551143646,"300":-0.43801209330558777,"301":0.05607189983129501,"302":-0.3713410198688507,"303":0.6648350358009338,"304":-0.45270684361457825,"305":-0.5143905282020569,"306":-0.6228315234184265,"307":0.48001888394355774,"308":-0.9901278018951416,"309":-0.7772745490074158,"310":1.03313148021698,"311":-0.4178260266780853,"312":0.03033725917339325,"313":1.0433393716812134,"314":-0.7449920177459717,"315":0.16482999920845032,"316":-0.7913647890090942,"317":-0.32583940029144287,"318":-0.6230262517929077,"319":0.5549300909042358,"320":0.2561666667461395,"321":0.31817489862442017,"322":-0.42251378297805786,"323":-0.17129968106746674,"324":0.3115461468696594,"325":0.17314524948596954,"326":0.27082812786102295,"327":-0.32917457818984985,"328":0.1964493691921234,"329":0.35135817527770996,"330":0.31426435708999634,"331":-0.8444916009902954,"332":-0.9948432445526123,"333":-0.42058265209198,"334":0.7273597121238708,"335":-0.2102028876543045,"336":0.23781651258468628,"337":0.41329124569892883,"338":-0.06269386410713196,"339":0.06596644222736359,"340":-0.3361526131629944,"341":1.0252822637557983,"342":-0.22542555630207062,"343":-0.3895522356033325,"344":0.2901887595653534,"345":-0.3073306977748871,"346":-0.39167848229408264,"347":-0.038991864770650864,"348":0.9158793091773987,"349":-0.06817274540662766,"350":0.09070271998643875,"351":0.0933217853307724,"352":-0.550834059715271,"353":0.5408376455307007,"354":0.4389074742794037,"355":0.28254374861717224,"356":0.7308089733123779,"357":-0.2881025969982147,"358":-0.39060530066490173,"359":-0.3483423888683319,"360":-0.3723241686820984,"361":0.9077284336090088,"362":-0.28909948468208313,"363":0.1900877058506012,"364":0.1894228756427765,"365":-0.5002769827842712,"366":-0.2482774406671524,"367":0.199948251247406,"368":0.48772457242012024,"369":-0.1283087581396103,"370":0.2511349618434906,"371":0.0070780799724161625,"372":-0.14217831194400787,"373":0.49710503220558167,"374":0.2931218147277832,"375":0.4110323488712311,"376":0.0023585648741573095,"377":-0.37285977602005005,"378":-0.2647772431373596,"379":0.056855518370866776,"380":0.6092380881309509,"381":0.488768607378006,"382":-0.08788572996854782,"383":-0.5037156939506531,"384":0.5058671236038208,"385":0.4604801535606384,"386":0.6656804084777832,"387":-0.4701169729232788,"388":0.5175405740737915,"389":0.24414728581905365,"390":-0.472737193107605,"391":-0.696906328201294,"392":-1.4734694957733154,"393":-0.8557865023612976,"394":1.0661396980285645,"395":-0.8458840847015381,"396":0.5030544996261597,"397":0.752901017665863,"398":0.7673888802528381,"399":-0.7173839211463928}},"forgetBias":{"rows":20,"columns":1,"weights":{"0":0,"1":0,"2":0,"3":0,"4":0,"5":0,"6":0,"7":0,"8":0,"9":0,"10":0,"11":0,"12":0,"13":0,"14":0,"15":0,"16":0,"17":0,"18":0,"19":0}},"outputMatrix":{"rows":20,"columns":24,"weights":{"0":-0.8914182186126709,"1":0.7754148244857788,"2":0.5172845721244812,"3":0.8383380770683289,"4":-0.392588347196579,"5":-0.6884239315986633,"6":-0.928803026676178,"7":-0.979809045791626,"8":0.3530508875846863,"9":0.8161697387695312,"10":-0.5447759032249451,"11":-0.7344375848770142,"12":-1.1049500703811646,"13":-0.2532637417316437,"14":0.9422523379325867,"15":0.7742557525634766,"16":-0.43929600715637207,"17":0.27094578742980957,"18":-0.9678922891616821,"19":0.9453822374343872,"20":-0.7819366455078125,"21":-0.6169187426567078,"22":-0.13326410949230194,"23":0.9122949838638306,"24":0.2626311779022217,"25":0.5308287143707275,"26":-0.8260207772254944,"27":-0.32990050315856934,"28":-0.09673750400543213,"29":0.25465911626815796,"30":0.2214144915342331,"31":0.04719264432787895,"32":-0.11805174499750137,"33":-0.5968219637870789,"34":-1.2147091627120972,"35":0.1339360773563385,"36":0.5397533774375916,"37":1.0660439729690552,"38":0.5591793060302734,"39":1.0754413604736328,"40":-1.7561343908309937,"41":1.648615837097168,"42":0.4799884855747223,"43":-0.0352228507399559,"44":-0.034247543662786484,"45":-0.9625425934791565,"46":-0.9303905963897705,"47":0.41107505559921265,"48":0.15815140306949615,"49":0.09475219249725342,"50":1.2662590742111206,"51":-1.1248852014541626,"52":-0.4729733467102051,"53":0.15405502915382385,"54":0.11958259344100952,"55":0.550276517868042,"56":1.3206932544708252,"57":-0.6764327883720398,"58":-0.1824292093515396,"59":0.09289287030696869,"60":0.17854352295398712,"61":-1.9061328172683716,"62":0.41518837213516235,"63":-0.5819934010505676,"64":1.0745155811309814,"65":-0.9153416156768799,"66":0.17754153907299042,"67":-0.875034749507904,"68":0.7667344212532043,"69":1.054240107536316,"70":-0.3350592255592346,"71":-0.6776478886604309,"72":1.120580792427063,"73":0.8755268454551697,"74":1.4909932613372803,"75":-0.44408485293388367,"76":0.8905263543128967,"77":-0.215714693069458,"78":0.21081611514091492,"79":0.9258884191513062,"80":0.39971426129341125,"81":-0.15218207240104675,"82":-1.203840970993042,"83":0.947583794593811,"84":0.972882091999054,"85":1.1103882789611816,"86":-0.43778958916664124,"87":0.10597368329763412,"88":-0.48695433139801025,"89":0.5355876684188843,"90":0.24976055324077606,"91":-0.06400173902511597,"92":0.30794432759284973,"93":0.05745681747794151,"94":-1.5228848457336426,"95":-0.3239764869213104,"96":0.24560028314590454,"97":-0.6484954953193665,"98":-0.3883817493915558,"99":-0.5248786211013794,"100":0.016873018816113472,"101":0.44521835446357727,"102":0.08742213994264603,"103":0.0234348364174366,"104":-0.047982748597860336,"105":-0.20674072206020355,"106":0.3115633428096771,"107":-0.01874719373881817,"108":0.26249104738235474,"109":0.18939410150051117,"110":-0.16320858895778656,"111":-0.34358450770378113,"112":0.5505836606025696,"113":-0.5140162110328674,"114":0.09600165486335754,"115":-0.4121848940849304,"116":0.14952637255191803,"117":0.37215209007263184,"118":0.6030235886573792,"119":-0.2830152213573456,"120":-0.8945543766021729,"121":1.481382966041565,"122":0.30216631293296814,"123":0.8159555792808533,"124":-0.37590885162353516,"125":-0.7493127584457397,"126":-1.0762817859649658,"127":-0.1968570500612259,"128":0.18655523657798767,"129":0.52393639087677,"130":-1.0994454622268677,"131":-1.2119150161743164,"132":-0.6962751746177673,"133":0.34922629594802856,"134":0.4792858958244324,"135":0.8858916759490967,"136":-0.09727814048528671,"137":0.5177348852157593,"138":-0.5476548671722412,"139":0.7910041213035583,"140":-0.3796435594558716,"141":-0.8362091183662415,"142":-0.3512376546859741,"143":0.3137556314468384,"144":-0.3081771433353424,"145":1.357354998588562,"146":0.0646461695432663,"147":0.4171948730945587,"148":-0.32880687713623047,"149":-0.6826651096343994,"150":-0.6084534525871277,"151":-0.3619268834590912,"152":-0.25827643275260925,"153":0.17803117632865906,"154":-0.5796767473220825,"155":-0.6944920420646667,"156":-0.3527368903160095,"157":-0.2803499400615692,"158":0.9959259033203125,"159":0.472724586725235,"160":-0.7291619181632996,"161":0.7663412690162659,"162":-0.5548979640007019,"163":0.8316401243209839,"164":-0.7629206776618958,"165":-0.6436137557029724,"166":-0.03485678881406784,"167":0.9315416812896729,"168":1.014930248260498,"169":0.45717930793762207,"170":0.9401231408119202,"171":-0.10814303159713745,"172":0.8618716597557068,"173":0.13370731472969055,"174":-0.03944231569766998,"175":1.2980188131332397,"176":-0.9160100817680359,"177":0.08141885697841644,"178":-0.708943247795105,"179":1.0502593517303467,"180":0.35720914602279663,"181":0.21908055245876312,"182":-0.5797295570373535,"183":-0.139426127076149,"184":-0.6165478825569153,"185":0.4625625014305115,"186":-0.048221029341220856,"187":0.5690499544143677,"188":0.5956286191940308,"189":0.3226962387561798,"190":-0.481107234954834,"191":-0.69739830493927,"192":0.9033496379852295,"193":0.39814525842666626,"194":0.07278071343898773,"195":-1.0308928489685059,"196":0.8048840761184692,"197":0.12185640633106232,"198":0.06119564548134804,"199":1.1245231628417969,"200":-0.16015402972698212,"201":-0.13838621973991394,"202":0.6099773049354553,"203":0.16689400374889374,"204":1.1983535289764404,"205":0.2571949064731598,"206":-0.5082839727401733,"207":-0.734266459941864,"208":0.3220205307006836,"209":-0.30423495173454285,"210":0.5324012637138367,"211":-0.15489044785499573,"212":0.3743070960044861,"213":0.9548734426498413,"214":0.8419490456581116,"215":-0.17391495406627655,"216":0.1329146921634674,"217":1.0943537950515747,"218":1.0698038339614868,"219":0.23818956315517426,"220":-0.6639767289161682,"221":-0.7828423380851746,"222":-1.0101888179779053,"223":0.5410324335098267,"224":0.3288087844848633,"225":1.1024045944213867,"226":-0.18870887160301208,"227":-0.057476405054330826,"228":-0.11210416257381439,"229":0.12933894991874695,"230":0.9897056818008423,"231":-0.5053959488868713,"232":-0.7733669281005859,"233":0.7559599876403809,"234":-0.42762890458106995,"235":0.49265146255493164,"236":-0.8662524819374084,"237":0.7157831192016602,"238":-0.004296827130019665,"239":0.6010550260543823,"240":0.1685677468776703,"241":-0.49930429458618164,"242":1.0094578266143799,"243":-0.04279177635908127,"244":0.5905735492706299,"245":0.1680379956960678,"246":0.015803925693035126,"247":0.5277513861656189,"248":-0.5890039801597595,"249":0.23129990696907043,"250":0.4139297604560852,"251":0.4208979904651642,"252":-0.19404011964797974,"253":0.32168129086494446,"254":-0.6097371578216553,"255":-0.44574910402297974,"256":1.3111368417739868,"257":-1.1586006879806519,"258":-0.17787548899650574,"259":-0.018591387197375298,"260":0.3373098373413086,"261":0.963929295539856,"262":1.2760975360870361,"263":-0.6460649371147156,"264":0.3862040042877197,"265":0.21273934841156006,"266":-0.7786144018173218,"267":-0.2387797087430954,"268":0.1427617073059082,"269":0.23175127804279327,"270":0.10645660758018494,"271":0.5157138705253601,"272":-0.6700561046600342,"273":-0.3440011739730835,"274":-0.685387134552002,"275":0.054623402655124664,"276":0.44115132093429565,"277":1.2087559700012207,"278":-0.004017753526568413,"279":0.38671982288360596,"280":-1.2027015686035156,"281":1.0172662734985352,"282":0.10535436123609543,"283":0.04014408960938454,"284":0.029248910024762154,"285":-0.2509003281593323,"286":-0.5499715805053711,"287":-0.08468638360500336,"288":0.4169672429561615,"289":-1.2101457118988037,"290":-0.9052808284759521,"291":-0.08908320963382721,"292":1.343497633934021,"293":1.7351335287094116,"294":-0.21931947767734528,"295":1.898522138595581,"296":-2.4654650688171387,"297":0.03171316161751747,"298":0.3491847813129425,"299":1.2241696119308472,"300":-0.16988404095172882,"301":0.24608327448368073,"302":-1.220306634902954,"303":-0.7639403939247131,"304":0.6588829755783081,"305":-1.3390830755233765,"306":-0.10574938356876373,"307":0.30109962821006775,"308":1.4496195316314697,"309":-0.7370208501815796,"310":1.263169765472412,"311":-1.8692853450775146,"312":-0.31619811058044434,"313":0.4899073541164398,"314":-0.47222670912742615,"315":0.35409486293792725,"316":0.4221647381782532,"317":-0.6880144476890564,"318":-0.6960095167160034,"319":0.18458421528339386,"320":-0.618189811706543,"321":0.1471412479877472,"322":-1.165907859802246,"323":-0.6056931614875793,"324":-0.06459180265665054,"325":2.016706943511963,"326":-0.46515169739723206,"327":1.0908335447311401,"328":-0.8812207579612732,"329":1.0211772918701172,"330":-0.48539048433303833,"331":0.3367287516593933,"332":0.06828247755765915,"333":-0.8360412120819092,"334":0.1514407992362976,"335":-0.14231209456920624,"336":0.5348037481307983,"337":-1.7312397956848145,"338":-0.8674567341804504,"339":-0.324925035238266,"340":0.39385488629341125,"341":1.4970412254333496,"342":0.3802178204059601,"343":0.8129241466522217,"344":-0.9050323367118835,"345":-0.2096160650253296,"346":0.5430638194084167,"347":1.0008022785186768,"348":0.0843203216791153,"349":-0.996370255947113,"350":-0.5584201812744141,"351":-1.0983774662017822,"352":0.5265420079231262,"353":-0.743536114692688,"354":0.25366318225860596,"355":0.16644947230815887,"356":0.8362298607826233,"357":0.14352813363075256,"358":0.7563039660453796,"359":-1.297217845916748,"360":-0.9437332153320312,"361":1.0350230932235718,"362":0.9070248007774353,"363":1.543729305267334,"364":-0.5615317225456238,"365":-1.4739115238189697,"366":-1.0456116199493408,"367":-0.8607627153396606,"368":1.2032006978988647,"369":1.6072850227355957,"370":-0.25259482860565186,"371":-0.9242928624153137,"372":-1.3041560649871826,"373":-0.23527412116527557,"374":1.0927271842956543,"375":0.5404141545295715,"376":0.24321697652339935,"377":-0.035552311688661575,"378":-1.2767517566680908,"379":1.0499920845031738,"380":-1.264348030090332,"381":-0.35026970505714417,"382":-0.5709697604179382,"383":1.3030387163162231,"384":1.0849024057388306,"385":0.05316166207194328,"386":0.1362396776676178,"387":-0.78014075756073,"388":1.11124849319458,"389":0.27739498019218445,"390":0.6071674823760986,"391":1.0464317798614502,"392":-0.4034137725830078,"393":-0.3880343735218048,"394":0.005313180387020111,"395":1.0462576150894165,"396":1.0772701501846313,"397":0.13395076990127563,"398":-1.0515347719192505,"399":-0.49959343671798706,"400":-0.0029438515193760395,"401":-0.012677074410021305,"402":0.8233218193054199,"403":-0.3451884686946869,"404":0.7318292856216431,"405":0.5416013598442078,"406":0.07814764231443405,"407":-0.7178722620010376,"408":-0.5037986636161804,"409":0.7032670378684998,"410":-0.15782907605171204,"411":0.15049836039543152,"412":-0.769152820110321,"413":-1.2323215007781982,"414":-1.3827433586120605,"415":-0.04929470270872116,"416":0.6778127551078796,"417":1.1673011779785156,"418":-0.1875656247138977,"419":-0.8813028335571289,"420":-0.4277016520500183,"421":0.7171258330345154,"422":0.6375969648361206,"423":0.4036861062049866,"424":-0.3651617765426636,"425":0.29326483607292175,"426":-1.0803552865982056,"427":0.6923509836196899,"428":-0.5618788003921509,"429":-0.11377060413360596,"430":0.12012866884469986,"431":0.26054179668426514,"432":-0.8590983152389526,"433":-0.18502399325370789,"434":-0.46572190523147583,"435":0.6187196969985962,"436":-0.37340298295021057,"437":-0.19306841492652893,"438":-0.7997184991836548,"439":-0.8027140498161316,"440":-0.040836937725543976,"441":0.6365946531295776,"442":-0.050884898751974106,"443":-0.8372260332107544,"444":-0.9856024980545044,"445":-0.28229668736457825,"446":0.36964598298072815,"447":0.6049038767814636,"448":-0.22412927448749542,"449":0.11054599285125732,"450":-0.8252552151679993,"451":0.6223105192184448,"452":-0.411298006772995,"453":-0.7202361822128296,"454":0.31819048523902893,"455":-0.23113688826560974,"456":0.5991752743721008,"457":-0.43722161650657654,"458":-0.3862823247909546,"459":-0.2275458127260208,"460":0.387443870306015,"461":1.4256199598312378,"462":0.5502601861953735,"463":0.4695831835269928,"464":-0.2086966335773468,"465":-1.1804163455963135,"466":-0.4170496463775635,"467":0.3324061334133148,"468":0.7729247212409973,"469":1.3995850086212158,"470":-0.452955037355423,"471":-0.4456319808959961,"472":-0.05460657179355621,"473":-0.001645927899517119,"474":0.9161367416381836,"475":-0.7424578070640564,"476":0.3440670967102051,"477":0.7965701818466187,"478":-0.365627646446228,"479":-0.4213663935661316}},"outputHidden":{"rows":20,"columns":20,"weights":{"0":-0.29262349009513855,"1":0.8680189847946167,"2":-0.5580318570137024,"3":-0.3386431932449341,"4":0.8177449703216553,"5":-0.18815810978412628,"6":-0.33974242210388184,"7":-0.17952054738998413,"8":0.7321550846099854,"9":-0.11079337447881699,"10":0.2884127199649811,"11":-0.0332522876560688,"12":-0.40193915367126465,"13":0.46210652589797974,"14":0.6022738814353943,"15":0.4451112747192383,"16":0.5112890601158142,"17":-0.22499655187129974,"18":-0.42688149213790894,"19":-0.11102592945098877,"20":0.9476708769798279,"21":-0.008275238797068596,"22":-0.10257519036531448,"23":-0.6046290397644043,"24":0.31045016646385193,"25":0.9365113973617554,"26":1.0631330013275146,"27":-0.3845227360725403,"28":0.7241698503494263,"29":0.035229239612817764,"30":0.46635347604751587,"31":0.5344586372375488,"32":-0.706412136554718,"33":-0.300316721200943,"34":0.38036349415779114,"35":-0.5620772242546082,"36":0.6347793936729431,"37":0.9265438318252563,"38":1.1047468185424805,"39":0.23601152002811432,"40":-0.9013933539390564,"41":-0.04505206644535065,"42":0.19693753123283386,"43":-0.3718240261077881,"44":0.37626639008522034,"45":-1.1376452445983887,"46":-0.5378438234329224,"47":-0.030036112293601036,"48":-0.3069310486316681,"49":-1.3109127283096313,"50":0.5716855525970459,"51":-0.07768891006708145,"52":-0.8158150315284729,"53":0.9344541430473328,"54":-0.176218181848526,"55":0.22221197187900543,"56":-0.18533915281295776,"57":-0.9152975082397461,"58":-0.655009925365448,"59":-0.2584921717643738,"60":0.14948037266731262,"61":1.0612119436264038,"62":-0.3434692621231079,"63":-0.7546929717063904,"64":0.44996178150177,"65":1.1052383184432983,"66":-0.6812646389007568,"67":-0.4364360570907593,"68":0.8619673252105713,"69":0.07328274846076965,"70":0.3612569272518158,"71":0.46136757731437683,"72":-1.5971295833587646,"73":-0.13425849378108978,"74":1.1839566230773926,"75":-0.4888235330581665,"76":0.6501403450965881,"77":-0.02992025576531887,"78":-0.13805924355983734,"79":-0.4501287043094635,"80":0.4820748269557953,"81":-1.148418664932251,"82":-0.9646934270858765,"83":1.4548331499099731,"84":-1.6702992916107178,"85":1.292989730834961,"86":1.0895003080368042,"87":1.4854403734207153,"88":-1.7274662256240845,"89":0.003942991606891155,"90":0.9898149371147156,"91":0.27352115511894226,"92":1.522058367729187,"93":-0.6754723787307739,"94":-1.7213188409805298,"95":-0.17928776144981384,"96":-1.666927695274353,"97":0.5164313316345215,"98":0.917618453502655,"99":1.373337984085083,"100":0.4295811951160431,"101":-0.04195903614163399,"102":-0.6107615232467651,"103":-0.5677205920219421,"104":0.44234752655029297,"105":0.548332691192627,"106":0.5152349472045898,"107":-0.9655970931053162,"108":0.6044223308563232,"109":0.9941951632499695,"110":0.8485182523727417,"111":-0.2527609169483185,"112":0.1406937837600708,"113":-0.33823415637016296,"114":0.14232978224754333,"115":-0.002798392903059721,"116":0.6147044897079468,"117":0.32456734776496887,"118":0.2945827841758728,"119":-0.15595176815986633,"120":0.20160309970378876,"121":0.9354520440101624,"122":-0.26099997758865356,"123":-0.9916723966598511,"124":1.1151844263076782,"125":0.36894574761390686,"126":0.2813330888748169,"127":-1.4473267793655396,"128":1.219318151473999,"129":0.8891977667808533,"130":0.7178857326507568,"131":-1.230103850364685,"132":-1.3870291709899902,"133":-0.18429209291934967,"134":1.1855708360671997,"135":0.0649082288146019,"136":1.0130300521850586,"137":0.2075241506099701,"138":0.15476028621196747,"139":-0.9940460324287415,"140":0.9450482726097107,"141":-0.8105801343917847,"142":-0.931307852268219,"143":-0.11268691718578339,"144":0.4698309004306793,"145":1.0683424472808838,"146":1.8048075437545776,"147":-0.6666606664657593,"148":0.2956976592540741,"149":-0.21282479166984558,"150":0.7077537775039673,"151":0.4569603204727173,"152":-1.3467904329299927,"153":-1.0048646926879883,"154":0.9295353889465332,"155":-0.5461335778236389,"156":0.055274877697229385,"157":0.925582766532898,"158":1.3947218656539917,"159":0.4053128957748413,"160":0.4672538936138153,"161":0.583622395992279,"162":-1.1739312410354614,"163":-0.35830968618392944,"164":0.6536336541175842,"165":0.6561580300331116,"166":0.27910128235816956,"167":-0.4021928310394287,"168":0.51350998878479,"169":-0.16991056501865387,"170":1.2025171518325806,"171":0.11531481146812439,"172":-1.3587307929992676,"173":-0.46538588404655457,"174":1.3990708589553833,"175":-0.23176969587802887,"176":0.7255600690841675,"177":0.4454350471496582,"178":0.13728336989879608,"179":0.19690720736980438,"180":-0.9307736754417419,"181":-0.4629371762275696,"182":-0.33433327078819275,"183":0.1449463963508606,"184":-0.2872720956802368,"185":-0.3659803569316864,"186":-0.45616427063941956,"187":-0.028782108798623085,"188":0.1680225133895874,"189":-0.3819337785243988,"190":0.27428629994392395,"191":0.02067110873758793,"192":-1.10334312915802,"193":1.0774502754211426,"194":0.7122977375984192,"195":0.7766606211662292,"196":-0.23033663630485535,"197":-1.0049223899841309,"198":-0.603890061378479,"199":0.03184039518237114,"200":0.1883276253938675,"201":-0.17674747109413147,"202":0.8258201479911804,"203":0.15854208171367645,"204":-0.3569207191467285,"205":0.2735674977302551,"206":0.25988444685935974,"207":-0.11642862111330032,"208":-0.2276533544063568,"209":-0.8739960193634033,"210":-0.18105164170265198,"211":-0.09602908790111542,"212":0.28589046001434326,"213":-0.28885146975517273,"214":-0.21043288707733154,"215":-0.5497027635574341,"216":0.015611547976732254,"217":0.11790521442890167,"218":0.26159462332725525,"219":-0.13138380646705627,"220":0.5011884570121765,"221":-0.3169519007205963,"222":-1.0794949531555176,"223":0.20911750197410583,"224":0.9139513969421387,"225":0.3302135467529297,"226":1.2180111408233643,"227":-0.5595256090164185,"228":0.42150697112083435,"229":-1.7088061571121216,"230":0.3101567029953003,"231":-0.42567965388298035,"232":-1.8606113195419312,"233":-0.2804569900035858,"234":1.1964949369430542,"235":0.5383610725402832,"236":0.07965870201587677,"237":0.4657308757305145,"238":0.5475341081619263,"239":0.0033399329986423254,"240":0.28653112053871155,"241":0.07041901350021362,"242":-1.6630038022994995,"243":0.7340485453605652,"244":-0.5184902548789978,"245":1.0539559125900269,"246":0.2395525574684143,"247":0.22440052032470703,"248":-0.980911135673523,"249":0.9104759693145752,"250":-0.984637439250946,"251":-0.051802508533000946,"252":0.7214635610580444,"253":-0.08338303864002228,"254":-0.3197179138660431,"255":-0.6763026118278503,"256":-0.6583963632583618,"257":0.3472355902194977,"258":0.31827208399772644,"259":0.3876998722553253,"260":0.4462205171585083,"261":-0.7537059783935547,"262":0.3628655970096588,"263":-0.667548656463623,"264":0.17504996061325073,"265":0.462106317281723,"266":0.14100877940654755,"267":-0.6039224863052368,"268":0.35656267404556274,"269":0.7213257551193237,"270":0.9268996119499207,"271":-0.5918324589729309,"272":0.06962139904499054,"273":-0.25844046473503113,"274":0.10484082996845245,"275":-0.9086470603942871,"276":0.5093955397605896,"277":0.37729182839393616,"278":0.2608233690261841,"279":-0.46603769063949585,"280":-0.5645176768302917,"281":-1.0110870599746704,"282":-0.17182908952236176,"283":1.1558390855789185,"284":-0.8393428921699524,"285":-0.027855129912495613,"286":-0.44325268268585205,"287":0.9125878214836121,"288":-0.7095844149589539,"289":-0.11938714981079102,"290":0.3023544251918793,"291":0.21547093987464905,"292":-0.4465382695198059,"293":0.5201479196548462,"294":-0.1270354688167572,"295":0.8361760377883911,"296":-0.8834462761878967,"297":-0.40720075368881226,"298":-0.4376988112926483,"299":0.9092673659324646,"300":-0.5537314414978027,"301":0.897867739200592,"302":-0.41036728024482727,"303":-0.16012483835220337,"304":1.0972009897232056,"305":-1.02041757106781,"306":-0.5651928186416626,"307":0.2703719735145569,"308":0.24786189198493958,"309":-1.2443912029266357,"310":0.6419457793235779,"311":0.503997266292572,"312":-1.1708168983459473,"313":0.9601567983627319,"314":0.06934703886508942,"315":-0.08310312032699585,"316":0.2666991055011749,"317":-0.630459189414978,"318":-0.445089727640152,"319":-0.11824792623519897,"320":-0.07218292355537415,"321":-0.00603497913107276,"322":-0.1259608417749405,"323":-0.6114686131477356,"324":0.9281880855560303,"325":0.4047533869743347,"326":-0.03791351616382599,"327":-0.76908940076828,"328":1.0369082689285278,"329":-0.9163661003112793,"330":0.8053268790245056,"331":0.18472439050674438,"332":-1.82137930393219,"333":-0.9423246383666992,"334":1.621198296546936,"335":-1.085019826889038,"336":0.7655649781227112,"337":0.04189078509807587,"338":0.00017336875316686928,"339":-0.33613187074661255,"340":-0.20856134593486786,"341":0.010102229192852974,"342":0.0177068579941988,"343":-1.0521513223648071,"344":0.8704171776771545,"345":-0.24036335945129395,"346":-0.5323414206504822,"347":-1.6110808849334717,"348":0.5774896144866943,"349":1.193669319152832,"350":0.7982951998710632,"351":-0.6035988330841064,"352":-0.48788708448410034,"353":0.4485122561454773,"354":1.2776273488998413,"355":-0.2597704231739044,"356":0.5999784469604492,"357":-0.35674533247947693,"358":-0.49213090538978577,"359":-0.08017867803573608,"360":-0.17615027725696564,"361":1.4519308805465698,"362":-0.06765840947628021,"363":-0.6803696155548096,"364":1.4109829664230347,"365":-0.12263097614049911,"366":-0.24386444687843323,"367":-0.7797058820724487,"368":1.0052623748779297,"369":0.3255101442337036,"370":-0.37366607785224915,"371":-0.9531216025352478,"372":-1.30101478099823,"373":0.6522008776664734,"374":1.0487349033355713,"375":0.4118846654891968,"376":0.6504814624786377,"377":-0.2435501664876938,"378":-0.22755756974220276,"379":-0.9096932411193848,"380":0.39373090863227844,"381":0.506674587726593,"382":-1.514386534690857,"383":-0.8468219637870789,"384":0.9785385727882385,"385":0.5282068252563477,"386":-0.18250223994255066,"387":-0.6865527629852295,"388":1.0273240804672241,"389":-0.9595806002616882,"390":0.3789818584918976,"391":-0.7614339590072632,"392":-1.8833820819854736,"393":0.16742372512817383,"394":1.5845351219177246,"395":-0.11887694895267487,"396":1.1069637537002563,"397":0.32016122341156006,"398":0.04019097611308098,"399":-0.7432777881622314}},"outputBias":{"rows":20,"columns":1,"weights":{"0":0.5810348391532898,"1":-0.6732102632522583,"2":1.1749335527420044,"3":-0.588474452495575,"4":-0.3294757902622223,"5":0.9265637397766113,"6":0.762474536895752,"7":-0.4669817388057709,"8":-0.550685703754425,"9":-0.384025901556015,"10":-1.2881872653961182,"11":-0.16917003691196442,"12":-0.49290505051612854,"13":0.5076225399971008,"14":-0.3409859836101532,"15":0.5114858150482178,"16":-0.5943988561630249,"17":0.7178305387496948,"18":0.5364688038825989,"19":-0.6094983220100403}},"cellActivationMatrix":{"rows":20,"columns":24,"weights":{"0":-0.420175164937973,"1":0.9079896807670593,"2":-0.17991873621940613,"3":0.4284304082393646,"4":-0.5233401656150818,"5":-0.7725030779838562,"6":-0.4970688223838806,"7":-0.47426432371139526,"8":0.3227924108505249,"9":0.6718400716781616,"10":0.1321672797203064,"11":-0.2788291871547699,"12":-0.49407148361206055,"13":0.3170299828052521,"14":0.7503207921981812,"15":-0.0629340335726738,"16":-0.1297551393508911,"17":0.142984077334404,"18":-0.6506755948066711,"19":0.7970534563064575,"20":-0.7652568221092224,"21":0.04854361340403557,"22":0.3483165502548218,"23":0.43094757199287415,"24":0.5681308507919312,"25":-1.3172638416290283,"26":-0.5842136144638062,"27":-0.9663754105567932,"28":0.35693880915641785,"29":0.46396395564079285,"30":0.4981294870376587,"31":0.5820273756980896,"32":-0.6134072542190552,"33":-0.3264785706996918,"34":0.5159035921096802,"35":0.7023603916168213,"36":0.7013833522796631,"37":0.8139890432357788,"38":-0.513024091720581,"39":-0.9131121039390564,"40":0.9401017427444458,"41":-0.9540339112281799,"42":0.4050271511077881,"43":-0.27432674169540405,"44":0.5116332769393921,"45":0.3460654020309448,"46":0.5892235636711121,"47":-0.44692540168762207,"48":0.9790593385696411,"49":0.8808991312980652,"50":0.7173735499382019,"51":-0.35857221484184265,"52":0.07361836731433868,"53":0.010540945455431938,"54":0.400389701128006,"55":0.4091375172138214,"56":-0.10563379526138306,"57":-0.21524235606193542,"58":-0.6474234461784363,"59":0.8551424145698547,"60":0.689125657081604,"61":-0.5856924057006836,"62":0.11046215146780014,"63":-0.5870147943496704,"64":-0.8228628039360046,"65":0.6596257090568542,"66":0.37536710500717163,"67":-0.3170557916164398,"68":0.28020888566970825,"69":0.5728592276573181,"70":-0.6292007565498352,"71":0.3922579288482666,"72":-0.36845266819000244,"73":0.5623629689216614,"74":0.5243653655052185,"75":0.43980371952056885,"76":-0.39074641466140747,"77":-0.2818600833415985,"78":-0.63059002161026,"79":-0.32991504669189453,"80":0.3463096022605896,"81":0.5627045631408691,"82":0.13386723399162292,"83":-0.5236930251121521,"84":-0.5290645360946655,"85":-0.3980303108692169,"86":0.4907660186290741,"87":-0.03614341467618942,"88":0.33751770853996277,"89":-0.2352433055639267,"90":-0.6756330132484436,"91":0.5562135577201843,"92":-0.42938053607940674,"93":0.11191966384649277,"94":0.23543745279312134,"95":0.4203527569770813,"96":0.06118406727910042,"97":-0.5610235929489136,"98":-0.4875747859477997,"99":-0.19236809015274048,"100":0.11491414159536362,"101":0.5858723521232605,"102":0.5560274124145508,"103":0.1381298303604126,"104":-0.19734376668930054,"105":-0.47041502594947815,"106":0.04121904447674751,"107":0.08281382918357849,"108":0.3248894512653351,"109":0.35264450311660767,"110":-0.20654340088367462,"111":-0.05837206169962883,"112":-0.0008411983726546168,"113":-0.07949692755937576,"114":0.5641658306121826,"115":-0.35883915424346924,"116":0.17197652161121368,"117":0.10532210022211075,"118":0.08955597877502441,"119":-0.21613122522830963,"120":-0.8474894165992737,"121":-0.05775827914476395,"122":-0.5369378924369812,"123":0.6077449917793274,"124":-0.6617296934127808,"125":-0.7217424511909485,"126":-1.2535520792007446,"127":-0.5746204257011414,"128":0.6613427400588989,"129":1.0473673343658447,"130":-0.2466689497232437,"131":-0.7051894664764404,"132":-0.9467809796333313,"133":1.147039532661438,"134":0.49804210662841797,"135":0.9292066097259521,"136":-0.0884399563074112,"137":0.36732709407806396,"138":-1.058509349822998,"139":1.2477530241012573,"140":-0.9754447937011719,"141":-0.8037224411964417,"142":0.3205796778202057,"143":0.15846998989582062,"144":-1.1388057470321655,"145":0.5375161170959473,"146":-0.36405542492866516,"147":0.8034559488296509,"148":-0.9137282967567444,"149":-0.6873794198036194,"150":-0.6217519640922546,"151":-1.1792715787887573,"152":0.526162326335907,"153":1.0092575550079346,"154":0.0771697387099266,"155":-0.6706748604774475,"156":-1.167159080505371,"157":-0.101544089615345,"158":0.895508348941803,"159":0.2104472666978836,"160":0.0733596682548523,"161":-0.10774276405572891,"162":-0.8849833607673645,"163":0.9391027092933655,"164":-1.1513330936431885,"165":-0.4386017918586731,"166":0.08921158313751221,"167":0.7410916090011597,"168":-0.5191286206245422,"169":-0.23971320688724518,"170":-0.03797674551606178,"171":0.6090652942657471,"172":-1.0540950298309326,"173":0.012352257035672665,"174":0.008309741504490376,"175":-0.8821049928665161,"176":0.25955381989479065,"177":-0.09178922325372696,"178":-0.07992694526910782,"179":-0.33853355050086975,"180":-0.5591298937797546,"181":-1.0851980447769165,"182":0.4367509186267853,"183":-0.2554374635219574,"184":-0.057857148349285126,"185":0.04380360618233681,"186":-0.035200584679841995,"187":0.18289269506931305,"188":-0.520669162273407,"189":0.07596130669116974,"190":-0.45178237557411194,"191":0.6399425268173218,"192":0.47916385531425476,"193":-0.19112379848957062,"194":-0.2082822322845459,"195":-0.451570600271225,"196":0.5227908492088318,"197":0.050003234297037125,"198":0.47868290543556213,"199":0.5131544470787048,"200":-0.44897982478141785,"201":-0.294307142496109,"202":-0.6046187281608582,"203":0.44771286845207214,"204":0.40920180082321167,"205":0.9298997521400452,"206":-0.43997952342033386,"207":0.4355565905570984,"208":-0.3612160384654999,"209":0.4517654776573181,"210":0.4925735592842102,"211":-0.08229449391365051,"212":0.2981346547603607,"213":-0.48405686020851135,"214":-0.4620457887649536,"215":-0.35170185565948486,"216":0.10610097646713257,"217":0.8378241658210754,"218":0.7059957385063171,"219":-0.3011121153831482,"220":-0.054371509701013565,"221":-0.7204107046127319,"222":-1.0184593200683594,"223":0.4223760962486267,"224":0.2798275351524353,"225":0.6794319748878479,"226":-0.1682797521352768,"227":-0.02458638697862625,"228":-0.15048658847808838,"229":0.4292799234390259,"230":0.1766490340232849,"231":0.07772167772054672,"232":-0.29708757996559143,"233":0.2116764336824417,"234":-0.27630603313446045,"235":0.06347425282001495,"236":0.06979281455278397,"237":0.4348524510860443,"238":-0.02397756464779377,"239":0.18789832293987274,"240":-0.22829052805900574,"241":-1.146793246269226,"242":-0.4802509844303131,"243":0.3856939375400543,"244":-0.2776741683483124,"245":0.9176275730133057,"246":0.43379834294319153,"247":-0.5662920475006104,"248":-0.01559455506503582,"249":-0.3672069311141968,"250":0.28592249751091003,"251":-0.2103680968284607,"252":-0.012059654109179974,"253":-0.5074917674064636,"254":-0.014928732998669147,"255":-0.9234557747840881,"256":0.025790134444832802,"257":-0.2253064215183258,"258":0.3607971966266632,"259":0.05278262123465538,"260":-0.2005227506160736,"261":0.23961935937404633,"262":-0.2843843698501587,"263":0.05957789719104767,"264":-0.07265962660312653,"265":-0.25202643871307373,"266":-0.9572692513465881,"267":-0.06896144151687622,"268":-0.19754232466220856,"269":0.5164207220077515,"270":0.30783626437187195,"271":-0.18639761209487915,"272":0.01606648415327072,"273":-0.34807088971138,"274":0.777539074420929,"275":-0.1508554220199585,"276":0.2241348922252655,"277":-1.226035475730896,"278":0.12994922697544098,"279":-0.9130344986915588,"280":0.0015075651463121176,"281":-0.3765757381916046,"282":0.5326991677284241,"283":-0.14231693744659424,"284":-0.08312604576349258,"285":0.36018359661102295,"286":-0.5137398838996887,"287":-0.048867516219615936,"288":-0.2635827958583832,"289":0.8970593810081482,"290":0.6109786629676819,"291":0.4100085198879242,"292":-0.14232245087623596,"293":-0.8539448976516724,"294":-0.556114137172699,"295":-0.19797258079051971,"296":0.2510891258716583,"297":0.5949639081954956,"298":-0.054356325417757034,"299":-0.35681062936782837,"300":-0.3410821855068207,"301":-0.25143444538116455,"302":0.41629165410995483,"303":0.21534861624240875,"304":0.17043611407279968,"305":0.08943736553192139,"306":-0.5511506795883179,"307":0.3883073031902313,"308":-0.321208119392395,"309":-0.08027052134275436,"310":0.1537507325410843,"311":0.37621235847473145,"312":0.6538580060005188,"313":-0.48666346073150635,"314":0.17852017283439636,"315":-0.6556615233421326,"316":1.1643024682998657,"317":0.5846009850502014,"318":0.5315967202186584,"319":0.8807065486907959,"320":-0.4719596207141876,"321":-0.5176078677177429,"322":0.09866974502801895,"323":0.5671608448028564,"324":0.8177492618560791,"325":0.22675253450870514,"326":-0.8901661038398743,"327":-0.20642153918743134,"328":0.00016430793039035052,"329":-0.03082161210477352,"330":0.7707437872886658,"331":-1.0007836818695068,"332":0.9288626313209534,"333":0.035065945237874985,"334":-0.3161059021949768,"335":-0.9656208157539368,"336":0.5627586245536804,"337":-0.5037838220596313,"338":-0.5607646107673645,"339":-0.4029816687107086,"340":0.506101667881012,"341":0.5411110520362854,"342":0.5194251537322998,"343":0.4106252193450928,"344":-0.6290628910064697,"345":-0.5394309163093567,"346":0.21363100409507751,"347":0.44372034072875977,"348":0.5631911754608154,"349":0.6217840909957886,"350":-0.5411702990531921,"351":-0.1443803608417511,"352":0.16439101099967957,"353":-0.2144266813993454,"354":0.5225767493247986,"355":-0.5746236443519592,"356":0.5063203573226929,"357":0.054470714181661606,"358":0.33781617879867554,"359":-0.40498021245002747,"360":-0.05658905208110809,"361":-1.2109484672546387,"362":-0.3583293855190277,"363":-0.3258509039878845,"364":-0.209134042263031,"365":1.3697623014450073,"366":0.6204702258110046,"367":0.12123500555753708,"368":-0.026819445192813873,"369":-0.7205281853675842,"370":0.3541642427444458,"371":0.0016686609014868736,"372":-0.03570282459259033,"373":-0.8304781317710876,"374":0.10603930056095123,"375":-0.6431881189346313,"376":0.5245435833930969,"377":-0.5460103154182434,"378":0.17363432049751282,"379":-0.34070539474487305,"380":0.13899610936641693,"381":0.6445925831794739,"382":0.42397308349609375,"383":-0.153890922665596,"384":0.15557031333446503,"385":-0.7782145142555237,"386":-0.5589821338653564,"387":-0.2203165590763092,"388":0.3489187955856323,"389":0.6853653192520142,"390":0.5162109136581421,"391":0.09158842265605927,"392":-0.42739808559417725,"393":-0.4435666799545288,"394":0.04422206059098244,"395":0.3000597357749939,"396":0.24880555272102356,"397":0.43227285146713257,"398":-0.5549807548522949,"399":-0.06201547756791115,"400":-0.05642509087920189,"401":-0.008882200345396996,"402":0.7069452404975891,"403":-0.3679109811782837,"404":0.2082240730524063,"405":-0.14797523617744446,"406":-0.20327068865299225,"407":-0.3540169298648834,"408":-1.1819161176681519,"409":-0.3152713179588318,"410":-0.8009530901908875,"411":0.8687924742698669,"412":-0.9323577880859375,"413":-0.2603495717048645,"414":-0.61673903465271,"415":-1.4930107593536377,"416":0.4920368194580078,"417":0.651353120803833,"418":0.05918561667203903,"419":-0.9293452501296997,"420":-1.2317447662353516,"421":-0.17405568063259125,"422":0.7066762447357178,"423":0.15524867177009583,"424":0.40349674224853516,"425":-0.24216072261333466,"426":-0.7903355360031128,"427":0.8209545016288757,"428":-0.9315857291221619,"429":-0.2539876103401184,"430":0.3080023229122162,"431":0.2925378680229187,"432":-0.7886362671852112,"433":1.1511518955230713,"434":-0.03834418207406998,"435":0.605237603187561,"436":-0.27272146940231323,"437":-0.7596292495727539,"438":-0.9643452763557434,"439":-0.6510391235351562,"440":-0.07238984853029251,"441":0.5589180588722229,"442":-0.4908214807510376,"443":-0.8046181797981262,"444":-0.4979313611984253,"445":0.5523960590362549,"446":0.4870748817920685,"447":0.46993085741996765,"448":-0.47904184460639954,"449":0.48599791526794434,"450":-0.7930340766906738,"451":1.1651936769485474,"452":-1.0811835527420044,"453":-0.4814333915710449,"454":0.07240685075521469,"455":0.57433021068573,"456":-0.6734300851821899,"457":-0.19630785286426544,"458":-0.20623913407325745,"459":0.4326503574848175,"460":-1.0000630617141724,"461":0.29604917764663696,"462":-0.3461672365665436,"463":-0.8197907209396362,"464":0.055338069796562195,"465":0.25858044624328613,"466":0.7291572690010071,"467":-0.5142600536346436,"468":-0.3372976779937744,"469":-0.91535484790802,"470":0.5645755529403687,"471":-0.671739935874939,"472":0.36839351058006287,"473":-0.4168951213359833,"474":-0.20864926278591156,"475":0.1574341058731079,"476":-0.4224318861961365,"477":1.1668986082077026,"478":1.0584137439727783,"479":0.3762274384498596}},"cellActivationHidden":{"rows":20,"columns":20,"weights":{"0":0.14232595264911652,"1":1.1666098833084106,"2":-0.3291163742542267,"3":-0.6451783180236816,"4":0.6685869097709656,"5":0.0323227159678936,"6":-0.043601036071777344,"7":-0.6301506757736206,"8":0.9682685732841492,"9":0.12971051037311554,"10":0.17185421288013458,"11":0.056588634848594666,"12":-0.6571842432022095,"13":0.016128141433000565,"14":0.7181565761566162,"15":0.577586829662323,"16":0.8259997963905334,"17":0.24133437871932983,"18":-0.14371438324451447,"19":-0.39990952610969543,"20":-0.15090137720108032,"21":0.866166353225708,"22":0.14755500853061676,"23":-0.16278018057346344,"24":0.1279991865158081,"25":-0.556125283241272,"26":-0.24300608038902283,"27":-0.18958841264247894,"28":0.018521031364798546,"29":0.06773380190134048,"30":-0.037957705557346344,"31":-0.05117582157254219,"32":0.6446148157119751,"33":0.7056205868721008,"34":0.16294361650943756,"35":0.6808910369873047,"36":0.18265804648399353,"37":-0.1449170857667923,"38":-0.15053600072860718,"39":-0.4368741810321808,"40":0.3824884295463562,"41":0.45248833298683167,"42":-0.913239061832428,"43":-0.8083142042160034,"44":0.5136896371841431,"45":0.5374879240989685,"46":0.36917391419410706,"47":-0.3696780800819397,"48":1.272721529006958,"49":0.12606361508369446,"50":1.2562448978424072,"51":-0.35292908549308777,"52":-1.1193594932556152,"53":-0.4285949766635895,"54":0.8617876172065735,"55":0.6699077486991882,"56":1.2097190618515015,"57":0.40733689069747925,"58":0.47786542773246765,"59":-0.4782821238040924,"60":-0.7653747797012329,"61":-0.8762579560279846,"62":0.04558703675866127,"63":0.6176172494888306,"64":-0.6808719635009766,"65":-0.49963751435279846,"66":-0.8050185441970825,"67":0.6429190039634705,"68":-0.8258707523345947,"69":-0.6650413870811462,"70":-0.20453283190727234,"71":0.6438779234886169,"72":0.3477818965911865,"73":0.39951786398887634,"74":-0.5519062876701355,"75":0.028573110699653625,"76":-0.8432230949401855,"77":-0.817664623260498,"78":-0.7945634126663208,"79":0.7388070821762085,"80":0.8288332223892212,"81":-0.7361449599266052,"82":0.04363035410642624,"83":-0.057243019342422485,"84":-0.3616846799850464,"85":0.6064632534980774,"86":0.8469628691673279,"87":0.1500314623117447,"88":-0.20899173617362976,"89":0.38610270619392395,"90":-0.0761951431632042,"91":0.013130800798535347,"92":0.40441203117370605,"93":-1.031713843345642,"94":0.38802850246429443,"95":-0.4974018633365631,"96":-0.2444779872894287,"97":0.977215051651001,