{"type":"LSTM","options":{"inputSize":34,"inputRange":34,"hiddenLayers":[10,10],"outputSize":34,"decayRate":0.999,"smoothEps":1e-8,"regc":0.000001,"clipval":5,"maxPredictionLength":100,"dataFormatter":{"values":["quais pizzas?","Temos redondas e com recheio XD\nDoces\nSalgadas","quais sabores de pizza tem?","Pizza sabor pizza :D espero que goste, receita secreta","uma pizza doce por favor","Preparando uma pizza doce agorinha"],"indexTable":{"q":0,"u":1,"a":2,"i":3,"s":4," ":5,"p":6,"z":7,"?":8,"T":9,"e":10,"m":11,"o":12,"r":13,"d":14,"n":15,"c":16,"h":17,"X":18,"D":19,"\n":20,"S":21,"l":22,"g":23,"b":24,"t":25,"P":26,":":27,",":28,"f":29,"v":30,"stop-input":31,"start-output":32,"unrecognized":33},"characterTable":{"0":"q","1":"u","2":"a","3":"i","4":"s","5":" ","6":"p","7":"z","8":"?","9":"T","10":"e","11":"m","12":"o","13":"r","14":"d","15":"n","16":"c","17":"h","18":"X","19":"D","20":"\n","21":"S","22":"l","23":"g","24":"b","25":"t","26":"P","27":":","28":",","29":"f","30":"v","31":null,"32":null,"33":null},"characters":["q","u","a","i","s"," ","p","z","?","T","e","m","o","r","d","n","c","h","X","D","\n","S","l","g","b","t","P",":",",","f","v","stop-input","start-output","unrecognized"],"specialIndexes":[31,32,33]}},"input":{"rows":35,"columns":34,"weights":{"0":0.929610550403595,"1":0.08900552988052368,"2":1.0010775327682495,"3":-0.6812614798545837,"4":-0.40899142622947693,"5":0.9985139966011047,"6":-0.7424814105033875,"7":0.915774941444397,"8":-0.4123251736164093,"9":-0.39001551270484924,"10":1.5044883489608765,"11":0.4715946316719055,"12":0.8888224363327026,"13":-0.0031110520940274,"14":0.6848284602165222,"15":0.9151389598846436,"16":0.37674784660339355,"17":0.8224824070930481,"18":0.06789422035217285,"19":-0.7803893089294434,"20":-0.13795790076255798,"21":-0.9028136134147644,"22":1.477439045906067,"23":-0.22392277419567108,"24":0.20909997820854187,"25":0.6750110387802124,"26":-0.46042364835739136,"27":-0.19918830692768097,"28":1.0937644243240356,"29":0.47016972303390503,"30":0.49902108311653137,"31":-1.1023969650268555,"32":-0.3590468466281891,"33":-0.7992996573448181,"34":-0.2185344696044922,"35":-1.2441455125808716,"36":0.041306272149086,"37":1.7801072597503662,"38":1.3424649238586426,"39":-0.3686133027076721,"40":0.4392254650592804,"41":0.25876110792160034,"42":-2.0925509929656982,"43":-1.6841254234313965,"44":-1.2536580562591553,"45":-0.27338242530822754,"46":-0.4411177933216095,"47":-0.0818217396736145,"48":1.4934462308883667,"49":2.194664716720581,"50":0.769634485244751,"51":-0.6254635453224182,"52":-0.0806991457939148,"53":0.4619581997394562,"54":-0.5933253765106201,"55":0.15935221314430237,"56":0.09287013858556747,"57":1.4394770860671997,"58":-0.03782370686531067,"59":-0.35776203870773315,"60":-0.5753430128097534,"61":-0.20183522999286652,"62":1.9364575147628784,"63":-0.2550891041755676,"64":0.4136599600315094,"65":0.452589213848114,"66":-2.1682827472686768,"67":0.4206172227859497,"68":-0.22806857526302338,"69":1.241074562072754,"70":-2.1235358715057373,"71":-2.470897674560547,"72":0.7900640964508057,"73":-0.15512894093990326,"74":0.009528574533760548,"75":-2.3205792903900146,"76":0.4596824049949646,"77":0.6857796311378479,"78":0.08724958449602127,"79":-1.2489093542099,"80":-0.13618586957454681,"81":-1.450844645500183,"82":-0.10582780838012695,"83":-1.1145671606063843,"84":-2.1993765830993652,"85":-1.1304497718811035,"86":-0.5247817635536194,"87":-1.0283077955245972,"88":-1.1433610916137695,"89":0.3349462151527405,"90":-1.3652323484420776,"91":-0.8470581769943237,"92":-0.8349035382270813,"93":1.3122884035110474,"94":1.607795238494873,"95":1.7955210208892822,"96":-0.7029685974121094,"97":2.1657207012176514,"98":-0.5385803580284119,"99":0.3713241517543793,"100":-0.24267460405826569,"101":0.7601321339607239,"102":0.135616272687912,"103":1.0967434644699097,"104":0.05303105711936951,"105":-0.3148864507675171,"106":-0.44372740387916565,"107":0.29753631353378296,"108":-0.2228437066078186,"109":-0.37078529596328735,"110":-0.2152026742696762,"111":-0.5518211126327515,"112":0.5165455341339111,"113":-1.0599839687347412,"114":0.4287731349468231,"115":-2.1077451705932617,"116":1.1734734773635864,"117":0.29353317618370056,"118":0.24968321621418,"119":-0.25337645411491394,"120":-0.08401856571435928,"121":-1.06956148147583,"122":-0.4360944628715515,"123":-0.36616888642311096,"124":-0.030449550598859787,"125":0.6763720512390137,"126":-2.0741233825683594,"127":0.7821806073188782,"128":-0.03876880183815956,"129":0.42702457308769226,"130":0.17736868560314178,"131":1.4871375560760498,"132":1.3297237157821655,"133":0.45760709047317505,"134":-0.3986401855945587,"135":1.1325650215148926,"136":-0.6856897473335266,"137":-0.5509737730026245,"138":-1.4212695360183716,"139":-1.12839674949646,"140":-0.6927745342254639,"141":-0.915246844291687,"142":1.8687124252319336,"143":-1.7251800298690796,"144":0.12060879915952682,"145":1.1445401906967163,"146":0.07832229137420654,"147":-1.1401780843734741,"148":-2.325873613357544,"149":-0.04692680016160011,"150":-0.4099872410297394,"151":0.042405709624290466,"152":-0.9972658157348633,"153":-0.3882405757904053,"154":-0.7958280444145203,"155":-0.22423242032527924,"156":-0.8585866093635559,"157":1.8679815530776978,"158":-1.0769425630569458,"159":-0.5170955061912537,"160":0.13062308728694916,"161":-0.05533759295940399,"162":0.5699777603149414,"163":0.6718679666519165,"164":-0.15775956213474274,"165":-0.13302800059318542,"166":0.21041738986968994,"167":1.4892477989196777,"168":1.125320553779602,"169":1.5890203714370728,"170":-2.606184482574463,"171":-1.8667480945587158,"172":-0.49471426010131836,"173":-0.912168025970459,"174":-0.44767507910728455,"175":-1.760167121887207,"176":0.5722524523735046,"177":-0.49487292766571045,"178":0.2011670470237732,"179":1.3164106607437134,"180":0.4571596682071686,"181":-1.5118335485458374,"182":-2.3212525844573975,"183":0.5034366846084595,"184":0.7031180262565613,"185":0.3815194070339203,"186":-0.2890596091747284,"187":0.2243785262107849,"188":-2.6103591918945312,"189":1.2847177982330322,"190":-0.4677734971046448,"191":2.9126484394073486,"192":-0.8788219690322876,"193":0.7103312611579895,"194":-0.7421727776527405,"195":-0.5659055709838867,"196":0.39554768800735474,"197":1.31495201587677,"198":0.21073073148727417,"199":-0.9636695981025696,"200":-0.9187582731246948,"201":3.9456002712249756,"202":1.9605584144592285,"203":1.1171228885650635,"204":0.014946287497878075,"205":1.4306273460388184,"206":-0.24863757193088531,"207":-0.4470349848270416,"208":-1.9765304327011108,"209":0.15918150544166565,"210":-0.9555063843727112,"211":-0.564764678478241,"212":-0.1045084148645401,"213":-0.27506327629089355,"214":-0.04958679527044296,"215":-0.8235042691230774,"216":0.07478231191635132,"217":-0.12037598341703415,"218":0.19296786189079285,"219":-0.41548964381217957,"220":-0.7639604806900024,"221":-0.41841232776641846,"222":-0.38172993063926697,"223":-0.4953831732273102,"224":0.8979058265686035,"225":0.691981852054596,"226":-0.823577344417572,"227":-0.8854146599769592,"228":0.7759122848510742,"229":1.4346481561660767,"230":0.5023373961448669,"231":-0.5986876487731934,"232":-1.2115427255630493,"233":0.9817805290222168,"234":1.023936152458191,"235":-0.7306640148162842,"236":1.5895134210586548,"237":-0.014696044847369194,"238":-1.0023530721664429,"239":-2.590578079223633,"240":0.297193318605423,"241":-0.4828140139579773,"242":-0.6157099604606628,"243":-1.821826457977295,"244":0.9925401210784912,"245":0.3172799050807953,"246":-1.5096405744552612,"247":-0.7699221968650818,"248":-1.2198277711868286,"249":-0.46407902240753174,"250":-1.696555495262146,"251":0.12030582129955292,"252":0.4159420430660248,"253":0.18748019635677338,"254":0.19634445011615753,"255":0.4217381775379181,"256":-0.4977012574672699,"257":1.1971133947372437,"258":0.09512152522802353,"259":0.7333981394767761,"260":-0.8809036016464233,"261":1.0400326251983643,"262":-0.976209282875061,"263":-0.1923464834690094,"264":-0.21412110328674316,"265":0.34383973479270935,"266":-0.025872407481074333,"267":-0.7786981463432312,"268":1.1318875551223755,"269":1.5962074995040894,"270":0.19364109635353088,"271":0.742135226726532,"272":-0.6580869555473328,"273":-1.0424736738204956,"274":-0.1055016815662384,"275":-0.25149407982826233,"276":-1.389405608177185,"277":-1.9427741765975952,"278":0.3706502318382263,"279":0.1030387431383133,"280":1.150050401687622,"281":1.442619800567627,"282":0.6932845115661621,"283":-0.8727593421936035,"284":-1.5762423276901245,"285":-0.9101158976554871,"286":-0.9264766573905945,"287":-0.3321341574192047,"288":0.05550020933151245,"289":-0.07407388836145401,"290":-0.7747023701667786,"291":0.7516545057296753,"292":-0.15749263763427734,"293":1.1418496370315552,"294":-1.6303519010543823,"295":0.24968089163303375,"296":-0.8389793634414673,"297":-0.38857296109199524,"298":-0.007320521865040064,"299":0.22126951813697815,"300":0.6389287114143372,"301":0.14368602633476257,"302":-0.8370829820632935,"303":1.5631392002105713,"304":1.0578533411026,"305":1.6105878353118896,"306":0.9128924012184143,"307":0.4627430737018585,"308":2.408301591873169,"309":1.2490636110305786,"310":0.25095871090888977,"311":0.5815717577934265,"312":-0.30609866976737976,"313":2.2130825519561768,"314":-0.606855034828186,"315":0.7841741442680359,"316":-1.0105341672897339,"317":-0.08773484081029892,"318":0.36960577964782715,"319":0.9166644215583801,"320":-0.23180820047855377,"321":0.5456304550170898,"322":2.0011961460113525,"323":2.4907732009887695,"324":0.21795342862606049,"325":0.06783350557088852,"326":1.3464421033859253,"327":-0.7616791129112244,"328":0.21077072620391846,"329":0.7927454113960266,"330":-0.7673987150192261,"331":-1.0750409364700317,"332":-1.853637456893921,"333":-1.524588704109192,"334":1.0904929637908936,"335":-0.3396622836589813,"336":0.60184645652771,"337":-0.3877759277820587,"338":-0.3609018921852112,"339":-0.9711757302284241,"340":-4.175817966461182,"341":-1.5909624099731445,"342":0.20422789454460144,"343":2.236720085144043,"344":0.020753953605890274,"345":-1.5109392404556274,"346":2.015883445739746,"347":1.3347407579421997,"348":2.36671781539917,"349":1.5912679433822632,"350":-2.1100354194641113,"351":-3.278897285461426,"352":-1.6167172193527222,"353":-0.7523909211158752,"354":-1.3386808633804321,"355":-2.5218677520751953,"356":0.8762191534042358,"357":-0.5520573854446411,"358":-1.1387418508529663,"359":1.311798334121704,"360":-0.7959340810775757,"361":0.7316358685493469,"362":-3.700702428817749,"363":0.04596877098083496,"364":0.7153627872467041,"365":-1.7663335800170898,"366":-1.6275153160095215,"367":-1.1488529443740845,"368":-1.0770254135131836,"369":-0.052996065467596054,"370":-3.8195886611938477,"371":1.3002718687057495,"372":-0.7765252590179443,"373":3.7333452701568604,"374":-2.200495958328247,"375":-1.3416396379470825,"376":-1.2444013357162476,"377":-0.5014535188674927,"378":-2.8190057277679443,"379":-4.135134220123291,"380":0.4667837619781494,"381":-1.6267017126083374,"382":1.9382853507995605,"383":-0.14348791539669037,"384":0.1527816355228424,"385":0.24140280485153198,"386":-4.148656368255615,"387":-1.6762654781341553,"388":0.513263463973999,"389":-0.2130907028913498,"390":-0.940617024898529,"391":-0.04240554943680763,"392":-0.43416279554367065,"393":-0.31078147888183594,"394":0.1349097043275833,"395":5.65444803237915,"396":-1.6563632488250732,"397":-0.1190548911690712,"398":2.7527353763580322,"399":-0.889175534248352,"400":0.8153502345085144,"401":0.6097567677497864,"402":-0.08575377613306046,"403":0.30852413177490234,"404":1.4656550884246826,"405":3.2376554012298584,"406":1.643257975578308,"407":4.548982620239258,"408":1.2132984399795532,"409":0.563347339630127,"410":1.1327719688415527,"411":0.8714553713798523,"412":-2.4211959838867188,"413":1.1325657367706299,"414":-0.6805009245872498,"415":1.0803134441375732,"416":-0.5665262937545776,"417":-0.1659141480922699,"418":-0.42051616311073303,"419":1.0501861572265625,"420":0.848762571811676,"421":0.4037694036960602,"422":0.1119641363620758,"423":0.31589406728744507,"424":0.9012331366539001,"425":1.9802716970443726,"426":1.226046085357666,"427":-0.7858361601829529,"428":0.6791396141052246,"429":-1.3005555868148804,"430":0.6787675023078918,"431":0.1363813728094101,"432":0.9679780602455139,"433":-0.24766115844249725,"434":-1.3794575929641724,"435":-2.1633310317993164,"436":0.1370733082294464,"437":-0.1436830759048462,"438":1.5439218282699585,"439":-0.7079811692237854,"440":-0.7970612645149231,"441":-1.1191694736480713,"442":-1.7029978036880493,"443":-2.306601047515869,"444":-1.014248251914978,"445":-1.4600694179534912,"446":-1.3852826356887817,"447":-0.65566486120224,"448":1.6450881958007812,"449":-1.289446234703064,"450":0.3776209354400635,"451":0.7673987150192261,"452":0.9268963932991028,"453":-2.370854377746582,"454":-2.2114174365997314,"455":-0.27598145604133606,"456":-0.3924325108528137,"457":0.8745566606521606,"458":-0.8119882941246033,"459":-0.6510218381881714,"460":-2.6539430618286133,"461":0.39549189805984497,"462":-0.7409161925315857,"463":3.081002712249756,"464":-1.3228379487991333,"465":0.3829779326915741,"466":-0.5300455689430237,"467":-0.027123428881168365,"468":0.7078591585159302,"469":1.839422583580017,"470":1.5421689748764038,"471":-0.6763231754302979,"472":-0.535368025302887,"473":2.4065730571746826,"474":-0.014804101549088955,"475":2.0861315727233887,"476":-0.14489664137363434,"477":-0.26673033833503723,"478":-0.36942848563194275,"479":-0.37799763679504395,"480":-2.232734441757202,"481":-0.6618587374687195,"482":-0.005747584160417318,"483":-0.5493311285972595,"484":0.1956234723329544,"485":0.22768916189670563,"486":0.42181482911109924,"487":-0.11392167210578918,"488":-1.4228458404541016,"489":-1.1353386640548706,"490":0.5027484893798828,"491":-0.11514035612344742,"492":-0.5421041250228882,"493":-0.049835506826639175,"494":0.10720226168632507,"495":-0.5135291814804077,"496":0.316379576921463,"497":2.577810049057007,"498":-0.6496085524559021,"499":-0.23132771253585815,"500":1.4932273626327515,"501":0.7149047255516052,"502":0.21570919454097748,"503":-0.09122578799724579,"504":-0.04280301555991173,"505":1.3921518325805664,"506":1.830064296722412,"507":0.1587480753660202,"508":0.8395594358444214,"509":1.5511847734451294,"510":-1.6793442964553833,"511":1.1837666034698486,"512":-1.819064736366272,"513":-3.396977424621582,"514":0.12840425968170166,"515":-0.4256367087364197,"516":0.05953777953982353,"517":-2.457273483276367,"518":-0.25439944863319397,"519":0.9510790705680847,"520":0.2392779141664505,"521":-1.1326379776000977,"522":-0.3324371576309204,"523":-1.6859354972839355,"524":0.41767168045043945,"525":-2.756782293319702,"526":-2.2734408378601074,"527":-2.882176637649536,"528":-0.8571015000343323,"529":-0.44325312972068787,"530":-0.00946221873164177,"531":0.45095938444137573,"532":-1.4651819467544556,"533":-1.1227633953094482,"534":-1.5259512662887573,"535":2.264894962310791,"536":1.2831603288650513,"537":0.9102821350097656,"538":-1.5358338356018066,"539":1.6773450374603271,"540":0.7135056257247925,"541":1.7197363376617432,"542":2.94207501411438,"543":1.9950735569000244,"544":-1.5182604789733887,"545":-2.7467904090881348,"546":0.1757815033197403,"547":-0.6394996047019958,"548":1.4429758787155151,"549":-3.249725818634033,"550":1.4081472158432007,"551":-0.6189817786216736,"552":-0.5834635496139526,"553":0.3326391875743866,"554":-1.8802746534347534,"555":-3.258427143096924,"556":-2.183786392211914,"557":1.339502215385437,"558":-0.7858859896659851,"559":0.5675167441368103,"560":0.09612248092889786,"561":-0.6999516487121582,"562":-4.608889102935791,"563":1.946872591972351,"564":0.11074189841747284,"565":2.4607126712799072,"566":-1.2887303829193115,"567":1.957428216934204,"568":-3.7063546180725098,"569":-0.5450084805488586,"570":0.9179519414901733,"571":0.8055005073547363,"572":0.30784863233566284,"573":-1.20083749294281,"574":0.7928414940834045,"575":3.5540807247161865,"576":1.1734625101089478,"577":1.1836427450180054,"578":0.10377981513738632,"579":2.6054322719573975,"580":-1.8134819269180298,"581":-4.2023491859436035,"582":0.1627780944108963,"583":0.42845624685287476,"584":-0.5252883434295654,"585":-2.0265955924987793,"586":0.6446352601051331,"587":0.38436365127563477,"588":1.1475841999053955,"589":-0.46603086590766907,"590":0.5409281849861145,"591":-2.497253656387329,"592":-0.11712789535522461,"593":-0.933810293674469,"594":-2.9259896278381348,"595":-1.5959826707839966,"596":0.1617724895477295,"597":-1.7203577756881714,"598":-2.606205940246582,"599":-0.7253540754318237,"600":-1.6685824394226074,"601":-0.46691933274269104,"602":-0.6453734636306763,"603":2.2667601108551025,"604":1.9438660144805908,"605":2.1477949619293213,"606":0.03136275336146355,"607":3.1771910190582275,"608":-0.7524243593215942,"609":0.9456608295440674,"610":-0.2295897901058197,"611":0.3143714666366577,"612":0.5334101915359497,"613":0.5578455924987793,"614":1.239141821861267,"615":-0.566956639289856,"616":1.2027722597122192,"617":1.0262037515640259,"618":-1.2427366971969604,"619":0.6684625744819641,"620":-0.17009374499320984,"621":0.02981746383011341,"622":1.7174240350723267,"623":1.26398503780365,"624":1.345221757888794,"625":0.14303342998027802,"626":1.3369635343551636,"627":-0.13979916274547577,"628":0.3702659606933594,"629":1.8264577388763428,"630":2.1104352474212646,"631":-1.2924909591674805,"632":-0.9352147579193115,"633":-2.0024688243865967,"634":0.16138820350170135,"635":2.760129690170288,"636":-0.9332436919212341,"637":2.523970127105713,"638":-1.4481498003005981,"639":0.021087920293211937,"640":1.3929001092910767,"641":-0.41021090745925903,"642":-0.6204219460487366,"643":0.3378003239631653,"644":0.27102047204971313,"645":-0.3156069815158844,"646":-1.3386918306350708,"647":-2.018888473510742,"648":-0.3709429204463959,"649":0.07773351669311523,"650":1.6369740962982178,"651":-1.9857367277145386,"652":-0.029609620571136475,"653":-0.24051116406917572,"654":-0.3151811957359314,"655":0.14244261384010315,"656":-1.4043928384780884,"657":-2.1268372535705566,"658":-1.3299484252929688,"659":0.606313169002533,"660":-0.727580726146698,"661":0.16224506497383118,"662":0.2357083410024643,"663":0.3076879382133484,"664":-2.31794810295105,"665":2.9178996086120605,"666":-0.4040154814720154,"667":1.7240477800369263,"668":-1.5982513427734375,"669":1.942013144493103,"670":-4.94344425201416,"671":-0.42043596506118774,"672":-0.8245146870613098,"673":-0.07000195980072021,"674":-0.13390934467315674,"675":-0.3849886357784271,"676":0.32888463139533997,"677":2.7107715606689453,"678":1.8483408689498901,"679":2.252624034881592,"680":0.8955796360969543,"681":1.8525581359863281,"682":-0.47913041710853577,"683":-0.48306748270988464,"684":-1.5609309673309326,"685":0.7516553997993469,"686":-1.2884684801101685,"687":0.17164213955402374,"688":1.3048391342163086,"689":0.6412085294723511,"690":0.6496734023094177,"691":-1.5892599821090698,"692":0.5273573398590088,"693":2.2677805423736572,"694":-1.0967689752578735,"695":-1.4560905694961548,"696":-0.7482035160064697,"697":0.6239922642707825,"698":-1.2217035293579102,"699":0.01608826406300068,"700":0.5308486223220825,"701":-1.4535179138183594,"702":-0.15144221484661102,"703":-1.4791446924209595,"704":-0.8645066022872925,"705":2.8730640411376953,"706":0.16434472799301147,"707":0.25781601667404175,"708":-1.7123807668685913,"709":-0.8105957508087158,"710":-2.5143966674804688,"711":-0.2895505428314209,"712":0.14011389017105103,"713":-0.6973299980163574,"714":-0.4657568037509918,"715":-3.832045793533325,"716":1.0094841718673706,"717":0.04228612035512924,"718":1.4371792078018188,"719":-0.9043273329734802,"720":0.48921316862106323,"721":0.9121803641319275,"722":-2.7600936889648438,"723":-1.0902057886123657,"724":-0.633436918258667,"725":-1.254958152770996,"726":-0.7501731514930725,"727":2.313573122024536,"728":0.8544965386390686,"729":0.41673600673675537,"730":0.9092124700546265,"731":1.5413599014282227,"732":-2.726860523223877,"733":3.822650194168091,"734":0.8399080634117126,"735":2.299100637435913,"736":-0.8426598310470581,"737":1.8160130977630615,"738":-2.846463441848755,"739":-4.267637252807617,"740":0.05453865975141525,"741":1.0081546306610107,"742":0.21318089962005615,"743":-2.650632381439209,"744":2.1883277893066406,"745":2.7168896198272705,"746":2.028348207473755,"747":0.8133974671363831,"748":-1.8172962665557861,"749":-4.126158714294434,"750":2.1284046173095703,"751":-0.02087903581559658,"752":-1.7297168970108032,"753":-1.248376727104187,"754":0.5280303955078125,"755":1.6273274421691895,"756":-0.6942723989486694,"757":-0.1536814123392105,"758":-1.5535763502120972,"759":-0.7378714084625244,"760":-0.8289035558700562,"761":-0.17104904353618622,"762":-0.043886613100767136,"763":-1.352609395980835,"764":1.3097681999206543,"765":0.8733704686164856,"766":0.28605517745018005,"767":2.4702019691467285,"768":2.2109551429748535,"769":1.5749984979629517,"770":-0.9675725102424622,"771":-1.5585386753082275,"772":2.0229036808013916,"773":-0.4664307236671448,"774":1.5690933465957642,"775":1.3015892505645752,"776":-2.7632877826690674,"777":-1.5549920797348022,"778":-0.14539867639541626,"779":0.8298410177230835,"780":0.634138822555542,"781":0.30083057284355164,"782":-0.24817627668380737,"783":-1.6502060890197754,"784":2.0781285762786865,"785":1.0258146524429321,"786":2.803051471710205,"787":-0.6346190571784973,"788":-0.7836946845054626,"789":1.6285213232040405,"790":-0.06745383888483047,"791":-1.746057391166687,"792":-3.2972829341888428,"793":-0.8367937803268433,"794":-0.20163412392139435,"795":4.380268573760986,"796":1.4012757539749146,"797":1.3287607431411743,"798":1.6778544187545776,"799":2.6850473880767822,"800":-2.2389650344848633,"801":2.2233636379241943,"802":1.5325591564178467,"803":0.30656880140304565,"804":0.93856281042099,"805":3.067361831665039,"806":-3.1569066047668457,"807":-3.2144081592559814,"808":-0.8375349640846252,"809":-0.4470812976360321,"810":0.44214096665382385,"811":-3.9209907054901123,"812":0.14988763630390167,"813":1.3132789134979248,"814":1.509563684463501,"815":-1.1606448888778687,"816":-0.8861843347549438,"817":1.4783837795257568,"818":-1.8177034854888916,"819":-1.910007357597351,"820":-0.5229355692863464,"821":-0.03166991472244263,"822":-0.054686516523361206,"823":-1.6141318082809448,"824":-0.09713248163461685,"825":1.0017377138137817,"826":-1.5301793813705444,"827":-1.1253244876861572,"828":-0.07725406438112259,"829":-0.7991499900817871,"830":-0.6639254093170166,"831":-2.3554606437683105,"832":-2.1021976470947266,"833":-1.9232048988342285,"834":-0.4943445324897766,"835":-1.2099108695983887,"836":-0.5846170783042908,"837":0.699658989906311,"838":-1.4114782810211182,"839":-0.3141469955444336,"840":-1.4350193738937378,"841":2.5435335636138916,"842":1.276343584060669,"843":0.6630374789237976,"844":-2.1060378551483154,"845":2.347776174545288,"846":1.1603734493255615,"847":0.6390768885612488,"848":1.5756194591522217,"849":1.4039669036865234,"850":1.4826022386550903,"851":2.1565101146698,"852":-0.24141788482666016,"853":-2.3772621154785156,"854":-0.4854259788990021,"855":0.7611841559410095,"856":-0.8740460872650146,"857":-0.5014448761940002,"858":-0.024758335202932358,"859":2.4252233505249023,"860":-0.9793059825897217,"861":-2.430161237716675,"862":-0.9900647401809692,"863":-1.0097867250442505,"864":-0.4943827688694,"865":-1.3596364259719849,"866":-0.5922235250473022,"867":0.7860901951789856,"868":-0.6332910060882568,"869":-0.7266159653663635,"870":-0.41748636960983276,"871":1.280714988708496,"872":-2.035294771194458,"873":0.1282745748758316,"874":-4.049656867980957,"875":3.860729932785034,"876":-0.7415971755981445,"877":-0.43254733085632324,"878":-1.2504568099975586,"879":2.2457520961761475,"880":2.65032958984375,"881":-0.0035823157522827387,"882":3.10500168800354,"883":1.4007936716079712,"884":1.5405542850494385,"885":1.901344656944275,"886":-1.8329412937164307,"887":-4.288090705871582,"888":-0.26545462012290955,"889":0.6795395612716675,"890":-0.7512946128845215,"891":-2.3905599117279053,"892":0.30868610739707947,"893":0.6212623715400696,"894":3.037783622741699,"895":0.8270934820175171,"896":0.3929421305656433,"897":-0.5066148638725281,"898":0.7773508429527283,"899":-0.445827454328537,"900":-2.9741899967193604,"901":-1.2612991333007812,"902":0.45161378383636475,"903":-1.1016919612884521,"904":-0.0890885591506958,"905":-0.7996566295623779,"906":0.6866264343261719,"907":-0.39711037278175354,"908":-0.011443199589848518,"909":3.466703176498413,"910":1.630907654762268,"911":1.1619774103164673,"912":0.4133245646953583,"913":2.0624265670776367,"914":0.6624032855033875,"915":0.8234880566596985,"916":2.8822216987609863,"917":-1.2291042804718018,"918":-0.3070927560329437,"919":-2.0298261642456055,"920":-0.2379964143037796,"921":0.28029072284698486,"922":0.6540602445602417,"923":-1.0384724140167236,"924":0.8635166883468628,"925":0.13734619319438934,"926":-0.7495869398117065,"927":0.07160843908786774,"928":-1.8789891004562378,"929":0.6800423264503479,"930":-1.012432336807251,"931":-0.6481841206550598,"932":-0.05816956236958504,"933":-1.3284053802490234,"934":0.4496784806251526,"935":-0.17581762373447418,"936":0.473551869392395,"937":1.496914267539978,"938":0.9232664704322815,"939":1.245305061340332,"940":-0.38601720333099365,"941":2.253023624420166,"942":0.11165778338909149,"943":-1.465392827987671,"944":0.04474646970629692,"945":0.006798976566642523,"946":-1.0499324798583984,"947":-1.5838676691055298,"948":1.4615726470947266,"949":0.8769126534461975,"950":2.8216285705566406,"951":0.7856062650680542,"952":-0.973314106464386,"953":-0.742612898349762,"954":-1.3188728094100952,"955":1.044971227645874,"956":0.7212936878204346,"957":0.20551607012748718,"958":0.690837025642395,"959":-0.6933547258377075,"960":1.0106512308120728,"961":-0.4335666596889496,"962":3.606806755065918,"963":-0.10599255561828613,"964":-0.00025005859788507223,"965":-2.1098625659942627,"966":-0.41451114416122437,"967":-2.0064873695373535,"968":-0.3855227828025818,"969":-1.9912627935409546,"970":-0.07850289344787598,"971":1.164819359779358,"972":-2.9575865268707275,"973":-0.422226220369339,"974":0.2695448398590088,"975":-6.349573612213135,"976":2.8519699573516846,"977":0.6675414443016052,"978":-0.44096940755844116,"979":-0.16846926510334015,"980":-1.2602304220199585,"981":2.445563554763794,"982":-2.990150213241577,"983":-0.7581102848052979,"984":0.4579383432865143,"985":-0.8949830532073975,"986":0.23116493225097656,"987":-0.35032474994659424,"988":-4.908870220184326,"989":-5.161230564117432,"990":0.505782425403595,"991":-1.1133297681808472,"992":-0.12266863882541656,"993":-3.9225199222564697,"994":0.4418938159942627,"995":0.9835819005966187,"996":0.6690086722373962,"997":-0.5728583335876465,"998":0.19282649457454681,"999":-1.0320993661880493,"1000":-1.023863434791565,"1001":-0.709941565990448,"1002":-4.029188632965088,"1003":-2.334390163421631,"1004":-2.2623281478881836,"1005":1.089336633682251,"1006":-3.0748581886291504,"1007":-0.9212399125099182,"1008":-0.0352664440870285,"1009":-0.5045387744903564,"1010":-0.0798363983631134,"1011":0.6217905879020691,"1012":2.4110963344573975,"1013":4.932353496551514,"1014":-0.7593477368354797,"1015":2.2943904399871826,"1016":-1.4676250219345093,"1017":0.32662713527679443,"1018":0.8657530546188354,"1019":-0.9426752328872681,"1020":-0.5882797241210938,"1021":-2.8017988204956055,"1022":0.026258597150444984,"1023":-0.6314824223518372,"1024":-2.9910800457000732,"1025":-1.9447476863861084,"1026":1.0590654611587524,"1027":0.21834948658943176,"1028":-1.5780221223831177,"1029":0.5698399543762207,"1030":-2.5880863666534424,"1031":-1.2786418199539185,"1032":-1.5883859395980835,"1033":0.1605086773633957,"1034":0.06161804124712944,"1035":0.02499142475426197,"1036":-0.2674829363822937,"1037":0.6825629472732544,"1038":-0.8084240555763245,"1039":1.4751516580581665,"1040":-0.45839595794677734,"1041":2.0520853996276855,"1042":-1.1965655088424683,"1043":0.8705704212188721,"1044":0.8869913816452026,"1045":-1.3878552913665771,"1046":0.18033874034881592,"1047":-0.14333026111125946,"1048":-0.7452394366264343,"1049":-0.9700040221214294,"1050":2.713141441345215,"1051":2.2644317150115967,"1052":1.4028481245040894,"1053":0.9433427453041077,"1054":-1.523193120956421,"1055":-1.3682773113250732,"1056":-2.3689184188842773,"1057":-0.8696637749671936,"1058":0.2101084440946579,"1059":-1.20022714138031,"1060":3.7220096588134766,"1061":-1.8258639574050903,"1062":1.6576672792434692,"1063":2.4700944423675537,"1064":1.3507723808288574,"1065":1.7497525215148926,"1066":-1.751725673675537,"1067":-1.9307185411453247,"1068":-1.9303308725357056,"1069":-0.2437838613986969,"1070":-2.719291925430298,"1071":-1.7604777812957764,"1072":0.3252142071723938,"1073":-0.2651730477809906,"1074":0.7593140602111816,"1075":3.1959941387176514,"1076":-0.1684640794992447,"1077":-2.392751455307007,"1078":1.38788640499115,"1079":2.010012149810791,"1080":2.7439165115356445,"1081":1.0882822275161743,"1082":-0.908778727054596,"1083":1.146470308303833,"1084":0.23879724740982056,"1085":0.17207711935043335,"1086":-1.0745422840118408,"1087":4.031800746917725,"1088":0.8371952772140503,"1089":2.9712636470794678,"1090":-0.31140637397766113,"1091":0.21687525510787964,"1092":-0.32214781641960144,"1093":0.8372058272361755,"1094":-0.017158331349492073,"1095":-0.2871314585208893,"1096":0.8471642732620239,"1097":0.6051602363586426,"1098":0.7064125537872314,"1099":0.5194301009178162,"1100":0.837834358215332,"1101":-0.399722695350647,"1102":-0.3952752649784088,"1103":0.7412468791007996,"1104":-0.7537976503372192,"1105":-0.4256877303123474,"1106":1.0338414907455444,"1107":-3.182901382446289,"1108":-0.000013362005120143294,"1109":-0.10756439715623856,"1110":0.6140311360359192,"1111":-1.2767212390899658,"1112":-1.251339316368103,"1113":1.716966986656189,"1114":0.6873694062232971,"1115":-0.2582324743270874,"1116":0.7149823307991028,"1117":0.971362829208374,"1118":-0.41856619715690613,"1119":-1.9495694637298584,"1120":-2.925199031829834,"1121":-0.431070476770401,"1122":0.4947602152824402,"1123":0.043628185987472534,"1124":0.5276382565498352,"1125":0.1860021948814392,"1126":-0.2752986550331116,"1127":0.18583045899868011,"1128":-0.527623176574707,"1129":0.7932721376419067,"1130":-0.29160115122795105,"1131":-0.2542518973350525,"1132":0.0770103707909584,"1133":-0.2971225678920746,"1134":0.1483636051416397,"1135":1.2980595827102661,"1136":0.7789281010627747,"1137":0.15101829171180725,"1138":0.6483771204948425,"1139":0.6340398788452148,"1140":-0.028643537312746048,"1141":-0.034739717841148376,"1142":2.2122256755828857,"1143":-0.0837627574801445,"1144":0.3973298668861389,"1145":0.0881214514374733,"1146":-0.7190109491348267,"1147":-1.2972661256790161,"1148":-0.42611753940582275,"1149":-0.3899090886116028,"1150":0.632166862487793,"1151":-1.2397348880767822,"1152":0.049262624233961105,"1153":-0.1550760567188263,"1154":0.5059621334075928,"1155":-0.3144015967845917,"1156":-0.04289949685335159,"1157":-0.008430762216448784,"1158":-0.03219848871231079,"1159":0.06557871401309967,"1160":-0.0012670960277318954,"1161":0.06037064641714096,"1162":-0.006964622996747494,"1163":-0.009534252807497978,"1164":-0.01069161482155323,"1165":-0.06348294019699097,"1166":0.029077451676130295,"1167":0.01641240529716015,"1168":0.017038770020008087,"1169":0.06918081641197205,"1170":0.06667159497737885,"1171":-0.0010963808745145798,"1172":-0.07787434756755829,"1173":-0.03597475215792656,"1174":0.010095580480992794,"1175":-0.017100026831030846,"1176":-0.042084190994501114,"1177":-0.017488161101937294,"1178":0.05771608278155327,"1179":-0.033112071454524994,"1180":-0.03560837730765343,"1181":-0.011800709180533886,"1182":-0.010155984200537205,"1183":-0.010419424623250961,"1184":-0.02781306393444538,"1185":-0.07362145185470581,"1186":0.028398169204592705,"1187":0.04265354946255684,"1188":-0.000311798183247447,"1189":0.03257600963115692}},"hiddenLayers":[{"inputMatrix":{"rows":10,"columns":34,"weights":{"0":-0.94858717918396,"1":0.10024263709783554,"2":0.4434647858142853,"3":-0.07176044583320618,"4":-0.02618936449289322,"5":-0.6924098134040833,"6":0.3984691798686981,"7":0.3550213873386383,"8":-0.2793082892894745,"9":-0.23039625585079193,"10":-3.384739398956299,"11":-1.8737021684646606,"12":-0.3029642701148987,"13":1.8462821245193481,"14":-0.22917073965072632,"15":-0.07130689918994904,"16":0.38527002930641174,"17":0.5896114110946655,"18":-1.7044833898544312,"19":0.6360954642295837,"20":1.1619312763214111,"21":-0.3619650900363922,"22":-0.8994888067245483,"23":1.4609395265579224,"24":-2.402831554412842,"25":0.053493618965148926,"26":-0.305009126663208,"27":-0.2860133945941925,"28":-0.5964837074279785,"29":-1.781522274017334,"30":0.18245218694210052,"31":1.5620365142822266,"32":-0.12745226919651031,"33":0.8841069340705872,"34":-0.6026562452316284,"35":-2.1935882568359375,"36":-0.2601684331893921,"37":-0.6752018928527832,"38":-0.37211546301841736,"39":-2.115445613861084,"40":1.028062343597412,"41":-0.023479001596570015,"42":-0.02662060223519802,"43":0.2513689696788788,"44":0.37752455472946167,"45":-1.1550370454788208,"46":-2.111018657684326,"47":0.7468382120132446,"48":-0.043638501316308975,"49":0.12243351340293884,"50":-0.9196276068687439,"51":-1.4715416431427002,"52":-1.053859829902649,"53":1.8032811880111694,"54":0.4707116484642029,"55":2.455188035964966,"56":-0.281895250082016,"57":0.149149551987648,"58":-3.5074212551116943,"59":-1.2335975170135498,"60":0.4738302528858185,"61":0.7906176447868347,"62":0.7185670137405396,"63":-1.0614793300628662,"64":0.4948974847793579,"65":1.6211636066436768,"66":1.186045527458191,"67":0.9603382349014282,"68":1.1478850841522217,"69":2.6637730598449707,"70":0.6918421387672424,"71":-0.16024774312973022,"72":-0.9775240421295166,"73":-0.31776759028434753,"74":-0.23615673184394836,"75":0.6944180130958557,"76":1.854292631149292,"77":-0.30210763216018677,"78":-0.38291940093040466,"79":0.3033757209777832,"80":-0.21953561902046204,"81":1.6216880083084106,"82":-0.12831038236618042,"83":-0.508933961391449,"84":0.36156579852104187,"85":1.6617099046707153,"86":-0.443593829870224,"87":-0.08349010348320007,"88":1.654466152191162,"89":-0.29372161626815796,"90":1.2021204233169556,"91":0.49289846420288086,"92":0.5866636633872986,"93":0.013893427327275276,"94":-0.18351075053215027,"95":-0.47576069831848145,"96":-0.18364521861076355,"97":-1.0237634181976318,"98":-0.048857878893613815,"99":0.026553180068731308,"100":0.7977828979492188,"101":-0.4403558373451233,"102":0.6912365555763245,"103":3.0913307666778564,"104":0.24500852823257446,"105":0.027628064155578613,"106":-0.5922965407371521,"107":-0.20049801468849182,"108":-0.29106149077415466,"109":0.12808911502361298,"110":1.5683245658874512,"111":0.094307541847229,"112":0.2636640965938568,"113":-0.6872393488883972,"114":-0.4757038950920105,"115":-0.21323175728321075,"116":-1.511136770248413,"117":-1.246044635772705,"118":0.27453431487083435,"119":1.170992374420166,"120":-0.4652796983718872,"121":-0.038531407713890076,"122":-0.7117735147476196,"123":0.18780025839805603,"124":-0.27851003408432007,"125":-0.013098439201712608,"126":1.6271331310272217,"127":1.0297998189926147,"128":-0.14382146298885345,"129":-0.3054887056350708,"130":-0.8390243053436279,"131":1.7672005891799927,"132":-0.4881328046321869,"133":-0.792140543460846,"134":-0.12630678713321686,"135":-0.5410910248756409,"136":0.830862820148468,"137":-0.514133095741272,"138":-0.6467682123184204,"139":-2.6270289421081543,"140":-0.9310920834541321,"141":-0.16122540831565857,"142":0.12504547834396362,"143":-1.1088801622390747,"144":0.2813800871372223,"145":0.11606363207101822,"146":0.29629218578338623,"147":-1.1940815448760986,"148":-0.16620266437530518,"149":-1.3512136936187744,"150":0.08744119107723236,"151":-0.1752961426973343,"152":-0.737581729888916,"153":-0.2692617177963257,"154":-1.5796189308166504,"155":-0.02052013762295246,"156":-1.8668498992919922,"157":0.9769399762153625,"158":-0.005366016179323196,"159":0.7924296855926514,"160":-0.5544342398643494,"161":-0.3007734715938568,"162":1.0677330493927002,"163":2.2747802734375,"164":0.5682642459869385,"165":0.5397987961769104,"166":1.1449769735336304,"167":1.1896642446517944,"168":0.4519101083278656,"169":0.5234712958335876,"170":-0.4563840925693512,"171":-0.16900034248828888,"172":-1.0828396081924438,"173":-1.5040431022644043,"174":-1.4136594533920288,"175":-0.9760701656341553,"176":1.0092716217041016,"177":-1.3456368446350098,"178":-0.4921116232872009,"179":0.4592306613922119,"180":-1.1471738815307617,"181":-2.952482223510742,"182":-1.2007049322128296,"183":-0.5006459355354309,"184":-1.198154330253601,"185":-1.2067973613739014,"186":-1.0278420448303223,"187":-0.5713238716125488,"188":-2.033324956893921,"189":0.4529520869255066,"190":-0.7892451286315918,"191":1.105021595954895,"192":-1.6520287990570068,"193":-0.5326634049415588,"194":0.047539979219436646,"195":0.08290083706378937,"196":1.3054535388946533,"197":1.6772396564483643,"198":-1.8431885242462158,"199":0.5819605588912964,"200":1.0331363677978516,"201":1.6881486177444458,"202":0.2578834891319275,"203":1.5270813703536987,"204":0.2910137474536896,"205":0.03483448177576065,"206":-0.022923901677131653,"207":-1.4239400625228882,"208":-0.8381463289260864,"209":-0.49043843150138855,"210":0.2551597058773041,"211":-0.583022952079773,"212":-0.172298401594162,"213":0.629725992679596,"214":1.246991515159607,"215":-0.680465579032898,"216":-0.5018951892852783,"217":-0.7059166431427002,"218":-0.6265882849693298,"219":0.0035066662821918726,"220":0.17396588623523712,"221":-0.7814401984214783,"222":-1.215095043182373,"223":-0.2464696168899536,"224":0.7066537737846375,"225":1.6734050512313843,"226":-1.3874355554580688,"227":0.6793318390846252,"228":-0.7130898833274841,"229":0.5956303477287292,"230":0.9286413192749023,"231":0.43306490778923035,"232":0.20639698207378387,"233":0.19651660323143005,"234":1.2537322044372559,"235":1.219994068145752,"236":0.29409924149513245,"237":1.4713808298110962,"238":-1.4455381631851196,"239":-1.9092321395874023,"240":-0.6190353035926819,"241":-0.2651348114013672,"242":0.876689076423645,"243":-0.294201523065567,"244":1.2044697999954224,"245":-0.6293982863426208,"246":-0.998295247554779,"247":-0.18097132444381714,"248":0.8838333487510681,"249":0.04705190658569336,"250":-0.47939127683639526,"251":-1.5549230575561523,"252":0.7229374647140503,"253":-0.046160969883203506,"254":-0.533178985118866,"255":-1.6225131750106812,"256":-0.11300694942474365,"257":0.34166789054870605,"258":-0.807693600654602,"259":0.6134824156761169,"260":-0.37733304500579834,"261":-0.617824375629425,"262":0.0056286281906068325,"263":-1.3810962438583374,"264":0.4762062132358551,"265":1.037209391593933,"266":0.7291434407234192,"267":0.3784491717815399,"268":-0.6385190486907959,"269":1.5843610763549805,"270":-0.7460101246833801,"271":1.3537920713424683,"272":-0.15662157535552979,"273":4.1626081466674805,"274":-0.30351749062538147,"275":0.16116929054260254,"276":-0.5362803339958191,"277":0.4178312420845032,"278":-1.0109977722167969,"279":-0.07138893753290176,"280":0.2003381997346878,"281":0.3476904034614563,"282":2.015673875808716,"283":1.410018801689148,"284":0.4007108211517334,"285":-1.6618413925170898,"286":0.44622910022735596,"287":-1.3593984842300415,"288":-0.16871099174022675,"289":-0.505071759223938,"290":2.0204262733459473,"291":-2.3045406341552734,"292":0.4469704329967499,"293":-0.1416478455066681,"294":-0.939640998840332,"295":-1.491469144821167,"296":1.0228164196014404,"297":1.2057279348373413,"298":-0.49363699555397034,"299":-1.1804710626602173,"300":-0.3759635388851166,"301":1.6859327554702759,"302":-0.005183436442166567,"303":-1.0791341066360474,"304":1.0895717144012451,"305":0.7406371831893921,"306":0.5194343328475952,"307":-2.21828556060791,"308":0.40921124815940857,"309":-0.5273803472518921,"310":0.15950654447078705,"311":-0.5084384679794312,"312":0.18831250071525574,"313":-0.11675979942083359,"314":-0.17760400474071503,"315":-0.25466465950012207,"316":-2.8652539253234863,"317":-1.632990837097168,"318":-0.17035441100597382,"319":1.177131175994873,"320":-0.623207688331604,"321":-0.36453190445899963,"322":0.9727256298065186,"323":1.498228907585144,"324":-2.101123332977295,"325":1.0013738870620728,"326":-0.26810792088508606,"327":-0.31074437499046326,"328":-0.30452269315719604,"329":1.6349208354949951,"330":-1.1525602340698242,"331":-0.6404668092727661,"332":0.1535511314868927,"333":0.5722321271896362,"334":-0.18626566231250763,"335":-1.0171438455581665,"336":0.4814554452896118,"337":1.6018182039260864,"338":-0.3058222830295563,"339":-0.23399245738983154}},"inputHidden":{"rows":10,"columns":10,"weights":{"0":-0.5878772139549255,"1":3.211217164993286,"2":-0.667705237865448,"3":0.27670106291770935,"4":0.29232141375541687,"5":-0.9616667628288269,"6":0.8690998554229736,"7":-0.34129711985588074,"8":1.8073734045028687,"9":2.5919713973999023,"10":-1.0902938842773438,"11":-2.521937608718872,"12":-0.8683729767799377,"13":1.2637722492218018,"14":-0.42666295170783997,"15":-0.30149564146995544,"16":-0.486025869846344,"17":-0.2554575204849243,"18":2.1518077850341797,"19":-2.5981414318084717,"20":1.587942123413086,"21":0.6744652390480042,"22":-1.9603047370910645,"23":0.2643769383430481,"24":-0.7808339595794678,"25":-0.2427230179309845,"26":2.683474063873291,"27":-0.10016821324825287,"28":3.5750603675842285,"29":-2.7377119064331055,"30":-0.2662367522716522,"31":-3.774722099304199,"32":-2.3928492069244385,"33":5.118194103240967,"34":-0.40298041701316833,"35":2.059475898742676,"36":0.9177750945091248,"37":2.080456256866455,"38":-0.4847923815250397,"39":-1.854861855506897,"40":1.2769025564193726,"41":-2.453629493713379,"42":-1.0923984050750732,"43":-0.19168367981910706,"44":0.4496150314807892,"45":1.7357174158096313,"46":-1.0130300521850586,"47":2.4907023906707764,"48":0.6279634237289429,"49":-1.5399010181427002,"50":-0.2857917547225952,"51":0.9255729913711548,"52":0.5198236703872681,"53":-0.7387245893478394,"54":1.1513948440551758,"55":-0.8800679445266724,"56":-1.0969064235687256,"57":-1.4745427370071411,"58":-0.5512401461601257,"59":0.4090142548084259,"60":-1.5498769283294678,"61":-2.6678740978240967,"62":-1.337010383605957,"63":1.913973331451416,"64":1.0461037158966064,"65":1.7235304117202759,"66":-3.0351674556732178,"67":1.84840726852417,"68":-0.4157387614250183,"69":-1.896113395690918,"70":0.21367304027080536,"71":0.5512922406196594,"72":4.36960506439209,"73":-2.8773465156555176,"74":-0.9546138048171997,"75":-1.6023073196411133,"76":-0.9483282566070557,"77":-0.43900948762893677,"78":-2.6363027095794678,"79":1.4605056047439575,"80":-1.980400562286377,"81":-2.4040393829345703,"82":0.3333178758621216,"83":-1.4862209558486938,"84":0.4239298403263092,"85":1.2425899505615234,"86":-0.7548995018005371,"87":1.9366638660430908,"88":-1.5073785781860352,"89":-1.9378888607025146,"90":0.03400452435016632,"91":-0.1714242845773697,"92":-1.822649359703064,"93":3.3038532733917236,"94":-1.3916066884994507,"95":-2.2839157581329346,"96":1.093288540840149,"97":-2.1191303730010986,"98":1.6066467761993408,"99":-0.9051405191421509}},"inputBias":{"rows":10,"columns":1,"weights":{"0":-0.16999314725399017,"1":-0.9037684202194214,"2":1.3830031156539917,"3":0.9978952407836914,"4":-0.008131061680614948,"5":-0.6960050463676453,"6":-1.1851340532302856,"7":-0.5190531015396118,"8":-0.7223652005195618,"9":-0.00255181104876101}},"forgetMatrix":{"rows":10,"columns":34,"weights":{"0":1.8326863050460815,"1":2.9246253967285156,"2":1.011673927307129,"3":1.478961706161499,"4":-1.474847674369812,"5":1.131300449371338,"6":-1.3453463315963745,"7":1.2702337503433228,"8":-0.914730966091156,"9":-0.07206394523382187,"10":0.5414095520973206,"11":-0.15824054181575775,"12":1.0421302318572998,"13":-0.2600870728492737,"14":-0.4014642834663391,"15":-0.09714232385158539,"16":0.8915740847587585,"17":0.8130602836608887,"18":-0.1766931414604187,"19":-1.8054274320602417,"20":1.4389979839324951,"21":-0.6449471116065979,"22":-0.7319856286048889,"23":-1.371575951576233,"24":1.0837711095809937,"25":0.2979380786418915,"26":-1.2227944135665894,"27":-2.4570934772491455,"28":-0.7191001176834106,"29":0.5065462589263916,"30":1.3138432502746582,"31":-1.8288588523864746,"32":-0.9696260690689087,"33":-0.749413251876831,"34":0.47244805097579956,"35":-1.542289137840271,"36":0.6503098011016846,"37":1.5022348165512085,"38":0.6823665499687195,"39":-0.16115738451480865,"40":0.024041127413511276,"41":0.8494040369987488,"42":-0.7219472527503967,"43":-0.246651291847229,"44":0.7055346965789795,"45":2.2665679454803467,"46":-0.22728478908538818,"47":-0.325378954410553,"48":0.6028101444244385,"49":1.0744636058807373,"50":0.4794837236404419,"51":0.42649462819099426,"52":1.8918579816818237,"53":1.2269036769866943,"54":1.2990168333053589,"55":-0.8082193732261658,"56":0.9558072090148926,"57":0.33073028922080994,"58":1.8066997528076172,"59":-2.1533899307250977,"60":-0.15094180405139923,"61":0.014983665198087692,"62":1.1641936302185059,"63":-1.7846345901489258,"64":0.37343305349349976,"65":-0.46926578879356384,"66":0.4785221517086029,"67":-1.5697506666183472,"68":1.18878972530365,"69":1.409066081047058,"70":0.36053094267845154,"71":0.36664119362831116,"72":-1.6322927474975586,"73":0.899126410484314,"74":-0.8947944045066833,"75":0.6037404537200928,"76":0.08627195656299591,"77":-0.43813925981521606,"78":1.2815443277359009,"79":0.5478541851043701,"80":0.7665899395942688,"81":0.17244023084640503,"82":0.6700365543365479,"83":0.9652684926986694,"84":0.646570086479187,"85":-0.16162733733654022,"86":0.6481443047523499,"87":-0.7946871519088745,"88":0.5424103736877441,"89":-0.44582685828208923,"90":1.1648870706558228,"91":-0.9278613328933716,"92":0.8924043774604797,"93":0.3406134843826294,"94":-0.6831808686256409,"95":-0.8542974591255188,"96":1.5109516382217407,"97":0.23395006358623505,"98":-0.3971515893936157,"99":-1.5073246955871582,"100":0.20694026350975037,"101":-1.7465078830718994,"102":0.01984003745019436,"103":0.3254348337650299,"104":-0.642237663269043,"105":-0.4816107749938965,"106":-1.2117115259170532,"107":-0.14888757467269897,"108":0.12594495713710785,"109":-0.7216280698776245,"110":0.8062351942062378,"111":0.6644290685653687,"112":-0.0982050970196724,"113":-1.8113086223602295,"114":-0.3584784269332886,"115":-0.2027675211429596,"116":-0.5666823387145996,"117":-0.4637880027294159,"118":-0.5883054733276367,"119":-0.8662064671516418,"120":-1.6407638788223267,"121":0.35936617851257324,"122":-0.24493837356567383,"123":0.5124709606170654,"124":-0.4657600224018097,"125":-1.7176789045333862,"126":-1.0629950761795044,"127":0.6981123089790344,"128":0.47786447405815125,"129":0.20300057530403137,"130":-0.7155324220657349,"131":0.9082241058349609,"132":-0.4850102365016937,"133":0.3723006248474121,"134":0.2797578275203705,"135":0.5467640161514282,"136":0.4060119390487671,"137":3.990220069885254,"138":-0.6402756571769714,"139":-0.13493825495243073,"140":-0.6920154094696045,"141":0.8009430170059204,"142":1.0326368808746338,"143":-0.5813954472541809,"144":0.6834088563919067,"145":0.27601203322410583,"146":-0.5207030773162842,"147":1.2235808372497559,"148":-0.4278241991996765,"149":-0.07933316379785538,"150":-0.5942850708961487,"151":-0.4296622574329376,"152":-0.7698403000831604,"153":-1.6063119173049927,"154":0.9822375178337097,"155":-1.9942164421081543,"156":0.3314060866832733,"157":0.9759915471076965,"158":0.18776243925094604,"159":-2.7571327686309814,"160":2.74301815032959,"161":0.014818485826253891,"162":0.14565593004226685,"163":-0.8113098740577698,"164":-1.2919166088104248,"165":0.6526594758033752,"166":0.2730236351490021,"167":-1.7646476030349731,"168":0.7383741736412048,"169":1.137089729309082,"170":0.4647948443889618,"171":-1.035457968711853,"172":0.24810515344142914,"173":-0.32928040623664856,"174":-0.0034451386891305447,"175":-0.7197006940841675,"176":0.4013543725013733,"177":-0.19704750180244446,"178":1.1022533178329468,"179":0.6719014048576355,"180":-1.3316996097564697,"181":-2.478549003601074,"182":-0.7319386005401611,"183":0.4220178425312042,"184":-1.0200366973876953,"185":-1.0210301876068115,"186":-0.27697494626045227,"187":0.21376904845237732,"188":-1.2989879846572876,"189":0.9485975503921509,"190":0.5642176866531372,"191":0.8062583804130554,"192":-1.289543628692627,"193":0.006459614261984825,"194":-0.8561835289001465,"195":0.9314103126525879,"196":0.3169921338558197,"197":0.24235010147094727,"198":-1.5088722705841064,"199":-0.18864242732524872,"200":-0.5739906430244446,"201":1.1894360780715942,"202":1.0547528266906738,"203":1.2040094137191772,"204":1.3946833610534668,"205":1.2717812061309814,"206":0.17680995166301727,"207":-1.0039645433425903,"208":0.10264258831739426,"209":1.4031281471252441,"210":-1.0789533853530884,"211":0.010696372017264366,"212":0.041420724242925644,"213":-0.598242461681366,"214":0.35831114649772644,"215":1.0940632820129395,"216":1.4562004804611206,"217":0.2832975387573242,"218":0.4654409885406494,"219":0.803443968296051,"220":-0.5622243285179138,"221":0.7153593897819519,"222":1.2129896879196167,"223":-1.4915482997894287,"224":-0.594736635684967,"225":-1.5918034315109253,"226":0.41022682189941406,"227":1.0281963348388672,"228":0.005580706521868706,"229":-0.5260862112045288,"230":0.4495222270488739,"231":0.8802468180656433,"232":1.1334002017974854,"233":-0.7153176069259644,"234":-0.2179478257894516,"235":0.014325354248285294,"236":-1.434489369392395,"237":-0.7040172815322876,"238":-0.6668812036514282,"239":-0.4045494496822357,"240":-0.36419257521629333,"241":-1.3585201501846313,"242":-1.2696785926818848,"243":-0.4870374798774719,"244":1.2117270231246948,"245":-1.0404243469238281,"246":0.9186291098594666,"247":0.9772303700447083,"248":-0.9112146496772766,"249":-1.6520717144012451,"250":-0.5731174945831299,"251":-0.42567887902259827,"252":-1.9164749383926392,"253":-1.901166319847107,"254":-0.9050256013870239,"255":0.18686054646968842,"256":-0.8222328424453735,"257":-0.7396843433380127,"258":0.16415593028068542,"259":0.7442491054534912,"260":-1.7472748756408691,"261":-0.6683229804039001,"262":0.7694048881530762,"263":1.2120195627212524,"264":1.6037774085998535,"265":0.8552692532539368,"266":-1.9926050901412964,"267":0.7438352704048157,"268":-0.4863851070404053,"269":-0.07084818929433823,"270":-0.040504708886146545,"271":1.2646887302398682,"272":-0.35381752252578735,"273":1.8835779428482056,"274":-0.41377848386764526,"275":-0.7445938587188721,"276":1.2150635719299316,"277":0.19454847276210785,"278":-0.9609845876693726,"279":-0.5260610580444336,"280":0.225172758102417,"281":-0.09424273669719696,"282":1.751499056816101,"283":-0.126425102353096,"284":0.7693257331848145,"285":-3.9995005130767822,"286":0.6568867564201355,"287":-1.5041775703430176,"288":-0.030134081840515137,"289":-0.0644424632191658,"290":0.40028437972068787,"291":-2.390360116958618,"292":-0.7943606972694397,"293":-1.0262302160263062,"294":-0.21904385089874268,"295":0.6505584716796875,"296":0.24956917762756348,"297":1.9969795942306519,"298":-0.2753441631793976,"299":-0.08533826470375061,"300":0.03125660493969917,"301":2.9097139835357666,"302":-0.1705838143825531,"303":0.16529639065265656,"304":-0.8142386078834534,"305":0.38924604654312134,"306":1.9597009420394897,"307":0.36728301644325256,"308":1.0153461694717407,"309":-0.10529341548681259,"310":0.08095165342092514,"311":1.0510141849517822,"312":-0.3491716980934143,"313":0.5535266399383545,"314":-1.6229286193847656,"315":-1.822500228881836,"316":-1.2815742492675781,"317":0.8769621849060059,"318":0.18628168106079102,"319":1.6742594242095947,"320":0.6519090533256531,"321":-0.9197923541069031,"322":0.9492793679237366,"323":1.2360780239105225,"324":0.8603994846343994,"325":-0.33945536613464355,"326":0.7941266894340515,"327":0.2124968320131302,"328":1.2435917854309082,"329":-0.38194137811660767,"330":1.1743170022964478,"331":-1.3310940265655518,"332":-0.3759307563304901,"333":0.19963061809539795,"334":-1.2188643217086792,"335":-1.0200839042663574,"336":1.5817538499832153,"337":-1.9130818843841553,"338":0.6717637777328491,"339":-1.365473985671997}},"forgetHidden":{"rows":10,"columns":10,"weights":{"0":-0.3921452462673187,"1":1.8525962829589844,"2":3.863739013671875,"3":-5.173227787017822,"4":0.3903472125530243,"5":1.146584153175354,"6":0.8402693867683411,"7":0.28684353828430176,"8":-2.012230396270752,"9":-0.13051418960094452,"10":0.33762213587760925,"11":-0.1836867779493332,"12":-1.164628267288208,"13":0.2091534584760666,"14":0.1339302361011505,"15":0.25434306263923645,"16":-0.29839786887168884,"17":0.05450495705008507,"18":-0.9966569542884827,"19":0.004390854854136705,"20":-0.7879829406738281,"21":3.9875779151916504,"22":1.7719271183013916,"23":-0.06134091317653656,"24":-0.4911448359489441,"25":-2.1751861572265625,"26":-2.987678050994873,"27":-0.8314684629440308,"28":-0.9463590383529663,"29":3.219837188720703,"30":-0.6248910427093506,"31":0.23987247049808502,"32":-0.5760164260864258,"33":0.41327136754989624,"34":0.211440771818161,"35":-0.7302371859550476,"36":1.3242169618606567,"37":-0.5016833543777466,"38":0.6105276346206665,"39":1.0017369985580444,"40":0.13279859721660614,"41":0.10228445380926132,"42":2.7455942630767822,"43":-2.1656644344329834,"44":2.7659995555877686,"45":1.8421441316604614,"46":-1.0105767250061035,"47":2.0894134044647217,"48":-1.937279224395752,"49":-0.3151056170463562,"50":-1.582874059677124,"51":2.2310338020324707,"52":-0.8707322478294373,"53":-0.5555430054664612,"54":-0.9639996290206909,"55":-1.7729674577713013,"56":1.1110974550247192,"57":-1.4508349895477295,"58":0.25015315413475037,"59":2.0701756477355957,"60":-0.5590519309043884,"61":-1.925554871559143,"62":-6.796669960021973,"63":2.4587719440460205,"64":0.42568331956863403,"65":2.564934015274048,"66":1.2364637851715088,"67":2.7389636039733887,"68":2.50093936920166,"69":-3.110628366470337,"70":-0.4532397985458374,"71":1.3400604724884033,"72":-1.5919275283813477,"73":0.03109598346054554,"74":-0.7595788240432739,"75":-1.1246755123138428,"76":1.1133261919021606,"77":-1.2096920013427734,"78":-0.13893596827983856,"79":1.8668416738510132,"80":-0.6550713181495667,"81":-0.3278123736381531,"82":1.954645037651062,"83":-0.9890404343605042,"84":2.1857376098632812,"85":0.7976926565170288,"86":-1.6069858074188232,"87":1.9701707363128662,"88":-1.1650776863098145,"89":-1.9863227605819702,"90":0.06626100093126297,"91":0.09420347958803177,"92":-1.365950345993042,"93":3.407705783843994,"94":-0.8392813801765442,"95":-1.3062602281570435,"96":-1.3200931549072266,"97":-0.9786015152931213,"98":5.491201400756836,"99":0.33464404940605164}},"forgetBias":{"rows":10,"columns":1,"weights":{"0":0,"1":0,"2":0,"3":0,"4":0,"5":0,"6":0,"7":0,"8":0,"9":0}},"outputMatrix":{"rows":10,"columns":34,"weights":{"0":-1.441222071647644,"1":-0.4302975535392761,"2":-0.4990750551223755,"3":-0.4970247149467468,"4":-1.0400737524032593,"5":-1.213954210281372,"6":1.466002106666565,"7":-0.6433398127555847,"8":0.8318729996681213,"9":1.3846468925476074,"10":-0.2121148258447647,"11":-1.9199777841567993,"12":-1.07273268699646,"13":-1.3498469591140747,"14":-0.9108845591545105,"15":-0.6379694938659668,"16":-1.044351577758789,"17":-1.1822597980499268,"18":-0.49897390604019165,"19":-0.2198452204465866,"20":-0.3894004821777344,"21":0.861193060874939,"22":-1.619845986366272,"23":-1.9677540063858032,"24":0.011025294661521912,"25":1.977516770362854,"26":1.224370002746582,"27":0.143748939037323,"28":-1.0218185186386108,"29":1.4549275636672974,"30":-0.5367317795753479,"31":0.7173894643783569,"32":-0.5527563095092773,"33":2.0358824729919434,"34":0.00019308865012135357,"35":-0.7832838892936707,"36":0.8759542107582092,"37":0.44510820508003235,"38":-3.22019362449646,"39":-0.42066025733947754,"40":-0.07283338904380798,"41":0.5890347957611084,"42":-0.4913056492805481,"43":0.5291441679000854,"44":-0.9190782904624939,"45":-1.3994050025939941,"46":-0.9205530285835266,"47":0.47044309973716736,"48":0.06115328520536423,"49":-1.410516381263733,"50":1.0636807680130005,"51":1.133725881576538,"52":-1.3657007217407227,"53":0.5323724746704102,"54":0.5340984463691711,"55":1.012830376625061,"56":-0.35174405574798584,"57":-0.041158340871334076,"58":-0.8841090798377991,"59":0.08265896141529083,"60":-0.7970033288002014,"61":-0.6994197964668274,"62":-1.3533897399902344,"63":-0.013109967112541199,"64":1.2875562906265259,"65":1.1449661254882812,"66":1.716404676437378,"67":0.17245866358280182,"68":0.19784995913505554,"69":1.4335379600524902,"70":0.008964291773736477,"71":-0.05634224787354469,"72":-0.13516223430633545,"73":0.15391920506954193,"74":0.1100226491689682,"75":0.05869175121188164,"76":0.2957380414009094,"77":0.20812425017356873,"78":0.516332745552063,"79":-0.29429954290390015,"80":0.13647544384002686,"81":-0.09163827449083328,"82":-0.38808223605155945,"83":-0.46865740418434143,"84":0.05151279270648956,"85":0.009918954223394394,"86":-0.41022229194641113,"87":-0.022802677005529404,"88":-0.028325757011771202,"89":-0.4409574568271637,"90":-0.06259119510650635,"91":-0.41148287057876587,"92":-0.05835907161235809,"93":0.4293484687805176,"94":-0.06340369582176208,"95":-0.23495705425739288,"96":-0.04718867689371109,"97":0.3671566843986511,"98":-0.32683849334716797,"99":0.14421994984149933,"100":0.5099702477455139,"101":-0.3117264211177826,"102":-0.11084408313035965,"103":2.8328747749328613,"104":-0.6531193852424622,"105":-0.06512223184108734,"106":-0.20524543523788452,"107":-0.40393564105033875,"108":1.8174526691436768,"109":-0.1815045028924942,"110":2.597476005554199,"111":0.5297493934631348,"112":-0.4107304811477661,"113":0.5525144934654236,"114":0.02956504561007023,"115":1.9811042547225952,"116":-3.031588315963745,"117":-2.1265649795532227,"118":-1.1662356853485107,"119":-2.360013961791992,"120":-0.3462570309638977,"121":0.5353918671607971,"122":1.2372233867645264,"123":-0.09279988706111908,"124":0.7459980845451355,"125":-2.7805943489074707,"126":1.9244310855865479,"127":-1.1691950559616089,"128":2.015516996383667,"129":0.31649550795555115,"130":-2.9427177906036377,"131":-0.8018326163291931,"132":-1.3682719469070435,"133":-1.2621383666992188,"134":0.468011736869812,"135":-0.6337180733680725,"136":-0.10416516661643982,"137":-0.8811424374580383,"138":-0.7520168423652649,"139":-0.9739360213279724,"140":0.23864591121673584,"141":-0.7460324764251709,"142":0.8128834366798401,"143":-1.4126940965652466,"144":-0.17666852474212646,"145":-0.7161558270454407,"146":-0.8203508853912354,"147":-1.0829753875732422,"148":-0.8145726323127747,"149":-0.5560134649276733,"150":0.7619489431381226,"151":-0.055363092571496964,"152":-0.2795310914516449,"153":-0.8899313807487488,"154":-1.3097338676452637,"155":0.8454850912094116,"156":-1.095934271812439,"157":0.8773479461669922,"158":0.16790644824504852,"159":1.0077482461929321,"160":-0.24835535883903503,"161":-0.38630184531211853,"162":0.6738541722297668,"163":1.0349068641662598,"164":-0.24072740972042084,"165":0.6165144443511963,"166":0.5147789120674133,"167":1.6093703508377075,"168":1.6235792636871338,"169":1.231682300567627,"170":0.24497468769550323,"171":-0.7749942541122437,"172":-0.09506068378686905,"173":-0.4258560538291931,"174":-2.4464824199676514,"175":-0.882161557674408,"176":0.36501872539520264,"177":-0.06538752466440201,"178":-0.41520532965660095,"179":0.10358989238739014,"180":-1.065123200416565,"181":-1.0889323949813843,"182":-1.1788831949234009,"183":0.3233579397201538,"184":-0.2778194546699524,"185":0.04947174713015556,"186":-0.4572652578353882,"187":0.16552548110485077,"188":-1.8585014343261719,"189":0.43875592947006226,"190":-0.061654381453990936,"191":1.3412753343582153,"192":-0.3707733154296875,"193":-0.32669827342033386,"194":-0.28372636437416077,"195":-0.3271411955356598,"196":0.4272300899028778,"197":0.3348124623298645,"198":-0.9323828816413879,"199":-0.19054380059242249,"200":0.993410050868988,"201":1.4144384860992432,"202":0.6508924961090088,"203":0.7000504732131958,"204":-0.1257253885269165,"205":-1.7493983507156372,"206":0.1283511519432068,"207":0.045774348080158234,"208":-0.3208058774471283,"209":0.3132688105106354,"210":-0.46883895993232727,"211":-0.20273344218730927,"212":-1.5952099561691284,"213":0.3835471272468567,"214":0.8652607202529907,"215":-0.3189150393009186,"216":0.21479377150535583,"217":-2.4416048526763916,"218":1.1497365236282349,"219":0.4875448942184448,"220":0.3839326500892639,"221":0.01810881681740284,"222":-0.06222463399171829,"223":-0.6777126789093018,"224":-1.5436326265335083,"225":-0.2713220417499542,"226":-1.065811276435852,"227":0.8233444690704346,"228":-1.3482884168624878,"229":-0.006937138736248016,"230":-0.8051268458366394,"231":-0.010343315079808235,"232":1.4906980991363525,"233":1.124092936515808,"234":0.48628100752830505,"235":1.626375436782837,"236":0.16609139740467072,"237":0.40422019362449646,"238":-0.6648619771003723,"239":-0.6383217573165894,"240":-0.6753179430961609,"241":-1.4821829795837402,"242":-0.17312489449977875,"243":-0.655069887638092,"244":1.735970139503479,"245":-1.7023375034332275,"246":-0.7924919128417969,"247":-0.03618840500712395,"248":-0.09062842279672623,"249":-1.6131120920181274,"250":-0.8558040857315063,"251":-0.8114994168281555,"252":-0.030112160369753838,"253":-0.9954929947853088,"254":-0.956099271774292,"255":-0.7444440126419067,"256":-0.9385991096496582,"257":0.7816685438156128,"258":-0.7860010862350464,"259":1.2795019149780273,"260":-0.44722169637680054,"261":-0.5510453581809998,"262":0.4589565098285675,"263":-0.03461861237883568,"264":1.2968077659606934,"265":1.2740705013275146,"266":-1.2923089265823364,"267":1.0608590841293335,"268":1.6076909303665161,"269":0.9747847318649292,"270":1.5510083436965942,"271":1.1970211267471313,"272":0.12034059315919876,"273":3.273383378982544,"274":-0.6318711638450623,"275":-1.2049956321716309,"276":-1.5299652814865112,"277":0.019249290227890015,"278":-0.12953253090381622,"279":-0.8549969792366028,"280":-0.07338180392980576,"281":0.830652117729187,"282":-0.8220558762550354,"283":-0.16677157580852509,"284":-0.48583468794822693,"285":0.1496564745903015,"286":-0.7173190116882324,"287":-0.10201185196638107,"288":-2.0697319507598877,"289":-0.3823692798614502,"290":0.10521791875362396,"291":-1.4081361293792725,"292":0.5387204885482788,"293":1.0768309831619263,"294":-0.8482224941253662,"295":-1.1749050617218018,"296":0.13940905034542084,"297":1.2206791639328003,"298":1.486524224281311,"299":0.043854717165231705,"300":-1.312926173210144,"301":0.5246638059616089,"302":0.6130691170692444,"303":-0.9553375244140625,"304":0.4230620563030243,"305":0.6057138442993164,"306":-0.06590312719345093,"307":-1.31499445438385,"308":1.5770374536514282,"309":1.1383614540100098,"310":-1.7338179349899292,"311":-0.9435346722602844,"312":0.308383584022522,"313":0.4287773668766022,"314":-0.05701131746172905,"315":-0.1102619394659996,"316":-0.9592162370681763,"317":-2.234062433242798,"318":-1.0857462882995605,"319":-1.2111921310424805,"320":-0.13221882283687592,"321":0.42991694808006287,"322":1.8073891401290894,"323":1.7052849531173706,"324":-1.4752674102783203,"325":1.0848414897918701,"326":0.2653701901435852,"327":1.1828935146331787,"328":-0.5642900466918945,"329":0.33475446701049805,"330":0.22307021915912628,"331":-0.5245432257652283,"332":-1.05626380443573,"333":-0.9225016832351685,"334":0.04955848306417465,"335":0.9020597338676453,"336":0.6612009406089783,"337":1.095808982849121,"338":0.09814296662807465,"339":0.4414317011833191}},"outputHidden":{"rows":10,"columns":10,"weights":{"0":-1.2320826053619385,"1":0.8454117774963379,"2":-0.9510870575904846,"3":-0.03475244343280792,"4":-0.4830667972564697,"5":-1.0690162181854248,"6":1.3284567594528198,"7":-0.8498317003250122,"8":0.6675027012825012,"9":1.5683339834213257,"10":-1.3017339706420898,"11":-1.0148937702178955,"12":1.1947025060653687,"13":0.9978815913200378,"14":-0.6315718293190002,"15":-1.2004506587982178,"16":0.9649081230163574,"17":-0.7932738661766052,"18":1.7332547903060913,"19":-1.2978817224502563,"20":-0.04243096336722374,"21":4.4818925857543945,"22":2.0629215240478516,"23":-1.0890763998031616,"24":-0.4138695001602173,"25":-1.2507797479629517,"26":0.9893811941146851,"27":0.04638947919011116,"28":2.2167820930480957,"29":-5.193819522857666,"30":-0.27811291813850403,"31":-1.4706627130508423,"32":-1.8180122375488281,"33":0.35699599981307983,"34":-0.5819323658943176,"35":0.5196000933647156,"36":2.9562900066375732,"37":0.5980808734893799,"38":0.004204208496958017,"39":-0.22681322693824768,"40":-3.0411441326141357,"41":0.030494922772049904,"42":-3.352937936782837,"43":-0.8200337886810303,"44":-0.632457435131073,"45":-1.2272531986236572,"46":2.7162282466888428,"47":-1.0294477939605713,"48":0.9138578772544861,"49":0.22081448137760162,"50":0.49604132771492004,"51":3.8412468433380127,"52":3.651716470718384,"53":-4.254745960235596,"54":0.11284724622964859,"55":-0.010797063820064068,"56":1.4384595155715942,"57":-0.534912645816803,"58":-2.9667975902557373,"59":1.87946355342865,"60":-4.261300563812256,"61":-2.5826663970947266,"62":-0.7477841973304749,"63":0.9785353541374207,"64":1.788478136062622,"65":1.2930036783218384,"66":1.1436797380447388,"67":0.43891265988349915,"68":-0.7397985458374023,"69":-3.5585994720458984,"70":-0.2923504412174225,"71":1.7456648349761963,"72":0.5509381890296936,"73":-0.08604937791824341,"74":-1.5342751741409302,"75":-0.9189558625221252,"76":1.3943908214569092,"77":-1.3357465267181396,"78":-0.21452920138835907,"79":2.4848594665527344,"80":1.1029393672943115,"81":-1.623741626739502,"82":1.8490129709243774,"83":-0.2113209068775177,"84":-0.24100495874881744,"85":2.137317180633545,"86":1.8218355178833008,"87":2.0259511470794678,"88":-1.0062741041183472,"89":-2.8901546001434326,"90":0.24566452205181122,"91":1.2752546072006226,"92":1.9362772703170776,"93":0.4265088438987732,"94":-0.7569460272789001,"95":-1.1563085317611694,"96":1.9862756729125977,"97":-1.4193861484527588,"98":1.417073369026184,"99":-0.36123234033584595}},"outputBias":{"rows":10,"columns":1,"weights":{"0":-0.1555800437927246,"1":-0.9011620283126831,"2":1.7600593566894531,"3":0.6623370051383972,"4":0.24540838599205017,"5":-0.5901843309402466,"6":-0.4135831594467163,"7":-0.5149566531181335,"8":-1.4498213529586792,"9":0.034902412444353104}},"cellActivationMatrix":{"rows":10,"columns":34,"weights":{"0":-0.4874066412448883,"1":-0.16335532069206238,"2":0.6656017303466797,"3":1.8403176069259644,"4":-1.835841417312622,"5":-0.05393030121922493,"6":0.3635345995426178,"7":1.2570058107376099,"8":0.0140444440767169,"9":-0.3488210141658783,"10":-1.4566705226898193,"11":0.9114652276039124,"12":-0.11811850965023041,"13":0.7023653388023376,"14":0.588634729385376,"15":0.30545473098754883,"16":1.0731375217437744,"17":0.720147430896759,"18":1.6737092733383179,"19":-0.11993129551410675,"20":1.210387945175171,"21":-0.45258957147598267,"22":0.2922006845474243,"23":2.3734800815582275,"24":0.4873802661895752,"25":-1.06829833984375,"26":-1.1767505407333374,"27":-0.9361640214920044,"28":0.04763390123844147,"29":-1.7952296733856201,"30":-0.0933137834072113,"31":-0.5840207934379578,"32":-0.6921936869621277,"33":0.2959388792514801,"34":-0.46415966749191284,"35":-1.239976167678833,"36":-0.17266695201396942,"37":-0.13151395320892334,"38":0.5074902772903442,"39":-0.975619912147522,"40":1.0149039030075073,"41":-0.27645543217658997,"42":0.2011169195175171,"43":0.3323472738265991,"44":-0.20622515678405762,"45":-1.487044095993042,"46":-1.0005494356155396,"47":-0.1995798498392105,"48":-0.3393414616584778,"49":0.4129222333431244,"50":-0.16072873771190643,"51":-0.21197307109832764,"52":-0.7285491824150085,"53":0.7129742503166199,"54":-0.2294868528842926,"55":0.6731793880462646,"56":-0.20031657814979553,"57":0.38201096653938293,"58":-0.8576610684394836,"59":0.10357940942049026,"60":0.17439177632331848,"61":0.48297369480133057,"62":0.14507852494716644,"63":-0.17514538764953613,"64":-0.22484223544597626,"65":1.218575119972229,"66":-0.318596214056015,"67":1.7858880758285522,"68":0.18013475835323334,"69":0.931536853313446,"70":0.7029432654380798,"71":0.7001732587814331,"72":-0.26232701539993286,"73":0.4047691226005554,"74":-0.36028891801834106,"75":0.5026137828826904,"76":-0.0690496414899826,"77":-0.34217068552970886,"78":0.11355456709861755,"79":0.8134349584579468,"80":0.4495987296104431,"81":-0.1974974125623703,"82":0.1959625482559204,"83":0.17233365774154663,"84":0.5546529293060303,"85":0.026218505576252937,"86":1.5311821699142456,"87":-0.7162154316902161,"88":0.22063685953617096,"89":-0.3138766884803772,"90":0.021221967414021492,"91":0.09154242277145386,"92":0.20648622512817383,"93":-0.16940951347351074,"94":-0.26215118169784546,"95":-0.49338406324386597,"96":0.08796603232622147,"97":0.2085052728652954,"98":0.09160026907920837,"99":-0.6084579229354858,"100":-0.3307689130306244,"101":0.2666243612766266,"102":-0.10619984567165375,"103":-0.43855711817741394,"104":-0.349466472864151,"105":-0.28967252373695374,"106":-0.01458056177943945,"107":-0.26897740364074707,"108":0.5497705936431885,"109":-0.7500995993614197,"110":0.3293076455593109,"111":0.10244125872850418,"112":0.49429818987846375,"113":-0.8572654724121094,"114":-0.05426131188869476,"115":-0.11986399441957474,"116":-0.026277989149093628,"117":-0.39930590987205505,"118":-0.5583945512771606,"119":-0.7416808009147644,"120":-1.322428584098816,"121":0.08328012377023697,"122":-0.2823997139930725,"123":0.9333467483520508,"124":-0.22323442995548248,"125":-1.229205846786499,"126":-1.4543943405151367,"127":0.4485108554363251,"128":0.6536275744438171,"129":0.07098698616027832,"130":-0.14386066794395447,"131":0.4025029242038727,"132":-0.7344458103179932,"133":0.3607168197631836,"134":-0.37160366773605347,"135":0.3007809519767761,"136":-0.06701243668794632,"137":-1.1865897178649902,"138":0.6125683188438416,"139":1.336430549621582,"140":5.006700038909912,"141":-0.0335773266851902,"142":-0.14570890367031097,"143":0.7791655659675598,"144":-0.5506656169891357,"145":-0.34536460041999817,"146":-1.1553782224655151,"147":-0.34681057929992676,"148":0.07981958240270615,"149":-0.6018437147140503,"150":0.07866842299699783,"151":0.4894772469997406,"152":2.1471338272094727,"153":1.1847859621047974,"154":0.0883619636297226,"155":0.41489434242248535,"156":-0.682248592376709,"157":-0.09767483174800873,"158":-0.2053723931312561,"159":0.4868253171443939,"160":-0.9337702989578247,"161":1.388852596282959,"162":-1.0764590501785278,"163":-0.45364129543304443,"164":0.28789010643959045,"165":0.7830838561058044,"166":0.629331111907959,"167":0.18196554481983185,"168":-0.4028102457523346,"169":0.21100051701068878,"170":0.5190756916999817,"171":0.5931605100631714,"172":0.1135362908244133,"173":0.19271664321422577,"174":0.5999059677124023,"175":0.5980570316314697,"176":-0.8711522221565247,"177":0.17860476672649384,"178":0.28600311279296875,"179":-0.5898054838180542,"180":-0.0008866417338140309,"181":1.6616781949996948,"182":0.8737717270851135,"183":0.4089317321777344,"184":0.5220184922218323,"185":-0.025162305682897568,"186":0.20314112305641174,"187":0.6212505102157593,"188":1.5502485036849976,"189":-0.3897095024585724,"190":-0.07037269324064255,"191":-0.8200900554656982,"192":0.8111994862556458,"193":0.35305872559547424,"194":0.5834160447120667,"195":-0.44843873381614685,"196":-0.22339105606079102,"197":-0.24679386615753174,"198":0.46753624081611633,"199":-0.07929428666830063,"200":-0.893438458442688,"201":-0.6521636247634888,"202":0.1459890753030777,"203":-1.237597107887268,"204":-0.06968613713979721,"205":0.29869765043258667,"206":-0.1895209699869156,"207":-1.984933614730835,"208":-3.6305758953094482,"209":0.5566258430480957,"210":-0.15123814344406128,"211":-0.8529239892959595,"212":0.11160844564437866,"213":0.25500982999801636,"214":-0.08121934533119202,"215":-0.392983078956604,"216":0.28669384121894836,"217":-0.035365719348192215,"218":0.580960214138031,"219":-0.19627706706523895,"220":-0.6442766785621643,"221":3.1300859451293945,"222":-0.41848164796829224,"223":-0.05705880746245384,"224":0.2890072166919708,"225":-0.018451664596796036,"226":0.868387758731842,"227":1.165442943572998,"228":-0.2486998736858368,"229":1.4963725805282593,"230":0.5390737652778625,"231":1.7491880655288696,"232":-0.6388006210327148,"233":0.18102066218852997,"234":-0.010928020812571049,"235":0.11489876359701157,"236":0.13697007298469543,"237":0.013586821034550667,"238":1.20575749874115,"239":0.5291691422462463,"240":0.06451816856861115,"241":0.2497616559267044,"242":0.7867387533187866,"243":0.7005122900009155,"244":-0.8504960536956787,"245":0.08242867141962051,"246":0.19830799102783203,"247":-0.745030403137207,"248":-0.2815576195716858,"249":1.3397785425186157,"250":0.8874512910842896,"251":0.9135509133338928,"252":0.7517797946929932,"253":0.35378608107566833,"254":0.5353317260742188,"255":0.405816912651062,"256":0.8825690746307373,"257":-0.37179234623908997,"258":0.019220486283302307,"259":-1.0431766510009766,"260":0.8378720283508301,"261":0.3674217760562897,"262":0.2534675598144531,"263":-1.100735068321228,"264":-0.5481099486351013,"265":-0.07124493271112442,"266":0.8528996706008911,"267":-0.5815797448158264,"268":-0.2549952268600464,"269":-0.7677172422409058,"270":-0.4028168320655823,"271":-0.9904320240020752,"272":-0.05359616503119469,"273":0.5689871907234192,"274":-0.15862151980400085,"275":-0.3775072693824768,"276":-0.5142655372619629,"277":-0.010349545627832413,"278":-0.03442135825753212,"279":-0.14888137578964233,"280":-0.056615207344293594,"281":-0.1922425627708435,"282":0.4129793345928192,"283":-0.9441587924957275,"284":0.19594618678092957,"285":-0.05796561762690544,"286":0.31206047534942627,"287":-0.21284335851669312,"288":-0.2617785334587097,"289":-0.26196998357772827,"290":-0.7979068756103516,"291":-0.45815780758857727,"292":-0.1827947497367859,"293":0.34131133556365967,"294":0.3025144040584564,"295":-0.7105468511581421,"296":0.18548335134983063,"297":0.882537841796875,"298":0.3590916395187378,"299":0.2547987699508667,"300":-0.3325020670890808,"301":1.0269849300384521,"302":-0.3039100170135498,"303":-0.03276482969522476,"304":0.4395304322242737,"305":-0.10225258022546768,"306":-1.3268930912017822,"307":-1.1065785884857178,"308":-0.2408999353647232,"309":-0.05269843339920044,"310":0.6885796189308167,"311":-0.9600018858909607,"312":1.4509774446487427,"313":-0.08357921987771988,"314":0.16435004770755768,"315":0.08787533640861511,"316":-0.11562828719615936,"317":-1.6192240715026855,"318":-0.9040980935096741,"319":-0.31212562322616577,"320":-0.20192596316337585,"321":0.08859114348888397,"322":-0.2271047830581665,"323":-0.47640469670295715,"324":-1.2000304460525513,"325":0.8640866875648499,"326":-0.49352893233299255,"327":0.606148362159729,"328":-0.7322975397109985,"329":0.6510228514671326,"330":-1.408499002456665,"331":0.42629221081733704,"332":0.41314226388931274,"333":0.5858728289604187,"334":-0.03991032391786575,"335":-0.08339215815067291,"336":-0.505009651184082,"337":2.141720771789551,"338":-0.016200024634599686,"339":2.216374635696411}},"cellActivationHidden":{"rows":10,"columns":10,"weights":{"0":-0.47629156708717346,"1":-1.1604976654052734,"2":-0.18585006892681122,"3":-0.10491296648979187,"4":-0.10737519711256027,"5":-0.46039000153541565,"6":-0.7157692909240723,"7":-0.271956205368042,"8":0.11316610127687454,"9":-0.31301409006118774,"10":0.26973122358322144,"11":0.5271803140640259,"12":-0.0829443633556366,"13":0.1529243290424347,"14":-0.11280585825443268,"15":-0.36085402965545654,"16":-0.15226782858371735,"17":-0.585062563419342,"18":0.26561757922172546,"19":0.6902375221252441,"20":0.4985488951206207,"21":-1.9097405672073364,"22":0.4497840404510498,"23":0.9976900815963745,"24":-0.7544592618942261,"25":0.7346261739730835,"26":0.3205244243144989,"27":0.6519467830657959,"28":-0.0003311843902338296,"29":-1.706478238105774,"30":0.0745001882314682,"31":1.433430552482605,"32":0.33647042512893677,"33":0.08644123375415802,"34":1.2955745458602905,"35":-0.1416344940662384,"36":-0.06355670094490051,"37":-0.38594648241996765,"38":-1.873624324798584,"39":2.23927903175354,"40":0.19755686819553375,"41":-0.1859983652830124,"42":1.118865728378296,"43":-0.21069708466529846,"44":-1.3968424797058105,"45":-0.9706506133079529,"46":0.4897386431694031,"47":-0.893789529800415,"48":1.0624998807907104,"49":-0.8836117386817932,"50":0.610953688621521,"51":-1.3502005338668823,"52":-0.259683221578598,"53":0.9144914150238037,"54":0.022828450426459312,"55":1.4952563047409058,"56":-0.11297114193439484,"57":1.6104259490966797,"58":-0.1744539737701416,"59":-1.4875112771987915,"60":0.6325239539146423,"61":0.009144153445959091,"62":0.5671148300170898,"63":-0.22799669206142426,"64":0.7409669756889343,"65":1.3610776662826538,"66":-0.13034455478191376,"67":0.974117636680603,"68":-1.0768762826919556,"69":-0.4526555836200714,"70":-0.46985986828804016,"71":-1.1025359630584717,"72":-1.0032202005386353,"73":0.068412184715271,"74":0.1612861007452011,"75":0.049514610320329666,"76":-0.340149849653244,"77":0.13808205723762512,"78":0.23381370306015015,"79":-0.7691697478294373,"80":-1.1455278396606445,"81":1.200905680656433,"82":-0.04530554637312889,"83":0.10228157788515091,"84":-0.20093904435634613,"85":-0.6539976000785828,"86":0.6119201183319092,"87":-1.0555438995361328,"88":-0.16375505924224854,"89":0.8968420624732971,"90":0.2568613886833191,"91":0.373040109872818,"92":-0.23298221826553345,"93":-0.06446120142936707,"94":0.37829214334487915,"95":-0.5875647664070129,"96":-0.4262109100818634,"97":-0.4295790195465088,"98":0.07194662094116211,"99":1.0458602905273438}},"cellActivationBias":{"rows":10,"columns":1,"weights":{"0":-0.4978046715259552,"1":-0.15314511954784393,"2":0.411203533411026,"3":0.9402403831481934,"4":-0.5178243517875671,"5":-0.6624752283096313,"6":-1.6709953546524048,"7":-0.4922032058238983,"8":1.156259298324585,"9":-0.4469468593597412}}},{"inputMatrix":{"rows":10,"columns":10,"weights":{"0":2.611447811126709,"1":2.2199227809906006,"2":4.56203031539917,"3":0.34043318033218384,"4":-0.6631327271461487,"5":-1.463735580444336,"6":0.7822738289833069,"7":-2.2803077697753906,"8":2.1998867988586426,"9":-1.6726481914520264,"10":1.0587025880813599,"11":-0.03664075583219528,"12":1.1674833297729492,"13":0.8133864402770996,"14":-1.1292569637298584,"15":-2.591993570327759,"16":0.7514210939407349,"17":-1.720177412033081,"18":-0.20492063462734222,"19":0.7038980722427368,"20":-1.766602873802185,"21":0.3677135705947876,"22":-0.9790245890617371,"23":1.6338180303573608,"24":-0.6700906753540039,"25":-1.6846668720245361,"26":-0.15778709948062897,"27":-1.319441795349121,"28":2.6523725986480713,"29":0.903954803943634,"30":1.7591897249221802,"31":0.835188627243042,"32":2.271235466003418,"33":-4.714519023895264,"34":2.4544050693511963,"35":0.41256478428840637,"36":-0.4435392916202545,"37":-0.07039546966552734,"38":-4.6799445152282715,"39":1.8808586597442627,"40":-0.7001786231994629,"41":1.8989617824554443,"42":-3.6124587059020996,"43":2.615961790084839,"44":-0.7280665040016174,"45":-0.5856696963310242,"46":1.5174479484558105,"47":0.3644873797893524,"48":3.5385427474975586,"49":-0.12491866201162338,"50":-0.8082242608070374,"51":-0.04663809388875961,"52":3.510258674621582,"53":2.724184989929199,"54":3.2545673847198486,"55":0.6056855916976929,"56":-1.3984707593917847,"57":0.509662926197052,"58":-4.71893310546875,"59":0.9150015711784363,"60":1.5703216791152954,"61":2.7840306758880615,"62":0.6389967203140259,"63":-0.7615939974784851,"64":-2.9743545055389404,"65":-2.2043802738189697,"66":0.12152772396802902,"67":-4.978708267211914,"68":-0.6524645686149597,"69":0.6212164759635925,"70":1.6234041452407837,"71":1.7593040466308594,"72":2.1333463191986084,"73":0.2224017083644867,"74":-0.06668071448802948,"75":0.07985948026180267,"76":-0.876667857170105,"77":-0.34169402718544006,"78":-2.041724443435669,"79":2.477571725845337,"80":2.5604939460754395,"81":-1.5190577507019043,"82":3.48833966255188,"83":-0.47364503145217896,"84":-1.9825074672698975,"85":-0.38236501812934875,"86":-2.7484629154205322,"87":-1.667938232421875,"88":-2.7472176551818848,"89":-1.0763860940933228,"90":0.04182291775941849,"91":0.7834614515304565,"92":1.4668800830841064,"93":1.2701891660690308,"94":-3.6616909503936768,"95":0.785639762878418,"96":1.754480242729187,"97":-0.8876043558120728,"98":0.4804103672504425,"99":-1.8304868936538696}},"inputHidden":{"rows":10,"columns":10,"weights":{"0":-3.417844533920288,"1":-3.945549726486206,"2":4.323947429656982,"3":5.2657470703125,"4":1.1417869329452515,"5":-1.4377919435501099,"6":-2.669919967651367,"7":1.5505353212356567,"8":2.0060746669769287,"9":-3.1792633533477783,"10":0.026975594460964203,"11":0.002349399495869875,"12":-2.539930820465088,"13":2.7659614086151123,"14":-3.6858022212982178,"15":0.485368937253952,"16":-1.5872036218643188,"17":-2.4493188858032227,"18":-4.731964588165283,"19":1.584052324295044,"20":1.2754167318344116,"21":-0.29861846566200256,"22":2.328209400177002,"23":6.176900386810303,"24":-0.363410621881485,"25":-0.05515039339661598,"26":1.4546113014221191,"27":6.784501552581787,"28":2.0887374877929688,"29":-0.5394364595413208,"30":0.8428486585617065,"31":2.145368814468384,"32":-3.1051247119903564,"33":-1.1924030780792236,"34":-2.97186541557312,"35":0.5026291012763977,"36":-2.5422463417053223,"37":-1.1951195001602173,"38":-3.6764285564422607,"39":1.0686039924621582,"40":-2.1741526126861572,"41":-1.0952110290527344,"42":2.5987021923065186,"43":-6.763560771942139,"44":-1.402896523475647,"45":0.9317138195037842,"46":-0.17185555398464203,"47":1.8378938436508179,"48":1.4922629594802856,"49":0.6170212030410767,"50":0.7523334622383118,"51":-0.06497153639793396,"52":-3.5612218379974365,"53":0.44298604130744934,"54":-2.780667781829834,"55":4.4717020988464355,"56":0.7972611784934998,"57":-3.7468700408935547,"58":-1.432666540145874,"59":3.800658941268921,"60":1.0157595872879028,"61":2.2696316242218018,"62":1.0654082298278809,"63":-2.270646095275879,"64":0.13429394364356995,"65":1.3540059328079224,"66":-1.006050944328308,"67":3.951718807220459,"68":2.8080835342407227,"69":0.8241252303123474,"70":-0.1639842838048935,"71":-3.7770535945892334,"72":-0.6323955059051514,"73":-1.1344406604766846,"74":-0.9160091876983643,"75":1.5815386772155762,"76":0.9577612280845642,"77":-3.9141485691070557,"78":2.641166925430298,"79":0.7974432110786438,"80":-3.9430034160614014,"81":-2.702296018600464,"82":-2.897394895553589,"83":5.038554668426514,"84":-1.1122668981552124,"85":0.1828794926404953,"86":0.3165431618690491,"87":-3.8520445823669434,"88":2.373178720474243,"89":0.176945760846138,"90":-1.4392412900924683,"91":1.7981384992599487,"92":-3.9123992919921875,"93":-0.8675333857536316,"94":-2.153167724609375,"95":0.9959651827812195,"96":-1.1414341926574707,"97":1.2947306632995605,"98":-1.2473307847976685,"99":2.306931972503662}},"inputBias":{"rows":10,"columns":1,"weights":{"0":2.72249698638916,"1":-1.0735105276107788,"2":2.1805598735809326,"3":-1.6587475538253784,"4":1.6512274742126465,"5":-1.281374454498291,"6":2.604787588119507,"7":-0.040749743580818176,"8":1.9205855131149292,"9":-0.4644288718700409}},"forgetMatrix":{"rows":10,"columns":10,"weights":{"0":0.7060951590538025,"1":0.8169598579406738,"2":2.9672415256500244,"3":-3.657796621322632,"4":-2.5826337337493896,"5":0.29938796162605286,"6":3.046957492828369,"7":-0.43065783381462097,"8":2.546748638153076,"9":-1.799670934677124,"10":-2.452608823776245,"11":1.1549489498138428,"12":-1.815165638923645,"13":2.5208868980407715,"14":-4.40064001083374,"15":-0.3811374604701996,"16":1.6597611904144287,"17":-0.7969654202461243,"18":2.163007974624634,"19":2.0415499210357666,"20":0.7095212936401367,"21":-0.463239848613739,"22":-1.471713662147522,"23":-2.0583348274230957,"24":-3.2188720703125,"25":0.39254650473594666,"26":1.8444523811340332,"27":0.6563549041748047,"28":2.905975103378296,"29":0.6510927081108093,"30":-0.499417781829834,"31":-2.5485923290252686,"32":1.3859820365905762,"33":3.542834997177124,"34":2.333899974822998,"35":0.7218334078788757,"36":0.06028623506426811,"37":0.39112910628318787,"38":2.17090106010437,"39":-3.6629045009613037,"40":-0.8945775032043457,"41":1.6378364562988281,"42":-1.9419658184051514,"43":5.282543659210205,"44":0.9373972415924072,"45":0.1766582727432251,"46":0.2647664546966553,"47":-0.3166896104812622,"48":0.9725161790847778,"49":0.219790980219841,"50":-1.3762638568878174,"51":-0.512990415096283,"52":1.8284003734588623,"53":1.4346637725830078,"54":3.8306405544281006,"55":-0.4597456753253937,"56":-3.785780191421509,"57":0.46886640787124634,"58":1.6313236951828003,"59":-3.5822787284851074,"60":-0.48505955934524536,"61":2.559931993484497,"62":3.0330169200897217,"63":-3.5836093425750732,"64":-5.191813945770264,"65":0.7004727721214294,"66":2.6110405921936035,"67":-1.0685306787490845,"68":-0.7108280658721924,"69":-1.406480073928833,"70":-0.5817596316337585,"71":-0.3998675048351288,"72":-2.2445976734161377,"73":0.5461717844009399,"74":4.631481170654297,"75":-0.5224363803863525,"76":-2.450462818145752,"77":-0.7379623651504517,"78":-0.4807647466659546,"79":0.11712820082902908,"80":-0.9434645175933838,"81":-0.9883493185043335,"82":3.420553207397461,"83":-2.2267308235168457,"84":1.236457347869873,"85":1.2445753812789917,"86":-0.7908706665039062,"87":0.5723118782043457,"88":-1.879504680633545,"89":-0.7741038203239441,"90":3.9184606075286865,"91":0.01686437986791134,"92":-0.14322645962238312,"93":4.728653430938721,"94":2.0799508094787598,"95":1.0746692419052124,"96":-1.5769585371017456,"97":0.9812033176422119,"98":0.006410377100110054,"99":-0.9345380663871765}},"forgetHidden":{"rows":10,"columns":10,"weights":{"0":0.2541355788707733,"1":-2.480057716369629,"2":4.518951892852783,"3":5.554561614990234,"4":1.0541095733642578,"5":2.0695581436157227,"6":-2.866379499435425,"7":2.9473564624786377,"8":0.7364326119422913,"9":-3.565873861312866,"10":-0.6833546757698059,"11":0.13711236417293549,"12":-0.12437515705823898,"13":3.4593536853790283,"14":-0.5771176218986511,"15":-2.4409403800964355,"16":-0.4229709804058075,"17":-0.4855668246746063,"18":3.1258327960968018,"19":-2.303494453430176,"20":0.3332865238189697,"21":0.9304869174957275,"22":-1.3924574851989746,"23":-4.173976421356201,"24":-0.5656940937042236,"25":0.25266700983047485,"26":-0.505516767501831,"27":-0.5894141793251038,"28":7.361185550689697,"29":-1.1163250207901,"30":-3.9149646759033203,"31":-1.859439730644226,"32":1.100584864616394,"33":4.210416316986084,"34":1.002608299255371,"35":-3.171356439590454,"36":1.7503896951675415,"37":-2.4848873615264893,"38":0.3715950846672058,"39":-2.571197271347046,"40":-0.9050397872924805,"41":0.5047311186790466,"42":1.479630470275879,"43":-7.432447910308838,"44":-1.0738589763641357,"45":4.433382511138916,"46":-1.4737094640731812,"47":2.667013168334961,"48":2.0087618827819824,"49":0.1510399729013443,"50":-0.6282646059989929,"51":-2.6309854984283447,"52":-0.6473093032836914,"53":-1.0814791917800903,"54":0.9107244610786438,"55":0.4425545930862427,"56":-1.1741162538528442,"57":-4.012235641479492,"58":-2.0718815326690674,"59":-4.680789947509766,"60":2.6468958854675293,"61":3.249967575073242,"62":1.0158894062042236,"63":0.6093876361846924,"64":-1.418806552886963,"65":0.14666949212551117,"66":-1.2528125047683716,"67":0.16653752326965332,"68":1.9833585023880005,"69":1.9393868446350098,"70":-1.720782995223999,"71":0.8028576374053955,"72":4.613059997558594,"73":1.946327805519104,"74":-2.618374824523926,"75":-3.957227945327759,"76":-0.9796594381332397,"77":0.8518645167350769,"78":-0.49144554138183594,"79":1.2311357259750366,"80":-7.906619548797607,"81":0.5578235983848572,"82":2.256171941757202,"83":1.9907164573669434,"84":0.6874496340751648,"85":2.4044928550720215,"86":1.6393882036209106,"87":3.4525389671325684,"88":-0.16678878664970398,"89":-2.1713778972625732,"90":0.5760796070098877,"91":2.698237419128418,"92":0.3891098201274872,"93":-0.24261637032032013,"94":2.623060703277588,"95":3.318214178085327,"96":-6.23334264755249,"97":-9.444254875183105,"98":3.256364345550537,"99":0.29807692766189575}},"forgetBias":{"rows":10,"columns":1,"weights":{"0":0,"1":0,"2":0,"3":0,"4":0,"5":0,"6":0,"7":0,"8":0,"9":0}},"outputMatrix":{"rows":10,"columns":10,"weights":{"0":0.8638011813163757,"1":6.360655307769775,"2":5.804811477661133,"3":-2.041532039642334,"4":0.075364850461483,"5":1.1078572273254395,"6":2.064326286315918,"7":0.13981503248214722,"8":-1.4912360906600952,"9":1.6263076066970825,"10":0.6638199687004089,"11":0.6802307367324829,"12":0.5908573865890503,"13":-1.2975592613220215,"14":-0.37446823716163635,"15":-0.5603142976760864,"16":1.2200160026550293,"17":-0.3359699249267578,"18":4.3424296379089355,"19":-0.3486707806587219,"20":-0.3957534730434418,"21":0.8217288851737976,"22":0.3253875970840454,"23":1.4967906475067139,"24":0.12080574035644531,"25":-2.3875482082366943,"26":1.5923666954040527,"27":-2.904906749725342,"28":3.789400577545166,"29":1.5007894039154053,"30":2.9543421268463135,"31":0.3493671715259552,"32":2.8155148029327393,"33":-3.221484661102295,"34":1.4031603336334229,"35":-1.3266708850860596,"36":2.698498010635376,"37":-2.2559354305267334,"38":-4.1699604988098145,"39":1.0063073635101318,"40":0.25241270661354065,"41":4.6511311531066895,"42":-1.6271225214004517,"43":-0.17224732041358948,"44":-1.8240569829940796,"45":-0.029431382194161415,"46":2.9194588661193848,"47":-0.5709080696105957,"48":0.1890554577112198,"49":-0.6034939289093018,"50":-2.6384832859039307,"51":1.3044606447219849,"52":4.205939769744873,"53":5.029170036315918,"54":5.6814045906066895,"55":-0.7087842226028442,"56":-2.1967594623565674,"57":-0.9598659873008728,"58":-0.02800743468105793,"59":1.0209581851959229,"60":1.475270390510559,"61":1.4972082376480103,"62":-4.370011806488037,"63":0.5477569699287415,"64":2.307121753692627,"65":-1.592116117477417,"66":-4.015410423278809,"67":-0.9585599899291992,"68":1.646795392036438,"69":-1.308657169342041,"70":0.8597870469093323,"71":2.108668565750122,"72":-0.4633588492870331,"73":-0.7073509097099304,"74":1.8896996974945068,"75":-0.7281038165092468,"76":-0.8440749049186707,"77":-1.0386343002319336,"78":-2.21553897857666,"79":2.4506354331970215,"80":1.6423759460449219,"81":-1.8668062686920166,"82":1.4820444583892822,"83":-0.18356594443321228,"84":0.41616371273994446,"85":-0.812219500541687,"86":-3.3797667026519775,"87":-2.493765115737915,"88":-1.7075250148773193,"89":-1.5467798709869385,"90":3.8797130584716797,"91":0.647791862487793,"92":4.093555927276611,"93":3.654937505722046,"94":-5.277167320251465,"95":1.996292233467102,"96":4.768742561340332,"97":1.3191474676132202,"98":2.3968234062194824,"99":-2.2318899631500244}},"outputHidden":{"rows":10,"columns":10,"weights":{"0":0.13551664352416992,"1":0.03224600479006767,"2":-2.6848158836364746,"3":3.013786792755127,"4":2.3600776195526123,"5":-3.868596076965332,"6":-2.697345495223999,"7":-1.9472438097000122,"8":0.20039565861225128,"9":-1.908229947090149,"10":-2.425659656524658,"11":-0.620600163936615,"12":-1.3297374248504639,"13":9.337479591369629,"14":0.5256315469741821,"15":2.375122308731079,"16":2.8361856937408447,"17":-3.176450729370117,"18":-4.952144145965576,"19":2.9242160320281982,"20":1.2956669330596924,"21":-0.23408998548984528,"22":1.0220140218734741,"23":3.027005195617676,"24":1.0840122699737549,"25":-2.24690318107605,"26":-0.8561538457870483,"27":-0.5406661033630371,"28":-1.2085832357406616,"29":-0.8227769732475281,"30":-0.8811222314834595,"31":-2.106355667114258,"32":-2.8943679332733154,"33":4.531280994415283,"34":-2.934234857559204,"35":-0.0062187775038182735,"36":-3.9023995399475098,"37":-1.2191729545593262,"38":-1.9554803371429443,"39":1.2480534315109253,"40":-4.625823020935059,"41":1.5492887496948242,"42":2.849778175354004,"43":5.613612651824951,"44":-0.015468383207917213,"45":-3.091299295425415,"46":-2.23122501373291,"47":3.6820144653320312,"48":-1.9930835962295532,"49":-2.9459969997406006,"50":0.9311159253120422,"51":-0.514441728591919,"52":-3.6283187866210938,"53":6.358850002288818,"54":-2.7460358142852783,"55":3.5489470958709717,"56":-0.020607519894838333,"57":-0.8780036568641663,"58":-3.076652765274048,"59":2.2388575077056885,"60":-1.7116345167160034,"61":-0.11092675477266312,"62":-2.644768238067627,"63":4.093039035797119,"64":1.6951897144317627,"65":-2.0415751934051514,"66":-0.4924277663230896,"67":2.006197214126587,"68":-1.4791337251663208,"69":-2.3630590438842773,"70":0.8327379822731018,"71":0.48878827691078186,"72":0.34380000829696655,"73":0.26129162311553955,"74":-0.7722477912902832,"75":-6.346103191375732,"76":-3.31703782081604,"77":1.4021480083465576,"78":-2.321323871612549,"79":-0.9302077889442444,"80":-3.4856295585632324,"81":-3.030189275741577,"82":-2.140239953994751,"83":4.885074138641357,"84":-2.2497787475585938,"85":1.015053153038025,"86":-1.7290937900543213,"87":-4.415618896484375,"88":1.535322666168213,"89":-0.5783353447914124,"90":2.4465484619140625,"91":-1.1690539121627808,"92":-1.6513056755065918,"93":-2.22896146774292,"94":0.7221021056175232,"95":4.133533000946045,"96":-2.5161311626434326,"97":-5.848576068878174,"98":-3.7225165367126465,"99":-2.611778974533081}},"outputBias":{"rows":10,"columns":1,"weights":{"0":2.2712900638580322,"1":-1.1838887929916382,"2":2.1768364906311035,"3":-2.2111856937408447,"4":0.7274981737136841,"5":-1.1351722478866577,"6":3.7408084869384766,"7":0.6654514670372009,"8":2.1399974822998047,"9":0.10942570865154266}},"cellActivationMatrix":{"rows":10,"columns":10,"weights":{"0":-0.5388792157173157,"1":2.3783390522003174,"2":1.2039613723754883,"3":-3.2398176193237305,"4":0.25159305334091187,"5":-3.013441562652588,"6":0.7064902782440186,"7":-1.3656784296035767,"8":-0.9746137261390686,"9":-0.07545822858810425,"10":-0.8920004963874817,"11":0.26386916637420654,"12":-1.4529087543487549,"13":2.394165515899658,"14":-0.7310128211975098,"15":-1.813305377960205,"16":3.0903682708740234,"17":-1.1329411268234253,"18":2.938199281692505,"19":0.3308263421058655,"20":0.603320837020874,"21":1.717161774635315,"22":-0.42096418142318726,"23":-0.34444940090179443,"24":0.22126011550426483,"25":-0.4923586845397949,"26":0.2785429060459137,"27":-0.6536436080932617,"28":-2.5852246284484863,"29":2.2294373512268066,"30":1.312723159790039,"31":1.2861357927322388,"32":1.5795484781265259,"33":-1.6018081903457642,"34":3.022681713104248,"35":0.32406577467918396,"36":-0.38585755228996277,"37":0.153779536485672,"38":0.05089010298252106,"39":1.171188235282898,"40":-0.9325519800186157,"41":-0.7497332692146301,"42":-0.0697762668132782,"43":0.6587437391281128,"44":-0.22127577662467957,"45":1.6135433912277222,"46":-0.5885162353515625,"47":1.206941843032837,"48":-4.889159202575684,"49":0.8395968079566956,"50":1.5947901010513306,"51":-0.2540414333343506,"52":-0.49664872884750366,"53":-2.203655958175659,"54":-1.872961401939392,"55":1.3502721786499023,"56":0.9385399222373962,"57":1.4548940658569336,"58":-2.5185763835906982,"59":-0.6419808864593506,"60":-0.700238049030304,"61":-1.4616265296936035,"62":1.0356775522232056,"63":0.11977924406528473,"64":0.5461183190345764,"65":3.0948357582092285,"66":0.7846664786338806,"67":2.676995038986206,"68":-0.09283249080181122,"69":-0.3839273452758789,"70":2.3301336765289307,"71":-0.13394103944301605,"72":-1.2075393199920654,"73":0.16164827346801758,"74":0.09917745739221573,"75":0.49571293592453003,"76":-0.8716405630111694,"77":0.39651042222976685,"78":0.814406156539917,"79":0.656667172908783,"80":0.6890866160392761,"81":0.7209839820861816,"82":-1.3176440000534058,"83":-0.5078869462013245,"84":-0.4790537357330322,"85":0.6799063086509705,"86":0.13287100195884705,"87":1.3483492136001587,"88":-2.4395997524261475,"89":1.8610564470291138,"90":-0.3242599666118622,"91":-1.3043118715286255,"92":0.6082140207290649,"93":2.020311117172241,"94":-1.413874864578247,"95":-1.2761374711990356,"96":-0.10651516914367676,"97":-1.1625648736953735,"98":1.473448395729065,"99":-1.5098177194595337}},"cellActivationHidden":{"rows":10,"columns":10,"weights":{"0":1.6242547035217285,"1":1.795500636100769,"2":-0.9895440340042114,"3":3.7831063270568848,"4":-3.588444471359253,"5":-0.28262749314308167,"6":-4.154490947723389,"7":-2.516801357269287,"8":-2.4406373500823975,"9":1.6612828969955444,"10":0.8099220395088196,"11":-0.6651610136032104,"12":-0.44017595052719116,"13":-1.2949110269546509,"14":-1.493685007095337,"15":2.049508571624756,"16":-1.3871333599090576,"17":1.1467094421386719,"18":-1.5561167001724243,"19":1.0618269443511963,"20":2.072157859802246,"21":-0.9935721755027771,"22":0.013908796943724155,"23":0.8826839923858643,"24":0.562160313129425,"25":3.5054492950439453,"26":-0.3291458785533905,"27":0.678252637386322,"28":-0.9930538535118103,"29":0.09365028142929077,"30":-0.4800858795642853,"31":0.060476746410131454,"32":0.16732269525527954,"33":-3.455866575241089,"34":0.42575201392173767,"35":1.213476538658142,"36":0.0019206079887226224,"37":2.9119975566864014,"38":-0.7101864218711853,"39":-0.04908515885472298,"40":-1.089321255683899,"41":-0.48710814118385315,"42":0.7234017252922058,"43":-0.4289188086986542,"44":0.9470905065536499,"45":-1.4385842084884644,"46":0.6641046404838562,"47":-1.50146484375,"48":5.102713108062744,"49":-0.4268803298473358,"50":-1.7652615308761597,"51":-0.1280219405889511,"52":-1.5953404903411865,"53":-1.7275023460388184,"54":0.11321963369846344,"55":-2.142237901687622,"56":-0.09744853526353836,"57":-1.1517468690872192,"58":-2.2328295707702637,"59":-0.5836578607559204,"60":-0.47076883912086487,"61":0.24206387996673584,"62":0.17938345670700073,"63":-0.9691979289054871,"64":0.8028004765510559,"65":-1.4351264238357544,"66":2.3924782276153564,"67":0.29670238494873047,"68":2.530463695526123,"69":-0.6735168099403381,"70":-0.055362578481435776,"71":-1.0852237939834595,"72":-1.5324594974517822,"73":0.4838251769542694,"74":0.5747583508491516,"75":2.443772554397583,"76":1.0078625679016113,"77":1.4371881484985352,"78":-2.0333523750305176,"79":-0.4994291067123413,"80":0.19976221024990082,"81":-0.6041274666786194,"82":0.42488622665405273,"83":-1.9396456480026245,"84":-0.6026097536087036,"85":-0.4855707287788391,"86":0.8126558065414429,"87":0.2942596673965454,"88":0.5167806148529053,"89":0.0989849716424942,"90":2.0665407180786133,"91":0.630844235420227,"92":0.11128351837396622,"93":-2.133817672729492,"94":-1.6114627122879028,"95":-0.21178416907787323,"96":-1.151288390159607,"97":-0.07458028197288513,"98":-2.9712367057800293,"99":2.561831474304199}},"cellActivationBias":{"rows":10,"columns":1,"weights":{"0":-4.8328351974487305,"1":-1.6946262121200562,"2":-1.7887872457504272,"3":0.20027178525924683,"4":0.5920096039772034,"5":0.5051565170288086,"6":1.7376430034637451,"7":0.050081949681043625,"8":-2.3184585571289062,"9":-0.9384874105453491}}}],"outputConnector":{"rows":35,"columns":10,"weights":{"0":5.629666328430176,"1":1.6360814571380615,"2":0.9667609930038452,"3":6.926433563232422,"4":8.55208683013916,"5":2.3574767112731934,"6":8.018988609313965,"7":-5.181677341461182,"8":0.3178921341896057,"9":4.826777935028076,"10":-3.2836737632751465,"11":-2.1401455402374268,"12":0.9863861799240112,"13":1.7043113708496094,"14":6.255465507507324,"15":11.01436996459961,"16":2.2786006927490234,"17":-5.124781608581543,"18":4.085379600524902,"19":-5.849303245544434,"20":-0.8623778820037842,"21":-6.305525779724121,"22":-6.179821014404297,"23":2.55705189704895,"24":7.291153907775879,"25":16.462656021118164,"26":-5.699197769165039,"27":-2.8598825931549072,"28":-1.9743098020553589,"29":-7.957313537597656,"30":4.299810886383057,"31":-3.5022597312927246,"32":3.3105580806732178,"33":3.654099464416504,"34":-3.7089269161224365,"35":17.583120346069336,"36":-7.131569862365723,"37":-4.49517822265625,"38":-2.8589086532592773,"39":-1.0486294031143188,"40":-1.3113529682159424,"41":2.0524535179138184,"42":8.730459213256836,"43":4.281209945678711,"44":-8.793622016906738,"45":-2.1204819679260254,"46":9.408689498901367,"47":13.841058731079102,"48":-7.6829657554626465,"49":6.849005222320557,"50":0.2709864675998688,"51":8.47347354888916,"52":0.8622377514839172,"53":-7.9376983642578125,"54":-0.0807519406080246,"55":-2.7082321643829346,"56":0.19580398499965668,"57":0.4160749316215515,"58":18.322956085205078,"59":-8.131372451782227,"60":0.9234321713447571,"61":-5.832873821258545,"62":7.540031433105469,