{"type":"LSTM","options":{"inputSize":51,"inputRange":51,"hiddenLayers":[10,10],"outputSize":51,"decayRate":0.999,"smoothEps":1e-8,"regc":0.000001,"clipval":5,"maxPredictionLength":100,"dataFormatter":{"values":["oi","Olá! Como posso lhe ajudar?","ola","Oi! Tudo bem contigo? Espero que sim :) em que posso lhe ajudar?","hey","Ho, let's go! Posso lhe ajudar em algo?","hello","Hi there, how can I help? You would like to convert into english?","alguem ai?","Sempre quando sou ligado, claro!","oi tudo bem?","Opa! Tudo tranquilo por aqui, obrigado por perguntar :D no que posso lhe ajudar?","tudo bem?","Tudo na medida do possivel, no que posso lhe ajudar?","bom dia","Lhe desejo um ótimo dia também :D","oi bom dia","Olá! Um ótimo dia para você também :D","bom","Dia! XD","boa tarde","Boa tarde! Posso lhe ajudar em algo?","boa noite","Boa noite, amigo! Em que posso lhe servir?"],"indexTable":{"o":0,"i":1,"O":2,"l":3,"á":4,"!":5," ":6,"C":7,"m":8,"p":9,"s":10,"h":11,"e":12,"a":13,"j":14,"u":15,"d":16,"r":17,"?":18,"T":19,"b":20,"c":21,"n":22,"t":23,"g":24,"E":25,"q":26,":":27,")":28,"y":29,"H":30,",":31,"'":32,"P":33,"w":34,"I":35,"Y":36,"k":37,"v":38,"S":39,"D":40,"L":41,"ó":42,"é":43,"U":44,"ê":45,"X":46,"B":47,"stop-input":48,"start-output":49,"unrecognized":50},"characterTable":{"0":"o","1":"i","2":"O","3":"l","4":"á","5":"!","6":" ","7":"C","8":"m","9":"p","10":"s","11":"h","12":"e","13":"a","14":"j","15":"u","16":"d","17":"r","18":"?","19":"T","20":"b","21":"c","22":"n","23":"t","24":"g","25":"E","26":"q","27":":","28":")","29":"y","30":"H","31":",","32":"'","33":"P","34":"w","35":"I","36":"Y","37":"k","38":"v","39":"S","40":"D","41":"L","42":"ó","43":"é","44":"U","45":"ê","46":"X","47":"B","48":null,"49":null,"50":null},"characters":["o","i","O","l","á","!"," ","C","m","p","s","h","e","a","j","u","d","r","?","T","b","c","n","t","g","E","q",":",")","y","H",",","'","P","w","I","Y","k","v","S","D","L","ó","é","U","ê","X","B","stop-input","start-output","unrecognized"],"specialIndexes":[48,49,50]}},"input":{"rows":52,"columns":51,"weights":{"0":0.3047066926956177,"1":-0.9724738597869873,"2":-0.5196072459220886,"3":-1.047598123550415,"4":0.3007966876029968,"5":-1.8325423002243042,"6":2.738208293914795,"7":3.767989158630371,"8":0.6438329219818115,"9":2.0896713733673096,"10":-4.151910781860352,"11":1.778991937637329,"12":-0.8846684098243713,"13":-2.503737688064575,"14":-3.292168378829956,"15":2.359575033187866,"16":1.9149433374404907,"17":0.9895272254943848,"18":0.6713584661483765,"19":-0.08267930895090103,"20":-5.56677770614624,"21":-0.12045546621084213,"22":1.1695163249969482,"23":-3.5533080101013184,"24":-1.4515507221221924,"25":0.1279914528131485,"26":-0.4915333688259125,"27":-0.3433881103992462,"28":-0.666039228439331,"29":-1.1378477811813354,"30":-2.062995672225952,"31":-0.5178221464157104,"32":-1.2665468454360962,"33":1.6498833894729614,"34":-2.0949909687042236,"35":-1.2766820192337036,"36":-0.17863591015338898,"37":1.2424331903457642,"38":2.4692435264587402,"39":0.5127559900283813,"40":-0.21151518821716309,"41":2.30765438079834,"42":-0.21285223960876465,"43":-1.1498148441314697,"44":-4.0768280029296875,"45":1.3330594301223755,"46":-1.1838178634643555,"47":-0.3817586600780487,"48":-2.0642170906066895,"49":1.800844669342041,"50":2.4822046756744385,"51":-0.2052549123764038,"52":0.015902293846011162,"53":0.4218899607658386,"54":0.6380398273468018,"55":3.240339994430542,"56":-0.8530233502388,"57":0.038224559277296066,"58":0.520497739315033,"59":-1.2199293375015259,"60":3.549208164215088,"61":1.1188520193099976,"62":-1.0748711824417114,"63":0.9720160961151123,"64":0.4390861392021179,"65":2.364830493927002,"66":1.3311762809753418,"67":-0.764792799949646,"68":0.8853659629821777,"69":1.3485350608825684,"70":-1.234582543373108,"71":-1.5243597030639648,"72":1.4875612258911133,"73":-2.7809243202209473,"74":-0.8796323537826538,"75":-0.47868770360946655,"76":1.1754335165023804,"77":0.15036506950855255,"78":0.4520151913166046,"79":0.12085822224617004,"80":-5.0417633056640625,"81":-6.6200079917907715,"82":3.3301773071289062,"83":0.5235856175422668,"84":1.1726795434951782,"85":0.19380366802215576,"86":-1.8917713165283203,"87":-0.2737026810646057,"88":-1.9573125839233398,"89":-0.359237402677536,"90":-4.235301971435547,"91":-0.029158996418118477,"92":-0.19854401051998138,"93":3.9149951934814453,"94":-2.6731717586517334,"95":1.5450412034988403,"96":0.07097795605659485,"97":0.8376200199127197,"98":0.7711243629455566,"99":-2.1176671981811523,"100":-0.8047516345977783,"101":-0.3203045129776001,"102":3.1719655990600586,"103":-2.8641324043273926,"104":3.95662784576416,"105":0.4922708570957184,"106":0.8118748664855957,"107":-0.06087663769721985,"108":1.7819639444351196,"109":0.06553414463996887,"110":1.4577642679214478,"111":0.2518085837364197,"112":-0.2210732400417328,"113":-0.7720207571983337,"114":-3.376197576522827,"115":3.951551675796509,"116":-3.2292933464050293,"117":-0.4698038101196289,"118":0.008607248775660992,"119":-1.39971923828125,"120":-2.020068645477295,"121":-0.24498599767684937,"122":-0.6897473931312561,"123":1.5430306196212769,"124":-2.3133232593536377,"125":-0.9772567749023438,"126":-0.1382845789194107,"127":-3.829706907272339,"128":0.3187251091003418,"129":-1.0502680540084839,"130":0.3852776885032654,"131":0.7838285565376282,"132":-0.6715623736381531,"133":-3.5660529136657715,"134":1.3677113056182861,"135":5.513915538787842,"136":-2.3511524200439453,"137":-3.1196231842041016,"138":-2.7862062454223633,"139":-2.3907644748687744,"140":-0.9053066372871399,"141":1.5669196844100952,"142":-0.7404258847236633,"143":-0.027581866830587387,"144":-2.3631882667541504,"145":0.232254758477211,"146":-0.5781413316726685,"147":0.17722998559474945,"148":2.9386179447174072,"149":-1.0658849477767944,"150":3.708699941635132,"151":-2.259511709213257,"152":1.1221106052398682,"153":-6.872461318969727,"154":-7.6576738357543945,"155":-3.8696134090423584,"156":0.2836112976074219,"157":2.581155776977539,"158":-5.658912181854248,"159":1.4456764459609985,"160":2.5265254974365234,"161":14.47730541229248,"162":-0.12497705966234207,"163":-9.136894226074219,"164":-7.823675155639648,"165":5.17733097076416,"166":4.344420433044434,"167":3.8780744075775146,"168":0.12900443375110626,"169":3.0750224590301514,"170":-5.399052143096924,"171":4.967493057250977,"172":-3.147815704345703,"173":-3.073866128921509,"174":4.390078544616699,"175":-3.2953145503997803,"176":2.258857488632202,"177":3.2694318294525146,"178":3.6207456588745117,"179":1.2222243547439575,"180":1.9917922019958496,"181":1.2248278856277466,"182":-3.4084184169769287,"183":-11.193201065063477,"184":4.669093608856201,"185":1.1793205738067627,"186":3.327970027923584,"187":3.4377381801605225,"188":2.9237146377563477,"189":-1.269395351409912,"190":-1.2313090562820435,"191":1.5163389444351196,"192":-0.6989648342132568,"193":1.56318199634552,"194":-0.14089727401733398,"195":6.444186210632324,"196":-0.47766992449760437,"197":2.7896804809570312,"198":2.8624165058135986,"199":-0.1406181901693344,"200":3.7521204948425293,"201":-6.812363147735596,"202":-0.5299004912376404,"203":-7.4380202293396,"204":-1.171279788017273,"205":-0.8549679517745972,"206":-1.244982361793518,"207":0.7784515023231506,"208":-1.92948317527771,"209":1.3694490194320679,"210":-0.0447450615465641,"211":0.1356506645679474,"212":0.23133128881454468,"213":-1.4004020690917969,"214":-0.13387785851955414,"215":-0.5570192337036133,"216":1.7142138481140137,"217":-0.0675259456038475,"218":-0.680100679397583,"219":0.13429079949855804,"220":-0.33976343274116516,"221":0.5406748652458191,"222":0.42710447311401367,"223":-1.9295321702957153,"224":0.09176675230264664,"225":-1.4565365314483643,"226":5.379229545593262,"227":0.31050893664360046,"228":0.2977951765060425,"229":0.8325086236000061,"230":1.0047709941864014,"231":-0.23326410353183746,"232":3.6783792972564697,"233":0.06473098695278168,"234":0.009629497304558754,"235":-1.6733108758926392,"236":0.6395838260650635,"237":0.4240313768386841,"238":-1.4952127933502197,"239":0.8730847239494324,"240":-2.0066275596618652,"241":-1.457019329071045,"242":0.7048613429069519,"243":-1.1789823770523071,"244":-0.03164583072066307,"245":0.771859347820282,"246":3.160738706588745,"247":-0.43428999185562134,"248":-1.6124541759490967,"249":0.6643598079681396,"250":1.7617186307907104,"251":0.4775996804237366,"252":2.1206164360046387,"253":-1.6439144611358643,"254":0.16320736706256866,"255":4.589484214782715,"256":4.717807292938232,"257":4.259133815765381,"258":-4.933492183685303,"259":9.288483619689941,"260":3.1873326301574707,"261":-1.4109470844268799,"262":7.985939025878906,"263":-2.8852531909942627,"264":-0.5024164915084839,"265":-2.8646769523620605,"266":-1.5472146272659302,"267":6.290770530700684,"268":8.831619262695312,"269":-0.5083908438682556,"270":-0.05274548381567001,"271":-6.929818630218506,"272":1.3953983783721924,"273":-7.101362228393555,"274":0.46218180656433105,"275":-1.7169427871704102,"276":-0.015081602148711681,"277":1.5803121328353882,"278":7.648484706878662,"279":6.648237228393555,"280":7.719066143035889,"281":2.5433661937713623,"282":1.2916771173477173,"283":8.236382484436035,"284":-3.3964338302612305,"285":2.2323696613311768,"286":-0.9176162481307983,"287":-5.674895286560059,"288":-13.157705307006836,"289":7.951399326324463,"290":12.337508201599121,"291":3.4540085792541504,"292":7.806469440460205,"293":4.433156490325928,"294":2.336043119430542,"295":-3.439783811569214,"296":1.9775971174240112,"297":-2.500009298324585,"298":-3.656623601913452,"299":6.013065814971924,"300":-9.853080749511719,"301":-0.1879599690437317,"302":3.826669931411743,"303":1.804186463356018,"304":-9.951502799987793,"305":-0.6436104774475098,"306":1612.82275390625,"307":1606.2633056640625,"308":1602.933837890625,"309":1609.743896484375,"310":1599.18017578125,"311":1610.7069091796875,"312":1591.755126953125,"313":-1578.5592041015625,"314":1556.1129150390625,"315":-1602.6820068359375,"316":-1604.5870361328125,"317":-1593.4176025390625,"318":1593.0574951171875,"319":1544.955078125,"320":-1558.6229248046875,"321":-1563.4937744140625,"322":-1613.8541259765625,"323":-1597.60595703125,"324":-1616.0806884765625,"325":1605.215087890625,"326":-1609.4320068359375,"327":-1499.0377197265625,"328":1582.9609375,"329":1607.5982666015625,"330":1613.4609375,"331":-1625.7647705078125,"332":-1618.161376953125,"333":-1594.9166259765625,"334":1613.65625,"335":1625.3536376953125,"336":-1612.0391845703125,"337":-1618.116943359375,"338":-1618.9508056640625,"339":-1607.3936767578125,"340":1562.5430908203125,"341":-1598.925537109375,"342":-1628.35791015625,"343":-1597.7567138671875,"344":1579.736572265625,"345":1598.6165771484375,"346":-1603.8822021484375,"347":1579.1185302734375,"348":-1627.447021484375,"349":1592.060791015625,"350":-1601.3106689453125,"351":-1579.19482421875,"352":-1574.3499755859375,"353":-1555.96923828125,"354":1618.1356201171875,"355":-1581.253173828125,"356":1598.1978759765625,"357":-0.3080422580242157,"358":1.0498007535934448,"359":-1.424553394317627,"360":-0.39266133308410645,"361":2.7196714878082275,"362":-1.0176974534988403,"363":-1.98239266872406,"364":0.28574079275131226,"365":-1.5353059768676758,"366":1.347328543663025,"367":1.0496166944503784,"368":2.915104627609253,"369":-1.408642292022705,"370":-0.6998462677001953,"371":-0.03885140269994736,"372":0.12595915794372559,"373":1.541229486465454,"374":-1.1192243099212646,"375":2.6383135318756104,"376":-0.8755905628204346,"377":-2.533115863800049,"378":0.20394925773143768,"379":-0.614374041557312,"380":1.1749937534332275,"381":-0.17258046567440033,"382":-2.8031301498413086,"383":2.249562978744507,"384":-0.12267216295003891,"385":0.36600226163864136,"386":0.3793361783027649,"387":-2.2351651191711426,"388":-0.7352837920188904,"389":-0.39584800601005554,"390":1.7118043899536133,"391":-1.247741937637329,"392":0.22958368062973022,"393":0.21077853441238403,"394":1.5623738765716553,"395":-0.3932637572288513,"396":-3.2884132862091064,"397":0.5327688455581665,"398":0.4557182788848877,"399":-1.647164225578308,"400":-1.3002573251724243,"401":-0.5641502141952515,"402":1.0539170503616333,"403":3.8628461360931396,"404":-3.2874879837036133,"405":-1.5098353624343872,"406":3.9196627140045166,"407":-1.4852265119552612,"408":6.478047847747803,"409":-2.5020809173583984,"410":-6.6814985275268555,"411":1.0933035612106323,"412":9.524238586425781,"413":8.934061050415039,"414":7.173464775085449,"415":9.403495788574219,"416":6.742944717407227,"417":-2.8627893924713135,"418":-4.117171764373779,"419":5.9356770515441895,"420":-1.9748289585113525,"421":-5.194891929626465,"422":3.588674545288086,"423":-9.602078437805176,"424":-8.130498886108398,"425":13.061453819274902,"426":-5.274384498596191,"427":0.3884642422199249,"428":-9.473055839538574,"429":-0.03207305446267128,"430":-0.8119914531707764,"431":11.815006256103516,"432":11.838099479675293,"433":6.4720458984375,"434":-3.4235587120056152,"435":8.716084480285645,"436":-1.0085252523422241,"437":-2.3892834186553955,"438":0.2725498080253601,"439":13.16797924041748,"440":2.884059429168701,"441":-9.929350852966309,"442":10.9336519241333,"443":6.968516826629639,"444":-0.895833432674408,"445":-0.7190850377082825,"446":5.7519850730896,"447":6.10099458694458,"448":-6.725315570831299,"449":1.7093677520751953,"450":1.5006330013275146,"451":13.481001853942871,"452":-5.484805583953857,"453":3.888068914413452,"454":-1.629061222076416,"455":0.9599899053573608,"456":-0.6434060335159302,"457":-2.831303596496582,"458":-4.946090221405029,"459":1.4940712451934814,"460":-3.349807024002075,"461":-1.5974401235580444,"462":0.2762386202812195,"463":-0.5495615005493164,"464":-3.854213237762451,"465":-0.6588833332061768,"466":-0.03463723510503769,"467":-0.758249044418335,"468":2.4847795963287354,"469":0.4316043555736542,"470":3.213496446609497,"471":0.8199225068092346,"472":-0.002988974330946803,"473":-2.019279956817627,"474":0.09008915722370148,"475":2.1201016902923584,"476":0.3342486023902893,"477":-2.4247324466705322,"478":2.9974007606506348,"479":0.09043031930923462,"480":-1.2922254800796509,"481":0.2783850133419037,"482":0.605893075466156,"483":-2.4813766479492188,"484":-0.27776774764060974,"485":-0.5796995162963867,"486":-0.12156902253627777,"487":-0.3183688521385193,"488":3.4312360286712646,"489":-2.5325889587402344,"490":-0.29066741466522217,"491":1.5817444324493408,"492":0.5716995596885681,"493":2.1176950931549072,"494":1.0553783178329468,"495":3.893028974533081,"496":2.837984800338745,"497":1.5030690431594849,"498":-10.824356079101562,"499":0.6893048882484436,"500":2.349691390991211,"501":-1.7828114032745361,"502":-3.4408106803894043,"503":-0.616730272769928,"504":-1.9812592267990112,"505":2.029866933822632,"506":-0.6373055577278137,"507":1.6326755285263062,"508":6.555497646331787,"509":-0.8782913088798523,"510":0.08929760754108429,"511":-2.860691547393799,"512":1.4121981859207153,"513":-0.035857900977134705,"514":-1.9092496633529663,"515":1.0108221769332886,"516":-0.058717694133520126,"517":0.25480350852012634,"518":-0.35656604170799255,"519":-0.4161224067211151,"520":0.7573248744010925,"521":-7.76050329208374,"522":1.3624303340911865,"523":0.5286872982978821,"524":1.1336400508880615,"525":1.6281319856643677,"526":-0.8887491226196289,"527":-0.632684588432312,"528":-0.47764503955841064,"529":-0.2341047078371048,"530":1.6548206806182861,"531":-0.6117329597473145,"532":-1.1440143585205078,"533":0.022452009841799736,"534":-0.904998779296875,"535":3.3285415172576904,"536":1.0003315210342407,"537":1.0395933389663696,"538":1.5217070579528809,"539":0.160724475979805,"540":-1.2837005853652954,"541":2.207951784133911,"542":-0.054096221923828125,"543":2.2392237186431885,"544":1.0994677543640137,"545":-3.0499377250671387,"546":0.5863838791847229,"547":1.7132803201675415,"548":-0.5542048215866089,"549":0.49154341220855713,"550":-0.19041265547275543,"551":-0.005135588813573122,"552":1.2582796812057495,"553":1.5846483707427979,"554":0.07507150620222092,"555":1.375939965248108,"556":1.8911266326904297,"557":-0.18546590209007263,"558":-2.645803689956665,"559":2.758241653442383,"560":1.8482346534729004,"561":0.7511435747146606,"562":0.49958160519599915,"563":-0.9144905209541321,"564":-0.540452778339386,"565":-0.19148963689804077,"566":0.08806751668453217,"567":0.1329142153263092,"568":2.48608136177063,"569":2.66926646232605,"570":-3.566364049911499,"571":-0.7378690838813782,"572":-1.2894554138183594,"573":-0.007461730390787125,"574":1.149849772453308,"575":0.34950119256973267,"576":1.0149343013763428,"577":1.726953387260437,"578":0.037005092948675156,"579":2.5799615383148193,"580":-2.848289966583252,"581":-0.10709911584854126,"582":4.5661797523498535,"583":3.3077967166900635,"584":0.5415962934494019,"585":1.481033444404602,"586":-0.7791247367858887,"587":1.058919906616211,"588":1.1772537231445312,"589":-5.666278839111328,"590":0.47677356004714966,"591":0.19360458850860596,"592":0.40946251153945923,"593":0.6925662755966187,"594":-0.991134524345398,"595":-2.123169183731079,"596":-1.403429627418518,"597":1.4765797853469849,"598":0.49003806710243225,"599":-0.48541998863220215,"600":-2.980491876602173,"601":-0.825381875038147,"602":-1.2050416469573975,"603":-1.5265262126922607,"604":-2.2299611568450928,"605":0.6177324056625366,"606":-0.7226901650428772,"607":-2.6102428436279297,"608":-0.37902796268463135,"609":-3.154590606689453,"610":1.483599305152893,"611":3.7863099575042725,"612":-7.952083110809326,"613":0.4328642189502716,"614":-5.561387062072754,"615":-1.0360788106918335,"616":-1.070614218711853,"617":-0.08374626934528351,"618":-0.030994907021522522,"619":1.0306261777877808,"620":3.7066409587860107,"621":0.7891920804977417,"622":0.17545923590660095,"623":3.13163423538208,"624":3.604384183883667,"625":-2.6307477951049805,"626":-5.536441326141357,"627":-0.40697619318962097,"628":-2.848784923553467,"629":-0.6328543424606323,"630":4.946722030639648,"631":-4.246885299682617,"632":-3.154763698577881,"633":3.5575101375579834,"634":-0.272863507270813,"635":-5.705941200256348,"636":-3.9360644817352295,"637":1.0215274095535278,"638":-0.4219231605529785,"639":0.03216059133410454,"640":1.3912947177886963,"641":-0.09534388780593872,"642":-2.068314552307129,"643":-1.2528425455093384,"644":-0.2786089777946472,"645":3.6133840084075928,"646":-1.0862349271774292,"647":-2.65295147895813,"648":-0.7870152592658997,"649":4.284916400909424,"650":1.3961756229400635,"651":1.4457485675811768,"652":0.12812073528766632,"653":-1.3578277826309204,"654":2.2123634815216064,"655":-0.5761561989784241,"656":-1.7677634954452515,"657":-3.037641763687134,"658":3.0945446491241455,"659":-0.5278730392456055,"660":-6.007596492767334,"661":6.207292556762695,"662":-3.0279219150543213,"663":0.34856942296028137,"664":-0.8722134232521057,"665":0.3620634973049164,"666":1.1543233394622803,"667":-0.8560707569122314,"668":6.181825160980225,"669":0.6262477040290833,"670":2.0464606285095215,"671":2.9091556072235107,"672":1.2987741231918335,"673":-0.46331432461738586,"674":-0.14086757600307465,"675":-0.6241405606269836,"676":-0.7550600171089172,"677":-3.790057897567749,"678":-0.0016853943234309554,"679":1.275631070137024,"680":-0.1777319610118866,"681":-2.8762576580047607,"682":-0.2733948826789856,"683":-0.1307142972946167,"684":-2.2267444133758545,"685":-0.3658093214035034,"686":0.15198098123073578,"687":-1.3849560022354126,"688":5.6032633781433105,"689":-1.3239376544952393,"690":-1.1272740364074707,"691":0.9415007829666138,"692":-0.2859371304512024,"693":-1.964721918106079,"694":-1.106217384338379,"695":0.03776661306619644,"696":-1.666852355003357,"697":-0.35665199160575867,"698":2.4623706340789795,"699":2.4618020057678223,"700":-2.3829879760742188,"701":0.0699453353881836,"702":-1.1388791799545288,"703":1.544275164604187,"704":2.854356050491333,"705":0.10517589002847672,"706":0.6072930097579956,"707":1.5644949674606323,"708":-0.9443327784538269,"709":-1.9686421155929565,"710":1.340242624282837,"711":3.796926498413086,"712":1.7060798406600952,"713":0.4765315651893616,"714":1.762341022491455,"715":-0.7546859383583069,"716":-0.017018573358654976,"717":0.8979512453079224,"718":-0.6534188985824585,"719":-2.3782029151916504,"720":-0.8850199580192566,"721":1.1695327758789062,"722":0.7350339293479919,"723":-0.2751607894897461,"724":-1.3663837909698486,"725":3.989841938018799,"726":0.15200282633304596,"727":-0.5785476565361023,"728":-4.183415412902832,"729":0.45356351137161255,"730":0.1989385038614273,"731":-1.5020205974578857,"732":-1.8978885412216187,"733":0.5261037945747375,"734":0.575276255607605,"735":-3.9603991508483887,"736":-1.053443431854248,"737":1.1772836446762085,"738":-1.9037601947784424,"739":1.2310197353363037,"740":-1.3366233110427856,"741":-2.1058804988861084,"742":0.35195133090019226,"743":0.26583048701286316,"744":-5.576323986053467,"745":-2.40585994720459,"746":-2.0847530364990234,"747":3.0234766006469727,"748":1.8817589282989502,"749":0.6849513649940491,"750":3.051892042160034,"751":-1.305845856666565,"752":0.005270089488476515,"753":-0.05180438235402107,"754":-1.003364086151123,"755":-0.5997670292854309,"756":2.457969903945923,"757":-2.0846006870269775,"758":0.1249404326081276,"759":-0.4221394956111908,"760":0.9415783286094666,"761":-0.06202101334929466,"762":1.0389151573181152,"763":-1.9078071117401123,"764":2.2251529693603516,"765":2.071946620941162,"766":4.534270763397217,"767":2.897542953491211,"768":-0.1792900711297989,"769":1.6031599044799805,"770":-9.493075370788574,"771":-1.2540661096572876,"772":1.339545488357544,"773":3.2307865619659424,"774":1.240064263343811,"775":-1.2906279563903809,"776":-3.286367893218994,"777":2.416048049926758,"778":5.275889873504639,"779":0.10761609673500061,"780":-2.3439712524414062,"781":-2.549231767654419,"782":1.384920358657837,"783":2.017155647277832,"784":-0.07863695174455643,"785":5.301076889038086,"786":-2.561248540878296,"787":3.5919179916381836,"788":-6.968040943145752,"789":0.7876331806182861,"790":-2.568347692489624,"791":-2.1780428886413574,"792":-3.3085803985595703,"793":-2.9047281742095947,"794":2.453558921813965,"795":-1.977414846420288,"796":-1.6112418174743652,"797":1.5114942789077759,"798":2.3269455432891846,"799":-2.589756488800049,"800":-1.728230357170105,"801":1.5228166580200195,"802":3.3490216732025146,"803":-2.5086164474487305,"804":0.6523745059967041,"805":1.607816219329834,"806":-3.425079107284546,"807":10.53751277923584,"808":-1.2934306859970093,"809":1.0785187482833862,"810":-5.76639461517334,"811":3.1081881523132324,"812":2.582504987716675,"813":-3.2036967277526855,"814":-9.284157752990723,"815":6.886078834533691,"816":6.94378662109375,"817":1.5547552108764648,"818":2.051284074783325,"819":-0.14726541936397552,"820":-0.9197352528572083,"821":0.1503264158964157,"822":-3.6873128414154053,"823":0.43419212102890015,"824":-2.8071889877319336,"825":-9.165225982666016,"826":-0.07036194205284119,"827":3.307525157928467,"828":3.603023052215576,"829":2.540478229522705,"830":7.077799320220947,"831":-1.1496583223342896,"832":2.1901233196258545,"833":0.9059718251228333,"834":-2.74539852142334,"835":6.804832935333252,"836":2.1704370975494385,"837":-1.1888777017593384,"838":-2.4501984119415283,"839":-1.2453850507736206,"840":-0.9849433302879333,"841":0.4118506908416748,"842":0.7284706234931946,"843":0.8692458868026733,"844":1.4812389612197876,"845":1.0799411535263062,"846":0.050505079329013824,"847":-0.1259077787399292,"848":4.8207550048828125,"849":-0.9041612148284912,"850":8.818262100219727,"851":-2.618211269378662,"852":0.7190881371498108,"853":2.2599048614501953,"854":-1.3357460498809814,"855":0.647226095199585,"856":4.62788724899292,"857":-0.22254320979118347,"858":0.23284919559955597,"859":-1.1314749717712402,"860":-0.7649481892585754,"861":-3.338597536087036,"862":4.724889278411865,"863":-4.981970310211182,"864":0.047884732484817505,"865":-3.4410510063171387,"866":0.42091941833496094,"867":-3.2209136486053467,"868":1.8698053359985352,"869":-1.6058260202407837,"870":-0.3657607138156891,"871":-1.4270226955413818,"872":-1.712610125541687,"873":-1.2189885377883911,"874":-3.277554988861084,"875":1.5416624546051025,"876":0.9350347518920898,"877":-3.5661203861236572,"878":3.268996477127075,"879":0.32515403628349304,"880":1.567741870880127,"881":3.92094349861145,"882":-3.7628960609436035,"883":-0.8939456343650818,"884":0.25709256529808044,"885":-3.8520915508270264,"886":-0.6165685653686523,"887":-1.7066148519515991,"888":3.1398110389709473,"889":1.7943066358566284,"890":-0.05772240087389946,"891":-1.2159759998321533,"892":0.41626420617103577,"893":-4.427541255950928,"894":0.08439934253692627,"895":0.9929133057594299,"896":-0.8220120668411255,"897":-1.4671317338943481,"898":-0.43857327103614807,"899":-2.207608461380005,"900":0.8477943539619446,"901":2.3123390674591064,"902":1.405031442642212,"903":-2.923105239868164,"904":3.0025274753570557,"905":0.342853307723999,"906":-4.006831169128418,"907":-0.005427695345133543,"908":1.6804250478744507,"909":-2.3879666328430176,"910":0.4727877080440521,"911":2.109156847000122,"912":0.9730290174484253,"913":2.3777308464050293,"914":-1.1822857856750488,"915":-2.4442362785339355,"916":9.034549713134766,"917":3.4799861907958984,"918":-1.3052221536636353,"919":-0.03982215002179146,"920":1.7082403898239136,"921":1.2420344352722168,"922":-1.3276808261871338,"923":-2.5672640800476074,"924":-1.2436432838439941,"925":2.0627996921539307,"926":0.6437909603118896,"927":2.981419563293457,"928":-0.34996309876441956,"929":3.0349130630493164,"930":0.10988643020391464,"931":-1.175972580909729,"932":-1.86308753490448,"933":0.771378755569458,"934":-0.22102130949497223,"935":-0.09506027400493622,"936":-0.4559392035007477,"937":-1.0713632106781006,"938":1.0076719522476196,"939":0.8244978785514832,"940":-1.092272162437439,"941":0.6879534721374512,"942":-1.2553802728652954,"943":2.57580304145813,"944":-0.07209532707929611,"945":1.428903341293335,"946":-7.82236385345459,"947":-0.3201315999031067,"948":0.4183424711227417,"949":0.5159516334533691,"950":1.6840829849243164,"951":-1.7694895267486572,"952":1.0545613765716553,"953":0.7720404267311096,"954":2.920118570327759,"955":1.1173696517944336,"956":-0.6416747570037842,"957":-1.7052491903305054,"958":1.137433648109436,"959":0.43063241243362427,"960":-0.25352931022644043,"961":-4.4152445793151855,"962":0.8189653158187866,"963":1.3537108898162842,"964":0.9936152696609497,"965":-0.6971855759620667,"966":0.08558758348226547,"967":-2.695685625076294,"968":-0.19254325330257416,"969":-1.3705148696899414,"970":4.569509983062744,"971":-3.9733517169952393,"972":2.732760429382324,"973":3.6059367656707764,"974":0.08553863316774368,"975":-0.8714075684547424,"976":1.4158906936645508,"977":-4.197059154510498,"978":-0.8983519077301025,"979":-0.42865145206451416,"980":4.157580375671387,"981":2.664222240447998,"982":-2.3070921897888184,"983":-1.3611549139022827,"984":7.239385604858398,"985":0.2343091517686844,"986":-3.4919118881225586,"987":-1.1459304094314575,"988":3.998121738433838,"989":3.1716744899749756,"990":0.0322972871363163,"991":2.4664158821105957,"992":1.3939422369003296,"993":1.5175342559814453,"994":0.6995689272880554,"995":2.3482377529144287,"996":-6.4466872215271,"997":3.473515272140503,"998":-1.2247788906097412,"999":-2.8507936000823975,"1000":-0.5082244277000427,"1001":-4.15751314163208,"1002":-2.6370060443878174,"1003":2.17305064201355,"1004":1.5024574995040894,"1005":-0.11838439106941223,"1006":-3.2900495529174805,"1007":-0.016510991379618645,"1008":-1.9059351682662964,"1009":-1.133015751838684,"1010":-3.394486427307129,"1011":-0.8483356237411499,"1012":-0.012953288853168488,"1013":9.689748764038086,"1014":-1.7450956106185913,"1015":-0.8666176795959473,"1016":1.6632211208343506,"1017":2.022125005722046,"1018":0.5312678813934326,"1019":-3.6427175998687744,"1020":7.775285243988037,"1021":3.2913219928741455,"1022":1.9970009326934814,"1023":-0.4852202832698822,"1024":7.618555068969727,"1025":12.542991638183594,"1026":3.0835185050964355,"1027":-0.40877556800842285,"1028":1.1995924711227417,"1029":6.167062759399414,"1030":-0.10821577906608582,"1031":-8.606888771057129,"1032":-0.38877564668655396,"1033":-2.479886293411255,"1034":-10.29101848602295,"1035":-4.943262100219727,"1036":-8.241937637329102,"1037":4.755707740783691,"1038":-2.3235764503479004,"1039":-13.99629020690918,"1040":-2.384009838104248,"1041":-1.5296224355697632,"1042":6.729462146759033,"1043":4.433959484100342,"1044":0.6068108677864075,"1045":1.3425039052963257,"1046":-2.234586000442505,"1047":2.0065155029296875,"1048":12.761777877807617,"1049":-4.133404731750488,"1050":-1.8467628955841064,"1051":-1.2407726049423218,"1052":-2.7066633701324463,"1053":-4.634510517120361,"1054":-0.15265870094299316,"1055":1.0710654258728027,"1056":3.780465602874756,"1057":4.382976531982422,"1058":-4.417861461639404,"1059":5.083695411682129,"1060":-2.22520112991333,"1061":2.7811875343322754,"1062":-1.072913408279419,"1063":-0.03547517582774162,"1064":-4.10495138168335,"1065":4.929441928863525,"1066":-1.7005501985549927,"1067":3.3382115364074707,"1068":-6.800487518310547,"1069":-9.106538772583008,"1070":6.216433048248291,"1071":0.22279390692710876,"1072":-3.8265089988708496,"1073":0.7913181781768799,"1074":-0.29712510108947754,"1075":5.470338821411133,"1076":1.8220982551574707,"1077":-1.292450189590454,"1078":8.136885643005371,"1079":-1.557896614074707,"1080":1.003674864768982,"1081":6.006741523742676,"1082":1.2816145420074463,"1083":1.2326101064682007,"1084":-5.993259906768799,"1085":3.2051026821136475,"1086":3.4040443897247314,"1087":1.0560522079467773,"1088":-0.7910026907920837,"1089":0.19565588235855103,"1090":-0.5940939784049988,"1091":1.0417091846466064,"1092":-3.309053659439087,"1093":0.0398588590323925,"1094":-0.1297973394393921,"1095":-1.840700387954712,"1096":3.9649131298065186,"1097":0.20831051468849182,"1098":2.5208146572113037,"1099":-2.2363662719726562,"1100":-2.290130853652954,"1101":-5.0231194496154785,"1102":-3.5184319019317627,"1103":0.6678732633590698,"1104":-3.6389784812927246,"1105":7.840734958648682,"1106":0.4340682625770569,"1107":4.92035436630249,"1108":-8.28689193725586,"1109":-0.37313005328178406,"1110":-5.9146904945373535,"1111":-1.379683017730713,"1112":0.23460768163204193,"1113":-1.9431053400039673,"1114":-5.121181488037109,"1115":-0.9911203384399414,"1116":1.9967796802520752,"1117":1.590086579322815,"1118":1.7758047580718994,"1119":6.693748950958252,"1120":-0.3768104910850525,"1121":-0.9359164237976074,"1122":-0.46397876739501953,"1123":6.999616622924805,"1124":-3.5621707439422607,"1125":1.1252501010894775,"1126":-3.5940725803375244,"1127":3.0249884128570557,"1128":-2.823058843612671,"1129":3.2784509658813477,"1130":-0.6760448217391968,"1131":-1.388694167137146,"1132":7.720259666442871,"1133":4.875980854034424,"1134":0.7323395609855652,"1135":-2.875089406967163,"1136":-4.358583927154541,"1137":0.043707475066185,"1138":5.1540703773498535,"1139":0.6833251118659973,"1140":10.438587188720703,"1141":-0.7698922753334045,"1142":0.09290007501840591,"1143":5.8192548751831055,"1144":9.72996997833252,"1145":-4.576272487640381,"1146":-1.9294965267181396,"1147":-0.2753724455833435,"1148":-2.4204108715057373,"1149":-0.4932253062725067,"1150":-7.3492350578308105,"1151":0.894860565662384,"1152":3.132826089859009,"1153":-4.57945442199707,"1154":3.3778421878814697,"1155":-4.623110771179199,"1156":-1.71114182472229,"1157":11.307394981384277,"1158":4.541011810302734,"1159":-4.102570056915283,"1160":1.2278355360031128,"1161":-2.049285888671875,"1162":1.932380199432373,"1163":3.3821070194244385,"1164":11.933164596557617,"1165":0.4241292178630829,"1166":-2.6055002212524414,"1167":2.02726149559021,"1168":-5.220477104187012,"1169":0.0001848541432991624,"1170":-0.6474269032478333,"1171":-4.912129878997803,"1172":3.211538553237915,"1173":-3.0267446041107178,"1174":-1.9296693801879883,"1175":0.0007980474620126188,"1176":1.434228539466858,"1177":1.3979984521865845,"1178":-3.359419584274292,"1179":-0.8086110949516296,"1180":3.8241446018218994,"1181":-0.6661820411682129,"1182":-1.2427988052368164,"1183":4.396546840667725,"1184":-0.6371343731880188,"1185":-1.8611195087432861,"1186":2.531780481338501,"1187":4.313911437988281,"1188":-1.8111809492111206,"1189":0.5277373790740967,"1190":-0.17931300401687622,"1191":-1.2348841428756714,"1192":-0.9311651587486267,"1193":-0.673036515712738,"1194":4.3321943283081055,"1195":0.6443758606910706,"1196":6.729921817779541,"1197":-1.2615517377853394,"1198":3.137089729309082,"1199":0.5725630521774292,"1200":-4.526852130889893,"1201":-2.595428466796875,"1202":-5.143157005310059,"1203":-6.51954984664917,"1204":-0.9094977974891663,"1205":2.8617501258850098,"1206":-0.6628613471984863,"1207":6.173314571380615,"1208":-1.2913086414337158,"1209":-0.38675758242607117,"1210":-0.06766483187675476,"1211":-0.8029515147209167,"1212":-2.7632699012756348,"1213":-1.2156919240951538,"1214":1.4409080743789673,"1215":-1.7910221815109253,"1216":-6.676717281341553,"1217":3.9518587589263916,"1218":1.6857728958129883,"1219":2.7816736698150635,"1220":1.9132490158081055,"1221":6.082756042480469,"1222":3.5332202911376953,"1223":1.7117102146148682,"1224":-0.2985629439353943,"1225":-1.7324602603912354,"1226":-0.4046317934989929,"1227":-1.267715573310852,"1228":0.10691241174936295,"1229":-0.5438783168792725,"1230":1.422613263130188,"1231":2.60538649559021,"1232":-1.2393101453781128,"1233":2.1751372814178467,"1234":2.478477954864502,"1235":-3.3214802742004395,"1236":-3.7290894985198975,"1237":-1.0508662462234497,"1238":4.826350212097168,"1239":0.4071141481399536,"1240":-1.2977603673934937,"1241":0.3768576383590698,"1242":0.1069946214556694,"1243":0.04630254954099655,"1244":-0.5025157928466797,"1245":-2.072345018386841,"1246":0.4706880450248718,"1247":-0.2367558628320694,"1248":-1.040235161781311,"1249":4.18311882019043,"1250":-5.999711036682129,"1251":0.14392071962356567,"1252":0.8147244453430176,"1253":-4.597131729125977,"1254":-0.4149472415447235,"1255":-0.2450951337814331,"1256":1.5573434829711914,"1257":1.1301077604293823,"1258":-0.7639449834823608,"1259":-4.354435443878174,"1260":-1.6152995824813843,"1261":-2.024198293685913,"1262":-2.7576279640197754,"1263":2.663032293319702,"1264":-0.4379936158657074,"1265":0.6957234740257263,"1266":1.0760737657546997,"1267":-2.834522008895874,"1268":1.8202087879180908,"1269":-0.7471002340316772,"1270":3.0094025135040283,"1271":1.5058722496032715,"1272":4.935102939605713,"1273":-2.0319464206695557,"1274":-2.030301094055176,"1275":5.250710964202881,"1276":-1.8986760377883911,"1277":-5.178287029266357,"1278":-3.423823595046997,"1279":4.594757080078125,"1280":-0.971402108669281,"1281":-4.470600128173828,"1282":1.2341046333312988,"1283":-4.670389175415039,"1284":-0.7758737206459045,"1285":-1.089849829673767,"1286":0.7151656150817871,"1287":6.9070329666137695,"1288":0.4101671874523163,"1289":-3.214432716369629,"1290":-1.2813481092453003,"1291":2.219430446624756,"1292":2.1499581336975098,"1293":-2.038429021835327,"1294":3.6163158416748047,"1295":2.18361759185791,"1296":-1.0165214538574219,"1297":3.063509225845337,"1298":1.916652798652649,"1299":1.4624069929122925,"1300":1.657643437385559,"1301":-2.164867401123047,"1302":2.286390781402588,"1303":8.255796432495117,"1304":-6.632705211639404,"1305":-3.40736985206604,"1306":4.284823894500732,"1307":-2.401059865951538,"1308":0.7795591354370117,"1309":7.051051616668701,"1310":-0.8675068020820618,"1311":-0.09929905086755753,"1312":3.846052646636963,"1313":2.1773064136505127,"1314":-4.144168853759766,"1315":2.803220272064209,"1316":1.257765531539917,"1317":-0.31782159209251404,"1318":3.665483236312866,"1319":0.4210241436958313,"1320":-0.9979699850082397,"1321":0.7026155591011047,"1322":2.1286511421203613,"1323":-0.8270677328109741,"1324":1.3161581754684448,"1325":1.7410833835601807,"1326":-1144.515625,"1327":-1503.4405517578125,"1328":-1473.324462890625,"1329":-1554.6192626953125,"1330":1538.0770263671875,"1331":1528.71484375,"1332":1528.716796875,"1333":1534.48876953125,"1334":-1552.6534423828125,"1335":1534.5062255859375,"1336":1287.54931640625,"1337":-1540.2496337890625,"1338":1551.868896484375,"1339":-1551.0340576171875,"1340":-1549.107421875,"1341":1553.0396728515625,"1342":-1554.54833984375,"1343":1448.0704345703125,"1344":1517.1488037109375,"1345":-1512.2337646484375,"1346":-1543.25244140625,"1347":1315.5723876953125,"1348":-1515.09228515625,"1349":1536.279052734375,"1350":1542.7967529296875,"1351":1502.3463134765625,"1352":1529.7935791015625,"1353":1542.3975830078125,"1354":1543.1097412109375,"1355":-1032.2418212890625,"1356":-1545.3642578125,"1357":-1556.2994384765625,"1358":-1537.5499267578125,"1359":-1481.1788330078125,"1360":1452.1737060546875,"1361":-1469.025146484375,"1362":-1567.8258056640625,"1363":-1529.8037109375,"1364":-1548.9078369140625,"1365":-1549.1405029296875,"1366":1070.41015625,"1367":1542.4473876953125,"1368":-1514.4461669921875,"1369":-1543.837158203125,"1370":264.6355285644531,"1371":1541.491455078125,"1372":1551.9620361328125,"1373":1548.9090576171875,"1374":1543.5008544921875,"1375":-349.8677673339844,"1376":1539.6041259765625,"1377":-6.418400764465332,"1378":-4.0978522300720215,"1379":-6.438477993011475,"1380":0.12657038867473602,"1381":-0.4229397773742676,"1382":-3.147447347640991,"1383":4.519792556762695,"1384":-2.7301292419433594,"1385":7.719130516052246,"1386":0.30376431345939636,"1387":-0.1392495334148407,"1388":-8.966288566589355,"1389":-5.722116947174072,"1390":2.7164535522460938,"1391":-6.028057098388672,"1392":0.949489951133728,"1393":1.4392812252044678,"1394":-0.2176959216594696,"1395":4.904702663421631,"1396":-0.5322849154472351,"1397":-3.9241414070129395,"1398":0.6557321548461914,"1399":-1.6515519618988037,"1400":2.4732818603515625,"1401":-5.399847984313965,"1402":-2.8353469371795654,"1403":-6.595369338989258,"1404":5.633221626281738,"1405":-5.815914154052734,"1406":-1.1258233785629272,"1407":-1.71608567237854,"1408":1.7631441354751587,"1409":5.1646833419799805,"1410":5.327572345733643,"1411":5.372329235076904,"1412":-5.502729892730713,"1413":0.8994419574737549,"1414":1.4978166818618774,"1415":0.9452319741249084,"1416":-1.5430055856704712,"1417":-2.0495495796203613,"1418":-3.2396206855773926,"1419":2.375817060470581,"1420":3.5001823902130127,"1421":0.03918430954217911,"1422":0.48151642084121704,"1423":3.284446954727173,"1424":-0.18210819363594055,"1425":-7.5257487297058105,"1426":3.6577327251434326,"1427":0.4875160753726959,"1428":-4.953887939453125,"1429":-8.414034843444824,"1430":-1.6867039203643799,"1431":-3.4288740158081055,"1432":-7.621244430541992,"1433":-4.32516622543335,"1434":3.6110494136810303,"1435":0.5522354245185852,"1436":6.274259090423584,"1437":-3.374422073364258,"1438":-0.6875247955322266,"1439":3.0085296630859375,"1440":-5.547248840332031,"1441":-3.490077495574951,"1442":7.795149803161621,"1443":4.965774059295654,"1444":4.06252384185791,"1445":1.5987308025360107,"1446":2.146480083465576,"1447":2.733940601348877,"1448":5.501567840576172,"1449":6.693912982940674,"1450":5.070790767669678,"1451":-12.38944149017334,"1452":-6.672727108001709,"1453":-1.56406569480896,"1454":-7.206435680389404,"1455":5.669468879699707,"1456":5.3265061378479,"1457":2.104278326034546,"1458":0.8202311396598816,"1459":-2.16904354095459,"1460":-0.18994250893592834,"1461":4.471932411193848,"1462":1.7223262786865234,"1463":0.7758373618125916,"1464":9.979660034179688,"1465":-4.441997051239014,"1466":-2.1385693550109863,"1467":5.830958366394043,"1468":-0.38355937600135803,"1469":5.022756576538086,"1470":-6.619470596313477,"1471":-9.975054740905762,"1472":1.017589807510376,"1473":5.226512908935547,"1474":4.543245315551758,"1475":-0.3524784743785858,"1476":-5.165518760681152,"1477":-9.601110458374023,"1478":-4.032785415649414,"1479":5.547271728515625,"1480":-0.4702839255332947,"1481":-0.5232657790184021,"1482":-1.5111011266708374,"1483":-0.23706471920013428,"1484":-5.2430243492126465,"1485":-3.451425790786743,"1486":-0.33681392669677734,"1487":-1.75688898563385,"1488":1.9730606079101562,"1489":-8.274092674255371,"1490":-1.5703394412994385,"1491":3.2802574634552,"1492":10.115141868591309,"1493":-1.5743088722229004,"1494":-2.0801942348480225,"1495":-1.9805718660354614,"1496":2.528911590576172,"1497":4.733326435089111,"1498":-0.11194925755262375,"1499":1.7215070724487305,"1500":-5.034524440765381,"1501":-10.241006851196289,"1502":-1.1206109523773193,"1503":2.2398018836975098,"1504":1.1449694633483887,"1505":-9.562960624694824,"1506":-6.6372246742248535,"1507":0.16466893255710602,"1508":3.8340234756469727,"1509":5.171253204345703,"1510":7.958545684814453,"1511":1.2970985174179077,"1512":5.928769111633301,"1513":-3.830954074859619,"1514":-9.727088928222656,"1515":7.120273590087891,"1516":4.961076259613037,"1517":-5.407946586608887,"1518":-4.3497796058654785,"1519":1.7341152429580688,"1520":-5.055148124694824,"1521":3.450542449951172,"1522":-2.697519302368164,"1523":7.572691917419434,"1524":0.18073472380638123,"1525":-4.049947261810303,"1526":-3.1540777683258057,"1527":-2.0580649375915527,"1528":-7.07209587097168,"1529":2.6266822814941406,"1530":-3.3172667026519775,"1531":1.148552417755127,"1532":-2.706857204437256,"1533":16.928852081298828,"1534":4.096256732940674,"1535":3.663496732711792,"1536":-3.090023994445801,"1537":-0.676605224609375,"1538":-11.478388786315918,"1539":6.7363176345825195,"1540":-13.79292106628418,"1541":10.506689071655273,"1542":-7.598303318023682,"1543":-2.2085721492767334,"1544":-1.4477919340133667,"1545":-0.46482330560684204,"1546":-11.056756973266602,"1547":-1.2327055931091309,"1548":-6.098452568054199,"1549":3.7265801429748535,"1550":3.090374708175659,"1551":0.8339135050773621,"1552":3.115663766860962,"1553":-1.5725172758102417,"1554":0.35025134682655334,"1555":-5.134052753448486,"1556":-1.376174807548523,"1557":-0.5403198003768921,"1558":-1.7431827783584595,"1559":5.172203063964844,"1560":-16.66960334777832,"1561":8.159002304077148,"1562":7.87067985534668,"1563":-6.529476642608643,"1564":7.212540626525879,"1565":-0.12473535537719727,"1566":-3.5513317584991455,"1567":4.2549357414245605,"1568":10.394405364990234,"1569":5.26374626159668,"1570":2.1543219089508057,"1571":4.171180725097656,"1572":1.1248345375061035,"1573":1.0076467990875244,"1574":6.989644527435303,"1575":-1.500516414642334,"1576":2.377385377883911,"1577":-12.403485298156738,"1578":2.6382954120635986,"1579":-3.960012674331665,"1580":0.24406985938549042,"1581":-4.3853654861450195,"1582":-4.987512588500977,"1583":3.4999001026153564,"1584":-9.259235382080078,"1585":1.0074092149734497,"1586":2.951770067214966,"1587":2.672572612762451,"1588":-2.30692195892334,"1589":-7.695796966552734,"1590":7.2645111083984375,"1591":2.4021003246307373,"1592":-1.7461333274841309,"1593":3.007153034210205,"1594":2.745265245437622,"1595":-1.4833760261535645,"1596":3.0480570793151855,"1597":4.72557258605957,"1598":-0.3620682954788208,"1599":2.6397862434387207,"1600":9.124435424804688,"1601":-4.575674057006836,"1602":2.554388999938965,"1603":3.654141426086426,"1604":-4.226490497589111,"1605":4.360469818115234,"1606":-3.4937920570373535,"1607":-6.241127014160156,"1608":2.0125370025634766,"1609":7.722023010253906,"1610":-4.910336017608643,"1611":-2.151611804962158,"1612":-4.497342586517334,"1613":-0.9615111947059631,"1614":-3.4341344833374023,"1615":-3.713317394256592,"1616":0.13435810804367065,"1617":0.9969419240951538,"1618":1.0537569522857666,"1619":-4.705528259277344,"1620":-5.205934047698975,"1621":11.250351905822754,"1622":-1.3677765130996704,"1623":-0.5674337148666382,"1624":4.700899600982666,"1625":-0.19859766960144043,"1626":7.657203674316406,"1627":-9.19579792022705,"1628":1.005721092224121,"1629":1.9630842208862305,"1630":-8.849332809448242,"1631":-3.1819584369659424,"1632":-2.3503618240356445,"1633":-0.07099044322967529,"1634":-2.559255599975586,"1635":4.1771464347839355,"1636":0.6222338080406189,"1637":-4.772902488708496,"1638":1.9718834161758423,"1639":1.8193854093551636,"1640":5.99481725692749,"1641":5.498637676239014,"1642":-2.526733636856079,"1643":0.4422321617603302,"1644":-4.075246334075928,"1645":1.5845164060592651,"1646":4.991143226623535,"1647":-3.8710052967071533,"1648":1.125356912612915,"1649":3.0184876918792725,"1650":-5.0959649085998535,"1651":0.410649836063385,"1652":-0.5114860534667969,"1653":-3.258176565170288,"1654":0.10208777338266373,"1655":1.283219337463379,"1656":-2.816932439804077,"1657":-2.163844585418701,"1658":-3.2570667266845703,"1659":0.31133708357810974,"1660":-2.798936605453491,"1661":-3.875492811203003,"1662":-6.672027111053467,"1663":-3.7972772121429443,"1664":-1.2157005071640015,"1665":0.06163705140352249,"1666":5.073909282684326,"1667":6.198179244995117,"1668":2.533033609390259,"1669":-1.01763117313385,"1670":-0.6352887749671936,"1671":1.8531105518341064,"1672":-1.1453486680984497,"1673":3.1744072437286377,"1674":3.9178407192230225,"1675":1.9270471334457397,"1676":0.2663730978965759,"1677":0.2929597795009613,"1678":-2.3399245738983154,"1679":-1.5032509565353394,"1680":3.7871267795562744,"1681":-3.9915144443511963,"1682":-2.538921356201172,"1683":1508.0343017578125,"1684":5.799530029296875,"1685":-1516.406982421875,"1686":-1535.4925537109375,"1687":-1490.564697265625,"1688":1515.2288818359375,"1689":1502.434326171875,"1690":-1442.001953125,"1691":-1531.16552734375,"1692":-1535.1331787109375,"1693":-1528.232421875,"1694":-1531.7958984375,"1695":-622.1934204101562,"1696":-1082.0240478515625,"1697":1515.767578125,"1698":1541.049560546875,"1699":-1476.791748046875,"1700":1520.271484375,"1701":-1527.24365234375,"1702":1532.7666015625,"1703":-1537.1273193359375,"1704":1494.5162353515625,"1705":-1525.544677734375,"1706":1531.6917724609375,"1707":1548.054443359375,"1708":1519.6646728515625,"1709":1540.0233154296875,"1710":1492.662109375,"1711":1514.080078125,"1712":-1513.3106689453125,"1713":1527.900146484375,"1714":1530.6253662109375,"1715":1530.352783203125,"1716":-1533.0540771484375,"1717":1534.31201171875,"1718":1531.938720703125,"1719":-1533.0069580078125,"1720":-1525.970703125,"1721":-1167.9644775390625,"1722":-389.0877990722656,"1723":1537.179443359375,"1724":-1289.6104736328125,"1725":-1514.052001953125,"1726":-828.4094848632812,"1727":1431.3704833984375,"1728":-1513.56494140625,"1729":-1515.6610107421875,"1730":1532.87158203125,"1731":-1525.4990234375,"1732":1118.776611328125,"1733":1530.1951904296875,"1734":-6.917895317077637,"1735":-3.682645559310913,"1736":2.9139010906219482,"1737":4.406099796295166,"1738":0.8493618965148926,"1739":-2.762779712677002,"1740":-3.7359137535095215,"1741":4.5260162353515625,"1742":-4.502352714538574,"1743":-2.8001625537872314,"1744":-3.903221607208252,"1745":-0.20835615694522858,"1746":-0.8046046495437622,"1747":2.9458377361297607,"1748":5.843348979949951,"1749":-0.600824236869812,"1750":2.712366819381714,"1751":0.47445860505104065,"1752":8.434646606445312,"1753":-4.571587562561035,"1754":-2.666685104370117,"1755":-1.579792857170105,"1756":-8.295248985290527,"1757":-2.2141036987304688,"1758":0.9730247855186462,"1759":-6.411501884460449,"1760":4.686355113983154,"1761":-0.5351983308792114,"1762":6.846467971801758,"1763":3.444356918334961,"1764":-5.174013614654541,"1765":3.9627315998077393,"1766":6.695215702056885,"1767":6.756133079528809,"1768":-3.379209280014038,"1769":-4.5418782234191895,"1770":-1.1394834518432617,"1771":5.931385040283203,"1772":-2.3684823513031006,"1773":-0.07531797885894775,"1774":1.8860265016555786,"1775":2.8531181812286377,"1776":1.4081460237503052,"1777":-0.2287338823080063,"1778":4.642667293548584,"1779":0.4176221191883087,"1780":0.9796433448791504,"1781":-6.696908473968506,"1782":-5.838587760925293,"1783":-3.5880794525146484,"1784":-1.9788053035736084,"1785":500.83062744140625,"1786":655.1708374023438,"1787":-705.1526489257812,"1788":1479.792724609375,"1789":-1337.683349609375,"1790":934.29248046875,"1791":896.3438110351562,"1792":-1217.5994873046875,"1793":-1123.82958984375,"1794":959.9683837890625,"1795":1226.82177734375,"1796":312.0711364746094,"1797":858.0014038085938,"1798":-259.6835632324219,"1799":-998.0313720703125,"1800":1316.624267578125,"1801":-1401.9141845703125,"1802":-1163.3720703125,"1803":1017.1580200195312,"1804":-1505.21826171875,"1805":-1292.87158203125,"1806":1313.8638916015625,"1807":-1230.93115234375,"1808":1443.1224365234375,"1809":-744.8966674804688,"1810":-1265.558349609375,"1811":657.802978515625,"1812":34.03463363647461,"1813":114.04281616210938,"1814":1304.0015869140625,"1815":624.3487548828125,"1816":-1339.8994140625,"1817":1435.8583984375,"1818":-468.3484802246094,"1819":1404.1939697265625,"1820":892.1881103515625,"1821":-82.68225860595703,"1822":-190.57955932617188,"1823":1431.4129638671875,"1824":547.676513671875,"1825":-1263.951416015625,"1826":1538.8170166015625,"1827":1152.1954345703125,"1828":840.0726928710938,"1829":-633.0281372070312,"1830":-1006.2860717773438,"1831":-297.8671875,"1832":1005.4859008789062,"1833":-163.10302734375,"1834":1431.388916015625,"1835":1098.1796875,"1836":-7.652198791503906,"1837":-2.8073713779449463,"1838":0.6806466579437256,"1839":-5.320412635803223,"1840":3.801673412322998,"1841":4.452589988708496,"1842":-4.826029300689697,"1843":7.508248805999756,"1844":-6.438474178314209,"1845":5.873439311981201,"1846":-16.89429473876953,"1847":-1.3426623344421387,"1848":8.11428165435791,"1849":-2.7080464363098145,"1850":-18.049575805664062,"1851":-2.9425456523895264,"1852":-0.43429774045944214,"1853":0.6045699715614319,"1854":3.7882699966430664,"1855":6.187191009521484,"1856":5.254943370819092,"1857":6.377807140350342,"1858":8.119708061218262,"1859":11.077855110168457,"1860":11.765738487243652,"1861":17.208919525146484,"1862":15.016966819763184,"1863":-1.2850712537765503,"1864":10.128317832946777,"1865":-9.591331481933594,"1866":7.853995323181152,"1867":1.2328883409500122,"1868":-13.06013011932373,"1869":-8.156020164489746,"1870":-6.773799419403076,"1871":18.44881820678711,"1872":4.468820095062256,"1873":-4.988043308258057,"1874":0.8742207884788513,"1875":-1.3925539255142212,"1876":1.0630810260772705,"1877":1.5469838380813599,"1878":1.0999698638916016,"1879":2.1768782138824463,"1880":-10.584507942199707,"1881":-10.153132438659668,"1882":-0.17545171082019806,"1883":4.241239070892334,"1884":-12.670455932617188,"1885":-2.725800037384033,"1886":-4.851883411407471,"1887":-37.552345275878906,"1888":-2.7436230182647705,"1889":-45.83113098144531,"1890":-60.34809875488281,"1891":-13.154083251953125,"1892":13.847894668579102,"1893":56.23847961425781,"1894":58.001834869384766,"1895":-51.34163284301758,"1896":-25.357759475708008,"1897":-25.76815414428711,"1898":-1.3827683925628662,"1899":-11.877364158630371,"1900":3.1923515796661377,"1901":-4.132388591766357,"1902":1.1111626625061035,"1903":6.339203357696533,"1904":65.14618682861328,"1905":-1.771234393119812,"1906":15.792552947998047,"1907":23.273679733276367,"1908":-9.871748924255371,"1909":25.367216110229492,"1910":-89.11769104003906,"1911":-32.07298278808594,"1912":41.46220016479492,"1913":-5.7450385093688965,"1914":80.09249877929688,"1915":-10.585646629333496,"1916":-62.231544494628906,"1917":-3.5121099948883057,"1918":47.183223724365234,"1919":61.048973083496094,"1920":12.627058029174805,"1921":8.111804962158203,"1922":35.935028076171875,"1923":46.7496452331543,"1924":2.1666338443756104,"1925":34.71692657470703,"1926":27.198755264282227,"1927":8.653916358947754,"1928":41.86503219604492,"1929":68.63760375976562,"1930":-5.875725269317627,"1931":33.79924011230469,"1932":-25.928730010986328,"1933":-4.314130783081055,"1934":4.8120269775390625,"1935":-10.484223365783691,"1936":-1.115506649017334,"1937":-6.66148042678833,"1938":-1201.5982666015625,"1939":-506.1993103027344,"1940":-6.031131267547607,"1941":343.2297058105469,"1942":-155.69580078125,"1943":958.3585205078125,"1944":180.3319091796875,"1945":66.40839385986328,"1946":-692.1306762695312,"1947":1331.9730224609375,"1948":793.4443969726562,"1949":322.54443359375,"1950":-266.21221923828125,"1951":-474.9653625488281,"1952":-128.26467895507812,"1953":150.492919921875,"1954":509.060791015625,"1955":-54.4560546875,"1956":213.2935028076172,"1957":-925.6863403320312,"1958":970.6105346679688,"1959":154.11648559570312,"1960":-58.966468811035156,"1961":-1010.2797241210938,"1962":-14.573460578918457,"1963":1194.2454833984375,"1964":917.063232421875,"1965":141.27081298828125,"1966":-473.74420166015625,"1967":-342.57861328125,"1968":-364.0160827636719,"1969":457.23907470703125,"1970":924.6387329101562,"1971":-1227.4451904296875,"1972":29.616491317749023,"1973":841.866943359375,"1974":610.309326171875,"1975":1243.9051513671875,"1976":-495.2256164550781,"1977":222.8037567138672,"1978":969.6023559570312,"1979":18.859830856323242,"1980":448.4156494140625,"1981":-1235.950927734375,"1982":757.2485961914062,"1983":-1107.317626953125,"1984":-820.1557006835938,"1985":219.12025451660156,"1986":411.759033203125,"1987":-432.631591796875,"1988":-818.2973022460938,"1989":3.040102958679199,"1990":1.7892918586730957,"1991":3.8505585193634033,"1992":2.7238640785217285,"1993":-3.4842793941497803,"1994":9.530047416687012,"1995":-4.627082347869873,"1996":4.930641174316406,"1997":3.920811653137207,"1998":3.4323511123657227,"1999":2.49192476272583,"2000":1.6030642986297607,"2001":1.1167610883712769,"2002":-3.8909103870391846,"2003":-1.9959373474121094,"2004":7.874162673950195,"2005":8.67214298248291,"2006":1.6547653675079346,"2007":-1.626372218132019,"2008":-2.443528175354004,"2009":3.9304380416870117,"2010":4.699419975280762,"2011":6.061433792114258,"2012":-4.694504261016846,"2013":-2.370048761367798,"2014":-1.1899998188018799,"2015":0.6143537759780884,"2016":1.5534363985061646,"2017":-1.9380381107330322,"2018":-1.6913090944290161,"2019":0.12017957866191864,"2020":-1.5700820684432983,"2021":1.999055027961731,"2022":-8.606508255004883,"2023":-6.338828086853027,"2024":4.4359517097473145,"2025":-2.4255495071411133,"2026":-6.206185817718506,"2027":0.48515623807907104,"2028":-5.3966064453125,"2029":-5.451475143432617,"2030":0.7087571024894714,"2031":4.891471862792969,"2032":-5.507542133331299,"2033":-2.645768880844116,"2034":0.4831223785877228,"2035":5.032982349395752,"2036":-5.300206184387207,"2037":-0.5154687762260437,"2038":-0.5101739168167114,"2039":-3.4327445030212402,"2040":4.139408588409424,"2041":5.7187724113464355,"2042":-7.371487140655518,"2043":-8.335492134094238,"2044":-7.363481521606445,"2045":-12.938228607177734,"2046":1.726724624633789,"2047":-3.5753934383392334,"2048":-0.7819331288337708,"2049":-2.766108751296997,"2050":1.1469708681106567,"2051":5.701154708862305,"2052":-8.969039916992188,"2053":4.961524486541748,"2054":7.944454669952393,"2055":-3.284458637237549,"2056":4.628939151763916,"2057":7.304285526275635,"2058":-11.027734756469727,"2059":-3.361889123916626,"2060":-0.588032066822052,"2061":-0.5257651209831238,"2062":3.9452264308929443,"2063":-13.897948265075684,"2064":-8.324907302856445,"2065":-19.960460662841797,"2066":-10.49465274810791,"2067":-2.5480334758758545,"2068":0.23546327650547028,"2069":-7.211768627166748,"2070":0.5307453870773315,"2071":-4.546555519104004,"2072":-4.223174095153809,"2073":8.047191619873047,"2074":-8.130258560180664,"2075":1.4707410335540771,"2076":-7.412881374359131,"2077":5.371543884277344,"2078":2.662022113800049,"2079":-8.274144172668457,"2080":2.578920841217041,"2081":-3.90023136138916,"2082":-2.3502373695373535,"2083":1.9011521339416504,"2084":2.516028642654419,"2085":0.21621918678283691,"2086":-4.628927707672119,"2087":-6.804868221282959,"2088":5.3179402351379395,"2089":13.809901237487793,"2090":-3.9282891750335693,"2091":0.21548214554786682,"2092":-1.6103904247283936,"2093":7.167780876159668,"2094":-3.7011187076568604,"2095":8.87500286102295,"2096":-2.2075586318969727,"2097":-1.7595291137695312,"2098":2.0858101844787598,"2099":-6.711058139801025,"2100":5.731205463409424,"2101":4.994196891784668,"2102":0.7412446141242981,"2103":1.9896694421768188,"2104":-5.447425365447998,"2105":-13.016410827636719,"2106":-1.297965168952942,"2107":-4.895687103271484,"2108":-3.379445791244507,"2109":3.132244348526001,"2110":6.621960163116455,"2111":-1.2562204599380493,"2112":-4.985239505767822,"2113":-6.528249740600586,"2114":1.0149184465408325,"2115":9.871039390563965,"2116":-0.11177489161491394,"2117":0.3936614394187927,"2118":-1.0413419008255005,"2119":7.517765522003174,"2120":-2.845275402069092,"2121":-1.374535322189331,"2122":-3.4607887268066406,"2123":-1.082859754562378,"2124":5.878261089324951,"2125":-11.49567985534668,"2126":0.48960164189338684,"2127":-1.6710859537124634,"2128":-3.214430093765259,"2129":-5.28480863571167,"2130":-2.0680994987487793,"2131":1.023714542388916,"2132":-1.0356924533843994,"2133":5.9864301681518555,"2134":2.196828603744507,"2135":-5.230899810791016,"2136":0.15419048070907593,"2137":-4.765823841094971,"2138":4.473434925079346,"2139":4.440040588378906,"2140":4.021510124206543,"2141":-3.1222193241119385,"2142":519.6759643554688,"2143":826.7291259765625,"2144":-54.699745178222656,"2145":-1052.8985595703125,"2146":-366.012451171875,"2147":-223.64950561523438,"2148":13.311392784118652,"2149":139.72149658203125,"2150":-348.9815979003906,"2151":402.9931945800781,"2152":443.2369689941406,"2153":-556.9930419921875,"2154":105.51956939697266,"2155":620.3209838867188,"2156":-3.0075483322143555,"2157":803.2396240234375,"2158":-326.5157165527344,"2159":-344.7225341796875,"2160":-637.6879272460938,"2161":904.904296875,"2162":151.7494354248047,"2163":-775.4796752929688,"2164":241.60044860839844,"2165":324.823486328125,"2166":979.4320068359375,"2167":-70.32817840576172,"2168":-436.97869873046875,"2169":-491.5570373535156,"2170":-590.482177734375,"2171":-248.35223388671875,"2172":-485.21343994140625,"2173":-680.8049926757812,"2174":-426.6207580566406,"2175":246.1829376220703,"2176":374.24957275390625,"2177":-448.95697021484375,"2178":161.90525817871094,"2179":164.88917541503906,"2180":-865.5333251953125,"2181":-324.0444641113281,"2182":669.5673828125,"2183":-52.77130126953125,"2184":316.2518615722656,"2185":-751.8458251953125,"2186":657.6355590820312,"2187":-293.5008239746094,"2188":369.86468505859375,"2189":308.38104248046875,"2190":917.1400756835938,"2191":95.7176513671875,"2192":-73.38613891601562,"2193":-7.9188385009765625,"2194":-2.534487247467041,"2195":-7.124592304229736,"2196":-0.6808817386627197,"2197":1.0946283340454102,"2198":-2.7358734607696533,"2199":-6.529601573944092,"2200":2.245704412460327,"2201":11.521833419799805,"2202":-0.35924986004829407,"2203":-5.544254779815674,"2204":8.660154342651367,"2205":-0.5930073857307434,"2206":3.233314037322998,"2207":0.19402003288269043,"2208":-9.331221580505371,"2209":13.336523056030273,"2210":4.512137413024902,"2211":-0.9703224301338196,"2212":-3.854604959487915,"2213":-9.328030586242676,"2214":-4.392792701721191,"2215":7.1766252517700195,"2216":2.8657689094543457,"2217":1.5970810651779175,"2218":5.842324733734131,"2219":-4.6233391761779785,"2220":-18.12337303161621,"2221":-0.8696757555007935,"2222":2.5521023273468018,"2223":-10.594572067260742,"2224":-4.636635780334473,"2225":-0.8892005085945129,"2226":2.379739999771118,"2227":-2.5733208656311035,"2228":2.1040537357330322,"2229":0.6625695824623108,"2230":8.331853866577148,"2231":-3.123530864715576,"2232":2.5285048484802246,"2233":-1.6061820983886719,"2234":6.818441867828369,"2235":-2.461043119430542,"2236":-3.6672818660736084,"2237":-0.6582868099212646,"2238":-4.836978435516357,"2239":7.980241775512695,"2240":-0.9156048893928528,"2241":2.0178940296173096,"2242":-0.8174572587013245,"2243":3.085716724395752,"2244":3.308178424835205,"2245":-8.101237297058105,"2246":5.0906147956848145,"2247":-3.511619806289673,"2248":7.055502414703369,"2249":-2.022861957550049,"2250":2.032399892807007,"2251":-3.6321284770965576,"2252":-4.051066875457764,"2253":-0.24289262294769287,"2254":-3.9162724018096924,"2255":-10.930121421813965,"2256":4.853710651397705,"2257":-1.7363084554672241,"2258":-6.062184810638428,"2259":3.7403295040130615,"2260":-3.8093090057373047,"2261":3.0332887172698975,"2262":6.7718987464904785,"2263":-0.49104738235473633,"2264":-2.1264572143554688,"2265":-0.45219457149505615,"2266":6.27382755279541,"2267":-5.9123454093933105,"2268":0.32033589482307434,"2269":0.7983866333961487,"2270":-0.36370691657066345,"2271":-0.3588159680366516,"2272":7.333881855010986,"2273":4.301313400268555,"2274":-1.8424571752548218,"2275":-5.224356651306152,"2276":-7.69928503036499,"2277":3.2879679203033447,"2278":0.1523413360118866,"2279":-1.6556838750839233,"2280":-5.600246906280518,"2281":3.3092496395111084,"2282":-6.372349262237549,"2283":-5.390528202056885,"2284":5.905473709106445,"2285":-10.06728744506836,"2286":-10.519447326660156,"2287":1.430864691734314,"2288":-3.251167058944702,"2289":-1.4585012197494507,"2290":-12.6532621383667,"2291":2.718935251235962,"2292":-3.670549154281616,"2293":7.323195934295654,"2294":-3.716799259185791,"2295":-5.142224311828613,"2296":-2.4900996685028076,"2297":7.7890472412109375,"2298":-7.143223762512207,"2299":8.967254638671875,"2300":-2.816831350326538,"2301":1.227911114692688,"2302":-4.8651909828186035,"2303":-11.294698715209961,"2304":-0.05179080367088318,"2305":-7.796049118041992,"2306":2.4109675884246826,"2307":3.44758939743042,"2308":-10.876347541809082,"2309":3.556602954864502,"2310":1.5785672664642334,"2311":2.643974542617798,"2312":-2.524219036102295,"2313":4.436129570007324,"2314":1.0415321588516235,"2315":5.961357593536377,"2316":8.458806991577148,"2317":20.21347999572754,"2318":-3.4293112754821777,"2319":-3.791543960571289,"2320":0.7454155087471008,"2321":9.491219520568848,"2322":13.456814765930176,"2323":11.673667907714844,"2324":-4.246222019195557,"2325":2.210655689239502,"2326":-0.1905357390642166,"2327":-9.524477005004883,"2328":-6.028371334075928,"2329":8.727553367614746,"2330":1.0172228813171387,"2331":-2.250256299972534,"2332":-5.582313537597656,"2333":-4.250920295715332,"2334":1.3068110942840576,"2335":7.835842132568359,"2336":0.6019945740699768,"2337":-3.9968409538269043,"2338":3.12605881690979,"2339":-5.11300802230835,"2340":3.6709139347076416,"2341":-11.390522956848145,"2342":1.7159830331802368,"2343":-3.9341325759887695,"2344":1.6130419969558716,"2345":7.56553840637207,"2346":-0.19373399019241333,"2347":-6.126425743103027,"2348":-11.915877342224121,"2349":3.838021755218506,"2350":-5.13897180557251,"2351":-3.8516652584075928,"2352":4.19759464263916,"2353":4.766672611236572,"2354":-1.8249465227127075,"2355":-2.1589250564575195,"2356":11.914507865905762,"2357":3.76104736328125,"2358":11.060401916503906,"2359":-3.762094497680664,"2360":-3.7451000213623047,"2361":20.4620361328125,"2362":3.266232490539551,"2363":8.915213584899902,"2364":-2.8438668251037598,"2365":-0.7019171714782715,"2366":-4.51358699798584,"2367":0.03378542512655258,"2368":13.364311218261719,"2369":-4.247287750244141,"2370":-3.232700824737549,"2371":12.252782821655273,"2372":6.682469367980957,"2373":2.9308347702026367,"2374":3.5455164909362793,"2375":8.535565376281738,"2376":-9.368545532226562,"2377":-7.13466739654541,"2378":2.4688727855682373,"2379":-0.6205828785896301,"2380":14.492572784423828,"2381":-9.650419235229492,"2382":6.082540988922119,"2383":-10.144783020019531,"2384":2.3212945461273193,"2385":-1.0864002704620361,"2386":-23.976192474365234,"2387":6.570779323577881,"2388":-5.633191108703613,"2389":10.88526439666748,"2390":-4.352115631103516,"2391":-3.314631462097168,"2392":-8.924623489379883,"2393":5.036835193634033,"2394":3.2351715564727783,"2395":3.8834023475646973,"2396":-0.1804886758327484,"2397":-12.757295608520508,"2398":-5.40427827835083,"2399":-6.641308307647705,"2400":10.237471580505371,"2401":6.765058517456055,"2402":10.392653465270996,"2403":1.3809367418289185,"2404":8.487098693847656,"2405":-11.876188278198242,"2406":9.728181838989258,"2407":5.307236671447754,"2408":-19.1186580657959,"2409":-5.610020637512207,"2410":9.750157356262207,"2411":5.682986736297607,"2412":5.314626216888428,"2413":-2.87448787689209,"2414":-2.260498523712158,"2415":0.07519344985485077,"2416":0.14174988865852356,"2417":-9.914657592773438,"2418":6.1527276039123535,"2419":-10.663483619689941,"2420":2.949061870574951,"2421":-5.558437347412109,"2422":-1.6432387828826904,"2423":6.018909931182861,"2424":-0.3607405126094818,"2425":-5.507508277893066,"2426":16.869102478027344,"2427":-21.406436920166016,"2428":-8.770389556884766,"2429":5.7413811683654785,"2430":9.517402648925781,"2431":-13.578984260559082,"2432":-4.621257781982422,"2433":-1.7761436700820923,"2434":4.198253154754639,"2435":-5.4188690185546875,"2436":6.654515743255615,"2437":-2.381596088409424,"2438":11.085329055786133,"2439":6.0942583084106445,"2440":-0.36023879051208496,"2441":2.386993169784546,"2442":4.210752010345459,"2443":5.198277473449707,"2444":-2.255675792694092,"2445":-0.017203543335199356,"2446":4.937812805175781,"2447":-2.4715394973754883,"2448":-2.047286033630371,"2449":0.8319827318191528,"2450":-1.1361223459243774,"2451":-3.8740575313568115,"2452":3.218576431274414,"2453":4.207640647888184,"2454":1.7987438440322876,"2455":-0.9153081178665161,"2456":-7.804216384887695,"2457":9.379862785339355,"2458":12.259712219238281,"2459":1.1819132566452026,"2460":-0.5086356997489929,"2461":-0.9014773368835449,"2462":-3.14552903175354,"2463":-3.958191394805908,"2464":-1.8894884586334229,"2465":-2.9017601013183594,"2466":12.182538986206055,"2467":6.1638593673706055,"2468":6.971004962921143,"2469":1.8969814777374268,"2470":0.4704291820526123,"2471":0.9752613306045532,"2472":-4.580604553222656,"2473":-5.780102252960205,"2474":-2.92893648147583,"2475":-7.513683319091797,"2476":-4.089723110198975,"2477":0.9703940153121948,"2478":2.281470775604248,"2479":-7.472925662994385,"2480":-2.193148374557495,"2481":0.20130012929439545,"2482":4.065847396850586,"2483":-3.4397809505462646,"2484":-7.255517959594727,"2485":-6.52689790725708,"2486":-7.186309814453125,"2487":-5.0656023025512695,"2488":-1.5536127090454102,"2489":-1.234652042388916,"2490":-2.6593618392944336,"2491":0.9279600977897644,"2492":2.8811707496643066,"2493":-6.858728885650635,"2494":0.3633517026901245,"2495":5.0818867683410645,"2496":4.559427261352539,"2497":2.605065107345581,"2498":4.322915077209473,"2499":-1.0769511461257935,"2500":-1.515612006187439,"2501":-1.8609623908996582,"2502":0.27911990880966187,"2503":1.588689923286438,"2504":-0.4897737205028534,"2505":-0.09355852752923965,"2506":2.9763572216033936,"2507":0.505990207195282,"2508":0.16545960307121277,"2509":-0.30662068724632263,"2510":4.76781702041626,"2511":-0.2877001464366913,"2512":-0.7731706500053406,"2513":-3.5004568099975586,"2514":-0.7136362791061401,"2515":-0.23243756592273712,"2516":-0.5434500575065613,"2517":-1.3911864757537842,"2518":-1.1405844688415527,"2519":-1.5962368249893188,"2520":-1.2187068462371826,"2521":-1.4144618511199951,"2522":2.0761754512786865,"2523":1.3123809099197388,"2524":1.8171998262405396,"2525":1.2115086317062378,"2526":0.944270670413971,"2527":0.996823787689209,"2528":-1.913442611694336,"2529":-0.6265493035316467,"2530":-1.7286814451217651,"2531":0.5186359882354736,"2532":-4.390083312988281,"2533":0.5859788656234741,"2534":1.8755351305007935,"2535":-0.1714300960302353,"2536":0.4319034218788147,"2537":1.679254174232483,"2538":0.04587474465370178,"2539":-0.4084014892578125,"2540":0.7649093270301819,"2541":-0.44865453243255615,"2542":1.2750933170318604,"2543":-1.698420524597168,"2544":-2.018721342086792,"2545":-1.0793421268463135,"2546":2.1233530044555664,"2547":0.3986735939979553,"2548":-4.599883556365967,"2549":2.0911664962768555,"2550":-0.2916671335697174,"2551":-0.93011474609375,"2552":-0.32463282346725464,"2553":-1.5808264017105103,"2554":0.47837796807289124,"2555":2.5067734718322754,"2556":0.3890184760093689,"2557":1.2909743785858154,"2558":4.177830696105957,"2559":-1.5499218702316284,"2560":1.2955626249313354,"2561":1.805128812789917,"2562":0.346099853515625,"2563":-0.13130037486553192,"2564":1.1665383577346802,"2565":1.6250344514846802,"2566":-1.5282683372497559,"2567":-1.8719075918197632,"2568":0.8189176321029663,"2569":0.3625638782978058,"2570":1.2386648654937744,"2571":0.9758400321006775,"2572":-0.8597713708877563,"2573":-4.7330851554870605,"2574":-2.0088419914245605,"2575":-0.6873047947883606,"2576":2.5838334560394287,"2577":1.0857566595077515,"2578":3.3487377166748047,"2579":-1.4870699644088745,"2580":1.10686457157135,"2581":-2.996342420578003,"2582":-1.6877504587173462,"2583":0.47702768445014954,"2584":1.6797200441360474,"2585":0.5165687203407288,"2586":-0.39754918217658997,"2587":-1.9302610158920288,"2588":-1.1208194494247437,"2589":-2.842794418334961,"2590":0.4103410243988037,"2591":0.749046266078949,"2592":0.4147683382034302,"2593":2.09643292427063,"2594":-3.957551956176758,"2595":-1.18172025680542,"2596":0.4664715826511383,"2597":0.6478593349456787,"2598":0.3835979700088501,"2599":-1.9404819011688232,"2600":0.6699638962745667,"2601":-0.09300476312637329,"2602":-0.29397284984588623,"2603":-0.3342813551425934,"2604":-0.379851371049881,"2605":0.08993151038885117,"2606":-0.08955614268779755,"2607":0.12476487457752228,"2608":0.30768510699272156,"2609":0.7320128679275513,"2610":-0.9823737144470215,"2611":0.2400212585926056,"2612":0.4016816020011902,"2613":-0.36795419454574585,"2614":-0.6568483710289001,"2615":0.22699306905269623,"2616":0.0893281102180481,"2617":-0.4633106291294098,"2618":-0.034957606345415115,"2619":0.12626783549785614,"2620":-0.6105905771255493,"2621":0.14304104447364807,"2622":0.650755763053894,"2623":0.11677724123001099,"2624":0.015954159200191498,"2625":-0.2650574743747711,"2626":0.6428074240684509,"2627":-0.14683261513710022,"2628":1.0441142320632935,"2629":0.7924243807792664,"2630":-0.09146809577941895,"2631":-0.14268776774406433,"2632":-0.6166495084762573,"2633":-0.03493104130029678,"2634":0.043413396924734116,"2635":0.41746801137924194,"2636":0.7854121923446655,"2637":-0.09343826025724411,"2638":-1.4230657815933228,"2639":-0.15794715285301208,"2640":-1.6562535762786865,"2641":0.1669188141822815,"2642":0.45988407731056213,"2643":0.14022591710090637,"2644":0.5692033767700195,"2645":-0.5163397789001465,"2646":0.30078428983688354,"2647":-0.12727972865104675,"2648":0.4157794713973999,"2649":0.25252389907836914,"2650":-0.93895423412323,"2651":0.4858650863170624}},"hiddenLayers":[{"inputMatrix":{"rows":10,"columns":51,"weights":{"0":0.3947198987007141,"1":-0.7724711298942566,"2":0.7613129615783691,"3":-0.9520595669746399,"4":-0.9841137528419495,"5":-0.09714335203170776,"6":-0.7502259612083435,"7":-0.16915522515773773,"8":0.4607629179954529,"9":0.24138697981834412,"10":1.131804347038269,"11":0.457919716835022,"12":0.43813979625701904,"13":0.24596437811851501,"14":1.130670428276062,"15":-2.939863920211792,"16":1.5465331077575684,"17":-0.4685828387737274,"18":1.2835553884506226,"19":-0.6438167095184326,"20":1.2536317110061646,"21":0.37948593497276306,"22":0.41562125086784363,"23":0.418902188539505,"24":-1.6643747091293335,"25":0.8062019944190979,"26":-0.08523599058389664,"27":-0.9925270676612854,"28":0.189492866396904,"29":-0.5771443843841553,"30":1.2868640422821045,"31":0.026529230177402496,"32":-0.5808917284011841,"33":-0.2523339092731476,"34":-0.594167947769165,"35":0.07206851989030838,"36":0.009960507974028587,"37":-0.11413062363862991,"38":-0.5035682916641235,"39":-0.7222673892974854,"40":-0.9970278143882751,"41":-0.2588218152523041,"42":0.3424319624900818,"43":0.6846666932106018,"44":1.2807352542877197,"45":0.6528140306472778,"46":0.4035496711730957,"47":0.36833706498146057,"48":-0.5520222187042236,"49":0.5156494379043579,"50":-0.5979065299034119,"51":-0.9391376376152039,"52":0.9967026710510254,"53":-0.18663744628429413,"54":-0.2641906440258026,"55":1.4993815422058105,"56":1.4027317762374878,"57":0.12750941514968872,"58":1.4456641674041748,"59":-0.6680405735969543,"60":1.58371102809906,"61":0.2322375625371933,"62":0.3739438056945801,"63":1.0622448921203613,"64":-0.7019214034080505,"65":-0.020057890564203262,"66":-0.41886088252067566,"67":2.775824785232544,"68":2.9672892093658447,"69":0.4992292523384094,"70":-0.07704746723175049,"71":1.232712745666504,"72":0.5592800974845886,"73":0.14080043137073517,"74":0.5260065197944641,"75":-0.15572458505630493,"76":1.5971182584762573,"77":0.8840217590332031,"78":-1.838688850402832,"79":1.5534687042236328,"80":-1.319077491760254,"81":1.5325220823287964,"82":-0.18409138917922974,"83":-1.2764489650726318,"84":-1.3605923652648926,"85":-0.037609249353408813,"86":-0.2977696657180786,"87":2.36372971534729,"88":1.3473923206329346,"89":1.564772367477417,"90":0.2769244611263275,"91":-1.8808815479278564,"92":1.631317377090454,"93":-0.5112133026123047,"94":-0.6121573448181152,"95":0.1251268982887268,"96":1.6143957376480103,"97":0.3396211862564087,"98":-2.301109790802002,"99":-0.340679407119751,"100":0.299367219209671,"101":0.2990604341030121,"102":-0.36107245087623596,"103":-0.41169825196266174,"104":1.474660038948059,"105":0.38807520270347595,"106":0.5635557174682617,"107":0.027816515415906906,"108":0.8130815029144287,"109":0.1982516646385193,"110":1.3304071426391602,"111":1.548035740852356,"112":1.07797372341156,"113":-0.11077959835529327,"114":-0.763074517250061,"115":0.7239671349525452,"116":-0.7084493637084961,"117":-1.6539592742919922,"118":0.4814193844795227,"119":0.25670087337493896,"120":1.5403473377227783,"121":-0.9187480211257935,"122":-0.9646148085594177,"123":-0.18508405983448029,"124":1.0098330974578857,"125":-0.6543956398963928,"126":-1.6966840028762817,"127":-0.3677963316440582,"128":-1.420083999633789,"129":-0.6505179405212402,"130":-0.5735324025154114,"131":-0.759715735912323,"132":-0.6546794176101685,"133":-0.8108618855476379,"134":0.1146424189209938,"135":1.1274001598358154,"136":-2.1448464393615723,"137":-1.564894437789917,"138":0.8021471500396729,"139":0.3155128061771393,"140":-0.3199036717414856,"141":0.5661658048629761,"142":-0.6142033338546753,"143":0.31680911779403687,"144":0.2382301241159439,"145":0.7167313694953918,"146":-0.2658044397830963,"147":-0.7448726296424866,"148":-0.3832379877567291,"149":-1.4936610460281372,"150":1.2361173629760742,"151":0.03999534249305725,"152":-1.5141524076461792,"153":0.4283631145954132,"154":0.36359113454818726,"155":0.09406561404466629,"156":-0.648655354976654,"157":0.31958845257759094,"158":-0.32428544759750366,"159":-1.5808510780334473,"160":0.5309765934944153,"161":1.2617489099502563,"162":0.5082600712776184,"163":-2.7764902114868164,"164":0.5930261015892029,"165":0.03853122517466545,"166":-0.38251930475234985,"167":-2.0237183570861816,"168":-0.8104817271232605,"169":1.1736407279968262,"170":-0.22375565767288208,"171":-0.764069676399231,"172":-0.8906555771827698,"173":-0.8070642352104187,"174":-0.040694061666727066,"175":0.6593759059906006,"176":-1.862033724784851,"177":3.562893867492676,"178":1.1140542030334473,"179":0.5832333564758301,"180":-0.4290126860141754,"181":-2.4392173290252686,"182":-0.05047617107629776,"183":1.112135648727417,"184":-0.09452196210622787,"185":-1.561137318611145,"186":-0.5271750092506409,"187":-0.49553677439689636,"188":-0.5826614499092102,"189":0.5862435102462769,"190":-0.4530040919780731,"191":-0.5932978987693787,"192":-0.25377029180526733,"193":-0.29899662733078003,"194":-0.10048092156648636,"195":-0.39041629433631897,"196":-0.661758542060852,"197":1.3305002450942993,"198":-0.5069013237953186,"199":-0.47730568051338196,"200":0.563124418258667,"201":-0.6553857922554016,"202":-0.03941705822944641,"203":-0.7022050023078918,"204":-2.0972485542297363,"205":1.394541621208191,"206":-0.20233957469463348,"207":0.8755812644958496,"208":-1.3790475130081177,"209":3.2634341716766357,"210":3.0510449409484863,"211":-2.042788505554199,"212":-0.34111538529396057,"213":-0.22891944646835327,"214":0.47276851534843445,"215":0.7395505309104919,"216":0.6245866417884827,"217":0.9442227482795715,"218":-1.6642720699310303,"219":0.5902530550956726,"220":0.8657457232475281,"221":-5.794486045837402,"222":-2.1666202545166016,"223":-1.6782541275024414,"224":3.7724435329437256,"225":1.4969327449798584,"226":-0.49404066801071167,"227":-0.5652692317962646,"228":0.03695100173354149,"229":1.622368335723877,"230":-1.86247980594635,"231":-0.25889530777931213,"232":0.4164583086967468,"233":-0.7633864283561707,"234":0.3143619894981384,"235":-1.2375082969665527,"236":-2.670606851577759,"237":-0.74116450548172,"238":1.4098494052886963,"239":0.4034784436225891,"240":-0.08404308557510376,"241":-1.0595548152923584,"242":0.45407411456108093,"243":0.29262450337409973,"244":-0.27782753109931946,"245":-0.18036262691020966,"246":0.3409009873867035,"247":-2.6595139503479004,"248":1.0399956703186035,"249":-0.09005831182003021,"250":-1.7007113695144653,"251":1.5899035930633545,"252":2.003547191619873,"253":-0.32293906807899475,"254":-0.15356165170669556,"255":-0.9159165620803833,"256":0.8117378950119019,"257":-0.25715401768684387,"258":-1.9769107103347778,"259":0.15182150900363922,"260":0.18931163847446442,"261":1.9204273223876953,"262":2.2389752864837646,"263":2.3457798957824707,"264":-0.16706739366054535,"265":1.1209970712661743,"266":-0.11198217421770096,"267":-1.756813645362854,"268":1.0296740531921387,"269":-0.38744160532951355,"270":-0.5233230590820312,"271":1.579917311668396,"272":-0.7349892854690552,"273":0.7398157715797424,"274":-0.02301463671028614,"275":-0.8505499958992004,"276":0.06641872227191925,"277":-0.7082205414772034,"278":-1.0837554931640625,"279":-1.2497183084487915,"280":-0.353493332862854,"281":0.7010676860809326,"282":-0.23534099757671356,"283":-0.8032696843147278,"284":0.5185264945030212,"285":-0.13557913899421692,"286":0.20837706327438354,"287":0.27009403705596924,"288":-0.18898403644561768,"289":0.05085810646414757,"290":-1.8639179468154907,"291":-1.9190607070922852,"292":-0.8216596841812134,"293":1.6420902013778687,"294":-0.45144644379615784,"295":1.5810381174087524,"296":1.10633385181427,"297":0.9634305238723755,"298":-1.3513493537902832,"299":0.3611217439174652,"300":-0.3761403560638428,"301":-1.1466230154037476,"302":0.3914128541946411,"303":-0.8942593336105347,"304":0.09033811092376709,"305":2.3324267864227295,"306":-0.33426526188850403,"307":0.2518455982208252,"308":2.3122360706329346,"309":-2.0881876945495605,"310":3.5867562294006348,"311":0.9600922465324402,"312":2.4096012115478516,"313":-0.5343493819236755,"314":1.4885313510894775,"315":1.947953701019287,"316":-1.4734058380126953,"317":0.6282818913459778,"318":1.1620815992355347,"319":1.8044606447219849,"320":-0.4911861717700958,"321":0.7116960287094116,"322":2.2352781295776367,"323":-0.8563436269760132,"324":1.8729501962661743,"325":-0.2687770426273346,"326":0.35547274351119995,"327":-0.4428751766681671,"328":-1.5223581790924072,"329":1.850899338722229,"330":0.6008594632148743,"331":-0.41602039337158203,"332":1.603511929512024,"333":1.985352635383606,"334":2.0389344692230225,"335":-1.4601937532424927,"336":-3.0119926929473877,"337":0.08205413818359375,"338":-2.453718423843384,"339":2.640638589859009,"340":-0.28645825386047363,"341":-1.1065402030944824,"342":0.6745182275772095,"343":-1.7930675745010376,"344":0.8923783302307129,"345":-1.1326888799667358,"346":-3.292212963104248,"347":0.64720219373703,"348":-1.2135651111602783,"349":-3.497545003890991,"350":2.1713366508483887,"351":0.839788019657135,"352":1.4723916053771973,"353":0.387899786233902,"354":-0.9473257064819336,"355":0.25076159834861755,"356":-0.09112069010734558,"357":-2.054018020629883,"358":-0.6241260170936584,"359":-0.1745365560054779,"360":0.6601575613021851,"361":-1.097594141960144,"362":1.4398503303527832,"363":0.9003216028213501,"364":0.08290696144104004,"365":-0.3266207277774811,"366":2.0547494888305664,"367":1.3197780847549438,"368":0.7588220834732056,"369":0.7010717988014221,"370":0.03917045146226883,"371":0.27895382046699524,"372":0.3664931356906891,"373":1.2921651601791382,"374":-0.46483126282691956,"375":0.4004976153373718,"376":-0.9734559655189514,"377":2.0389504432678223,"378":0.08374444395303726,"379":-0.3758412301540375,"380":0.5443130731582642,"381":-1.1727510690689087,"382":1.6709226369857788,"383":1.068048119544983,"384":-0.8517956733703613,"385":0.6308528184890747,"386":0.3166659474372864,"387":-0.32210174202919006,"388":-0.31457576155662537,"389":0.06919234991073608,"390":-1.685494303703308,"391":0.21232327818870544,"392":1.193400263786316,"393":1.2651118040084839,"394":1.7065361738204956,"395":-1.1210405826568604,"396":0.14808350801467896,"397":0.9022284746170044,"398":-0.886768639087677,"399":0.23008795082569122,"400":-1.9387658834457397,"401":1.1163307428359985,"402":-0.7042131423950195,"403":-0.2697669267654419,"404":0.3446599543094635,"405":0.7015584707260132,"406":-0.023071259260177612,"407":-0.4749607443809509,"408":-1.169505000114441,"409":1.2908110618591309,"410":-1.7482722997665405,"411":-1.7846513986587524,"412":0.8231499195098877,"413":0.6428825259208679,"414":0.42641428112983704,"415":2.0315804481506348,"416":-1.4676997661590576,"417":-0.6517219543457031,"418":-0.9125535488128662,"419":-0.17598126828670502,"420":-0.8415082693099976,"421":0.3879753053188324,"422":-1.753401279449463,"423":2.6981732845306396,"424":1.1954842805862427,"425":0.14067554473876953,"426":-0.010216179303824902,"427":1.4511617422103882,"428":-0.010324142873287201,"429":-0.9290872812271118,"430":0.6457322835922241,"431":-3.015204668045044,"432":-0.0660131573677063,"433":0.6696804165840149,"434":-0.3781134784221649,"435":3.181389808654785,"436":-0.6192176342010498,"437":-2.7462518215179443,"438":-0.8692121505737305,"439":1.9094387292861938,"440":0.14296258985996246,"441":0.39485111832618713,"442":1.0431501865386963,"443":1.1797538995742798,"444":1.8721330165863037,"445":0.22638700902462006,"446":3.1193766593933105,"447":-0.08999819308519363,"448":0.8144562244415283,"449":1.118935227394104,"450":1.834433674812317,"451":-0.6677850484848022,"452":0.8426641821861267,"453":0.7462301850318909,"454":1.207413911819458,"455":-1.1218571662902832,"456":-0.4840850532054901,"457":0.10759365558624268,"458":0.10457801818847656,"459":0.7326663732528687,"460":-0.38125476241111755,"461":-0.875047504901886,"462":-2.4009461402893066,"463":0.8880105018615723,"464":1.0226798057556152,"465":-0.012365010567009449,"466":-0.9551045298576355,"467":-0.8581312894821167,"468":1.205283522605896,"469":-0.6736394762992859,"470":-0.47308361530303955,"471":1.1425738334655762,"472":-2.4674453735351562,"473":-0.712374210357666,"474":2.619529962539673,"475":-1.3453850746154785,"476":0.22408057749271393,"477":0.4564703702926636,"478":-0.27615049481391907,"479":-2.083246946334839,"480":-0.6520265936851501,"481":-0.7888240218162537,"482":0.690168023109436,"483":1.9753220081329346,"484":0.0925426110625267,"485":0.6928695440292358,"486":0.8713202476501465,"487":0.5355436205863953,"488":-0.16459308564662933,"489":-1.734486699104309,"490":-0.7545827031135559,"491":-1.5327599048614502,"492":-1.3950231075286865,"493":0.9046732783317566,"494":-0.6165494322776794,"495":-0.12893888354301453,"496":-1.1820029020309448,"497":-1.909341812133789,"498":-0.756751537322998,"499":-1.309754729270935,"500":1.2398478984832764,"501":-0.6699619293212891,"502":-2.9802868366241455,"503":-0.34561288356781006,"504":1.4477999210357666,"505":1.375683307647705,"506":1.1346409320831299,"507":1.205102562904358,"508":0.18141838908195496,"509":0.34331414103507996}},"inputHidden":{"rows":10,"columns":10,"weights":{"0":-4.256274700164795,"1":1.737312912940979,"2":1.2556599378585815,"3":1.3753718137741089,"4":-3.981726884841919,"5":1.0579127073287964,"6":3.9212913513183594,"7":2.1665964126586914,"8":2.7169477939605713,"9":5.981739044189453,"10":2.1654775142669678,"11":0.3296608030796051,"12":3.7494168281555176,"13":1.6271806955337524,"14":1.605093240737915,"15":2.10549259185791,"16":-0.5721313953399658,"17":2.2406928539276123,"18":0.9180378913879395,"19":-4.378810882568359,"20":-7.1100754737854,"21":4.4741106033325195,"22":0.09437394142150879,"23":1.8260865211486816,"24":1.124350666999817,"25":1.6155568361282349,"26":3.1516551971435547,"27":4.643177509307861,"28":3.5193405151367188,"29":2.772361993789673,"30":5.189051628112793,"31":0.8605037927627563,"32":0.41841980814933777,"33":0.9798000454902649,"34":-0.31606391072273254,"35":5.500185489654541,"36":-4.765140056610107,"37":-0.3641604483127594,"38":4.192543029785156,"39":-5.959712982177734,"40":2.7377729415893555,"41":3.939757823944092,"42":-0.12954939901828766,"43":0.7915815711021423,"44":1.493733525276184,"45":-3.313060998916626,"46":1.429403305053711,"47":-0.8631854057312012,"48":-4.877415657043457,"49":10.132575988769531,"50":4.449568271636963,"51":-1.5445104837417603,"52":-5.271915912628174,"53":-2.2353715896606445,"54":0.3864571452140808,"55":-3.4899160861968994,"56":3.6351640224456787,"57":-1.5099865198135376,"58":0.18433868885040283,"59":3.0305893421173096,"60":1.1348799467086792,"61":1.0772309303283691,"62":8.86767864227295,"63":1.932286262512207,"64":-5.749984264373779,"65":10.147634506225586,"66":-1.2763549089431763,"67":-1.0715070962905884,"68":5.2593512535095215,"69":-5.316410064697266,"70":2.094194173812866,"71":4.073169231414795,"72":0.05120672658085823,"73":-3.3199191093444824,"74":1.7151498794555664,"75":1.364205002784729,"76":0.35518378019332886,"77":-6.456045150756836,"78":1.1468554735183716,"79":0.9674229621887207,"80":-0.09641684591770172,"81":-2.3476779460906982,"82":7.664709091186523,"83":-0.4344373941421509,"84":2.4976274967193604,"85":5.425021171569824,"86":-1.2000923156738281,"87":-5.3705925941467285,"88":-3.1552019119262695,"89":-4.433056354522705,"90":0.19665996730327606,"91":6.428869724273682,"92":-3.2661542892456055,"93":-2.4021270275115967,"94":3.390124559402466,"95":-0.32211530208587646,"96":-1.1081185340881348,"97":0.9534115791320801,"98":1.5972294807434082,"99":1.0548115968704224}},"inputBias":{"rows":10,"columns":1,"weights":{"0":-0.8255282044410706,"1":-0.7863595485687256,"2":-5.556840419769287,"3":1.7218737602233887,"4":-2.0710911750793457,"5":0.8267897367477417,"6":-4.465240001678467,"7":-0.43599051237106323,"8":1.724280595779419,"9":-6.6363019943237305}},"forgetMatrix":{"rows":10,"columns":51,"weights":{"0":-1.3639413118362427,"1":3.647282838821411,"2":-2.173997640609741,"3":-4.210403919219971,"4":-2.254657506942749,"5":0.16449570655822754,"6":-1.7089405059814453,"7":0.2817840576171875,"8":-1.867287278175354,"9":-1.122407078742981,"10":-0.08659328520298004,"11":1.5618945360183716,"12":2.8059468269348145,"13":0.24254630506038666,"14":1.3612585067749023,"15":-1.7650666236877441,"16":-2.2160093784332275,"17":0.436480849981308,"18":0.36025285720825195,"19":2.300854444503784,"20":0.6170893311500549,"21":-0.13850843906402588,"22":-0.24621713161468506,"23":-1.9626193046569824,"24":3.042980194091797,"25":-0.4759456217288971,"26":-2.1769537925720215,"27":1.2539469003677368,"28":2.70928692817688,"29":-0.5502689480781555,"30":-1.1745500564575195,"31":-0.2316950261592865,"32":-2.203024387359619,"33":-3.5270166397094727,"34":3.1460635662078857,"35":2.2338545322418213,"36":1.4300124645233154,"37":1.2090004682540894,"38":-2.293818235397339,"39":-3.8526711463928223,"40":0.8104682564735413,"41":1.3326597213745117,"42":-1.0492557287216187,"43":0.07335665822029114,"44":2.7597925662994385,"45":3.211672782897949,"46":-2.403904438018799,"47":-0.16422103345394135,"48":0.05118547007441521,"49":0.22182467579841614,"50":-3.845752716064453,"51":0.543472170829773,"52":-1.035049557685852,"53":0.4696124494075775,"54":-3.3363535404205322,"55":1.4106321334838867,"56":-1.737007737159729,"57":0.7100202441215515,"58":0.2237875610589981,"59":1.8460195064544678,"60":-1.1346728801727295,"61":0.26364997029304504,"62":0.4056323170661926,"63":-0.23303435742855072,"64":0.6662954688072205,"65":0.774598240852356,"66":0.07539653033018112,"67":1.9793187379837036,"68":0.22056937217712402,"69":-0.9803646206855774,"70":3.989365577697754,"71":1.5149444341659546,"72":-2.078824996948242,"73":0.07121101766824722,"74":-2.5655040740966797,"75":-0.02429986372590065,"76":2.4061684608459473,"77":0.6526437997817993,"78":-0.687848687171936,"79":-1.0020993947982788,"80":-0.592724621295929,"81":-1.3512184619903564,"82":0.24261608719825745,"83":-3.1432199478149414,"84":0.9890717267990112,"85":-2.4354000091552734,"86":-0.6998304128646851,"87":0.3906954824924469,"88":-1.46662175655365,"89":-3.3774847984313965,"90":0.10855361074209213,"91":1.9281821250915527,"92":-3.8010637760162354,"93":-0.2554929852485657,"94":-1.2695188522338867,"95":-0.85626620054245,"96":2.2496511936187744,"97":0.8063256740570068,"98":-1.238120198249817,"99":0.5254073739051819,"100":-3.139657974243164,"101":0.6198459267616272,"102":-1.3246104717254639,"103":4.334596633911133,"104":-4.483922481536865,"105":4.905846118927002,"106":-0.881079375743866,"107":3.044754981994629,"108":-1.1424205303192139,"109":-0.6742901802062988,"110":-0.5601975321769714,"111":1.295285701751709,"112":-0.7114129662513733,"113":-1.480485200881958,"114":-3.4611363410949707,"115":0.7993516325950623,"116":-3.10998272895813,"117":5.923957824707031,"118":0.917535126209259,"119":1.5054411888122559,"120":0.5810436010360718,"121":-4.442923069000244,"122":-0.38927653431892395,"123":0.0803397074341774,"124":3.195941925048828,"125":-3.666203498840332,"126":0.11810053884983063,"127":-1.9544470310211182,"128":-5.22316837310791,"129":1.1689963340759277,"130":0.30399367213249207,"131":-2.5181775093078613,"132":-1.3748719692230225,"133":1.16949462890625,"134":0.7337918877601624,"135":1.7058813571929932,"136":-1.9481942653656006,"137":0.1492406576871872,"138":0.4062643051147461,"139":3.035068988800049,"140":4.14481258392334,"141":-1.4204045534133911,"142":-1.1480897665023804,"143":-2.390399932861328,"144":-0.4387938380241394,"145":1.3216599225997925,"146":1.43504798412323,"147":-0.2888270318508148,"148":0.2074899822473526,"149":-1.7279301881790161,"150":-2.450272560119629,"151":4.132575035095215,"152":-6.913095474243164,"153":0.10855995863676071,"154":1.2308530807495117,"155":-1.4838297367095947,"156":-2.5378646850585938,"157":1.5900017023086548,"158":-1.8298460245132446,"159":0.03606050834059715,"160":-2.295811653137207,"161":-0.322794109582901,"162":-0.05378662422299385,"163":0.2613872289657593,"164":0.2377486228942871,"165":-1.2620981931686401,"166":3.805572032928467,"167":1.2265617847442627,"168":0.14219260215759277,"169":-0.9310665130615234,"170":0.04779686778783798,"171":-0.7019810080528259,"172":3.2127296924591064,"173":3.1200740337371826,"174":1.0817986726760864,"175":-2.667160987854004,"176":2.6859617233276367,"177":0.47845250368118286,"178":0.4188639223575592,"179":-2.385654926300049,"180":1.102402687072754,"181":-1.4714502096176147,"182":0.2076808363199234,"183":-0.9658308029174805,"184":1.5186177492141724,"185":-0.2239447683095932,"186":-0.9955502152442932,"187":3.441544771194458,"188":-0.2619425356388092,"189":-1.4026265144348145,"190":1.7407588958740234,"191":-1.3129898309707642,"192":0.5117537379264832,"193":3.692751884460449,"194":-2.7486746311187744,"195":-0.40446141362190247,"196":1.5354323387145996,"197":0.1705036163330078,"198":1.4137024879455566,"199":1.8525288105010986,"200":1.100143313407898,"201":1.6094624996185303,"202":0.45381978154182434,"203":-1.6323339939117432,"204":-0.5994196534156799,"205":-0.38852983713150024,"206":2.4985270500183105,"207":-0.1358323097229004,"208":0.28610002994537354,"209":0.17955690622329712,"210":-0.6527534127235413,"211":1.0029165744781494,"212":-1.541424036026001,"213":2.2026188373565674,"214":-0.7776671648025513,"215":1.751884937286377,"216":-0.5972727537155151,"217":-3.342957019805908,"218":-3.6761276721954346,"219":2.6428308486938477,"220":1.5476740598678589,"221":1.1188465356826782,"222":-1.9443137645721436,"223":0.26989617943763733,"224":0.6808139085769653,"225":-1.0071046352386475,"226":-2.5553388595581055,"227":-0.11797839403152466,"228":1.0476552248001099,"229":-0.008801084943115711,"230":0.43359139561653137,"231":-0.7075867056846619,"232":-1.4888157844543457,"233":1.4406189918518066,"234":-1.716299057006836,"235":-1.0548052787780762,"236":-0.6168936491012573,"237":-1.9398294687271118,"238":0.8612039089202881,"239":0.5004557371139526,"240":3.40983247756958,"241":2.027055501937866,"242":-1.8264473676681519,"243":1.8853477239608765,"244":1.3567495346069336,"245":0.6304823160171509,"246":-0.5079894065856934,"247":0.6444045305252075,"248":2.3740785121917725,"249":-1.8638050556182861,"250":-1.5134758949279785,"251":2.628842353820801,"252":0.877852737903595,"253":0.9342123866081238,"254":0.012942273169755936,"255":-1.32456636428833,"256":0.8198845386505127,"257":1.3007630109786987,"258":-1.772078037261963,"259":1.3755589723587036,"260":-1.0554462671279907,"261":-1.0615692138671875,"262":2.6370177268981934,"263":-3.5771827697753906,"264":0.16326360404491425,"265":-1.0252866744995117,"266":-1.2588627338409424,"267":4.574350833892822,"268":-1.799357533454895,"269":-1.2390104532241821,"270":2.475368022918701,"271":1.729584813117981,"272":2.6761388778686523,"273":1.4080917835235596,"274":2.1188223361968994,"275":1.975845456123352,"276":-0.5430351495742798,"277":0.20992009341716766,"278":1.7273647785186768,"279":-1.177893042564392,"280":-1.8509776592254639,"281":1.9025706052780151,"282":-1.517297387123108,"283":4.880597114562988,"284":2.0159554481506348,"285":-0.42106232047080994,"286":-0.0759945809841156,"287":0.01749076321721077,"288":1.291551947593689,"289":0.15655799210071564,"290":-0.9064301252365112,"291":-2.0285520553588867,"292":3.188669204711914,"293":-1.099844217300415,"294":-0.11394648998975754,"295":0.9316743612289429,"296":0.20445798337459564,"297":-0.41415712237358093,"298":-1.6980856657028198,"299":2.4187169075012207,"300":-1.4746824502944946,"301":-0.5802910327911377,"302":-1.4200657606124878,"303":0.7905031442642212,"304":0.7702742218971252,"305":0.5912874341011047,"306":-1.7824172973632812,"307":-0.4720747470855713,"308":1.4321458339691162,"309":2.114197254180908,"310":-0.38601717352867126,"311":0.32113945484161377,"312":-1.440624475479126,"313":1.4154150485992432,"314":3.397085666656494,"315":-0.6508738398551941,"316":0.6155831217765808,"317":-1.708078384399414,"318":1.898582935333252,"319":3.56442928314209,"320":1.204822301864624,"321":-0.022545883432030678,"322":-0.8109021782875061,"323":-0.30324283242225647,"324":0.16354849934577942,"325":-2.090975284576416,"326":0.054703328758478165,"327":0.15584807097911835,"328":-0.44322100281715393,"329":-2.678157329559326,"330":1.9263685941696167,"331":0.6716853976249695,"332":1.976328730583191,"333":-0.6803325414657593,"334":0.010312105529010296,"335":1.471840739250183,"336":0.07922589033842087,"337":-1.1221299171447754,"338":-1.8696175813674927,"339":0.4536607563495636,"340":0.7253985404968262,"341":-0.00045373215107247233,"342":-0.1387203335762024,"343":-0.6506105661392212,"344":-1.2449973821640015,"345":-1.896936297416687,"346":2.5352654457092285,"347":-0.7303698062896729,"348":0.5478933453559875,"349":-1.7010670900344849,"350":1.8175098896026611,"351":-1.524959921836853,"352":-1.473537564277649,"353":1.4324967861175537,"354":0.5493935942649841,"355":-0.0887686237692833,"356":0.4887619614601135,"357":0.19568270444869995,"358":-0.13166306912899017,"359":0.9601137042045593,"360":6.485076427459717,"361":-0.580072820186615,"362":1.6973795890808105,"363":1.0362719297409058,"364":-1.626184344291687,"365":1.7472115755081177,"366":-1.843818187713623,"367":-3.253305196762085,"368":0.44124215841293335,"369":1.9681354761123657,"370":-4.7194342613220215,"371":1.494758129119873,"372":-1.1029828786849976,"373":-0.5336102247238159,"374":-1.2363078594207764,"375":-1.648371934890747,"376":-1.2932742834091187,"377":-3.1927833557128906,"378":-1.461277723312378,"379":-3.078080415725708,"380":-0.046268463134765625,"381":2.2543489933013916,"382":-1.817889928817749,"383":-0.7782784700393677,"384":1.382546305656433,"385":-1.8677221536636353,"386":0.9989559054374695,"387":3.6299445629119873,"388":1.0902897119522095,"389":-5.227488040924072,"390":0.20892055332660675,"391":1.9389922618865967,"392":-3.434776782989502,"393":-1.4336349964141846,"394":-0.7542769312858582,"395":-3.022143602371216,"396":-0.47159725427627563,"397":2.985220193862915,"398":-2.2734599113464355,"399":-1.2326545715332031,"400":1.3431185483932495,"401":-3.256883382797241,"402":-0.293546199798584,"403":0.37390244007110596,"404":-2.5190036296844482,"405":0.5683950185775757,"406":-0.05916009843349457,"407":1.5397868156433105,"408":0.38725876808166504,"409":0.8261427283287048,"410":1.2691000699996948,"411":1.7235207557678223,"412":-0.5307996273040771,"413":-1.205080270767212,"414":4.144661903381348,"415":4.9618964195251465,"416":0.5434600710868835,"417":-2.1796491146087646,"418":-0.9377540946006775,"419":0.18872670829296112,"420":0.6666259765625,"421":0.6649948954582214,"422":-1.9687601327896118,"423":-1.9267406463623047,"424":0.8132327198982239,"425":-1.1515374183654785,"426":1.5935200452804565,"427":3.6019957065582275,"428":4.881086349487305,"429":0.7797198295593262,"430":-1.9521900415420532,"431":-4.009439945220947,"432":-1.6174495220184326,"433":0.46309709548950195,"434":0.6607597470283508,"435":-1.200931429862976,"436":-1.6340478658676147,"437":0.014001484960317612,"438":0.04538610205054283,"439":0.4298296868801117,"440":2.2929494380950928,"441":-0.16817843914031982,"442":-0.4511054456233978,"443":-3.5244319438934326,"444":-1.7458246946334839,"445":2.0604138374328613,"446":-1.7629562616348267,"447":1.0238398313522339,"448":-0.5114184617996216,"449":-3.775313377380371,"450":2.4452967643737793,"451":-1.0152909755706787,"452":-0.22703182697296143,"453":-3.873195171356201,"454":0.39961159229278564,"455":-3.2828805446624756,"456":-0.02465919591486454,"457":1.5298093557357788,"458":1.1632179021835327,"459":-1.0075849294662476,"460":-0.06480585783720016,"461":0.3781602382659912,"462":5.936272621154785,"463":-2.739091634750366,"464":0.22925105690956116,"465":-0.6914450526237488,"466":0.3189091086387634,"467":4.039238452911377,"468":0.5776165127754211,"469":1.362120270729065,"470":-1.803132176399231,"471":-1.000050663948059,"472":0.036113835871219635,"473":-0.06969387829303741,"474":-2.398430347442627,"475":-3.6581013202667236,"476":-0.6986663937568665,"477":-2.953070640563965,"478":-1.385284423828125,"479":-3.6571738719940186,"480":-0.1959831565618515,"481":-2.796552896499634,"482":-1.7836384773254395,"483":2.0933475494384766,"484":0.9378188848495483,"485":0.9753134846687317,"486":-0.821836531162262,"487":-0.5053778290748596,"488":2.7171435356140137,"489":-2.1964271068573,"490":-0.19548648595809937,"491":4.171411514282227,"492":0.2763907015323639,"493":1.818922758102417,"494":0.49567627906799316,"495":-0.1854245960712433,"496":-0.9153233170509338,"497":1.0489611625671387,"498":1.2199755907058716,"499":-3.307847261428833,"500":-1.295011281967163,"501":-0.8687021732330322,"502":-2.339989185333252,"503":-1.6380183696746826,"504":1.2695069313049316,"505":-1.3234909772872925,"506":2.782517910003662,"507":-0.13733352720737457,"508":-1.9250203371047974,"509":2.2463715076446533}},"forgetHidden":{"rows":10,"columns":10,"weights":{"0":-6.5866522789001465,"1":-4.431350231170654,"2":-2.1533448696136475,"3":-8.811637878417969,"4":7.21447229385376,"5":3.5034971237182617,"6":3.729788064956665,"7":4.341196537017822,"8":7.244874954223633,"9":2.201648712158203,"10":3.9312796592712402,"11":-6.231797218322754,"12":8.099311828613281,"13":11.825057029724121,"14":7.918135166168213,"15":-7.3596296310424805,"16":3.403130054473877,"17":-3.3512933254241943,"18":-6.02186393737793,"19":-2.1381242275238037,"20":8.185422897338867,"21":0.9913960695266724,"22":13.803173065185547,"23":0.8981797099113464,"24":-2.2855238914489746,"25":2.1392459869384766,"26":9.344865798950195,"27":-3.9289026260375977,"28":-1.304609775543213,"29":5.848872184753418,"30":-11.944392204284668,"31":-12.169351577758789,"32":-1.813134789466858,"33":1.4602243900299072,"34":-6.734642505645752,"35":-5.68994665145874,"36":6.938445568084717,"37":8.443951606750488,"38":6.464904308319092,"39":7.798569202423096,"40":-0.5770613551139832,"41":11.253860473632812,"42":20.121179580688477,"43":1.1706922054290771,"44":2.4703454971313477,"45":5.404027462005615,"46":-9.202510833740234,"47":4.5035014152526855,