{"type":"LSTM","options":{"inputSize":51,"inputRange":51,"hiddenLayers":[20,20],"outputSize":51,"decayRate":0.999,"smoothEps":1e-8,"regc":0.000001,"clipval":5,"maxPredictionLength":100,"dataFormatter":{"values":["oi","Olá! Como posso lhe ajudar?","olá","Oi! Tudo bem contigo? Espero que sim :) em que posso lhe ajudar?","hey","Ho, let's go! Posso lhe ajudar em algo?","hello","Hi there, how can I help? You would like to convert into english?","alguem ai?","Sempre quando sou ligado, claro!","oi tudo bem?","Opa! Tudo tranquilo por aqui, obrigado por perguntar :D no que posso lhe ajudar?","tudo bem?","Tudo na medida do possivel, no que posso lhe ajudar?","bom dia","Lhe desejo um ótimo dia também :D","oi bom dia","Olá! Um ótimo dia para você também :D","bom","Dia! XD","boa tarde","Boa tarde! Posso lhe ajudar em algo?","boa noite","Boa noite, amigo! Em que posso lhe servir?"],"indexTable":{"o":0,"i":1,"O":2,"l":3,"á":4,"!":5," ":6,"C":7,"m":8,"p":9,"s":10,"h":11,"e":12,"a":13,"j":14,"u":15,"d":16,"r":17,"?":18,"T":19,"b":20,"c":21,"n":22,"t":23,"g":24,"E":25,"q":26,":":27,")":28,"y":29,"H":30,",":31,"'":32,"P":33,"w":34,"I":35,"Y":36,"k":37,"v":38,"S":39,"D":40,"L":41,"ó":42,"é":43,"U":44,"ê":45,"X":46,"B":47,"stop-input":48,"start-output":49,"unrecognized":50},"characterTable":{"0":"o","1":"i","2":"O","3":"l","4":"á","5":"!","6":" ","7":"C","8":"m","9":"p","10":"s","11":"h","12":"e","13":"a","14":"j","15":"u","16":"d","17":"r","18":"?","19":"T","20":"b","21":"c","22":"n","23":"t","24":"g","25":"E","26":"q","27":":","28":")","29":"y","30":"H","31":",","32":"'","33":"P","34":"w","35":"I","36":"Y","37":"k","38":"v","39":"S","40":"D","41":"L","42":"ó","43":"é","44":"U","45":"ê","46":"X","47":"B","48":null,"49":null,"50":null},"characters":["o","i","O","l","á","!"," ","C","m","p","s","h","e","a","j","u","d","r","?","T","b","c","n","t","g","E","q",":",")","y","H",",","'","P","w","I","Y","k","v","S","D","L","ó","é","U","ê","X","B","stop-input","start-output","unrecognized"],"specialIndexes":[48,49,50]}},"input":{"rows":52,"columns":51,"weights":{"0":-0.6007739901542664,"1":2.5292177200317383,"2":1.5790317058563232,"3":-0.4491516947746277,"4":-1.6910085678100586,"5":-1.815876841545105,"6":0.4196869730949402,"7":-1.0921425819396973,"8":-0.1933843344449997,"9":-0.543205976486206,"10":0.9058437943458557,"11":-1.244292140007019,"12":-1.0179632902145386,"13":0.41118505597114563,"14":0.6848387122154236,"15":-0.2883615791797638,"16":2.154480218887329,"17":0.5896589756011963,"18":0.2709912955760956,"19":-0.23289509117603302,"20":-0.24520879983901978,"21":-0.55501788854599,"22":-0.2781877815723419,"23":-2.568098783493042,"24":0.15548737347126007,"25":0.3027935326099396,"26":-0.3427918255329132,"27":1.075254201889038,"28":1.3298847675323486,"29":1.3744218349456787,"30":-0.47412195801734924,"31":0.9132929444313049,"32":-1.3389617204666138,"33":0.4572088122367859,"34":-0.5124931931495667,"35":-0.9199534058570862,"36":-1.6425747871398926,"37":0.13229219615459442,"38":-0.4211164712905884,"39":0.4473426938056946,"40":1.7963752746582031,"41":-2.3797285556793213,"42":1.2353389263153076,"43":0.055125679820775986,"44":-0.5453962683677673,"45":-0.34467613697052,"46":0.46976202726364136,"47":-0.42955684661865234,"48":-2.8487977981567383,"49":0.839262068271637,"50":-0.4886293113231659,"51":-0.5710405111312866,"52":2.7589166164398193,"53":1.2213293313980103,"54":1.0442383289337158,"55":0.7942953705787659,"56":0.4844115078449249,"57":-0.5405531525611877,"58":0.2906709611415863,"59":-0.35537078976631165,"60":-0.28429684042930603,"61":0.8124724626541138,"62":-2.8748624324798584,"63":1.749233365058899,"64":0.2774612605571747,"65":0.2843007743358612,"66":0.21654248237609863,"67":1.0116117000579834,"68":2.5993762016296387,"69":1.5533603429794312,"70":0.26398947834968567,"71":-0.06900914758443832,"72":3.420640707015991,"73":-0.4135976731777191,"74":2.9956541061401367,"75":-0.1317000538110733,"76":0.6932651996612549,"77":-0.6058492064476013,"78":1.8522993326187134,"79":2.3237991333007812,"80":0.9089139103889465,"81":0.13188636302947998,"82":-0.4350549578666687,"83":0.08420516550540924,"84":-3.1020572185516357,"85":0.30171874165534973,"86":-0.8675203323364258,"87":-1.0931702852249146,"88":-0.43545272946357727,"89":-0.30761805176734924,"90":1.41422438621521,"91":0.05206139013171196,"92":0.29460984468460083,"93":-0.16182319819927216,"94":-1.722603678703308,"95":-3.9979991912841797,"96":-0.4240608513355255,"97":2.021756172180176,"98":-0.046950872987508774,"99":0.580613911151886,"100":-0.09565339237451553,"101":-0.4668664038181305,"102":-0.2891140282154083,"103":3.6158885955810547,"104":0.42422518134117126,"105":-2.608167886734009,"106":-0.7529894709587097,"107":0.9168345332145691,"108":-1.3058586120605469,"109":-0.2934223413467407,"110":2.449814558029175,"111":4.1525068283081055,"112":-1.147849440574646,"113":1.8440648317337036,"114":1.6065903902053833,"115":-1.7736141681671143,"116":2.0317883491516113,"117":-0.021629979833960533,"118":0.7435600161552429,"119":0.7872797846794128,"120":-0.5766546726226807,"121":1.221730351448059,"122":-0.7651239037513733,"123":2.6171321868896484,"124":-0.704629123210907,"125":2.7292473316192627,"126":1.130284309387207,"127":2.2990198135375977,"128":1.2941354513168335,"129":-0.19080349802970886,"130":1.8225783109664917,"131":0.1584549844264984,"132":1.8307867050170898,"133":-2.4285857677459717,"134":0.0880817174911499,"135":-0.002438868395984173,"136":-0.7846357226371765,"137":2.910471200942993,"138":1.4049973487854004,"139":-0.5625778436660767,"140":1.290503740310669,"141":2.691136360168457,"142":-1.3475666046142578,"143":0.3726990818977356,"144":-0.45356285572052,"145":-1.9113878011703491,"146":0.9019638895988464,"147":-2.7343318462371826,"148":3.396918773651123,"149":-1.8428484201431274,"150":0.5393664836883545,"151":-1.988976240158081,"152":2.7188260555267334,"153":7.236030101776123,"154":1.5274572372436523,"155":10.726573944091797,"156":-6.501028537750244,"157":-6.0987749099731445,"158":-0.1931178718805313,"159":-0.3532048165798187,"160":-3.3402137756347656,"161":-1.9533201456069946,"162":-1.999525547027588,"163":2.0282907485961914,"164":0.5724390745162964,"165":1.8959791660308838,"166":1.835094690322876,"167":0.23532025516033173,"168":1.0609930753707886,"169":7.948448181152344,"170":0.7157943248748779,"171":1.6824061870574951,"172":-6.272243499755859,"173":1.811644196510315,"174":3.1752846240997314,"175":-0.8645190596580505,"176":7.732622146606445,"177":4.064425945281982,"178":0.5909413695335388,"179":-2.8391358852386475,"180":-1.1881669759750366,"181":4.211057662963867,"182":-4.3663763999938965,"183":3.3172061443328857,"184":-0.7977542877197266,"185":-3.964627742767334,"186":-3.5440452098846436,"187":2.8743717670440674,"188":-2.2911465167999268,"189":0.6040651202201843,"190":-3.9038338661193848,"191":-12.150510787963867,"192":4.163280487060547,"193":5.028370380401611,"194":-0.13188716769218445,"195":2.761293888092041,"196":-2.684056282043457,"197":8.76971435546875,"198":-0.25986844301223755,"199":3.421457529067993,"200":0.9925551414489746,"201":2.415187358856201,"202":9.443891525268555,"203":8.70849895477295,"204":-1.8329493999481201,"205":2.321542739868164,"206":-2.241105794906616,"207":-0.4300774335861206,"208":-3.6557111740112305,"209":0.369560569524765,"210":1.5575929880142212,"211":-1.4449743032455444,"212":-0.7396311163902283,"213":2.4219703674316406,"214":0.9373859763145447,"215":0.9945390224456787,"216":1.8146544694900513,"217":-1.7781678438186646,"218":-2.157933473587036,"219":1.4589232206344604,"220":0.9236337542533875,"221":-0.6989430785179138,"222":-0.38000378012657166,"223":2.3537800312042236,"224":-0.3883431553840637,"225":-0.49060767889022827,"226":1.452933430671692,"227":2.996129035949707,"228":-0.6441674828529358,"229":-1.5689215660095215,"230":0.6629737615585327,"231":-1.332384467124939,"232":-3.8599853515625,"233":0.5176280736923218,"234":1.3900474309921265,"235":-1.542655110359192,"236":-2.0056023597717285,"237":0.3313404321670532,"238":0.4126826226711273,"239":0.4789588451385498,"240":3.0597851276397705,"241":2.5042364597320557,"242":-0.5060552358627319,"243":3.5817339420318604,"244":0.6179528832435608,"245":4.621236801147461,"246":0.6010592579841614,"247":0.23595960438251495,"248":0.17260731756687164,"249":-4.94124698638916,"250":3.7476439476013184,"251":2.240661382675171,"252":0.8682190179824829,"253":6.637811660766602,"254":4.152941703796387,"255":3.695261001586914,"256":-0.9486809968948364,"257":-2.1521244049072266,"258":1.4203897714614868,"259":-3.133603572845459,"260":3.0769991874694824,"261":-5.032406330108643,"262":0.631878674030304,"263":-6.9018707275390625,"264":-1.121351718902588,"265":-3.720583915710449,"266":0.8211888074874878,"267":-4.00740909576416,"268":1.1984477043151855,"269":-4.7032694816589355,"270":2.809164047241211,"271":-0.701626181602478,"272":-3.793905258178711,"273":-1.0458970069885254,"274":-3.9753952026367188,"275":3.005852222442627,"276":-4.1375932693481445,"277":4.633702278137207,"278":-0.8509331941604614,"279":3.9461309909820557,"280":-1.5755237340927124,"281":5.767608642578125,"282":0.16373050212860107,"283":-4.753910541534424,"284":-1.8291033506393433,"285":-2.423022508621216,"286":1.7392061948776245,"287":1.1611616611480713,"288":-1.1953169107437134,"289":-1.7115659713745117,"290":-6.801893711090088,"291":8.269993782043457,"292":5.816007614135742,"293":-4.017282962799072,"294":-1.8056385517120361,"295":-0.20134337246418,"296":-2.478832483291626,"297":-4.259161949157715,"298":-0.3668823540210724,"299":5.63975191116333,"300":-1.0248594284057617,"301":-4.495550155639648,"302":-2.621433734893799,"303":-2.060166597366333,"304":-4.708103179931641,"305":-2.171031951904297,"306":-4.203066825866699,"307":-2.7174570560455322,"308":-1.2942007780075073,"309":2.5421981811523438,"310":1.8418433666229248,"311":-1.0743926763534546,"312":-0.041311267763376236,"313":-0.2527204751968384,"314":0.20154482126235962,"315":-0.5134341716766357,"316":2.3836708068847656,"317":3.3469746112823486,"318":-1.7410298585891724,"319":-0.9389516711235046,"320":1.8205671310424805,"321":-0.9979144930839539,"322":0.9588254690170288,"323":-2.583678722381592,"324":-0.3727640211582184,"325":0.15998941659927368,"326":-2.2205824851989746,"327":2.9175803661346436,"328":-0.043902501463890076,"329":0.43357640504837036,"330":0.623772382736206,"331":1.2397029399871826,"332":-1.2955931425094604,"333":1.3744624853134155,"334":-0.5630882382392883,"335":0.6565632224082947,"336":0.5215508341789246,"337":-1.6353896856307983,"338":-3.1559085845947266,"339":-0.9996033906936646,"340":0.005631821230053902,"341":1.684880256652832,"342":-0.7746801376342773,"343":1.5514165163040161,"344":-3.710183620452881,"345":0.45973485708236694,"346":1.079878568649292,"347":-2.322646379470825,"348":-0.7028617262840271,"349":3.103515863418579,"350":1.8130439519882202,"351":2.70599627494812,"352":0.15667413175106049,"353":3.182396173477173,"354":-1.0576372146606445,"355":-0.9775294065475464,"356":1.3748024702072144,"357":-2.073334217071533,"358":-1.5914372205734253,"359":3.2276387214660645,"360":1.9369345903396606,"361":0.9134634733200073,"362":-3.0709822177886963,"363":0.13851705193519592,"364":0.3692951202392578,"365":1.1071898937225342,"366":-1.2390872240066528,"367":-3.314565658569336,"368":0.10424748808145523,"369":1.3073713779449463,"370":0.16446146368980408,"371":-3.0335521697998047,"372":0.709166944026947,"373":0.8359720706939697,"374":0.9242167472839355,"375":-0.8225676417350769,"376":0.37033864855766296,"377":0.8863940834999084,"378":4.76676082611084,"379":0.7754348516464233,"380":1.6790380477905273,"381":1.4049197435379028,"382":-2.9170267581939697,"383":1.5962971448898315,"384":2.646655797958374,"385":2.7252933979034424,"386":-1.998183250427246,"387":0.07040953636169434,"388":-2.7581939697265625,"389":-0.30423715710639954,"390":-1.9858088493347168,"391":-1.1073048114776611,"392":-0.40163224935531616,"393":0.17849110066890717,"394":-0.8075466752052307,"395":-1.5942206382751465,"396":2.741147518157959,"397":-0.5756479501724243,"398":1.100748896598816,"399":-1.676969289779663,"400":-3.0425777435302734,"401":-0.9302678108215332,"402":-0.31993308663368225,"403":1.126610279083252,"404":1.1050286293029785,"405":0.3908325433731079,"406":-1.5063620805740356,"407":-1.3176971673965454,"408":3.2197959423065186,"409":-3.1638522148132324,"410":-3.3349692821502686,"411":-2.4360029697418213,"412":-3.2895047664642334,"413":-1.5182836055755615,"414":-9.087494850158691,"415":-8.305497169494629,"416":-8.010583877563477,"417":8.940143585205078,"418":6.792625904083252,"419":-1.9296473264694214,"420":9.78298568725586,"421":3.2147324085235596,"422":1.7609047889709473,"423":6.852305889129639,"424":-2.0526609420776367,"425":-8.08092975616455,"426":-6.9100775718688965,"427":15.44216251373291,"428":-6.148687839508057,"429":-0.2273351550102234,"430":-2.105555772781372,"431":8.747441291809082,"432":5.440952301025391,"433":-2.9280941486358643,"434":-4.104533672332764,"435":-3.5639431476593018,"436":-7.254457473754883,"437":-4.874107837677002,"438":-8.298382759094238,"439":-4.788705825805664,"440":3.990081310272217,"441":7.786434650421143,"442":-3.8379969596862793,"443":0.2592937648296356,"444":5.01032829284668,"445":8.87681770324707,"446":7.465035915374756,"447":4.902453422546387,"448":0.14396053552627563,"449":1.5175398588180542,"450":7.465934753417969,"451":3.7256288528442383,"452":-1.784389853477478,"453":-9.097524642944336,"454":7.625360488891602,"455":2.8091983795166016,"456":-4.1394476890563965,"457":3.5144834518432617,"458":4.516902446746826,"459":-2.361518383026123,"460":0.268006294965744,"461":1.8060333728790283,"462":-2.5738048553466797,"463":0.32197824120521545,"464":-1.3259375095367432,"465":0.5867320895195007,"466":-0.5439209342002869,"467":1.6946437358856201,"468":-0.7096191644668579,"469":-0.26048147678375244,"470":-0.43262380361557007,"471":1.184220790863037,"472":-0.41637569665908813,"473":-2.8660643100738525,"474":2.4360499382019043,"475":1.9888681173324585,"476":2.3378238677978516,"477":-1.1334662437438965,"478":-0.06352019309997559,"479":1.460890531539917,"480":3.1056723594665527,"481":1.8185570240020752,"482":0.24867601692676544,"483":-0.9538673162460327,"484":-0.3642452359199524,"485":-1.8232290744781494,"486":2.2172937393188477,"487":0.6381232142448425,"488":-0.7047745585441589,"489":4.131021022796631,"490":-0.039766550064086914,"491":-0.6859625577926636,"492":-2.003392219543457,"493":0.74355548620224,"494":-0.28036633133888245,"495":1.1246652603149414,"496":-1.8123416900634766,"497":-0.7406823039054871,"498":0.46920454502105713,"499":1.2463256120681763,"500":5.155309200286865,"501":-0.843726396560669,"502":-0.5663095712661743,"503":-0.5611187219619751,"504":-0.06986994296312332,"505":0.185861274600029,"506":1.003685474395752,"507":-0.7307316064834595,"508":2.2005012035369873,"509":-0.8339958786964417,"510":-0.6818404197692871,"511":-0.8125185966491699,"512":-0.8049145936965942,"513":-2.0975401401519775,"514":-1.3374533653259277,"515":-0.10841558128595352,"516":-1.537062168121338,"517":-1.1921343803405762,"518":-4.49488639831543,"519":-1.06110417842865,"520":4.468226909637451,"521":0.27373722195625305,"522":3.841287851333618,"523":-0.22696377336978912,"524":-0.7703961133956909,"525":1.3524065017700195,"526":2.907874822616577,"527":-0.05781300738453865,"528":-0.7753491401672363,"529":-1.9630783796310425,"530":1.0513554811477661,"531":-1.4971922636032104,"532":0.5726175308227539,"533":-5.240659236907959,"534":1.30702543258667,"535":3.2899296283721924,"536":2.4309566020965576,"537":2.0872743129730225,"538":1.8501536846160889,"539":-0.8444085121154785,"540":-0.9110866189002991,"541":1.6646534204483032,"542":1.6234261989593506,"543":-0.5433196425437927,"544":-4.127222061157227,"545":4.764252662658691,"546":-1.934383749961853,"547":0.500270426273346,"548":-3.0372021198272705,"549":-0.21185915172100067,"550":-1.320027232170105,"551":-2.9130642414093018,"552":-2.7143969535827637,"553":-1.535406231880188,"554":1.6413155794143677,"555":-1.5900148153305054,"556":-2.563628911972046,"557":-0.7268847823143005,"558":0.4468611180782318,"559":0.10577193647623062,"560":0.10043115168809891,"561":-1.8065818548202515,"562":-0.14313900470733643,"563":-1.132653832435608,"564":-0.5619666576385498,"565":-1.2463518381118774,"566":2.171800136566162,"567":0.1272386759519577,"568":3.1533713340759277,"569":0.13855132460594177,"570":1.016449213027954,"571":-0.18805254995822906,"572":-0.11376041918992996,"573":2.974536418914795,"574":-1.5973761081695557,"575":-1.7556273937225342,"576":-1.6429039239883423,"577":1.0893000364303589,"578":-0.41508546471595764,"579":1.4087281227111816,"580":2.449479341506958,"581":1.3180583715438843,"582":-2.699059009552002,"583":-1.9957584142684937,"584":0.061481621116399765,"585":-0.11257178336381912,"586":0.7356866598129272,"587":1.8269509077072144,"588":-0.450847327709198,"589":5.17869234085083,"590":-4.3941264152526855,"591":1.956132173538208,"592":2.7421786785125732,"593":2.240999221801758,"594":-0.18679213523864746,"595":1.336737871170044,"596":0.9740275144577026,"597":-4.415345668792725,"598":-0.7469530701637268,"599":1.0383566617965698,"600":-0.32565757632255554,"601":1.0699057579040527,"602":0.3143652677536011,"603":-1.4374438524246216,"604":-0.9303145408630371,"605":-2.4933021068573,"606":0.5551961660385132,"607":-1.9711525440216064,"608":-2.2734344005584717,"609":-0.6735058426856995,"610":3.102146863937378,"611":-1.1453163623809814,"612":6.708438396453857,"613":0.5142719745635986,"614":-0.8429715633392334,"615":-0.7358506321907043,"616":-1.2615647315979004,"617":-2.5553741455078125,"618":0.7630797028541565,"619":2.2757568359375,"620":2.1317827701568604,"621":1.1500014066696167,"622":-4.289446830749512,"623":-1.4884661436080933,"624":1.2337104082107544,"625":-3.4960715770721436,"626":-1.9382377862930298,"627":-0.892280101776123,"628":-3.8023781776428223,"629":-5.955897331237793,"630":0.08254145830869675,"631":-0.5111473798751831,"632":0.5436035990715027,"633":-1.6243771314620972,"634":-0.45601046085357666,"635":-0.5423129796981812,"636":1.3600549697875977,"637":0.4419415295124054,"638":-2.517019748687744,"639":-4.623058795928955,"640":-1.3830735683441162,"641":-0.5705474019050598,"642":-0.8056275844573975,"643":-3.1925082206726074,"644":1.7260276079177856,"645":4.804954528808594,"646":0.08962087333202362,"647":-6.60441255569458,"648":3.2513926029205322,"649":-1.8211472034454346,"650":0.43308693170547485,"651":-2.043105125427246,"652":-4.96832275390625,"653":3.394925355911255,"654":0.981815755367279,"655":-0.8122163414955139,"656":-1.5296940803527832,"657":4.236763954162598,"658":-0.06359941512346268,"659":-2.5123250484466553,"660":0.8637778759002686,"661":2.2795026302337646,"662":1.0823915004730225,"663":0.058854684233665466,"664":-4.864232540130615,"665":-0.6326161026954651,"666":-1.89928138256073,"667":-0.1583726406097412,"668":0.1721085011959076,"669":0.3687728941440582,"670":0.2542892098426819,"671":-2.716622829437256,"672":1.4118655920028687,"673":0.004520414397120476,"674":4.04550838470459,"675":2.4136593341827393,"676":-0.7150202393531799,"677":0.5842089653015137,"678":1.7710034847259521,"679":2.5610711574554443,"680":0.9456847310066223,"681":-0.23505334556102753,"682":-0.3383563458919525,"683":-0.5018139481544495,"684":-0.9242472052574158,"685":0.14894062280654907,"686":0.9179449677467346,"687":1.3940186500549316,"688":1.6775879859924316,"689":0.6439980268478394,"690":2.5459561347961426,"691":1.369160532951355,"692":-0.3247256278991699,"693":-1.8035422563552856,"694":-1.1589093208312988,"695":2.9347598552703857,"696":0.574496328830719,"697":-3.6025772094726562,"698":2.355433702468872,"699":0.5687484741210938,"700":1.2955150604248047,"701":-1.4330002069473267,"702":1.6199653148651123,"703":-1.560629963874817,"704":-2.4657070636749268,"705":-1.0225372314453125,"706":-0.8963662981987,"707":2.7373740673065186,"708":-0.2179073989391327,"709":0.10945741087198257,"710":0.613297164440155,"711":0.8594677448272705,"712":0.7487272620201111,"713":0.16860167682170868,"714":-0.384654700756073,"715":1.042834758758545,"716":0.9245725274085999,"717":0.809399425983429,"718":-0.035469282418489456,"719":-3.864840030670166,"720":2.145676612854004,"721":-3.9444053173065186,"722":1.8212311267852783,"723":0.1137157455086708,"724":0.6867802739143372,"725":-1.689978003501892,"726":0.5392861366271973,"727":0.1510314643383026,"728":-1.5342670679092407,"729":0.44231319427490234,"730":2.2231605052948,"731":1.2010109424591064,"732":3.316739559173584,"733":1.0012903213500977,"734":1.3423871994018555,"735":1.192330002784729,"736":-0.5226854681968689,"737":1.0816153287887573,"738":-2.663508415222168,"739":-0.6616339087486267,"740":0.07790494710206985,"741":0.06436970084905624,"742":-1.6751971244812012,"743":1.1405220031738281,"744":1.4573973417282104,"745":-1.3147767782211304,"746":-2.2894656658172607,"747":-2.1392602920532227,"748":0.6049460172653198,"749":0.18665537238121033,"750":-0.5962507128715515,"751":-0.828940749168396,"752":0.8871656060218811,"753":2.6164512634277344,"754":3.1737380027770996,"755":1.5022382736206055,"756":-0.23195597529411316,"757":-1.7031538486480713,"758":-1.6195882558822632,"759":-0.47359681129455566,"760":0.33302322030067444,"761":0.042520660907030106,"762":-4.312018871307373,"763":-0.7771998643875122,"764":-0.8245652318000793,"765":-1.3283088207244873,"766":-3.361311674118042,"767":-0.006182252895087004,"768":-2.581489086151123,"769":-1.2469242811203003,"770":1.5848947763442993,"771":2.1435048580169678,"772":0.1628590226173401,"773":0.035050343722105026,"774":-2.648620367050171,"775":-3.3283350467681885,"776":-6.24650764465332,"777":-3.198268413543701,"778":0.8398277163505554,"779":-10.460408210754395,"780":2.412309408187866,"781":-2.841836929321289,"782":0.9714505672454834,"783":-6.767017841339111,"784":0.034219298511743546,"785":3.6068994998931885,"786":-0.004283870570361614,"787":1.9790966510772705,"788":1.333351731300354,"789":0.5415233373641968,"790":-2.646775484085083,"791":-4.102249622344971,"792":-3.0340499877929688,"793":2.6905505657196045,"794":2.9676787853240967,"795":5.817385673522949,"796":2.4270668029785156,"797":-2.171952486038208,"798":-4.2363786697387695,"799":7.055577278137207,"800":-4.316064357757568,"801":0.06661705672740936,"802":-4.923149108886719,"803":2.6940054893493652,"804":0.46638673543930054,"805":0.4823206067085266,"806":2.121037721633911,"807":-2.565065622329712,"808":-0.5535252094268799,"809":-4.870339870452881,"810":2.357419013977051,"811":-0.2962639033794403,"812":0.7590682506561279,"813":0.11276821047067642,"814":-1.493513584136963,"815":-8.266395568847656,"816":0.0029385907109826803,"817":2.97542405128479,"818":1.807461142539978,"819":1.0400234460830688,"820":0.1208193451166153,"821":0.016900544986128807,"822":1.1167651414871216,"823":-1.2680180072784424,"824":1.010364055633545,"825":1.7074811458587646,"826":-2.030583143234253,"827":-4.772987365722656,"828":0.19389332830905914,"829":0.13737280666828156,"830":-0.8565333485603333,"831":3.017216205596924,"832":1.1692593097686768,"833":4.65489387512207,"834":0.0486094169318676,"835":1.4025917053222656,"836":0.9265144467353821,"837":2.4371767044067383,"838":-0.5650724768638611,"839":0.2190803438425064,"840":0.9875587821006775,"841":0.7037754058837891,"842":0.08093570172786713,"843":0.17736294865608215,"844":0.2533343732357025,"845":4.776776313781738,"846":2.354863166809082,"847":-0.7433716058731079,"848":-3.611297607421875,"849":-1.9591820240020752,"850":1.7880679368972778,"851":-2.1907503604888916,"852":0.7829859256744385,"853":-1.6607882976531982,"854":-1.4294589757919312,"855":0.05907878652215004,"856":0.11686196178197861,"857":-0.16396823525428772,"858":3.0807321071624756,"859":-0.99132239818573,"860":-2.0912232398986816,"861":-1.9278978109359741,"862":3.9287326335906982,"863":1.4939231872558594,"864":0.5620729327201843,"865":0.15650179982185364,"866":2.4654579162597656,"867":0.48968711495399475,"868":-0.05808485299348831,"869":-1.9095436334609985,"870":0.8470314145088196,"871":-0.09405025094747543,"872":1.7680490016937256,"873":1.2262567281723022,"874":1.9025208950042725,"875":1.5056912899017334,"876":0.5414459109306335,"877":-1.0145350694656372,"878":0.2658006548881531,"879":0.4317776560783386,"880":-3.482435464859009,"881":0.49590951204299927,"882":-3.7628092765808105,"883":-1.3886266946792603,"884":-2.7000279426574707,"885":1.9394879341125488,"886":-3.3196980953216553,"887":-0.3090389370918274,"888":-0.6786924600601196,"889":-0.3313327431678772,"890":-1.7826811075210571,"891":1.2989223003387451,"892":2.2779858112335205,"893":-0.545790433883667,"894":-3.3753669261932373,"895":0.07216276228427887,"896":2.6490705013275146,"897":-1.456954002380371,"898":0.48806682229042053,"899":1.5692806243896484,"900":-1.11574387550354,"901":0.5474249720573425,"902":0.09652404487133026,"903":-3.816331148147583,"904":1.1058305501937866,"905":0.3123001158237457,"906":-0.06366859376430511,"907":1.7235310077667236,"908":-1.947822093963623,"909":-2.2196407318115234,"910":-0.8415319323539734,"911":-1.0747714042663574,"912":0.5205497741699219,"913":-1.143175482749939,"914":-1.3880650997161865,"915":1.144609808921814,"916":0.23637272417545319,"917":-1.6766353845596313,"918":0.7789777517318726,"919":1.3565926551818848,"920":-1.8823992013931274,"921":1.1325005292892456,"922":1.304034948348999,"923":-4.0103678703308105,"924":1.3894597291946411,"925":-0.1950768530368805,"926":0.7723844051361084,"927":0.29112833738327026,"928":-2.8971452713012695,"929":-0.4496360719203949,"930":0.8345716595649719,"931":-0.05631974712014198,"932":-0.007359082344919443,"933":-4.592526435852051,"934":-1.724224328994751,"935":-1.9574699401855469,"936":2.149935245513916,"937":-0.16580736637115479,"938":-1.0479111671447754,"939":1.3433735370635986,"940":-3.7479379177093506,"941":2.9315803050994873,"942":-1.3785808086395264,"943":3.1289665699005127,"944":-2.461167335510254,"945":-3.0632288455963135,"946":-0.09960609674453735,"947":3.3965532779693604,"948":3.628920078277588,"949":-0.33978110551834106,"950":-0.9608579874038696,"951":0.36513763666152954,"952":2.3512187004089355,"953":-1.5064178705215454,"954":-0.24095043540000916,"955":-1.3402352333068848,"956":1.1201404333114624,"957":0.3501461446285248,"958":-0.5406079888343811,"959":-0.35543543100357056,"960":4.814580917358398,"961":-3.3457236289978027,"962":-0.7765266299247742,"963":-1.4801956415176392,"964":-1.0124397277832031,"965":-0.0260214414447546,"966":-1.1874924898147583,"967":-1.5476710796356201,"968":-0.5376437902450562,"969":0.010094817727804184,"970":-1.160622477531433,"971":1.9251744747161865,"972":3.457725763320923,"973":-1.6855494976043701,"974":-4.413122653961182,"975":3.5538041591644287,"976":0.9766174554824829,"977":-3.072134017944336,"978":-2.6958327293395996,"979":1.135472059249878,"980":2.819126605987549,"981":-0.3268134295940399,"982":0.18972933292388916,"983":-0.13002561032772064,"984":2.3708834648132324,"985":0.05956921726465225,"986":-1.0754450559616089,"987":-2.586665391921997,"988":-1.0055038928985596,"989":1.2936919927597046,"990":-0.11571015417575836,"991":3.1754374504089355,"992":-1.4334468841552734,"993":-2.3447630405426025,"994":-1.8276549577713013,"995":3.3295488357543945,"996":0.9069494009017944,"997":2.6122467517852783,"998":-3.347940444946289,"999":-4.317208290100098,"1000":0.9352724552154541,"1001":0.6782973408699036,"1002":-1.0944856405258179,"1003":-2.642777442932129,"1004":-0.8366249203681946,"1005":-1.18290114402771,"1006":1.8773900270462036,"1007":-2.7791712284088135,"1008":-1.5178587436676025,"1009":1.0248301029205322,"1010":0.7342711091041565,"1011":-1.4785634279251099,"1012":-0.17996414005756378,"1013":2.7946653366088867,"1014":-0.6977816820144653,"1015":-1.0779094696044922,"1016":4.4940361976623535,"1017":-0.7607595920562744,"1018":-2.8221287727355957,"1019":-0.9797995686531067,"1020":-3.0348095893859863,"1021":-4.305859088897705,"1022":4.986652374267578,"1023":6.148823261260986,"1024":0.0450650230050087,"1025":-3.9784128665924072,"1026":-0.7900785207748413,"1027":-4.046773433685303,"1028":3.669503927230835,"1029":3.8182051181793213,"1030":-6.03065299987793,"1031":5.588218688964844,"1032":-1.7685686349868774,"1033":-1.4877532720565796,"1034":1.985968828201294,"1035":-3.0787057876586914,"1036":0.10563893616199493,"1037":2.0378994941711426,"1038":3.292187213897705,"1039":-0.7272297143936157,"1040":2.644956111907959,"1041":2.4937822818756104,"1042":-2.157344102859497,"1043":6.570067405700684,"1044":-3.4551737308502197,"1045":-7.102656364440918,"1046":-7.192987442016602,"1047":-9.056285858154297,"1048":1.197877049446106,"1049":-4.9646124839782715,"1050":-3.8481578826904297,"1051":-8.9942045211792,"1052":4.5095109939575195,"1053":2.4280543327331543,"1054":-5.599119186401367,"1055":-8.2674560546875,"1056":7.497966289520264,"1057":3.005291700363159,"1058":-9.048369407653809,"1059":-6.186611175537109,"1060":-2.986741542816162,"1061":2.139050006866455,"1062":3.2393300533294678,"1063":-3.0963008403778076,"1064":5.404953956604004,"1065":4.246201992034912,"1066":1.3851829767227173,"1067":4.875604152679443,"1068":1.2683453559875488,"1069":0.05671524256467819,"1070":4.946290016174316,"1071":1.2498825788497925,"1072":-1.217752456665039,"1073":0.8936935663223267,"1074":2.6486434936523438,"1075":1.6876524686813354,"1076":3.6945738792419434,"1077":0.19602170586585999,"1078":3.9790854454040527,"1079":-0.9117594957351685,"1080":-5.82921838760376,"1081":2.490748167037964,"1082":3.288599729537964,"1083":0.5150454640388489,"1084":0.8528816103935242,"1085":0.22584252059459686,"1086":-5.289919376373291,"1087":-0.031166402623057365,"1088":-5.978288650512695,"1089":3.3079946041107178,"1090":-1.3125884532928467,"1091":-0.27792084217071533,"1092":-4.759988307952881,"1093":1.1552873849868774,"1094":-2.0592525005340576,"1095":-1.7135902643203735,"1096":3.1431968212127686,"1097":1.603356122970581,"1098":2.703545570373535,"1099":5.332830905914307,"1100":-0.7325762510299683,"1101":-0.6630876660346985,"1102":1.9929378032684326,"1103":4.437705993652344,"1104":-0.11000731587409973,"1105":-1.4236339330673218,"1106":3.41601300239563,"1107":-2.322690963745117,"1108":5.616879940032959,"1109":4.26070499420166,"1110":-4.907390117645264,"1111":0.2785228192806244,"1112":-1.9920717477798462,"1113":-2.960427761077881,"1114":-1.239243507385254,"1115":1.534523367881775,"1116":1.1354689598083496,"1117":-1.4170225858688354,"1118":-3.6290907859802246,"1119":-1.2954422235488892,"1120":-2.5307230949401855,"1121":-1.5359705686569214,"1122":-0.2629167437553406,"1123":3.6992948055267334,"1124":-2.4450206756591797,"1125":2.9808332920074463,"1126":1.5206198692321777,"1127":-0.6908061504364014,"1128":1.8103249073028564,"1129":3.7443504333496094,"1130":-0.7465017437934875,"1131":-3.6826372146606445,"1132":2.763176441192627,"1133":-1.2854493856430054,"1134":0.6764728426933289,"1135":2.6651289463043213,"1136":6.043419361114502,"1137":-4.6453423500061035,"1138":-0.881123423576355,"1139":-4.891202449798584,"1140":4.6243896484375,"1141":-3.6269099712371826,"1142":0.39067962765693665,"1143":1.0995386838912964,"1144":-4.004110336303711,"1145":-0.3890244960784912,"1146":1.6573477983474731,"1147":4.205183982849121,"1148":-3.196564197540283,"1149":-2.4844632148742676,"1150":-1.2463939189910889,"1151":-0.8047738075256348,"1152":-1.1586419343948364,"1153":1.003284215927124,"1154":2.5428109169006348,"1155":2.870750665664673,"1156":-3.3593742847442627,"1157":-1.05746591091156,"1158":-5.593023777008057,"1159":3.2532927989959717,"1160":2.651052713394165,"1161":-2.8679981231689453,"1162":3.835747718811035,"1163":1.5521475076675415,"1164":2.024235248565674,"1165":1.927462100982666,"1166":6.259453296661377,"1167":-0.5059165358543396,"1168":-1.1626648902893066,"1169":-0.5046453475952148,"1170":-1.663149118423462,"1171":-2.677722692489624,"1172":1.8116121292114258,"1173":-1.2643765211105347,"1174":-0.8715977072715759,"1175":-1.196637749671936,"1176":2.7818081378936768,"1177":-0.4720434248447418,"1178":-0.7181851863861084,"1179":-1.6460835933685303,"1180":-1.7935972213745117,"1181":2.765202283859253,"1182":-0.1637597382068634,"1183":-2.0741922855377197,"1184":1.6844395399093628,"1185":-4.280185699462891,"1186":-4.181821823120117,"1187":1.6366801261901855,"1188":0.7263298034667969,"1189":-2.4158713817596436,"1190":-1.5908434391021729,"1191":-2.7440085411071777,"1192":0.4708133935928345,"1193":0.28243157267570496,"1194":0.22995521128177643,"1195":2.0950443744659424,"1196":-0.055875860154628754,"1197":0.75676029920578,"1198":-3.572248697280884,"1199":4.514712333679199,"1200":-4.065454959869385,"1201":-3.4899139404296875,"1202":0.6065280437469482,"1203":-1.81954824924469,"1204":0.6842201948165894,"1205":-3.207174301147461,"1206":-0.02762546017765999,"1207":-0.19691632688045502,"1208":0.5208147168159485,"1209":2.680272102355957,"1210":-0.27773112058639526,"1211":0.42525461316108704,"1212":3.162325143814087,"1213":-2.6676433086395264,"1214":-0.9547175765037537,"1215":1.0851070880889893,"1216":-0.09002682566642761,"1217":-0.01808866672217846,"1218":-0.018175849691033363,"1219":0.09806805104017258,"1220":-1.424268126487732,"1221":1.3074212074279785,"1222":-1.3899537324905396,"1223":2.058886766433716,"1224":-1.065659523010254,"1225":1.4754294157028198,"1226":-0.4082954227924347,"1227":-0.3782137334346771,"1228":-2.2661900520324707,"1229":-2.4949963092803955,"1230":3.619767904281616,"1231":-6.170721054077148,"1232":-0.24412697553634644,"1233":3.187800884246826,"1234":-0.19832183420658112,"1235":-2.5103566646575928,"1236":-1.517936110496521,"1237":0.7618988156318665,"1238":-1.5318293571472168,"1239":2.8714053630828857,"1240":0.9515887498855591,"1241":4.224003791809082,"1242":-5.542641639709473,"1243":1.868538498878479,"1244":0.19784872233867645,"1245":3.8848884105682373,"1246":-1.0823521614074707,"1247":4.260776519775391,"1248":-3.3577187061309814,"1249":-3.8193089962005615,"1250":-1.0857383012771606,"1251":-1.2703906297683716,"1252":-3.122762680053711,"1253":-0.9692817330360413,"1254":-0.987191379070282,"1255":-2.308300256729126,"1256":-3.7541451454162598,"1257":-0.7330334186553955,"1258":3.7600460052490234,"1259":-1.054954171180725,"1260":0.5125969052314758,"1261":0.04796455055475235,"1262":-3.026740550994873,"1263":2.989820718765259,"1264":0.577863872051239,"1265":2.3486616611480713,"1266":2.608222723007202,"1267":-0.9185217022895813,"1268":-0.5199052095413208,"1269":-3.087705612182617,"1270":7.234523296356201,"1271":0.8280965089797974,"1272":-0.984735369682312,"1273":2.1225502490997314,"1274":1.5172532796859741,"1275":5.870394706726074,"1276":-4.73361873626709,"1277":-2.572028160095215,"1278":1.0506892204284668,"1279":-2.695997714996338,"1280":4.859339714050293,"1281":-1.2603777647018433,"1282":1.3695037364959717,"1283":0.21353572607040405,"1284":-0.004898487590253353,"1285":5.047151565551758,"1286":2.804080009460449,"1287":0.13651123642921448,"1288":0.5371493101119995,"1289":1.8263894319534302,"1290":0.5844944715499878,"1291":-1.8073701858520508,"1292":-2.1665639877319336,"1293":-1.2935822010040283,"1294":-0.3140762448310852,"1295":5.268825531005859,"1296":-2.125718832015991,"1297":4.256960391998291,"1298":-1.5839142799377441,"1299":-1.1149324178695679,"1300":-1.0772236585617065,"1301":1.563498616218567,"1302":-0.5466719269752502,"1303":0.008288017474114895,"1304":-2.7019612789154053,"1305":-6.562980651855469,"1306":4.944073677062988,"1307":4.053720951080322,"1308":3.8479785919189453,"1309":-1.525577425956726,"1310":1.7815871238708496,"1311":1.1776390075683594,"1312":0.4379905164241791,"1313":-1.3889479637145996,"1314":0.3509538769721985,"1315":0.37232667207717896,"1316":-1.291170358657837,"1317":-2.941046714782715,"1318":-1.7633953094482422,"1319":-0.1852254867553711,"1320":0.7206950187683105,"1321":-1.5963969230651855,"1322":-3.1743276119232178,"1323":0.8458924889564514,"1324":1.546432614326477,"1325":3.1976211071014404,"1326":4.32291316986084,"1327":-3.6864206790924072,"1328":5.930241107940674,"1329":1.1602511405944824,"1330":-1.4806559085845947,"1331":0.9945833683013916,"1332":1.548866868019104,"1333":-0.5577210187911987,"1334":0.5353457927703857,"1335":-2.366589069366455,"1336":-0.013034336268901825,"1337":-1.85013747215271,"1338":-3.474169969558716,"1339":1.567061424255371,"1340":-1.6093945503234863,"1341":-4.580081462860107,"1342":-0.2207752764225006,"1343":-2.6092100143432617,"1344":-4.503951549530029,"1345":3.8497068881988525,"1346":-0.35949796438217163,"1347":2.5613369941711426,"1348":3.5685503482818604,"1349":2.639821767807007,"1350":-3.668680429458618,"1351":5.059258937835693,"1352":2.1999645233154297,"1353":1.3849791288375854,"1354":-0.5300971269607544,"1355":1.2696095705032349,"1356":0.5633358955383301,"1357":-1.364246129989624,"1358":1.1480273008346558,"1359":-4.535956859588623,"1360":-1.9258989095687866,"1361":-0.8196098208427429,"1362":3.1081888675689697,"1363":5.023429870605469,"1364":-1.0566660165786743,"1365":5.8297553062438965,"1366":2.2953672409057617,"1367":-3.742032527923584,"1368":-2.8286869525909424,"1369":-3.6067566871643066,"1370":3.6687490940093994,"1371":0.31230202317237854,"1372":3.6280174255371094,"1373":-1.1697144508361816,"1374":-1.1067405939102173,"1375":-3.345383644104004,"1376":0.2976458668708801,"1377":-0.5213346481323242,"1378":1.041178822517395,"1379":-2.3055410385131836,"1380":2.6212594509124756,"1381":3.260779619216919,"1382":1.8591946363449097,"1383":1.2306036949157715,"1384":0.24781358242034912,"1385":2.257524251937866,"1386":-0.06839781999588013,"1387":-2.7756900787353516,"1388":-4.020843505859375,"1389":-3.350309133529663,"1390":-2.51841402053833,"1391":3.1759583950042725,"1392":-0.8416970372200012,"1393":-4.736609935760498,"1394":-1.325361728668213,"1395":2.1883416175842285,"1396":-3.3575942516326904,"1397":0.3040574789047241,"1398":-1.764304518699646,"1399":-2.0569257736206055,"1400":-2.654836654663086,"1401":-0.20944911241531372,"1402":-0.6496946811676025,"1403":-1.0116854906082153,"1404":1.0766457319259644,"1405":-5.867671489715576,"1406":1.9400745630264282,"1407":-1.362451434135437,"1408":1.9037022590637207,"1409":0.3081813156604767,"1410":1.9055891036987305,"1411":2.7323827743530273,"1412":1.7577277421951294,"1413":-0.5778602361679077,"1414":-5.94771146774292,"1415":-0.99190354347229,"1416":-1.5283535718917847,"1417":-4.590549945831299,"1418":-0.8659033179283142,"1419":-1.747745156288147,"1420":-0.1406463086605072,"1421":0.825344443321228,"1422":1.1817450523376465,"1423":-1.8086771965026855,"1424":0.3521801233291626,"1425":4.517019271850586,"1426":-2.161853075027466,"1427":-2.9882664680480957,"1428":-1.9929707050323486,"1429":-4.505894660949707,"1430":2.5071048736572266,"1431":-5.256258964538574,"1432":1.3899515867233276,"1433":1.318682074546814,"1434":-1.9207894802093506,"1435":-4.898427963256836,"1436":-4.128886699676514,"1437":0.6312363147735596,"1438":2.9020025730133057,"1439":-2.213136911392212,"1440":0.3143208622932434,"1441":4.62226676940918,"1442":1.6006399393081665,"1443":2.194413661956787,"1444":4.516446113586426,"1445":4.491135597229004,"1446":-1.7578407526016235,"1447":4.738567352294922,"1448":-2.1994800567626953,"1449":-2.4033586978912354,"1450":1.0848551988601685,"1451":1.9005404710769653,"1452":-0.4211871027946472,"1453":-1.663887858390808,"1454":-0.5420936942100525,"1455":4.334921836853027,"1456":-1.4415252208709717,"1457":-2.212146520614624,"1458":-6.309359550476074,"1459":2.8763320446014404,"1460":-0.35112395882606506,"1461":-0.7355592250823975,"1462":-3.7330288887023926,"1463":6.280458927154541,"1464":0.9258397817611694,"1465":3.5401358604431152,"1466":1.180224895477295,"1467":3.199084758758545,"1468":5.358521938323975,"1469":-1.5090301036834717,"1470":-2.8567605018615723,"1471":0.09949392825365067,"1472":-0.4609062671661377,"1473":0.6882712841033936,"1474":2.0015792846679688,"1475":-1.9164938926696777,"1476":-1.9930124282836914,"1477":-2.5089502334594727,"1478":3.1233561038970947,"1479":14.734674453735352,"1480":-3.2578725814819336,"1481":-3.596155881881714,"1482":-4.303479194641113,"1483":-0.7308147549629211,"1484":5.85305118560791,"1485":-0.4049561023712158,"1486":11.072283744812012,"1487":1.1521607637405396,"1488":-6.435922622680664,"1489":5.574797630310059,"1490":-0.003061014460399747,"1491":-1.5901436805725098,"1492":1.9105703830718994,"1493":4.265615463256836,"1494":-0.6502354741096497,"1495":-3.134387969970703,"1496":-2.828214645385742,"1497":7.021869659423828,"1498":-3.3219423294067383,"1499":2.830246925354004,"1500":-10.789935111999512,"1501":1.8208609819412231,"1502":-0.6103004813194275,"1503":2.1015212535858154,"1504":2.707353353500366,"1505":3.5076630115509033,"1506":4.20466947555542,"1507":-3.3153717517852783,"1508":8.927837371826172,"1509":3.0841832160949707,"1510":9.015135765075684,"1511":6.796670913696289,"1512":9.241056442260742,"1513":1.9774717092514038,"1514":-3.5494656562805176,"1515":2.0485236644744873,"1516":1.5939151048660278,"1517":-1.0815072059631348,"1518":-13.235574722290039,"1519":4.504299640655518,"1520":-3.8457632064819336,"1521":5.931754112243652,"1522":3.292910099029541,"1523":7.367992877960205,"1524":-2.046135425567627,"1525":-6.475789546966553,"1526":3.089728832244873,"1527":3.1477599143981934,"1528":5.023085117340088,"1529":-1.151349663734436,"1530":4.023177146911621,"1531":-6.195557117462158,"1532":6.066981315612793,"1533":-0.5914401412010193,"1534":3.7691831588745117,"1535":3.84590482711792,"1536":-2.5546457767486572,"1537":1.4730194807052612,"1538":-9.00549602508545,"1539":0.3594990074634552,"1540":5.844651699066162,"1541":8.86641788482666,"1542":6.45841646194458,"1543":9.071671485900879,"1544":-6.6278839111328125,"1545":2.984492301940918,"1546":4.899229526519775,"1547":-3.3145816326141357,"1548":-2.778395175933838,"1549":2.5173568725585938,"1550":-4.047812461853027,"1551":-0.6692568063735962,"1552":1.7124043703079224,"1553":2.9903430938720703,"1554":-3.1036040782928467,"1555":2.9627110958099365,"1556":-0.0632990300655365,"1557":6.966508388519287,"1558":1.1367474794387817,"1559":-2.8318958282470703,"1560":4.108498573303223,"1561":-2.6554665565490723,"1562":-0.6923151016235352,"1563":-1.4554998874664307,"1564":-4.556134223937988,"1565":-2.4776532649993896,"1566":1.3271350860595703,"1567":2.1028096675872803,"1568":3.6342761516571045,"1569":2.1076369285583496,"1570":7.834404945373535,"1571":7.386857509613037,"1572":-5.49855375289917,"1573":-0.23696479201316833,"1574":3.55905818939209,"1575":-1.1920288801193237,"1576":4.137023448944092,"1577":3.3954505920410156,"1578":-4.455013275146484,"1579":1.1849199533462524,"1580":0.5528045296669006,"1581":0.5391008853912354,"1582":0.9769659042358398,"1583":-0.5296313762664795,"1584":-1.0465083122253418,"1585":-1.2532906532287598,"1586":-0.44806984066963196,"1587":-4.834946632385254,"1588":-7.594098091125488,"1589":-1.0215197801589966,"1590":0.24421349167823792,"1591":3.3511643409729004,"1592":1.6014070510864258,"1593":5.868436813354492,"1594":4.684472560882568,"1595":-4.0882134437561035,"1596":-0.8723098635673523,"1597":1.3261818885803223,"1598":4.234715938568115,"1599":1.6736011505126953,"1600":6.998886585235596,"1601":-1.0919854640960693,"1602":0.14907532930374146,"1603":0.07005490362644196,"1604":6.143139839172363,"1605":1.1578919887542725,"1606":-0.03283938020467758,"1607":1.6584166288375854,"1608":10.473064422607422,"1609":4.594622611999512,"1610":0.38832131028175354,"1611":0.5209569931030273,"1612":-1.1762036085128784,"1613":-1.8569386005401611,"1614":-5.497402191162109,"1615":-5.3608574867248535,"1616":-0.20754602551460266,"1617":1.2839182615280151,"1618":0.5702227354049683,"1619":2.606132984161377,"1620":1.7900696992874146,"1621":2.1364614963531494,"1622":2.14758563041687,"1623":2.3496434688568115,"1624":-4.300988674163818,"1625":0.8336668610572815,"1626":-2.379007339477539,"1627":2.5393447875976562,"1628":-1.023417353630066,"1629":-1.1510956287384033,"1630":-5.336315155029297,"1631":0.2760915160179138,"1632":3.0944290161132812,"1633":1.5368787050247192,"1634":-3.8646607398986816,"1635":0.7711887955665588,"1636":0.9912170767784119,"1637":4.637248992919922,"1638":0.483216792345047,"1639":3.3514950275421143,"1640":-2.9077646732330322,"1641":-3.489016056060791,"1642":1.0518028736114502,"1643":-1.4978463649749756,"1644":-0.7667545676231384,"1645":1.1392295360565186,"1646":0.8260998725891113,"1647":-2.61387038230896,"1648":-2.340813398361206,"1649":-2.90921950340271,"1650":2.0023844242095947,"1651":-1.7953894138336182,"1652":-0.02617921307682991,"1653":-5.31197452545166,"1654":-2.4109020233154297,"1655":-2.2712934017181396,"1656":1.1848373413085938,"1657":-0.2661207318305969,"1658":3.192042112350464,"1659":0.8027249574661255,"1660":1.5539616346359253,"1661":0.5967862010002136,"1662":-0.9687000513076782,"1663":1.5414608716964722,"1664":2.0865793228149414,"1665":1.358638048171997,"1666":-0.45152080059051514,"1667":0.045093387365341187,"1668":1.1322270631790161,"1669":-1.3590627908706665,"1670":1.9137300252914429,"1671":-1.1325948238372803,"1672":1.2036641836166382,"1673":-4.164809703826904,"1674":-1.1547733545303345,"1675":-0.2509635388851166,"1676":2.3123600482940674,"1677":2.363198757171631,"1678":-4.4892706871032715,"1679":-0.5686537027359009,"1680":0.5419135689735413,"1681":0.4176367223262787,"1682":0.9653657078742981,"1683":2.5432846546173096,"1684":0.915033757686615,"1685":1.567587971687317,"1686":-4.80018424987793,"1687":-11.467029571533203,"1688":-4.411213397979736,"1689":-0.7202104926109314,"1690":-2.1872072219848633,"1691":-0.3657584488391876,"1692":6.554621696472168,"1693":-4.237674713134766,"1694":4.111828804016113,"1695":5.892182350158691,"1696":-1.659383773803711,"1697":2.9189329147338867,"1698":6.785554885864258,"1699":0.6540526747703552,"1700":5.5907745361328125,"1701":-3.392839193344116,"1702":2.1480515003204346,"1703":6.152765274047852,"1704":8.72862434387207,"1705":8.810580253601074,"1706":0.7217044830322266,"1707":-0.7911782264709473,"1708":-6.160137176513672,"1709":14.255534172058105,"1710":-3.4479198455810547,"1711":-4.858747959136963,"1712":-3.4096662998199463,"1713":3.538438320159912,"1714":-0.16026926040649414,"1715":1.02022123336792,"1716":-3.924787998199463,"1717":-1.7464615106582642,"1718":-11.856995582580566,"1719":3.174701452255249,"1720":-2.6726105213165283,"1721":-5.286353588104248,"1722":15.501903533935547,"1723":0.7484026551246643,"1724":2.062598466873169,"1725":5.818872928619385,"1726":-1.382088303565979,"1727":-1.898667812347412,"1728":-3.870077133178711,"1729":3.9734842777252197,"1730":3.0515263080596924,"1731":-1.5556713342666626,"1732":9.404605865478516,"1733":-6.9599528312683105,"1734":-0.4288097321987152,"1735":-0.3734521269798279,"1736":-3.8203656673431396,"1737":0.6270670890808105,"1738":-4.467640399932861,"1739":0.7089921832084656,"1740":0.8522858023643494,"1741":0.9692534804344177,"1742":-2.898390293121338,"1743":-8.282902717590332,"1744":7.898080348968506,"1745":7.35817289352417,"1746":0.4264032244682312,"1747":5.3230814933776855,"1748":-3.2619245052337646,"1749":-5.861770153045654,"1750":5.937668800354004,"1751":0.283520370721817,"1752":6.4268083572387695,"1753":1.5049643516540527,"1754":-3.586138963699341,"1755":-4.0309062004089355,"1756":-3.297814130783081,"1757":-1.6470285654067993,"1758":-0.745429277420044,"1759":0.6165045499801636,"1760":2.0795185565948486,"1761":-3.826327323913574,"1762":8.868152618408203,"1763":-1.6356937885284424,"1764":-0.8087623119354248,"1765":1.84300696849823,"1766":2.485830307006836,"1767":-2.049487590789795,"1768":-2.155881881713867,"1769":1.1387217044830322,"1770":-4.735164642333984,"1771":1.978381633758545,"1772":6.072990417480469,"1773":0.44251400232315063,"1774":6.843711853027344,"1775":0.5767114162445068,"1776":-5.204383373260498,"1777":-1.8944077491760254,"1778":0.5682897567749023,"1779":4.442510604858398,"1780":-8.76451587677002,"1781":-0.4450061023235321,"1782":-5.341060161590576,"1783":1.1778910160064697,"1784":-2.792746067047119,"1785":6.345093727111816,"1786":7.4447174072265625,"1787":-0.04464676231145859,"1788":3.0532052516937256,"1789":2.670957326889038,"1790":5.288228988647461,"1791":-1.9769984483718872,"1792":3.475088119506836,"1793":11.999129295349121,"1794":4.84576416015625,"1795":-10.528818130493164,"1796":-12.4129056930542,"1797":-7.157051086425781,"1798":-9.230873107910156,"1799":1.359656572341919,"1800":-6.352962493896484,"1801":-2.654270648956299,"1802":-0.7735035419464111,"1803":-0.06299921125173569,"1804":1.1189101934432983,"1805":5.973576545715332,"1806":-6.508200645446777,"1807":-1.05764901638031,"1808":-6.764671802520752,"1809":8.724047660827637,"1810":-2.9988269805908203,"1811":-0.5583319664001465,"1812":-3.3937108516693115,"1813":-0.5128344297409058,"1814":1.3117538690567017,"1815":-4.2465739250183105,"1816":0.2573273479938507,"1817":10.508133888244629,"1818":1.2231504917144775,"1819":0.6076311469078064,"1820":-5.990706920623779,"1821":1.3967849016189575,"1822":-0.9660475254058838,"1823":-0.6324421763420105,"1824":-2.1822376251220703,"1825":-7.117800712585449,"1826":0.14770054817199707,"1827":-0.5133013129234314,"1828":-10.462605476379395,"1829":-5.782995223999023,"1830":1.3563649654388428,"1831":1.5562033653259277,"1832":-4.14395809173584,"1833":10.739505767822266,"1834":8.81931209564209,"1835":10.667546272277832,"1836":5.527230739593506,"1837":-1.7878727912902832,"1838":-4.671456336975098,"1839":4.266322612762451,"1840":1.6425553560256958,"1841":1.3299740552902222,"1842":1.4963451623916626,"1843":-4.171217918395996,"1844":-1.718626856803894,"1845":-2.2546441555023193,"1846":3.128629446029663,"1847":4.768228530883789,"1848":5.705719470977783,"1849":4.294407844543457,"1850":-1.1848697662353516,"1851":5.208103656768799,"1852":-3.9547691345214844,"1853":-6.813971042633057,"1854":4.194250106811523,"1855":7.405763626098633,"1856":-8.003271102905273,"1857":-3.6108078956604004,"1858":-9.878559112548828,"1859":3.8572423458099365,"1860":-5.4957122802734375,"1861":4.886770248413086,"1862":1.0891029834747314,"1863":2.763087272644043,"1864":5.272246837615967,"1865":0.8603031039237976,"1866":-6.45681619644165,"1867":3.6824700832366943,"1868":7.187941551208496,"1869":1.7556012868881226,"1870":-4.967379570007324,"1871":7.37973165512085,"1872":-0.8741393089294434,"1873":-3.63212251663208,"1874":8.075721740722656,"1875":-9.890924453735352,"1876":6.5873236656188965,"1877":-5.275924205780029,"1878":-3.3835203647613525,"1879":-1.1356515884399414,"1880":-2.2646396160125732,"1881":4.010919094085693,"1882":0.9781677722930908,"1883":-1.600388526916504,"1884":-0.9490735530853271,"1885":-6.21734094619751,"1886":-1.2428715229034424,"1887":-2.38188099861145,"1888":-0.19580376148223877,"1889":2.1360557079315186,"1890":-0.2364184856414795,"1891":7.526582717895508,"1892":8.664844512939453,"1893":-9.710411071777344,"1894":2.54172420501709,"1895":-6.038832187652588,"1896":2.468592882156372,"1897":0.6135201454162598,"1898":2.4561164379119873,"1899":3.567507028579712,"1900":-0.897813618183136,"1901":3.6747195720672607,"1902":-1.5510108470916748,"1903":-0.27024972438812256,"1904":0.5514073967933655,"1905":2.391171455383301,"1906":0.6349923014640808,"1907":-7.034419059753418,"1908":-1.8677868843078613,"1909":-5.095225811004639,"1910":-2.6284399032592773,"1911":-2.216607093811035,"1912":6.019546985626221,"1913":-7.979836463928223,"1914":-0.6371656060218811,"1915":2.9293711185455322,"1916":-2.877272129058838,"1917":-5.504966735839844,"1918":-0.04953548684716225,"1919":6.435033321380615,"1920":-1.5339076519012451,"1921":3.5812525749206543,"1922":13.058798789978027,"1923":-6.050299167633057,"1924":3.734151840209961,"1925":-2.1880221366882324,"1926":2.0501999855041504,"1927":5.151176929473877,"1928":-9.44257926940918,"1929":-7.153810977935791,"1930":3.986140251159668,"1931":2.0924761295318604,"1932":-4.267586708068848,"1933":-1.4307880401611328,"1934":0.5640286803245544,"1935":-6.882262706756592,"1936":0.5728846788406372,"1937":5.845073699951172,"1938":-1.8627092838287354,"1939":-5.671609878540039,"1940":-0.2765518128871918,"1941":-1.4509968757629395,"1942":0.30723825097084045,"1943":-3.080721616744995,"1944":-7.450784683227539,"1945":0.6968695521354675,"1946":0.5380001068115234,"1947":-1.3054779767990112,"1948":8.75933837890625,"1949":7.940073490142822,"1950":6.819986820220947,"1951":3.0645899772644043,"1952":-1.2798316478729248,"1953":0.48054200410842896,"1954":5.47429084777832,"1955":-7.02024507522583,"1956":2.8362362384796143,"1957":2.3660006523132324,"1958":-0.4671896696090698,"1959":-0.003768797032535076,"1960":-10.563502311706543,"1961":-4.06171178817749,"1962":-1.9497790336608887,"1963":7.104608535766602,"1964":-8.046785354614258,"1965":-3.1724252700805664,"1966":6.925887584686279,"1967":5.982245922088623,"1968":-4.824268817901611,"1969":4.6780924797058105,"1970":11.969884872436523,"1971":5.122819900512695,"1972":0.36555665731430054,"1973":1.1629279851913452,"1974":-6.460275173187256,"1975":7.565112113952637,"1976":6.784640312194824,"1977":-12.846980094909668,"1978":3.4640374183654785,"1979":0.6286859512329102,"1980":-1.003067135810852,"1981":4.488818645477295,"1982":7.281686305999756,"1983":7.129512310028076,"1984":0.21808704733848572,"1985":-5.811583042144775,"1986":-8.198173522949219,"1987":-3.1745920181274414,"1988":1.0446524620056152,"1989":1.1847611665725708,"1990":0.3733851909637451,"1991":-3.2918314933776855,"1992":5.232056140899658,"1993":3.2955517768859863,"1994":0.7368271946907043,"1995":2.2400035858154297,"1996":0.827206552028656,"1997":3.9167423248291016,"1998":-3.6340646743774414,"1999":2.398531913757324,"2000":-2.0020508766174316,"2001":3.2962849140167236,"2002":3.336277961730957,"2003":-1.551509141921997,"2004":1.6674809455871582,"2005":0.2678133249282837,"2006":-1.647532343864441,"2007":1.053910732269287,"2008":3.065512180328369,"2009":-1.925671100616455,"2010":0.7054142951965332,"2011":-5.931517124176025,"2012":3.6690673828125,"2013":0.1441674679517746,"2014":-1.1703391075134277,"2015":-3.8840274810791016,"2016":2.045743942260742,"2017":0.4433797299861908,"2018":6.416738510131836,"2019":0.24055708944797516,"2020":0.2191121131181717,"2021":2.1061925888061523,"2022":0.00879279337823391,"2023":0.308014839887619,"2024":0.6469687819480896,"2025":-3.7884061336517334,"2026":0.7921280264854431,"2027":3.9040117263793945,"2028":-1.3352662324905396,"2029":5.489920139312744,"2030":-3.574300527572632,"2031":0.027124954387545586,"2032":-1.1325446367263794,"2033":0.32470494508743286,"2034":6.026534557342529,"2035":-2.1634416580200195,"2036":-6.778911590576172,"2037":-5.335806369781494,"2038":-3.7127325534820557,"2039":1.3159549236297607,"2040":-7.117744445800781,"2041":-3.7013120651245117,"2042":-2.123676061630249,"2043":1.8660871982574463,"2044":5.001832008361816,"2045":6.276937007904053,"2046":-11.782325744628906,"2047":-2.8250670433044434,"2048":3.609699249267578,"2049":-5.54698371887207,"2050":7.225493907928467,"2051":5.310367107391357,"2052":5.5588202476501465,"2053":-1.5359015464782715,"2054":2.940192222595215,"2055":-4.425118446350098,"2056":-4.480626583099365,"2057":-8.539573669433594,"2058":0.9066001176834106,"2059":-5.825074672698975,"2060":5.6611785888671875,"2061":1.6557857990264893,"2062":-2.137784004211426,"2063":-0.9092896580696106,"2064":3.7173099517822266,"2065":-2.259183883666992,"2066":2.9646661281585693,"2067":2.638714551925659,"2068":1.514809012413025,"2069":-5.9490203857421875,"2070":-0.9009335041046143,"2071":7.63279914855957,"2072":-5.9612627029418945,"2073":2.7253880500793457,"2074":-1.418336033821106,"2075":-2.0828607082366943,"2076":-6.406471252441406,"2077":3.47432804107666,"2078":12.018033981323242,"2079":-1.8209593296051025,"2080":-1.5863441228866577,"2081":3.909665584564209,"2082":1.973831295967102,"2083":12.744291305541992,"2084":3.0131642818450928,"2085":0.5152450799942017,"2086":-6.093182563781738,"2087":-4.126805782318115,"2088":1.6101884841918945,"2089":1.8333607912063599,"2090":5.8024678230285645,"2091":-1.5687363147735596,"2092":10.366050720214844,"2093":-5.928619861602783,"2094":-4.817573547363281,"2095":2.3178153038024902,"2096":0.3665277361869812,"2097":-0.7139708399772644,"2098":-3.7386186122894287,"2099":6.5427093505859375,"2100":3.6948111057281494,"2101":-1.7716461420059204,"2102":-6.791330814361572,"2103":-0.3251350224018097,"2104":0.9075019955635071,"2105":-5.1474809646606445,"2106":2.7154250144958496,"2107":0.30281439423561096,"2108":-0.8751631379127502,"2109":4.801600933074951,"2110":0.5707481503486633,"2111":-0.8039731383323669,"2112":-1.061010479927063,"2113":-3.831573486328125,"2114":1.515916347503662,"2115":1.7148985862731934,"2116":-0.34221917390823364,"2117":-7.866392135620117,"2118":-1.085681438446045,"2119":-3.515875816345215,"2120":9.33160400390625,"2121":7.307811737060547,"2122":-6.060768127441406,"2123":-5.913528919219971,"2124":-6.023375034332275,"2125":5.3011651039123535,"2126":-3.7986040115356445,"2127":-1.3611066341400146,"2128":-8.849013328552246,"2129":8.650120735168457,"2130":-3.6860663890838623,"2131":1.6065796613693237,"2132":7.310667037963867,"2133":4.889915466308594,"2134":7.200604438781738,"2135":-10.343120574951172,"2136":-3.6279137134552,"2137":0.5654934644699097,"2138":-1.1895807981491089,"2139":-1.190287709236145,"2140":-2.519911527633667,"2141":0.5840678811073303,"2142":2.1783132553100586,"2143":7.584621906280518,"2144":2.4880831241607666,"2145":-6.061806678771973,"2146":-9.359496116638184,"2147":0.42668598890304565,"2148":-1.1613049507141113,"2149":14.698793411254883,"2150":-9.254297256469727,"2151":-0.2522928714752197,"2152":-3.0766994953155518,"2153":-8.26773452758789,"2154":2.5608294010162354,"2155":-3.7505297660827637,"2156":-12.500173568725586,"2157":6.075163841247559,"2158":-4.785404682159424,"2159":6.8830647468566895,"2160":-3.2264537811279297,"2161":-2.661379337310791,"2162":4.342997074127197,"2163":3.368013858795166,"2164":8.750021934509277,"2165":-2.40047550201416,"2166":4.861291408538818,"2167":1.8427447080612183,"2168":3.2036736011505127,"2169":-0.6527332067489624,"2170":-1.2407492399215698,"2171":-2.0470590591430664,"2172":9.226492881774902,"2173":-5.328537464141846,"2174":3.1895813941955566,"2175":-1.2101207971572876,"2176":6.0061259269714355,"2177":0.35885635018348694,"2178":-4.28571081161499,"2179":-5.271998882293701,"2180":-5.037010669708252,"2181":8.691413879394531,"2182":-8.167628288269043,"2183":3.348418951034546,"2184":2.635202407836914,"2185":-11.679795265197754,"2186":-2.9510562419891357,"2187":-2.766726016998291,"2188":-9.735967636108398,"2189":5.776492595672607,"2190":7.88159704208374,"2191":2.085265874862671,"2192":-7.100675106048584,"2193":6.582115650177002,"2194":7.213339328765869,"2195":7.496923923492432,"2196":-3.0254011154174805,"2197":-3.438091278076172,"2198":-3.608208179473877,"2199":3.5637118816375732,"2200":2.1073195934295654,"2201":3.4193367958068848,"2202":7.654653549194336,"2203":-2.8729939460754395,"2204":-5.10582160949707,"2205":3.0548465251922607,"2206":-2.7496867179870605,"2207":4.15529727935791,"2208":0.7836288809776306,"2209":-1.3047072887420654,"2210":12.177302360534668,"2211":-2.4814908504486084,"2212":-6.551794052124023,"2213":5.5518903732299805,"2214":9.07589340209961,"2215":-1.4899287223815918,"2216":0.7472087144851685,"2217":-5.434602737426758,"2218":-6.46930456161499,"2219":2.9098875522613525,"2220":8.202472686767578,"2221":5.449643135070801,"2222":4.996422290802002,"2223":-1.33854341506958,"2224":0.49853357672691345,"2225":7.697221279144287,"2226":-5.0482354164123535,"2227":5.060933589935303,"2228":1.6340961456298828,"2229":7.2358622550964355,"2230":-9.723587989807129,"2231":-4.2552995681762695,"2232":-7.238039970397949,"2233":-2.6351318359375,"2234":0.5938625335693359,"2235":11.387033462524414,"2236":-9.987726211547852,"2237":-1.4454425573349,"2238":-12.282073974609375,"2239":2.4802002906799316,"2240":4.961181640625,"2241":2.182701349258423,"2242":1.4684020280838013,"2243":-6.143821716308594,"2244":-3.1393587589263916,"2245":-7.598580360412598,"2246":-3.588427782058716,"2247":6.509261608123779,"2248":4.639580726623535,"2249":1.21222984790802,"2250":10.544258117675781,"2251":-1.9022549390792847,"2252":10.764533996582031,"2253":-2.142280340194702,"2254":-1.1777859926223755,"2255":2.2066521644592285,"2256":-0.5466000437736511,"2257":-6.349632263183594,"2258":4.937934398651123,"2259":-2.3865559101104736,"2260":-0.7943927645683289,"2261":-0.6096800565719604,"2262":2.885741710662842,"2263":-1.8078044652938843,"2264":-7.170971393585205,"2265":-4.390366554260254,"2266":0.35968565940856934,"2267":0.7334206700325012,"2268":-4.637983322143555,"2269":4.610978603363037,"2270":-1.8628902435302734,"2271":-0.09699565917253494,"2272":4.675173282623291,"2273":3.0290372371673584,"2274":-1.820637583732605,"2275":1.0379960536956787,"2276":-2.354444742202759,"2277":-2.7840797901153564,"2278":4.317440032958984,"2279":-0.173790842294693,"2280":-5.224554061889648,"2281":-1.4041954278945923,"2282":1.3051767349243164,"2283":-4.510589599609375,"2284":1.1640533208847046,"2285":-3.195857524871826,"2286":1.4716428518295288,"2287":3.327317476272583,"2288":-6.330246448516846,"2289":9.381641387939453,"2290":-7.055938243865967,"2291":-0.9021375179290771,"2292":2.692732810974121,"2293":-8.568140983581543,"2294":-5.794896602630615,"2295":1.647127628326416,"2296":-6.70283317565918,"2297":5.35196590423584,"2298":-4.712735652923584,"2299":5.672539710998535,"2300":0.08615835011005402,"2301":-3.0944483280181885,"2302":-5.486422061920166,"2303":0.8294587135314941,"2304":0.7498267292976379,"2305":-0.31626710295677185,"2306":1.7126264572143555,"2307":8.096489906311035,"2308":6.607905387878418,"2309":-1.3121222257614136,"2310":-3.4378929138183594,"2311":1.9345864057540894,"2312":0.06702328473329544,"2313":1.1283386945724487,"2314":8.114123344421387,"2315":-1.905299425125122,"2316":-1.7868648767471313,"2317":-2.6817874908447266,"2318":3.842580795288086,"2319":-2.5919604301452637,"2320":-0.5221766829490662,"2321":-4.669717311859131,"2322":5.015882968902588,"2323":3.547651767730713,"2324":-4.232419490814209,"2325":-8.120100975036621,"2326":-3.0594186782836914,"2327":-0.09994745254516602,"2328":-3.113037109375,"2329":-3.7303810119628906,"2330":3.458111047744751,"2331":-3.665766477584839,"2332":4.95167875289917,"2333":3.6175920963287354,"2334":1.55775785446167,"2335":5.786369323730469,"2336":-1.8323274850845337,"2337":-2.2965359687805176,"2338":-4.829345226287842,"2339":-1.336673617362976,"2340":-0.07304707169532776,"2341":3.8536248207092285,"2342":-2.1400039196014404,"2343":-9.128913879394531,"2344":2.983006238937378,"2345":8.38475513458252,"2346":-4.390579700469971,"2347":-0.30962952971458435,"2348":1.0579882860183716,"2349":-6.3655686378479,"2350":2.2532176971435547,"2351":11.817792892456055,"2352":1.956641674041748,"2353":6.433060169219971,"2354":7.560698986053467,"2355":-5.8037543296813965,"2356":-2.196882963180542,"2357":-8.978734970092773,"2358":4.224382400512695,"2359":0.07938659936189651,"2360":5.595424175262451,"2361":0.3559696674346924,"2362":-8.268599510192871,"2363":6.336182117462158,"2364":-1.9042694568634033,"2365":-2.165741443634033,"2366":5.55504035949707,"2367":-10.014968872070312,"2368":1.4640215635299683,"2369":-5.793449878692627,"2370":4.4766387939453125,"2371":-1.9568381309509277,"2372":1.981338381767273,"2373":4.400174617767334,"2374":0.4203639030456543,"2375":-4.4187331199646,"2376":0.664060115814209,"2377":2.147920846939087,"2378":5.168378829956055,"2379":4.95803689956665,"2380":-0.42439761757850647,"2381":0.5268086194992065,"2382":7.5329084396362305,"2383":-11.043364524841309,"2384":5.011373519897461,"2385":-5.729028701782227,"2386":-10.000567436218262,"2387":-1.572690725326538,"2388":0.21629619598388672,"2389":1.8769268989562988,"2390":-7.452131271362305,"2391":0.6852782368659973,"2392":-2.207231044769287,"2393":-3.5970797538757324,"2394":10.14637565612793,"2395":-5.812450885772705,"2396":-0.24981506168842316,"2397":10.178780555725098,"2398":5.619292259216309,"2399":10.770119667053223,"2400":-8.341084480285645,"2401":0.09201762080192566,"2402":-7.924818992614746,"2403":10.900530815124512,"2404":-3.2149546146392822,"2405":-9.458003044128418,"2406":1.214160680770874,"2407":4.090086460113525,"2408":-7.203314304351807,"2409":5.82320499420166,"2410":-1.1928906440734863,"2411":8.258380889892578,"2412":1.7310060262680054,"2413":-3.7208428382873535,"2414":-0.22392791509628296,"2415":-4.721613883972168,"2416":4.492894172668457,"2417":-4.7452473640441895,"2418":4.755876064300537,"2419":2.693774700164795,"2420":3.2520320415496826,"2421":2.8327629566192627,"2422":1.0162994861602783,"2423":1.769791603088379,"2424":-1.149869441986084,"2425":-0.2726508378982544,"2426":5.061984062194824,"2427":13.2249755859375,"2428":-8.570042610168457,"2429":2.6814303398132324,"2430":1.3415050506591797,"2431":6.685039043426514,"2432":3.3103628158569336,"2433":-8.669452667236328,"2434":-9.419710159301758,"2435":-7.675257205963135,"2436":7.584600925445557,"2437":-6.214059829711914,"2438":-6.23350715637207,"2439":5.683040142059326,"2440":-6.427634239196777,"2441":3.566833734512329,"2442":-6.659607887268066,"2443":6.335545063018799,"2444":0.08054141700267792,"2445":1.276357650756836,"2446":10.553487777709961,"2447":-0.6053692102432251,"2448":-10.107644081115723,"2449":2.0476317405700684,"2450":-7.101149082183838,"2451":-0.23852190375328064,"2452":2.2252988815307617,"2453":3.9405906200408936,"2454":-8.411933898925781,"2455":0.921545147895813,"2456":-0.2628999948501587,"2457":-4.8147125244140625,"2458":-0.06266842037439346,"2459":-0.5939672589302063,"2460":0.12206564843654633,"2461":-0.9433741569519043,"2462":3.722026824951172,"2463":-2.4490296840667725,"2464":4.100976467132568,"2465":-1.9939908981323242,"2466":2.888458728790283,"2467":1.4978691339492798,"2468":-2.8407528400421143,"2469":-2.1365413665771484,"2470":-8.372319221496582,"2471":4.1508307456970215,"2472":6.748439788818359,"2473":7.669637203216553,"2474":5.351786136627197,"2475":-2.4390769004821777,"2476":2.63722562789917,"2477":4.770894527435303,"2478":-2.029514789581299,"2479":7.748839378356934,"2480":2.3442916870117188,"2481":6.806053161621094,"2482":-6.373210906982422,"2483":-2.085547924041748,"2484":-7.432894706726074,"2485":5.483424663543701,"2486":0.7603365182876587,"2487":-0.24028047919273376,"2488":2.496448040008545,"2489":-2.6025638580322266,"2490":-2.3717570304870605,"2491":8.061598777770996,"2492":1.7638287544250488,"2493":0.7489281892776489,"2494":-1.1791199445724487,"2495":-8.246891021728516,"2496":-5.763860702514648,"2497":-5.833542823791504,"2498":0.10178971290588379,"2499":-0.255255788564682,"2500":-2.5339040756225586,"2501":1.2651329040527344,"2502":-1.5847132205963135,"2503":2.47147274017334,"2504":2.1964852809906006,"2505":-1.6568020582199097,"2506":-5.147045612335205,"2507":0.2648795545101166,"2508":1.961064100265503,"2509":-0.529399037361145,"2510":2.750546932220459,"2511":-0.4879752993583679,"2512":1.8468149900436401,"2513":-0.24724268913269043,"2514":-0.17377564311027527,"2515":-1.0967810153961182,"2516":-1.3719258308410645,"2517":-0.8509752154350281,"2518":-0.4665602445602417,"2519":-2.5161349773406982,"2520":-0.12944626808166504,"2521":-0.5639182329177856,"2522":3.2774219512939453,"2523":-1.4670395851135254,"2524":0.6572680473327637,"2525":-1.4823845624923706,"2526":0.4960409700870514,"2527":0.04116632044315338,"2528":-1.8849241733551025,"2529":-0.6063880920410156,"2530":-0.5836089849472046,"2531":0.4611516296863556,"2532":-0.586823046207428,"2533":-4.379373073577881,"2534":1.0596126317977905,"2535":1.1239591836929321,"2536":1.5576425790786743,"2537":-0.1791396141052246,"2538":-0.5767940282821655,"2539":0.4238438606262207,"2540":0.5515162348747253,"2541":-0.9793153405189514,"2542":0.11099739372730255,"2543":0.4554949104785919,"2544":2.1602609157562256,"2545":0.6557866930961609,"2546":-0.26287713646888733,"2547":-0.2622258961200714,"2548":3.6746208667755127,"2549":0.33368369936943054,"2550":1.0064916610717773,"2551":-1.6437543630599976,"2552":-0.28815633058547974,"2553":-3.1474905014038086,"2554":-0.023699525743722916,"2555":0.873114287853241,"2556":-0.8251581192016602,"2557":-1.383293867111206,"2558":1.8886505365371704,"2559":3.2090189456939697,"2560":0.05773218721151352,"2561":0.019958151504397392,"2562":-0.19602671265602112,"2563":-1.081949234008789,"2564":-1.2802592515945435,"2565":1.6510218381881714,"2566":1.1760410070419312,"2567":0.05349638685584068,"2568":-4.026599884033203,"2569":0.8144280314445496,"2570":0.32581663131713867,"2571":1.8214342594146729,"2572":1.8185423612594604,"2573":0.3756946325302124,"2574":-1.2477437257766724,"2575":-0.43837568163871765,"2576":2.097975730895996,"2577":-0.5582833290100098,"2578":0.14224956929683685,"2579":-1.6317384243011475,"2580":0.3236333131790161,"2581":-0.2141069918870926,"2582":-0.23781436681747437,"2583":1.2816083431243896,"2584":0.3792238235473633,"2585":0.09301567077636719,"2586":1.3064050674438477,"2587":-0.8220871090888977,"2588":0.282787948846817,"2589":4.310064792633057,"2590":0.7081925868988037,"2591":0.3680916726589203,"2592":2.2730307579040527,"2593":-0.6207680106163025,"2594":-0.6880053877830505,"2595":-3.4229371547698975,"2596":3.027437448501587,"2597":-0.305529922246933,"2598":-0.7029331922531128,"2599":2.482440233230591,"2600":0.16052578389644623,"2601":0.09065423160791397,"2602":0.12679213285446167,"2603":-0.38129884004592896,"2604":-0.1593097448348999,"2605":-0.05348315089941025,"2606":0.3710305392742157,"2607":-0.45890313386917114,"2608":-0.15512999892234802,"2609":-0.007534058764576912,"2610":0.24950745701789856,"2611":0.08087776601314545,"2612":0.17833076417446136,"2613":0.2988055646419525,"2614":-0.08251699060201645,"2615":-0.043765027076005936,"2616":-0.24232125282287598,"2617":-0.13768082857131958,"2618":-0.15425516664981842,"2619":0.2152642458677292,"2620":-0.05719944089651108,"2621":-0.08860205113887787,"2622":-0.0647604912519455,"2623":0.3638705015182495,"2624":0.1497863531112671,"2625":0.059704311192035675,"2626":0.1542031317949295,"2627":0.4505460560321808,"2628":-0.0022544031962752342,"2629":0.09883341938257217,"2630":0.0412512831389904,"2631":0.39816373586654663,"2632":-0.13001027703285217,"2633":0.09234999865293503,"2634":-0.2906070053577423,"2635":-0.20562510192394257,"2636":0.18481485545635223,"2637":-0.18691936135292053,"2638":0.21229295432567596,"2639":0.0326291024684906,"2640":0.28566426038742065,"2641":-0.49694308638572693,"2642":0.21439237892627716,"2643":0.06745623052120209,"2644":-0.13780151307582855,"2645":0.019378088414669037,"2646":-0.15694275498390198,"2647":0.4999668002128601,"2648":0.09309780597686768,"2649":0.023628514260053635,"2650":0.17774876952171326,"2651":0.08804276585578918}},"hiddenLayers":[{"inputMatrix":{"rows":20,"columns":51,"weights":{"0":0.4433521330356598,"1":-0.6517003178596497,"2":-0.1862487643957138,"3":1.1913573741912842,"4":0.030509036034345627,"5":1.5710067749023438,"6":-0.6280301213264465,"7":0.755130410194397,"8":1.4352688789367676,"9":-0.7192788124084473,"10":1.4656189680099487,"11":1.8722524642944336,"12":0.9013713002204895,"13":1.0112180709838867,"14":1.1718122959136963,"15":1.2614834308624268,"16":0.5228971242904663,"17":-2.160552501678467,"18":-0.1020069271326065,"19":-0.6590530872344971,"20":1.4344571828842163,"21":-1.2098468542099,"22":1.4408892393112183,"23":0.0222164299339056,"24":-1.0420880317687988,"25":0.35007917881011963,"26":0.9331327080726624,"27":2.088994264602661,"28":2.0943174362182617,"29":-1.0281120538711548,"30":-2.206538677215576,"31":1.664169192314148,"32":0.5153570175170898,"33":-1.2360637187957764,"34":-4.031163692474365,"35":1.168372631072998,"36":-0.9089863300323486,"37":2.586343765258789,"38":1.0301424264907837,"39":-0.46298113465309143,"40":-0.023964563384652138,"41":-2.1572608947753906,"42":-2.2463607788085938,"43":1.118576169013977,"44":2.29461932182312,"45":0.9424323439598083,"46":-1.284410834312439,"47":-0.05499740689992905,"48":-0.10926446318626404,"49":-2.1783101558685303,"50":-0.6096526980400085,"51":0.06993938237428665,"52":0.22199131548404694,"53":0.05128875747323036,"54":0.5690268278121948,"55":0.6293365955352783,"56":-0.15418317914009094,"57":-0.8298173546791077,"58":1.3644582033157349,"59":1.1795240640640259,"60":0.18919023871421814,"61":0.5291028022766113,"62":-1.213575839996338,"63":-1.7649509906768799,"64":-0.12656401097774506,"65":1.6181741952896118,"66":-1.688867449760437,"67":-2.4365673065185547,"68":0.6694020628929138,"69":0.9924818873405457,"70":-3.252634048461914,"71":1.3720297813415527,"72":1.1522799730300903,"73":-1.566922903060913,"74":-1.797237753868103,"75":-1.3275991678237915,"76":0.9362135529518127,"77":-0.017445627599954605,"78":-2.176994800567627,"79":-1.807985782623291,"80":-0.5163979530334473,"81":0.9640659093856812,"82":0.11219581216573715,"83":0.9891659021377563,"84":1.9007564783096313,"85":-0.28128084540367126,"86":1.0626921653747559,"87":0.01691877655684948,"88":-0.2623244524002075,"89":-0.5838456153869629,"90":1.63003408908844,"91":-1.2845710515975952,"92":0.2783893048763275,"93":1.0960909128189087,"94":0.016351841390132904,"95":-1.3161112070083618,"96":0.7336920499801636,"97":-0.6436684727668762,"98":1.2284412384033203,"99":1.3721003532409668,"100":1.2982592582702637,"101":0.7848045229911804,"102":-0.0025666619185358286,"103":2.329885244369507,"104":0.2834303677082062,"105":-1.9228442907333374,"106":-0.8561535477638245,"107":-2.5962564945220947,"108":-0.01967841200530529,"109":-0.28731346130371094,"110":3.9369688034057617,"111":-2.112183094024658,"112":-0.918173611164093,"113":0.20183327794075012,"114":-0.7972314953804016,"115":-1.682911992073059,"116":0.04981711879372597,"117":-1.1983435153961182,"118":-2.0626895427703857,"119":0.6412857174873352,"120":-0.7641362547874451,"121":-0.568787157535553,"122":-1.7035801410675049,"123":-0.3743171989917755,"124":0.2318708896636963,"125":-0.7193065285682678,"126":-0.059051379561424255,"127":0.11627496033906937,"128":-0.5992162823677063,"129":-0.9683430790901184,"130":-0.8065502643585205,"131":-1.5230295658111572,"132":2.341981887817383,"133":1.4911001920700073,"134":-3.1923229694366455,"135":-0.05865857005119324,"136":-0.07256638258695602,"137":-0.20119021832942963,"138":0.012398572638630867,"139":-2.5961055755615234,"140":0.06496652215719223,"141":1.0908763408660889,"142":-3.3242149353027344,"143":0.24919326603412628,"144":1.1270666122436523,"145":-1.2361552715301514,"146":-0.03249449282884598,"147":0.6611529588699341,"148":-0.4607847332954407,"149":-0.14473779499530792,"150":2.9320273399353027,"151":1.5372000932693481,"152":-0.80460125207901,"153":1.5104234218597412,"154":-0.5371844172477722,"155":-0.8827285766601562,"156":0.749006986618042,"157":-0.22087740898132324,"158":2.1063878536224365,"159":0.9881254434585571,"160":-0.2707774341106415,"161":1.6053879261016846,"162":0.4125145673751831,"163":-0.35678020119667053,"164":2.023240089416504,"165":0.37558791041374207,"166":-0.3619793653488159,"167":1.4994962215423584,"168":-0.043189458549022675,"169":0.4537275433540344,"170":-2.218859910964966,"171":-0.19859947264194489,"172":-0.20387518405914307,"173":-0.18846282362937927,"174":-0.4751926362514496,"175":-1.6932393312454224,"176":-0.824240505695343,"177":-1.1696696281433105,"178":-0.8511940240859985,"179":1.4476922750473022,"180":-0.08870238810777664,"181":0.32706159353256226,"182":1.6497570276260376,"183":-1.356603741645813,"184":-0.20552726089954376,"185":0.5956454873085022,"186":0.7778990864753723,"187":0.5671262741088867,"188":0.5549091696739197,"189":0.6398720741271973,"190":0.19207488000392914,"191":-0.643538773059845,"192":-1.6404722929000854,"193":-1.4837864637374878,"194":-0.6364431381225586,"195":-0.9709422588348389,"196":0.21714739501476288,"197":1.4640828371047974,"198":0.5521485805511475,"199":0.13560539484024048,"200":-2.2305033206939697,"201":0.5487675070762634,"202":-1.134398341178894,"203":-3.4093446731567383,"204":1.155173420906067,"205":-3.0027925968170166,"206":-1.5568678379058838,"207":-0.5869652628898621,"208":-0.6331079006195068,"209":0.7716549634933472,"210":-1.052611231803894,"211":2.7091026306152344,"212":-2.2389230728149414,"213":0.2956487536430359,"214":0.523733913898468,"215":1.8953502178192139,"216":0.9352216720581055,"217":-2.612572431564331,"218":-1.58113694190979,"219":1.2999191284179688,"220":-0.8266384601593018,"221":-1.654607892036438,"222":-1.126062273979187,"223":-0.12061487138271332,"224":-0.25130438804626465,"225":-0.9123905897140503,"226":1.9798904657363892,"227":-0.5752153992652893,"228":1.8224433660507202,"229":0.6312623620033264,"230":2.1608502864837646,"231":-0.3442095220088959,"232":-2.198201894760132,"233":-2.0945096015930176,"234":0.05090419575572014,"235":2.4382874965667725,"236":-0.6244570016860962,"237":0.659619152545929,"238":-0.01067404355853796,"239":-3.6187732219696045,"240":-0.5100303888320923,"241":0.1489742398262024,"242":0.6758871078491211,"243":0.8460572361946106,"244":-0.11026901006698608,"245":-0.12670248746871948,"246":-0.6700705289840698,"247":1.3978643417358398,"248":-1.5616918802261353,"249":-0.7088884115219116,"250":-1.891113042831421,"251":-0.3020014464855194,"252":0.5853133797645569,"253":0.4807998836040497,"254":-0.40541544556617737,"255":0.8349044322967529,"256":-1.5813080072402954,"257":-0.5451371073722839,"258":-0.2296556532382965,"259":0.7138544321060181,"260":1.3484522104263306,"261":2.9466073513031006,"262":-2.613826274871826,"263":-0.31139954924583435,"264":0.7765460014343262,"265":-2.4816372394561768,"266":-0.8810608386993408,"267":0.9659736156463623,"268":0.8966481685638428,"269":-1.5552111864089966,"270":-0.5942421555519104,"271":1.352003574371338,"272":-0.46557119488716125,"273":0.6941260695457458,"274":3.8169095516204834,"275":0.47766855359077454,"276":-1.6651870012283325,"277":0.3269437849521637,"278":2.150399923324585,"279":0.30438220500946045,"280":1.1819688081741333,"281":-0.13075606524944305,"282":-1.3408774137496948,"283":1.5546294450759888,"284":-1.2703570127487183,"285":0.46401548385620117,"286":-1.7476671934127808,"287":-1.4598701000213623,"288":-3.0901999473571777,"289":-0.560374915599823,"290":-1.340348720550537,"291":-0.9909501075744629,"292":1.3364490270614624,"293":-0.769534170627594,"294":0.5078635811805725,"295":-0.43523886799812317,"296":1.9380656480789185,"297":-1.50630521774292,"298":0.944381833076477,"299":-0.3563695251941681,"300":-1.0117626190185547,"301":1.8901935815811157,"302":-0.32352781295776367,"303":0.5414127707481384,"304":0.38104745745658875,"305":-2.570742607116699,"306":1.5115126371383667,"307":-0.39202845096588135,"308":-0.30555957555770874,"309":-1.8380804061889648,"310":0.8258196711540222,"311":3.046905517578125,"312":0.2558278441429138,"313":1.8739999532699585,"314":-0.8550182580947876,"315":-0.03988029807806015,"316":-1.0303678512573242,"317":0.5630861520767212,"318":-1.4512501955032349,"319":-0.9851620197296143,"320":0.7610074877738953,"321":0.6488739252090454,"322":-1.6182626485824585,"323":-0.3241993486881256,"324":0.6645923256874084,"325":-2.3893935680389404,"326":-1.7355808019638062,"327":-2.507241725921631,"328":1.0031946897506714,"329":-1.2827436923980713,"330":0.20882181823253632,"331":0.14116953313350677,"332":-0.38192513585090637,"333":-1.6450320482254028,"334":-3.3218417167663574,"335":-3.724187135696411,"336":0.174469992518425,"337":1.061935544013977,"338":2.9192392826080322,"339":1.4886378049850464,"340":1.2047827243804932,"341":0.03785041347146034,"342":0.49206000566482544,"343":-0.1935391128063202,"344":0.8165928721427917,"345":-2.483950138092041,"346":-0.5313659310340881,"347":-0.15088145434856415,"348":-0.716069221496582,"349":0.15882469713687897,"350":0.5383214950561523,"351":2.244480848312378,"352":-2.4905033111572266,"353":1.662726640701294,"354":0.37772589921951294,"355":1.322601556777954,"356":0.242681086063385,"357":2.469379186630249,"358":-0.061175767332315445,"359":-1.0170507431030273,"360":-0.5647410750389099,"361":1.2201752662658691,"362":1.163122534751892,"363":0.9508237242698669,"364":1.716371774673462,"365":-1.333653211593628,"366":1.426458716392517,"367":-1.9356673955917358,"368":-0.7227841019630432,"369":-1.7789231538772583,"370":-2.9479787349700928,"371":2.027134418487549,"372":0.42955026030540466,"373":-1.4966307878494263,"374":0.3832210302352905,"375":-0.38916558027267456,"376":-0.8659498691558838,"377":0.05165567994117737,"378":-1.0516273975372314,"379":1.16233491897583,"380":0.04686274752020836,"381":2.1749205589294434,"382":1.2837073802947998,"383":0.82663893699646,"384":-1.0934498310089111,"385":-2.192012310028076,"386":-0.6987687349319458,"387":0.007748674135655165,"388":-0.4084981381893158,"389":1.6015428304672241,"390":0.8862862586975098,"391":1.8387987613677979,"392":0.7916658520698547,"393":1.4831678867340088,"394":0.3960699439048767,"395":-1.0183234214782715,"396":-0.13378125429153442,"397":-3.7439138889312744,"398":-0.8300942778587341,"399":0.3039773404598236,"400":-0.4422420859336853,"401":0.7340488433837891,"402":0.12675456702709198,"403":0.29924139380455017,"404":1.163116693496704,"405":2.707333564758301,"406":0.4218346178531647,"407":-1.4403201341629028,"408":0.334313303232193,"409":-0.7090336084365845,"410":-0.19160206615924835,"411":2.254392147064209,"412":-1.068176031112671,"413":0.10032780468463898,"414":2.492645740509033,"415":-1.3537601232528687,"416":2.435810089111328,"417":2.136690855026245,"418":-1.094701886177063,"419":-1.1865277290344238,"420":-0.990120530128479,"421":-1.094953179359436,"422":-0.26483091711997986,"423":-0.49683713912963867,"424":-1.1322764158248901,"425":-2.3930225372314453,"426":-0.5228825807571411,"427":-0.27585604786872864,"428":0.629576563835144,"429":0.8774423003196716,"430":0.8461047410964966,"431":-1.0135338306427002,"432":-1.5937856435775757,"433":0.28043612837791443,"434":-0.3765254020690918,"435":-1.4618133306503296,"436":-0.8320056200027466,"437":1.5364230871200562,"438":0.04794560372829437,"439":-2.325698137283325,"440":-1.184631586074829,"441":-1.5518560409545898,"442":0.5705508589744568,"443":0.7836944460868835,"444":0.29239600896835327,"445":1.21658456325531,"446":0.9117560386657715,"447":-0.004932920448482037,"448":-1.9523733854293823,"449":0.33835843205451965,"450":1.542824149131775,"451":-1.667431354522705,"452":-0.17289778590202332,"453":-1.4040155410766602,"454":0.5007678270339966,"455":-0.6416323184967041,"456":2.4890549182891846,"457":-0.609095573425293,"458":0.242071732878685,"459":0.1636677384376526,"460":-2.566117763519287,"461":0.6378235220909119,"462":-0.6171741485595703,"463":-0.7434283494949341,"464":-2.6314697265625,"465":-0.01241280511021614,"466":-1.2256771326065063,"467":0.3984670341014862,"468":-1.153166651725769,"469":0.45826736092567444,"470":0.5599702596664429,"471":-1.060050368309021,"472":0.6027190685272217,"473":-3.782395124435425,"474":1.0158506631851196,"475":0.6222614645957947,"476":-1.268823266029358,"477":-0.8969236612319946,"478":-0.22102157771587372,"479":1.4418755769729614,"480":0.7852893471717834,"481":2.274437189102173,"482":0.6740627288818359,"483":0.4615882933139801,"484":-1.6744827032089233,"485":-0.3454877436161041,"486":0.0004964630934409797,"487":-0.5310792922973633,"488":-1.5843826532363892,"489":-1.7429685592651367,"490":-0.9995831847190857,"491":-2.5326223373413086,"492":-1.6508605480194092,"493":-2.233027935028076,"494":-0.28088802099227905,"495":1.380347728729248,"496":2.0051329135894775,"497":0.010470687411725521,"498":0.7033043503761292,"499":-0.011583608575165272,"500":2.3061788082122803,"501":-0.6749968528747559,"502":-1.0240731239318848,"503":1.4207929372787476,"504":1.172162413597107,"505":-0.47936397790908813,"506":-0.951472818851471,"507":0.12954181432724,"508":0.9805012941360474,"509":-0.1765153706073761,"510":-1.0549346208572388,"511":3.350130319595337,"512":1.0575830936431885,"513":-0.31222471594810486,"514":1.167696237564087,"515":-1.6495022773742676,"516":2.869338035583496,"517":1.2644799947738647,"518":-0.3205435574054718,"519":-1.1615248918533325,"520":0.3506556451320648,"521":-2.8330488204956055,"522":0.46837565302848816,"523":-0.12349468469619751,"524":-1.4678782224655151,"525":-0.44213810563087463,"526":-0.3803871273994446,"527":1.2884701490402222,"528":0.3098795711994171,"529":0.5165319442749023,"530":-0.7052461504936218,"531":0.5599658489227295,"532":-1.8567280769348145,"533":1.0410568714141846,"534":-0.9986521005630493,"535":-1.130431890487671,"536":-0.6102045178413391,"537":0.30265411734580994,"538":-0.9121124744415283,"539":1.5752992630004883,"540":1.4537265300750732,"541":-1.654819130897522,"542":0.31016242504119873,"543":2.304950475692749,"544":1.9850530624389648,"545":0.7546685338020325,"546":1.4465147256851196,"547":-3.9940133094787598,"548":0.7878719568252563,"549":-1.5723811388015747,"550":0.6846274733543396,"551":0.469756156206131,"552":1.8688175678253174,"553":-1.2234622240066528,"554":1.7901101112365723,"555":-0.08892705291509628,"556":-0.13673700392246246,"557":1.481613039970398,"558":1.1066869497299194,"559":0.5764197707176208,"560":0.803092896938324,"561":-3.4595298767089844,"562":-0.3460615873336792,"563":-1.3140923976898193,"564":-0.6097787022590637,"565":-1.7961993217468262,"566":-0.4698738753795624,"567":-1.414137840270996,"568":-0.5530275702476501,"569":-0.6487464904785156,"570":-0.3367341458797455,"571":1.7550303936004639,"572":3.2989816665649414,"573":-0.3357155919075012,"574":-0.21695995330810547,"575":0.09809885919094086,"576":1.11284339427948,"577":1.0187139511108398,"578":-0.7177459001541138,"579":-1.499328374862671,"580":-2.059420347213745,"581":0.7130218148231506,"582":-0.46145308017730713,"583":-0.25193148851394653,"584":-0.22530469298362732,"585":0.5458530783653259,"586":-0.3730606436729431,"587":1.9330188035964966,"588":-0.5609134435653687,"589":-1.4993515014648438,"590":-0.9502769708633423,"591":0.8111149668693542,"592":-0.3055710792541504,"593":-2.516551971435547,"594":0.2343856394290924,"595":-1.3064161539077759,"596":-1.4081529378890991,"597":0.5683873891830444,"598":3.408444404602051,"599":0.04742792248725891,"600":-0.13550040125846863,"601":-0.04016970470547676,"602":0.6671015024185181,"603":-0.4726376235485077,"604":1.4871723651885986,"605":2.79347825050354,"606":-2.0316643714904785,"607":0.3121687173843384,"608":2.0772366523742676,"609":-1.8501501083374023,"610":1.3514206409454346,"611":-1.5254473686218262,"612":-0.10318031907081604,"613":0.16076801717281342,"614":0.3697555661201477,"615":1.9438656568527222,"616":-0.9993143081665039,"617":-0.048649031668901443,"618":0.8498769402503967,"619":-0.5673078298568726,"620":1.0706156492233276,"621":0.8553640842437744,"622":-3.310565710067749,"623":-0.8353805541992188,"624":-0.22983388602733612,"625":0.6272542476654053,"626":0.06137922778725624,"627":-0.19836950302124023,"628":-1.9789801836013794,"629":-2.192721366882324,"630":0.5421661138534546,"631":-0.9743536114692688,"632":1.501594066619873,"633":-1.5247670412063599,"634":0.90062415599823,"635":-1.2327429056167603,"636":0.10099129378795624,"637":-1.5135687589645386,"638":1.276477575302124,"639":0.021218469366431236,"640":-0.07606722414493561,"641":-1.0194928646087646,"642":-1.517137050628662,"643":-1.420872449874878,"644":0.358394980430603,"645":-0.5116746425628662,"646":-2.7409322261810303,"647":-0.6870988011360168,"648":-0.2638431489467621,"649":0.8377350568771362,"650":-1.0103328227996826,"651":0.936859130859375,"652":-1.685640811920166,"653":-0.21817056834697723,"654":-0.32133182883262634,"655":-2.981003522872925,"656":-1.093196153640747,"657":1.1547434329986572,"658":-0.6397518515586853,"659":0.07625226676464081,"660":1.5619690418243408,"661":-2.4214444160461426,"662":-3.931183338165283,"663":-1.5055499076843262,"664":1.5589510202407837,"665":0.09573104977607727,"666":-0.04382410645484924,"667":1.3917289972305298,"668":-0.5577068328857422,"669":1.4816712141036987,"670":0.09690943360328674,"671":2.710367202758789,"672":0.3345251679420471,"673":-2.2229976654052734,"674":-1.7894196510314941,"675":-0.8916904330253601,"676":-0.31161510944366455,"677":0.7974746227264404,"678":-0.8909410834312439,"679":-0.7629261612892151,"680":1.0101799964904785,"681":-0.4063371419906616,"682":-0.6040283441543579,"683":-0.14956411719322205,"684":0.12158777564764023,"685":-0.7074392437934875,"686":0.7388280034065247,"687":-0.12170679867267609,"688":-1.5146026611328125,"689":-0.3190145492553711,"690":-0.8974729180335999,"691":0.3041619062423706,"692":-0.6797387003898621,"693":1.3996697664260864,"694":-0.07449902594089508,"695":-0.6189966201782227,"696":-0.051826514303684235,"697":0.46986091136932373,"698":0.5433540940284729,"699":-0.6865677833557129,"700":-1.2076771259307861,"701":-1.1942788362503052,"702":2.0463452339172363,"703":-3.39166259765625,"704":0.7472265958786011,"705":-0.4532994329929352,"706":0.028284963220357895,"707":-1.402502179145813,"708":0.23351828753948212,"709":-0.3085761070251465,"710":-1.034522533416748,"711":1.953629493713379,"712":0.20667880773544312,"713":-3.152416944503784,"714":-0.4554229974746704,"715":0.25565865635871887,"716":-2.1181113719940186,"717":-0.4309757649898529,"718":0.5579750537872314,"719":0.17449578642845154,"720":3.867990016937256,"721":-1.9237641096115112,"722":1.863112211227417,"723":1.2349638938903809,"724":-0.38113847374916077,"725":1.1434985399246216,"726":0.5416172742843628,"727":-2.2036314010620117,"728":-1.923129916191101,"729":-0.9787895679473877,"730":1.1521108150482178,"731":-1.0320109128952026,"732":1.4873920679092407,"733":-1.2461379766464233,"734":1.3277426958084106,"735":0.07369819283485413,"736":0.34661656618118286,"737":0.5646346807479858,"738":1.9655375480651855,"739":-1.2683817148208618,"740":-0.09253327548503876,"741":-1.302070140838623,"742":0.6633372902870178,"743":-0.6322424411773682,"744":1.4800831079483032,"745":0.4176730513572693,"746":-1.3149075508117676,"747":0.15858139097690582,"748":2.270876407623291,"749":-0.0014628696953877807,"750":-0.5092396140098572,"751":-1.4157204627990723,"752":0.09946320205926895,"753":-0.6333804130554199,"754":-2.8729472160339355,"755":0.12431538850069046,"756":-0.6414032578468323,"757":0.40021640062332153,"758":1.022978663444519,"759":-0.5650212168693542,"760":0.6950708627700806,"761":0.8397591710090637,"762":2.687551736831665,"763":0.8914652466773987,"764":-3.2984542846679688,"765":-1.1230366230010986,"766":-0.08260699361562729,"767":-0.03884495049715042,"768":-1.1363855600357056,"769":4.246387481689453,"770":0.5399656891822815,"771":-0.7154222726821899,"772":-1.7934237718582153,"773":-1.3359196186065674,"774":0.8722599744796753,"775":0.9572699069976807,"776":-0.5946989059448242,"777":0.6103957891464233,"778":0.8049377202987671,"779":1.4757864475250244,"780":0.8682100772857666,"781":1.7371063232421875,"782":-0.9958124756813049,"783":-0.7513890266418457,"784":0.6092924475669861,"785":-3.038172721862793,"786":0.5163405537605286,"787":-2.3261420726776123,"788":1.9388562440872192,"789":2.5983219146728516,"790":0.8885669112205505,"791":-2.4402267932891846,"792":1.3695487976074219,"793":-1.131488561630249,"794":0.407844603061676,"795":-0.5865100026130676,"796":-1.6107265949249268,"797":0.28649061918258667,"798":1.4821311235427856,"799":-0.8733185529708862,"800":2.1479461193084717,"801":0.6155464053153992,"802":-1.9815791845321655,"803":-1.9021003246307373,"804":0.01487771887332201,"805":-0.3726392984390259,"806":1.0127592086791992,"807":-0.4100182056427002,"808":2.7905311584472656,"809":1.976293921470642,"810":-1.3736317157745361,"811":1.364091157913208,"812":-0.44105178117752075,"813":0.7877901196479797,"814":0.1756034791469574,"815":1.3426235914230347,"816":-3.290713310241699,"817":-1.0502578020095825,"818":0.4775641858577728,"819":0.001723925699479878,"820":-0.7399098873138428,"821":-2.3079817295074463,"822":2.113281488418579,"823":-1.9315866231918335,"824":1.247969388961792,"825":0.45499736070632935,"826":0.49071136116981506,"827":-0.765169084072113,"828":0.37491631507873535,"829":-2.9940013885498047,"830":0.246437668800354,"831":-0.2811359465122223,"832":-2.045105457305908,"833":-0.6639858484268188,"834":-0.7870976328849792,"835":0.06960157305002213,"836":-0.7190093994140625,"837":2.1788077354431152,"838":1.2172400951385498,"839":2.656128406524658,"840":-2.258465528488159,"841":0.40883776545524597,"842":-1.202391505241394,"843":-1.541222333908081,"844":-0.017133664339780807,"845":-0.2479759156703949,"846":0.9036054015159607,"847":-2.0247342586517334,"848":-0.4967831075191498,"849":-1.7704436779022217,"850":0.2681255042552948,"851":-0.5889257192611694,"852":2.0508322715759277,"853":-0.21188300848007202,"854":-1.89872407913208,"855":1.4606186151504517,"856":-0.2684164345264435,"857":0.2701457142829895,"858":0.3708782196044922,"859":-0.776512861251831,"860":-1.6828858852386475,"861":1.042039155960083,"862":0.428128719329834,"863":1.0662622451782227,"864":1.1312572956085205,"865":1.6451737880706787,"866":-0.7691443562507629,"867":-0.8220964670181274,"868":-1.3506165742874146,"869":-0.542614758014679,"870":0.7842380404472351,"871":4.248847484588623,"872":1.6552975177764893,"873":-5.723743438720703,"874":-0.01178478728979826,"875":-2.5206053256988525,"876":0.714285135269165,"877":-1.3323293924331665,"878":0.8806734085083008,"879":0.3374239206314087,"880":1.2644200325012207,"881":0.5936905145645142,"882":0.9580747485160828,"883":0.2260020524263382,"884":0.7993606925010681,"885":0.5466577410697937,"886":1.3621877431869507,"887":0.9740033149719238,"888":-0.8209369778633118,"889":0.09754234552383423,"890":-1.6754379272460938,"891":2.7311220169067383,"892":-0.18087349832057953,"893":1.0119034051895142,"894":1.042362093925476,"895":0.32581761479377747,"896":2.1301679611206055,"897":-0.5038965344429016,"898":-0.5689964294433594,"899":2.099778175354004,"900":0.23870821297168732,"901":-1.9176427125930786,"902":0.03781522065401077,"903":-1.1216233968734741,"904":-0.5110738277435303,"905":3.8656511306762695,"906":1.2546494007110596,"907":3.349385976791382,"908":-1.7415133714675903,"909":0.43893393874168396,"910":1.1299830675125122,"911":0.631539523601532,"912":-0.7895258665084839,"913":0.3689068853855133,"914":-2.1507742404937744,"915":-0.7539617419242859,"916":-2.6835601329803467,"917":0.8242114782333374,"918":2.468425989151001,"919":0.3838673532009125,"920":0.05558772757649422,"921":-4.246396064758301,"922":-3.413919448852539,"923":2.8497977256774902,"924":-1.963832974433899,"925":1.3502087593078613,"926":-1.7066371440887451,"927":-0.5483615398406982,"928":1.6077818870544434,"929":-1.3711624145507812,"930":-0.773500382900238,"931":0.41061973571777344,"932":-0.6291056871414185,"933":-0.45228371024131775,"934":1.203434944152832,"935":0.551160991191864,"936":-0.05669767037034035,"937":0.9216998815536499,"938":1.2574101686477661,"939":-0.7098842263221741,"940":1.839215874671936,"941":0.6625646948814392,"942":0.014830409549176693,"943":-1.4072269201278687,"944":0.3649030029773712,"945":-1.8630540370941162,"946":3.1432034969329834,"947":-1.1924047470092773,"948":1.9545812606811523,"949":0.5986717939376831,"950":2.2846109867095947,"951":-0.03229689970612526,"952":2.6291964054107666,"953":-2.227656364440918,"954":1.4722930192947388,"955":0.4433452785015106,"956":-0.4090169668197632,"957":-3.668328285217285,"958":-2.936583995819092,"959":1.549802303314209,"960":0.11159253865480423,"961":-0.5379379987716675,"962":0.9303712248802185,"963":-0.03604425489902496,"964":2.36000919342041,"965":-0.1105818897485733,"966":0.20209601521492004,"967":2.7157416343688965,"968":1.900354266166687,"969":-5.719484329223633,"970":0.8206673860549927,"971":1.052459955215454,"972":0.5010005235671997,"973":-0.09428494423627853,"974":-1.2406425476074219,"975":-0.9345170855522156,"976":1.005791187286377,"977":-1.1550664901733398,"978":-3.2585229873657227,"979":2.23588490486145,"980":0.3293861150741577,"981":-1.3311686515808105,"982":0.8080013990402222,"983":-2.872532606124878,"984":-1.1175577640533447,"985":3.0884437561035156,"986":-0.7465636730194092,"987":0.5525916218757629,"988":-0.36835479736328125,"989":0.25404107570648193,"990":1.2604129314422607,"991":-0.03486528992652893,"992":-0.3097160756587982,"993":-0.18534992635250092,"994":0.48088565468788147,"995":-1.060156226158142,"996":0.4607442617416382,"997":0.624955952167511,"998":-1.9606369733810425,"999":1.732096552848816,"1000":-1.804969072341919,"1001":-2.6265149116516113,"1002":-0.9153017997741699,"1003":-1.0155160427093506,"1004":3.1332640647888184,"1005":-2.590940475463867,"1006":0.38885796070098877,"1007":0.5649005770683289,"1008":0.6073225736618042,"1009":1.505454182624817,"1010":2.2624051570892334,"1011":-2.1208369731903076,"1012":1.6276309490203857,"1013":1.8593289852142334,"1014":-0.5737825632095337,"1015":1.2148669958114624,"1016":0.5349677801132202,"1017":-2.7502012252807617,"1018":0.5906013250350952,"1019":1.4391872882843018}},"inputHidden":{"rows":20,"columns":20,"weights":{"0":-1.3912334442138672,"1":-1.4070159196853638,"2":-0.37939703464508057,"3":0.32930874824523926,"4":1.4463526010513306,"5":-1.569238543510437,"6":0.9038949608802795,"7":-0.5657134652137756,"8":-0.06833645701408386,"9":-1.2947523593902588,"10":-0.4850205183029175,"11":0.41740238666534424,"12":0.3915199339389801,"13":-0.2920684218406677,"14":1.0033658742904663,"15":-0.9653760194778442,"16":-0.13792148232460022,"17":0.3230555057525635,"18":2.6102113723754883,"19":-1.5031790733337402,"20":-1.8571927547454834,"21":-2.5383565425872803,"22":1.2434909343719482,"23":2.7932631969451904,"24":2.3111472129821777,"25":1.076375126838684,"26":-0.04599802941083908,"27":-1.8410614728927612,"28":-0.26951542496681213,"29":3.5867919921875,"30":-3.23585844039917,"31":-0.7687473893165588,"32":-0.37736237049102783,"33":-0.25105389952659607,"34":1.7186884880065918,"35":-0.7696845531463623,"36":2.2418715953826904,"37":-0.8977838754653931,"38":0.031029310077428818,"39":1.3399661779403687,"40":-2.9336891174316406,"41":-1.0660966634750366,"42":0.6846671104431152,"43":-1.4285863637924194,"44":-2.947173833847046,"45":0.27622222900390625,"46":2.344243288040161,"47":1.795902967453003,"48":-0.06343035399913788,"49":-1.1335362195968628,"50":-2.824313163757324,"51":0.7241865396499634,"52":1.3832744359970093,"53":2.836425542831421,"54":-1.440158724784851,"55":-0.3181207478046417,"56":-1.9393393993377686,"57":-0.8629345893859863,"58":-0.328768253326416,"59":-2.725107431411743,"60":3.343651294708252,"61":0.7550267577171326,"62":-2.227083444595337,"63":-4.856781005859375,"64":-0.7645208835601807,"65":0.6816175580024719,"66":-0.4822496771812439,"67":3.766453742980957,"68":3.165815591812134,"69":1.412239909172058,"70":-5.586371421813965,"71":-3.304800033569336,"72":-3.959402561187744,"73":1.4901782274246216,"74":-5.677009582519531,"75":-4.192036151885986,"76":-5.626851558685303,"77":3.813265323638916,"78":-1.4071929454803467,"79":-1.5007835626602173,"80":-2.2702901363372803,"81":2.993603467941284,"82":2.318493366241455,"83":-0.036992039531469345,"84":0.6490522027015686,"85":1.3550151586532593,"86":2.814415454864502,"87":2.147461175918579,"88":2.172478437423706,"89":-2.4170126914978027,"90":-0.3202604055404663,"91":0.8161996603012085,"92":-2.2033023834228516,"93":1.9167336225509644,"94":-0.6395534873008728,"95":3.2106270790100098,"96":-1.1832122802734375,"97":-1.402773141860962,"98":-1.9505680799484253,"99":-0.4434489905834198,"100":3.8266828060150146,"101":-4.540215492248535,"102":-1.8741834163665771,"103":-0.6581577658653259,"104":4.247349739074707,"105":0.268814355134964,"106":3.256471872329712,"107":-0.30682697892189026,"108":2.4957520961761475,"109":-0.4048265516757965,"110":4.3539299964904785,"111":-0.9293294548988342,"112":-2.1212592124938965,"113":-0.16005319356918335,"114":2.1893668174743652,"115":0.5445926189422607,"116":1.2521544694900513,"117":0.19724887609481812,"118":-1.713700294494629,"119":-1.9346742630004883,"120":2.341566324234009,"121":-3.4421210289001465,"122":-0.20272667706012726,"123":-0.3452950716018677,"124":0.076634980738163,"125":0.5565213561058044,"126":-0.052543047815561295,"127":-6.160716533660889,"128":-0.6639566421508789,"129":-0.04913340508937836,"130":1.4089258909225464,"131":5.913236141204834,"132":-0.8583712577819824,"133":-4.249734878540039,"134":-0.8286435604095459,"135":-1.8840160369873047,"136":1.0410393476486206,"137":-0.9433348774909973,"138":2.429396867752075,"139":0.7775970697402954,"140":-0.6711190342903137,"141":1.1380995512008667,