{"type":"LSTM","options":{"inputSize":33,"inputRange":33,"hiddenLayers":[10,10],"outputSize":33,"decayRate":0.999,"smoothEps":1e-8,"regc":0.000001,"clipval":5,"maxPredictionLength":100,"dataFormatter":{"values":["quais pizzas?","Temos redondas e com recheio XD Doces Salgadas","quais sabores de pizza tem?","Pizza sabor pizza :D espero que goste, receita secreta","uma pizza doce por favor","Preparando uma pizza doce agorinha"],"indexTable":{"q":0,"u":1,"a":2,"i":3,"s":4," ":5,"p":6,"z":7,"?":8,"T":9,"e":10,"m":11,"o":12,"r":13,"d":14,"n":15,"c":16,"h":17,"X":18,"D":19,"S":20,"l":21,"g":22,"b":23,"t":24,"P":25,":":26,",":27,"f":28,"v":29,"stop-input":30,"start-output":31,"unrecognized":32},"characterTable":{"0":"q","1":"u","2":"a","3":"i","4":"s","5":" ","6":"p","7":"z","8":"?","9":"T","10":"e","11":"m","12":"o","13":"r","14":"d","15":"n","16":"c","17":"h","18":"X","19":"D","20":"S","21":"l","22":"g","23":"b","24":"t","25":"P","26":":","27":",","28":"f","29":"v","30":null,"31":null,"32":null},"characters":["q","u","a","i","s"," ","p","z","?","T","e","m","o","r","d","n","c","h","X","D","S","l","g","b","t","P",":",",","f","v","stop-input","start-output","unrecognized"],"specialIndexes":[30,31,32]}},"input":{"rows":34,"columns":33,"weights":{"0":3.5019302368164062,"1":-3.3097660541534424,"2":-2.7143776416778564,"3":-0.6288564801216125,"4":1.6802291870117188,"5":-2.1208760738372803,"6":-0.9066845774650574,"7":-0.6446614265441895,"8":0.3113061785697937,"9":-0.6812293529510498,"10":-1.3595921993255615,"11":-1.778023362159729,"12":1.9378269910812378,"13":2.2595582008361816,"14":3.1966922283172607,"15":0.8065270781517029,"16":3.1270456314086914,"17":-0.9394289255142212,"18":0.9497297406196594,"19":0.8987242579460144,"20":1.1013952493667603,"21":0.32188907265663147,"22":-1.0074232816696167,"23":-2.5786967277526855,"24":-1.251858115196228,"25":-0.4640045464038849,"26":-0.1127762645483017,"27":-2.591818332672119,"28":-1.5803731679916382,"29":-2.248709201812744,"30":-1.0563896894454956,"31":-1.1219041347503662,"32":0.23048479855060577,"33":0.09481718391180038,"34":-1.3581995964050293,"35":0.0977652296423912,"36":0.9124271869659424,"37":-0.8061929941177368,"38":-0.6949259638786316,"39":0.6606763601303101,"40":-0.15123750269412994,"41":-1.6919089555740356,"42":0.0891251489520073,"43":0.18480144441127777,"44":-0.18987269699573517,"45":0.16487093269824982,"46":3.705631732940674,"47":0.3563395142555237,"48":4.407073020935059,"49":1.7812325954437256,"50":4.7461838722229,"51":2.211899995803833,"52":2.187762498855591,"53":-0.7111719250679016,"54":2.087019205093384,"55":-4.301149845123291,"56":-1.282450795173645,"57":-0.2569102346897125,"58":-0.5224968194961548,"59":-0.6909681558609009,"60":-0.13956312835216522,"61":-0.5619198679924011,"62":0.8100865483283997,"63":-1.081843376159668,"64":1.2743858098983765,"65":-0.866584837436676,"66":-1.15120267868042,"67":0.1149950623512268,"68":-0.6747663021087646,"69":2.7030937671661377,"70":0.4427752196788788,"71":-1.6673160791397095,"72":0.7764579057693481,"73":-1.1837280988693237,"74":-0.8604154586791992,"75":-0.8737892508506775,"76":-0.7317272424697876,"77":3.2500948905944824,"78":1.3558180332183838,"79":-5.143739700317383,"80":-0.6160575747489929,"81":-4.950008392333984,"82":-0.8722949028015137,"83":0.09840747714042664,"84":0.9641851186752319,"85":-0.37132933735847473,"86":0.3026319742202759,"87":0.18279744684696198,"88":1.8784881830215454,"89":2.0101401805877686,"90":-0.7630758285522461,"91":-2.0925867557525635,"92":-0.4250088036060333,"93":1.0862629413604736,"94":2.086703300476074,"95":0.6524240374565125,"96":-0.8586094975471497,"97":-3.4440042972564697,"98":1.0690118074417114,"99":0.5218799114227295,"100":-0.287725567817688,"101":0.6367258429527283,"102":1.301965355873108,"103":-0.9620234370231628,"104":1.5819804668426514,"105":-0.15679754316806793,"106":-0.4300231337547302,"107":-0.26538416743278503,"108":0.10483228415250778,"109":-0.43077728152275085,"110":-1.1997499465942383,"111":1.5207273960113525,"112":-0.8256219029426575,"113":-0.1825718879699707,"114":-2.0039706230163574,"115":1.1298280954360962,"116":0.6418366432189941,"117":1.1017876863479614,"118":0.7550313472747803,"119":-0.8692107200622559,"120":0.7565850615501404,"121":-0.515298068523407,"122":0.20820961892604828,"123":0.22667664289474487,"124":0.6300669312477112,"125":-0.05044940114021301,"126":-0.6400147080421448,"127":3.4904398918151855,"128":0.27212101221084595,"129":0.4042009711265564,"130":0.14101502299308777,"131":-1.1768949031829834,"132":1.7720280885696411,"133":2.6586263179779053,"134":-3.654446601867676,"135":-1.3576020002365112,"136":-0.18996207416057587,"137":-0.8769371509552002,"138":-3.258863687515259,"139":1.9321515560150146,"140":2.123944044113159,"141":1.2168766260147095,"142":-2.3735299110412598,"143":1.8192858695983887,"144":5.61901330947876,"145":0.43776199221611023,"146":1.3511263132095337,"147":-1.3972816467285156,"148":4.684468746185303,"149":-3.274660348892212,"150":-0.8797499537467957,"151":-1.1389756202697754,"152":2.0752768516540527,"153":-4.032247066497803,"154":1.1426786184310913,"155":-1.0135700702667236,"156":1.8790732622146606,"157":0.26492154598236084,"158":-0.09657910466194153,"159":-0.9383156299591064,"160":-3.1185402870178223,"161":-6.565372943878174,"162":-1.9311786890029907,"163":0.10868720710277557,"164":-1.3256714344024658,"165":2.888800621032715,"166":-0.8825485110282898,"167":-2.7093703746795654,"168":-1.275920033454895,"169":1.018951177597046,"170":-4.643677234649658,"171":2.827648401260376,"172":0.15742571651935577,"173":-5.262551784515381,"174":-1.3788223266601562,"175":1.5577354431152344,"176":4.440500736236572,"177":0.25755736231803894,"178":-3.19321870803833,"179":-4.13880729675293,"180":-0.6613182425498962,"181":-5.35792875289917,"182":-1.3588937520980835,"183":-1.7030645608901978,"184":-4.770808696746826,"185":1.8152339458465576,"186":-9.159059524536133,"187":0.3999565541744232,"188":-5.3152689933776855,"189":0.09547098726034164,"190":0.48661693930625916,"191":-0.5625987648963928,"192":-0.08285189419984818,"193":0.6074904203414917,"194":0.361311137676239,"195":3.275319814682007,"196":3.533611297607422,"197":0.6526821851730347,"198":-0.1868320107460022,"199":3.50496244430542,"200":-0.3492688834667206,"201":1.9710700511932373,"202":-1.7802046537399292,"203":1.940024733543396,"204":-0.6269454956054688,"205":-0.3600505590438843,"206":-0.20532293617725372,"207":-1.5994173288345337,"208":2.940638542175293,"209":1.083815097808838,"210":-0.3078424632549286,"211":-1.8141511678695679,"212":1.6647976636886597,"213":-0.9895275831222534,"214":0.15939578413963318,"215":2.304990291595459,"216":0.7859298586845398,"217":-0.5630077123641968,"218":-1.8493947982788086,"219":0.7770025134086609,"220":-0.694411039352417,"221":0.03886992856860161,"222":0.5738013982772827,"223":-0.08462110161781311,"224":-2.0177884101867676,"225":0.7421618700027466,"226":0.8446457386016846,"227":0.7323423624038696,"228":-0.26715803146362305,"229":0.5235163569450378,"230":2.2151038646698,"231":2.1081645488739014,"232":-0.3471261262893677,"233":1.7542365789413452,"234":5.473112106323242,"235":0.5256189703941345,"236":-0.023171408101916313,"237":-0.14325055480003357,"238":2.366448163986206,"239":2.8723347187042236,"240":-1.3093206882476807,"241":-0.44325336813926697,"242":2.3238954544067383,"243":0.48175638914108276,"244":-0.026491956785321236,"245":-0.3556597828865051,"246":-1.4175208806991577,"247":2.9014060497283936,"248":-0.5577050447463989,"249":1.0631978511810303,"250":1.8047170639038086,"251":0.9805182814598083,"252":0.7554810047149658,"253":0.14679023623466492,"254":0.20949780941009521,"255":0.25877875089645386,"256":0.8140749335289001,"257":0.32085102796554565,"258":-0.6246289014816284,"259":0.9692538976669312,"260":-0.43107131123542786,"261":2.1399214267730713,"262":-0.8398302793502808,"263":-0.6665135025978088,"264":0.27531135082244873,"265":0.9815974235534668,"266":-1.7919881343841553,"267":-2.8022162914276123,"268":1.147577166557312,"269":-1.068588376045227,"270":0.4459640383720398,"271":-2.286926746368408,"272":-1.2149018049240112,"273":2.008894681930542,"274":2.009810447692871,"275":-1.740854024887085,"276":-3.253735303878784,"277":1.30838143825531,"278":0.7621212601661682,"279":2.9555721282958984,"280":-1.3674602508544922,"281":1.601932168006897,"282":0.9847546219825745,"283":0.6571083664894104,"284":0.2655145823955536,"285":-0.8134676814079285,"286":-0.9232885837554932,"287":0.22406785190105438,"288":0.5416264533996582,"289":-1.266882061958313,"290":0.27449938654899597,"291":-0.9465084671974182,"292":-1.766274094581604,"293":1.4091187715530396,"294":1.0001920461654663,"295":1.9509693384170532,"296":0.45959997177124023,"297":-1.9830396175384521,"298":0.8524267077445984,"299":-4.2131876945495605,"300":-3.9662694931030273,"301":0.4640880525112152,"302":-0.8096638321876526,"303":2.9996209144592285,"304":2.428041458129883,"305":-4.1558685302734375,"306":-6.669850826263428,"307":1.0208678245544434,"308":-2.2721192836761475,"309":-2.410609483718872,"310":-4.306233882904053,"311":-3.0322163105010986,"312":0.8201937079429626,"313":-6.040048122406006,"314":0.08697536587715149,"315":-1.0253520011901855,"316":-6.3318586349487305,"317":-2.6543710231781006,"318":-1.327956199645996,"319":-1.349424123764038,"320":2.145707130432129,"321":-2.0341367721557617,"322":1.3882180452346802,"323":-0.8973073363304138,"324":2.267630100250244,"325":-0.14696091413497925,"326":1.880873203277588,"327":-5.8633503913879395,"328":4.026472568511963,"329":2.5615034103393555,"330":0.7970646619796753,"331":1.9816851615905762,"332":-1.6853392124176025,"333":5.203110218048096,"334":-3.77825927734375,"335":2.166764974594116,"336":-0.114289790391922,"337":0.5166507363319397,"338":5.260192394256592,"339":3.1366422176361084,"340":-0.5194613933563232,"341":0.48993176221847534,"342":-0.8803202509880066,"343":1.5610473155975342,"344":-0.011622089892625809,"345":1.4698357582092285,"346":3.6147587299346924,"347":-1.3971213102340698,"348":-3.5372633934020996,"349":0.12660302221775055,"350":-0.3859804570674896,"351":4.144444942474365,"352":0.802763044834137,"353":-2.454869031906128,"354":3.220271348953247,"355":5.4715752601623535,"356":-0.5686066746711731,"357":-3.665360689163208,"358":3.8081488609313965,"359":-3.500755786895752,"360":4.74711275100708,"361":-3.144435405731201,"362":0.7196923494338989,"363":0.3153446316719055,"364":0.040187448263168335,"365":-0.8266482353210449,"366":-1.3102105855941772,"367":-2.528853178024292,"368":4.866822719573975,"369":0.16245877742767334,"370":-1.8614306449890137,"371":0.3662618100643158,"372":-4.851370334625244,"373":0.7181998491287231,"374":-0.6146200299263,"375":1.1337296962738037,"376":3.9231460094451904,"377":-0.19811759889125824,"378":0.6652380228042603,"379":-3.1388161182403564,"380":2.4749791622161865,"381":3.0404164791107178,"382":1.4779601097106934,"383":-0.34122157096862793,"384":2.3142688274383545,"385":-0.057398680597543716,"386":-4.128995418548584,"387":0.43160802125930786,"388":-0.4079887568950653,"389":1.5641446113586426,"390":3.025136947631836,"391":-2.230576276779175,"392":2.4197585582733154,"393":-1.8230586051940918,"394":2.1090340614318848,"395":-1.7209055423736572,"396":4.1749749183654785,"397":-0.9166567325592041,"398":0.9009104371070862,"399":-0.4350866675376892,"400":1.3430124521255493,"401":0.8425162434577942,"402":-3.1158156394958496,"403":1.1747264862060547,"404":-0.29511019587516785,"405":-0.33899426460266113,"406":0.3405861556529999,"407":-1.4788053035736084,"408":-3.064760446548462,"409":1.7679815292358398,"410":0.37247994542121887,"411":0.8866439461708069,"412":-2.0781686305999756,"413":0.7002418041229248,"414":0.07362917810678482,"415":0.33938366174697876,"416":-2.575596332550049,"417":-0.1456851065158844,"418":-1.9846537113189697,"419":-1.9062180519104004,"420":0.505884051322937,"421":-0.3802296221256256,"422":0.5875661969184875,"423":1.8273757696151733,"424":-3.4568138122558594,"425":2.975539207458496,"426":0.2409859299659729,"427":0.2887628376483917,"428":-1.5979430675506592,"429":-2.7703921794891357,"430":4.04782247543335,"431":-1.0334569215774536,"432":1.3786029815673828,"433":-1.7291772365570068,"434":-0.025143560022115707,"435":4.859297275543213,"436":-0.9618216156959534,"437":-1.263222098350525,"438":0.836011528968811,"439":-0.13485993444919586,"440":0.16320273280143738,"441":-2.1729395389556885,"442":-0.6437250375747681,"443":-0.9153936505317688,"444":0.9749796986579895,"445":-1.9549314975738525,"446":0.9492975473403931,"447":-0.501500129699707,"448":0.20875245332717896,"449":-0.7129291296005249,"450":-0.6130005717277527,"451":2.529202699661255,"452":1.1726877689361572,"453":0.9948682188987732,"454":-2.858421564102173,"455":-0.7492915391921997,"456":1.7750266790390015,"457":-0.25664445757865906,"458":2.5770680904388428,"459":0.34067678451538086,"460":-1.4499703645706177,"461":0.5697243213653564,"462":0.2014584094285965,"463":1.2003933191299438,"464":1.573894739151001,"465":-0.6069111824035645,"466":0.3925583064556122,"467":-1.0767338275909424,"468":2.9961438179016113,"469":0.6960247755050659,"470":-1.2440428733825684,"471":-0.3605566918849945,"472":6.413376331329346,"473":0.2694105803966522,"474":1.3196543455123901,"475":-0.0665176659822464,"476":-1.5330191850662231,"477":1.8010938167572021,"478":-0.900360107421875,"479":-0.5601926445960999,"480":0.8608627915382385,"481":2.01210880279541,"482":0.20729580521583557,"483":-1.2089263200759888,"484":0.3752865791320801,"485":2.3717916011810303,"486":1.973050832748413,"487":-1.2133221626281738,"488":1.1875393390655518,"489":0.8076902627944946,"490":-0.19007577002048492,"491":0.5519057512283325,"492":-0.09394676238298416,"493":1.1887767314910889,"494":0.5382983088493347,"495":0.48682138323783875,"496":0.7752613425254822,"497":4.664284706115723,"498":1.2319271564483643,"499":-1.1624624729156494,"500":-0.1721782386302948,"501":-0.18686340749263763,"502":0.1900368332862854,"503":1.2556489706039429,"504":2.2243871688842773,"505":0.05030588433146477,"506":-0.7999207973480225,"507":0.7326882481575012,"508":1.9574257135391235,"509":0.6385481357574463,"510":-1.6841976642608643,"511":1.0938022136688232,"512":-1.0721023082733154,"513":0.19414164125919342,"514":2.1329808235168457,"515":0.3175133764743805,"516":1.8612241744995117,"517":-0.328691691160202,"518":-0.33213144540786743,"519":-0.3937700390815735,"520":1.2963637113571167,"521":1.1019726991653442,"522":0.08392572402954102,"523":-0.1721181422472,"524":0.4010627567768097,"525":3.3679988384246826,"526":-1.2004495859146118,"527":-1.3477901220321655,"528":0.32978495955467224,"529":-0.8314303159713745,"530":-1.322692632675171,"531":-2.653792381286621,"532":-2.2309820652008057,"533":-2.281822681427002,"534":2.362626552581787,"535":-1.1064053773880005,"536":-3.135209560394287,"537":0.3486272394657135,"538":2.5332441329956055,"539":0.8301031589508057,"540":-0.9768786430358887,"541":0.5765529870986938,"542":-2.7062315940856934,"543":1.1801798343658447,"544":-5.429094314575195,"545":3.572309970855713,"546":-1.2922605276107788,"547":1.1900050640106201,"548":0.7944729924201965,"549":0.717705249786377,"550":0.974913477897644,"551":0.9589470028877258,"552":-0.064996138215065,"553":-3.3734726905822754,"554":-1.0602319240570068,"555":2.018624782562256,"556":0.22370561957359314,"557":2.328453302383423,"558":-0.6125438809394836,"559":-0.08272792398929596,"560":-1.9509693384170532,"561":-0.1821070909500122,"562":-1.0468734502792358,"563":-2.427252769470215,"564":-2.0925395488739014,"565":-0.08352834731340408,"566":-0.8184242844581604,"567":-0.39191368222236633,"568":-0.13544008135795593,"569":0.20740045607089996,"570":-1.9231579303741455,"571":-1.6533006429672241,"572":-1.7044950723648071,"573":0.3399449288845062,"574":-0.04892420396208763,"575":1.5360711812973022,"576":0.41472581028938293,"577":1.0310190916061401,"578":-0.6475152969360352,"579":0.3964465856552124,"580":-1.0189902782440186,"581":0.09546422213315964,"582":0.2895415425300598,"583":1.4683799743652344,"584":-1.6251307725906372,"585":-1.7585262060165405,"586":0.8892490863800049,"587":-0.5586387515068054,"588":0.2331237494945526,"589":-0.5450764298439026,"590":0.4424039125442505,"591":-1.6880602836608887,"592":1.6470556259155273,"593":-0.8416550755500793,"594":-2.7020974159240723,"595":-3.324993133544922,"596":3.868684768676758,"597":-0.9639519453048706,"598":0.691369354724884,"599":-0.20824627578258514,"600":1.0081228017807007,"601":1.4534763097763062,"602":-1.1278184652328491,"603":0.31553858518600464,"604":0.6054735779762268,"605":-0.2150696963071823,"606":-2.467012643814087,"607":3.1597328186035156,"608":-0.021957162767648697,"609":1.2079648971557617,"610":-5.535956859588623,"611":3.1511194705963135,"612":3.3411214351654053,"613":1.582556962966919,"614":-3.3777379989624023,"615":-1.1088907718658447,"616":-3.598574161529541,"617":-1.2389618158340454,"618":-1.0853041410446167,"619":-2.9684994220733643,"620":-1.6043514013290405,"621":1.039489507675171,"622":-2.220262289047241,"623":3.631406784057617,"624":0.7404444217681885,"625":1.0929800271987915,"626":1.952246069908142,"627":0.9965078234672546,"628":-4.144007205963135,"629":4.268642425537109,"630":3.861304759979248,"631":4.6380295753479,"632":-4.24739408493042,"633":-1.929223656654358,"634":-2.616466999053955,"635":2.2100672721862793,"636":-0.4837516248226166,"637":-6.77676248550415,"638":-0.16784407198429108,"639":0.29256802797317505,"640":-1.9172513484954834,"641":0.2628764808177948,"642":-2.3329405784606934,"643":-1.2729113101959229,"644":0.08453156054019928,"645":0.044912125915288925,"646":-2.400925636291504,"647":-0.33706218004226685,"648":-2.198010206222534,"649":1.5812002420425415,"650":-0.4998423457145691,"651":-3.484332323074341,"652":-3.1317152976989746,"653":-2.666491746902466,"654":-1.6777639389038086,"655":-3.5775599479675293,"656":3.2488443851470947,"657":-2.612074613571167,"658":-2.2958524227142334,"659":4.706849575042725,"660":-1.1337249279022217,"661":-1.0319318771362305,"662":-0.5910072326660156,"663":1.7054744958877563,"664":1.7123509645462036,"665":-2.7690601348876953,"666":2.1019363403320312,"667":0.4788919687271118,"668":1.1785824298858643,"669":-2.0717616081237793,"670":-2.6062264442443848,"671":0.9915193915367126,"672":-0.8526495695114136,"673":-0.7236434817314148,"674":-2.0581018924713135,"675":-3.888594150543213,"676":-1.4142134189605713,"677":1.2728486061096191,"678":1.0708949565887451,"679":1.5956799983978271,"680":-2.1877694129943848,"681":0.8701428771018982,"682":2.0558929443359375,"683":1.4893064498901367,"684":-1.4486757516860962,"685":-6.2494330406188965,"686":0.914889395236969,"687":2.1618776321411133,"688":-2.4303770065307617,"689":3.7151613235473633,"690":-2.756500005722046,"691":-2.5395357608795166,"692":3.5987911224365234,"693":-0.7059687376022339,"694":2.4835925102233887,"695":-2.76583194732666,"696":-4.55184268951416,"697":1.0873634815216064,"698":1.2497249841690063,"699":0.9663105607032776,"700":2.4524550437927246,"701":-8.324743270874023,"702":1.1282017230987549,"703":2.329678773880005,"704":-2.405900239944458,"705":-4.51138162612915,"706":2.7470390796661377,"707":2.236196279525757,"708":6.707382678985596,"709":-2.1604504585266113,"710":-0.5909836292266846,"711":-4.782747745513916,"712":0.5123777389526367,"713":-1.0705840587615967,"714":-2.954514980316162,"715":2.14813494682312,"716":2.2541654109954834,"717":0.06796085834503174,"718":-4.79170560836792,"719":2.316362142562866,"720":3.9522292613983154,"721":0.0012510177912190557,"722":4.815521717071533,"723":1.6160000562667847,"724":3.719921112060547,"725":-1.6808704137802124,"726":2.7464163303375244,"727":2.0716025829315186,"728":-2.477489948272705,"729":-5.505166053771973,"730":0.9480019211769104,"731":-1.3674434423446655,"732":0.07602399587631226,"733":-4.334036827087402,"734":-7.245368003845215,"735":-2.041013717651367,"736":1.7537732124328613,"737":-1.5374900102615356,"738":-4.311279296875,"739":1.0985790491104126,"740":-0.4718486964702606,"741":3.24434757232666,"742":-0.6251335740089417,"743":-0.02940613217651844,"744":-5.903359413146973,"745":-5.587222576141357,"746":-6.5778489112854,"747":-2.460547685623169,"748":-0.2076072245836258,"749":-1.1625875234603882,"750":2.5689120292663574,"751":-1.5069992542266846,"752":-4.163840293884277,"753":6.842515468597412,"754":-0.7981660962104797,"755":3.240501642227173,"756":-0.41280344128608704,"757":0.7621397972106934,"758":0.5709107518196106,"759":-0.170873761177063,"760":1.4276045560836792,"761":-0.620375394821167,"762":0.5654648542404175,"763":1.2041966915130615,"764":-1.6944448947906494,"765":-1.1283745765686035,"766":-0.891477108001709,"767":-0.2040444016456604,"768":-0.29512521624565125,"769":-0.8745911121368408,"770":2.3352742195129395,"771":-4.2675371170043945,"772":-2.7016489505767822,"773":-0.619246244430542,"774":-0.3766041696071625,"775":-1.9029501676559448,"776":0.14182931184768677,"777":-3.93346905708313,"778":-2.7619850635528564,"779":-6.092949867248535,"780":-1.732420563697815,"781":-0.18937864899635315,"782":0.8910271525382996,"783":-2.9542312622070312,"784":-1.4653905630111694,"785":-0.7293978929519653,"786":4.782658100128174,"787":-0.609947681427002,"788":2.5806729793548584,"789":0.358527809381485,"790":-0.10668598860502243,"791":2.254312753677368,"792":-2.1736080646514893,"793":3.6355340480804443,"794":2.6332879066467285,"795":0.32261747121810913,"796":3.3208062648773193,"797":1.2588348388671875,"798":-1.7662850618362427,"799":-0.5944612622261047,"800":-2.0110201835632324,"801":-2.0776212215423584,"802":-1.9937074184417725,"803":-1.5882881879806519,"804":-6.60303258895874,"805":-0.10613814741373062,"806":1.198859691619873,"807":3.348999500274658,"808":-9.350242614746094,"809":-1.1061776876449585,"810":-7.920052528381348,"811":1.5022985935211182,"812":-1.5841206312179565,"813":1.432012915611267,"814":0.49444112181663513,"815":-0.19268324971199036,"816":-2.1846225261688232,"817":-7.077828884124756,"818":-5.844472885131836,"819":2.34521222114563,"820":-0.10124757140874863,"821":8.018980979919434,"822":3.1668882369995117,"823":1.8227460384368896,"824":0.7766066789627075,"825":1.6392462253570557,"826":3.303497314453125,"827":-0.8965141773223877,"828":0.14079488813877106,"829":0.6215408444404602,"830":5.023460388183594,"831":2.296116352081299,"832":0.07624824345111847,"833":-5.157283782958984,"834":-0.42450204491615295,"835":-0.32160574197769165,"836":-1.3873616456985474,"837":-2.4759013652801514,"838":1.4009031057357788,"839":2.5052380561828613,"840":0.964694619178772,"841":-3.356862783432007,"842":1.5254535675048828,"843":-3.9726169109344482,"844":-2.412050485610962,"845":-1.9328033924102783,"846":-2.167473554611206,"847":0.7231746912002563,"848":1.2587906122207642,"849":-0.11119800060987473,"850":-2.282850980758667,"851":-2.792820930480957,"852":3.4744012355804443,"853":2.8190042972564697,"854":5.234912872314453,"855":0.2326882779598236,"856":0.3149194121360779,"857":-2.002246618270874,"858":-0.8786256313323975,"859":-3.2145137786865234,"860":-1.5128819942474365,"861":1.1228317022323608,"862":-2.6704201698303223,"863":3.15016508102417,"864":4.610532760620117,"865":2.552427053451538,"866":4.956817626953125,"867":-0.983096182346344,"868":-0.32817327976226807,"869":2.9708197116851807,"870":2.7451839447021484,"871":0.19463373720645905,"872":-3.0317864418029785,"873":-1.916806697845459,"874":0.12286479771137238,"875":-0.2832968235015869,"876":3.0864293575286865,"877":0.9691000580787659,"878":2.414247751235962,"879":-1.1753236055374146,"880":-0.16402718424797058,"881":1.5837723016738892,"882":2.1733243465423584,"883":0.8813436031341553,"884":-1.451831579208374,"885":-1.5626306533813477,"886":0.3923216462135315,"887":-2.7422049045562744,"888":0.4022747278213501,"889":-1.0982977151870728,"890":0.5364663004875183,"891":-1.0129945278167725,"892":-3.2745237350463867,"893":1.7959409952163696,"894":-5.2859625816345215,"895":3.2731432914733887,"896":-1.8293765783309937,"897":-3.7905259132385254,"898":5.677574157714844,"899":3.3613998889923096,"900":-2.095248222351074,"901":-4.155101299285889,"902":1.0901883840560913,"903":-1.338627815246582,"904":-1.6662157773971558,"905":-1.2021028995513916,"906":-0.32972973585128784,"907":-2.591026782989502,"908":1.6092482805252075,"909":4.50359582901001,"910":-3.5796866416931152,"911":0.2363142967224121,"912":-0.734240710735321,"913":-1.7300924062728882,"914":-3.0486040115356445,"915":-0.6945183873176575,"916":0.6706375479698181,"917":1.467685580253601,"918":-3.482882261276245,"919":-2.995835781097412,"920":-3.1497857570648193,"921":-3.0671305656433105,"922":0.1797361969947815,"923":2.5405187606811523,"924":-4.602596759796143,"925":4.43561315536499,"926":-5.1840314865112305,"927":0.5558843016624451,"928":3.740002155303955,"929":3.484832525253296,"930":3.1749353408813477,"931":4.440527439117432,"932":-3.080521821975708,"933":-3.489889621734619,"934":3.555354118347168,"935":-3.245861291885376,"936":4.456964015960693,"937":0.45996707677841187,"938":3.4019129276275635,"939":-1.4412206411361694,"940":-3.7303237915039062,"941":1.3415166139602661,"942":-0.562104344367981,"943":-11.898589134216309,"944":-1.4360305070877075,"945":-1.674534797668457,"946":3.137688636779785,"947":1.8111543655395508,"948":-6.704618453979492,"949":0.33876052498817444,"950":-5.063145637512207,"951":9.412454605102539,"952":1.7703404426574707,"953":3.9597504138946533,"954":-4.177237033843994,"955":-3.930011510848999,"956":4.46180534362793,"957":2.573964834213257,"958":1.6206129789352417,"959":1.5246943235397339,"960":0.8932418823242188,"961":1.221345067024231,"962":-2.522218942642212,"963":-1.2888541221618652,"964":0.0794086679816246,"965":2.301497220993042,"966":2.26607084274292,"967":-1.3385412693023682,"968":1.1719478368759155,"969":0.6563320159912109,"970":-1.0420737266540527,"971":4.8712005615234375,"972":0.2549329698085785,"973":4.3583598136901855,"974":-0.7432408332824707,"975":-0.9037525653839111,"976":5.3058180809021,"977":-1.8138318061828613,"978":-0.03773696348071098,"979":4.458214282989502,"980":-1.2652438879013062,"981":-2.8615901470184326,"982":2.0967090129852295,"983":4.0869927406311035,"984":-0.27002838253974915,"985":-4.213662147521973,"986":-3.4286224842071533,"987":0.9013438820838928,"988":-0.42637085914611816,"989":0.8642075657844543,"990":-0.9099856019020081,"991":-2.843158483505249,"992":-4.398223400115967,"993":-2.4768025875091553,"994":6.16392183303833,"995":-5.620764255523682,"996":-3.309096097946167,"997":-2.191779136657715,"998":-2.236633062362671,"999":-2.799851655960083,"1000":-5.163417816162109,"1001":-4.137780666351318,"1002":-5.294439315795898,"1003":-1.2173056602478027,"1004":0.40920814871788025,"1005":1.451324224472046,"1006":-3.1861979961395264,"1007":6.57218599319458,"1008":0.7068215608596802,"1009":1.7228243350982666,"1010":-5.400689125061035,"1011":-1.6072132587432861,"1012":-2.487637758255005,"1013":1.5630369186401367,"1014":-0.23159833252429962,"1015":-0.6992284059524536,"1016":2.6632564067840576,"1017":3.819291591644287,"1018":-4.166416645050049,"1019":1.0354572534561157,"1020":-4.803611755371094,"1021":3.3550527095794678,"1022":2.3712472915649414,"1023":-3.062047004699707,"1024":0.4934636652469635,"1025":0.5014660358428955,"1026":-1.4718505144119263,"1027":-1.0260504484176636,"1028":0.16433195769786835,"1029":1.48453688621521,"1030":1.1587963104248047,"1031":0.18357150256633759,"1032":-1.9817955493927002,"1033":1.2912659645080566,"1034":1.1712086200714111,"1035":0.31646299362182617,"1036":-1.3587021827697754,"1037":-2.7725229263305664,"1038":-0.7252650260925293,"1039":-3.2954518795013428,"1040":0.34924501180648804,"1041":1.3901934623718262,"1042":-0.8902842998504639,"1043":-0.5080260038375854,"1044":-0.9413857460021973,"1045":-1.1390708684921265,"1046":1.2682758569717407,"1047":0.8727824687957764,"1048":1.202476978302002,"1049":-0.060640305280685425,"1050":0.18953783810138702,"1051":2.061497688293457,"1052":0.09608186036348343,"1053":-0.6293905973434448,"1054":-1.0232748985290527,"1055":0.7390431761741638,"1056":0.7344689965248108,"1057":0.12650854885578156,"1058":0.21833345293998718,"1059":-3.4517104625701904,"1060":2.388899803161621,"1061":-0.16383156180381775,"1062":-2.1722371578216553,"1063":-1.9771519899368286,"1064":-0.011415209621191025,"1065":-1.196103572845459,"1066":-1.8298258781433105,"1067":1.0656026601791382,"1068":-3.483353614807129,"1069":-1.9547805786132812,"1070":-2.254593849182129,"1071":-0.26768961548805237,"1072":-3.7770397663116455,"1073":3.086498737335205,"1074":-0.21856695413589478,"1075":-2.9353041648864746,"1076":-2.3749663829803467,"1077":-1.2090697288513184,"1078":0.6047520637512207,"1079":1.4144248962402344,"1080":-2.323061943054199,"1081":-1.5490562915802002,"1082":-0.6251742839813232,"1083":3.0761396884918213,"1084":-1.1851632595062256,"1085":1.6424736976623535,"1086":-2.013267755508423,"1087":1.4230480194091797,"1088":1.0743012428283691,"1089":0.0177591685205698,"1090":0.07124000042676926,"1091":0.06145898997783661,"1092":0.01713944971561432,"1093":0.046209752559661865,"1094":0.019064588472247124,"1095":0.0010146528948098421,"1096":-0.07251601666212082,"1097":-0.018711939454078674,"1098":-0.03892427682876587,"1099":0.05977058410644531,"1100":-0.051922962069511414,"1101":-0.0601675808429718,"1102":0.023002078756690025,"1103":0.060696929693222046,"1104":0.04161765053868294,"1105":-0.034815385937690735,"1106":0.019790038466453552,"1107":-0.02868037298321724,"1108":0.03447336331009865,"1109":0.0731840506196022,"1110":0.05670668184757233,"1111":-0.04467887058854103,"1112":-0.014867668971419334,"1113":0.04222065955400467,"1114":-0.01664329320192337,"1115":0.01708332821726799,"1116":-0.0024864929728209972,"1117":0.027484750375151634,"1118":0.026985125616192818,"1119":0.005208653397858143,"1120":0.05359799787402153,"1121":0.011194741353392601}},"hiddenLayers":[{"inputMatrix":{"rows":10,"columns":33,"weights":{"0":-0.3460794687271118,"1":1.097824215888977,"2":1.0338001251220703,"3":-1.528223991394043,"4":-0.12260419130325317,"5":0.179399311542511,"6":-0.4752742052078247,"7":-0.9921426773071289,"8":-2.19850754737854,"9":0.5856771469116211,"10":0.39720457792282104,"11":-0.7218461036682129,"12":-0.5433721542358398,"13":0.4539477527141571,"14":0.028932861983776093,"15":2.8180394172668457,"16":-1.4834177494049072,"17":0.18261469900608063,"18":0.0047495705075562,"19":-0.5841519236564636,"20":1.3059601783752441,"21":-0.9340086579322815,"22":-0.35013189911842346,"23":0.6002022624015808,"24":-1.1992111206054688,"25":-0.7116765379905701,"26":0.10353786498308182,"27":2.0576059818267822,"28":-0.8218861818313599,"29":1.7100669145584106,"30":0.008051113225519657,"31":-0.13322630524635315,"32":0.1416936218738556,"33":1.4673566818237305,"34":0.3745996952056885,"35":0.275698721408844,"36":-0.1384010910987854,"37":0.8764582276344299,"38":-0.6179748773574829,"39":-1.0251567363739014,"40":-2.5994176864624023,"41":-0.401737779378891,"42":0.4985860288143158,"43":0.17062033712863922,"44":-0.37509575486183167,"45":0.18141351640224457,"46":-2.157278060913086,"47":0.8557365536689758,"48":1.111929178237915,"49":0.8724324703216553,"50":0.9352906346321106,"51":-0.18670949339866638,"52":1.4799786806106567,"53":0.2612811326980591,"54":1.1212562322616577,"55":-0.23674407601356506,"56":1.050814151763916,"57":0.46743011474609375,"58":-1.248530626296997,"59":1.7395644187927246,"60":0.36556893587112427,"61":-1.2388838529586792,"62":2.3961448669433594,"63":-0.15745969116687775,"64":-1.0043946504592896,"65":-0.5860846638679504,"66":-1.7243767976760864,"67":0.032537344843149185,"68":1.4304865598678589,"69":0.07091446965932846,"70":0.013230976648628712,"71":-0.9068321585655212,"72":0.20010356605052948,"73":-0.5352342128753662,"74":-0.35164833068847656,"75":0.16312934458255768,"76":-0.22367016971111298,"77":-0.4121890068054199,"78":0.15527848899364471,"79":-0.4562512934207916,"80":-0.48257976770401,"81":-0.9356702566146851,"82":-0.9407329559326172,"83":-0.1800849586725235,"84":-0.9287296533584595,"85":0.37067097425460815,"86":-0.6928530335426331,"87":1.1074916124343872,"88":0.851693332195282,"89":0.9565675854682922,"90":0.14684496819972992,"91":0.6775550842285156,"92":0.7729182839393616,"93":1.2039854526519775,"94":0.09793407469987869,"95":0.07808084040880203,"96":-0.09103627502918243,"97":-0.4134020209312439,"98":0.4831538498401642,"99":-0.198576420545578,"100":0.7113444805145264,"101":1.3662757873535156,"102":0.6301969885826111,"103":-0.3302813768386841,"104":0.7757275104522705,"105":-0.7782362699508667,"106":0.46785590052604675,"107":1.6341991424560547,"108":-0.17365621030330658,"109":-0.3904894292354584,"110":0.15165704488754272,"111":0.15128354728221893,"112":-1.0376981496810913,"113":1.3114718198776245,"114":-0.5395620465278625,"115":-0.8097214698791504,"116":0.13504566252231598,"117":0.31397387385368347,"118":-1.2860907316207886,"119":-1.92568838596344,"120":0.004683338571339846,"121":-0.6879396438598633,"122":1.4212195873260498,"123":-0.713072657585144,"124":-0.05911193788051605,"125":-0.2403772622346878,"126":1.0661410093307495,"127":-0.09994057565927505,"128":1.1553528308868408,"129":-0.6902129650115967,"130":-0.44094255566596985,"131":-0.12150698155164719,"132":-1.7893939018249512,"133":0.5086814165115356,"134":-0.3526800274848938,"135":0.2559512257575989,"136":-1.5127289295196533,"137":0.5660678148269653,"138":-0.5380138158798218,"139":1.630916714668274,"140":0.517999529838562,"141":-0.2190409153699875,"142":-0.10116288810968399,"143":-0.6863968372344971,"144":-0.1196911484003067,"145":0.07293102145195007,"146":-0.7467855215072632,"147":-0.227085679769516,"148":-0.16652628779411316,"149":-0.7093487977981567,"150":0.024738797917962074,"151":-0.5842123627662659,"152":-0.2013687938451767,"153":-0.40235868096351624,"154":1.6435940265655518,"155":-0.26896822452545166,"156":1.0107741355895996,"157":0.63070148229599,"158":-0.6486907005310059,"159":-0.10087186843156815,"160":0.4735715985298157,"161":-0.5758697986602783,"162":-0.4521636366844177,"163":0.029278980568051338,"164":0.11376897990703583,"165":-0.19022426009178162,"166":-0.9568966031074524,"167":-0.8519774079322815,"168":-0.6560567021369934,"169":-0.16680538654327393,"170":-0.8248491287231445,"171":-2.781041383743286,"172":0.4300011396408081,"173":2.3121845722198486,"174":-0.14701658487319946,"175":-1.1521810293197632,"176":0.46083760261535645,"177":0.8454437851905823,"178":1.698258876800537,"179":1.259323239326477,"180":0.3888266384601593,"181":1.112441897392273,"182":-0.24994084239006042,"183":-0.21886007487773895,"184":2.2650341987609863,"185":0.34357398748397827,"186":1.1340363025665283,"187":-0.3728747069835663,"188":-0.041364286094903946,"189":-0.9285598397254944,"190":0.7760569453239441,"191":1.247545599937439,"192":0.16629160940647125,"193":-0.02040073089301586,"194":-1.924629807472229,"195":-2.4082953929901123,"196":0.14965055882930756,"197":-0.0950302928686142,"198":1.0283377170562744,"199":0.8777868151664734,"200":0.6454736590385437,"201":0.043053798377513885,"202":0.1194024458527565,"203":1.3203083276748657,"204":0.13413625955581665,"205":2.3320295810699463,"206":-0.1810760796070099,"207":-0.6234644651412964,"208":0.9430980086326599,"209":0.6148555278778076,"210":0.8423707485198975,"211":-0.696284830570221,"212":0.7187896370887756,"213":-1.0050455331802368,"214":0.9879459738731384,"215":-2.527557849884033,"216":0.07806999981403351,"217":-0.1016424223780632,"218":0.4018716812133789,"219":-1.413109540939331,"220":1.2216275930404663,"221":0.7700477838516235,"222":-0.20995528995990753,"223":0.9083163738250732,"224":0.17671987414360046,"225":0.00798062328249216,"226":0.20600742101669312,"227":-1.7156364917755127,"228":0.2939237952232361,"229":-0.4681108891963959,"230":0.372992604970932,"231":1.1786787509918213,"232":-0.24126288294792175,"233":-0.8671932220458984,"234":-2.043893814086914,"235":-0.11029097437858582,"236":0.6048261523246765,"237":0.07753250747919083,"238":-1.1978431940078735,"239":-0.3586254417896271,"240":-1.8029308319091797,"241":-0.74372798204422,"242":-0.9518841505050659,"243":-2.023448944091797,"244":0.3597714602947235,"245":0.253594309091568,"246":2.3867812156677246,"247":-0.14091460406780243,"248":1.46663498878479,"249":-0.06250270456075668,"250":-0.25325655937194824,"251":-2.4811928272247314,"252":-0.9664236307144165,"253":-2.1190905570983887,"254":-0.7500888705253601,"255":-0.34148257970809937,"256":-0.18512137234210968,"257":-0.3748684525489807,"258":0.7979836463928223,"259":-0.02472606860101223,"260":-0.8379058837890625,"261":-1.9902417659759521,"262":-0.5600059032440186,"263":-1.2177329063415527,"264":-1.2479920387268066,"265":1.2250136137008667,"266":-0.13113009929656982,"267":0.6708020567893982,"268":0.34371766448020935,"269":0.10682382434606552,"270":-0.04740415886044502,"271":-0.3987153470516205,"272":0.6328157782554626,"273":1.365599274635315,"274":1.0102273225784302,"275":0.9905398488044739,"276":-1.4233938455581665,"277":0.051249127835035324,"278":0.8495743870735168,"279":-0.6043756008148193,"280":-0.5766007304191589,"281":-0.8065687417984009,"282":1.1644086837768555,"283":0.5334101319313049,"284":0.3711565434932709,"285":0.41650450229644775,"286":0.2933003306388855,"287":-0.10011573135852814,"288":2.379511594772339,"289":-0.11843965202569962,"290":-0.16748324036598206,"291":-1.8350549936294556,"292":0.9228247404098511,"293":-1.381900668144226,"294":1.4788538217544556,"295":-1.028737187385559,"296":0.14799685776233673,"297":0.5666605830192566,"298":-0.337826132774353,"299":0.07387422025203705,"300":2.2032053470611572,"301":-1.2819875478744507,"302":0.1663757562637329,"303":-0.7644579410552979,"304":-1.077575922012329,"305":2.0052924156188965,"306":0.4875805377960205,"307":-0.105291448533535,"308":2.8157477378845215,"309":0.5883154273033142,"310":-0.39647215604782104,"311":1.1834681034088135,"312":-1.1677062511444092,"313":0.9755599498748779,"314":-0.25266069173812866,"315":0.6069704294204712,"316":1.0968559980392456,"317":-1.7207565307617188,"318":0.6214422583580017,"319":3.8626604080200195,"320":0.14178749918937683,"321":-1.0400371551513672,"322":-1.1892659664154053,"323":1.0888829231262207,"324":0.6487434506416321,"325":0.8371137380599976,"326":0.7961234450340271,"327":0.9241388440132141,"328":0.5407816767692566,"329":-0.3283475339412689}},"inputHidden":{"rows":10,"columns":10,"weights":{"0":-2.5202295780181885,"1":-2.9417977333068848,"2":-2.1977264881134033,"3":-3.657805919647217,"4":-0.5500668287277222,"5":-0.011009154841303825,"6":0.9454001188278198,"7":5.020698070526123,"8":-2.180171489715576,"9":-3.4932873249053955,"10":1.106292486190796,"11":-2.0651769638061523,"12":-2.4156980514526367,"13":-3.968543767929077,"14":-0.45060041546821594,"15":0.09171517193317413,"16":-0.7921697497367859,"17":-0.24858151376247406,"18":1.7749875783920288,"19":-1.1240925788879395,"20":-0.6466279029846191,"21":-3.9018046855926514,"22":-1.582658052444458,"23":-2.8317630290985107,"24":2.022486448287964,"25":-0.608487069606781,"26":-2.8937978744506836,"27":-0.5467514991760254,"28":1.9871020317077637,"29":4.878107070922852,"30":2.509449005126953,"31":-1.1705471277236938,"32":-2.8777823448181152,"33":-2.646143674850464,"34":-3.9725236892700195,"35":-4.189826488494873,"36":-2.5013792514801025,"37":-2.5445234775543213,"38":5.0488057136535645,"39":3.1117777824401855,"40":-6.698619365692139,"41":-1.0350028276443481,"42":-0.037659015506505966,"43":-2.467606544494629,"44":-4.018571376800537,"45":-3.367079496383667,"46":1.1409683227539062,"47":1.576128363609314,"48":0.4665493965148926,"49":4.770678997039795,"50":1.5238656997680664,"51":0.33914053440093994,"52":-2.3248331546783447,"53":-1.6365182399749756,"54":-1.2533918619155884,"55":2.984748601913452,"56":-0.6686541438102722,"57":0.012906668707728386,"58":0.3831369876861572,"59":0.18656884133815765,"60":-0.7438176274299622,"61":-3.7650704383850098,"62":-5.024710655212402,"63":1.5783637762069702,"64":-0.5983167886734009,"65":6.157325267791748,"66":0.3660382330417633,"67":3.693359851837158,"68":-0.2501189112663269,"69":-1.6511150598526,"70":1.754840612411499,"71":-5.279926776885986,"72":-7.060816764831543,"73":-3.8368306159973145,"74":-1.015319585800171,"75":-3.4631235599517822,"76":0.8207411766052246,"77":-0.2647102475166321,"78":-2.110900402069092,"79":-1.5459282398223877,"80":-1.6513562202453613,"81":-3.981464147567749,"82":-6.241665363311768,"83":3.2494492530822754,"84":3.592740535736084,"85":2.891366720199585,"86":-0.24590852856636047,"87":-1.760591983795166,"88":-0.6966637372970581,"89":1.9105470180511475,"90":-1.3924200534820557,"91":0.280163437128067,"92":-1.543074369430542,"93":4.408059120178223,"94":5.146304130554199,"95":2.1541359424591064,"96":-1.3500279188156128,"97":-5.24294900894165,"98":3.022611618041992,"99":1.4364105463027954}},"inputBias":{"rows":10,"columns":1,"weights":{"0":-1.0415645837783813,"1":-1.830693244934082,"2":-2.3013858795166016,"3":-2.8303208351135254,"4":-1.7562295198440552,"5":0.4822648763656616,"6":-0.9278154969215393,"7":-0.5993932485580444,"8":-1.3243650197982788,"9":-1.5555187463760376}},"forgetMatrix":{"rows":10,"columns":33,"weights":{"0":-4.2690958976745605,"1":0.2102012187242508,"2":-2.9155848026275635,"3":-2.316934823989868,"4":-3.818910837173462,"5":1.4399385452270508,"6":3.2081823348999023,"7":0.9425376653671265,"8":0.7288748025894165,"9":-1.5920019149780273,"10":4.095898628234863,"11":0.456988126039505,"12":-1.4716267585754395,"13":0.8727163076400757,"14":0.9655407667160034,"15":2.135850429534912,"16":-1.1166752576828003,"17":-0.014993011020123959,"18":-0.6001907587051392,"19":-1.210179090499878,"20":0.9937303066253662,"21":-1.5730687379837036,"22":-0.25225165486335754,"23":-1.9129236936569214,"24":2.998014211654663,"25":-0.25643181800842285,"26":-2.2236335277557373,"27":-1.0557408332824707,"28":-0.6219939589500427,"29":0.19865916669368744,"30":1.6638497114181519,"31":1.261406421661377,"32":-0.7206451892852783,"33":-1.9547314643859863,"34":-1.3281214237213135,"35":-1.559061884880066,"36":-0.6092245578765869,"37":1.2174532413482666,"38":-0.13718415796756744,"39":-0.08491034060716629,"40":0.956875741481781,"41":-3.186310052871704,"42":0.42116087675094604,"43":0.27508804202079773,"44":-2.1658828258514404,"45":-0.21453391015529633,"46":2.1426663398742676,"47":1.692537546157837,"48":0.9010317325592041,"49":1.4969873428344727,"50":0.3367408514022827,"51":-0.3404277563095093,"52":-0.8949136137962341,"53":0.8716825842857361,"54":-3.3905036449432373,"55":-1.0165901184082031,"56":-0.7138065099716187,"57":0.6900678277015686,"58":0.5925905108451843,"59":-1.6902129650115967,"60":-0.8759203553199768,"61":-1.9885560274124146,"62":-0.5416344404220581,"63":-1.625072717666626,"64":-0.9581747651100159,"65":0.7031799554824829,"66":-4.051146984100342,"67":0.47551262378692627,"68":-0.0868656262755394,"69":-0.04418378323316574,"70":-0.09186636656522751,"71":-2.682344675064087,"72":2.631016969680786,"73":1.4708447456359863,"74":1.0596387386322021,"75":-1.9624888896942139,"76":1.3432804346084595,"77":2.232390880584717,"78":0.9884459972381592,"79":-1.1939257383346558,"80":-3.0045578479766846,"81":-0.4237779378890991,"82":-0.5701242685317993,"83":-0.7974739670753479,"84":1.994648814201355,"85":-0.2724968492984772,"86":1.099846363067627,"87":-0.7900736331939697,"88":-1.394112467765808,"89":-1.652963638305664,"90":1.949486494064331,"91":-0.9731802940368652,"92":-1.4373984336853027,"93":-1.8249481916427612,"94":0.33901137113571167,"95":-1.369694471359253,"96":-0.9590555429458618,"97":0.21079468727111816,"98":2.7944529056549072,"99":0.7952393293380737,"100":1.1372500658035278,"101":-1.1521954536437988,"102":-0.10464639216661453,"103":0.5080347061157227,"104":1.7821787595748901,"105":0.1867198348045349,"106":-0.3981102406978607,"107":-0.5146415829658508,"108":2.9759039878845215,"109":0.5423693656921387,"110":3.7956457138061523,"111":-4.4670090675354,"112":-1.1706860065460205,"113":1.6753497123718262,"114":2.190080404281616,"115":0.24566322565078735,"116":0.2254807949066162,"117":-1.0369210243225098,"118":-2.4028804302215576,"119":0.6225294470787048,"120":-1.8063321113586426,"121":-1.185124397277832,"122":-1.7493778467178345,"123":-0.367859423160553,"124":-0.35348570346832275,"125":-1.0453637838363647,"126":-0.9784427285194397,"127":0.4922354817390442,"128":-0.8487875461578369,"129":4.118719577789307,"130":2.0046823024749756,"131":2.6728971004486084,"132":1.637273907661438,"133":-0.6260976195335388,"134":-0.10472487658262253,"135":-1.2517337799072266,"136":0.11205817759037018,"137":-1.6647573709487915,"138":-0.018017876893281937,"139":-1.4661829471588135,"140":-1.494247555732727,"141":-0.4778357446193695,"142":-0.5350915193557739,"143":-3.815086841583252,"144":-1.213411808013916,"145":-0.7702072858810425,"146":-0.1728215515613556,"147":2.6424872875213623,"148":-0.04113344848155975,"149":-0.7232839465141296,"150":-1.1368218660354614,"151":-0.7608681321144104,"152":-0.8298167586326599,"153":-0.8317863941192627,"154":-0.9407749772071838,"155":-0.7459114193916321,"156":-1.107034683227539,"157":-0.958767831325531,"158":-1.9719629287719727,"159":-0.7263423800468445,"160":0.6371406316757202,"161":-0.12491222470998764,"162":0.5004485845565796,"163":1.7993454933166504,"164":-1.8349499702453613,"165":1.766782283782959,"166":1.3633736371994019,"167":-0.04482297599315643,"168":1.409264326095581,"169":0.5264472961425781,"170":-0.6727515459060669,"171":0.10913938283920288,"172":0.9257184863090515,"173":0.4694221615791321,"174":-0.7282728552818298,"175":0.1413269191980362,"176":-1.1662055253982544,"177":-1.326528787612915,"178":-1.4857666492462158,"179":-0.2519386410713196,"180":-3.7072672843933105,"181":0.23301197588443756,"182":-1.7158613204956055,"183":-0.05592106282711029,"184":-1.3980848789215088,"185":-0.09333407878875732,"186":1.2118443250656128,"187":-0.6754163503646851,"188":0.025059131905436516,"189":-0.6627885699272156,"190":-0.35822993516921997,"191":1.3889529705047607,"192":0.07439418882131577,"193":0.8919201493263245,"194":1.7134767770767212,"195":0.18496623635292053,"196":0.13352999091148376,"197":0.458940714597702,"198":0.7251570224761963,"199":1.9572997093200684,"200":1.2662296295166016,"201":-0.12626348435878754,"202":2.0110270977020264,"203":-3.407047986984253,"204":-2.008601188659668,"205":1.3719109296798706,"206":1.1122939586639404,"207":-0.04174954444169998,"208":-2.082176923751831,"209":-1.6675282716751099,"210":-0.7111442685127258,"211":2.0972073078155518,"212":0.293546199798584,"213":1.231627106666565,"214":0.9383858442306519,"215":-0.8447836637496948,"216":0.07966899126768112,"217":1.9817376136779785,"218":1.5671504735946655,"219":-0.417508989572525,"220":-4.357527256011963,"221":0.703925371170044,"222":-1.1278760433197021,"223":-0.3061448037624359,"224":0.5979321599006653,"225":-1.600766658782959,"226":-1.4827919006347656,"227":-0.32857638597488403,"228":-0.042785488069057465,"229":0.3781873285770416,"230":-1.7208664417266846,"231":0.46172013878822327,"232":0.5994548201560974,"233":-1.2712165117263794,"234":-1.2110576629638672,"235":-1.4291502237319946,"236":1.2161657810211182,"237":0.04600246250629425,"238":-0.24411708116531372,"239":0.7181020379066467,"240":-2.7755517959594727,"241":0.5887925028800964,"242":-0.2383805215358734,"243":-0.007187794893980026,"244":1.7371482849121094,"245":0.633640706539154,"246":1.1945111751556396,"247":1.2248979806900024,"248":-0.5422719717025757,"249":1.5063291788101196,"250":0.8503855466842651,"251":-0.8716110587120056,"252":0.09603869915008545,"253":-2.889967441558838,"254":-0.1156548336148262,"255":1.821716070175171,"256":0.3593921959400177,"257":-0.5383565425872803,"258":0.10659166425466537,"259":-0.18848520517349243,"260":0.41754287481307983,"261":-1.737534523010254,"262":0.7763587832450867,"263":-3.2668304443359375,"264":-0.8775582909584045,"265":0.7467519044876099,"266":0.35718539357185364,"267":-0.2529846727848053,"268":2.4084765911102295,"269":-0.8107554316520691,"270":0.20866510272026062,"271":-1.9332284927368164,"272":-0.6615334749221802,"273":1.2608463764190674,"274":0.19369418919086456,"275":-0.5647181272506714,"276":-1.4653453826904297,"277":-0.44814759492874146,"278":-0.30028781294822693,"279":0.3069210946559906,"280":-1.8564399480819702,"281":-0.11765385419130325,"282":-0.950558066368103,"283":0.6028874516487122,"284":-0.4444118142127991,"285":-0.6533322334289551,"286":-0.9248361587524414,"287":2.6214945316314697,"288":-0.9267170429229736,"289":-2.18819260597229,"290":0.16052673757076263,"291":1.775763988494873,"292":0.0896097868680954,"293":3.027632474899292,"294":1.064024806022644,"295":-0.3521251976490021,"296":-0.9755820631980896,"297":-0.07519514858722687,"298":-1.137633204460144,"299":-1.075504183769226,"300":-2.017948865890503,"301":0.8950808048248291,"302":-0.03987119346857071,"303":-2.62846302986145,"304":-0.4063147306442261,"305":-1.0325591564178467,"306":-3.720567464828491,"307":-0.5895754098892212,"308":-0.24317502975463867,"309":1.3031302690505981,"310":1.0334299802780151,"311":2.0769455432891846,"312":0.5178766250610352,"313":-0.7993004322052002,"314":-1.2323311567306519,"315":-2.29547381401062,"316":0.9654214382171631,"317":-1.1912779808044434,"318":-1.2705639600753784,"319":1.8634617328643799,"320":0.1139606460928917,"321":-3.0153250694274902,"322":-1.4072200059890747,"323":1.5083712339401245,"324":2.1985981464385986,"325":-1.7315363883972168,"326":0.3292364776134491,"327":-2.11712384223938,"328":0.551948606967926,"329":-1.649884581565857}},"forgetHidden":{"rows":10,"columns":10,"weights":{"0":0.5221781730651855,"1":0.3613021969795227,"2":0.8560200333595276,"3":1.1264841556549072,"4":2.5485455989837646,"5":-2.3672780990600586,"6":-1.5947834253311157,"7":-2.9464826583862305,"8":0.8225464820861816,"9":0.12196365743875504,"10":4.923886299133301,"11":5.310304641723633,"12":2.5961897373199463,"13":-1.4859161376953125,"14":-1.738398790359497,"15":-4.000906944274902,"16":-2.073310375213623,"17":-4.797478675842285,"18":-4.0935211181640625,"19":4.5102949142456055,"20":4.0062432289123535,"21":4.731436729431152,"22":0.821491539478302,"23":-0.6588002443313599,"24":-4.960953235626221,"25":-3.988208532333374,"26":-1.239711046218872,"27":-0.8891623616218567,"28":3.656839609146118,"29":0.3982214331626892,"30":0.8640681505203247,"31":-0.5096004605293274,"32":0.3170783221721649,"33":2.676323413848877,"34":0.26967084407806396,"35":-0.10884597897529602,"36":2.301997661590576,"37":2.507124423980713,"38":-1.502381443977356,"39":0.5496425032615662,"40":-1.6877728700637817,"41":-3.009320020675659,"42":-4.755238056182861,"43":-5.890258312225342,"44":-2.338840961456299,"45":0.08438026905059814,"46":1.086040735244751,"47":2.2003960609436035,"48":-4.1615309715271,"49":4.709870338439941,"50":3.229966640472412,"51":3.3149523735046387,"52":3.075512647628784,"53":1.4208241701126099,"54":1.1601406335830688,"55":-1.0328466892242432,"56":8.20513916015625,"57":1.1961910724639893,"58":-0.3528500497341156,"59":1.1647390127182007,"60":3.4075489044189453,"61":1.4494789838790894,"62":-2.864940881729126,"63":-2.2682273387908936,"64":-3.4745185375213623,"65":-0.29835548996925354,"66":0.3770765960216522,"67":-2.1380491256713867,"68":-1.2534966468811035,"69":2.7411744594573975,"70":4.232388496398926,"71":1.557728886604309,"72":5.582916259765625,"73":-0.9689319729804993,"74":-5.086998462677002,"75":-2.1617980003356934,"76":2.884554386138916,"77":0.029540272429585457,"78":-4.137420177459717,"79":3.678656816482544,"80":-1.7829805612564087,"81":-5.1908650398254395,"82":-1.9025428295135498,"83":1.6966592073440552,"84":10.473456382751465,"85":3.6271119117736816,"86":-0.05087132006883621,"87":-7.697781562805176,"88":1.1620527505874634,"89":-2.402787208557129,"90":-2.780440330505371,"91":-1.8778387308120728,"92":0.09080339968204498,"93":1.1939027309417725,"94":2.556385040283203,"95":-0.5922197699546814,"96":2.7052769660949707,"97":0.12751011550426483,"98":0.3586100935935974,"99":2.0076732635498047}},"forgetBias":{"rows":10,"columns":1,"weights":{"0":0,"1":0,"2":0,"3":0,"4":0,"5":0,"6":0,"7":0,"8":0,"9":0}},"outputMatrix":{"rows":10,"columns":33,"weights":{"0":-0.24944667518138885,"1":-0.5168362259864807,"2":0.3698839247226715,"3":-0.3800073266029358,"4":1.1583237648010254,"5":-0.2107953429222107,"6":-0.05207861214876175,"7":-0.8919979333877563,"8":-0.6715534329414368,"9":0.3386341333389282,"10":0.049512460827827454,"11":-0.719890296459198,"12":-1.5126769542694092,"13":0.29828453063964844,"14":-0.29357442259788513,"15":2.327077627182007,"16":-0.1398017555475235,"17":0.4609537124633789,"18":-0.04239958897233009,"19":0.8757706880569458,"20":-0.3480369746685028,"21":-0.3472563624382019,"22":-0.8862225413322449,"23":0.02975761890411377,"24":0.14931364357471466,"25":-0.773063063621521,"26":-0.3748064637184143,"27":-0.4297765791416168,"28":0.5037412643432617,"29":0.1257813721895218,"30":-0.12281955033540726,"31":0.8844132423400879,"32":0.13658690452575684,"33":-0.8802115321159363,"34":0.8190691471099854,"35":0.48072707653045654,"36":-1.17637038230896,"37":0.9306042790412903,"38":-0.8088831901550293,"39":-0.12978152930736542,"40":0.7451414465904236,"41":0.0021434251684695482,"42":0.1169363334774971,"43":0.9194484353065491,"44":-1.9797955751419067,"45":-2.146810293197632,"46":0.14807267487049103,"47":-1.0331451892852783,"48":-0.634428083896637,"49":-0.9876697659492493,"50":-0.16048404574394226,"51":-1.12958824634552,"52":0.22677958011627197,"53":-0.4874938130378723,"54":-0.12081457674503326,"55":0.015566175803542137,"56":0.8431926965713501,"57":0.9233190417289734,"58":0.31107375025749207,"59":0.2051263451576233,"60":0.06959742307662964,"61":0.018700391054153442,"62":0.11723193526268005,"63":-0.9418348670005798,"64":0.3440265357494354,"65":1.1448854207992554,"66":0.07962939143180847,"67":-0.25333213806152344,"68":-0.0022666766308248043,"69":0.7716337442398071,"70":-0.052362773567438126,"71":0.18472221493721008,"72":0.3682537376880646,"73":-0.4295913279056549,"74":0.1154189184308052,"75":-0.10693203657865524,"76":-0.014655230566859245,"77":0.7149237990379333,"78":0.5816415548324585,"79":-1.1366831064224243,"80":-0.7745122313499451,"81":-0.9984308481216431,"82":-0.17070406675338745,"83":1.0912240743637085,"84":0.3891052007675171,"85":-0.13698247075080872,"86":0.34749603271484375,"87":0.31158801913261414,"88":-0.16847778856754303,"89":-0.10794702172279358,"90":-0.6098670363426208,"91":0.07301751524209976,"92":-0.041149407625198364,"93":-0.0861545205116272,"94":0.42931097745895386,"95":0.5248092412948608,"96":-0.5309704542160034,"97":-0.5033013820648193,"98":-0.1286209523677826,"99":-0.6472575068473816,"100":-0.36189892888069153,"101":0.0355943962931633,"102":-0.5710524916648865,"103":-0.19796150922775269,"104":-0.036852169781923294,"105":0.1815418154001236,"106":-0.19287405908107758,"107":-0.15164124965667725,"108":0.23802095651626587,"109":0.06351938098669052,"110":0.08878680318593979,"111":0.03246938809752464,"112":-0.566606879234314,"113":-1.066664218902588,"114":-0.3640786409378052,"115":-0.8855422735214233,"116":0.9777225255966187,"117":0.42120715975761414,"118":0.2057035267353058,"119":-0.05851374566555023,"120":0.1886235624551773,"121":0.2530266344547272,"122":0.6836541891098022,"123":0.2670302391052246,"124":-0.15720751881599426,"125":0.23572856187820435,"126":-0.24678215384483337,"127":0.299718976020813,"128":-0.5276290774345398,"129":-0.7912240028381348,"130":0.11670125275850296,"131":0.1521618366241455,"132":-0.9739541411399841,"133":-0.45091512799263,"134":0.5484002232551575,"135":-0.30166593194007874,"136":-3.238095760345459,"137":-0.2060590535402298,"138":0.45034006237983704,"139":0.6798744797706604,"140":0.6303502917289734,"141":0.24946941435337067,"142":0.5089676976203918,"143":0.22606013715267181,"144":1.6268436908721924,"145":1.881319522857666,"146":-1.9052178859710693,"147":0.12794043123722076,"148":-0.04253695532679558,"149":1.7198052406311035,"150":-1.3002336025238037,"151":0.09520159661769867,"152":0.5671281218528748,"153":0.2935760021209717,"154":1.1841678619384766,"155":-0.8378791213035583,"156":1.5530390739440918,"157":-0.4437713921070099,"158":-2.1824018955230713,"159":-0.9829778075218201,"160":1.3826950788497925,"161":-0.7722477912902832,"162":-1.8043135404586792,"163":0.11542557924985886,"164":-0.44507649540901184,"165":-0.12077049911022186,"166":0.24951975047588348,"167":0.25381040573120117,"168":-0.20945124328136444,"169":-2.0471901893615723,"170":1.5177497863769531,"171":0.7010259032249451,"172":0.48784273862838745,"173":0.41819900274276733,"174":-1.078690767288208,"175":-0.47819116711616516,"176":0.16069649159908295,"177":-0.3155882954597473,"178":0.8540091514587402,"179":-0.9445339441299438,"180":0.9052544832229614,"181":-1.0338972806930542,"182":0.18676899373531342,"183":0.47478246688842773,"184":0.44980376958847046,"185":-0.09698421508073807,"186":0.9375208616256714,"187":0.6108924746513367,"188":-1.1649205684661865,"189":1.1853567361831665,"190":0.5619415044784546,"191":-1.771188497543335,"192":-0.24197617173194885,"193":-0.031055625528097153,"194":0.14923222362995148,"195":0.2899472415447235,"196":0.6467057466506958,"197":-1.8707512617111206,"198":-0.3668939471244812,"199":-0.46485602855682373,"200":2.4408252239227295,"201":2.770240068435669,"202":-0.4892427623271942,"203":0.39965131878852844,"204":0.10810716450214386,"205":1.822931170463562,"206":0.5231229066848755,"207":-1.3090747594833374,"208":-0.6715697050094604,"209":0.25025495886802673,"210":0.4280780553817749,"211":0.002289888449013233,"212":-0.9854713082313538,"213":-0.7874437570571899,"214":-0.6063467860221863,"215":-0.21869519352912903,"216":0.5647016167640686,"217":0.24265986680984497,"218":-0.42859143018722534,"219":-0.34487104415893555,"220":-1.6582975387573242,"221":0.669792115688324,"222":-0.0872790515422821,"223":-1.4370325803756714,"224":-0.7032503485679626,"225":1.5416138172149658,"226":0.2986356019973755,"227":2.321596622467041,"228":0.6879809498786926,"229":-1.4718854427337646,"230":0.4058304727077484,"231":0.6534205675125122,"232":1.4249775409698486,"233":0.9906582236289978,"234":0.8136522769927979,"235":-2.101484775543213,"236":1.830072283744812,"237":-1.9142314195632935,"238":-2.8225533962249756,"239":1.7276206016540527,"240":-2.3850209712982178,"241":-1.0490118265151978,"242":2.281290054321289,"243":0.019849631935358047,"244":-2.3512909412384033,"245":-0.8441080451011658,"246":-1.6719495058059692,"247":0.5458475947380066,"248":-0.853521466255188,"249":-0.15939466655254364,"250":-0.29335665702819824,"251":-1.2955964803695679,"252":0.0765654668211937,"253":1.7364150285720825,"254":0.16635245084762573,"255":0.9866640567779541,"256":-0.3351910412311554,"257":-1.9324952363967896,"258":0.7654634118080139,"259":1.0278592109680176,"260":0.3437305986881256,"261":0.9321404695510864,"262":-1.1349740028381348,"263":-1.8367644548416138,"264":-1.682042121887207,"265":-0.20454706251621246,"266":0.9850478768348694,"267":1.7575575113296509,"268":-0.9370930790901184,"269":1.626266360282898,"270":0.7852619886398315,"271":1.3885114192962646,"272":0.8303067684173584,"273":0.9297518730163574,"274":1.640378713607788,"275":2.047652006149292,"276":1.2275452613830566,"277":-1.3956937789916992,"278":-1.6914669275283813,"279":-1.5422325134277344,"280":-0.1277049332857132,"281":-0.8685842156410217,"282":-1.3110251426696777,"283":-1.352690577507019,"284":1.8755650520324707,"285":0.7177587747573853,"286":0.26544103026390076,"287":0.9391404986381531,"288":1.645740270614624,"289":1.1450213193893433,"290":-0.15987035632133484,"291":-0.6303388476371765,"292":-0.344887375831604,"293":-0.47478795051574707,"294":2.5490822792053223,"295":-1.7103394269943237,"296":0.22512611746788025,"297":-0.8358171582221985,"298":-0.02545199543237686,"299":0.6335939764976501,"300":3.1243972778320312,"301":-2.2941250801086426,"302":1.1202608346939087,"303":-0.2899102568626404,"304":-0.28241202235221863,"305":0.45806342363357544,"306":0.34685492515563965,"307":0.9736175537109375,"308":0.7994105219841003,"309":0.4871971309185028,"310":0.5890935659408569,"311":1.6672683954238892,"312":-2.2684433460235596,"313":-0.08014992624521255,"314":0.4902495741844177,"315":-0.3782860338687897,"316":0.605853259563446,"317":-1.1209602355957031,"318":2.036081552505493,"319":0.6803193688392639,"320":0.5430521965026855,"321":-2.3169796466827393,"322":-1.1401079893112183,"323":-1.3022737503051758,"324":0.43933695554733276,"325":0.4072501063346863,"326":0.38195568323135376,"327":-1.1339056491851807,"328":-1.8045679330825806,"329":1.8753525018692017}},"outputHidden":{"rows":10,"columns":10,"weights":{"0":-3.3399479389190674,"1":0.053890593349933624,"2":-1.2281986474990845,"3":-3.7077176570892334,"4":4.245364665985107,"5":-1.4928131103515625,"6":3.5099217891693115,"7":2.929703950881958,"8":-2.6191728115081787,"9":0.14667412638664246,"10":-6.238442420959473,"11":-3.561039686203003,"12":-0.844113290309906,"13":-0.07043346017599106,"14":-0.9496841430664062,"15":-4.555761814117432,"16":1.8886923789978027,"17":-1.7699074745178223,"18":-2.8241934776306152,"19":0.6291401386260986,"20":-0.9639370441436768,"21":-2.312954902648926,"22":-3.3185694217681885,"23":-0.5145531892776489,"24":0.7923612594604492,"25":-4.265506267547607,"26":-1.0725047588348389,"27":-0.33594995737075806,"28":1.6186426877975464,"29":3.8936967849731445,"30":0.5323714017868042,"31":0.2117079347372055,"32":-1.4325757026672363,"33":2.0167551040649414,"34":-1.916582703590393,"35":2.0780558586120605,"36":0.12116125971078873,"37":-1.8066275119781494,"38":2.9795141220092773,"39":7.6172285079956055,"40":-2.9371085166931152,"41":-2.5738253593444824,"42":1.1909067630767822,"43":-2.467602491378784,"44":-3.2107977867126465,"45":-3.2367725372314453,"46":-0.6046252846717834,"47":-1.691195011138916,"48":-2.1479265689849854,"49":2.4929468631744385,"50":-1.1555516719818115,"51":5.2409796714782715,"52":1.1066770553588867,"53":-0.8293943405151367,"54":-2.0782175064086914,"55":-3.1843607425689697,"56":-0.9612560272216797,"57":-5.324167728424072,"58":2.103675603866577,"59":0.4161214530467987,"60":-0.5272029042243958,"61":0.9779369235038757,"62":6.5423078536987305,"63":-0.14872311055660248,"64":1.5852351188659668,"65":-1.7336928844451904,"66":2.7370238304138184,"67":0.1381441205739975,"68":-0.16179312765598297,"69":2.701647996902466,"70":-1.7155394554138184,"71":-0.7778862118721008,"72":-0.9422242045402527,"73":0.5138852000236511,"74":-0.6323457956314087,"75":2.6122779846191406,"76":-0.5186896324157715,"77":0.5366529822349548,"78":2.1571412086486816,"79":0.29484593868255615,"80":-0.21962182223796844,"81":-3.091310977935791,"82":-3.4673073291778564,"83":3.3767311573028564,"84":0.20658326148986816,"85":1.041418194770813,"86":2.914102077484131,"87":-0.37036043405532837,"88":0.2491503208875656,"89":0.16705040633678436,"90":-3.794328212738037,"91":4.348386764526367,"92":1.6065455675125122,"93":4.1295695304870605,"94":2.347620964050293,"95":1.2575418949127197,"96":-0.6556881070137024,"97":-1.1677274703979492,"98":2.4896934032440186,"99":0.637018084526062}},"outputBias":{"rows":10,"columns":1,"weights":{"0":-0.7511520981788635,"1":-1.8261115550994873,"2":-2.39636492729187,"3":-2.8547565937042236,"4":-1.2475723028182983,"5":-1.2208666801452637,"6":-0.9743750095367432,"7":-0.6212091445922852,"8":-0.9764280915260315,"9":-1.2039506435394287}},"cellActivationMatrix":{"rows":10,"columns":33,"weights":{"0":-0.9087380170822144,"1":0.7838501334190369,"2":0.5995484590530396,"3":2.2558929920196533,"4":-0.7472098469734192,"5":0.23733197152614594,"6":-0.06289618462324142,"7":-0.08810440450906754,"8":0.9943740963935852,"9":-0.8257259726524353,"10":-0.5292378067970276,"11":3.4080557823181152,"12":1.7596219778060913,"13":-0.4795408248901367,"14":-1.4866795539855957,"15":-1.0405042171478271,"16":-0.2254646271467209,"17":-0.06535626202821732,"18":0.7731029987335205,"19":1.218889832496643,"20":0.8209946155548096,"21":0.725175678730011,"22":1.879995346069336,"23":-0.04290290176868439,"24":0.533534049987793,"25":0.05325803533196449,"26":1.3679217100143433,"27":-0.7316221594810486,"28":1.225488543510437,"29":-0.4639695882797241,"30":2.5274646282196045,"31":-0.31927335262298584,"32":0.6864944696426392,"33":-0.2952643930912018,"34":-0.8815631866455078,"35":0.8951490521430969,"36":3.035108804702759,"37":1.8540585041046143,"38":-0.5052183270454407,"39":-1.6839350461959839,"40":-1.4354147911071777,"41":0.46528029441833496,"42":-1.2161976099014282,"43":0.2845616638660431,"44":-0.9083904027938843,"45":-0.15795017778873444,"46":-1.809134602546692,"47":-2.3472681045532227,"48":-1.7524027824401855,"49":-0.11258113384246826,"50":1.001556158065796,"51":1.0889216661453247,"52":0.1368035525083542,"53":-0.523377537727356,"54":1.1372133493423462,"55":-1.9075061082839966,"56":1.243213415145874,"57":-0.32351988554000854,"58":-0.22299537062644958,"59":0.582884669303894,"60":0.2728119194507599,"61":-0.280434787273407,"62":0.8191263675689697,"63":0.988403856754303,"64":-1.1943796873092651,"65":1.2356395721435547,"66":-0.658068060874939,"67":0.018267866224050522,"68":-0.15790368616580963,"69":-0.1751493364572525,"70":1.5721017122268677,"71":-1.737615942955017,"72":-0.2951158583164215,"73":-0.8054266571998596,"74":0.5972569584846497,"75":0.7827597260475159,"76":-0.000177550406078808,"77":-0.5708677172660828,"78":-1.02084481716156,"79":-0.23906807601451874,"80":0.23266597092151642,"81":0.06694240123033524,"82":-0.3808417320251465,"83":-1.033544659614563,"84":0.33483970165252686,"85":1.0610109567642212,"86":0.4701516628265381,"87":0.2674119174480438,"88":-0.41871899366378784,"89":-0.16377025842666626,"90":-0.08978372067213058,"91":-0.06551621854305267,"92":1.1123569011688232,"93":-1.3932768106460571,"94":-1.0545896291732788,"95":0.7227617502212524,"96":1.2078644037246704,"97":0.01671646535396576,"98":1.6518893241882324,"99":-0.1820603311061859,"100":-0.04707247391343117,"101":0.5134074687957764,"102":0.8951696157455444,"103":-0.1692773699760437,"104":-1.3824238777160645,"105":0.7833247184753418,"106":-0.65059894323349,"107":0.6317285895347595,"108":1.459051489830017,"109":0.12630252540111542,"110":-0.31275632977485657,"111":-4.666000843048096,"112":0.8313456773757935,"113":-0.5674716234207153,"114":-0.0498037151992321,"115":-0.18444380164146423,"116":0.360720157623291,"117":0.7649985551834106,"118":-0.1679411083459854,"119":0.4168778359889984,"120":-0.049254365265369415,"121":-1.3326387405395508,"122":-1.0904178619384766,"123":0.3729364275932312,"124":-1.1679750680923462,"125":-0.7214492559432983,"126":-0.9542123079299927,"127":-0.9052551984786987,"128":0.5851606130599976,"129":0.444556325674057,"130":-0.2505744397640228,"131":0.9764328002929688,"132":0.5616152286529541,"133":0.009611647576093674,"134":-0.34014615416526794,"135":0.3085799217224121,"136":-0.5202316045761108,"137":0.3539007604122162,"138":0.02070041000843048,"139":0.6003473401069641,"140":0.2175460010766983,"141":0.030912673100829124,"142":-0.6952372193336487,"143":-0.08037120848894119,"144":-0.5442911982536316,"145":0.2508995234966278,"146":-0.4256378710269928,"147":0.15213103592395782,"148":0.007838524878025055,"149":0.9268349409103394,"150":-0.1183256134390831,"151":-1.203629732131958,"152":0.050049204379320145,"153":-0.8307934999465942,"154":-0.40908539295196533,"155":-0.5401769876480103,"156":0.574081301689148,"157":-0.34212467074394226,"158":-2.025402069091797,"159":-0.2290116548538208,"160":-0.006097077392041683,"161":-0.23911221325397491,"162":-0.16289785504341125,"163":0.1626223921775818,"164":0.3089948892593384,"165":-0.8165725469589233,"166":-0.4463912546634674,"167":-0.18085339665412903,"168":-0.7061924934387207,"169":0.035814858973026276,"170":-0.3553329408168793,"171":0.4603227972984314,"172":1.4993420839309692,"173":0.18334665894508362,"174":-0.7640355825424194,"175":-1.0477991104125977,"176":1.5058374404907227,"177":0.356559157371521,"178":0.3350967764854431,"179":-0.9838809967041016,"180":1.1959073543548584,"181":0.4656160771846771,"182":0.3704955279827118,"183":0.33093324303627014,"184":0.7464988231658936,"185":-0.9499646425247192,"186":-0.22731980681419373,"187":-3.61564564704895,"188":-0.8399081230163574,"189":0.23094861209392548,"190":1.295915126800537,"191":-0.3633058965206146,"192":-1.2571989297866821,"193":-0.07273217290639877,"194":-2.3916149139404297,"195":-0.5441762804985046,"196":0.8552643656730652,"197":-1.0958361625671387,"198":0.03905994072556496,"199":-0.9092716574668884,"200":-0.7076991200447083,"201":-2.3181304931640625,"202":-0.8974700570106506,"203":0.7250869274139404,"204":0.5790858268737793,"205":-0.3511912226676941,"206":-0.19145004451274872,"207":0.26299235224723816,"208":-0.3762652277946472,"209":1.129321575164795,"210":0.09243897348642349,"211":-0.31199461221694946,"212":-1.5017520189285278,"213":1.5012421607971191,"214":-0.6293491125106812,"215":1.0093973875045776,"216":0.5887728929519653,"217":1.9217156171798706,"218":1.0069717168807983,"219":-0.3492712080478668,"220":-1.767156720161438,"221":-0.4162832796573639,"222":1.753997564315796,"223":0.7394192218780518,"224":0.1763068586587906,"225":-0.8282760977745056,"226":0.5996124148368835,"227":-0.9175127148628235,"228":0.06831630319356918,"229":1.082384467124939,"230":-0.6340637803077698,"231":-0.35640189051628113,"232":0.23520216345787048,"233":-0.6158315539360046,"234":-2.1933999061584473,"235":0.07548798620700836,"236":0.30292370915412903,"237":1.5536915063858032,"238":2.2777974605560303,"239":-0.8764694929122925,"240":0.5921693444252014,"241":1.210209608078003,"242":-1.160447359085083,"243":-0.21842579543590546,"244":1.5659327507019043,"245":-0.19201764464378357,"246":-0.3081832528114319,"247":0.4754965305328369,"248":-1.5363821983337402,"249":-0.5186810493469238,"250":-0.49796104431152344,"251":0.5026589035987854,"252":-2.194007158279419,"253":-0.6525282263755798,"254":-0.8923783302307129,"255":0.8864887356758118,"256":1.3236123323440552,"257":-0.46737340092658997,"258":-0.7741715908050537,"259":-0.32363274693489075,"260":-0.8545593023300171,"261":-0.9538015127182007,"262":1.2010304927825928,"263":-1.007091760635376,"264":-2.5237417221069336,"265":-0.5945286154747009,"266":-0.4578196108341217,"267":2.3946290016174316,"268":1.3161239624023438,"269":-0.8288218379020691,"270":1.033799171447754,"271":1.5317949056625366,"272":0.28901904821395874,"273":0.49050650000572205,"274":1.5814580917358398,"275":0.401045024394989,"276":-1.2387160062789917,"277":1.2552181482315063,"278":-1.284369707107544,"279":-0.6898952722549438,"280":-0.1503918319940567,"281":-0.11732595413923264,"282":1.040035605430603,"283":-1.0214287042617798,"284":-0.33500516414642334,"285":-0.4533272981643677,"286":-1.2272413969039917,"287":1.2220083475112915,"288":0.09369748830795288,"289":1.0439426898956299,"290":0.006561370566487312,"291":0.5238903164863586,"292":2.168972969055176,"293":1.1612905263900757,"294":1.5232813358306885,"295":-0.652225911617279,"296":0.9207732081413269,"297":1.6180778741836548,"298":0.2606811821460724,"299":-0.02668425627052784,"300":0.08806021511554718,"301":1.3335775136947632,"302":-0.389908105134964,"303":-0.10705789178609848,"304":-0.3167368173599243,"305":-0.031000571325421333,"306":0.02621438540518284,"307":0.370504230260849,"308":-0.3741641640663147,"309":-0.010184351354837418,"310":0.7965450286865234,"311":0.5676604509353638,"312":0.5748201608657837,"313":-0.4331285059452057,"314":0.5430943965911865,"315":-1.325382947921753,"316":0.09981972724199295,"317":-1.2400290966033936,"318":-0.3259805142879486,"319":0.16080313920974731,"320":-0.7434253096580505,"321":-2.651651620864868,"322":0.2951614558696747,"323":-0.13906210660934448,"324":0.12505076825618744,"325":-1.4788541793823242,"326":0.15545225143432617,"327":-0.5825090408325195,"328":0.3975892961025238,"329":0.5098972320556641}},"cellActivationHidden":{"rows":10,"columns":10,"weights":{"0":-2.617737293243408,"1":-3.0163722038269043,"2":-3.9814865589141846,"3":-2.751145601272583,"4":0.9516012072563171,"5":-0.9220614433288574,"6":0.4942009747028351,"7":2.6952831745147705,"8":0.07009483873844147,"9":-1.1921108961105347,"10":-0.260236918926239,"11":-1.7272645235061646,"12":-0.06839443743228912,"13":1.7178364992141724,"14":0.3319944739341736,"15":0.15275771915912628,"16":-0.6784927845001221,"17":-0.4623944163322449,"18":-0.35991671681404114,"19":1.1548326015472412,"20":-1.020088791847229,"21":-2.1544740200042725,"22":-0.5355674028396606,"23":1.2285072803497314,"24":0.7974035143852234,"25":-2.3418524265289307,"26":-1.0766857862472534,"27":-1.9084426164627075,"28":-2.9101974964141846,"29":0.634248673915863,"30":0.3601287305355072,"31":2.7606842517852783,"32":4.902152061462402,"33":-1.6384247541427612,"34":0.3131156861782074,"35":-1.6195374727249146,"36":-1.055417537689209,"37":-2.9467148780822754,"38":-0.5296557545661926,"39":0.770090639591217,"40":2.183289051055908,"41":1.6453566551208496,"42":1.0916365385055542,"43":-0.542305052280426,"44":-0.015944216400384903,"45":-0.48256176710128784,"46":-1.316520094871521,"47":-1.8048120737075806,"48":4.182518482208252,"49":0.3420415222644806,"50":0.7350414395332336,"51":1.2965939044952393,"52":-0.2325928509235382,"53":-0.010261228308081627,"54":1.3778746128082275,"55":-1.4662389755249023,"56":1.025698184967041,"57":-1.444408893585205,"58":-0.6024351716041565,"59":0.505291759967804,"60":-0.13452589511871338,"61":-0.23387157917022705,"62":-1.4542652368545532,"63":-1.275067687034607,"64":-0.7296134829521179,"65":-1.1409682035446167,"66":0.4847237765789032,"67":-1.7630573511123657,"68":0.07471729815006256,"69":-0.8317294120788574,"70":0.724901020526886,"71":1.3985296487808228,"72":0.2291513979434967,"73":-0.04915213957428932,"74":-0.011388692073523998,"75":-1.5739189386367798,"76":3.0821690559387207,"77":-2.2107412815093994,"78":-2.7152726650238037,"79":2.0143635272979736,"80":-3.1772825717926025,"81":-0.14275015890598297,"82":-3.0833961963653564,"83":1.0634276866912842,"84":3.4668619632720947,"85":-0.5511044263839722,"86":-2.670849561691284,"87":-0.6755637526512146,"88":1.4555435180664062,"89":-0.6293977499008179,"90":0.7634090781211853,"91":-0.76308274269104,"92":-0.4383113384246826,"93":-0.08491048216819763,"94":-0.6173346042633057,"95":0.6105550527572632,"96":-0.4036213159561157,"97":0.32541489601135254,"98":-1.549743413925171,"99":0.3717626929283142}},"cellActivationBias":{"rows":10,"columns":1,"weights":{"0":0.20873603224754333,"1":-0.5234745144844055,"2":-0.070400170981884,"3":0.42386776208877563,"4":-0.683090090751648,"5":-0.3686053156852722,"6":-0.5294908881187439,"7":0.34360989928245544,"8":0.8086165189743042,"9":0.19936007261276245}}},{"inputMatrix":{"rows":10,"columns":10,"weights":{"0":0.3951580822467804,"1":1.5630183219909668,"2":0.6813688278198242,"3":-0.8622188568115234,"4":1.9884896278381348,"5":4.290449619293213,"6":-1.7057576179504395,"7":-2.4320969581604004,"8":0.16496333479881287,"9":-0.4282084107398987,"10":-2.568071126937866,"11":1.5469167232513428,"12":-2.659195899963379,"13":-3.8861629962921143,"14":-0.4429519474506378,"15":-0.2477729320526123,"16":-1.5410569906234741,"17":-2.9580187797546387,"18":-0.4136621057987213,"19":4.160754203796387,"20":0.09214775264263153,"21":0.6120665669441223,"22":4.6074538230896,"23":2.4977402687072754,"24":-1.0831918716430664,"25":-1.9791820049285889,"26":-1.8668015003204346,"27":-2.9104294776916504,"28":-0.23113739490509033,"29":0.8467171788215637,"30":-5.097943305969238,"31":-5.127800941467285,"32":-2.1763651371002197,"33":1.7027069330215454,"34":3.8227951526641846,"35":4.073326587677002,"36":1.4519774913787842,"37":4.599590301513672,"38":1.8896211385726929,"39":-0.3661555349826813,"40":0.49228256940841675,"41":3.839139461517334,"42":3.944488525390625,"43":2.8343679904937744,"44":4.834133625030518,"45":0.5960022211074829,"46":-0.2663572430610657,"47":0.911975085735321,"48":2.7108635902404785,"49":-2.1603188514709473,"50":-1.7818658351898193,"51":-0.5492458343505859,"52":-2.2489657402038574,"53":-1.1778247356414795,"54":0.7040995955467224,"55":1.3532072305679321,"56":-3.6370623111724854,"57":2.1881184577941895,"58":5.1937994956970215,"59":-3.0428617000579834,"60":3.6716370582580566,"61":4.0699615478515625,"62":1.8342559337615967,"63":1.969309687614441,"64":-5.651289463043213,"65":0.6718762516975403,"66":-0.5567028522491455,"67":2.692638635635376,"68":1.3974651098251343,"69":-0.5620695948600769,"70":1.1630054712295532,"71":0.11772486567497253,"72":-2.579190492630005,"73":-0.291201114654541,"74":-0.420219361782074,"75":1.166242003440857,"76":-1.3619308471679688,"77":-3.2906510829925537,"78":0.5418219566345215,"79":-3.6273484230041504,"80":0.45209991931915283,"81":-1.8191574811935425,"82":1.5422885417938232,"83":-0.06213117390871048,"84":-1.1913788318634033,"85":-3.018367290496826,"86":-0.22932885587215424,"87":-5.368411540985107,"88":0.45119842886924744,"89":2.6915011405944824,"90":-0.23807507753372192,"91":-6.540983200073242,"92":-1.5477498769760132,"93":-0.0782201737165451,"94":2.6326775550842285,"95":2.530653238296509,"96":-1.174828052520752,"97":0.7725024223327637,"98":-3.284968852996826,"99":1.2095381021499634}},"inputHidden":{"rows":10,"columns":10,"weights":{"0":-3.14988112449646,"1":-1.4599976539611816,"2":0.01633548177778721,"3":0.2137865424156189,"4":1.1574629545211792,"5":2.1245851516723633,"6":0.033693429082632065,"7":-0.7325212359428406,"8":5.092278003692627,"9":1.235308051109314,"10":-0.9117202758789062,"11":1.8099515438079834,"12":1.8769142627716064,"13":-0.5080861449241638,"14":0.4894382953643799,"15":-4.305454730987549,"16":2.1651670932769775,"17":1.9660745859146118,"18":1.0973660945892334,"19":0.7019968628883362,"20":-0.4333140254020691,"21":0.4035423696041107,"22":-0.705466628074646,"23":1.7132943868637085,"24":-3.0643208026885986,"25":3.204914093017578,"26":7.998040676116943,"27":-0.874562680721283,"28":2.7239410877227783,"29":-4.302209854125977,"30":0.8460606932640076,"31":1.1778850555419922,"32":-0.35772407054901123,"33":0.2783859372138977,"34":-1.630334496498108,"35":-1.8091671466827393,"36":1.2222222089767456,"37":-1.0961227416992188,"38":-0.999427855014801,"39":6.190876483917236,"40":1.7990696430206299,"41":3.6722922325134277,"42":0.2283957600593567,"43":2.4959449768066406,"44":-3.185314893722534,"45":-0.5642358660697937,"46":0.5236508250236511,"47":4.175146102905273,"48":2.3352785110473633,"49":0.7993104457855225,"50":2.1160600185394287,"51":-2.136087656021118,"52":1.0425350666046143,"53":-0.3984180986881256,"54":1.303725004196167,"55":1.4416738748550415,"56":-2.3104822635650635,"57":0.6848687529563904,"58":0.8932352662086487,"59":-2.6700329780578613,"60":2.1672451496124268,"61":2.725215435028076,"62":-1.4336432218551636,"63":-1.8712376356124878,"64":1.8427040576934814,"65":-1.4121276140213013,"66":8.998052597045898,"67":3.4186136722564697,"68":-0.969232976436615,"69":0.7864086031913757,"70":-1.9436171054840088,"71":-0.6248812675476074,"72":0.16453514993190765,"73":-4.348082065582275,"74":0.12769927084445953,"75":-3.225529432296753,"76":-4.742802619934082,"77":-1.7270931005477905,"78":0.9057810306549072,"79":-0.7268120646476746,"80":-1.9560264348983765,"81":-0.6224116683006287,"82":-0.9790880680084229,"83":-0.9847167730331421,"84":1.1546581983566284,"85":0.18932676315307617,"86":1.6968019008636475,"87":2.9097845554351807,"88":1.495519757270813,"89":-0.3684139847755432,"90":-0.10616516321897507,"91":-1.974043607711792,"92":2.497087240219116,"93":2.6305532455444336,"94":-0.04050971567630768,"95":-0.5481327772140503,"96":-0.11343245208263397,"97":-1.052069902420044,"98":-0.4978283643722534,"99":1.0941998958587646}},"inputBias":{"rows":10,"columns":1,"weights":{"0":-0.3191038966178894,"1":0.6039441823959351,"2":2.0771267414093018,"3":0.7220693826675415,"4":-3.7604918479919434,"5":-1.8477283716201782,"6":0.722108006477356,"7":-0.6706147789955139,"8":-1.0676920413970947,"9":2.042023181915283}},"forgetMatrix":{"rows":10,"columns":10,"weights":{"0":0.4878145456314087,"1":-2.4744765758514404,"2":-1.4587821960449219,"3":-0.910800039768219,"4":1.844679594039917,"5":-2.9605283737182617,"6":-0.021954389289021492,"7":2.4306576251983643,"8":1.5373555421829224,"9":1.6132718324661255,"10":-4.937475681304932,"11":-1.1371251344680786,"12":5.945028781890869,"13":2.2297284603118896,"14":1.631216049194336,"15":1.7713066339492798,"16":2.0294692516326904,"17":2.02704119682312,"18":-3.4211466312408447,"19":0.31212207674980164,"20":3.4301657676696777,"21":0.35583293437957764,"22":1.1048630475997925,"23":1.3656375408172607,"24":-5.627368927001953,"25":-5.215338706970215,"26":3.0856852531433105,"27":3.88557767868042,"28":-4.2199387550354,"29":3.6788814067840576,"30":1.3775992393493652,"31":-4.252103805541992,"32":-2.07509183883667,"33":3.1109261512756348,"34":3.7090556621551514,"35":-6.63751745223999,"36":-0.6818848252296448,"37":3.532057046890259,"38":-0.9452778100967407,"39":-0.19628024101257324,"40":-1.1303319931030273,"41":-0.5147554278373718,"42":-0.6380834579467773,"43":-0.48045897483825684,"44":-1.0800162553787231,"45":3.3302087783813477,"46":-1.4169609546661377,"47":-0.5081939101219177,"48":3.3307101726531982,"49":1.6126185655593872,"50":-0.9455206394195557,"51":-0.48838528990745544,"52":-0.8120600581169128,"53":-0.018450725823640823,"54":-5.460261821746826,"55":3.7586328983306885,"56":-0.7669248580932617,"57":3.7683486938476562,"58":-4.014223575592041,"59":-1.272821307182312,"60":-7.27419900894165,"61":-0.12286759167909622,"62":4.383618354797363,"63":6.803339958190918,"64":-7.4257612228393555,"65":0.10876782238483429,"66":4.6198248863220215,"67":1.615270733833313,"68":-1.7203432321548462,"69":0.3285073935985565,"70":-0.6234384179115295,"71":-1.0475460290908813,"72":-1.8775039911270142,"73":0.6220448017120361,"74":1.3868030309677124,"75":4.886906147003174,"76":-2.0443544387817383,"77":-1.329304814338684,"78":-0.3447563946247101,"79":-8.003215789794922,"80":-6.081201553344727,"81":0.5514787435531616,"82":0.5940706133842468,"83":-0.9174545407295227,"84":0.26922762393951416,"85":-4.8565802574157715,"86":0.46914994716644287,"87":-4.969517230987549,"88":-0.6637389659881592,"89":4.742393970489502,"90":1.7813211679458618,"91":0.5378029346466064,"92":2.340535879135132,"93":2.034290075302124,"94":-0.28232869505882263,"95":2.575223922729492,"96":-0.8763652443885803,"97":-2.8022804260253906,"98":2.269599199295044,"99":1.2224948406219482}},"forgetHidden":{"rows":10,"columns":10,"weights":{"0":2.7035040855407715,"1":-1.6137664318084717,"2":2.199681520462036,"3":-1.1167694330215454,"4":-1.3067024946212769,"5":4.325794219970703,"6":-0.8421233296394348,"7":-0.616723895072937,"8":1.344222068786621,"9":-5.069549083709717,"10":-0.9986832737922668,"11":-4.005736827850342,"12":1.225710153579712,"13":-0.9409316182136536,"14":-0.3765620291233063,"15":2.964519500732422,"16":0.15957848727703094,"17":-3.7242021560668945,"18":-2.565370798110962,"19":1.0372717380523682,"20":-0.5732499957084656,"21":1.6587620973587036,"22":2.458829641342163,"23":-1.4421502351760864,"24":-3.5066587924957275,"25":1.3940017223358154,"26":-0.0022565212566405535,"27":1.3678174018859863,"28":2.271299362182617,"29":0.9824764132499695,"30":-0.0665617361664772,"31":1.3127145767211914,"32":-3.5688703060150146,"33":-2.58152437210083,"34":0.30904632806777954,"35":-3.0463199615478516,"36":0.086175337433815,"37":2.300295352935791,"38":-4.51218843460083,"39":-3.275806427001953,"40":3.0481033325195312,"41":6.039143085479736,"42":-3.074294328689575,"43":-0.0369277261197567,"44":-1.6329336166381836,"45":-4.185364723205566,"46":-0.5395822525024414,"47":5.901839256286621,"48":-0.24653200805187225,"49":-0.08756967633962631,"50":-2.3829784393310547,"51":3.875943422317505,"52":0.19353646039962769,"53":-3.577995538711548,"54":-0.10675442218780518,"55":-1.6840486526489258,"56":-0.889674961566925,"57":-0.5072938203811646,"58":-0.42603451013565063,"59":-1.4480974674224854,"60":-1.7170963287353516,"61":-0.8363805413246155,"62":-2.0948479175567627,"63":-0.614803671836853,"64":-2.145503282546997,"65":0.9197328686714172,"66":-1.0474013090133667,"67":-4.414550304412842,"68":3.935687780380249,"69":1.1805373430252075,"70":1.0161802768707275,"71":-2.965643882751465,"72":0.9939444661140442,"73":-0.35264572501182556,"74":1.0571599006652832,"75":-1.3320257663726807,"76":4.144098281860352,"77":-0.7195579409599304,"78":-2.4872519969940186,"79":-1.688302755355835,"80":-3.848475694656372,"81":2.2090678215026855,"82":0.22980408370494843,"83":-2.585181951522827,"84":1.1260474920272827,"85":0.3658539652824402,"86":1.7628291845321655,"87":1.3084220886230469,"88":-0.5914496183395386,"89":4.193910121917725,"90":2.6073014736175537,"91":3.104806900024414,"92":0.9709372520446777,"93":-3.45767879486084,"94":-2.5241661071777344,"95":-0.90291428565979,"96":0.7374666929244995,"97":-1.776213526725769,"98":-4.237452983856201,"99":1.2748045921325684}},"forgetBias":{"rows":10,"columns":1,"weights":{"0":0,"1":0,"2":0,"3":0,"4":0,"5":0,"6":0,"7":0,"8":0,"9":0}},"outputMatrix":{"rows":10,"columns":10,"weights":{"0":2.256847381591797,"1":-0.6594128012657166,"2":-1.7572275400161743,"3":-1.4404425621032715,"4":1.6399563550949097,"5":1.9324638843536377,"6":-3.207383871078491,"7":0.5705545544624329,"8":5.043968677520752,"9":-1.4882991313934326,"10":-1.746539831161499,"11":0.4828813374042511,"12":2.851090908050537,"13":4.275312423706055,"14":4.716009616851807,"15":2.882486581802368,"16":0.5793827772140503,"17":-1.2015228271484375,"18":-0.11008307337760925,"19":-0.9653549194335938,"20":0.9843062162399292,"21":0.389830619096756,"22":4.018437385559082,"23":4.380064487457275,"24":-1.2593259811401367,"25":1.8713161945343018,"26":-1.0891035795211792,"27":-0.5115379095077515,"28":2.41525936126709,"29":0.549258828163147,"30":-5.045085906982422,"31":-2.3457229137420654,"32":-2.167586088180542,"33":0.09182754904031754,"34":6.695711612701416,"35":-0.5967504978179932,"36":-3.182159185409546,"37":1.8743349313735962,"38":2.8244028091430664,"39":-1.8134413957595825,"40":-2.9719901084899902,"41":3.2836387157440186,"42":1.7127608060836792,"43":3.663069725036621,"44":4.668300628662109,"45":3.220569133758545,"46":-1.0438663959503174,"47":-2.6436891555786133,"48":4.3415846824646,"49":-1.449420690536499,"50":-1.1404621601104736,"51":1.7578743696212769,"52":-1.8064483404159546,"53":0.10820966958999634,"54":1.373836874961853,"55":2.9599339962005615,"56":0.8823904395103455,"57":2.116746664047241,"58":1.3101601600646973,"59":-0.6980276107788086,"60":2.620086193084717,"61":1.962252140045166,"62":1.4162565469741821,"63":4.2319746017456055,"64":-3.514500141143799,"65":1.5019326210021973,"66":-1.7108509540557861,"67":-1.0389437675476074,"68":2.204793691635132,"69":-0.40189817547798157,"70":0.20760203897953033,"71":-0.22092463076114655,"72":-5.939609527587891,"73":-3.0227625370025635,"74":1.4550918340682983,"75":1.470348596572876,"76":-2.2277097702026367,"77":-0.7843638062477112,"78":-0.20100340247154236,"79":2.2075486183166504,"80":-1.544378399848938,"81":-1.4853832721710205,"82":0.08143498748540878,"83":1.3180979490280151,"84":-0.30879655480384827,"85":-3.773007392883301,"86":2.5136122703552246,"87":0.6361022591590881,"88":-0.5058859586715698,"89":0.8402988314628601,"90":1.7057408094406128,"91":-1.1681313514709473,"92":1.7833415269851685,"93":2.003852128982544,"94":1.7010334730148315,"95":2.2100532054901123,"96":0.7017406225204468,"97":1.2981024980545044,"98":-2.744297504425049,"99":2.5616567134857178}},"outputHidden":{"rows":10,"columns":10,"weights":{"0":-0.8974949717521667,"1":0.25051170587539673,"2":-1.6447466611862183,"3":-2.4766592979431152,"4":0.2715204656124115,"5":0.940666913986206,"6":-1.8318593502044678,"7":-0.13890448212623596,"8":-1.2041786909103394,"9":-2.8726887702941895,"10":-4.398159980773926,"11":-2.374821424484253,"12":0.683203399181366,"13":-3.9448070526123047,"14":0.2976074516773224,"15":-2.043750286102295,"16":0.9275861382484436,"17":2.041891098022461,"18":0.612369179725647,"19":3.03082275390625,"20":-1.993098258972168,"21":-2.1493349075317383,"22":-1.1270980834960938,"23":-1.817940592765808,"24":-2.0953543186187744,"25":0.07938703149557114,"26":1.154525876045227,"27":0.3759385347366333,"28":2.336042881011963,"29":-3.835608959197998,"30":3.4083809852600098,"31":2.6490981578826904,"32":0.25390225648880005,"33":-1.4192875623703003,"34":1.5021867752075195,"35":-0.9539174437522888,"36":1.8897427320480347,"37":2.3964357376098633,"38":-2.19466233253479,"39":-1.145179271697998,"40":0.6107877492904663,"41":1.083595871925354,"42":0.2273695319890976,"43":0.7701027989387512,"44":-1.2174060344696045,"45":0.12328874319791794,"46":-4.022312641143799,"47":0.5841489434242249,"48":3.389800786972046,"49":9.102530479431152,"50":-1.4849464893341064,"51":-1.3894462585449219,"52":-0.19330713152885437,"53":-2.2762322425842285,"54":-2.529884099960327,"55":-0.4283533990383148,"56":-3.0816900730133057,"57":-0.27888908982276917,"58":0.29001399874687195,"59":2.4967856407165527,"60":5.437708377838135,"61":-2.4751780033111572,"62":-0.27044790983200073,"63":-1.7749935388565063,"64":-1.039106011390686,"65":-2.308685779571533,"66":1.2859437465667725,"67":3.0253782272338867,"68":-0.9876358509063721,"69":0.6160733699798584,"70":-0.9802815318107605,"71":1.653754472732544,"72":2.147707223892212,"73":-3.3008439540863037,"74":-4.361419200897217,"75":3.3757026195526123,"76":-3.1717910766601562,"77":-0.19338613748550415,"78":-1.0829665660858154,"79":-0.6507053971290588,"80":0.3942648768424988,"81":-1.2741187810897827,"82":2.2013587951660156,"83":-2.7228732109069824,"84":-5.22522497177124,"85":1.4612352848052979,"86":2.172045946121216,"87":0.9149880409240723,"88":5.428555488586426,"89":1.414864420890808,"90":7.497935771942139,"91":1.1280219554901123,"92":-2.002598762512207,"93":-0.23901773989200592,"94":-2.1798715591430664,"95":0.14297905564308167,"96":-0.14679193496704102,"97":-2.2876646518707275,"98":0.5349172949790955,"99":1.0555167198181152}},"outputBias":{"rows":10,"columns":1,"weights":{"0":0.674776554107666,"1":-0.19617167115211487,"2":2.088715076446533,"3":0.3684968054294586,"4":-3.809643030166626,"5":-1.7765592336654663,"6":0.28989875316619873,"7":-0.431580126285553,"8":-0.623664915561676,"9":2.4337708950042725}},"cellActivationMatrix":{"rows":10,"columns":10,"weights":{"0":0.3267929255962372,"1":0.027467263862490654,"2":-1.518489122390747,"3":0.6007060408592224,"4":2.156453847885132,"5":-1.2363011837005615,"6":-0.7298609614372253,"7":-1.1906713247299194,"8":-0.5216132402420044,"9":0.12379833310842514,"10":-2.009594202041626,"11":-1.3365691900253296,"12":-0.6530247926712036,"13":-0.7324365973472595,"14":3.5978705883026123,"15":2.8385181427001953,"16":-1.4017176628112793,"17":1.4096693992614746,"18":0.4242856800556183,"19":-2.1472671031951904,"20":-0.9482679963111877,"21":0.02337045408785343,"22":1.2767589092254639,"23":0.6985477805137634,"24":-0.9451776742935181,"25":-3.2500925064086914,"26":-1.0829602479934692,"27":-2.438305139541626,"28":-0.4400254189968109,"29":0.659226655960083,"30":2.1493072509765625,"31":2.5846810340881348,"32":0.7748233675956726,"33":0.7369985580444336,"34":-3.477142572402954,"35":-2.813930034637451,"36":3.0717525482177734,"37":-1.420956015586853,"38":-3.795440196990967,"39":0.25428301095962524,"40":1.6360816955566406,"41":-1.921979308128357,"42":-1.4844567775726318,"43":-0.8057332634925842,"44":-0.640438973903656,"45":-0.668541669845581,"46":-0.7069188952445984,"47":-0.46575379371643066,"48":-0.9594894647598267,"49":1.1315643787384033,"50":-0.38436055183410645,"51":-0.4106462299823761,"52":0.1949770748615265,"53":-1.3622816801071167,"54":-3.1837072372436523,"55":-3.9470646381378174,"56":-0.346309632062912,"57":2.1042566299438477,"58":0.0745636448264122,"59":1.6651437282562256,"60":1.4821723699569702,"61":2.305791139602661,"62":1.044098138809204,"63":-0.9895011186599731,"64":-0.29002949595451355,"65":-3.3878746032714844,"66":1.1972852945327759,"67":-0.22689691185951233,"68":-1.9200612306594849,"69":-0.21123000979423523,"70":0.12863311171531677,"71":2.0153346061706543,"72":0.004522104747593403,"73":1.5012621879577637,"74":0.6250585913658142,"75":-1.382496953010559,"76":-2.3700997829437256,"77":-3.305388927459717,"78":1.5770446062088013,"79":-1.2491165399551392,"80":-1.8340128660202026,"81":-1.5778199434280396,"82":0.24277129769325256,"83":2.3410940170288086,"84":1.8556755781173706,"85":0.3853392004966736,"86":-4.530037879943848,"87":-0.3091374933719635,"88":-0.445491760969162,"89":0.7607787847518921,"90":-0.787794828414917,"91":-0.7606692314147949,"92":1.616519570350647,"93":1.1581957340240479,"94":-0.06503172218799591,"95":-0.4505491256713867,"96":-0.3333081603050232,"97":-0.730476438999176,"98":1.0337897539138794,"99":0.7150996923446655}},"cellActivationHidden":{"rows":10,"columns":10,"weights":{"0":0.18555253744125366,"1":-2.485661506652832,"2":2.268575668334961,"3":0.1638481169939041,"4":0.3584692180156708,"5":1.8595399856567383,"6":-3.122811794281006,"7":-2.337547779083252,"8":1.4827187061309814,"9":0.9081588387489319,"10":0.6017640233039856,"11":-2.4658985137939453,"12":-1.2474603652954102,"13":1.3887869119644165,"14":0.8126650452613831,"15":2.3682315349578857,"16":-0.3069145679473877,"17":-0.9713644981384277,"18":-1.9777650833129883,"19":-1.4468127489089966,"20":-0.9855235815048218,"21":0.3027960956096649,"22":1.5126093626022339,"23":-1.295410394668579,"24":-3.4715213775634766,"25":-0.45600011944770813,"26":-1.0223753452301025,"27":1.489575743675232,"28":3.7978789806365967,"29":1.1327399015426636,"30":-0.9535687565803528,"31":-1.749321699142456,"32":-1.0694571733474731,"33":3.2257936000823975,"34":2.7144663333892822,"35":0.5864863395690918,"36":1.3510708808898926,"37":-0.8555935025215149,"38":-2.940455436706543,"39":0.03918389603495598,"40":-0.6784595251083374,"41":-0.46608468890190125,"42":0.5554843544960022,"43":-0.4386984407901764,"44":0.03443535789847374,"45":2.5708389282226562,"46":-1.4330116510391235,"47":-3.042192220687866,"48":1.4901142120361328,"49":0.6571285724639893,"50":0.5938573479652405,"51":-1.9868474006652832,"52":0.28534793853759766,"53":-1.6011872291564941,"54":-0.7757466435432434,"55":0.10722827166318893,"56":-0.11152204126119614,"57":0.3517708480358124,"58":1.334830641746521,"59":-0.831032931804657,"60":-3.7809324264526367,"61":-0.6664801239967346,"62":-0.8879314661026001,"63":1.0739426612854004,"64":-0.6185030341148376,"65":1.9839911460876465,"66":-1.6130975484848022,"67":-2.263580322265625,"68":-0.4304533004760742,"69":2.290550708770752,"70":0.510916531085968,"71":-0.3623199164867401,"72":1.4547171592712402,"73":-0.16941137611865997,"74":-0.04349159821867943,"75":0.8112127780914307,"76":1.1194932460784912,"77":-1.8375319242477417,"78":0.6349847912788391,"79":0.06312468647956848,"80":0.4656237065792084,"81":-0.2624567747116089,"82":0.1160791665315628,"83":-1.822776436805725,"84":-1.911062479019165,"85":-3.017709255218506,"86":-2.292372465133667,"87":4.564908981323242,"88":5.298642635345459,"89":1.8818823099136353,"90":1.3302732706069946,"91":1.5528494119644165,"92":-0.5709143280982971,"93":3.0830793380737305,"94":2.426978826522827,"95":2.8507347106933594,"96":0.47104552388191223,"97":2.6372926235198975,"98":-0.3070412278175354,"99":-0.23648205399513245}},"cellActivationBias":{"rows":10,"columns":1,"weights":{"0":-1.526524305343628,"1":4.035019397735596,"2":-3.2272989749908447,"3":1.1217498779296875,"4":-0.9744480848312378,"5":1.0468603372573853,"6":-2.135720729827881,"7":2.3514163494110107,"8":-0.3587816655635834,"9":-0.22959113121032715}}}],"outputConnector":{"rows":34,"columns":10,"weights":{"0":4.5259928703308105,"1":-5.036429405212402,"2":-7.690456390380859,"3":13.183547019958496,"4":13.124468803405762,"5":10.436498641967773,"6":-16.307376861572266,"7":0.8185889720916748,"8":-0.9442038536071777,"9":5.174869537353516,"10":-6.477245807647705,"11":4.440517902374268,"12":-2.2179126739501953,"13":3.899852752685547,"14":22.13800811767578,"15":2.146507740020752,"16":-2.8359692096710205,"17":-13.257275581359863,"18":-10.237135887145996,"19":0.025465695187449455,"20":-10.345361709594727,"21":16.90842628479004,"22":-6.21635627746582,"23":5.929812431335449,"24":5.874736785888672,"25":-0.6482104659080505,"26":-0.7983218431472778,"27":-17.096538543701172,"28":-7.319329738616943,"29":3.4658217430114746,"30":-6.590170860290527,"31":7.728216171264648,"32":5.505510330200195,"33":-5.937551021575928,"34":-1.8406193256378174,"35":-2.9299862384796143,"36":3.146597146987915,"37":-8.198043823242188,"38":5.830264091491699,"39":7.179566860198975,"40":-7.468657493591309,"41":-14.758807182312012,"42":-3.050907850265503,"43":-1.2844268083572388,"44":-2.5033833980560303,"45":-4.690088272094727,"46":-7.544496059417725,"47":10.740606307983398,"48":-6.9756669998168945,"49":8.375751495361328,"50":-2.461998462677002,"51":-2.330571174621582,"52":6.929006099700928,"53":6.6263508796691895,"54":7.640279293060303,"55":0.3335970342159271,"56":11.095719337463379,"57":4.803957462310791,"58":-3.4593749046325684,"59":-6.103779315948486,"60":-6.079565048217773,"61":-8.197007179260254,"62":6.747569561004639,"63":5.519522666931152,"64":19.16823959350586,"65":-8.318467140197754,"66":-17.75982666015625,"67":2.7402760982513428,"68":-1.3285603523254395,"69":5.015512943267822,"70":5.27412223815918,"71":-1.6356682777404785,"72":7.7292985916137695,"73":13.171896934509277,"74":-1.507085919380188,"75":2.386457920074463,"76":13.64884090423584,"77":2.6521246433258057,"78":0.7787021994590759,"79":8.777579307556152,"80":-4.206601619720459,"81":3.674285650253296,"82":-1.0428282022476196,"83":-9.24058723449707,"84":-3.6075398921966553,"85":1.1971920728683472,"86":19.271991729736328,"87":-18.64386558532715,"88":0.9803150296211243,"89":-11.897014617919922,"90":-6.017385005950928,"91":4.266437530517578,"92":8.46811580657959,"93":24.99446678161621,"94":-0.631769597530365,"95":16.282833099365234,"96":19.829378128051758,"97":-17.607540130615234,"98":5.677347183227539,"99":-3.696115255355835,"100":25.48514175415039,"101":-0.22597217559814453,"102":-13.860230445861816,"103":24.706016540527344,"104":4.886707305908203,"105":-15.915961265563965,"106":8.38564682006836,"107":-4.922473430633545,"108":-20.640422821044922,"109":0.5594246983528137,"110":1.050688624382019,"111":0.14660783112049103,"112":-3.132194995880127,"113":-16.940105438232422,"114":3.09132719039917,"115":-9.474198341369629,"116":-8.898643493652344,"117":-14.569607734680176,"118":-2.2438716888427734,"119":3.1627752780914307,"120":-15.602294921875,"121":-13.923501968383789,"122":-14.521585464477539,"123":0.5828183889389038,"124":-6.727121353149414,"125":-8.19249153137207,"126":36.419578552246094,"127":14.845170021057129,"128":7.164373397827148,"129":0.3946264684200287,"130":-8.603292465209961,"131":6.4775710105896,"132":5.560943126678467,"133":16.356271743774414,"134":-17.149194717407227,"135":1.7725225687026978,"136":-13.68143081665039,"137":-8.780893325805664,"138":-1.2526544332504272,"139":-11.059320449829102,"140":0.7299991250038147,"141":-2.034731388092041,"142":-5.977864742279053,"143":-8.598483085632324,"144":-11.585968971252441,"145":-1.0409883260726929,"146":16.592758178710938,"147":7.906810283660889,"148":-4.906225204467773,"149":5.080055236816406,"150":2.601196050643921,"151":2.96840500831604,"152":-11.763612747192383,"153":-1.5284183025360107,"154":11.562214851379395,"155":1.4059360027313232,"156":6.973351955413818,"157":4.43871545791626,"158":12.228996276855469,"159":11.19703483581543,"160":2.912767171859741,"161":-15.186295509338379,"162":-10.751225471496582,"163":-2.5569818019866943,"164":4.517038822174072,"165":9.103458404541016,"166":23.14175796508789,"167":0.2361578494310379,"168":-8.15272045135498,"169":-12.058463096618652,"170":10.686182975769043,"171":-14.14563274383545,"172":-13.670601844787598,"173":0.43703487515449524,"174":2.6818621158599854,"175":-6.684964179992676,"176":24.507795333862305,"177":1.2341152429580688,"178":3.5475478172302246,"179":-9.312100410461426,"180":12.386124610900879,"181":-0.573809027671814,"182":-31.44097137451172,"183":-7.753815650939941,"184":-5.913517475128174,"185":1.0345014333724976,"186":24.32488250732422,"187":0.4466361403465271,"188":5.201798439025879,"189":13.900108337402344,"190":-6.367386817932129,"191":13.77734661102295,"192":2.0831451416015625,"193":22.141860961914062,"194":-6.845112323760986,"195":-5.1349639892578125,"196":9.69269847869873,"197":10.930868148803711,"198":-7.643126010894775,"199":-0.11481735855340958,