{"type":"LSTM","options":{"inputSize":51,"inputRange":51,"hiddenLayers":[20,20],"outputSize":51,"decayRate":0.999,"smoothEps":1e-8,"regc":0.000001,"clipval":5,"maxPredictionLength":100,"dataFormatter":{"values":["oi","Olá! Como posso lhe ajudar?","olá","Oi! Tudo bem contigo? Espero que sim :) em que posso lhe ajudar?","hey","Ho, let's go! Posso lhe ajudar em algo?","hello","Hi there, how can I help? You would like to convert into english?","alguem ai?","Sempre quando sou ligado, claro!","oi tudo bem?","Opa! Tudo tranquilo por aqui, obrigado por perguntar :D no que posso lhe ajudar?","tudo bem?","Tudo na medida do possivel, no que posso lhe ajudar?","bom dia","Lhe desejo um ótimo dia também :D","oi bom dia","Olá! Um ótimo dia para você também :D","bom","Dia! XD","boa tarde","Boa tarde! Posso lhe ajudar em algo?","boa noite","Boa noite, amigo! Em que posso lhe servir?"],"indexTable":{"o":0,"i":1,"O":2,"l":3,"á":4,"!":5," ":6,"C":7,"m":8,"p":9,"s":10,"h":11,"e":12,"a":13,"j":14,"u":15,"d":16,"r":17,"?":18,"T":19,"b":20,"c":21,"n":22,"t":23,"g":24,"E":25,"q":26,":":27,")":28,"y":29,"H":30,",":31,"'":32,"P":33,"w":34,"I":35,"Y":36,"k":37,"v":38,"S":39,"D":40,"L":41,"ó":42,"é":43,"U":44,"ê":45,"X":46,"B":47,"stop-input":48,"start-output":49,"unrecognized":50},"characterTable":{"0":"o","1":"i","2":"O","3":"l","4":"á","5":"!","6":" ","7":"C","8":"m","9":"p","10":"s","11":"h","12":"e","13":"a","14":"j","15":"u","16":"d","17":"r","18":"?","19":"T","20":"b","21":"c","22":"n","23":"t","24":"g","25":"E","26":"q","27":":","28":")","29":"y","30":"H","31":",","32":"'","33":"P","34":"w","35":"I","36":"Y","37":"k","38":"v","39":"S","40":"D","41":"L","42":"ó","43":"é","44":"U","45":"ê","46":"X","47":"B","48":null,"49":null,"50":null},"characters":["o","i","O","l","á","!"," ","C","m","p","s","h","e","a","j","u","d","r","?","T","b","c","n","t","g","E","q",":",")","y","H",",","'","P","w","I","Y","k","v","S","D","L","ó","é","U","ê","X","B","stop-input","start-output","unrecognized"],"specialIndexes":[48,49,50]}},"input":{"rows":52,"columns":51,"weights":{"0":-0.24718588590621948,"1":1.2746384143829346,"2":1.454316258430481,"3":-0.7766172885894775,"4":-1.8026624917984009,"5":-2.1061136722564697,"6":0.35212215781211853,"7":-1.7570186853408813,"8":-0.6422700881958008,"9":-1.2696404457092285,"10":0.3422568142414093,"11":-1.1753010749816895,"12":-1.979461908340454,"13":1.3088103532791138,"14":-1.0955450534820557,"15":-0.17412874102592468,"16":2.7116832733154297,"17":0.021044131368398666,"18":0.12773019075393677,"19":1.4138599634170532,"20":0.06401251256465912,"21":-1.1422306299209595,"22":-0.02941475249826908,"23":-2.4125750064849854,"24":-1.4991596937179565,"25":0.42614346742630005,"26":-1.2931864261627197,"27":1.2451114654541016,"28":1.2002447843551636,"29":1.4223850965499878,"30":-0.4351617395877838,"31":-0.176959827542305,"32":-2.0512373447418213,"33":-0.7330280542373657,"34":-0.03323587775230408,"35":-1.6625603437423706,"36":-1.6496511697769165,"37":1.1672930717468262,"38":-0.3009185791015625,"39":0.8132482767105103,"40":2.5436694622039795,"41":-0.6326183080673218,"42":0.263424813747406,"43":-1.1540539264678955,"44":-1.5536810159683228,"45":0.6539979577064514,"46":0.22345983982086182,"47":-1.4827735424041748,"48":-1.7385355234146118,"49":1.5532742738723755,"50":-0.8056051731109619,"51":0.38853663206100464,"52":2.454742908477783,"53":2.0386693477630615,"54":0.7889125347137451,"55":0.49650460481643677,"56":0.5591506958007812,"57":0.4380347430706024,"58":0.08956486731767654,"59":-0.2003658264875412,"60":-0.6987542510032654,"61":0.9573186635971069,"62":-3.2042665481567383,"63":0.9714958667755127,"64":0.5804322957992554,"65":0.585598349571228,"66":-0.4748549163341522,"67":0.3196694254875183,"68":2.437206983566284,"69":0.6387109160423279,"70":0.8735504150390625,"71":-0.2627071440219879,"72":4.289511203765869,"73":-1.481374740600586,"74":3.299025535583496,"75":-0.36697402596473694,"76":0.23070406913757324,"77":-0.7627071142196655,"78":1.376692533493042,"79":1.6455215215682983,"80":0.43781670928001404,"81":0.7607702612876892,"82":-0.9014375805854797,"83":-0.1731012612581253,"84":-2.370668649673462,"85":0.264367014169693,"86":-1.1422245502471924,"87":-0.2325293868780136,"88":-0.8042121529579163,"89":-0.773296594619751,"90":1.9640926122665405,"91":-0.22475367784500122,"92":0.8601557612419128,"93":0.5462304949760437,"94":-2.006894588470459,"95":-3.185663938522339,"96":-0.2614680826663971,"97":2.610522508621216,"98":0.6197707056999207,"99":0.20780377089977264,"100":0.696357250213623,"101":0.09128297120332718,"102":-0.14602315425872803,"103":4.306332588195801,"104":-0.04672851786017418,"105":-2.1508901119232178,"106":-0.9021722078323364,"107":1.0696204900741577,"108":-0.8514300584793091,"109":0.8013173341751099,"110":2.5705158710479736,"111":4.241682052612305,"112":-1.0706666707992554,"113":1.716295599937439,"114":2.630136251449585,"115":-1.8983885049819946,"116":2.1001598834991455,"117":0.7503194212913513,"118":1.96324622631073,"119":0.8414443731307983,"120":-1.5184773206710815,"121":1.5190086364746094,"122":-0.07860224694013596,"123":2.8798916339874268,"124":-1.0155479907989502,"125":2.247328996658325,"126":1.7551623582839966,"127":1.2450145483016968,"128":0.12812790274620056,"129":0.2726590931415558,"130":1.7815093994140625,"131":-1.2645061016082764,"132":1.3438125848770142,"133":-1.4851288795471191,"134":0.7256765961647034,"135":1.1337730884552002,"136":-0.28716251254081726,"137":3.4923064708709717,"138":1.45060133934021,"139":-1.6469683647155762,"140":1.5224393606185913,"141":0.8429784774780273,"142":-0.9719218611717224,"143":-0.1183905079960823,"144":-0.25389695167541504,"145":-0.6594952344894409,"146":1.6592813730239868,"147":-2.0698111057281494,"148":3.3720102310180664,"149":-1.999525785446167,"150":1.3464490175247192,"151":-2.1279056072235107,"152":1.2388595342636108,"153":9.683256149291992,"154":-0.33332768082618713,"155":22.54418182373047,"156":-3.4675087928771973,"157":-9.290970802307129,"158":-1.175154685974121,"159":-22.267555236816406,"160":7.941359043121338,"161":-12.835618019104004,"162":-9.187265396118164,"163":4.033534049987793,"164":-6.437208652496338,"165":-1.4767820835113525,"166":14.661733627319336,"167":11.49067497253418,"168":6.8805975914001465,"169":0.6602001786231995,"170":6.894685745239258,"171":-7.26240873336792,"172":2.015188455581665,"173":-6.197551250457764,"174":2.3590073585510254,"175":-3.183016300201416,"176":4.031431198120117,"177":-7.736732482910156,"178":8.318132400512695,"179":-2.0591492652893066,"180":6.553689956665039,"181":0.047890160232782364,"182":-0.2981032133102417,"183":-5.631387710571289,"184":-3.6095433235168457,"185":4.005156993865967,"186":-4.68733549118042,"187":-10.63531494140625,"188":-2.2844932079315186,"189":3.7281675338745117,"190":4.87486457824707,"191":-12.158560752868652,"192":7.933990955352783,"193":21.34197425842285,"194":-0.7338363528251648,"195":6.422720909118652,"196":-5.018115997314453,"197":2.0240087509155273,"198":3.1148974895477295,"199":-0.837365448474884,"200":-4.334541320800781,"201":-13.343607902526855,"202":3.3393425941467285,"203":27.016193389892578,"204":-3.0062830448150635,"205":0.9783682227134705,"206":-2.8961451053619385,"207":-0.4376288056373596,"208":-3.8538434505462646,"209":1.9566315412521362,"210":-0.6187309622764587,"211":-2.4098188877105713,"212":-2.912403106689453,"213":-0.08084053546190262,"214":2.763340950012207,"215":2.3221359252929688,"216":1.2167853116989136,"217":-1.947036862373352,"218":-2.2726194858551025,"219":-1.362189769744873,"220":-1.1880534887313843,"221":-1.175129771232605,"222":2.442068099975586,"223":5.7932538986206055,"224":2.320486068725586,"225":-0.1567564457654953,"226":3.603005886077881,"227":1.5110533237457275,"228":-1.481519341468811,"229":-0.43842175602912903,"230":2.789548397064209,"231":-2.8912203311920166,"232":-3.2376692295074463,"233":1.0611921548843384,"234":-0.11594771593809128,"235":-3.221226692199707,"236":-2.282661199569702,"237":0.71307772397995,"238":2.5242185592651367,"239":0.4946742355823517,"240":2.660918712615967,"241":0.7123444676399231,"242":1.065618872642517,"243":5.921857833862305,"244":3.3462719917297363,"245":0.9000035524368286,"246":0.3820090889930725,"247":0.8007881045341492,"248":2.4751083850860596,"249":-3.2318809032440186,"250":5.907802581787109,"251":-0.6601463556289673,"252":2.468928813934326,"253":6.930155277252197,"254":4.83925199508667,"255":-29.68792152404785,"256":7.994013786315918,"257":-36.41728973388672,"258":25.12850570678711,"259":17.999156951904297,"260":5.984548091888428,"261":-2.0848684310913086,"262":26.248666763305664,"263":-21.474267959594727,"264":-14.589927673339844,"265":5.402584075927734,"266":9.382713317871094,"267":-37.57175064086914,"268":-1.9678105115890503,"269":74.27420043945312,"270":-16.653186798095703,"271":-3.191732168197632,"272":0.8811519145965576,"273":56.720218658447266,"274":-27.300745010375977,"275":46.718685150146484,"276":-41.30131912231445,"277":4.388149738311768,"278":-11.429828643798828,"279":3.403416633605957,"280":6.77967643737793,"281":2.2036702632904053,"282":37.133235931396484,"283":19.454492568969727,"284":-12.609251022338867,"285":-2.2289931774139404,"286":30.454917907714844,"287":23.668495178222656,"288":24.79767417907715,"289":36.155391693115234,"290":80.49011993408203,"291":35.24717330932617,"292":16.1446475982666,"293":-22.481643676757812,"294":-15.57860279083252,"295":-19.896835327148438,"296":-54.03243637084961,"297":2.4767253398895264,"298":-15.674534797668457,"299":3.0654289722442627,"300":-43.1553955078125,"301":18.092897415161133,"302":-4.281764507293701,"303":45.5052375793457,"304":13.561691284179688,"305":13.610450744628906,"306":-3.9548370838165283,"307":-2.560100793838501,"308":-1.2187753915786743,"309":2.3956544399261475,"310":1.7345550060272217,"311":-1.0103288888931274,"312":-0.03885257616639137,"313":-0.23821325600147247,"314":0.18992191553115845,"315":-0.48341745138168335,"316":2.2428994178771973,"317":3.1518685817718506,"318":-1.6399823427200317,"319":-0.8843370676040649,"320":1.7142592668533325,"321":-0.9398189783096313,"322":0.9030150175094604,"323":-2.433317184448242,"324":-0.3512975573539734,"325":0.15091952681541443,"326":-2.091836452484131,"327":2.7459189891815186,"328":-0.041354428976774216,"329":0.4085424542427063,"330":0.5880095958709717,"331":1.1681773662567139,"332":-1.220133900642395,"333":1.2954471111297607,"334":-0.5309017300605774,"335":0.6180140376091003,"336":0.49075213074684143,"337":-1.5406410694122314,"338":-2.9707577228546143,"339":-0.9415213465690613,"340":0.0052954466082155704,"341":1.5864717960357666,"342":-0.7294789552688599,"343":1.4609088897705078,"344":-3.494673013687134,"345":0.4329178035259247,"346":1.0155055522918701,"347":-2.188004493713379,"348":-0.6620756983757019,"349":2.922347068786621,"350":1.707190990447998,"351":2.548640012741089,"352":0.1477334350347519,"353":2.996429681777954,"354":-0.9953005313873291,"355":-0.9205601215362549,"356":1.2957918643951416,"357":-2.088505744934082,"358":-1.5963107347488403,"359":2.631863594055176,"360":2.550835371017456,"361":1.5068027973175049,"362":-1.6023730039596558,"363":-0.21847319602966309,"364":0.3144213855266571,"365":1.1873831748962402,"366":-1.3155817985534668,"367":-3.964421033859253,"368":0.6090588569641113,"369":1.2511296272277832,"370":1.151611566543579,"371":-2.353057622909546,"372":0.7904685735702515,"373":0.427353173494339,"374":1.151110053062439,"375":-0.4832265079021454,"376":0.3012361526489258,"377":1.5080151557922363,"378":3.9271178245544434,"379":0.21788136661052704,"380":-1.1293972730636597,"381":2.1801931858062744,"382":-2.963012933731079,"383":2.154414653778076,"384":3.2278456687927246,"385":2.463636636734009,"386":-1.5116214752197266,"387":-0.17906548082828522,"388":-2.5275862216949463,"389":0.873058021068573,"390":-2.449065685272217,"391":-2.376288414001465,"392":-1.2168478965759277,"393":0.196388840675354,"394":-1.0815186500549316,"395":-1.1160473823547363,"396":3.326467990875244,"397":-0.4319256842136383,"398":-0.006312324665486813,"399":-1.499294638633728,"400":-2.941869020462036,"401":-0.016103452071547508,"402":-0.875450074672699,"403":0.9954320788383484,"404":-0.3830661177635193,"405":0.3279871642589569,"406":-2.311406373977661,"407":-1.1630768775939941,"408":-484.14849853515625,"409":-145.46035766601562,"410":475.8377380371094,"411":329.6297302246094,"412":414.1054992675781,"413":-341.771240234375,"414":405.2826232910156,"415":481.4716491699219,"416":419.93536376953125,"417":267.7239685058594,"418":-176.3939208984375,"419":377.8912048339844,"420":497.3716125488281,"421":441.6085205078125,"422":-351.14068603515625,"423":447.416259765625,"424":493.61065673828125,"425":409.4071044921875,"426":-459.0906677246094,"427":491.46612548828125,"428":-497.41302490234375,"429":387.4870910644531,"430":-270.85443115234375,"431":280.47711181640625,"432":-283.32080078125,"433":111.69525146484375,"434":-508.93988037109375,"435":511.0718688964844,"436":400.9757385253906,"437":-460.48101806640625,"438":-483.5634765625,"439":-475.5123596191406,"440":-58.26899337768555,"441":-466.7013244628906,"442":-445.358642578125,"443":504.62542724609375,"444":-167.0799102783203,"445":437.50054931640625,"446":-492.1749267578125,"447":-25.93389320373535,"448":485.97393798828125,"449":10.732917785644531,"450":-464.4262390136719,"451":404.81011962890625,"452":513.0133666992188,"453":506.6681213378906,"454":478.41064453125,"455":473.5564880371094,"456":-467.8111877441406,"457":-453.368408203125,"458":-240.1591796875,"459":-2.856567859649658,"460":0.7043006420135498,"461":1.873964786529541,"462":-2.146608352661133,"463":-0.10252047330141068,"464":-1.6286900043487549,"465":0.0019169272854924202,"466":-0.2532917559146881,"467":1.0906676054000854,"468":-0.9929393529891968,"469":0.6137378811836243,"470":-1.0659983158111572,"471":1.141479730606079,"472":-0.7444223165512085,"473":-1.6157257556915283,"474":3.904989004135132,"475":2.5277576446533203,"476":3.6031360626220703,"477":-2.453505039215088,"478":1.132768154144287,"479":1.1453465223312378,"480":4.192337989807129,"481":1.1943877935409546,"482":0.7609512209892273,"483":-0.4472907483577728,"484":-1.0322636365890503,"485":-0.9448575377464294,"486":2.6264045238494873,"487":-0.3624127209186554,"488":-0.016959138214588165,"489":2.5575599670410156,"490":0.22407498955726624,"491":0.7578415274620056,"492":-1.0045735836029053,"493":2.266979217529297,"494":0.605039656162262,"495":1.6987264156341553,"496":-2.5027353763580322,"497":-0.719610869884491,"498":-1.010474681854248,"499":1.9859198331832886,"500":4.567482948303223,"501":-0.0807429701089859,"502":-0.2228279709815979,"503":-0.3770999610424042,"504":-0.49044036865234375,"505":0.6189784407615662,"506":0.880382776260376,"507":-1.2148782014846802,"508":3.018334150314331,"509":-0.9869595170021057,"510":-0.485327810049057,"511":-0.6125114560127258,"512":-0.9214463829994202,"513":-1.5932718515396118,"514":-1.3718100786209106,"515":-0.19569455087184906,"516":-0.9748317003250122,"517":-1.661584496498108,"518":-4.177022457122803,"519":-1.1669918298721313,"520":3.788954973220825,"521":0.20918725430965424,"522":3.649646282196045,"523":-0.4760816693305969,"524":-1.205102801322937,"525":1.1975148916244507,"526":2.7533459663391113,"527":0.043824452906847,"528":-0.8259966969490051,"529":-1.8939223289489746,"530":1.131040096282959,"531":-1.7136821746826172,"532":0.628751814365387,"533":-4.421760082244873,"534":0.6544795036315918,"535":2.9579789638519287,"536":2.5349626541137695,"537":2.1794357299804688,"538":1.2981396913528442,"539":-0.5901015996932983,"540":-0.5591628551483154,"541":1.3834720849990845,"542":1.1693096160888672,"543":-0.5762616991996765,"544":-3.47989821434021,"545":4.402026653289795,"546":-1.1749018430709839,"547":0.46947741508483887,"548":-3.2429187297821045,"549":-0.3503493368625641,"550":-1.0052403211593628,"551":-1.9243398904800415,"552":-2.856447696685791,"553":-1.9363902807235718,"554":1.4989502429962158,"555":-1.2597907781600952,"556":-2.192723512649536,"557":0.38189247250556946,"558":0.1860179901123047,"559":-0.13114970922470093,"560":-0.04416457936167717,"561":0.07791556417942047,"562":1.4214729070663452,"563":0.5053826570510864,"564":-1.96009361743927,"565":-1.1570485830307007,"566":1.332781195640564,"567":0.5536392331123352,"568":3.6103625297546387,"569":-0.3153226673603058,"570":-0.3827400207519531,"571":-1.902597188949585,"572":-0.8205333352088928,"573":-0.9297086596488953,"574":-1.5776768922805786,"575":-0.9207450151443481,"576":2.346769094467163,"577":2.1597301959991455,"578":-0.24300837516784668,"579":-2.4211008548736572,"580":2.0604348182678223,"581":4.105011463165283,"582":-3.2564849853515625,"583":0.373351514339447,"584":-1.3362985849380493,"585":-0.5479757189750671,"586":0.6991549730300903,"587":4.77904748916626,"588":3.325889825820923,"589":1.2983860969543457,"590":-6.450148582458496,"591":0.9419174790382385,"592":4.921375751495361,"593":-0.6142336130142212,"594":-2.34053635597229,"595":2.622704029083252,"596":-0.10410268604755402,"597":0.3183155953884125,"598":1.13094961643219,"599":0.1295820027589798,"600":-0.2502330541610718,"601":-0.5232627987861633,"602":0.8143512010574341,"603":-1.7084898948669434,"604":-2.226196765899658,"605":-0.8874971270561218,"606":-1.1792821884155273,"607":-1.9356358051300049,"608":-3.3461639881134033,"609":1.2504252195358276,"610":4.15313196182251,"611":-0.8742107152938843,"612":7.903923511505127,"613":-0.12302196770906448,"614":-0.44634512066841125,"615":-2.4562792778015137,"616":-0.8662543296813965,"617":-2.017385959625244,"618":0.3225093483924866,"619":2.488534688949585,"620":0.5053732991218567,"621":0.8521004915237427,"622":-2.5299088954925537,"623":-0.7568140625953674,"624":2.322164297103882,"625":-2.7133843898773193,"626":-2.923332691192627,"627":-0.1111280620098114,"628":-4.299315929412842,"629":-5.928319454193115,"630":0.6786721348762512,"631":-0.8307739496231079,"632":-1.1710072755813599,"633":-1.1755647659301758,"634":-0.3644058406352997,"635":-0.8824408650398254,"636":2.662648916244507,"637":0.8579248189926147,"638":-2.6686060428619385,"639":-4.813718318939209,"640":-2.22476863861084,"641":-0.43438073992729187,"642":-2.5322229862213135,"643":-4.184240818023682,"644":2.0331435203552246,"645":4.998870372772217,"646":-1.7616945505142212,"647":-5.334159851074219,"648":5.2237019538879395,"649":-2.4551234245300293,"650":3.496591806411743,"651":-2.1201579570770264,"652":-4.408799648284912,"653":1.6977248191833496,"654":2.8183822631835938,"655":-1.2379717826843262,"656":-1.406098484992981,"657":3.4085774421691895,"658":0.7119540572166443,"659":-1.1273605823516846,"660":1.4224514961242676,"661":2.3677783012390137,"662":2.945962429046631,"663":-0.9394564032554626,"664":-5.2988996505737305,"665":-1.1988292932510376,"666":-1.2832459211349487,"667":0.7181193828582764,"668":-0.6845558881759644,"669":1.5543524026870728,"670":-1.0123589038848877,"671":-2.690704822540283,"672":0.7990933656692505,"673":1.8473254442214966,"674":3.870760440826416,"675":1.636006474494934,"676":-2.0205836296081543,"677":0.3460143208503723,"678":0.2227056920528412,"679":1.683960199356079,"680":-0.30865997076034546,"681":0.027005912736058235,"682":-1.3036391735076904,"683":-0.6489251852035522,"684":-0.7310535907745361,"685":0.9477440118789673,"686":3.547028064727783,"687":1.158668041229248,"688":2.3634119033813477,"689":0.3657612204551697,"690":0.6858574151992798,"691":0.37072092294692993,"692":-0.7557975053787231,"693":0.1150038093328476,"694":-1.510042667388916,"695":2.428541660308838,"696":-1.098795771598816,"697":-2.8662869930267334,"698":1.8425461053848267,"699":0.7288523316383362,"700":0.21361926198005676,"701":-2.9516232013702393,"702":1.5964453220367432,"703":-1.576650857925415,"704":-1.4096919298171997,"705":0.32910415530204773,"706":0.009648691862821579,"707":2.441089153289795,"708":-0.008721861988306046,"709":0.6421290636062622,"710":2.1597912311553955,"711":2.444578170776367,"712":1.6085275411605835,"713":-0.3493988811969757,"714":-0.2789932191371918,"715":1.7775702476501465,"716":-0.0110434889793396,"717":0.8744610548019409,"718":0.11277911812067032,"719":-4.679012775421143,"720":1.8859550952911377,"721":-4.550770282745361,"722":1.3303312063217163,"723":-0.5080416202545166,"724":0.9095425605773926,"725":-1.2207891941070557,"726":0.25649210810661316,"727":1.2515099048614502,"728":-1.2468849420547485,"729":0.06679011136293411,"730":2.0399041175842285,"731":1.8702895641326904,"732":2.112675189971924,"733":0.07637415826320648,"734":1.2605808973312378,"735":0.4103603959083557,"736":-1.3108294010162354,"737":1.3701738119125366,"738":-2.5282628536224365,"739":-0.7560994029045105,"740":-0.18015949428081512,"741":-0.7670243382453918,"742":-2.1916675567626953,"743":0.27205222845077515,"744":2.986208438873291,"745":-2.0705482959747314,"746":-2.5636353492736816,"747":-2.119454860687256,"748":0.8503871560096741,"749":-0.9046708941459656,"750":-0.986236572265625,"751":-0.4478719234466553,"752":1.012908697128296,"753":2.9657962322235107,"754":1.6500688791275024,"755":1.455385446548462,"756":-0.17741604149341583,"757":-1.9495677947998047,"758":-0.24393421411514282,"759":-0.6263201236724854,"760":0.4510699212551117,"761":0.5778809785842896,"762":-4.360507011413574,"763":-0.9456144571304321,"764":-0.9186286926269531,"765":14.761819839477539,"766":-7.489289283752441,"767":-3.443077802658081,"768":-21.749710083007812,"769":7.785678863525391,"770":32.8072509765625,"771":4.953521251678467,"772":19.866323471069336,"773":-9.232725143432617,"774":-2.9799225330352783,"775":-14.186370849609375,"776":0.20524032413959503,"777":-18.334754943847656,"778":-9.797345161437988,"779":-1.6189512014389038,"780":9.269291877746582,"781":-19.769367218017578,"782":-2.7644052505493164,"783":0.912970781326294,"784":-24.817590713500977,"785":-14.85879898071289,"786":-25.994050979614258,"787":12.628227233886719,"788":-12.371423721313477,"789":2.8088696002960205,"790":-0.8404514193534851,"791":-8.182644844055176,"792":-20.19322967529297,"793":-31.492345809936523,"794":-35.12183380126953,"795":7.4750776290893555,"796":13.651752471923828,"797":28.097187042236328,"798":11.867212295532227,"799":19.502920150756836,"800":-3.589948892593384,"801":5.39736270904541,"802":-6.810111999511719,"803":11.379095077514648,"804":-25.360031127929688,"805":-5.414496898651123,"806":0.3609643876552582,"807":-10.205430030822754,"808":1.320649266242981,"809":1.4483959674835205,"810":25.630001068115234,"811":-26.110742568969727,"812":18.234487533569336,"813":4.285308361053467,"814":12.770349502563477,"815":-5.0877814292907715,"816":0.02921784296631813,"817":2.5530078411102295,"818":2.091665744781494,"819":1.2261766195297241,"820":-0.42141109704971313,"821":0.1173485815525055,"822":0.8523684740066528,"823":-0.9195816516876221,"824":0.7153889536857605,"825":1.243744134902954,"826":-2.1920082569122314,"827":-4.450448989868164,"828":-0.02414950169622898,"829":0.8189566135406494,"830":-0.6286834478378296,"831":2.808981418609619,"832":0.6491966247558594,"833":4.363678455352783,"834":-0.32158222794532776,"835":1.588640809059143,"836":0.9766842126846313,"837":2.548999071121216,"838":-0.743233859539032,"839":0.3548074960708618,"840":0.5705816149711609,"841":0.694453239440918,"842":0.29827240109443665,"843":0.4080447852611542,"844":-0.09078709036111832,"845":4.1439104080200195,"846":1.693800449371338,"847":-0.12090811878442764,"848":-3.346889019012451,"849":-2.0464141368865967,"850":1.4163818359375,"851":-1.9319541454315186,"852":0.9014162421226501,"853":-1.598076581954956,"854":-1.5422492027282715,"855":0.4540465176105499,"856":0.5182857513427734,"857":-0.2506371736526489,"858":3.330767869949341,"859":-1.5148606300354004,"860":-1.7596478462219238,"861":-1.7179338932037354,"862":3.8542559146881104,"863":1.3599132299423218,"864":-0.08723921328783035,"865":-0.09372556954622269,"866":2.799893617630005,"867":-0.007624385878443718,"868":0.6666461229324341,"869":-1.323728322982788,"870":0.5296468734741211,"871":0.02513975277543068,"872":2.194420337677002,"873":0.6762286424636841,"874":2.350518226623535,"875":1.4424951076507568,"876":-0.2955006957054138,"877":-0.7360305786132812,"878":0.262847363948822,"879":-0.14966687560081482,"880":-3.159820318222046,"881":0.5579581260681152,"882":-3.967190742492676,"883":-1.0640136003494263,"884":-2.677372932434082,"885":2.6027495861053467,"886":-3.9607770442962646,"887":0.41107407212257385,"888":0.05244411900639534,"889":-0.17906096577644348,"890":-2.6935923099517822,"891":1.6482399702072144,"892":1.8744558095932007,"893":-0.7233576774597168,"894":-1.7705076932907104,"895":0.6879308819770813,"896":2.163243055343628,"897":-0.7746943235397339,"898":0.5897649526596069,"899":1.5338466167449951,"900":-2.2160847187042236,"901":0.03902357071638107,"902":0.5423794984817505,"903":-4.111522197723389,"904":0.4921311140060425,"905":0.6708577275276184,"906":-0.10622311383485794,"907":1.848755121231079,"908":-1.9038569927215576,"909":-2.372462749481201,"910":-0.589288592338562,"911":-0.9902191162109375,"912":-0.2685038149356842,"913":-1.3878166675567627,"914":-0.8863944411277771,"915":0.4516015648841858,"916":1.3663054704666138,"917":-1.6498939990997314,"918":1.7113548517227173,"919":0.7181904315948486,"920":-1.9352694749832153,"921":0.7588529586791992,"922":0.4841599762439728,"923":-4.167069435119629,"924":1.6768825054168701,"925":-1.54989755153656,"926":0.4408595860004425,"927":0.2830280065536499,"928":-3.31547212600708,"929":-1.3179928064346313,"930":-0.021854467689990997,"931":-0.630598783493042,"932":-0.0724986121058464,"933":-4.125888347625732,"934":-2.1201119422912598,"935":-2.3360507488250732,"936":1.7893294095993042,"937":0.2870618402957916,"938":-0.03664720803499222,"939":1.2025184631347656,"940":-3.6516475677490234,"941":2.897144079208374,"942":-1.7169556617736816,"943":2.2399353981018066,"944":-1.4694492816925049,"945":-0.745033323764801,"946":1.5329618453979492,"947":3.9787487983703613,"948":3.6714236736297607,"949":-0.9309550523757935,"950":-2.2734689712524414,"951":0.7778461575508118,"952":2.676922559738159,"953":-1.2950859069824219,"954":-0.015720369294285774,"955":-1.784269094467163,"956":0.7511737942695618,"957":1.8834929466247559,"958":-0.46605589985847473,"959":0.07311113178730011,"960":5.224719047546387,"961":-2.865334987640381,"962":-1.4930332899093628,"963":-1.2840888500213623,"964":-0.09433341026306152,"965":1.6026897430419922,"966":-1.014499306678772,"967":-0.8362666368484497,"968":0.03898315876722336,"969":-0.8443620800971985,"970":-1.0885839462280273,"971":3.2166731357574463,"972":2.6203243732452393,"973":-1.8405811786651611,"974":-4.780704021453857,"975":2.7414498329162598,"976":1.3490861654281616,"977":-3.058290719985962,"978":-2.4594457149505615,"979":2.095845937728882,"980":2.5254697799682617,"981":-0.487061083316803,"982":0.0494687519967556,"983":-0.2754156291484833,"984":2.507219076156616,"985":-0.7844541072845459,"986":-0.9458725452423096,"987":-2.9264304637908936,"988":-1.0762485265731812,"989":-0.10930328816175461,"990":0.7809460759162903,"991":4.42213249206543,"992":-0.9851002097129822,"993":-2.3730945587158203,"994":-1.5649181604385376,"995":2.4077413082122803,"996":0.32822608947753906,"997":1.8915776014328003,"998":-2.4244399070739746,"999":-3.7561869621276855,"1000":0.46612823009490967,"1001":0.5207332968711853,"1002":-0.6978681087493896,"1003":-2.3774800300598145,"1004":-0.9715467691421509,"1005":-0.9446638226509094,"1006":0.420971542596817,"1007":-2.1409080028533936,"1008":-1.1459448337554932,"1009":2.005406141281128,"1010":0.4905301630496979,"1011":-0.5780790448188782,"1012":-0.8299679160118103,"1013":1.8094218969345093,"1014":-0.4299553334712982,"1015":-0.8285959362983704,"1016":5.105870246887207,"1017":-1.1732838153839111,"1018":-2.1656923294067383,"1019":-0.1923915445804596,"1020":-4.3097758293151855,"1021":-4.566586971282959,"1022":3.5106756687164307,"1023":5.87009334564209,"1024":0.22629371285438538,"1025":-3.2037134170532227,"1026":-0.039622679352760315,"1027":-2.800476551055908,"1028":1.491044521331787,"1029":3.133141040802002,"1030":-7.522969722747803,"1031":3.889230489730835,"1032":-0.5931322574615479,"1033":-2.144298553466797,"1034":-0.5149577856063843,"1035":-1.6217771768569946,"1036":-0.374444842338562,"1037":0.42961716651916504,"1038":4.433716297149658,"1039":-3.13004732131958,"1040":3.604114294052124,"1041":1.9765880107879639,"1042":0.20498070120811462,"1043":6.394917011260986,"1044":-4.359850883483887,"1045":-6.650862693786621,"1046":-6.963435173034668,"1047":-8.285564422607422,"1048":-0.12806633114814758,"1049":-5.008228302001953,"1050":-3.3821706771850586,"1051":-7.46724796295166,"1052":5.98950719833374,"1053":3.1726136207580566,"1054":-4.947571754455566,"1055":-8.006254196166992,"1056":5.807521820068359,"1057":3.359071969985962,"1058":-10.25742244720459,"1059":-8.339200973510742,"1060":-3.0381054878234863,"1061":2.3776886463165283,"1062":3.56939959526062,"1063":-2.1503968238830566,"1064":5.193212509155273,"1065":6.568265438079834,"1066":0.8570452928543091,"1067":4.978097438812256,"1068":-0.5772250890731812,"1069":-1.5209081172943115,"1070":2.707137107849121,"1071":2.9886436462402344,"1072":-1.5529768466949463,"1073":-1.859187126159668,"1074":2.0558321475982666,"1075":1.2793561220169067,"1076":5.441786766052246,"1077":1.7904760837554932,"1078":4.394904136657715,"1079":-1.6496328115463257,"1080":-4.318120956420898,"1081":0.9290043115615845,"1082":1.4173718690872192,"1083":-1.069555640220642,"1084":-1.3367959260940552,"1085":0.7615759968757629,"1086":-6.742600917816162,"1087":-0.266729474067688,"1088":-5.407773017883301,"1089":2.193361282348633,"1090":-2.4656193256378174,"1091":-0.11234903335571289,"1092":-5.069386005401611,"1093":1.8496372699737549,"1094":-1.8756684064865112,"1095":-1.5805307626724243,"1096":4.477516174316406,"1097":2.140946865081787,"1098":1.5519689321517944,"1099":4.289689540863037,"1100":-1.675308108329773,"1101":-1.204089641571045,"1102":1.8813472986221313,"1103":4.700218677520752,"1104":0.8250776529312134,"1105":0.5433119535446167,"1106":3.962498664855957,"1107":0.18231482803821564,"1108":7.1222686767578125,"1109":2.0944981575012207,"1110":-6.020266532897949,"1111":-1.9177716970443726,"1112":-2.3933730125427246,"1113":-0.9688327312469482,"1114":-2.2487215995788574,"1115":1.9135223627090454,"1116":0.24924035370349884,"1117":-1.4263404607772827,"1118":-4.2733941078186035,"1119":-0.41997355222702026,"1120":-0.8096307516098022,"1121":-1.8108763694763184,"1122":0.4231019616127014,"1123":4.435725688934326,"1124":-0.9905073642730713,"1125":2.1633646488189697,"1126":2.4370198249816895,"1127":0.008295141160488129,"1128":1.5083979368209839,"1129":6.371505260467529,"1130":-0.40836766362190247,"1131":-4.384326457977295,"1132":2.875828266143799,"1133":-1.4250268936157227,"1134":-0.2817883789539337,"1135":1.0755336284637451,"1136":5.773898601531982,"1137":-4.892217636108398,"1138":-0.6582767367362976,"1139":-3.9548959732055664,"1140":4.705389976501465,"1141":-3.8912253379821777,"1142":0.12301710247993469,"1143":1.543632984161377,"1144":-3.367119073867798,"1145":-0.7159889936447144,"1146":2.330406665802002,"1147":4.380465984344482,"1148":-3.0193991661071777,"1149":-1.5077836513519287,"1150":-1.455220103263855,"1151":-1.3694342374801636,"1152":-0.30810481309890747,"1153":0.34766432642936707,"1154":4.087416648864746,"1155":1.5513620376586914,"1156":-3.4462788105010986,"1157":-0.3893771171569824,"1158":-4.022823333740234,"1159":1.1193158626556396,"1160":2.4951155185699463,"1161":-3.0473451614379883,"1162":3.614164352416992,"1163":0.38467341661453247,"1164":3.18993878364563,"1165":3.104854106903076,"1166":7.422389984130859,"1167":-1.43133544921875,"1168":-1.24172842502594,"1169":0.2231595814228058,"1170":-1.8984493017196655,"1171":-4.0140814781188965,"1172":-0.10024797916412354,"1173":-2.1189725399017334,"1174":-1.4520537853240967,"1175":-0.7217410206794739,"1176":3.4943244457244873,"1177":-0.4219415783882141,"1178":-0.07637085020542145,"1179":-2.108262062072754,"1180":-2.7221407890319824,"1181":2.54856538772583,"1182":1.5676218271255493,"1183":-2.587258815765381,"1184":0.4250737726688385,"1185":-2.5818612575531006,"1186":-3.478323221206665,"1187":1.800370216369629,"1188":0.9958013892173767,"1189":-1.8768197298049927,"1190":-1.3592816591262817,"1191":-2.62050461769104,"1192":0.5599550604820251,"1193":1.495157241821289,"1194":1.1363600492477417,"1195":0.17361333966255188,"1196":0.2718801200389862,"1197":0.6878915429115295,"1198":-3.74604868888855,"1199":5.119824409484863,"1200":-4.477879047393799,"1201":-3.6049487590789795,"1202":1.3040722608566284,"1203":-1.5436155796051025,"1204":-1.2636666297912598,"1205":-2.3596203327178955,"1206":-1.8934142589569092,"1207":0.19904978573322296,"1208":0.11002371460199356,"1209":2.733421802520752,"1210":-1.0903663635253906,"1211":0.5186495780944824,"1212":2.903317928314209,"1213":-1.9778708219528198,"1214":-1.6056510210037231,"1215":1.8251067399978638,"1216":0.23099176585674286,"1217":-0.024863945320248604,"1218":-1.476667881011963,"1219":2.8296499252319336,"1220":-1.9111647605895996,"1221":1.3395622968673706,"1222":-1.5429890155792236,"1223":2.975255012512207,"1224":-3.5220305919647217,"1225":2.623471975326538,"1226":-3.8708415031433105,"1227":-0.408376544713974,"1228":-0.5474591255187988,"1229":-2.530087471008301,"1230":6.858497619628906,"1231":-4.610404968261719,"1232":-1.249465823173523,"1233":2.3574254512786865,"1234":-1.9446361064910889,"1235":-4.11105489730835,"1236":-0.0121769392862916,"1237":-0.5701304078102112,"1238":-2.559337854385376,"1239":1.8391282558441162,"1240":2.9296185970306396,"1241":3.849461793899536,"1242":-3.773223400115967,"1243":0.3710593581199646,"1244":2.903928279876709,"1245":1.8597214221954346,"1246":-2.4419925212860107,"1247":2.3620033264160156,"1248":-3.561337471008301,"1249":-4.356278896331787,"1250":-1.3046672344207764,"1251":-0.9352014660835266,"1252":-0.80417799949646,"1253":0.42632246017456055,"1254":3.307175874710083,"1255":0.9475862383842468,"1256":-2.454427719116211,"1257":0.9961347579956055,"1258":5.529424667358398,"1259":-1.0047630071640015,"1260":1.4303171634674072,"1261":-2.1741368770599365,"1262":-1.972008466720581,"1263":1.002498984336853,"1264":2.44899320602417,"1265":3.3361191749572754,"1266":2.4154891967773438,"1267":4.355363845825195,"1268":-1.8034915924072266,"1269":-3.789372444152832,"1270":4.328915119171143,"1271":3.5248749256134033,"1272":-3.410853862762451,"1273":2.880382776260376,"1274":-2.1166770458221436,"1275":6.164535999298096,"1276":-4.910311698913574,"1277":-2.4226279258728027,"1278":1.5160176753997803,"1279":-3.6767778396606445,"1280":3.158374309539795,"1281":-0.509446382522583,"1282":1.413475751876831,"1283":-0.15828478336334229,"1284":-0.09603016823530197,"1285":4.686174392700195,"1286":2.5629730224609375,"1287":-0.6070071458816528,"1288":1.2542917728424072,"1289":1.7483173608779907,"1290":0.6151960492134094,"1291":-2.017604351043701,"1292":-2.4240119457244873,"1293":-2.1139297485351562,"1294":-0.4484359323978424,"1295":3.9009907245635986,"1296":-2.1087231636047363,"1297":4.172763824462891,"1298":-1.2314958572387695,"1299":-0.4206763803958893,"1300":-0.005934375803917646,"1301":0.4998236298561096,"1302":0.07439345121383667,"1303":-0.7548853158950806,"1304":-1.2343230247497559,"1305":-7.299799919128418,"1306":3.6685869693756104,"1307":3.260317087173462,"1308":3.082545757293701,"1309":-1.3309125900268555,"1310":0.9444161653518677,"1311":3.388317346572876,"1312":-2.3165442943573,"1313":-1.0122148990631104,"1314":-0.9757423400878906,"1315":0.6314617991447449,"1316":-2.175647020339966,"1317":-2.3706490993499756,"1318":-4.987746715545654,"1319":0.23586934804916382,"1320":0.35191887617111206,"1321":-0.4064982235431671,"1322":-3.6885547637939453,"1323":2.1965649127960205,"1324":-0.4191427230834961,"1325":1.5268065929412842,"1326":4.065421104431152,"1327":-3.471843957901001,"1328":5.586918354034424,"1329":1.0931282043457031,"1330":-1.3948252201080322,"1331":0.9367127418518066,"1332":1.4584711790084839,"1333":-0.5255345106124878,"1334":0.5036316514015198,"1335":-2.2276015281677246,"1336":-0.012299738824367523,"1337":-1.742710828781128,"1338":-3.272731065750122,"1339":1.4752789735794067,"1340":-1.516411304473877,"1341":-4.317588806152344,"1342":-0.20793765783309937,"1343":-2.456555128097534,"1344":-4.246459484100342,"1345":3.625516414642334,"1346":-0.3384391665458679,"1347":2.413050651550293,"1348":3.3608288764953613,"1349":2.4843883514404297,"1350":-3.4542646408081055,"1351":4.7683820724487305,"1352":2.071218490600586,"1353":1.305131196975708,"1354":-0.49874743819236755,"1355":1.1964696645736694,"1356":0.5311493873596191,"1357":-1.2855679988861084,"1358":1.0820614099502563,"1359":-4.2779316902160645,"1360":-1.8137218952178955,"1361":-0.7720479965209961,"1362":2.9266552925109863,"1363":4.735837459564209,"1364":-0.9942711591720581,"1365":5.4864325523376465,"1366":2.1636037826538086,"1367":-3.5245561599731445,"1368":-2.6640849113464355,"1369":-3.396517753601074,"1370":3.4543344974517822,"1371":0.29442062973976135,"1372":3.416370153427124,"1373":-1.1016497611999512,"1374":-1.0423675775527954,"1375":-3.1503524780273438,"1376":0.2801845073699951,"1377":-1.1251229047775269,"1378":2.235996961593628,"1379":-1.319978952407837,"1380":2.9608640670776367,"1381":4.181127548217773,"1382":2.503830671310425,"1383":1.5546938180923462,"1384":0.35272377729415894,"1385":2.5888142585754395,"1386":-0.4554106891155243,"1387":-3.332789421081543,"1388":-2.774341106414795,"1389":-4.175197601318359,"1390":-2.5425665378570557,"1391":3.2693264484405518,"1392":-2.0500667095184326,"1393":-5.223766326904297,"1394":-1.412115216255188,"1395":1.1571003198623657,"1396":-3.3219659328460693,"1397":-1.2106425762176514,"1398":-2.763925552368164,"1399":-2.6634185314178467,"1400":-2.305039644241333,"1401":-0.029991216957569122,"1402":0.6784637570381165,"1403":-1.1791720390319824,"1404":0.668850839138031,"1405":-6.717773914337158,"1406":2.4188544750213623,"1407":-0.728158712387085,"1408":0.8129439949989319,"1409":-0.556626558303833,"1410":1.226469874382019,"1411":2.094468593597412,"1412":2.138209342956543,"1413":-0.3096314072608948,"1414":-4.631710052490234,"1415":-0.23221644759178162,"1416":-0.7942870259284973,"1417":-3.5841286182403564,"1418":-0.7073336243629456,"1419":-0.5287430882453918,"1420":-0.04182451590895653,"1421":1.5784223079681396,"1422":1.085136890411377,"1423":-1.753463625907898,"1424":0.865024745464325,"1425":4.462388038635254,"1426":-2.9997446537017822,"1427":-3.07167387008667,"1428":-0.6154316067695618,"1429":-6.190887928009033,"1430":3.009146213531494,"1431":-7.011809349060059,"1432":2.017632246017456,"1433":0.10359901934862137,"1434":-1.4587080478668213,"1435":-5.162926197052002,"1436":-4.281731605529785,"1437":-0.2805275321006775,"1438":3.4744551181793213,"1439":-1.6326967477798462,"1440":2.0205800533294678,"1441":3.0728671550750732,"1442":0.360978364944458,"1443":0.9391883015632629,"1444":4.506964683532715,"1445":4.955559730529785,"1446":-0.9872307777404785,"1447":3.237183094024658,"1448":-3.077369213104248,"1449":-3.2151334285736084,"1450":-0.9486764073371887,"1451":1.8438682556152344,"1452":-0.8417702317237854,"1453":-0.9628288745880127,"1454":-1.306655764579773,"1455":5.761957168579102,"1456":-1.8277369737625122,"1457":-2.125922918319702,"1458":-5.296477317810059,"1459":2.291487693786621,"1460":0.5675450563430786,"1461":-2.5771703720092773,"1462":-4.981292247772217,"1463":6.324447154998779,"1464":1.1646102666854858,"1465":3.417245388031006,"1466":0.978257954120636,"1467":0.9827408194541931,"1468":5.898609638214111,"1469":-1.4394850730895996,"1470":-0.6091391444206238,"1471":-1.2715044021606445,"1472":-2.5121774673461914,"1473":0.002668009838089347,"1474":0.9625163078308105,"1475":-1.6088049411773682,"1476":-2.0241997241973877,"1477":-2.550142288208008,"1478":1.1007180213928223,"1479":13.876367568969727,"1480":-3.0691044330596924,"1481":-3.3866117000579834,"1482":-4.046779155731201,"1483":-0.6878994107246399,"1484":5.50972843170166,"1485":-0.3815228044986725,"1486":10.43410587310791,"1487":1.0858204364776611,"1488":-6.063989639282227,"1489":5.2524871826171875,"1490":-0.0028817893471568823,"1491":-1.4971604347229004,"1492":1.7993552684783936,"1493":4.01312255859375,"1494":-0.6122556924819946,"1495":-2.9508683681488037,"1496":-2.6636581420898438,"1497":6.614144325256348,"1498":-3.1285977363586426,"1499":2.6655211448669434,"1500":-10.160510063171387,"1501":1.7145700454711914,"1502":-0.5745376944541931,"1503":1.977422833442688,"1504":2.549997091293335,"1505":3.304018497467041,"1506":3.9563822746276855,"1507":-3.1224966049194336,"1508":8.412853240966797,"1509":2.9045255184173584,"1510":8.500151634216309,"1511":6.399068355560303,"1512":8.707956314086914,"1513":1.8624119758605957,"1514":-3.343034267425537,"1515":1.9296979904174805,"1516":1.5009318590164185,"1517":-1.017134189605713,"1518":-12.465924263000488,"1519":4.24680757522583,"1520":-3.6217942237854004,"1521":5.588431358337402,"1522":3.1016392707824707,"1523":6.938839435577393,"1524":-1.9275751113891602,"1525":-6.101107120513916,"1526":2.909644603729248,"1527":2.96321177482605,"1528":4.735501289367676,"1529":-1.0850903987884521,"1530":3.778702735900879,"1531":-5.831174373626709,"1532":5.720261096954346,"1533":-0.5519588589668274,"1534":3.550637722015381,"1535":3.623224973678589,"1536":-2.4182887077331543,"1537":1.3917737007141113,"1538":-8.468064308166504,"1539":0.35592272877693176,"1540":5.50062370300293,"1541":8.351433753967285,"1542":6.088118553161621,"1543":8.540095329284668,"1544":-6.244370937347412,"1545":2.8090221881866455,"1546":4.6131272315979,"1547":-3.126349925994873,"1548":-2.6131746768951416,"1549":2.377756118774414,"1550":-3.81717848777771,"1551":-0.6227651834487915,"1552":1.6069172620773315,"1553":2.818876028060913,"1554":-2.9116714000701904,"1555":2.7910141944885254,"1556":-0.07553505152463913,"1557":6.563345432281494,"1558":1.0804164409637451,"1559":-2.6623334884643555,"1560":3.8661746978759766,"1561":-2.5124154090881348,"1562":-0.6601285934448242,"1563":-1.383974313735962,"1564":-4.293788433074951,"1565":-2.334602117538452,"1566":1.2413043975830078,"1567":1.9883687496185303,"1568":3.425759792327881,"1569":2.0075011253356934,"1570":7.3824005126953125,"1571":6.95451021194458,"1572":-5.180401802062988,"1573":-0.22700528800487518,"1574":3.3426971435546875,"1575":-1.1326968669891357,"1576":3.908141613006592,"1577":3.1916913986206055,"1578":-4.197521209716797,"1579":1.1205469369888306,"1580":0.5384994149208069,"1581":0.5069143772125244,"1582":0.9200032949447632,"1583":-0.49837061762809753,"1584":-0.9846953749656677,"1585":-1.1816202402114868,"1586":-0.42197346687316895,"1587":-4.548844337463379,"1588":-7.152249336242676,"1589":-0.962411642074585,"1590":0.22997459769248962,"1591":3.1557323932647705,"1592":1.5084238052368164,"1593":5.525114059448242,"1594":4.41152811050415,"1595":-3.851543426513672,"1596":-0.8217057585716248,"1597":1.24788498878479,"1598":3.984759569168091,"1599":1.5760266780853271,"1600":6.592693328857422,"1601":-1.0276124477386475,"1602":0.14027726650238037,"1603":0.06603159010410309,"1604":5.785764694213867,"1605":1.0909785032272339,"1606":-0.030900169163942337,"1607":1.5619268417358398,"1608":9.859087944030762,"1609":4.330663204193115,"1610":0.3656488358974457,"1611":0.49026989936828613,"1612":-1.1074589490890503,"1613":-1.7490755319595337,"1614":-5.181541442871094,"1615":-5.046144962310791,"1616":-0.19546736776828766,"1617":1.2094634771347046,"1618":0.5376383066177368,"1619":2.453742027282715,"1620":1.6858315467834473,"1621":2.0098090171813965,"1622":2.0196971893310547,"1623":2.212430715560913,"1624":-4.044565200805664,"1625":0.7851034998893738,"1626":-2.2388579845428467,"1627":2.3930253982543945,"1628":-0.964098334312439,"1629":-1.0848617553710938,"1630":-5.021602630615234,"1631":0.25999826192855835,"1632":5.498270511627197,"1633":0.8773586750030518,"1634":-6.532917022705078,"1635":2.5249454975128174,"1636":1.0449793338775635,"1637":3.0782392024993896,"1638":0.29505446553230286,"1639":5.784618854522705,"1640":-4.914031505584717,"1641":-4.866434097290039,"1642":1.298045039176941,"1643":-0.562680721282959,"1644":-0.9059948325157166,"1645":-2.956306219100952,"1646":1.4132840633392334,"1647":-0.5188852548599243,"1648":-1.5450561046600342,"1649":-1.6786397695541382,"1650":0.6471878290176392,"1651":-0.9168081283569336,"1652":-0.5835078954696655,"1653":-4.434217929840088,"1654":-3.709733247756958,"1655":-0.36585864424705505,"1656":2.409926652908325,"1657":-0.9142774939537048,"1658":4.071130275726318,"1659":-3.25750732421875,"1660":-0.1393435001373291,"1661":1.5366418361663818,"1662":-1.0749953985214233,"1663":-0.10643376410007477,"1664":1.2225630283355713,"1665":3.4977049827575684,"1666":0.9781581163406372,"1667":0.8404076099395752,"1668":3.6757924556732178,"1669":-2.6233391761779785,"1670":1.7433823347091675,"1671":-4.142282009124756,"1672":1.6839005947113037,"1673":-4.42723274230957,"1674":1.232014775276184,"1675":2.13167142868042,"1676":2.7903316020965576,"1677":0.9885247945785522,"1678":-2.4544050693511963,"1679":-0.5350365042686462,"1680":-1.3807051181793213,"1681":0.9559462666511536,"1682":1.5864578485488892,"1683":2.3966071605682373,"1684":0.8615813851356506,"1685":1.4757978916168213,"1686":-4.515668869018555,"1687":-10.795955657958984,"1688":-4.153721332550049,"1689":-0.6779749989509583,"1690":-2.0584611892700195,"1691":-0.344300776720047,"1692":6.1743083000183105,"1693":-3.987553834915161,"1694":3.87253475189209,"1695":5.548859596252441,"1696":-1.5628248453140259,"1697":2.7472715377807617,"1698":6.38874626159668,"1699":0.6157258749008179,"1700":5.267132759094238,"1701":-3.1944305896759033,"1702":2.020111083984375,"1703":5.794650077819824,"1704":8.213640213012695,"1705":8.2955961227417,"1706":0.6793444752693176,"1707":-0.74471515417099,"1708":-5.801454544067383,"1709":13.425963401794434,"1710":-3.247648239135742,"1711":-4.572645664215088,"1712":-3.2100558280944824,"1713":3.3327419757843018,"1714":-0.15098245441913605,"1715":0.9612573385238647,"1716":-3.695906162261963,"1717":-1.6451305150985718,"1718":-11.170350074768066,"1719":2.9887349605560303,"1720":-2.515254259109497,"1721":-4.974836349487305,"1722":14.598599433898926,"1723":0.7052299976348877,"1724":1.9422087669372559,"1725":5.476222991943359,"1726":-1.302478313446045,"1727":-1.7881966829299927,"1728":-3.6445884704589844,"1729":3.742274284362793,"1730":2.874380588531494,"1731":-1.464797854423523,"1732":8.855151176452637,"1733":-6.556354999542236,"1734":0.003646517638117075,"1735":-0.7753598093986511,"1736":-2.936932325363159,"1737":1.3242602348327637,"1738":-5.585392951965332,"1739":0.4953186810016632,"1740":1.1706382036209106,"1741":0.9605614542961121,"1742":-1.6827224493026733,"1743":-8.050223350524902,"1744":6.7668633460998535,"1745":7.229174613952637,"1746":0.48853299021720886,"1747":4.902740955352783,"1748":-3.3823132514953613,"1749":-4.721504211425781,"1750":5.163887023925781,"1751":-0.5006793141365051,"1752":5.531907081604004,"1753":1.8068467378616333,"1754":-2.541043996810913,"1755":-3.8497800827026367,"1756":-3.362459897994995,"1757":-2.446990728378296,"1758":-1.068188190460205,"1759":-0.5511956810951233,"1760":2.4344606399536133,"1761":-3.8497252464294434,"1762":8.945243835449219,"1763":-0.5319724082946777,"1764":-1.3975363969802856,"1765":1.7168495655059814,"1766":2.4947681427001953,"1767":-2.653085470199585,"1768":-1.7092183828353882,"1769":0.838740885257721,"1770":-4.708896636962891,"1771":2.2080347537994385,"1772":5.679786682128906,"1773":0.05341954156756401,"1774":6.494442462921143,"1775":0.35327020287513733,"1776":-5.769343852996826,"1777":-1.488040566444397,"1778":0.772869884967804,"1779":4.8186259269714355,"1780":-8.820371627807617,"1781":-0.7617189884185791,"1782":-4.666593074798584,"1783":1.240115761756897,"1784":-3.2219109535217285,"1785":5.973160743713379,"1786":7.012204647064209,"1787":-0.04203757643699646,"1788":2.8759305477142334,"1789":2.513601064682007,"1790":4.976541042327881,"1791":-1.861966609954834,"1792":3.2736151218414307,"1793":11.30646800994873,"1794":4.559661865234375,"1795":-9.909772872924805,"1796":-11.68841552734375,"1797":-6.740313529968262,"1798":-8.69879150390625,"1799":1.2809784412384033,"1800":-5.981029510498047,"1801":-2.4975035190582275,"1802":-0.7284000515937805,"1803":-0.05936218053102493,"1804":1.0545371770858765,"1805":5.629244804382324,"1806":-6.1312031745910645,"1807":-0.9952171444892883,"1808":-6.369355201721191,"1809":8.209063529968262,"1810":-2.825735092163086,"1811":-0.5261454582214355,"1812":-3.195240020751953,"1813":-0.48304983973503113,"1814":1.2347686290740967,"1815":-3.9959588050842285,"1816":0.24233391880989075,"1817":9.890969276428223,"1818":1.1516249179840088,"1819":0.571868360042572,"1820":-5.645057678222656,"1821":1.3159501552581787,"1822":-0.9097673296928406,"1823":-0.59607994556427,"1824":-2.0534915924072266,"1825":-6.703680038452148,"1826":0.13903996348381042,"1827":-0.4834648370742798,"1828":-9.849579811096191,"1829":-5.443335056304932,"1830":1.2776868343353271,"1831":1.4652889966964722,"1832":-3.901094436645508,"1833":10.11008071899414,"1834":8.304327964782715,"1835":10.038121223449707,"1836":5.208884239196777,"1837":-1.6837810277938843,"1838":-4.399813652038574,"1839":4.013751029968262,"1840":1.5471985340118408,"1841":1.251332402229309,"1842":1.410035252571106,"1843":-3.925325393676758,"1844":-1.6184910535812378,"1845":-2.1258981227874756,"1846":2.9455528259277344,"1847":4.486908435821533,"1848":5.372498989105225,"1849":4.038715362548828,"1850":-1.1152585744857788,"1851":4.90369987487793,"1852":-3.7246599197387695,"1853":-6.415132999420166,"1854":3.9465417861938477,"1855":6.9756855964660645,"1856":-7.537731170654297,"1857":-3.400286912918091,"1858":-9.306354522705078,"1859":3.6325559616088867,"1860":-5.179992198944092,"1861":4.600667953491211,"1862":1.0247299671173096,"1863":2.6039581298828125,"1864":4.962011814117432,"1865":0.8102352023124695,"1866":-6.083488941192627,"1867":3.467893362045288,"1868":6.769144535064697,"1869":1.6536610126495361,"1870":-4.681277275085449,"1871":6.950578212738037,"1872":-0.8234132528305054,"1873":-3.420180559158325,"1874":7.61018180847168,"1875":-9.318719863891602,"1876":6.20467472076416,"1877":-4.965354919433594,"1878":-3.185777425765991,"1879":-1.0709621906280518,"1880":-2.1358935832977295,"1881":3.778149127960205,"1882":0.9211300611495972,"1883":-1.5074052810668945,"1884":-0.8938542604446411,"1885":-5.854258060455322,"1886":-1.1713459491729736,"1887":-2.2414443492889404,"1888":-0.18434113264083862,"1889":2.009448289871216,"1890":-0.22266677021980286,"1891":7.088953495025635,"1892":8.149860382080078,"1893":-9.138206481933594,"1894":2.395188570022583,"1895":-5.689480781555176,"1896":2.3255417346954346,"1897":0.5777573585510254,"1898":2.31306529045105,"1899":3.359872817993164,"1900":-0.8455092906951904,"1901":3.4601428508758545,"1902":-1.460495948791504,"1903":-0.2541564702987671,"1904":0.5192208886146545,"1905":2.2498056888580322,"1906":0.5983982682228088,"1907":-6.625856876373291,"1908":-1.759245753288269,"1909":-4.801083564758301,"1910":-2.4740209579467773,"1911":-2.0878610610961914,"1912":5.6716790199279785,"1913":-7.5154829025268555,"1914":-0.6003739833831787,"1915":2.7577097415924072,"1916":-2.708627462387085,"1917":-5.188475608825684,"1918":-0.046629760414361954,"1919":6.063100337982178,"1920":-1.4447083473205566,"1921":3.37270188331604,"1922":12.301775932312012,"1923":-5.700065612792969,"1924":3.5171585083007812,"1925":-2.0592761039733887,"1926":1.9311881065368652,"1927":4.851948261260986,"1928":-8.889327049255371,"1929":-6.7372894287109375,"1930":3.754185676574707,"1931":1.9688800573349,"1932":-4.014874458312988,"1933":-1.347119688987732,"1934":0.5318421721458435,"1935":-6.481719493865967,"1936":0.5400340557098389,"1937":5.501750946044922,"1938":-1.7544854879379272,"1939":-5.341231822967529,"1940":-0.2604585587978363,"1941":-1.3656444549560547,"1942":0.28935685753822327,"1943":-2.9013302326202393,"1944":-7.017892837524414,"1945":0.6565791368484497,"1946":0.5059053301811218,"1947":-1.2290632724761963,"1948":8.244354248046875,"1949":7.478058815002441,"1950":6.420719146728516,"1951":2.886439323425293,"1952":-1.2057483196258545,"1953":0.4525570273399353,"1954":5.159578323364258,"1955":-6.612627983093262,"1956":2.671011209487915,"1957":2.227152109146118,"1958":-0.4400392174720764,"1959":-0.0035492542665451765,"1960":-9.941304206848145,"1961":-3.827986717224121,"1962":-1.836113452911377,"1963":6.691367149353027,"1964":-7.581245422363281,"1965":-2.9864587783813477,"1966":6.524560928344727,"1967":5.637247562408447,"1968":-4.538166522979736,"1969":4.405786037445068,"1970":11.279473304748535,"1971":4.826169013977051,"1972":0.3440989851951599,"1973":1.0955109596252441,"1974":-6.086700916290283,"1975":7.125074863433838,"1976":6.38789701461792,"1977":-12.103114128112793,"1978":3.263301134109497,"1979":0.5926651954650879,"1980":-0.9448747038841248,"1981":4.231326580047607,"1982":6.856639862060547,"1983":6.714610576629639,"1984":0.2054353803396225,"1985":-5.469540596008301,"1986":-7.722417831420898,"1987":-2.9886255264282227,"1988":0.9829739928245544,"1989":-0.4402017295360565,"1990":0.5112587809562683,"1991":-3.118152618408203,"1992":4.965804100036621,"1993":4.490645408630371,"1994":2.455502510070801,"1995":0.9837196469306946,"1996":0.3088262677192688,"1997":2.40773344039917,"1998":-1.4758546352386475,"1999":3.360321521759033,"2000":-1.7278003692626953,"2001":6.028714179992676,"2002":6.002989768981934,"2003":0.09823048859834671,"2004":2.0579774379730225,"2005":1.2338091135025024,"2006":-1.6306326389312744,"2007":0.5913486480712891,"2008":3.6152493953704834,"2009":-2.2030344009399414,"2010":2.0432732105255127,"2011":-8.567675590515137,"2012":3.7632617950439453,"2013":-1.6583187580108643,"2014":-1.0541647672653198,"2015":-3.6415798664093018,"2016":3.69694185256958,"2017":-1.1290524005889893,"2018":6.611052989959717,"2019":-1.071798324584961,"2020":0.8605965375900269,"2021":4.09243631362915,"2022":0.2741740643978119,"2023":1.6343164443969727,"2024":2.288099527359009,"2025":-4.213781833648682,"2026":-1.7720818519592285,"2027":3.6194727420806885,"2028":-0.524485170841217,"2029":6.89893913269043,"2030":-2.498145818710327,"2031":-0.30759477615356445,"2032":-1.5775692462921143,"2033":-0.7286727428436279,"2034":5.0590033531188965,"2035":-0.7926064729690552,"2036":-7.349229335784912,"2037":-6.276561260223389,"2038":-2.9825892448425293,"2039":1.5433838367462158,"2040":-4.2485671043396,"2041":0.8763500452041626,"2042":-1.6003309488296509,"2043":3.3701984882354736,"2044":2.8416285514831543,"2045":4.176870346069336,"2046":-12.883747100830078,"2047":-0.5593436360359192,"2048":4.232579708099365,"2049":-6.246537208557129,"2050":7.759343147277832,"2051":5.000926494598389,"2052":2.6592018604278564,"2053":-4.549139499664307,"2054":1.1712011098861694,"2055":-3.677442789077759,"2056":-5.733304500579834,"2057":-8.217829704284668,"2058":2.771245241165161,"2059":-5.345241069793701,"2060":5.721022605895996,"2061":0.26671844720840454,"2062":-2.2349774837493896,"2063":-3.200920581817627,"2064":0.7638564109802246,"2065":-3.544504165649414,"2066":2.4893605709075928,"2067":-2.2057714462280273,"2068":4.55949592590332,"2069":-6.12053918838501,"2070":2.2101080417633057,"2071":7.086912631988525,"2072":-6.376531600952148,"2073":0.44122305512428284,"2074":0.5094563961029053,"2075":-4.250131130218506,"2076":-6.8744988441467285,"2077":3.075383424758911,"2078":9.565791130065918,"2079":-1.4088315963745117,"2080":-0.6140833497047424,"2081":6.539129734039307,"2082":3.32277512550354,"2083":13.006837844848633,"2084":3.182075262069702,"2085":-0.7090806365013123,"2086":-4.65206241607666,"2087":-4.654901027679443,"2088":-0.16867594420909882,"2089":4.632675647735596,"2090":7.460637092590332,"2091":-2.2382912635803223,"2092":11.23188304901123,"2093":-4.797109127044678,"2094":-4.109439849853516,"2095":2.8505640029907227,"2096":-0.3250442147254944,"2097":0.2807618975639343,"2098":-2.7394206523895264,"2099":6.158515930175781,"2100":2.145545721054077,"2101":-0.08330059051513672,"2102":-6.201169013977051,"2103":-0.549116849899292,"2104":1.3888906240463257,"2105":-4.884484767913818,"2106":3.2706756591796875,"2107":1.4960938692092896,"2108":-1.4155787229537964,"2109":3.524163246154785,"2110":0.8217945098876953,"2111":-0.4422451853752136,"2112":-0.9284127354621887,"2113":-5.315108776092529,"2114":1.1349118947982788,"2115":0.8037216663360596,"2116":-0.25989606976509094,"2117":-8.541853904724121,"2118":-0.10516317188739777,"2119":-2.130603313446045,"2120":8.44184398651123,"2121":7.023279666900635,"2122":-5.74433708190918,"2123":-5.618180751800537,"2124":-3.8803694248199463,"2125":5.905479907989502,"2126":-3.1847269535064697,"2127":-2.555570363998413,"2128":-9.569475173950195,"2129":8.026838302612305,"2130":-3.6357953548431396,"2131":2.962808609008789,"2132":7.25868034362793,"2133":2.9411516189575195,"2134":7.636436939239502,"2135":-8.284998893737793,"2136":-1.8088120222091675,"2137":-0.0584198534488678,"2138":-0.7030431628227234,"2139":-2.172802686691284,"2140":-3.070509433746338,"2141":2.929443836212158,"2142":2.049567222595215,"2143":7.1433587074279785,"2144":2.345031976699829,"2145":-5.71065616607666,"2146":-8.814552307128906,"2147":0.40170085430145264,"2148":-1.0940017700195312,"2149":13.840486526489258,"2150":-8.719813346862793,"2151":-0.23770757019519806,"2152":-2.8976452350616455,"2153":-7.784212589263916,"2154":2.4125328063964844,"2155":-3.5325417518615723,"2156":-11.768982887268066,"2157":5.723012447357178,"2158":-4.50239896774292,"2159":6.4825215339660645,"2160":-3.0399296283721924,"2161":-2.5040230751037598,"2162":4.08550500869751,"2163":3.1713831424713135,"2164":8.235037803649902,"2165":-2.2581703662872314,"2166":4.575189113616943,"2167":1.7354563474655151,"2168":3.017707109451294,"2169":-0.6145644783973694,"2170":-1.169223666191101,"2171":-1.9283244609832764,"2172":8.694859504699707,"2173":-5.013824939727783,"2174":3.003614902496338,"2175":-1.1385952234268188,"2176":5.659298419952393,"2177":0.3378569483757019,"2178":-4.030980587005615,"2179":-4.961774826049805,"2180":-4.748135566711426,"2181":8.176429748535156,"2182":-7.695357322692871,"2183":3.15319561958313,"2184":2.480175495147705,"2185":-10.993149757385254,"2186":-2.7793948650360107,"2187":-2.6073241233825684,"2188":-9.163763046264648,"2189":5.437383651733398,"2190":7.42305326461792,"2191":1.9623531103134155,"2192":-6.687690258026123,"2193":5.950118541717529,"2194":6.881285190582275,"2195":7.206636905670166,"2196":-2.976494312286377,"2197":-3.201766014099121,"2198":-3.7379400730133057,"2199":3.197983980178833,"2200":2.0312917232513428,"2201":2.9560842514038086,"2202":7.14130163192749,"2203":-2.6479647159576416,"2204":-5.149648666381836,"2205":2.8159101009368896,"2206":-2.529815912246704,"2207":3.669323682785034,"2208":0.7448196411132812,"2209":-1.3003778457641602,"2210":11.824702262878418,"2211":-2.304978132247925,"2212":-6.138571262359619,"2213":5.263087749481201,"2214":8.614587783813477,"2215":-1.1258784532546997,"2216":0.8341925144195557,"2217":-4.925625801086426,"2218":-5.955907344818115,"2219":2.4998154640197754,"2220":7.742490768432617,"2221":5.079613208770752,"2222":4.437517166137695,"2223":-1.03950834274292,"2224":0.5027124881744385,"2225":7.153066158294678,"2226":-4.870311737060547,"2227":4.672059535980225,"2228":1.4484825134277344,"2229":6.708784580230713,"2230":-9.197935104370117,"2231":-3.9011664390563965,"2232":-6.55014181137085,"2233":-2.2391557693481445,"2234":0.6610910296440125,"2235":10.872196197509766,"2236":-9.443150520324707,"2237":-1.6016523838043213,"2238":-11.647758483886719,"2239":2.312856674194336,"2240":5.032540798187256,"2241":1.966062068939209,"2242":1.5692873001098633,"2243":-5.242119789123535,"2244":-6.976794242858887,"2245":-2.60041880607605,"2246":-40.26026153564453,"2247":-6.502405643463135,"2248":-4.094149589538574,"2249":-30.898487091064453,"2250":35.86619186401367,"2251":31.164901733398438,"2252":-9.782739639282227,"2253":-17.243221282958984,"2254":0.8714503049850464,"2255":-51.82404327392578,"2256":37.57884216308594,"2257":-3.768888473510742,"2258":-15.322324752807617,"2259":-42.46627426147461,"2260":-23.665616989135742,"2261":-54.099510192871094,"2262":21.887020111083984,"2263":-13.730490684509277,"2264":24.77284049987793,"2265":0.2545703649520874,"2266":1.6313663721084595,"2267":-58.7975959777832,"2268":3.9918839931488037,"2269":28.9415340423584,"2270":-48.84017562866211,"2271":-12.877357482910156,"2272":-14.201970100402832,"2273":35.095458984375,"2274":42.228694915771484,"2275":0.36067304015159607,"2276":55.65357208251953,"2277":69.006103515625,"2278":6.351109981536865,"2279":30.819862365722656,"2280":-73.24252319335938,"2281":4.007355213165283,"2282":26.116819381713867,"2283":-26.03479766845703,"2284":-53.23184585571289,"2285":45.16194152832031,"2286":20.335796356201172,"2287":27.053842544555664,"2288":9.074868202209473,"2289":55.64655303955078,"2290":-16.204633712768555,"2291":-10.079472541809082,"2292":1.4469375610351562,"2293":61.11760711669922,"2294":-23.395212173461914,"2295":1.5514461994171143,"2296":-6.31193208694458,"2297":5.037253379821777,"2298":-4.436964988708496,"2299":5.342084884643555,"2300":0.08120386302471161,"2301":-2.914003372192383,"2302":-5.171474933624268,"2303":0.7811945080757141,"2304":0.7065439224243164,"2305":-0.29808223247528076,"2306":1.6124906539916992,"2307":7.630949974060059,"2308":6.223789215087891,"2309":-1.235103726387024,"2310":-3.237621307373047,"2311":1.8218709230422974,"2312":0.06303749233484268,"2313":1.0639656782150269,"2314":7.647706031799316,"2315":-1.7944127321243286,"2316":-1.6828422546386719,"2317":-2.5244312286376953,"2318":3.6188085079193115,"2319":-2.440855026245117,"2320":-0.4913546144962311,"2321":-4.398246765136719,"2322":4.7289557456970215,"2323":3.341341495513916,"2324":-3.9825901985168457,"2325":-7.6530232429504395,"2326":-2.8816637992858887,"2327":-0.09413599967956543,"2328":-2.9311580657958984,"2329":-3.5136237144470215,"2330":3.257770538330078,"2331":-3.4515836238861084,"2332":4.665576457977295,"2333":3.4066202640533447,"2334":1.4667221307754517,"2335":5.446428298950195,"2336":-1.7252726554870605,"2337":-2.164634943008423,"2338":-4.543242931365967,"2339":-1.2579954862594604,"2340":-0.06879813224077225,"2341":3.6291627883911133,"2342":-2.0129594802856445,"2343":-8.60702896118164,"2344":2.8111298084259033,"2345":7.889547348022461,"2346":-4.133087635040283,"2347":-0.29174813628196716,"2348":0.9955374598503113,"2349":-5.993635654449463,"2350":2.124471664428711,"2351":11.131147384643555,"2352":1.8425471782684326,"2353":6.061127185821533,"2354":7.120937824249268,"2355":-5.462364196777344,"2356":-2.0681369304656982,"2357":-8.463750839233398,"2358":3.9750001430511475,"2359":0.074811190366745,"2360":5.271395206451416,"2361":0.33519652485847473,"2362":-7.785018444061279,"2363":5.964249134063721,"2364":-1.7934482097625732,"2365":-2.0369954109191895,"2366":5.234376430511475,"2367":-9.44263744354248,"2368":1.3781908750534058,"2369":-5.452918529510498,"2370":4.219146728515625,"2371":-1.8427313566207886,"2372":1.866051197052002,"2373":4.1426825523376465,"2374":0.39583003520965576,"2375":-4.161241054534912,"2376":0.6248235106468201,"2377":2.0199949741363525,"2378":4.867586612701416,"2379":4.671934604644775,"2380":-0.3995756208896637,"2381":0.49570468068122864,"2382":7.094883918762207,"2383":-10.407596588134766,"2384":4.724854469299316,"2385":-5.393866062164307,"2386":-9.428362846374512,"2387":-1.4805080890655518,"2388":0.2037639170885086,"2389":1.7678145170211792,"2390":-7.019155502319336,"2391":0.6459391713142395,"2392":-2.0784850120544434,"2393":-3.3874740600585938,"2394":9.562098503112793,"2395":-5.470335960388184,"2396":-0.23527783155441284,"2397":9.140355110168457,"2398":8.512992858886719,"2399":6.95454740524292,"2400":-5.156336307525635,"2401":-0.3909972310066223,"2402":-7.282125949859619,"2403":11.581204414367676,"2404":-2.279802083969116,"2405":-8.131889343261719,"2406":0.9579612016677856,"2407":2.4676809310913086,"2408":-5.297222137451172,"2409":6.242545127868652,"2410":-3.1038153171539307,"2411":6.708910942077637,"2412":1.2369871139526367,"2413":-2.3550567626953125,"2414":-2.272162437438965,"2415":-1.5907946825027466,"2416":4.853687286376953,"2417":-3.6932332515716553,"2418":0.981997013092041,"2419":0.630449652671814,"2420":2.7155847549438477,"2421":3.2587382793426514,"2422":2.9527251720428467,"2423":3.3348939418792725,"2424":-0.4923105835914612,"2425":2.7325966358184814,"2426":7.3027663230896,"2427":14.036845207214355,"2428":-8.00210952758789,"2429":3.375749349594116,"2430":1.6292082071304321,"2431":8.579777717590332,"2432":2.6454708576202393,"2433":-10.765327453613281,"2434":-9.72991943359375,"2435":-5.219254016876221,"2436":3.98262357711792,"2437":-6.181892395019531,"2438":-5.155439853668213,"2439":3.250947952270508,"2440":-5.4427385330200195,"2441":3.8785343170166016,"2442":-5.129716873168945,"2443":5.1962361335754395,"2444":-1.2997103929519653,"2445":2.669698476791382,"2446":9.868865013122559,"2447":-1.837052583694458,"2448":-8.41974925994873,"2449":1.216493844985962,"2450":-7.870938777923584,"2451":-0.9752398133277893,"2452":4.222443580627441,"2453":4.140535354614258,"2454":-5.464164733886719,"2455":0.8932015299797058,"2456":-3.1490542888641357,"2457":-7.375682830810547,"2458":0.8586778044700623,"2459":-1.303700566291809,"2460":-1.605806589126587,"2461":0.49626457691192627,"2462":4.397191047668457,"2463":-2.196967363357544,"2464":4.062355041503906,"2465":1.0410046577453613,"2466":2.5039193630218506,"2467":-1.1642849445343018,"2468":-0.3366641402244568,"2469":-4.514807224273682,"2470":-7.2210187911987305,"2471":4.279433250427246,"2472":3.7730937004089355,"2473":7.451714038848877,"2474":9.830658912658691,"2475":-1.7287497520446777,"2476":0.019051136448979378,"2477":2.5593276023864746,"2478":-2.424330711364746,"2479":11.265869140625,"2480":5.306938171386719,"2481":8.883280754089355,"2482":-5.681087017059326,"2483":-1.103908658027649,"2484":-5.327988147735596,"2485":2.84275221824646,"2486":-1.596260666847229,"2487":-3.8801987171173096,"2488":0.11538607627153397,"2489":-1.5911059379577637,"2490":-3.8360228538513184,"2491":7.060639381408691,"2492":2.707185983657837,"2493":1.747782826423645,"2494":-4.333706378936768,"2495":-5.852747917175293,"2496":-3.596224546432495,"2497":-5.434018135070801,"2498":-5.614611625671387,"2499":-0.6083515286445618,"2500":-2.4693431854248047,"2501":0.9896348118782043,"2502":-1.411734938621521,"2503":2.3941972255706787,"2504":1.6934853792190552,"2505":-1.7307987213134766,"2506":-4.995291709899902,"2507":0.027328921481966972,"2508":2.2962839603424072,"2509":-0.7962164878845215,"2510":3.278513193130493,"2511":-0.43957802653312683,"2512":1.4146207571029663,"2513":-0.2656933665275574,"2514":-0.39556223154067993,"2515":-1.1162172555923462,"2516":-0.9045188426971436,"2517":-0.6287676692008972,"2518":-0.27605119347572327,"2519":-2.5329220294952393,"2520":-0.13019520044326782,"2521":-0.8576276898384094,"2522":2.825253963470459,"2523":-1.6998682022094727,"2524":0.6846252679824829,"2525":-1.323871374130249,"2526":0.0862545445561409,"2527":0.11906611919403076,"2528":-1.645509958267212,"2529":-0.054161980748176575,"2530":-0.7371159791946411,"2531":0.5234978199005127,"2532":-0.24567291140556335,"2533":-4.320529460906982,"2534":0.5325030088424683,"2535":0.6757597923278809,"2536":0.7483183145523071,"2537":0.018659362569451332,"2538":-0.5512552261352539,"2539":0.7983893752098083,"2540":1.0451072454452515,"2541":-0.9290218949317932,"2542":0.656071126461029,"2543":0.3196983337402344,"2544":2.1363673210144043,"2545":0.5650708675384521,"2546":0.2784663140773773,"2547":-0.11267568171024323,"2548":3.820964813232422,"2549":0.22337670624256134,"2550":0.4018145501613617,"2551":-1.2453867197036743,"2552":-2.3291049003601074,"2553":-1.9831855297088623,"2554":0.6056357026100159,"2555":-0.3871283233165741,"2556":-0.1816563457250595,"2557":-3.71162486076355,"2558":1.5154484510421753,"2559":4.306736469268799,"2560":-0.6474608182907104,"2561":0.4027327597141266,"2562":-0.5838698148727417,"2563":-0.3190101683139801,"2564":-1.2049674987792969,"2565":1.287468671798706,"2566":0.8267178535461426,"2567":0.09531665593385696,"2568":-3.4690675735473633,"2569":0.4934932589530945,"2570":0.15899372100830078,"2571":1.4869309663772583,"2572":2.34157395362854,"2573":1.3510268926620483,"2574":-0.2589500844478607,"2575":-0.3261929452419281,"2576":1.758101224899292,"2577":-0.4379585385322571,"2578":0.1549578607082367,"2579":-1.040217399597168,"2580":0.23914805054664612,"2581":-1.3615461587905884,"2582":-1.2348792552947998,"2583":2.2726480960845947,"2584":0.9858802556991577,"2585":-1.6366922855377197,"2586":1.3671873807907104,"2587":-1.2402048110961914,"2588":0.856846034526825,"2589":4.0636420249938965,"2590":-0.5695849061012268,"2591":0.530909538269043,"2592":3.2893106937408447,"2593":-1.2800042629241943,"2594":0.41225337982177734,"2595":-5.039736270904541,"2596":4.350318908691406,"2597":0.5208483934402466,"2598":-1.2626553773880005,"2599":1.5254204273223877,"2600":0.8970378041267395,"2601":-0.06509657949209213,"2602":-0.03424321487545967,"2603":-0.7044723033905029,"2604":-0.19858403503894806,"2605":-0.086494579911232,"2606":0.7909289598464966,"2607":-0.24171645939350128,"2608":0.22619102895259857,"2609":-0.042311668395996094,"2610":-0.05602801963686943,"2611":0.09211848676204681,"2612":0.467578649520874,"2613":0.375588983297348,"2614":-0.37457266449928284,"2615":0.18214723467826843,"2616":-0.09548506885766983,"2617":0.3696582019329071,"2618":-0.04745776951313019,"2619":0.18256810307502747,"2620":-0.13383233547210693,"2621":0.1541549265384674,"2622":-0.4933429956436157,"2623":0.007561937905848026,"2624":-0.02304297499358654,"2625":-0.1388072371482849,"2626":0.4252023994922638,"2627":0.09650929272174835,"2628":0.2307804375886917,"2629":0.6732941269874573,"2630":0.30602940917015076,"2631":0.2392210066318512,"2632":0.24888867139816284,"2633":0.14283035695552826,"2634":-0.26020729541778564,"2635":-0.04475218057632446,"2636":0.19796930253505707,"2637":-0.3948029577732086,"2638":0.178396075963974,"2639":-0.19384118914604187,"2640":0.1532427817583084,"2641":-0.3266240358352661,"2642":-0.2606826722621918,"2643":-0.3716176152229309,"2644":-0.09376974403858185,"2645":-0.09933774173259735,"2646":0.18231822550296783,"2647":0.480122447013855,"2648":0.14647501707077026,"2649":0.04645058140158653,"2650":0.3362927734851837,"2651":0.49700793623924255}},"hiddenLayers":[{"inputMatrix":{"rows":20,"columns":51,"weights":{"0":0.7007787823677063,"1":-0.9087651371955872,"2":-1.0517849922180176,"3":-0.19045209884643555,"4":0.44967716932296753,"5":2.7791504859924316,"6":-1.722611427307129,"7":0.5503188371658325,"8":2.2530648708343506,"9":0.4935338497161865,"10":1.870145320892334,"11":2.7203073501586914,"12":2.3610360622406006,"13":-0.12477114051580429,"14":0.28892385959625244,"15":-1.278576135635376,"16":0.8598431944847107,"17":-2.937725067138672,"18":1.181874394416809,"19":-3.0973238945007324,"20":0.5282744765281677,"21":-0.5545746684074402,"22":2.3648393154144287,"23":1.4599131345748901,"24":0.21424739062786102,"25":2.1487815380096436,"26":0.43245837092399597,"27":2.7027692794799805,"28":3.630903959274292,"29":-0.5687028765678406,"30":-1.9142746925354004,"31":-0.45920631289482117,"32":0.5646414756774902,"33":-2.971467971801758,"34":-5.496726989746094,"35":2.904977321624756,"36":-2.7933974266052246,"37":4.404534816741943,"38":0.08994514495134354,"39":0.844883382320404,"40":-1.7894153594970703,"41":-1.7994071245193481,"42":-2.676732063293457,"43":-0.4335406422615051,"44":2.2544684410095215,"45":1.408880352973938,"46":0.29587581753730774,"47":2.019606828689575,"48":-0.2020571231842041,"49":-0.5371410846710205,"50":0.7453224062919617,"51":0.06845562905073166,"52":0.44511115550994873,"53":0.013502204790711403,"54":0.13442635536193848,"55":0.3869085907936096,"56":1.1925143003463745,"57":-0.5878779888153076,"58":1.2498078346252441,"59":0.4935944378376007,"60":0.8034146428108215,"61":0.7454954385757446,"62":-0.626600444316864,"63":-1.3401119709014893,"64":-0.8184511661529541,"65":1.2272483110427856,"66":-1.3034950494766235,"67":-2.327788829803467,"68":0.06222602725028992,"69":1.1856777667999268,"70":-3.851426601409912,"71":1.181822419166565,"72":0.7874109745025635,"73":-2.073758840560913,"74":-1.938832402229309,"75":-0.5611194372177124,"76":1.357353687286377,"77":0.7141821384429932,"78":-1.871172308921814,"79":-1.4697041511535645,"80":0.29757028818130493,"81":2.0425009727478027,"82":0.23395660519599915,"83":0.8771836161613464,"84":1.853808045387268,"85":-0.8630661964416504,"86":1.4258182048797607,"87":-0.39906343817710876,"88":0.0027659861370921135,"89":-0.5792248249053955,"90":2.6604156494140625,"91":-1.8905447721481323,"92":-0.22185473144054413,"93":1.303169846534729,"94":0.10040365904569626,"95":-1.10586416721344,"96":0.4253077507019043,"97":-0.39410433173179626,"98":2.5047242641448975,"99":1.6290901899337769,"100":3.277435064315796,"101":0.7410801649093628,"102":0.18227477371692657,"103":2.276793956756592,"104":0.6804714798927307,"105":-1.3934406042099,"106":-0.6441433429718018,"107":-2.8611066341400146,"108":2.3693318367004395,"109":-1.1699128150939941,"110":3.751246929168701,"111":-2.5202043056488037,"112":-1.3128011226654053,"113":-0.350604385137558,"114":-0.6528456211090088,"115":0.20164181292057037,"116":0.022176533937454224,"117":-0.6612080335617065,"118":-1.5640512704849243,"119":1.4654375314712524,"120":-1.277683138847351,"121":0.09756407886743546,"122":-1.5768190622329712,"123":0.2888636589050293,"124":-1.4964114427566528,"125":-0.5119385123252869,"126":0.38916417956352234,"127":-0.2754421830177307,"128":-0.7460328340530396,"129":-1.0359926223754883,"130":-0.7713524103164673,"131":-1.836829662322998,"132":1.1937803030014038,"133":0.9881453514099121,"134":-2.190122127532959,"135":0.21856196224689484,"136":0.09497708082199097,"137":-0.7371405959129333,"138":0.33927541971206665,"139":-2.8995556831359863,"140":0.29160165786743164,"141":0.6364749670028687,"142":-3.45416259765625,"143":1.0516140460968018,"144":1.4648637771606445,"145":-1.937367558479309,"146":-0.41954565048217773,"147":-0.4092613756656647,"148":-0.3634416162967682,"149":-0.34867051243782043,"150":3.1666994094848633,"151":0.9499383568763733,"152":-1.4277971982955933,"153":1.0683414936065674,"154":-0.24050478637218475,"155":-0.4706452190876007,"156":-0.06915681809186935,"157":0.006284804083406925,"158":1.6734486818313599,"159":0.13706275820732117,"160":-0.5062038898468018,"161":1.7218087911605835,"162":0.8214839696884155,"163":-0.4394930303096771,"164":1.1771161556243896,"165":0.5015684366226196,"166":-0.15849223732948303,"167":1.049763560295105,"168":0.4201340973377228,"169":0.2586759626865387,"170":-1.4996803998947144,"171":0.29134824872016907,"172":0.10778670758008957,"173":0.4879433512687683,"174":-0.9242197275161743,"175":-2.0218560695648193,"176":-0.8769192695617676,"177":-1.0319234132766724,"178":-0.48833784461021423,"179":1.637557864189148,"180":0.3962808847427368,"181":1.5243849754333496,"182":0.920510470867157,"183":-1.3007069826126099,"184":0.008537684567272663,"185":0.37333759665489197,"186":-0.5080055594444275,"187":0.8174153566360474,"188":0.43132662773132324,"189":0.6337625980377197,"190":0.5365586876869202,"191":-0.27439555525779724,"192":-1.630116581916809,"193":-1.3129363059997559,"194":-0.42289137840270996,"195":-1.6583003997802734,"196":-0.446427583694458,"197":1.0418304204940796,"198":0.6259328722953796,"199":0.1313500553369522,"200":-2.4957406520843506,"201":0.885755717754364,"202":-0.5551590323448181,"203":-3.557363748550415,"204":1.8641449213027954,"205":-0.29032817482948303,"206":-1.120654821395874,"207":-1.3653008937835693,"208":-0.907480776309967,"209":0.523110032081604,"210":-0.7968011498451233,"211":3.1957788467407227,"212":-1.979157567024231,"213":-0.39943698048591614,"214":-0.6324607133865356,"215":1.7171862125396729,"216":0.9474540948867798,"217":-2.1378185749053955,"218":-2.7987937927246094,"219":0.44286447763442993,"220":-1.10230553150177,"221":-1.052215576171875,"222":-0.8888604044914246,"223":-0.22406913340091705,"224":-1.5381697416305542,"225":-1.664023518562317,"226":1.3470923900604248,"227":-1.0316640138626099,"228":2.0440688133239746,"229":0.7514817118644714,"230":1.124324917793274,"231":-0.36313170194625854,"232":-2.4052507877349854,"233":-0.7822017669677734,"234":0.040454279631376266,"235":2.7323265075683594,"236":-1.331546425819397,"237":1.015267252922058,"238":0.49088454246520996,"239":-2.273176431655884,"240":-1.1926910877227783,"241":0.11041177064180374,"242":-0.716820240020752,"243":0.2650289535522461,"244":0.13127638399600983,"245":0.5235686302185059,"246":-1.0357757806777954,"247":1.6876916885375977,"248":-2.2560606002807617,"249":1.1323298215866089,"250":-2.3799750804901123,"251":0.3363809585571289,"252":0.6558265686035156,"253":0.5730692744255066,"254":-0.43569961190223694,"255":0.8947879672050476,"256":-1.1816681623458862,"257":-0.6300667524337769,"258":-0.293793648481369,"259":0.7985537648200989,"260":1.1923303604125977,"261":2.870091676712036,"262":-2.326233386993408,"263":-0.38386085629463196,"264":0.6120978593826294,"265":-2.193978786468506,"266":-1.144359827041626,"267":0.8211719989776611,"268":1.4849189519882202,"269":-1.4332916736602783,"270":-1.628910779953003,"271":1.1678847074508667,"272":-0.6933192014694214,"273":1.2031528949737549,"274":3.2300593852996826,"275":0.7218209505081177,"276":-1.1709402799606323,"277":0.1996399313211441,"278":1.9713505506515503,"279":-0.47748085856437683,"280":0.9833892583847046,"281":-0.15647408366203308,"282":-1.1788227558135986,"283":1.1829485893249512,"284":-0.40508005023002625,"285":0.811186671257019,"286":-0.5718367695808411,"287":-1.6227984428405762,"288":-2.642251968383789,"289":-0.5491961240768433,"290":-1.7090178728103638,"291":-0.6654115319252014,"292":1.2721697092056274,"293":-1.0748624801635742,"294":0.5226237177848816,"295":-0.20705245435237885,"296":1.5726734399795532,"297":-0.9032032489776611,"298":0.7865363359451294,"299":-0.56695955991745,"300":-0.5170142650604248,"301":1.708897352218628,"302":-0.11563830077648163,"303":0.37262964248657227,"304":0.4068504571914673,"305":-2.4846365451812744,"306":-0.3198942244052887,"307":-0.27918192744255066,"308":-1.6232773065567017,"309":-2.4962520599365234,"310":1.7681710720062256,"311":4.1946916580200195,"312":-0.6667684316635132,"313":2.805119514465332,"314":-0.5518226623535156,"315":0.2631883919239044,"316":-0.32414084672927856,"317":1.9776721000671387,"318":-0.18783946335315704,"319":-2.1840667724609375,"320":0.8628718852996826,"321":0.17263156175613403,"322":-0.05428735166788101,"323":-1.38031005859375,"324":1.0637503862380981,"325":-4.141993522644043,"326":-0.4459667503833771,"327":-3.5600063800811768,"328":1.6543774604797363,"329":-1.1979758739471436,"330":-0.6749988794326782,"331":1.3082611560821533,"332":0.07198062539100647,"333":0.01558457687497139,"334":-1.536232590675354,"335":-2.5619418621063232,"336":1.341619849205017,"337":1.2406479120254517,"338":2.93066668510437,"339":0.23857560753822327,"340":0.09765075892210007,"341":0.6773936152458191,"342":-0.8962528109550476,"343":0.7315707802772522,"344":-0.7004101276397705,"345":-1.4853464365005493,"346":-1.7137038707733154,"347":-1.4282207489013672,"348":-2.1901113986968994,"349":0.1817120909690857,"350":0.5717839002609253,"351":3.210326671600342,"352":-1.2135483026504517,"353":3.1311569213867188,"354":-0.6138294339179993,"355":2.7839157581329346,"356":1.5942261219024658,"357":4.52159309387207,"358":0.14254285395145416,"359":-0.20293019711971283,"360":0.3085157871246338,"361":2.377802610397339,"362":0.3715219795703888,"363":0.6583634614944458,"364":1.1859910488128662,"365":-1.9754068851470947,"366":0.8474203944206238,"367":-1.7070012092590332,"368":-0.8146254420280457,"369":-2.5176777839660645,"370":-2.0389328002929688,"371":3.363504409790039,"372":1.0434542894363403,"373":-1.7421202659606934,"374":1.2573682069778442,"375":-0.9192888140678406,"376":-0.5768303275108337,"377":-2.5759990215301514,"378":0.40320131182670593,"379":1.57779061794281,"380":0.8749674558639526,"381":2.116708517074585,"382":-0.012401828542351723,"383":0.5511156916618347,"384":-0.6256318688392639,"385":-3.401630163192749,"386":0.06602060794830322,"387":-0.7157766222953796,"388":-1.620673656463623,"389":1.0877068042755127,"390":1.2109456062316895,"391":1.5795682668685913,"392":-0.611505925655365,"393":2.1789679527282715,"394":-0.23031437397003174,"395":0.052638545632362366,"396":-0.7465131282806396,"397":-3.3602070808410645,"398":-0.8740009069442749,"399":1.7798187732696533,"400":0.4502294063568115,"401":1.4464515447616577,"402":0.07793094217777252,"403":0.6427033543586731,"404":0.6593376994132996,"405":1.467064619064331,"406":-0.5372599363327026,"407":-1.1981492042541504,"408":1.7302638292312622,"409":-1.1822659969329834,"410":-0.8389815092086792,"411":2.052443504333496,"412":-1.0598087310791016,"413":1.4757829904556274,"414":1.6249468326568604,"415":-0.45018690824508667,"416":1.7189942598342896,"417":2.6276605129241943,"418":-1.8205939531326294,"419":0.03888861835002899,"420":-0.2897840440273285,"421":-2.125772714614868,"422":-0.07454608380794525,"423":-0.8637513518333435,"424":-2.4909486770629883,"425":-2.7027602195739746,"426":-0.042637500911951065,"427":-0.7918729782104492,"428":0.4091060161590576,"429":0.4727586507797241,"430":1.2633711099624634,"431":-1.72102952003479,"432":-1.7957204580307007,"433":1.2137264013290405,"434":0.967440664768219,"435":-1.4881778955459595,"436":-0.09135305136442184,"437":1.4145705699920654,"438":-0.11378666758537292,"439":-1.4129984378814697,"440":-0.7383478879928589,"441":-1.0548218488693237,"442":0.7757177948951721,"443":1.3303297758102417,"444":0.7281529307365417,"445":1.603611707687378,"446":-0.4990532398223877,"447":-0.2532650828361511,"448":-2.477088689804077,"449":-0.6129953265190125,"450":1.0902481079101562,"451":-0.691429078578949,"452":-0.17771832644939423,"453":-1.2613016366958618,"454":0.300241619348526,"455":-0.1831209808588028,"456":4.734205722808838,"457":0.6496177315711975,"458":-0.1551353931427002,"459":-1.2738099098205566,"460":-3.2195076942443848,"461":0.608156144618988,"462":-0.47296908497810364,"463":-1.2776421308517456,"464":-3.037626266479492,"465":-0.27240967750549316,"466":-1.4545913934707642,"467":-0.6318674683570862,"468":-1.896044373512268,"469":1.9184798002243042,"470":1.0029354095458984,"471":-1.2753163576126099,"472":0.3335391581058502,"473":-3.5777475833892822,"474":2.226658821105957,"475":1.5117201805114746,"476":-1.3487236499786377,"477":-2.345020055770874,"478":1.9543476104736328,"479":1.9239193201065063,"480":0.28148308396339417,"481":2.340528964996338,"482":-0.13208338618278503,"483":-0.4113881289958954,"484":-1.7269457578659058,"485":0.5100719928741455,"486":0.866878092288971,"487":-0.5793962478637695,"488":-2.2748124599456787,"489":-2.6479883193969727,"490":-0.1580841839313507,"491":-1.2937071323394775,"492":-1.3749507665634155,"493":-1.9077506065368652,"494":-0.5342190861701965,"495":1.4065576791763306,"496":2.5863490104675293,"497":0.802147626876831,"498":0.04234965145587921,"499":-0.2041379064321518,"500":1.2278008460998535,"501":-1.5283328294754028,"502":-1.0955890417099,"503":1.2303452491760254,"504":1.0269525051116943,"505":-0.6013717651367188,"506":-2.2770116329193115,"507":0.6862571239471436,"508":0.8429824709892273,"509":0.03818335384130478,"510":0.2187107503414154,"511":2.865691900253296,"512":1.6559025049209595,"513":-0.04212520644068718,"514":2.0091588497161865,"515":-3.077136993408203,"516":5.2814531326293945,"517":1.0531882047653198,"518":-1.6452512741088867,"519":-1.3094686269760132,"520":3.219165325164795,"521":-3.43011736869812,"522":0.5511206388473511,"523":1.7042641639709473,"524":-1.7796622514724731,"525":-0.11385848373174667,"526":-1.3377525806427002,"527":2.190138101577759,"528":0.9071199297904968,"529":1.4244985580444336,"530":-0.7229903340339661,"531":0.7562078237533569,"532":-1.8018529415130615,"533":3.099663019180298,"534":-0.8673245310783386,"535":-1.1377815008163452,"536":-0.17428156733512878,"537":-0.5215362310409546,"538":-4.194950580596924,"539":0.42650553584098816,"540":0.9703349471092224,"541":-0.7346878051757812,"542":2.286040782928467,"543":3.5060131549835205,"544":1.4362198114395142,"545":0.6155148148536682,"546":3.7500932216644287,"547":-3.9885246753692627,"548":2.047959089279175,"549":-1.7161965370178223,"550":2.155104398727417,"551":0.8468870520591736,"552":2.3615400791168213,"553":0.6819425821304321,"554":2.484060049057007,"555":-0.7496713995933533,"556":-1.0882859230041504,"557":0.2571670711040497,"558":2.479288339614868,"559":0.08225547522306442,"560":-0.8869723677635193,"561":-4.580432891845703,"562":0.019825512543320656,"563":-1.2803480625152588,"564":-1.9015058279037476,"565":-1.552693247795105,"566":0.011414289474487305,"567":-1.896221399307251,"568":-0.5301032066345215,"569":-0.3962220847606659,"570":0.9371672868728638,"571":0.3678392469882965,"572":3.1959893703460693,"573":1.2470133304595947,"574":-1.1075190305709839,"575":0.1432345062494278,"576":1.5977325439453125,"577":1.8805859088897705,"578":0.8182529211044312,"579":-1.5499151945114136,"580":-1.1217634677886963,"581":0.7788538336753845,"582":-0.22978191077709198,"583":-0.1940913051366806,"584":0.8205661773681641,"585":-0.3955717086791992,"586":-0.3671894371509552,"587":0.9723246097564697,"588":0.46083077788352966,"589":-0.3700958490371704,"590":-1.130562663078308,"591":1.1792327165603638,"592":-0.47543150186538696,"593":-3.5201239585876465,"594":-0.8255217671394348,"595":-1.2316205501556396,"596":-0.6604143381118774,"597":0.4220331609249115,"598":2.610368013381958,"599":-0.027584102004766464,"600":0.6002996563911438,"601":-1.7926933765411377,"602":1.2901840209960938,"603":-0.8108838796615601,"604":1.5914846658706665,"605":2.7157373428344727,"606":-2.768990993499756,"607":1.3726414442062378,"608":1.9696943759918213,"609":-1.326012134552002,"610":1.5559419393539429,"611":-1.4182401895523071,"612":-0.6036385297775269,"613":0.35343217849731445,"614":0.5904006958007812,"615":0.888424277305603,"616":-2.353954553604126,"617":0.3760351836681366,"618":0.39384719729423523,"619":0.06112804636359215,"620":0.2377704381942749,"621":-0.2023296058177948,"622":-3.040191650390625,"623":0.3507328927516937,"624":-1.137019395828247,"625":0.8468754887580872,"626":0.047422681003808975,"627":-0.03889315947890282,"628":-1.9018980264663696,"629":-1.7578140497207642,"630":0.5804975628852844,"631":-0.8066021203994751,"632":0.6077784895896912,"633":-2.5713460445404053,"634":1.1368478536605835,"635":-1.2324531078338623,"636":0.9001888632774353,"637":-1.4069628715515137,"638":1.8380067348480225,"639":-0.4315969944000244,"640":0.05952870100736618,"641":-0.6236984133720398,"642":-1.0583409070968628,"643":-0.5870265960693359,"644":0.7080104947090149,"645":-0.9189486503601074,"646":-3.0904409885406494,"647":0.019207142293453217,"648":0.20093326270580292,"649":1.4883955717086792,"650":-1.9949262142181396,"651":-0.042953867465257645,"652":-0.8652753233909607,"653":1.237815260887146,"654":-0.49564415216445923,"655":-2.936278820037842,"656":0.41409382224082947,"657":2.345881462097168,"658":-0.04995257407426834,"659":0.12304824590682983,"660":2.9572877883911133,"661":-1.7082406282424927,"662":-3.0953762531280518,"663":-1.7295441627502441,"664":1.0114184617996216,"665":0.45886582136154175,"666":0.7672490477561951,"667":0.19476361572742462,"668":-0.9601320624351501,"669":2.091897964477539,"670":0.3991776704788208,"671":2.121347188949585,"672":-0.2058653086423874,"673":-2.5176916122436523,"674":-1.8995667695999146,"675":-1.942512035369873,"676":0.2668337821960449,"677":0.5387386083602905,"678":-0.5163829326629639,"679":-0.7511401772499084,"680":1.3016095161437988,"681":-0.6276199817657471,"682":-0.24801038205623627,"683":-0.15183627605438232,"684":1.6329209804534912,"685":-0.43128153681755066,"686":1.2554148435592651,"687":-0.7681824564933777,"688":-1.7926502227783203,"689":-0.8691489100456238,"690":-0.9257977604866028,"691":-0.1278603971004486,"692":-1.422471523284912,"693":0.5761705636978149,"694":0.7483617663383484,"695":-0.5489770770072937,"696":0.15059725940227509,"697":1.1203784942626953,"698":0.639565646648407,"699":-0.3776733875274658,"700":-1.1333736181259155,"701":-1.1644850969314575,"702":0.6822704672813416,"703":-2.584855079650879,"704":-0.1544061303138733,"705":-0.6969612240791321,"706":-0.49083101749420166,"707":-1.3026502132415771,"708":0.6888315677642822,"709":-0.9264049530029297,"710":-1.4586608409881592,"711":1.3090683221817017,"712":-0.13191238045692444,"713":-3.458782434463501,"714":-0.8641241788864136,"715":0.13021978735923767,"716":-1.7505371570587158,"717":-0.13097845017910004,"718":0.016940835863351822,"719":-0.0317537821829319,"720":4.164350509643555,"721":-2.551741600036621,"722":2.2606258392333984,"723":1.7851897478103638,"724":-0.6935573220252991,"725":0.9457865357398987,"726":0.3042677938938141,"727":-1.5424851179122925,"728":-2.452390193939209,"729":-0.5972362756729126,"730":1.7847641706466675,"731":-1.0347824096679688,"732":0.9871513843536377,"733":-0.8929319381713867,"734":2.3492183685302734,"735":0.18231362104415894,"736":0.03653694689273834,"737":0.34171149134635925,"738":1.8123384714126587,"739":-0.5809769034385681,"740":0.7044479250907898,"741":-0.859691321849823,"742":0.3849911689758301,"743":-0.30748170614242554,"744":1.7490200996398926,"745":0.024068614467978477,"746":-1.2456262111663818,"747":0.03895645961165428,"748":2.5432605743408203,"749":-0.2729695439338684,"750":0.21997427940368652,"751":-1.8396097421646118,"752":-0.13297994434833527,"753":-0.3245827257633209,"754":-1.9168635606765747,"755":-0.36616531014442444,"756":-0.16517814993858337,"757":0.27363789081573486,"758":0.7757182717323303,"759":-0.8933489322662354,"760":0.8826436400413513,"761":1.1398284435272217,"762":2.3985157012939453,"763":0.8387767672538757,"764":-2.764038324356079,"765":-1.0666618347167969,"766":-0.5395098328590393,"767":-0.5529664158821106,"768":-1.0424085855484009,"769":4.334357261657715,"770":1.373535394668579,"771":-0.1712436079978943,"772":-1.3000272512435913,"773":-0.9147691130638123,"774":1.1897145509719849,"775":0.9574663043022156,"776":-0.13109153509140015,"777":0.22638383507728577,"778":1.788845181465149,"779":1.440093755722046,"780":-0.20215877890586853,"781":1.5584568977355957,"782":-1.864365816116333,"783":-1.1035407781600952,"784":1.2065775394439697,"785":-3.2886240482330322,"786":-0.39458245038986206,"787":-0.9728814959526062,"788":1.5285460948944092,"789":1.5135823488235474,"790":0.9054844975471497,"791":-1.916519045829773,"792":0.5706921219825745,"793":-1.7640260457992554,"794":1.2673799991607666,"795":-0.568594217300415,"796":-1.538461446762085,"797":0.46080470085144043,"798":1.7368744611740112,"799":0.00910987053066492,"800":2.0519609451293945,"801":0.7582897543907166,"802":-1.58822500705719,"803":-2.0270378589630127,"804":-0.08672506362199783,"805":-0.3719060719013214,"806":1.0895277261734009,"807":0.30489081144332886,"808":3.501774311065674,"809":2.3520138263702393,"810":-0.871842622756958,"811":1.4593069553375244,"812":0.10882482677698135,"813":0.08932127058506012,"814":0.43099477887153625,"815":1.3009564876556396,"816":-1.7140905857086182,"817":-0.4040684700012207,"818":0.6779396533966064,"819":-0.19166724383831024,"820":-2.6051464080810547,"821":-0.48952826857566833,"822":0.803453803062439,"823":-1.4638128280639648,"824":1.95871102809906,"825":0.21489736437797546,"826":0.11172249913215637,"827":-1.1618413925170898,"828":0.17829529941082,"829":-2.504343271255493,"830":-0.6641539335250854,"831":-0.004312364384531975,"832":-2.588756561279297,"833":-1.7661782503128052,"834":-0.518678605556488,"835":0.5758439898490906,"836":-1.4781193733215332,"837":2.2571704387664795,"838":1.3506921529769897,"839":2.0515034198760986,"840":-2.517320156097412,"841":0.01720111258327961,"842":-1.4045449495315552,"843":-2.7222366333007812,"844":0.9890953898429871,"845":0.751885175704956,"846":2.115363597869873,"847":-1.222758173942566,"848":-0.9214538335800171,"849":-1.0978739261627197,"850":0.8118720650672913,"851":-0.8495593070983887,"852":0.8957647085189819,"853":-1.0392705202102661,"854":-1.2679468393325806,"855":0.9099963307380676,"856":0.18905118107795715,"857":1.103318691253662,"858":0.6827164888381958,"859":-0.2671859860420227,"860":-1.9941515922546387,"861":1.3261619806289673,"862":0.5755710601806641,"863":0.7609010934829712,"864":0.7038127779960632,"865":0.9874714016914368,"866":1.5549559593200684,"867":-1.1285773515701294,"868":-0.7501108050346375,"869":-0.7156991362571716,"870":0.3824599087238312,"871":3.758009195327759,"872":1.658499002456665,"873":-5.88731050491333,"874":-0.500008225440979,"875":-2.9866538047790527,"876":1.0700236558914185,"877":-0.8312667012214661,"878":0.4185727536678314,"879":0.9610649347305298,"880":0.7521442770957947,"881":1.2865066528320312,"882":0.9731774926185608,"883":0.3146726191043854,"884":1.0062631368637085,"885":1.7788896560668945,"886":1.1465058326721191,"887":0.3974277377128601,"888":-0.8856022357940674,"889":0.29613566398620605,"890":-0.6963059902191162,"891":2.144331932067871,"892":0.6747302412986755,"893":0.29444995522499084,"894":0.9893914461135864,"895":0.44110366702079773,"896":2.313666343688965,"897":-0.08715428411960602,"898":-0.5521220564842224,"899":1.6015632152557373,"900":0.19017796218395233,"901":-1.2672303915023804,"902":0.21914207935333252,"903":-1.55437433719635,"904":-0.36921414732933044,"905":3.6219077110290527,"906":1.24468195438385,"907":3.1458449363708496,"908":-2.664081573486328,"909":0.6337170004844666,"910":1.1675479412078857,"911":0.41291725635528564,"912":-0.7022319436073303,"913":0.5930333733558655,"914":-2.037546157836914,"915":1.1869546175003052,"916":-0.5715439915657043,"917":0.9574830532073975,"918":0.4667571783065796,"919":1.3901199102401733,"920":-0.4778608977794647,"921":-3.9342777729034424,"922":-3.714463233947754,"923":3.012392520904541,"924":-0.5710285305976868,"925":0.6324570178985596,"926":-2.7074339389801025,"927":-2.1164581775665283,"928":2.939563035964966,"929":-1.86945641040802,"930":-1.424051284790039,"931":1.1384834051132202,"932":-1.132077693939209,"933":0.4821537137031555,"934":2.6424295902252197,"935":0.5765579342842102,"936":0.14807555079460144,"937":1.640959620475769,"938":3.143075466156006,"939":-1.8735082149505615,"940":1.1897920370101929,"941":0.38097184896469116,"942":-0.01837923936545849,"943":-1.5762760639190674,"944":1.7228977680206299,"945":-2.650993824005127,"946":2.3554818630218506,"947":-1.2422655820846558,"948":1.8441517353057861,"949":1.3051985502243042,"950":1.280490756034851,"951":-0.0609169565141201,"952":3.1983985900878906,"953":-3.121135950088501,"954":1.1810946464538574,"955":0.5320126414299011,"956":-0.6618937849998474,"957":-4.470604419708252,"958":-1.7541592121124268,"959":1.3397316932678223,"960":0.3673565983772278,"961":0.5230275988578796,"962":0.5777750015258789,"963":-0.8538885116577148,"964":0.9699196219444275,"965":-0.5134906768798828,"966":0.383279025554657,"967":2.148545980453491,"968":1.1931825876235962,"969":-5.830438137054443,"970":1.3722929954528809,"971":0.35696616768836975,"972":0.1517489105463028,"973":-0.5708128809928894,"974":-1.2721060514450073,"975":-0.43263256549835205,"976":1.8715115785598755,"977":-1.0908108949661255,"978":-3.1442267894744873,"979":1.9152930974960327,"980":0.6367293000221252,"981":-0.17405779659748077,"982":-0.3003022074699402,"983":-1.6845009326934814,"984":-0.6825564503669739,"985":3.52435302734375,"986":0.537993311882019,"987":1.857938528060913,"988":-0.5010560750961304,"989":0.693524956703186,"990":0.1432562619447708,"991":1.0068176984786987,"992":-0.6718061566352844,"993":0.6997095942497253,"994":0.7409656643867493,"995":-0.26744958758354187,"996":0.6285595893859863,"997":1.4701634645462036,"998":-1.3355095386505127,"999":1.8540953397750854,"1000":-1.2459129095077515,"1001":-2.557232141494751,"1002":-1.0435165166854858,"1003":-0.8959700465202332,"1004":3.0998823642730713,"1005":-3.0438051223754883,"1006":0.11022800207138062,"1007":-0.3347705006599426,"1008":1.628494381904602,"1009":1.0872724056243896,"1010":1.6095526218414307,"1011":-2.44582200050354,"1012":0.5893668532371521,"1013":0.7506179809570312,"1014":-0.335136353969574,"1015":1.1429829597473145,"1016":0.9524571299552917,"1017":-1.0043398141860962,"1018":0.9613133668899536,"1019":1.0519826412200928}},"inputHidden":{"rows":20,"columns":20,"weights":{"0":0.02443983033299446,"1":-1.564170241355896,"2":-0.2532731592655182,"3":1.1436941623687744,"4":0.5705391764640808,"5":-1.8171619176864624,"6":2.266784191131592,"7":-1.081614375114441,"8":-0.9337368607521057,"9":-0.7721286416053772,"10":-0.26737141609191895,"11":0.5569090843200684,"12":0.12059628963470459,"13":0.04869507998228073,"14":1.6361868381500244,"15":0.7702550292015076,"16":-0.9015246629714966,"17":-0.2842063307762146,"18":1.4589632749557495,"19":-0.44728031754493713,"20":-1.9892069101333618,"21":-2.1852571964263916,"22":1.8426545858383179,"23":5.398573875427246,"24":3.1342051029205322,"25":2.313497543334961,"26":0.25331535935401917,"27":-1.9286060333251953,"28":-4.173704624176025,"29":3.6982247829437256,"30":3.9132080078125,"31":0.06294605135917664,"32":0.2729994058609009,"33":0.929222822189331,"34":1.2500791549682617,"35":0.11336244642734528,"36":-0.14672885835170746,"37":-1.5410561561584473,"38":-0.9059346914291382,"39":2.8002448081970215,"40":-2.9921836853027344,"41":-0.8599096536636353,"42":0.6213400959968567,"43":-2.5718915462493896,"44":-3.958972454071045,"45":1.1032185554504395,"46":0.9606021046638489,"47":2.383761405944824,"48":1.1247756481170654,"49":-0.2501939535140991,"50":-3.5960958003997803,"51":0.7761189341545105,"52":0.3159492015838623,"53":1.9157534837722778,"54":-1.641006588935852,"55":-0.6665592789649963,"56":-2.128359317779541,"57":0.14873027801513672,"58":0.6476847529411316,"59":-1.1658103466033936,"60":1.164401650428772,"61":-1.166219711303711,"62":-0.014279131777584553,"63":-2.274729013442993,"64":-1.7949186563491821,"65":-0.12567809224128723,"66":0.6510702967643738,"67":4.899219989776611,"68":3.851530075073242,"69":1.4650728702545166,"70":-6.980149269104004,"71":-4.354664325714111,"72":-4.256767749786377,"73":2.1786296367645264,"74":-5.182422161102295,"75":-3.2161121368408203,"76":-6.744781017303467,"77":2.19441556930542,"78":-2.641719341278076,"79":-3.1086502075195312,"80":-1.918161392211914,"81":4.786168575286865,"82":4.823570251464844,"83":-1.5608316659927368,"84":-0.06837090104818344,"85":4.829608917236328,"86":3.598952293395996,"87":1.2171550989151,"88":0.6740480065345764,"89":-0.9956309795379639,"90":1.3103212118148804,"91":2.095911979675293,"92":-4.808090686798096,"93":3.8555655479431152,"94":-2.0172119140625,"95":4.2635908126831055,"96":-2.2482895851135254,"97":0.6642768383026123,"98":-2.1842992305755615,"99":0.0838756114244461,"100":3.6444034576416016,"101":-5.777319431304932,"102":-1.7917275428771973,"103":-1.9373303651809692,"104":3.2941102981567383,"105":0.7785904407501221,"106":3.8833813667297363,"107":-2.459423065185547,"108":2.163285493850708,"109":0.25995054841041565,"110":3.8373539447784424,"111":-0.19285520911216736,"112":0.11081353574991226,"113":-0.24170367419719696,"114":1.2606914043426514,"115":0.1777748465538025,"116":0.4887959659099579,"117":-0.5378187298774719,"118":-2.4652504920959473,"119":-1.2406588792800903,"120":3.5608105659484863,"121":-3.4553301334381104,"122":-0.6469916105270386,"123":0.10644802451133728,"124":0.3874760568141937,"125":1.2806369066238403,"126":2.04927134513855,"127":-5.551761627197266,"128":-0.01670996844768524,"129":-1.7138878107070923,"130":0.4160574674606323,"131":6.06423807144165,"132":1.2681587934494019,"133":-3.914280652999878,"134":-0.5184497833251953,"135":0.8471078872680664,"136":0.06150846183300018,"137":-1.581750512123108,"138":2.789440393447876,"139":0.5005967020988464,"140":-0.14336539804935455,"141":-0.6532285213470459,"142":-1.0811768770217896,"143":-4.412907123565674,"144":3.7080914974212646,"145":-1.1922038793563843,"146":4.0283122062683105,"147":1.2840542793273926,"148":-1.4550844430923462,