{"type":"LSTM","options":{"inputSize":51,"inputRange":51,"hiddenLayers":[20,20],"outputSize":51,"decayRate":0.999,"smoothEps":1e-8,"regc":0.000001,"clipval":5,"maxPredictionLength":100,"dataFormatter":{"values":["oi","Olá! Como posso lhe ajudar?","olá","Oi! Tudo bem contigo? Espero que sim :) em que posso lhe ajudar?","hey","Ho, let's go! Posso lhe ajudar em algo?","hello","Hi there, how can I help? You would like to convert into english?","alguem ai?","Sempre quando sou ligado, claro!","oi tudo bem?","Opa! Tudo tranquilo por aqui, obrigado por perguntar :D no que posso lhe ajudar?","tudo bem?","Tudo na medida do possivel, no que posso lhe ajudar?","bom dia","Lhe desejo um ótimo dia também :D","oi bom dia","Olá! Um ótimo dia para você também :D","bom","Dia! XD","boa tarde","Boa tarde! Posso lhe ajudar em algo?","boa noite","Boa noite, amigo! Em que posso lhe servir?"],"indexTable":{"o":0,"i":1,"O":2,"l":3,"á":4,"!":5," ":6,"C":7,"m":8,"p":9,"s":10,"h":11,"e":12,"a":13,"j":14,"u":15,"d":16,"r":17,"?":18,"T":19,"b":20,"c":21,"n":22,"t":23,"g":24,"E":25,"q":26,":":27,")":28,"y":29,"H":30,",":31,"'":32,"P":33,"w":34,"I":35,"Y":36,"k":37,"v":38,"S":39,"D":40,"L":41,"ó":42,"é":43,"U":44,"ê":45,"X":46,"B":47,"stop-input":48,"start-output":49,"unrecognized":50},"characterTable":{"0":"o","1":"i","2":"O","3":"l","4":"á","5":"!","6":" ","7":"C","8":"m","9":"p","10":"s","11":"h","12":"e","13":"a","14":"j","15":"u","16":"d","17":"r","18":"?","19":"T","20":"b","21":"c","22":"n","23":"t","24":"g","25":"E","26":"q","27":":","28":")","29":"y","30":"H","31":",","32":"'","33":"P","34":"w","35":"I","36":"Y","37":"k","38":"v","39":"S","40":"D","41":"L","42":"ó","43":"é","44":"U","45":"ê","46":"X","47":"B","48":null,"49":null,"50":null},"characters":["o","i","O","l","á","!"," ","C","m","p","s","h","e","a","j","u","d","r","?","T","b","c","n","t","g","E","q",":",")","y","H",",","'","P","w","I","Y","k","v","S","D","L","ó","é","U","ê","X","B","stop-input","start-output","unrecognized"],"specialIndexes":[48,49,50]}},"input":{"rows":52,"columns":51,"weights":{"0":-1.2265419960021973,"1":2.5577306747436523,"2":0.5601252317428589,"3":-0.34909266233444214,"4":-0.5799901485443115,"5":-1.8195881843566895,"6":-1.1434282064437866,"7":0.1436586230993271,"8":0.7121835947036743,"9":-0.8358610272407532,"10":1.1556594371795654,"11":-2.053799867630005,"12":-0.6126111149787903,"13":0.4405197501182556,"14":1.2568837404251099,"15":-0.8040423393249512,"16":1.6376005411148071,"17":1.12221097946167,"18":-0.1994812935590744,"19":-0.1855001002550125,"20":-0.24571356177330017,"21":0.14808647334575653,"22":-1.6537483930587769,"23":-1.836120843887329,"24":-0.784047544002533,"25":1.2399325370788574,"26":-1.7186757326126099,"27":1.8925234079360962,"28":1.365281581878662,"29":2.099576711654663,"30":-0.25850000977516174,"31":0.14531521499156952,"32":-0.06407302618026733,"33":-0.1324780434370041,"34":-0.3508053719997406,"35":-0.4460556209087372,"36":-2.0746378898620605,"37":-0.6954296231269836,"38":1.3055083751678467,"39":0.8936597108840942,"40":2.481508255004883,"41":-2.7120232582092285,"42":1.3636410236358643,"43":-0.5373934507369995,"44":-1.3311378955841064,"45":0.04550725966691971,"46":0.10854902863502502,"47":-2.315690040588379,"48":-2.660855293273926,"49":1.1800249814987183,"50":0.10235237330198288,"51":-1.3954453468322754,"52":0.7964413166046143,"53":-0.381049782037735,"54":2.617194175720215,"55":2.936866521835327,"56":2.593738555908203,"57":-2.7544071674346924,"58":-0.7207279801368713,"59":-1.6590960025787354,"60":1.8553615808486938,"61":-1.880308985710144,"62":-1.680182933807373,"63":2.1202986240386963,"64":-0.23515143990516663,"65":0.8136618733406067,"66":1.1626036167144775,"67":1.3215967416763306,"68":2.8373494148254395,"69":-0.2783370316028595,"70":1.5614718198776245,"71":0.8940525054931641,"72":1.1443387269973755,"73":0.4330359399318695,"74":-0.33044224977493286,"75":2.8541529178619385,"76":0.4324062466621399,"77":0.8013218641281128,"78":1.781014084815979,"79":3.2002809047698975,"80":3.0114622116088867,"81":-0.8852879405021667,"82":-0.11492510139942169,"83":1.7909409999847412,"84":-0.21981778740882874,"85":-2.5318572521209717,"86":1.7348744869232178,"87":-1.46412193775177,"88":-1.3523170948028564,"89":0.6855543255805969,"90":0.7541784644126892,"91":0.8272687196731567,"92":-2.0378358364105225,"93":-0.7167773246765137,"94":1.1680898666381836,"95":-1.807718276977539,"96":-1.3991061449050903,"97":2.1409177780151367,"98":-2.657651424407959,"99":-0.7922984957695007,"100":-1.1115604639053345,"101":2.1996676921844482,"102":0.3315909206867218,"103":2.6439433097839355,"104":3.7954256534576416,"105":0.368724524974823,"106":-1.386772871017456,"107":-0.09788165241479874,"108":-1.3044707775115967,"109":0.22495505213737488,"110":2.052428960800171,"111":1.0380281209945679,"112":1.1486660242080688,"113":-0.7171427607536316,"114":0.581553041934967,"115":0.27099713683128357,"116":3.1561949253082275,"117":3.652467727661133,"118":0.02062171883881092,"119":5.060985565185547,"120":-2.324131727218628,"121":4.218175888061523,"122":-0.7945261001586914,"123":3.594611644744873,"124":1.0934364795684814,"125":2.1617932319641113,"126":-1.9566419124603271,"127":2.3851866722106934,"128":-0.5445523858070374,"129":1.200221061706543,"130":0.21120727062225342,"131":1.4004672765731812,"132":-0.9658802151679993,"133":-0.7241418361663818,"134":1.2362462282180786,"135":-1.6772408485412598,"136":-0.4016702473163605,"137":0.1663365513086319,"138":0.8732573390007019,"139":-0.04553157091140747,"140":-0.3768962621688843,"141":2.2906441688537598,"142":-1.0468331575393677,"143":-0.04297414794564247,"144":2.512235403060913,"145":-1.8438713550567627,"146":-2.509556293487549,"147":-1.9740434885025024,"148":3.555793523788452,"149":-0.48807257413864136,"150":-0.027807198464870453,"151":-0.2690916955471039,"152":3.5390141010284424,"153":-2.2181854248046875,"154":1.1790093183517456,"155":-0.7941679954528809,"156":0.690212607383728,"157":-2.2423255443573,"158":-1.1295627355575562,"159":4.573860168457031,"160":-0.2609184682369232,"161":-1.1184136867523193,"162":-2.1480867862701416,"163":4.071810722351074,"164":0.05858556926250458,"165":2.2887585163116455,"166":-1.290545105934143,"167":1.4737575054168701,"168":-1.3257997035980225,"169":5.5254225730896,"170":0.6599751710891724,"171":2.7633488178253174,"172":-4.086914539337158,"173":-0.4354734420776367,"174":3.923130989074707,"175":-6.045411109924316,"176":1.933809757232666,"177":0.44048455357551575,"178":2.1480493545532227,"179":-2.1194324493408203,"180":-4.567080497741699,"181":-0.008042605593800545,"182":-2.699221134185791,"183":2.151073932647705,"184":-3.9081170558929443,"185":-0.8352758884429932,"186":3.572242259979248,"187":1.4600677490234375,"188":2.4351162910461426,"189":-0.7299960851669312,"190":-1.4949724674224854,"191":-3.8345224857330322,"192":3.7828612327575684,"193":3.6001219749450684,"194":-3.394397020339966,"195":3.016108512878418,"196":0.27594882249832153,"197":9.160111427307129,"198":3.0910418033599854,"199":1.8851728439331055,"200":1.4460341930389404,"201":-3.589268684387207,"202":8.832025527954102,"203":3.2670109272003174,"204":0.07705503702163696,"205":1.6818335056304932,"206":-3.326547384262085,"207":0.38043349981307983,"208":-3.8083505630493164,"209":0.7227621674537659,"210":2.192352056503296,"211":-1.8876458406448364,"212":-1.7116788625717163,"213":3.5996968746185303,"214":1.1448196172714233,"215":1.4664015769958496,"216":2.124873638153076,"217":-1.1148548126220703,"218":-3.395491123199463,"219":1.6435929536819458,"220":2.713116407394409,"221":-1.6575195789337158,"222":-1.3950824737548828,"223":2.8356704711914062,"224":1.1721932888031006,"225":1.884563684463501,"226":1.4215441942214966,"227":2.5570414066314697,"228":0.07572191953659058,"229":-1.5926101207733154,"230":0.5620986223220825,"231":-2.6164956092834473,"232":-1.0711817741394043,"233":1.2481083869934082,"234":1.2871628999710083,"235":-1.3258326053619385,"236":-1.7813904285430908,"237":0.49109530448913574,"238":0.6489155292510986,"239":-3.151278018951416,"240":2.4304840564727783,"241":3.3663864135742188,"242":-0.7105677127838135,"243":4.1549482345581055,"244":-0.22731302678585052,"245":4.890910625457764,"246":0.997943639755249,"247":1.6752910614013672,"248":-0.19409991800785065,"249":-3.4447884559631348,"250":4.538724422454834,"251":1.4780224561691284,"252":-0.7098742723464966,"253":3.893484592437744,"254":4.438343048095703,"255":6.904224872589111,"256":1.0038957595825195,"257":-1.4849708080291748,"258":2.9467921257019043,"259":0.012360204942524433,"260":3.5619895458221436,"261":-3.7660839557647705,"262":0.19558657705783844,"263":-7.414218425750732,"264":0.4876861572265625,"265":-3.0382022857666016,"266":-1.0584251880645752,"267":-5.465590953826904,"268":1.9944673776626587,"269":-5.154829025268555,"270":2.894537925720215,"271":-2.351886749267578,"272":-6.689628601074219,"273":-2.4769327640533447,"274":-3.730114459991455,"275":3.8388752937316895,"276":-3.5362794399261475,"277":3.7691736221313477,"278":-5.085316181182861,"279":2.70456862449646,"280":-1.4678093194961548,"281":4.5593976974487305,"282":-0.40349289774894714,"283":-7.57339334487915,"284":-2.0192909240722656,"285":-1.1806771755218506,"286":-0.51496422290802,"287":0.7781594395637512,"288":0.7441411018371582,"289":-1.73246169090271,"290":-7.696647644042969,"291":11.659292221069336,"292":6.78586483001709,"293":-1.9736237525939941,"294":0.04592739790678024,"295":0.021474871784448624,"296":-0.37713998556137085,"297":-1.3499503135681152,"298":1.3120895624160767,"299":5.73367977142334,"300":-1.6797035932540894,"301":-2.409895658493042,"302":-0.36945247650146484,"303":-1.5258352756500244,"304":-3.9688360691070557,"305":-0.8349575996398926,"306":-5.026939392089844,"307":-3.2533743381500244,"308":-1.5493414402008057,"309":3.043865919113159,"310":2.2066755294799805,"311":-1.285701870918274,"312":-0.04958881437778473,"313":-0.30272969603538513,"314":0.24124951660633087,"315":-0.6149629950523376,"316":2.8533475399017334,"317":4.0058112144470215,"318":-2.0860745906829834,"319":-1.123958706855774,"320":2.1813509464263916,"321":-1.1956675052642822,"322":1.1476634740829468,"323":-3.0929818153381348,"324":-0.4465341567993164,"325":0.19116546213626862,"326":-2.6590723991394043,"327":3.4917993545532227,"328":-0.05256155505776405,"329":0.5187863111495972,"330":0.7469457387924194,"331":1.4839435815811157,"332":-1.5508017539978027,"333":1.6465063095092773,"334":-0.6746147274971008,"335":0.7858066558837891,"336":0.6239030957221985,"337":-1.957266092300415,"338":-3.778048515319824,"339":-1.1971750259399414,"340":0.006786401849240065,"341":2.0160436630249023,"342":-0.9269554615020752,"343":1.8562830686569214,"344":-4.444214344024658,"345":0.5505854487419128,"346":1.292206048965454,"347":-2.780064344406128,"348":-0.8414402008056641,"349":3.713709831237793,"350":2.1725094318389893,"351":3.2389817237854004,"352":0.18725456297397614,"353":3.8106679916381836,"354":-1.264939308166504,"355":-1.170991063117981,"356":1.6468366384506226,"357":-2.3433096408843994,"358":-1.5192474126815796,"359":4.011442184448242,"360":1.5020252466201782,"361":0.04619229584932327,"362":-3.9550304412841797,"363":-0.3128134608268738,"364":0.56508868932724,"365":1.6565673351287842,"366":-1.0798993110656738,"367":-3.958146333694458,"368":-0.47426795959472656,"369":0.9388836026191711,"370":-0.8788566589355469,"371":-3.365194320678711,"372":1.0909994840621948,"373":0.7586976885795593,"374":1.0826125144958496,"375":-0.5863742232322693,"376":-0.30188924074172974,"377":0.7529776692390442,"378":3.33469295501709,"379":3.8723621368408203,"380":-0.4002939760684967,"381":0.9320715665817261,"382":-3.048438549041748,"383":1.049307942390442,"384":2.2708234786987305,"385":3.427412748336792,"386":-3.5980565547943115,"387":0.8592504858970642,"388":-2.0171196460723877,"389":-2.2437045574188232,"390":-3.4024593830108643,"391":-0.5201928019523621,"392":-0.6477397680282593,"393":-1.1762155294418335,"394":-1.7927278280258179,"395":-2.7145137786865234,"396":3.2464582920074463,"397":-1.5870250463485718,"398":2.2441489696502686,"399":-1.7927639484405518,"400":-3.7831435203552246,"401":-2.8302690982818604,"402":-0.6999384760856628,"403":-0.26225072145462036,"404":0.67405766248703,"405":1.5148036479949951,"406":-1.404590368270874,"407":-2.0923988819122314,"408":2.6491358280181885,"409":-2.7271780967712402,"410":-4.076469898223877,"411":-0.8915297985076904,"412":-6.193603038787842,"413":-2.0277562141418457,"414":-9.087343215942383,"415":-8.707867622375488,"416":-9.874969482421875,"417":6.577680587768555,"418":11.83385181427002,"419":-0.5081226229667664,"420":12.860150337219238,"421":5.324151992797852,"422":-0.7522028684616089,"423":7.438884258270264,"424":0.07955919206142426,"425":-9.168597221374512,"426":-8.35197925567627,"427":21.393945693969727,"428":-6.495267868041992,"429":-0.9956372976303101,"430":-0.21048137545585632,"431":11.963598251342773,"432":4.440087795257568,"433":-4.999424934387207,"434":-2.8953986167907715,"435":-1.1905064582824707,"436":-5.1889328956604,"437":-6.177962779998779,"438":-8.014142036437988,"439":-6.958774089813232,"440":3.379957437515259,"441":6.7953691482543945,"442":-4.4767022132873535,"443":2.877253770828247,"444":9.490675926208496,"445":10.629040718078613,"446":6.18861198425293,"447":6.5053324699401855,"448":0.7647643089294434,"449":2.9796011447906494,"450":8.482588768005371,"451":5.690600872039795,"452":-4.095597743988037,"453":-9.478801727294922,"454":9.461880683898926,"455":4.153581619262695,"456":-4.7660298347473145,"457":3.169189691543579,"458":7.042015552520752,"459":-1.9877601861953735,"460":0.33197563886642456,"461":1.360442042350769,"462":-4.066990852355957,"463":-0.11823692172765732,"464":-0.7374942898750305,"465":0.8050289154052734,"466":-0.9588267803192139,"467":1.2138296365737915,"468":-0.4424055814743042,"469":-0.4392983913421631,"470":-0.5918732285499573,"471":1.1168876886367798,"472":-1.1811710596084595,"473":-3.4940261840820312,"474":2.7304093837738037,"475":1.4354557991027832,"476":2.6149325370788574,"477":-1.1242386102676392,"478":-1.0992708206176758,"479":2.3051910400390625,"480":2.879107713699341,"481":1.8557158708572388,"482":0.22673358023166656,"483":-0.5361475348472595,"484":-1.1501319408416748,"485":-1.4158761501312256,"486":1.8028020858764648,"487":1.9474529027938843,"488":-0.5194968581199646,"489":5.69003963470459,"490":-0.2308654934167862,"491":-1.6426825523376465,"492":-1.5115127563476562,"493":1.5031023025512695,"494":-1.0593464374542236,"495":1.8588110208511353,"496":-2.712545156478882,"497":-0.21274125576019287,"498":0.7980236411094666,"499":0.8286512494087219,"500":1.7262561321258545,"501":-1.2216439247131348,"502":-0.22426488995552063,"503":-0.3500380516052246,"504":-0.9818159937858582,"505":0.03390930965542793,"506":1.7012709379196167,"507":-0.7711458802223206,"508":3.4368627071380615,"509":-1.9315460920333862,"510":-1.3935736417770386,"511":0.448824942111969,"512":0.5611481666564941,"513":-1.77817702293396,"514":-0.6990097761154175,"515":-0.3177438974380493,"516":-3.251646041870117,"517":-1.076678991317749,"518":-4.281246185302734,"519":0.6714957356452942,"520":3.9434871673583984,"521":-0.0018923123134300113,"522":6.125722885131836,"523":-0.3108542561531067,"524":-2.099635362625122,"525":2.6723203659057617,"526":3.8802387714385986,"527":1.3842536211013794,"528":-1.817859411239624,"529":-0.3903164863586426,"530":-0.5441982746124268,"531":-0.21925507485866547,"532":0.8448060154914856,"533":-2.8590023517608643,"534":2.1782898902893066,"535":3.917510986328125,"536":1.4770050048828125,"537":3.195216178894043,"538":3.4014458656311035,"539":-0.8523396849632263,"540":0.9634742140769958,"541":0.7969946265220642,"542":2.1884052753448486,"543":-2.055710554122925,"544":-4.201310634613037,"545":4.794928550720215,"546":-4.569159030914307,"547":-0.37258535623550415,"548":-0.12720713019371033,"549":1.0603045225143433,"550":0.7489404678344727,"551":-2.6284282207489014,"552":-2.1147124767303467,"553":-2.785292863845825,"554":0.23690305650234222,"555":-3.333888053894043,"556":-1.2680437564849854,"557":-0.03618820384144783,"558":-0.2519839107990265,"559":1.0022079944610596,"560":2.472642421722412,"561":-2.3352081775665283,"562":-1.404832124710083,"563":-0.6389397978782654,"564":-0.35590699315071106,"565":-1.2669446468353271,"566":2.6838462352752686,"567":-0.736042857170105,"568":1.2271915674209595,"569":-0.8521716594696045,"570":0.6296313405036926,"571":1.1009190082550049,"572":0.3847935199737549,"573":4.406246662139893,"574":-0.4976038336753845,"575":-2.3102011680603027,"576":-1.8750529289245605,"577":2.611215114593506,"578":-0.3284558355808258,"579":2.161440134048462,"580":3.4804091453552246,"581":1.5398712158203125,"582":-2.1388487815856934,"583":-2.3957698345184326,"584":0.23460796475410461,"585":-0.5526372194290161,"586":0.6655099987983704,"587":1.4736741781234741,"588":0.3185045123100281,"589":4.1824049949646,"590":-3.8733129501342773,"591":1.7543293237686157,"592":3.5016252994537354,"593":3.571280002593994,"594":-0.7614457011222839,"595":1.5797486305236816,"596":0.2257993519306183,"597":-5.191720485687256,"598":-1.1393808126449585,"599":2.3837335109710693,"600":-1.0554141998291016,"601":2.2897446155548096,"602":-0.24445894360542297,"603":-0.6476128697395325,"604":-0.3307110667228699,"605":-2.1783175468444824,"606":-0.30179524421691895,"607":-1.7522300481796265,"608":-2.107797384262085,"609":-1.7645835876464844,"610":3.0556323528289795,"611":-0.5523430109024048,"612":5.2787041664123535,"613":-0.8447656631469727,"614":-2.294649839401245,"615":-1.5835731029510498,"616":-2.2790818214416504,"617":-2.437643051147461,"618":-0.6905487179756165,"619":1.6383106708526611,"620":2.5432205200195312,"621":0.8624730110168457,"622":-5.179768085479736,"623":-0.4176662862300873,"624":0.9291985630989075,"625":-5.077800750732422,"626":-2.1890294551849365,"627":-1.2442015409469604,"628":-1.9433667659759521,"629":-6.140227794647217,"630":-0.8535824418067932,"631":-0.756521999835968,"632":1.1276140213012695,"633":-2.3585734367370605,"634":-0.9412375688552856,"635":-0.3490438163280487,"636":-0.4179307222366333,"637":1.996193528175354,"638":-1.8008887767791748,"639":-5.706930160522461,"640":-1.5231298208236694,"641":-0.7468155026435852,"642":-0.817605197429657,"643":-3.423659563064575,"644":1.402313470840454,"645":1.050287127494812,"646":-0.7713173031806946,"647":-7.841994762420654,"648":1.8539456129074097,"649":-0.239644855260849,"650":0.7700108289718628,"651":0.8672438859939575,"652":-3.498514413833618,"653":3.046462059020996,"654":-0.33470943570137024,"655":-0.7202564477920532,"656":-3.543377161026001,"657":3.7221271991729736,"658":0.18473289906978607,"659":-5.203616619110107,"660":0.7099323272705078,"661":3.4105241298675537,"662":0.7458570003509521,"663":0.9169192314147949,"664":-7.119269371032715,"665":-0.3227158784866333,"666":-3.036576271057129,"667":0.6161205768585205,"668":0.7300764918327332,"669":0.8432601690292358,"670":0.2814963757991791,"671":-2.744980573654175,"672":2.09171724319458,"673":-0.6487616300582886,"674":4.401349067687988,"675":3.326512336730957,"676":-1.182830572128296,"677":0.29642167687416077,"678":2.843197822570801,"679":3.0167438983917236,"680":1.3117268085479736,"681":-0.7388893961906433,"682":0.6048409342765808,"683":-0.43675869703292847,"684":-1.3633861541748047,"685":1.1030479669570923,"686":1.5240552425384521,"687":1.7422611713409424,"688":1.237834095954895,"689":0.6663565039634705,"690":2.600252389907837,"691":1.5639703273773193,"692":-0.07511688768863678,"693":-2.2287545204162598,"694":1.0960569381713867,"695":3.7100183963775635,"696":1.350941777229309,"697":-3.914564847946167,"698":1.5005618333816528,"699":1.3630237579345703,"700":1.1727436780929565,"701":-2.1306581497192383,"702":-0.42331060767173767,"703":-2.2508552074432373,"704":-3.5669097900390625,"705":-1.1507847309112549,"706":-1.081831693649292,"707":2.938669204711914,"708":-0.3072814643383026,"709":-0.3028103709220886,"710":-0.33699482679367065,"711":1.4471570253372192,"712":-0.07985197752714157,"713":-0.14748473465442657,"714":-1.1150494813919067,"715":0.42223721742630005,"716":1.238468050956726,"717":1.7629806995391846,"718":1.0162534713745117,"719":-1.8443635702133179,"720":1.2947731018066406,"721":-2.9217307567596436,"722":0.9929422736167908,"723":-1.421633243560791,"724":0.26260876655578613,"725":-0.912992000579834,"726":0.6007034182548523,"727":0.49474433064460754,"728":-1.7469420433044434,"729":-0.4198478162288666,"730":3.948406219482422,"731":0.04896305128931999,"732":1.7661553621292114,"733":3.0944955348968506,"734":0.5479134917259216,"735":0.7833972573280334,"736":-0.32469385862350464,"737":3.207463026046753,"738":-2.596043825149536,"739":-0.710027277469635,"740":1.3381001949310303,"741":1.4203201532363892,"742":-0.5375206470489502,"743":0.5188181400299072,"744":1.453542709350586,"745":-0.7499134540557861,"746":-2.905241012573242,"747":-2.685593605041504,"748":-0.05704396963119507,"749":1.4921311140060425,"750":-1.7773778438568115,"751":0.013782472349703312,"752":0.5404745936393738,"753":0.9680995345115662,"754":5.030551433563232,"755":0.9874963760375977,"756":-1.6319397687911987,"757":-2.668855667114258,"758":-1.9853492975234985,"759":0.45429930090904236,"760":-0.5213585495948792,"761":-0.45725029706954956,"762":-4.287917613983154,"763":-1.009320616722107,"764":0.3531027138233185,"765":-0.326797217130661,"766":0.6345124244689941,"767":4.244919300079346,"768":-1.3193374872207642,"769":-0.6048383712768555,"770":2.5380311012268066,"771":-0.3450089395046234,"772":0.019724996760487556,"773":4.055815696716309,"774":-2.4233510494232178,"775":0.7535096406936646,"776":-6.402513027191162,"777":-1.8273351192474365,"778":1.4921075105667114,"779":-6.398292064666748,"780":0.7539879083633423,"781":-1.6236529350280762,"782":-1.025011658668518,"783":-3.1720972061157227,"784":0.6762380003929138,"785":3.384403705596924,"786":-2.9341981410980225,"787":0.3578236401081085,"788":2.72453236579895,"789":-0.9432753920555115,"790":-3.8757147789001465,"791":-2.8200089931488037,"792":0.4762323200702667,"793":1.5315841436386108,"794":2.0599567890167236,"795":0.8039066791534424,"796":2.4411659240722656,"797":-2.4510531425476074,"798":-3.082578182220459,"799":3.9384591579437256,"800":-2.5931179523468018,"801":-0.6130263805389404,"802":-1.1447821855545044,"803":1.3863706588745117,"804":-0.8301824331283569,"805":-1.0363688468933105,"806":2.469700574874878,"807":-2.5156517028808594,"808":0.7439806461334229,"809":-2.9257755279541016,"810":3.5267839431762695,"811":0.17538407444953918,"812":-1.3026448488235474,"813":0.1117248609662056,"814":-3.2268424034118652,"815":-2.3294503688812256,"816":1.7748112678527832,"817":4.027450084686279,"818":2.214580535888672,"819":1.526777982711792,"820":-1.0819112062454224,"821":-0.19191429018974304,"822":1.3196724653244019,"823":-0.23888930678367615,"824":1.4052386283874512,"825":3.505706548690796,"826":-3.4809858798980713,"827":-6.46619176864624,"828":-0.2062150090932846,"829":-0.6513173580169678,"830":0.5765214562416077,"831":1.888413429260254,"832":0.4294678568840027,"833":4.695566177368164,"834":-1.2457996606826782,"835":0.9124016761779785,"836":0.9580366611480713,"837":3.999990701675415,"838":0.24607792496681213,"839":-0.42028704285621643,"840":0.30562660098075867,"841":0.38728785514831543,"842":-0.6406696438789368,"843":-0.2623882293701172,"844":0.54563307762146,"845":5.657576084136963,"846":1.395127296447754,"847":-1.3988463878631592,"848":-2.1942832469940186,"849":-0.03170856088399887,"850":1.2354154586791992,"851":-2.4136438369750977,"852":1.6619335412979126,"853":-3.536214828491211,"854":-1.5095473527908325,"855":-0.4806150794029236,"856":-1.2897387742996216,"857":-0.6110771298408508,"858":3.8731441497802734,"859":-1.406706690788269,"860":-1.400350570678711,"861":-2.023425340652466,"862":3.635488510131836,"863":0.008562435396015644,"864":1.0483589172363281,"865":0.5877992510795593,"866":2.176358222961426,"867":0.4913368225097656,"868":-0.5347790718078613,"869":-1.8428868055343628,"870":2.7375802993774414,"871":0.5790650248527527,"872":1.2141448259353638,"873":-0.7283657789230347,"874":1.8632746934890747,"875":2.1418869495391846,"876":1.3555949926376343,"877":-1.6568260192871094,"878":0.8848649859428406,"879":1.4885048866271973,"880":-4.5229597091674805,"881":-0.4907495677471161,"882":-3.5615053176879883,"883":-2.1030449867248535,"884":-2.9927964210510254,"885":2.12927508354187,"886":-2.322819709777832,"887":-0.3994561433792114,"888":-0.7988425493240356,"889":-0.7579507231712341,"890":-3.813983678817749,"891":1.1717395782470703,"892":2.4989426136016846,"893":-0.29193049669265747,"894":-2.56779408454895,"895":-0.9955205321311951,"896":2.184468984603882,"897":-1.1947405338287354,"898":1.4362876415252686,"899":0.5803269147872925,"900":-1.654173493385315,"901":0.9681259989738464,"902":-0.5077014565467834,"903":-3.6601545810699463,"904":1.2064156532287598,"905":0.8911565542221069,"906":0.34896618127822876,"907":-0.31565168499946594,"908":-1.3720768690109253,"909":-1.675211787223816,"910":-0.516412615776062,"911":-1.5167065858840942,"912":0.27445554733276367,"913":-1.7387938499450684,"914":-3.2338333129882812,"915":1.926902413368225,"916":-3.7215423583984375,"917":-2.732919692993164,"918":0.5841445326805115,"919":0.4011548161506653,"920":-1.2193560600280762,"921":2.516631603240967,"922":0.237453430891037,"923":-3.554300546646118,"924":2.2285683155059814,"925":-0.1782863438129425,"926":1.7270822525024414,"927":0.9621992707252502,"928":-3.766174077987671,"929":-0.6011255979537964,"930":-0.000567969458643347,"931":1.205459475517273,"932":-0.4645455777645111,"933":-5.618884563446045,"934":-2.748969554901123,"935":-2.4171156883239746,"936":3.454820156097412,"937":-0.31538888812065125,"938":0.19482123851776123,"939":0.7270392179489136,"940":-2.8819377422332764,"941":2.117506265640259,"942":-1.4200444221496582,"943":2.037220001220703,"944":-0.6955344080924988,"945":-2.577080249786377,"946":-1.440001368522644,"947":2.3508503437042236,"948":2.6450412273406982,"949":-1.9504063129425049,"950":0.3247534930706024,"951":-0.0878739282488823,"952":1.0400357246398926,"953":-2.774764060974121,"954":-0.28136011958122253,"955":-0.9853643774986267,"956":-0.17121689021587372,"957":2.0181241035461426,"958":-1.585922360420227,"959":-0.934581995010376,"960":4.854726314544678,"961":-5.642362117767334,"962":-3.03829026222229,"963":-1.671384572982788,"964":-2.033051013946533,"965":0.41237786412239075,"966":-0.68161541223526,"967":-2.780118227005005,"968":-1.1341278553009033,"969":0.5056942105293274,"970":-2.436917781829834,"971":2.5305864810943604,"972":3.2133629322052,"973":-1.8685290813446045,"974":-4.335259437561035,"975":4.938221454620361,"976":0.9269946217536926,"977":-2.6239278316497803,"978":-2.1283206939697266,"979":2.4472761154174805,"980":2.3117165565490723,"981":0.06179105117917061,"982":-0.4423925280570984,"983":-0.05140560120344162,"984":1.3784621953964233,"985":0.7092205286026001,"986":-2.318093776702881,"987":-3.016648292541504,"988":-1.2780883312225342,"989":1.2866413593292236,"990":0.2409074753522873,"991":3.850440740585327,"992":-1.260939359664917,"993":-3.0731558799743652,"994":-1.1777305603027344,"995":3.1719810962677,"996":0.7096713185310364,"997":3.8271610736846924,"998":-5.095759868621826,"999":-4.0030198097229,"1000":-1.776112675666809,"1001":0.08238082379102707,"1002":-1.5750426054000854,"1003":-3.4908459186553955,"1004":-1.9648171663284302,"1005":-0.5978848934173584,"1006":2.5620434284210205,"1007":-2.3444695472717285,"1008":-1.1094118356704712,"1009":-0.7422120571136475,"1010":1.5203155279159546,"1011":0.00285376887768507,"1012":0.3272140324115753,"1013":3.589146614074707,"1014":0.36064401268959045,"1015":0.767583429813385,"1016":6.112163543701172,"1017":0.270321786403656,"1018":-4.384566783905029,"1019":-3.047922372817993,"1020":0.8308637738227844,"1021":-5.50532865524292,"1022":2.0277867317199707,"1023":2.418161630630493,"1024":-1.7632133960723877,"1025":-5.885550498962402,"1026":-3.6157820224761963,"1027":-2.933084487915039,"1028":5.668395042419434,"1029":4.4433183670043945,"1030":-9.324557304382324,"1031":3.9697372913360596,"1032":-3.268533945083618,"1033":-4.299465656280518,"1034":0.7270821332931519,"1035":-3.1927106380462646,"1036":-1.6201987266540527,"1037":-4.002615928649902,"1038":6.514876365661621,"1039":1.6555618047714233,"1040":5.318716049194336,"1041":-0.6424002647399902,"1042":-2.823291063308716,"1043":0.2526070475578308,"1044":-0.626807451248169,"1045":-7.551074981689453,"1046":-5.895817279815674,"1047":-11.71950912475586,"1048":-2.729867696762085,"1049":-5.631518363952637,"1050":-4.1792192459106445,"1051":-4.374189853668213,"1052":3.899507761001587,"1053":5.811712265014648,"1054":0.1433546096086502,"1055":-5.493137359619141,"1056":5.4328694343566895,"1057":1.6346991062164307,"1058":-5.083956241607666,"1059":-8.027525901794434,"1060":-2.8406081199645996,"1061":2.2450485229492188,"1062":1.1225956678390503,"1063":-2.69087553024292,"1064":3.5411295890808105,"1065":3.248502254486084,"1066":0.2521283030509949,"1067":1.9863386154174805,"1068":-0.12171205133199692,"1069":4.713492393493652,"1070":3.5674288272857666,"1071":-0.4083267152309418,"1072":-0.8231803178787231,"1073":-1.6872344017028809,"1074":3.2049052715301514,"1075":6.609081268310547,"1076":2.701810121536255,"1077":2.3521392345428467,"1078":3.6671998500823975,"1079":1.3442879915237427,"1080":-4.778600215911865,"1081":1.2246317863464355,"1082":0.1228126659989357,"1083":0.0031650131568312645,"1084":-1.1352787017822266,"1085":1.5968652963638306,"1086":-3.4236361980438232,"1087":-2.31327748298645,"1088":-0.4911789894104004,"1089":1.4751559495925903,"1090":-4.701407432556152,"1091":-2.158404588699341,"1092":-3.7536399364471436,"1093":-1.8764797449111938,"1094":-3.1241049766540527,"1095":1.4755460023880005,"1096":1.848515510559082,"1097":-0.31610068678855896,"1098":1.293263554573059,"1099":1.9984327554702759,"1100":-2.17339825630188,"1101":-1.298689603805542,"1102":1.521899938583374,"1103":3.474674701690674,"1104":1.6038254499435425,"1105":-0.4706970751285553,"1106":5.5249433517456055,"1107":-1.1678146123886108,"1108":-0.6259076595306396,"1109":-1.0820475816726685,"1110":-2.958890676498413,"1111":-0.4058738350868225,"1112":-2.388991117477417,"1113":-3.584214925765991,"1114":1.8370953798294067,"1115":0.0917704701423645,"1116":2.37050724029541,"1117":-2.442079782485962,"1118":-1.2431790828704834,"1119":0.8540581464767456,"1120":-4.074642181396484,"1121":-2.6092007160186768,"1122":-1.1452745199203491,"1123":3.917215585708618,"1124":-1.4131577014923096,"1125":4.528285980224609,"1126":2.209178924560547,"1127":-0.9642142057418823,"1128":2.295532464981079,"1129":3.868704319000244,"1130":-2.020521402359009,"1131":-4.042087554931641,"1132":3.7113473415374756,"1133":-1.4038782119750977,"1134":2.0139636993408203,"1135":4.637434005737305,"1136":3.2567226886749268,"1137":-6.524365425109863,"1138":-1.5322518348693848,"1139":-6.426748752593994,"1140":7.4507060050964355,"1141":-3.9167075157165527,"1142":0.8231801986694336,"1143":-0.027074463665485382,"1144":-5.362203121185303,"1145":-1.239917278289795,"1146":2.35657000541687,"1147":2.62296462059021,"1148":-2.6738107204437256,"1149":-1.2003873586654663,"1150":-3.5586349964141846,"1151":-1.735233187675476,"1152":-1.2250432968139648,"1153":0.5656906962394714,"1154":3.0598068237304688,"1155":2.764500617980957,"1156":-4.571374416351318,"1157":-2.5048980712890625,"1158":-5.904463768005371,"1159":5.807537078857422,"1160":2.007293462753296,"1161":-3.855832815170288,"1162":4.733438014984131,"1163":1.3206757307052612,"1164":2.13448166847229,"1165":1.3772363662719727,"1166":6.671687602996826,"1167":1.2380157709121704,"1168":0.0826314389705658,"1169":1.470231294631958,"1170":-2.181272268295288,"1171":-2.3308908939361572,"1172":1.8782342672348022,"1173":-0.9600792527198792,"1174":-2.1016268730163574,"1175":-1.8019697666168213,"1176":2.5453484058380127,"1177":-0.9316290616989136,"1178":-0.9421710968017578,"1179":-0.7733030915260315,"1180":-2.5518665313720703,"1181":3.3271219730377197,"1182":1.4142550230026245,"1183":-2.8001997470855713,"1184":1.1620523929595947,"1185":-3.9310038089752197,"1186":-4.345565319061279,"1187":0.4092828929424286,"1188":1.7205315828323364,"1189":-1.5045149326324463,"1190":-2.0565123558044434,"1191":-3.650987386703491,"1192":0.6041109561920166,"1193":1.8156559467315674,"1194":0.663697361946106,"1195":3.14707350730896,"1196":0.45668894052505493,"1197":0.052842866629362106,"1198":-3.9566588401794434,"1199":5.34456729888916,"1200":-4.906942367553711,"1201":-3.3890533447265625,"1202":-0.35231921076774597,"1203":-1.156388282775879,"1204":0.3082849085330963,"1205":-4.853671073913574,"1206":-0.7660666108131409,"1207":0.024108698591589928,"1208":-1.6450961828231812,"1209":3.00492000579834,"1210":0.4465148150920868,"1211":-0.2476659119129181,"1212":4.4486494064331055,"1213":-3.582367181777954,"1214":0.06893859803676605,"1215":1.8092455863952637,"1216":-0.574298620223999,"1217":-1.0704612731933594,"1218":-0.5217071175575256,"1219":0.4840296804904938,"1220":-2.220397472381592,"1221":1.6803581714630127,"1222":-1.1956771612167358,"1223":1.1989175081253052,"1224":0.011843826621770859,"1225":1.7842276096343994,"1226":1.217087745666504,"1227":-0.43690845370292664,"1228":-1.9253871440887451,"1229":-2.2692558765411377,"1230":2.2175004482269287,"1231":-5.3480401039123535,"1232":-0.8729870319366455,"1233":3.5347135066986084,"1234":1.1940301656723022,"1235":-2.8216025829315186,"1236":-1.1584025621414185,"1237":2.0011134147644043,"1238":-2.7022266387939453,"1239":3.3648016452789307,"1240":0.6418054699897766,"1241":4.050891876220703,"1242":-4.77754020690918,"1243":2.8453996181488037,"1244":-0.43450623750686646,"1245":6.837556838989258,"1246":0.47792214155197144,"1247":6.930225849151611,"1248":-2.5198147296905518,"1249":-5.849392414093018,"1250":-0.8524678349494934,"1251":-0.9399391412734985,"1252":-2.406043529510498,"1253":-0.3479391038417816,"1254":-1.1874698400497437,"1255":-3.020235776901245,"1256":-3.8913042545318604,"1257":1.4344967603683472,"1258":3.934443235397339,"1259":0.24967704713344574,"1260":2.1045916080474854,"1261":-0.09119387716054916,"1262":-1.9198557138442993,"1263":2.5423238277435303,"1264":1.7232720851898193,"1265":-0.5241057872772217,"1266":2.483273506164551,"1267":-1.4215587377548218,"1268":1.1818079948425293,"1269":-4.038150310516357,"1270":9.529374122619629,"1271":0.7920962572097778,"1272":-1.7823216915130615,"1273":2.146186590194702,"1274":3.585623025894165,"1275":6.649497032165527,"1276":-1.75615656375885,"1277":-0.47036629915237427,"1278":-0.2944148778915405,"1279":-2.918421506881714,"1280":5.9669880867004395,"1281":-2.7499358654022217,"1282":1.516257405281067,"1283":-0.40852510929107666,"1284":-0.7244442701339722,"1285":1.9330860376358032,"1286":1.9173097610473633,"1287":-0.019060546532273293,"1288":0.3877822458744049,"1289":3.2587802410125732,"1290":0.2651020884513855,"1291":-1.5464653968811035,"1292":-1.855932354927063,"1293":-1.2764710187911987,"1294":0.17498762905597687,"1295":3.8140082359313965,"1296":-3.0959432125091553,"1297":4.209466457366943,"1298":-0.9664867520332336,"1299":-0.8655568957328796,"1300":-0.7982688546180725,"1301":2.0554542541503906,"1302":-0.9052832722663879,"1303":0.4167385995388031,"1304":-2.1480307579040527,"1305":-5.632831573486328,"1306":2.7415616512298584,"1307":5.020449161529541,"1308":0.8730594515800476,"1309":-2.864219903945923,"1310":0.4647962152957916,"1311":1.9356578588485718,"1312":1.4803662300109863,"1313":1.3598021268844604,"1314":-0.2985600531101227,"1315":-0.5400633811950684,"1316":-1.016385555267334,"1317":-2.6368446350097656,"1318":-1.7527285814285278,"1319":-0.2735307812690735,"1320":2.0718777179718018,"1321":-1.7847920656204224,"1322":-3.009221315383911,"1323":2.5302796363830566,"1324":3.0500340461730957,"1325":3.779634475708008,"1326":5.1734619140625,"1327":-4.416782855987549,"1328":7.102683067321777,"1329":1.3885639905929565,"1330":-1.7733083963394165,"1331":1.1916255950927734,"1332":1.8533976078033447,"1333":-0.6679282188415527,"1334":0.6403647661209106,"1335":-2.832698106765747,"1336":-0.015537741594016552,"1337":-2.216475486755371,"1338":-4.162161827087402,"1339":1.8757522106170654,"1340":-1.9277377128601074,"1341":-5.481535911560059,"1342":-0.26452285051345825,"1343":-3.1230998039245605,"1344":-5.3946638107299805,"1345":4.60891056060791,"1346":-0.4301188290119171,"1347":3.0664899349212646,"1348":4.275380611419678,"1349":3.159268856048584,"1350":-4.3956122398376465,"1351":6.058173179626465,"1352":2.633913516998291,"1353":1.6586878299713135,"1354":-0.634239912033081,"1355":1.5201795101165771,"1356":0.6747578382492065,"1357":-1.633652925491333,"1358":1.3740260601043701,"1359":-5.432943820953369,"1360":-2.30584716796875,"1361":-0.980923056602478,"1362":3.7194766998291016,"1363":6.015774726867676,"1364":-1.2639633417129517,"1365":6.976871490478516,"1366":2.747028112411499,"1367":-4.479968547821045,"1368":-3.3859171867370605,"1369":-4.321109771728516,"1370":4.395671367645264,"1371":0.37408366799354553,"1372":4.346587181091309,"1373":-1.399910807609558,"1374":-1.3251115083694458,"1375":-4.004101753234863,"1376":0.35608533024787903,"1377":-0.0707489475607872,"1378":0.6407098770141602,"1379":-2.5222666263580322,"1380":3.9109158515930176,"1381":3.217521905899048,"1382":2.03094482421875,"1383":1.7077093124389648,"1384":0.99394291639328,"1385":3.3283863067626953,"1386":-0.8415614366531372,"1387":-3.3133866786956787,"1388":-4.221219062805176,"1389":-4.010308742523193,"1390":-2.6763176918029785,"1391":3.582916498184204,"1392":-1.2542972564697266,"1393":-6.125842094421387,"1394":-1.2393721342086792,"1395":3.2180187702178955,"1396":-4.2590813636779785,"1397":1.1505213975906372,"1398":-2.352295160293579,"1399":-1.6703239679336548,"1400":-3.693878412246704,"1401":-0.9828376770019531,"1402":-1.0456807613372803,"1403":-0.3069150149822235,"1404":1.0077100992202759,"1405":-6.139702320098877,"1406":1.9107593297958374,"1407":-1.4043720960617065,"1408":3.1217620372772217,"1409":0.9473035931587219,"1410":1.3432551622390747,"1411":3.6880943775177,"1412":1.695243000984192,"1413":-1.3545206785202026,"1414":-6.301052093505859,"1415":-0.5198818445205688,"1416":-1.5434887409210205,"1417":-5.117045879364014,"1418":-1.8043632507324219,"1419":-1.8289289474487305,"1420":-0.6033478379249573,"1421":0.5612840056419373,"1422":1.975850224494934,"1423":-2.997279405593872,"1424":-0.16914501786231995,"1425":4.994767665863037,"1426":-3.4227685928344727,"1427":-4.400151252746582,"1428":-2.5907094478607178,"1429":-3.594531536102295,"1430":3.1832950115203857,"1431":-5.154509544372559,"1432":2.4110872745513916,"1433":2.1084940433502197,"1434":-1.2856416702270508,"1435":-1.7394639253616333,"1436":-6.356819152832031,"1437":-0.7392410635948181,"1438":0.12388375401496887,"1439":-0.8278680443763733,"1440":0.3672587275505066,"1441":5.668629169464111,"1442":-0.8780620098114014,"1443":1.7633877992630005,"1444":2.7490649223327637,"1445":5.215765476226807,"1446":0.8550103902816772,"1447":6.418538570404053,"1448":-2.99945330619812,"1449":-3.5166728496551514,"1450":1.911638617515564,"1451":2.5255637168884277,"1452":1.7770081758499146,"1453":-1.847321629524231,"1454":-0.06332346051931381,"1455":3.852031946182251,"1456":-2.012392997741699,"1457":-3.4546611309051514,"1458":-4.56840705871582,"1459":5.809728622436523,"1460":-0.6619256734848022,"1461":-1.761391282081604,"1462":-3.618514060974121,"1463":5.425126552581787,"1464":0.3735148310661316,"1465":4.961897373199463,"1466":2.7106547355651855,"1467":2.4596385955810547,"1468":6.328188419342041,"1469":-2.935238838195801,"1470":-3.3530795574188232,"1471":-1.8728476762771606,"1472":-1.7557976245880127,"1473":-0.07277476787567139,"1474":1.8947632312774658,"1475":-3.01037335395813,"1476":-2.7455830574035645,"1477":-1.4326967000961304,"1478":2.2385072708129883,"1479":17.65380859375,"1480":-3.9001669883728027,"1481":-4.308436393737793,"1482":-5.149605751037598,"1483":-0.8747591376304626,"1484":7.006239891052246,"1485":-0.4849174916744232,"1486":13.260744094848633,"1487":1.378908395767212,"1488":-7.708987236022949,"1489":6.675469875335693,"1490":-0.0036638143938034773,"1491":-1.9040628671646118,"1492":2.2866663932800293,"1493":5.103327751159668,"1494":-0.7783401012420654,"1495":-3.751634120941162,"1496":-3.3853538036346436,"1497":8.41234302520752,"1498":-3.9758574962615967,"1499":3.3877246379852295,"1500":-12.912530899047852,"1501":2.181558132171631,"1502":-0.7305183410644531,"1503":2.51342511177063,"1504":3.2406938076019287,"1505":4.202245235443115,"1506":5.028838634490967,"1507":-3.967878818511963,"1508":10.691398620605469,"1509":3.6901965141296387,"1510":10.798096656799316,"1511":8.132036209106445,"1512":11.059792518615723,"1513":2.3695194721221924,"1514":-4.252408504486084,"1515":2.453626871109009,"1516":1.9087047576904297,"1517":-1.2942917346954346,"1518":-15.840051651000977,"1519":5.395053386688232,"1520":-4.604111194610596,"1521":7.104618072509766,"1522":3.9406039714813232,"1523":8.827691078186035,"1524":-2.4509732723236084,"1525":-7.7546706199646,"1526":3.696669101715088,"1527":3.768091917037964,"1528":6.015413284301758,"1529":-1.3779351711273193,"1530":4.843790054321289,"1531":-7.4220805168151855,"1532":7.253817558288574,"1533":-0.7274091243743896,"1534":4.5085930824279785,"1535":4.597568988800049,"1536":-3.0154941082000732,"1537":1.7495241165161133,"1538":-10.832895278930664,"1539":0.3735415041446686,"1540":7.0261030197143555,"1541":10.63065242767334,"1542":7.7026848793029785,"1543":10.88735294342041,"1544":-7.926200866699219,"1545":3.582130193710327,"1546":5.857062339782715,"1547":-3.955803155899048,"1548":-3.336862325668335,"1549":2.984692335128784,"1550":-4.8427348136901855,"1551":-0.8265000581741333,"1552":2.068941116333008,"1553":3.5630970001220703,"1554":-3.753272294998169,"1555":3.552802562713623,"1556":-0.022349100559949875,"1557":8.342428207397461,"1558":1.3212333917617798,"1559":-3.3990466594696045,"1560":4.922200679779053,"1561":-3.140817642211914,"1562":-0.8013208508491516,"1563":-1.6943317651748657,"1564":-5.457441806793213,"1565":-2.968471050262451,"1566":1.615538239479065,"1567":2.501594066619873,"1568":4.339930534362793,"1569":2.4532270431518555,"1570":9.361642837524414,"1571":8.86119270324707,"1572":-6.590909957885742,"1573":-0.27105551958084106,"1574":4.291707992553711,"1575":-1.3954774141311646,"1576":4.934972763061523,"1577":4.090313911437988,"1578":-5.327279090881348,"1579":1.407405972480774,"1580":0.6020757555961609,"1581":0.6451258659362793,"1582":1.1704341173171997,"1583":-0.6335519552230835,"1584":-1.2515318393707275,"1585":-1.500921607017517,"1586":-0.5368149876594543,"1587":-5.787197589874268,"1588":-9.086435317993164,"1589":-1.2237666845321655,"1590":0.2925735116004944,"1591":4.010673999786377,"1592":1.917925477027893,"1593":7.0254716873168945,"1594":5.606629371643066,"1595":-4.8974385261535645,"1596":-1.0450342893600464,"1597":1.5870658159255981,"1598":5.065561771392822,"1599":2.00307297706604,"1600":8.384763717651367,"1601":-1.307098388671875,"1602":0.17842982709407806,"1603":0.08390076458454132,"1604":7.351285457611084,"1605":1.3857859373092651,"1606":-0.03927607089281082,"1607":1.9848268032073975,"1608":12.535337448120117,"1609":5.498809337615967,"1610":0.4646746814250946,"1611":0.6232134699821472,"1612":-1.4077599048614502,"1613":-2.224161386489868,"1614":-6.58517599105835,"1615":-6.4145989418029785,"1616":-0.24839958548545837,"1617":1.5371179580688477,"1618":0.6826773285865784,"1619":3.119495391845703,"1620":2.144608497619629,"1621":2.5561296939849854,"1622":2.56972599029541,"1623":2.8122029304504395,"1624":-5.146562099456787,"1625":0.9978273510932922,"1626":-2.847440004348755,"1627":3.0405638217926025,"1628":-1.2258751392364502,"1629":-1.3776302337646484,"1630":-6.385593891143799,"1631":0.33055758476257324,"1632":1.7853775024414062,"1633":1.9121294021606445,"1634":-4.372474670410156,"1635":1.1189407110214233,"1636":1.6379777193069458,"1637":4.746462821960449,"1638":1.3009085655212402,"1639":4.056067943572998,"1640":-2.152400493621826,"1641":-2.838376045227051,"1642":0.10205180943012238,"1643":-2.035230875015259,"1644":-0.5828234553337097,"1645":-0.06974443793296814,"1646":1.344063639640808,"1647":-2.8921663761138916,"1648":-2.413408041000366,"1649":-3.0221147537231445,"1650":2.591146230697632,"1651":-2.9378137588500977,"1652":-0.022917209193110466,"1653":-5.424966335296631,"1654":-3.1453731060028076,"1655":-3.55611515045166,"1656":0.7253422737121582,"1657":-0.5917187333106995,"1658":3.5290474891662598,"1659":0.14342300593852997,"1660":0.7357658743858337,"1661":0.08788523077964783,"1662":-0.8366933465003967,"1663":1.8122700452804565,"1664":2.864365577697754,"1665":1.288134217262268,"1666":-0.447733074426651,"1667":2.8144781589508057,"1668":1.026204228401184,"1669":-2.226090431213379,"1670":2.116659164428711,"1671":-0.3662983477115631,"1672":0.7585804462432861,"1673":-2.6519362926483154,"1674":-1.7635458707809448,"1675":0.2412039339542389,"1676":1.3198519945144653,"1677":3.6749954223632812,"1678":-3.751519203186035,"1679":-1.3865857124328613,"1680":2.27972149848938,"1681":0.3102419674396515,"1682":1.0529638528823853,"1683":3.045219898223877,"1684":1.09630286693573,"1685":1.8763020038604736,"1686":-5.745482921600342,"1687":-13.721280097961426,"1688":-5.281280994415283,"1689":-0.8616880178451538,"1690":-2.618152618408203,"1691":-0.4378184378147125,"1692":7.844764709472656,"1693":-5.069178581237793,"1694":4.923677921295166,"1695":7.0551533699035645,"1696":-1.9860012531280518,"1697":3.493628978729248,"1698":8.117743492126465,"1699":0.7828513383865356,"1700":6.694109916687012,"1701":-4.058951377868652,"1702":2.570295572280884,"1703":7.362391471862793,"1704":10.447914123535156,"1705":10.548083305358887,"1706":0.8634310364723206,"1707":-0.947239339351654,"1708":-7.3708977699279785,"1709":17.078840255737305,"1710":-4.129769325256348,"1711":-5.815759658813477,"1712":-4.0805864334106445,"1713":4.239175796508789,"1714":-0.19187912344932556,"1715":1.2223238945007324,"1716":-4.7028913497924805,"1717":-2.092278480529785,"1718":-14.201095581054688,"1719":3.80125093460083,"1720":-3.198059558868408,"1721":-6.3265485763549805,"1722":18.56500816345215,"1723":0.8964223861694336,"1724":2.4692656993865967,"1725":6.963517189025879,"1726":-1.6553213596343994,"1727":-2.2717883586883545,"1728":-4.63450288772583,"1729":4.7608513832092285,"1730":3.652515411376953,"1731":-1.861635446548462,"1732":11.256051063537598,"1733":-8.338042259216309,"1734":1.990003228187561,"1735":0.916093647480011,"1736":-5.556089878082275,"1737":1.1539603471755981,"1738":-5.904655456542969,"1739":3.395256996154785,"1740":3.460782289505005,"1741":3.629781484603882,"1742":-3.3874270915985107,"1743":-8.018305778503418,"1744":5.187970161437988,"1745":6.399771690368652,"1746":-1.0217453241348267,"1747":3.889352560043335,"1748":-2.589285135269165,"1749":-4.772761821746826,"1750":5.622934818267822,"1751":0.7623631358146667,"1752":6.9301958084106445,"1753":-0.5721210837364197,"1754":-4.545926570892334,"1755":-6.563088417053223,"1756":-2.3815784454345703,"1757":-2.5572497844696045,"1758":-0.5657780170440674,"1759":1.3235375881195068,"1760":3.484349012374878,"1761":-4.26632022857666,"1762":9.80566692352295,"1763":-2.942084312438965,"1764":-1.884184718132019,"1765":4.4939398765563965,"1766":5.596546649932861,"1767":1.525033712387085,"1768":-1.6783549785614014,"1769":0.4289643168449402,"1770":-3.5392239093780518,"1771":4.961124897003174,"1772":6.663929462432861,"1773":-1.7970731258392334,"1774":6.011045455932617,"1775":-2.0700340270996094,"1776":-5.43234395980835,"1777":0.3440248668193817,"1778":2.5264976024627686,"1779":6.639415740966797,"1780":-8.997858047485352,"1781":-2.342999219894409,"1782":-4.012331962585449,"1783":-0.6057268977165222,"1784":-5.8532586097717285,"1785":7.597198009490967,"1786":8.915729522705078,"1787":-0.0534280426800251,"1788":3.6544525623321533,"1789":3.19610595703125,"1790":6.328765392303467,"1791":-2.368962526321411,"1792":4.163155555725098,"1793":14.37124252319336,"1794":5.8001790046691895,"1795":-12.601228713989258,"1796":-14.853126525878906,"1797":-8.57456111907959,"1798":-11.047572135925293,"1799":1.627957820892334,"1800":-7.606882572174072,"1801":-3.1763851642608643,"1802":-0.9254858493804932,"1803":-0.07549974322319031,"1804":1.3400064706802368,"1805":7.155635356903076,"1806":-7.791711807250977,"1807":-1.2651315927505493,"1808":-8.092597961425781,"1809":10.442320823669434,"1810":-3.5917084217071533,"1811":-0.6686304807662964,"1812":-4.06007194519043,"1813":-0.6141884326934814,"1814":1.5700145959854126,"1815":-5.0800557136535645,"1816":0.30810546875,"1817":12.576784133911133,"1818":1.464095950126648,"1819":0.7273150682449341,"1820":-7.175401210784912,"1821":1.6724672317504883,"1822":-1.1567860841751099,"1823":-0.7573116421699524,"1824":-2.6120784282684326,"1825":-8.527460098266602,"1826":0.1767800897359848,"1827":-0.6147071719169617,"1828":-12.522977828979492,"1829":-6.918670177459717,"1830":1.6237685680389404,"1831":1.8622902631759644,"1832":-4.959376811981201,"1833":12.85022258758545,"1834":10.558754920959473,"1835":12.765179634094238,"1836":6.6199750900268555,"1837":-2.141972064971924,"1838":-5.591009616851807,"1839":5.10419225692749,"1840":1.9656481742858887,"1841":1.5915474891662598,"1842":1.792313814163208,"1843":-4.989665508270264,"1844":-2.058027744293213,"1845":-2.700575113296509,"1846":3.744546890258789,"1847":5.707136154174805,"1848":6.828212738037109,"1849":5.138519287109375,"1850":-1.4181591272354126,"1851":6.234071731567383,"1852":-4.738833904266357,"1853":-8.154278755187988,"1854":5.016103744506836,"1855":8.871906280517578,"1856":-9.588181495666504,"1857":-4.326018810272217,"1858":-11.824795722961426,"1859":4.618459701538086,"1860":-6.5832037925720215,"1861":5.849385738372803,"1862":1.3035755157470703,"1863":3.3093717098236084,"1864":6.309876918792725,"1865":1.0302863121032715,"1866":-7.732986927032471,"1867":4.412013530731201,"1868":8.611629486083984,"1869":2.1032464504241943,"1870":-5.946117401123047,"1871":8.841776847839355,"1872":-1.047229528427124,"1873":-4.351596355438232,"1874":9.678746223449707,"1875":-11.839632987976074,"1876":7.883033752441406,"1877":-6.314223289489746,"1878":-4.047652721405029,"1879":-1.360081434249878,"1880":-2.712792158126831,"1881":4.805695533752441,"1882":1.1719363927841187,"1883":-1.9166719913482666,"1884":-1.1355687379837036,"1885":-7.4399638175964355,"1886":-1.487761378288269,"1887":-2.850888252258301,"1888":-0.23435962200164795,"1889":2.555633783340454,"1890":-0.2828589975833893,"1891":9.007827758789062,"1892":10.369962692260742,"1893":-11.623017311096191,"1894":3.0433757305145264,"1895":-7.230930328369141,"1896":2.954942226409912,"1897":0.7343818545341492,"1898":2.9399704933166504,"1899":4.274057865142822,"1900":-1.075638771057129,"1901":4.402712821960449,"1902":-1.8558993339538574,"1903":-0.323417603969574,"1904":0.6601671576499939,"1905":2.86203670501709,"1906":0.7603254318237305,"1907":-8.427401542663574,"1908":-2.236365795135498,"1909":-6.100670337677002,"1910":-3.1458580493927,"1911":-2.654085636138916,"1912":7.208678245544434,"1913":-9.560371398925781,"1914":-0.7628939151763916,"1915":3.50667667388916,"1916":-3.44258713722229,"1917":-6.594000816345215,"1918":-0.05930934473872185,"1919":7.707892894744873,"1920":-1.8356552124023438,"1921":4.290552616119385,"1922":15.631877899169922,"1923":-7.244161605834961,"1924":4.471131801605225,"1925":-2.6191482543945312,"1926":2.45548939704895,"1927":6.166794776916504,"1928":-11.301619529724121,"1929":-8.570672035217285,"1930":4.775741100311279,"1931":2.5024631023406982,"1932":-5.105737686157227,"1933":-1.7121375799179077,"1934":0.6755931973457336,"1935":-8.242082595825195,"1936":0.6856193542480469,"1937":6.996268272399902,"1938":-2.2306535243988037,"1939":-6.788417816162109,"1940":-0.33112016320228577,"1941":-1.7362275123596191,"1942":0.36776477098464966,"1943":-3.68620228767395,"1944":-8.922554969787598,"1945":0.8344569206237793,"1946":0.6437804698944092,"1947":-1.5625975131988525,"1948":10.485454559326172,"1949":9.513591766357422,"1950":8.162013053894043,"1951":3.667588949203491,"1952":-1.5322883129119873,"1953":0.5752907991409302,"1954":6.557222366333008,"1955":-8.410393714904785,"1956":3.394711971282959,"1957":2.831831693649292,"1958":-0.5593647360801697,"1959":-0.0045126634649932384,"1960":-12.642218589782715,"1961":-4.867992401123047,"1962":-2.3356773853302,"1963":8.511630058288574,"1964":-9.64257526397705,"1965":-3.7984492778778076,"1966":8.297164916992188,"1967":7.165638446807861,"1968":-5.774384498596191,"1969":5.598973274230957,"1970":14.337499618530273,"1971":6.133281707763672,"1972":0.4375661611557007,"1973":1.391829013824463,"1974":-7.736939907073975,"1975":9.051173210144043,"1976":8.116568565368652,"1977":-15.387371063232422,"1978":4.1498942375183105,"1979":0.7528724670410156,"1980":-1.201845645904541,"1981":5.376132488250732,"1982":8.724123001098633,"1983":8.541513442993164,"1984":0.26127004623413086,"1985":-6.954404830932617,"1986":-9.819039344787598,"1987":-3.8011162281036377,"1988":1.2494697570800781,"1989":1.7579435110092163,"1990":1.4793776273727417,"1991":-3.130823850631714,"1992":4.693021297454834,"1993":6.567120552062988,"1994":0.2521442472934723,"1995":-1.1316759586334229,"1996":-0.9700407385826111,"1997":2.0502617359161377,"1998":-1.5928268432617188,"1999":3.2484259605407715,"2000":-2.2985291481018066,"2001":3.7743139266967773,"2002":5.149662494659424,"2003":0.2361629158258438,"2004":-0.16962768137454987,"2005":0.811311662197113,"2006":-0.8224356770515442,"2007":4.281800746917725,"2008":2.5188863277435303,"2009":-4.681643962860107,"2010":0.8037126064300537,"2011":-4.923373222351074,"2012":1.5712982416152954,"2013":0.06226630136370659,"2014":1.9857456684112549,"2015":-7.927148818969727,"2016":3.03637433052063,"2017":0.32497555017471313,"2018":5.719540596008301,"2019":-1.9136708974838257,"2020":-1.7910469770431519,"2021":2.1355819702148438,"2022":1.4170371294021606,"2023":0.38339629769325256,"2024":1.2311747074127197,"2025":-6.939745903015137,"2026":1.0890343189239502,"2027":4.2908854484558105,"2028":-1.6228538751602173,"2029":7.371164798736572,"2030":-3.5913236141204834,"2031":-1.2078607082366943,"2032":-2.9389028549194336,"2033":-0.5191261172294617,"2034":4.526557445526123,"2035":-2.437161684036255,"2036":-6.332833290100098,"2037":-6.761329650878906,"2038":-2.602088689804077,"2039":3.1162192821502686,"2040":-8.527392387390137,"2041":-4.434187412261963,"2042":-2.5405032634735107,"2043":2.2344536781311035,"2044":5.989710330963135,"2045":7.513313293457031,"2046":-14.107758522033691,"2047":-3.381681203842163,"2048":4.324688911437988,"2049":-6.643020153045654,"2050":8.656691551208496,"2051":6.354928016662598,"2052":6.656829833984375,"2053":-1.8379558324813843,"2054":3.520202875137329,"2055":-5.298275947570801,"2056":-5.366119861602783,"2057":-10.216852188110352,"2058":1.0861825942993164,"2059":-6.971268653869629,"2060":6.776248455047607,"2061":1.9816322326660156,"2062":-2.557746410369873,"2063":-1.0894100666046143,"2064":4.452184677124023,"2065":-2.7061238288879395,"2066":3.550795555114746,"2067":3.158000946044922,"2068":1.8136183023452759,"2069":-7.126201152801514,"2070":-1.0793826580047607,"2071":9.134812355041504,"2072":-7.141427040100098,"2073":3.2636470794677734,"2074":-1.6976103782653809,"2075":-2.491779327392578,"2076":-7.672739505767822,"2077":4.162243366241455,"2078":14.39305591583252,"2079":-2.181675910949707,"2080":-1.8993865251541138,"2081":4.683988571166992,"2082":2.365236759185791,"2083":15.260985374450684,"2084":3.6082515716552734,"2085":0.6168668866157532,"2086":-7.293642044067383,"2087":-4.940319061279297,"2088":1.9286574125289917,"2089":2.1965577602386475,"2090":6.9430108070373535,"2091":-4.69715690612793,"2092":11.63048267364502,"2093":-0.8170033693313599,"2094":2.3191821575164795,"2095":2.9335758686065674,"2096":-2.4902570247650146,"2097":1.5266386270523071,"2098":-3.6024298667907715,"2099":6.963504314422607,"2100":-4.309627056121826,"2101":-0.11371497809886932,"2102":-5.108429908752441,"2103":-2.102849006652832,"2104":0.6827549338340759,"2105":-1.35775887966156,"2106":-2.2157604694366455,"2107":-5.920347213745117,"2108":-2.1272711753845215,"2109":3.0055320262908936,"2110":-1.5861910581588745,"2111":1.2300825119018555,"2112":4.441628932952881,"2113":-6.0998945236206055,"2114":-4.941803455352783,"2115":3.8852081298828125,"2116":-1.7791976928710938,"2117":-2.8093934059143066,"2118":-1.5798518657684326,"2119":-7.08729887008667,"2120":3.331505537033081,"2121":3.1955859661102295,"2122":-4.412154197692871,"2123":-5.550469875335693,"2124":-3.798130989074707,"2125":4.714125633239746,"2126":-1.189338207244873,"2127":2.2101049423217773,"2128":-10.31236743927002,"2129":5.707544803619385,"2130":-3.398043632507324,"2131":1.20199716091156,"2132":4.734533309936523,"2133":2.8485100269317627,"2134":6.468352317810059,"2135":-3.6485702991485596,"2136":-4.6070451736450195,"2137":-1.2966992855072021,"2138":2.8270070552825928,"2139":-0.653232991695404,"2140":-4.897628307342529,"2141":-0.8017533421516418,"2142":2.6072754859924316,"2143":9.074625015258789,"2144":2.9783120155334473,"2145":-7.257503032684326,"2146":-11.201919555664062,"2147":0.5106858611106873,"2148":-1.389978289604187,"2149":17.61083221435547,"2150":-11.075800895690918,"2151":-0.3025270402431488,"2152":-3.6815059185028076,"2153":-9.896353721618652,"2154":3.06600284576416,"2155":-4.489468574523926,"2156":-14.960494041442871,"2157":7.272862434387207,"2158":-5.727684020996094,"2159":8.24326229095459,"2160":-3.86426043510437,"2161":-3.1848044395446777,"2162":5.197923183441162,"2163":4.0299177169799805,"2164":10.474074363708496,"2165":-2.8732197284698486,"2166":5.81889009475708,"2167":2.207793712615967,"2168":3.836921453475952,"2169":-0.7812157273292542,"2170":-1.4851837158203125,"2171":-2.4520463943481445,"2172":11.042295455932617,"2173":-6.37629508972168,"2174":3.8196499347686768,"2175":-1.448371171951294,"2176":7.193176746368408,"2177":0.42935842275619507,"2178":-5.1278977394104,"2179":-6.30960750579834,"2180":-6.03192138671875,"2181":10.402397155761719,"2182":-9.785040855407715,"2183":4.007501602172852,"2184":3.153836488723755,"2185":-13.979515075683594,"2186":-3.5337836742401123,"2187":-3.3135557174682617,"2188":-11.65378189086914,"2189":6.910762786865234,"2190":9.444664001464844,"2191":2.4944546222686768,"2192":-8.506933212280273,"2193":6.063238620758057,"2194":4.776278495788574,"2195":2.9121971130371094,"2196":-2.1579227447509766,"2197":-2.586111307144165,"2198":-7.1782050132751465,"2199":6.834249973297119,"2200":-4.2765793800354,"2201":3.159036874771118,"2202":3.617516040802002,"2203":-2.9444305896759033,"2204":-2.9903171062469482,"2205":2.653737783432007,"2206":-1.279819130897522,"2207":-0.6966415047645569,"2208":3.1099562644958496,"2209":-1.3303319215774536,"2210":11.683116912841797,"2211":-0.590191125869751,"2212":-0.9105952382087708,"2213":7.8861494064331055,"2214":6.254615783691406,"2215":2.2087979316711426,"2216":5.699694633483887,"2217":-0.48356375098228455,"2218":-4.954534530639648,"2219":3.8435463905334473,"2220":4.098999500274658,"2221":7.408547401428223,"2222":-3.2852065563201904,"2223":2.660215377807617,"2224":-3.24776554107666,"2225":1.199214220046997,"2226":-7.85168981552124,"2227":-0.33950075507164,"2228":-0.36178499460220337,"2229":4.624210357666016,"2230":-9.101945877075195,"2231":-3.8405346870422363,"2232":-4.7407050132751465,"2233":-3.4099559783935547,"2234":3.722949981689453,"2235":10.019182205200195,"2236":-10.546028137207031,"2237":3.9994025230407715,"2238":-11.483330726623535,"2239":4.781696319580078,"2240":6.26324987411499,"2241":1.473717212677002,"2242":0.08102155476808548,"2243":-7.717432022094727,"2244":-8.338448524475098,"2245":-5.2632622718811035,"2246":-1.242929220199585,"2247":7.878355503082275,"2248":4.14459228515625,"2249":-2.376469373703003,"2250":10.388001441955566,"2251":-2.197817325592041,"2252":9.891664505004883,"2253":-3.0571579933166504,"2254":-0.6924924254417419,"2255":5.378522872924805,"2256":-0.3073338270187378,"2257":-5.970193862915039,"2258":2.561103343963623,"2259":-4.842020034790039,"2260":0.023353761062026024,"2261":-3.186373710632324,"2262":4.810230731964111,"2263":-2.567746877670288,"2264":-8.826287269592285,"2265":-2.2245609760284424,"2266":-2.0231211185455322,"2267":-0.4570588171482086,"2268":-7.0174665451049805,"2269":7.084134578704834,"2270":-5.205183982849121,"2271":0.6376351714134216,"2272":4.623404026031494,"2273":4.0873870849609375,"2274":-0.8699424862861633,"2275":-1.763601541519165,"2276":-5.547916412353516,"2277":-4.096019744873047,"2278":2.547170639038086,"2279":1.125696063041687,"2280":-6.9275126457214355,"2281":-0.7221594452857971,"2282":2.5538928508758545,"2283":-4.4539008140563965,"2284":3.4835400581359863,"2285":-0.517837405204773,"2286":1.1910630464553833,"2287":5.603248596191406,"2288":-6.404113292694092,"2289":8.001686096191406,"2290":-6.525647163391113,"2291":-0.12024141848087311,"2292":0.4726584255695343,"2293":-6.629152774810791,"2294":-4.732353687286377,"2295":1.9711127281188965,"2296":-8.021927833557129,"2297":6.404091835021973,"2298":-5.640544891357422,"2299":6.789501667022705,"2300":0.10319314152002335,"2301":-3.7024707794189453,"2302":-6.572368621826172,"2303":0.992721676826477,"2304":0.8980667591094971,"2305":-0.3787093758583069,"2306":2.0503129959106445,"2307":9.704706192016602,"2308":7.908017158508301,"2309":-1.5704492330551147,"2310":-4.116877555847168,"2311":2.316683053970337,"2312":0.08019372075796127,"2313":1.3515273332595825,"2314":9.725650787353516,"2315":-2.280083179473877,"2316":-2.1407549381256104,"2317":-3.208902359008789,"2318":4.600142955780029,"2319":-3.1027514934539795,"2320":-0.6245683431625366,"2321":-5.588926315307617,"2322":6.006897449493408,"2323":4.25023078918457,"2324":-5.062755107879639,"2325":-9.732290267944336,"2326":-3.6616263389587402,"2327":-0.11969894170761108,"2328":-3.7253615856170654,"2329":-4.466888427734375,"2330":4.142780303955078,"2331":-4.391961574554443,"2332":5.927275657653809,"2333":4.334155082702637,"2334":1.8642088174819946,"2335":6.922885894775391,"2336":-2.195315361022949,"2337":-2.748472213745117,"2338":-5.780478477478027,"2339":-1.5994696617126465,"2340":-0.087424136698246,"2341":4.613946437835693,"2342":-2.5604560375213623,"2343":-10.928722381591797,"2344":3.5734567642211914,"2345":10.027628898620605,"2346":-5.256062030792236,"2347":-0.3706343173980713,"2348":1.265546441078186,"2349":-7.6223978996276855,"2350":2.698831558227539,"2351":14.152091979980469,"2352":2.3442556858062744,"2353":7.7054643630981445,"2354":9.046208381652832,"2355":-6.944618225097656,"2356":-2.6299784183502197,"2357":-10.753604888916016,"2358":5.052931785583496,"2359":0.09505555033683777,"2360":6.6995344161987305,"2361":0.42601916193962097,"2362":-9.89729118347168,"2363":7.5862298011779785,"2364":-2.27878999710083,"2365":-2.591916561126709,"2366":6.6524200439453125,"2367":-11.993952751159668,"2368":1.7525084018707275,"2369":-6.931738376617432,"2370":5.361245155334473,"2371":-2.344501256942749,"2372":2.37406849861145,"2373":5.267789363861084,"2374":0.5030124187469482,"2375":-5.29047155380249,"2376":0.794678270816803,"2377":2.5701358318328857,"2378":6.187123775482178,"2379":5.934906005859375,"2380":-0.5077452659606934,"2381":0.6301019191741943,"2382":9.014944076538086,"2383":-13.227005004882812,"2384":6.001572132110596,"2385":-6.855406284332275,"2386":-11.975395202636719,"2387":-1.8825823068618774,"2388":0.2591210901737213,"2389":2.2466483116149902,"2390":-8.924070358276367,"2391":0.820915162563324,"2392":-2.6426258087158203,"2393":-4.309545516967773,"2394":12.149250984191895,"2395":-6.955489158630371,"2396":-0.2992853820323944,"2397":11.59677505493164,"2398":6.655702114105225,"2399":14.707432746887207,"2400":-7.752586841583252,"2401":4.961076736450195,"2402":-6.695947170257568,"2403":17.423202514648438,"2404":0.08455811440944672,"2405":-5.529251575469971,"2406":6.759836196899414,"2407":-2.723196506500244,"2408":-8.036653518676758,"2409":8.230220794677734,"2410":-4.433266639709473,"2411":8.256998062133789,"2412":1.323364496231079,"2413":-3.871799945831299,"2414":-0.8842448592185974,"2415":-6.182950019836426,"2416":3.025362491607666,"2417":-5.861356735229492,"2418":9.41016674041748,"2419":1.6559184789657593,"2420":0.6562243700027466,"2421":-0.8902915716171265,"2422":4.366809368133545,"2423":-2.435886859893799,"2424":-1.9366230964660645,"2425":2.6962270736694336,"2426":3.5969207286834717,"2427":9.747188568115234,"2428":-11.611166954040527,"2429":6.052602291107178,"2430":2.6851353645324707,"2431":7.953181266784668,"2432":4.080458164215088,"2433":-7.044172286987305,"2434":-9.344947814941406,"2435":-8.120975494384766,"2436":6.449260711669922,"2437":-9.674870491027832,"2438":-2.7830283641815186,"2439":5.270784854888916,"2440":-1.3203859329223633,"2441":2.6857333183288574,"2442":-3.4555160999298096,"2443":6.995122909545898,"2444":-1.4174455404281616,"2445":6.746993064880371,"2446":13.606114387512207,"2447":-1.8102940320968628,"2448":-4.91415548324585,"2449":2.535149574279785,"2450":-5.426268100738525,"2451":-1.0170669555664062,"2452":2.998429298400879,"2453":5.0458760261535645,"2454":-12.980401992797852,"2455":0.46606358885765076,"2456":-1.5722858905792236,"2457":-2.42036771774292,"2458":-0.5865538120269775,"2459":0.16280759871006012,"2460":2.3589248657226562,"2461":1.914146900177002,"2462":7.929849147796631,"2463":-3.3506853580474854,"2464":2.6505191326141357,"2465":1.8998719453811646,"2466":3.1479694843292236,"2467":3.4933078289031982,"2468":-1.114041805267334,"2469":1.4685384035110474,"2470":-1.714443564414978,"2471":5.083999156951904,"2472":6.190707206726074,"2473":9.883162498474121,"2474":0.5866038799285889,"2475":-0.6832287907600403,"2476":0.6133400201797485,"2477":4.299473762512207,"2478":-7.306623458862305,"2479":6.65935754776001,"2480":6.009889602661133,"2481":2.847994327545166,"2482":-1.8776353597640991,"2483":0.3668759763240814,"2484":-7.252540588378906,"2485":3.7069859504699707,"2486":-1.489040732383728,"2487":2.968130350112915,"2488":1.8135263919830322,"2489":-5.767468452453613,"2490":-1.4945069551467896,"2491":5.415650844573975,"2492":0.039537083357572556,"2493":4.195985317230225,"2494":0.23100809752941132,"2495":-7.2393364906311035,"2496":-5.705345153808594,"2497":-4.4924445152282715,"2498":2.9140098094940186,"2499":-1.3720645904541016,"2500":-3.3706395626068115,"2501":2.8818118572235107,"2502":-0.1285729855298996,"2503":2.8146145343780518,"2504":1.2495914697647095,"2505":-1.8066418170928955,"2506":-5.9116530418396,"2507":0.1148836761713028,"2508":1.9651867151260376,"2509":0.09879767894744873,"2510":2.390493869781494,"2511":1.8178534507751465,"2512":1.304422378540039,"2513":0.13217976689338684,"2514":0.8672842383384705,"2515":0.21145401895046234,"2516":0.6276994943618774,"2517":-1.5824278593063354,"2518":1.7126072645187378,"2519":-2.619964838027954,"2520":1.665365219116211,"2521":-0.1322019100189209,"2522":3.530466318130493,"2523":0.29588741064071655,"2524":0.9372011423110962,"2525":-1.6179141998291016,"2526":1.0446888208389282,"2527":2.4898526668548584,"2528":0.47289803624153137,"2529":-0.35349586606025696,"2530":-1.7234841585159302,"2531":0.06729404628276825,"2532":-1.6855568885803223,"2533":-3.4089009761810303,"2534":1.6806923151016235,"2535":1.2346705198287964,"2536":1.3203390836715698,"2537":-0.3217974603176117,"2538":1.0486189126968384,"2539":1.9637019634246826,"2540":0.058251187205314636,"2541":-0.8455372452735901,"2542":-0.4888480603694916,"2543":0.6593761444091797,"2544":2.2806997299194336,"2545":2.129916191101074,"2546":0.48002350330352783,"2547":-1.4221912622451782,"2548":-0.20706211030483246,"2549":0.4318951964378357,"2550":0.05709197372198105,"2551":-2.485516309738159,"2552":-0.23007239401340485,"2553":-3.02711820602417,"2554":0.2838684916496277,"2555":0.16796711087226868,"2556":-1.9941667318344116,"2557":-2.389716863632202,"2558":1.9282500743865967,"2559":2.4898152351379395,"2560":0.1330614984035492,"2561":0.8406006097793579,"2562":-0.31939634680747986,"2563":-0.6870400905609131,"2564":-0.3716972768306732,"2565":1.4349358081817627,"2566":0.8736011981964111,"2567":1.2394249439239502,"2568":-4.681110858917236,"2569":1.7377512454986572,"2570":-0.08350534737110138,"2571":1.5512605905532837,"2572":1.949328899383545,"2573":0.11202221363782883,"2574":-0.8387190699577332,"2575":0.1843913048505783,"2576":2.742690324783325,"2577":-0.9219303727149963,"2578":-0.12531524896621704,"2579":-2.121669054031372,"2580":0.9644522070884705,"2581":-0.4021438658237457,"2582":-1.9680945873260498,"2583":1.4726613759994507,"2584":-0.13689051568508148,"2585":0.939228355884552,"2586":0.3367677628993988,"2587":-0.4419599175453186,"2588":0.4046001136302948,"2589":5.948042869567871,"2590":0.8791539669036865,"2591":-0.30934515595436096,"2592":2.25370717048645,"2593":-1.013414740562439,"2594":-0.14802271127700806,"2595":-3.681607723236084,"2596":3.912973403930664,"2597":0.0951128676533699,"2598":-1.5721232891082764,"2599":2.095484972000122,"2600":0.7803344130516052,"2601":0.040352195501327515,"2602":0.009081636555492878,"2603":-0.04985550791025162,"2604":-0.024060890078544617,"2605":-0.028261438012123108,"2606":0.049561455845832825,"2607":-0.014119744300842285,"2608":-0.011889815330505371,"2609":-0.01804390922188759,"2610":-0.0599413737654686,"2611":0.019742831587791443,"2612":0.025941995903849602,"2613":-0.041137371212244034,"2614":-0.0036373455077409744,"2615":0.03263499587774277,"2616":-0.053736817091703415,"2617":-0.01704603247344494,"2618":-0.04387586936354637,"2619":0.038649339228868484,"2620":-0.026814252138137817,"2621":-0.047465067356824875,"2622":-0.0557105652987957,"2623":0.029303524643182755,"2624":0.015763772651553154,"2625":0.05015092343091965,"2626":0.040770068764686584,"2627":0.040335919708013535,"2628":0.049520332366228104,"2629":0.020995762199163437,"2630":-0.018381517380475998,"2631":-0.008412959985435009,"2632":0.023002995178103447,"2633":-0.031124498695135117,"2634":-0.045493390411138535,"2635":-0.05184046924114227,"2636":-0.0009681033552624285,"2637":-0.020924711599946022,"2638":0.05879896506667137,"2639":0.011990967206656933,"2640":-0.025583520531654358,"2641":-0.040899258106946945,"2642":-0.03470930457115173,"2643":-0.0033265030942857265,"2644":0.01583126187324524,"2645":0.033299773931503296,"2646":-0.0026589827612042427,"2647":0.04166403040289879,"2648":-0.017791539430618286,"2649":0.048164255917072296,"2650":0.0016611291794106364,"2651":0.004517052788287401}},"hiddenLayers":[{"inputMatrix":{"rows":20,"columns":51,"weights":{"0":0.054901450872421265,"1":-1.0246186256408691,"2":-1.022705316543579,"3":1.9428787231445312,"4":1.4437918663024902,"5":2.321417808532715,"6":-0.21955305337905884,"7":-0.46926096081733704,"8":-0.21254050731658936,"9":0.23695243895053864,"10":0.9538158774375916,"11":3.1967990398406982,"12":1.8641350269317627,"13":0.6072072386741638,"14":0.02201567031443119,"15":1.3545337915420532,"16":-0.6299981474876404,"17":-2.44816517829895,"18":0.0629967674612999,"19":-0.23715035617351532,"20":-1.0124709606170654,"21":-0.38484230637550354,"22":0.4386652410030365,"23":-0.5446049571037292,"24":-0.3064647316932678,"25":0.24211208522319794,"26":0.7744864821434021,"27":1.430848479270935,"28":1.5210212469100952,"29":-0.4466101825237274,"30":-2.9995505809783936,"31":-0.3607749044895172,"32":0.3149294853210449,"33":-1.9901294708251953,"34":-4.025238990783691,"35":1.636643409729004,"36":-0.3493504822254181,"37":4.002961158752441,"38":0.7219289541244507,"39":0.7081708312034607,"40":0.5841853618621826,"41":-1.3014514446258545,"42":-2.3157339096069336,"43":1.169274926185608,"44":2.3654494285583496,"45":0.059598758816719055,"46":0.08278942853212357,"47":-0.13696864247322083,"48":-0.5786640048027039,"49":-2.869274854660034,"50":0.7973411083221436,"51":0.31925877928733826,"52":0.46324852108955383,"53":-0.6653764843940735,"54":1.0019909143447876,"55":0.8965931534767151,"56":0.6917205452919006,"57":-0.383174329996109,"58":2.1001267433166504,"59":0.7485310435295105,"60":0.5000048875808716,"61":0.10646876692771912,"62":-0.5526835322380066,"63":-1.8052146434783936,"64":-1.1397160291671753,"65":1.279452919960022,"66":-1.8844436407089233,"67":-3.538870096206665,"68":-0.7773151993751526,"69":1.0046106576919556,"70":-2.8883259296417236,"71":1.0746055841445923,"72":-0.1269294023513794,"73":-0.2912050485610962,"74":-3.6221461296081543,"75":-0.4541504681110382,"76":1.311244249343872,"77":-0.02283056452870369,"78":-3.3830337524414062,"79":-1.8550204038619995,"80":-0.7996623516082764,"81":1.0198050737380981,"82":-0.17090804874897003,"83":0.9573292136192322,"84":1.5914855003356934,"85":-0.08830191940069199,"86":1.1912033557891846,"87":0.04399280622601509,"88":0.7991865873336792,"89":0.401997834444046,"90":0.5948258638381958,"91":-1.6908173561096191,"92":0.26917368173599243,"93":0.504567563533783,"94":0.2680788040161133,"95":-0.4517643451690674,"96":0.6546239852905273,"97":-0.5538874864578247,"98":1.3639967441558838,"99":1.6849523782730103,"100":1.2585169076919556,"101":1.4235199689865112,"102":-0.4857020378112793,"103":3.3416881561279297,"104":0.44161278009414673,"105":-2.533388614654541,"106":-1.0577093362808228,"107":-3.412562370300293,"108":0.2485651671886444,"109":0.35984107851982117,"110":4.226294040679932,"111":-1.601466417312622,"112":-1.107031226158142,"113":-2.0001368522644043,"114":-1.4421746730804443,"115":-1.2556910514831543,"116":-0.2757317125797272,"117":-0.645128607749939,"118":-2.2565255165100098,"119":1.6851909160614014,"120":-0.5552765727043152,"121":-0.5255211591720581,"122":-1.8562698364257812,"123":0.5378982424736023,"124":-0.7816619873046875,"125":-0.9985015988349915,"126":-1.0823360681533813,"127":-0.5337156057357788,"128":-1.2432024478912354,"129":-1.7129969596862793,"130":-1.70421302318573,"131":-1.7414422035217285,"132":1.5953342914581299,"133":0.9212793111801147,"134":-2.6821515560150146,"135":0.6673176884651184,"136":1.0351556539535522,"137":-0.516253650188446,"138":0.029259776696562767,"139":-3.8774614334106445,"140":-0.3025364577770233,"141":1.8105978965759277,"142":-1.8564788103103638,"143":-0.12910784780979156,"144":2.3870973587036133,"145":-1.8585671186447144,"146":-0.9214257001876831,"147":1.726967215538025,"148":0.11154285073280334,"149":-0.7459172010421753,"150":1.6834245920181274,"151":1.5090351104736328,"152":-0.8804225325584412,"153":0.66087406873703,"154":-0.20772431790828705,"155":-1.2202062606811523,"156":0.36290350556373596,"157":-0.021312406286597252,"158":1.8338143825531006,"159":0.5950413346290588,"160":-1.3375136852264404,"161":0.9011566042900085,"162":-0.4155004024505615,"163":0.35995104908943176,"164":1.4425069093704224,"165":0.9980754256248474,"166":-0.7191035151481628,"167":0.8002867102622986,"168":0.0926886796951294,"169":-0.12513300776481628,"170":-1.4207102060317993,"171":-0.8845810890197754,"172":-1.037781834602356,"173":-0.2219584882259369,"174":-1.1740411520004272,"175":-0.8906167149543762,"176":-1.7520948648452759,"177":0.37296944856643677,"178":-0.5343708992004395,"179":2.237910509109497,"180":0.16002772748470306,"181":0.13839595019817352,"182":0.6815584301948547,"183":-2.111618757247925,"184":0.8228950500488281,"185":0.3947959244251251,"186":-0.11110679060220718,"187":-0.402436763048172,"188":0.6423619389533997,"189":0.16186903417110443,"190":1.200508952140808,"191":-0.08225756138563156,"192":-1.1381359100341797,"193":-1.6979106664657593,"194":-1.0799205303192139,"195":-1.4099959135055542,"196":0.7954107522964478,"197":2.747609853744507,"198":0.1767989695072174,"199":0.7308332324028015,"200":-2.995859384536743,"201":0.4924945831298828,"202":-1.7390336990356445,"203":-1.7947810888290405,"204":0.016610845923423767,"205":-3.1585519313812256,"206":-1.4349256753921509,"207":-1.1425975561141968,"208":-0.7233363389968872,"209":0.508337676525116,"210":-1.39742910861969,"211":2.8266658782958984,"212":-2.510871171951294,"213":0.19211769104003906,"214":0.5704531669616699,"215":2.1909339427948,"216":1.0498416423797607,"217":-2.0337159633636475,"218":-1.3422011137008667,"219":2.2968292236328125,"220":0.45088645815849304,"221":-1.126326084136963,"222":-1.5881956815719604,"223":-0.784004807472229,"224":0.5519587397575378,"225":-0.7732400298118591,"226":2.2368133068084717,"227":-1.1974233388900757,"228":2.5990865230560303,"229":0.16443118453025818,"230":2.5186848640441895,"231":-0.15504522621631622,"232":-2.8003687858581543,"233":-2.5492148399353027,"234":1.0098251104354858,"235":2.647772789001465,"236":-0.17721782624721527,"237":0.49041348695755005,"238":0.4673594832420349,"239":-3.4125404357910156,"240":-0.09511156380176544,"241":-0.26970967650413513,"242":0.11972282826900482,"243":1.6215312480926514,"244":-0.024022791534662247,"245":0.3430722653865814,"246":-1.845780372619629,"247":0.7244009971618652,"248":-1.6948213577270508,"249":-1.094744324684143,"250":-1.7111042737960815,"251":0.6713646054267883,"252":-0.1423671990633011,"253":0.7821107506752014,"254":-1.476742148399353,"255":1.2442988157272339,"256":-1.8462169170379639,"257":0.7155901193618774,"258":0.794224739074707,"259":0.5777248740196228,"260":1.4129608869552612,"261":2.66739821434021,"262":-2.1748602390289307,"263":1.2995491027832031,"264":1.6599754095077515,"265":-3.6421382427215576,"266":1.3174885511398315,"267":2.781965732574463,"268":1.5391379594802856,"269":-1.2266249656677246,"270":1.2889643907546997,"271":0.6329408288002014,"272":0.3314667344093323,"273":-0.5956535339355469,"274":4.9600510597229,"275":1.5559437274932861,"276":0.9388640522956848,"277":0.19317300617694855,"278":5.173019886016846,"279":-1.6119414567947388,"280":0.19740155339241028,"281":-0.604070782661438,"282":-1.268134355545044,"283":1.4834880828857422,"284":0.11091694235801697,"285":-0.9321640133857727,"286":-2.880462169647217,"287":-0.3724902868270874,"288":-3.21755313873291,"289":-0.6796790361404419,"290":-0.9955434799194336,"291":0.6281746029853821,"292":1.2321423292160034,"293":0.4739583134651184,"294":1.0959593057632446,"295":0.7274535894393921,"296":3.361959934234619,"297":-0.3707728683948517,"298":-0.5337622165679932,"299":-2.458768367767334,"300":0.347290575504303,"301":3.600594997406006,"302":0.5274884104728699,"303":-1.9663037061691284,"304":-1.5782586336135864,"305":-1.2587904930114746,"306":0.5406292080879211,"307":-0.504643440246582,"308":-1.287795066833496,"309":-1.9112712144851685,"310":0.17364272475242615,"311":3.043627977371216,"312":-0.031710609793663025,"313":2.4115772247314453,"314":-1.3252002000808716,"315":0.04192434623837471,"316":-0.7486637830734253,"317":-0.013539031147956848,"318":-1.513262391090393,"319":-0.41467756032943726,"320":1.0858986377716064,"321":0.9984680414199829,"322":-1.6185749769210815,"323":0.3808301091194153,"324":1.0674580335617065,"325":-2.035844564437866,"326":-1.689297080039978,"327":-2.6023337841033936,"328":1.2683830261230469,"329":-2.0912561416625977,"330":0.8797147870063782,"331":0.3080271780490875,"332":-0.27609869837760925,"333":-1.7318183183670044,"334":-3.490283727645874,"335":-4.369117736816406,"336":-0.08498053252696991,"337":1.6718400716781616,"338":3.4640111923217773,"339":1.807640552520752,"340":0.5749313235282898,"341":0.13997149467468262,"342":0.3160747289657593,"343":0.5565941333770752,"344":-0.2887233793735504,"345":-3.1493093967437744,"346":-0.42868494987487793,"347":-0.8087290525436401,"348":-0.805446982383728,"349":-0.6539583802223206,"350":-0.17940038442611694,"351":2.3268513679504395,"352":-0.8623291254043579,"353":1.5738083124160767,"354":0.7054592370986938,"355":1.0290732383728027,"356":-0.23111788928508759,"357":3.007399320602417,"358":0.007786248344928026,"359":-0.966987133026123,"360":-0.44218143820762634,"361":-0.2442607432603836,"362":0.812495768070221,"363":1.8061704635620117,"364":2.4322092533111572,"365":-1.4182233810424805,"366":1.4168342351913452,"367":-2.387852907180786,"368":-0.8387281894683838,"369":-2.04125714302063,"370":-3.540585994720459,"371":0.7625851035118103,"372":0.33857131004333496,"373":-0.7583616375923157,"374":0.6216124892234802,"375":-0.46225506067276,"376":-1.2713617086410522,"377":0.4168012738227844,"378":-2.028057098388672,"379":1.369596004486084,"380":-2.4621708393096924,"381":1.8858342170715332,"382":1.0763733386993408,"383":0.561693549156189,"384":-1.4962425231933594,"385":-0.2896043360233307,"386":-0.8292784690856934,"387":-0.46781936287879944,"388":0.04742595925927162,"389":1.522078275680542,"390":2.4609460830688477,"391":1.8567206859588623,"392":0.6051810383796692,"393":1.7524768114089966,"394":-0.08042741566896439,"395":-1.8056868314743042,"396":-0.6854734420776367,"397":-3.868675947189331,"398":-0.8311566114425659,"399":-0.3270428776741028,"400":-0.42349493503570557,"401":0.5749059319496155,"402":0.42043259739875793,"403":-1.0334291458129883,"404":-0.19277030229568481,"405":2.765500068664551,"406":0.6226523518562317,"407":-0.718075692653656,"408":0.1469041109085083,"409":-0.5527802109718323,"410":0.46910038590431213,"411":2.103719711303711,"412":0.015203683637082577,"413":0.022687645629048347,"414":2.448573589324951,"415":-1.571874737739563,"416":3.0380449295043945,"417":3.198446750640869,"418":-1.8232409954071045,"419":1.1068260669708252,"420":-1.3410110473632812,"421":-2.3503193855285645,"422":-0.8535398840904236,"423":-0.3565042316913605,"424":-1.6014398336410522,"425":-2.1269991397857666,"426":0.0195799358189106,"427":0.5007443428039551,"428":-0.40090328454971313,"429":0.33057400584220886,"430":-0.15118028223514557,"431":0.4572044312953949,"432":-1.985622525215149,"433":0.4675026535987854,"434":-0.27729734778404236,"435":-2.12260365486145,"436":-0.7805290818214417,"437":2.1297695636749268,"438":0.4978387951850891,"439":-2.9803693294525146,"440":-1.8676115274429321,"441":-2.2604401111602783,"442":0.5134570002555847,"443":0.8672530651092529,"444":0.19402778148651123,"445":0.6531957387924194,"446":1.3998076915740967,"447":0.8797690868377686,"448":-2.7200629711151123,"449":0.8825579881668091,"450":0.37883231043815613,"451":-1.645592212677002,"452":0.01049465499818325,"453":-1.8564883470535278,"454":2.447176456451416,"455":0.5524163246154785,"456":2.6602420806884766,"457":-0.14210505783557892,"458":0.44473332166671753,"459":1.104940414428711,"460":-3.246147871017456,"461":0.012756358832120895,"462":-0.15736843645572662,"463":-0.24739517271518707,"464":-1.9446905851364136,"465":-0.0013012401759624481,"466":-1.4449918270111084,"467":0.8944122195243835,"468":-0.7090842127799988,"469":0.24702611565589905,"470":2.6705846786499023,"471":-0.864108681678772,"472":0.030026817694306374,"473":-4.440942764282227,"474":1.3145002126693726,"475":-0.3634886145591736,"476":-1.5675948858261108,"477":-1.1728509664535522,"478":-0.026301193982362747,"479":0.29159051179885864,"480":1.2026087045669556,"481":2.164156913757324,"482":0.6812172532081604,"483":0.5175705552101135,"484":-2.3066811561584473,"485":-0.42064395546913147,"486":0.35618969798088074,"487":-1.2107176780700684,"488":-1.572558045387268,"489":-1.7637701034545898,"490":-0.8180188536643982,"491":-2.395198106765747,"492":-1.266345739364624,"493":-2.570350170135498,"494":-0.882839560508728,"495":2.047886371612549,"496":2.3397629261016846,"497":0.5446546077728271,"498":1.5021361112594604,"499":0.270817369222641,"500":2.757132053375244,"501":-0.3796955347061157,"502":-0.5796802639961243,"503":1.2633188962936401,"504":2.2272024154663086,"505":-0.01901976391673088,"506":-0.4017471373081207,"507":-0.9303449988365173,"508":0.18447202444076538,"509":0.837132453918457,"510":-0.3385689854621887,"511":3.9734644889831543,"512":1.1420574188232422,"513":-0.9645140767097473,"514":1.317395806312561,"515":-1.4753730297088623,"516":2.8086159229278564,"517":0.6621518731117249,"518":-0.175867959856987,"519":-1.9168187379837036,"520":0.6209797263145447,"521":-3.781775951385498,"522":-0.31425684690475464,"523":0.5701433420181274,"524":-0.8269817233085632,"525":-1.495439052581787,"526":-0.7117794752120972,"527":1.7669305801391602,"528":0.8283399343490601,"529":-0.5060834288597107,"530":-0.42274922132492065,"531":0.4070095121860504,"532":-1.3364028930664062,"533":2.101032018661499,"534":-0.5661574006080627,"535":-0.14651784300804138,"536":-0.7865183353424072,"537":1.116129994392395,"538":0.5946733355522156,"539":0.8557807803153992,"540":0.4483666718006134,"541":-1.2376114130020142,"542":0.10221196711063385,"543":2.2710156440734863,"544":2.1344950199127197,"545":0.11083324998617172,"546":0.42804208397865295,"547":-4.314859390258789,"548":1.0116467475891113,"549":-3.2950892448425293,"550":0.7455906271934509,"551":-0.09617806226015091,"552":1.5663732290267944,"553":-1.093153476715088,"554":2.1135103702545166,"555":-0.6543390154838562,"556":-0.5759974122047424,"557":0.3471829295158386,"558":1.2559688091278076,"559":0.45275458693504333,"560":0.29397323727607727,"561":-2.8366470336914062,"562":-0.91912442445755,"563":-1.5120279788970947,"564":-0.16237090528011322,"565":-2.236081838607788,"566":-1.5876203775405884,"567":-0.41742923855781555,"568":-2.5910065174102783,"569":-0.5865414142608643,"570":-0.9437798261642456,"571":3.0006699562072754,"572":3.4015238285064697,"573":0.2207363396883011,"574":-0.11087691783905029,"575":-1.208491325378418,"576":2.171370506286621,"577":-0.13251613080501556,"578":-0.1857413798570633,"579":-1.263601541519165,"580":-2.9669203758239746,"581":0.7802515029907227,"582":0.608841061592102,"583":0.11262290924787521,"584":0.989704430103302,"585":-0.39498409628868103,"586":-1.592814564704895,"587":0.6321827173233032,"588":-0.7210104465484619,"589":-3.7464327812194824,"590":-0.2176624834537506,"591":0.2512670159339905,"592":0.535893440246582,"593":-2.741837501525879,"594":0.5253425240516663,"595":0.3077791929244995,"596":-2.3652143478393555,"597":0.7484568953514099,"598":2.024998426437378,"599":1.1690384149551392,"600":-0.8184677958488464,"601":0.7412227988243103,"602":2.0866894721984863,"603":2.0205934047698975,"604":2.5186305046081543,"605":3.4405434131622314,"606":-1.6461271047592163,"607":-1.2113295793533325,"608":1.0899231433868408,"609":-2.2467803955078125,"610":0.8390704393386841,"611":-0.474640429019928,"612":0.3923507034778595,"613":-1.3966110944747925,"614":1.6698187589645386,"615":2.0860555171966553,"616":-2.198103666305542,"617":-0.035372816026210785,"618":1.0461159944534302,"619":0.891086995601654,"620":1.346922516822815,"621":0.09838897734880447,"622":-3.7109785079956055,"623":1.6550709009170532,"624":-0.5398989915847778,"625":-0.2615940570831299,"626":-0.32781362533569336,"627":0.18141254782676697,"628":-2.500545024871826,"629":-1.9114359617233276,"630":-0.16252581775188446,"631":-0.35124194622039795,"632":1.7359164953231812,"633":-1.7981407642364502,"634":0.9853717684745789,"635":-1.7704893350601196,"636":-0.12102247029542923,"637":-2.528416872024536,"638":1.5413322448730469,"639":0.4825858771800995,"640":-0.9988775253295898,"641":-0.8246450424194336,"642":-1.967124581336975,"643":0.16964371502399445,"644":1.7838656902313232,"645":-3.769078016281128,"646":-2.5267605781555176,"647":-1.496368646621704,"648":1.1764841079711914,"649":1.4530473947525024,"650":-1.0432676076889038,"651":0.12832742929458618,"652":-0.7259727716445923,"653":0.6704774498939514,"654":-0.7466517686843872,"655":-2.328803777694702,"656":-1.5072745084762573,"657":2.4225611686706543,"658":-0.07934112846851349,"659":0.7316058278083801,"660":2.3148763179779053,"661":-2.9132511615753174,"662":-2.269984245300293,"663":-1.1195770502090454,"664":1.259099006652832,"665":0.144586980342865,"666":-0.3661639392375946,"667":1.4506295919418335,"668":-0.7512185573577881,"669":2.1859803199768066,"670":0.6159191131591797,"671":2.6200242042541504,"672":0.8120138049125671,"673":-2.02620530128479,"674":-1.1644917726516724,"675":-1.5094249248504639,"676":-2.397763729095459,"677":-0.42895984649658203,"678":-1.5152753591537476,"679":-1.3903543949127197,"680":0.3423042297363281,"681":-0.2643722593784332,"682":-0.796371340751648,"683":-0.9743026494979858,"684":-0.36602509021759033,"685":-1.6126222610473633,"686":-0.3039819002151489,"687":0.5437746047973633,"688":-1.045850396156311,"689":-0.6338939070701599,"690":-3.2790656089782715,"691":0.0769403874874115,"692":0.000012051840712956619,"693":1.694200873374939,"694":-0.3991630971431732,"695":-0.22615258395671844,"696":-0.5713631510734558,"697":1.560408592224121,"698":0.7068570256233215,"699":-0.3916317820549011,"700":-2.2968246936798096,"701":-0.34884577989578247,"702":1.5228537321090698,"703":-2.965853452682495,"704":0.24474215507507324,"705":-0.9146420955657959,"706":-0.3234471082687378,"707":-1.8551748991012573,"708":1.5948536396026611,"709":-0.5587814450263977,"710":-0.9340981245040894,"711":1.8057971000671387,"712":0.2980671226978302,"713":-3.416463613510132,"714":-0.7805023193359375,"715":0.27007314562797546,"716":-1.3140932321548462,"717":-0.6441033482551575,"718":-0.5751523971557617,"719":0.12102660536766052,"720":3.305149793624878,"721":-0.07413292676210403,"722":3.0247864723205566,"723":2.590636968612671,"724":-2.3134710788726807,"725":0.6283814311027527,"726":1.054458498954773,"727":-3.6764886379241943,"728":-1.6028739213943481,"729":-1.1139625310897827,"730":1.3754489421844482,"731":-0.1672259122133255,"732":0.8528274297714233,"733":0.069663867354393,"734":1.1958330869674683,"735":0.9213436841964722,"736":-1.1106690168380737,"737":1.2527521848678589,"738":1.9675956964492798,"739":-1.0531703233718872,"740":0.35997211933135986,"741":-1.9651129245758057,"742":0.8386566638946533,"743":-0.9091554880142212,"744":1.6249922513961792,"745":-0.30920183658599854,"746":-1.0633010864257812,"747":0.9821509122848511,"748":3.0524654388427734,"749":0.4794703722000122,"750":0.6959685683250427,"751":-2.069697141647339,"752":0.3246762454509735,"753":0.6377472281455994,"754":-3.460531234741211,"755":0.72499018907547,"756":0.14714020490646362,"757":-0.18091052770614624,"758":0.7359113097190857,"759":-2.3060684204101562,"760":0.6836317181587219,"761":0.6124590039253235,"762":2.7865214347839355,"763":0.5035415291786194,"764":-3.264136552810669,"765":-1.2389780282974243,"766":-0.2018253058195114,"767":0.07936636358499527,"768":-0.7285664677619934,"769":4.3362321853637695,"770":-0.7404028177261353,"771":-0.40279802680015564,"772":-3.379953384399414,"773":-1.5459247827529907,"774":0.6190747022628784,"775":0.677472710609436,"776":-0.4191746711730957,"777":1.0941940546035767,"778":0.19865041971206665,"779":1.2193527221679688,"780":1.6343891620635986,"781":1.008292317390442,"782":-0.9695407152175903,"783":-0.6720183491706848,"784":-0.3765859305858612,"785":-3.8754873275756836,"786":0.9806339740753174,"787":-1.911394715309143,"788":2.2519402503967285,"789":2.286332845687866,"790":0.816961944103241,"791":-3.1566474437713623,"792":1.4875562191009521,"793":-0.5485094785690308,"794":0.6784045100212097,"795":0.47525790333747864,"796":-1.9617021083831787,"797":-0.5781590938568115,"798":0.43520861864089966,"799":-1.6122111082077026,"800":3.058729648590088,"801":0.2314501851797104,"802":-1.4459056854248047,"803":-0.8381242156028748,"804":-0.3563072085380554,"805":-0.043427709490060806,"806":0.9919401407241821,"807":0.404279887676239,"808":2.9813923835754395,"809":1.3771169185638428,"810":-0.9152705669403076,"811":0.6128482222557068,"812":1.4219706058502197,"813":0.07993991672992706,"814":-0.012048587203025818,"815":2.1099536418914795,"816":-2.4558496475219727,"817":-1.3858811855316162,"818":0.5514572262763977,"819":-0.026480533182621002,"820":-0.7636566162109375,"821":-2.751258611679077,"822":2.626802682876587,"823":-1.7509719133377075,"824":1.7143319845199585,"825":0.6794964671134949,"826":0.3939681351184845,"827":-0.006060302257537842,"828":0.4986591935157776,"829":-3.476060390472412,"830":0.29628241062164307,"831":-0.010855380445718765,"832":-0.9013568162918091,"833":-0.6789213418960571,"834":-1.0797606706619263,"835":0.25485455989837646,"836":-1.4320766925811768,"837":2.5550179481506348,"838":1.3554240465164185,"839":2.845224380493164,"840":-2.652726173400879,"841":0.2829541862010956,"842":-1.4459134340286255,"843":-2.002122163772583,"844":-0.32031652331352234,"845":-0.12133625149726868,"846":1.7107042074203491,"847":-2.4750401973724365,"848":-0.570177435874939,"849":-1.9716501235961914,"850":0.5661822557449341,"851":-0.8671355843544006,"852":2.596137046813965,"853":-0.4448065757751465,"854":-1.6919260025024414,"855":2.0533430576324463,"856":-0.491085410118103,"857":0.774926483631134,"858":0.8384026885032654,"859":-0.7791733741760254,"860":-2.2094242572784424,"861":0.9050963521003723,"862":2.263018846511841,"863":1.4331821203231812,"864":0.08471295237541199,"865":1.7635282278060913,"866":-0.6043441295623779,"867":-0.2458225041627884,"868":-1.9782718420028687,"869":-1.51468825340271,"870":-1.6257221698760986,"871":2.229991912841797,"872":0.12756207585334778,"873":-5.958460330963135,"874":-0.735211968421936,"875":-1.0331114530563354,"876":1.169150471687317,"877":-1.5015289783477783,"878":1.6285423040390015,"879":-2.1556379795074463,"880":0.9042176604270935,"881":0.8268395662307739,"882":-0.12136265635490417,"883":-0.9678260684013367,"884":0.009838367812335491,"885":-1.6262876987457275,"886":-0.10410046577453613,"887":-1.1254916191101074,"888":-1.3046472072601318,"889":0.8274741172790527,"890":-1.8475031852722168,"891":2.0308797359466553,"892":1.1503084897994995,"893":1.8784748315811157,"894":0.43075135350227356,"895":-0.03490269184112549,"896":0.8135260939598083,"897":-1.1682493686676025,"898":0.8558411598205566,"899":-0.9438586831092834,"900":1.6839898824691772,"901":-2.3317880630493164,"902":2.596203088760376,"903":0.9584313631057739,"904":2.487663745880127,"905":1.886465072631836,"906":0.5206295251846313,"907":1.3555080890655518,"908":-2.1502885818481445,"909":-0.18656203150749207,"910":1.231132984161377,"911":2.425966262817383,"912":-0.8745518922805786,"913":-0.909803569316864,"914":-0.7179152369499207,"915":-0.5767790675163269,"916":-1.1665035486221313,"917":0.9952767491340637,"918":3.568002939224243,"919":0.12082383036613464,"920":1.40538489818573,"921":-4.709497928619385,"922":-3.0052170753479004,"923":2.4196290969848633,"924":-0.8041819930076599,"925":3.141000747680664,"926":-1.0822858810424805,"927":-0.12917785346508026,"928":0.9497049450874329,"929":-0.9676681160926819,"930":-0.5169373750686646,"931":0.2879396378993988,"932":-0.861962616443634,"933":0.32191145420074463,"934":1.4631232023239136,"935":0.17504443228244781,"936":-0.41344496607780457,"937":1.192641258239746,"938":1.5352853536605835,"939":-2.496675729751587,"940":1.1725846529006958,"941":-0.4336959719657898,"942":-0.25640684366226196,"943":-2.251918315887451,"944":-0.4468959867954254,"945":-2.268022060394287,"946":2.5094521045684814,"947":-1.1427905559539795,"948":1.1490556001663208,"949":1.3157137632369995,"950":1.6061280965805054,"951":2.0452020168304443,"952":2.5799665451049805,"953":-3.0247068405151367,"954":2.5549228191375732,"955":0.06843578070402145,"956":0.01771210879087448,"957":-4.329951763153076,"958":-1.6244349479675293,"959":1.3841406106948853,"960":-0.04049495607614517,"961":0.2142588198184967,"962":0.712489664554596,"963":1.053615689277649,"964":-0.45360267162323,"965":-0.684632420539856,"966":-0.26398852467536926,"967":2.700834035873413,"968":0.08058243244886398,"969":-5.496424674987793,"970":-0.06624997407197952,"971":1.4454572200775146,"972":1.0729252099990845,"973":0.5556349158287048,"974":-2.1606507301330566,"975":-0.06378475576639175,"976":1.3209247589111328,"977":-1.0331956148147583,"978":-3.936851978302002,"979":3.1382088661193848,"980":-0.046064212918281555,"981":-0.7202278971672058,"982":0.44766026735305786,"983":-2.519986152648926,"984":-0.9061942100524902,"985":3.187225341796875,"986":0.06630054861307144,"987":-0.2633615732192993,"988":-0.26338309049606323,"989":-0.006136420648545027,"990":1.8159626722335815,"991":0.08651015907526016,"992":0.0558491013944149,"993":-0.45643046498298645,"994":0.45144692063331604,"995":-1.6796612739562988,"996":1.5543164014816284,"997":0.19502553343772888,"998":-2.0858840942382812,"999":1.0796834230422974,"1000":-1.9502426385879517,"1001":-2.212851047515869,"1002":-0.06407001614570618,"1003":-0.5851984620094299,"1004":3.0469303131103516,"1005":-2.2979235649108887,"1006":-0.4084949195384979,"1007":0.7185793519020081,"1008":0.7415192127227783,"1009":2.1140005588531494,"1010":2.257568836212158,"1011":-2.085080623626709,"1012":2.603144407272339,"1013":1.9480031728744507,"1014":-0.03678710386157036,"1015":0.5338218808174133,"1016":1.7597551345825195,"1017":-3.094048023223877,"1018":-0.22240440547466278,"1019":0.9965346455574036}},"inputHidden":{"rows":20,"columns":20,"weights":{"0":-1.3546642065048218,"1":0.044884875416755676,"2":-0.6610786318778992,"3":-2.075382947921753,"4":0.6077227592468262,"5":-2.3717236518859863,"6":-0.15805836021900177,"7":-0.24252331256866455,"8":-0.752031683921814,"9":-0.6331642866134644,"10":0.059955086559057236,"11":0.7135667204856873,"12":0.6495622992515564,"13":-0.2649286687374115,"14":1.4734941720962524,"15":1.1752365827560425,"16":0.9426321983337402,"17":0.5837597846984863,"18":3.250159978866577,"19":-1.8035693168640137,"20":-2.6307578086853027,"21":-3.274256944656372,"22":0.2796860933303833,"23":-0.5936160087585449,"24":3.585972785949707,"25":-0.7748317122459412,"26":-0.6693828105926514,"27":-2.3307831287384033,"28":-1.0070314407348633,"29":2.1860172748565674,"30":-2.130671501159668,"31":-0.8195304274559021,"32":0.5685828924179077,"33":-0.9443334341049194,"34":1.1367665529251099,"35":-0.8616015315055847,"36":0.7541196346282959,"37":-0.766331672668457,"38":0.408100426197052,"39":0.7103644609451294,"40":-3.4839348793029785,"41":-0.11902470141649246,"42":0.8154217600822449,"43":-0.898195743560791,"44":-1.087109923362732,"45":0.13555271923542023,"46":0.5029712319374084,"47":2.908066511154175,"48":0.1786940097808838,"49":-0.04540563002228737,"50":-2.288156509399414,"51":2.389385461807251,"52":0.6902256011962891,"53":2.8949856758117676,"54":-1.3987736701965332,"55":-1.7449185848236084,"56":-1.9409561157226562,"57":-0.40171167254447937,"58":-2.5857958793640137,"59":-2.81622314453125,"60":2.1735594272613525,"61":-0.049982860684394836,"62":-2.375462055206299,"63":0.4419756531715393,"64":1.8871325254440308,"65":1.938051700592041,"66":-2.4421796798706055,"67":6.1174421310424805,"68":6.122977256774902,"69":0.5315627455711365,"70":-4.39007043838501,"71":-2.472909927368164,"72":-4.808584213256836,"73":2.678007125854492,"74":-5.0722761154174805,"75":-4.216531753540039,"76":-2.920464277267456,"77":3.6746644973754883,"78":-3.830444812774658,"79":1.3964768648147583,"80":-3.400109052658081,"81":2.6793112754821777,"82":2.3894898891448975,"83":-2.254244565963745,"84":1.6716982126235962,"85":-0.8911334276199341,"86":1.0856574773788452,"87":3.138723373413086,"88":2.5596024990081787,"89":-0.6031622886657715,"90":-0.5583639144897461,"91":1.56550931930542,"92":-0.7052482962608337,"93":3.0401697158813477,"94":0.07017552852630615,"95":4.452517032623291,"96":-0.5767116546630859,"97":-1.7601147890090942,"98":0.046723078936338425,"99":-1.1619622707366943,"100":2.9815711975097656,"101":-1.2066237926483154,"102":-0.6326995491981506,"103":-1.2214189767837524,"104":0.22322078049182892,"105":1.3043560981750488,"106":-1.0460015535354614,"107":0.4125309884548187,"108":-0.11030617356300354,"109":-1.5417344570159912,"110":-0.5763696432113647,"111":0.19256317615509033,"112":-0.7912052273750305,"113":-1.3915581703186035,"114":0.6889160871505737,"115":1.048779845237732,"116":-0.6811407804489136,"117":0.38857588171958923,"118":-0.657133936882019,"119":0.10972598940134048,"120":1.3649719953536987,"121":-1.4475104808807373,"122":-0.9600844383239746,"123":-4.067477226257324,"124":1.2211335897445679,"125":-0.42663145065307617,"126":0.3408871293067932,"127":-4.420681953430176,"128":-2.6989667415618896,"129":0.8047898411750793,"130":1.1479085683822632,"131":8.175076484680176,"132":0.8105982542037964,"133":-2.391664743423462,"134":0.04222680628299713,"135":-2.1669528484344482,"136":2.920159339904785,"137":-1.0044280290603638,"138":3.2062838077545166,"139":0.9535230398178101,"140":-0.011390145868062973,"141":-1.4231210947036743,"142":-0.8347219824790955,"143":-1.6138969659805298,