{"type":"LSTM","options":{"inputSize":51,"inputRange":51,"hiddenLayers":[10,10],"outputSize":51,"decayRate":0.999,"smoothEps":1e-8,"regc":0.000001,"clipval":5,"maxPredictionLength":100,"dataFormatter":{"values":["oi","Olá! Como posso lhe ajudar?","ola","Oi! Tudo bem contigo? Espero que sim :) em que posso lhe ajudar?","hey","Ho, let's go! Posso lhe ajudar em algo?","hello","Hi there, how can I help? You would like to convert into english?","alguem ai?","Sempre quando sou ligado, claro!","oi tudo bem?","Opa! Tudo tranquilo por aqui, obrigado por perguntar :D no que posso lhe ajudar?","tudo bem?","Tudo na medida do possivel, no que posso lhe ajudar?","bom dia","Lhe desejo um ótimo dia também :D","oi bom dia","Olá! Um ótimo dia para você também :D","bom","Dia! XD","boa tarde","Boa tarde! Posso lhe ajudar em algo?","boa noite","Boa noite, amigo! Em que posso lhe servir?"],"indexTable":{"o":0,"i":1,"O":2,"l":3,"á":4,"!":5," ":6,"C":7,"m":8,"p":9,"s":10,"h":11,"e":12,"a":13,"j":14,"u":15,"d":16,"r":17,"?":18,"T":19,"b":20,"c":21,"n":22,"t":23,"g":24,"E":25,"q":26,":":27,")":28,"y":29,"H":30,",":31,"'":32,"P":33,"w":34,"I":35,"Y":36,"k":37,"v":38,"S":39,"D":40,"L":41,"ó":42,"é":43,"U":44,"ê":45,"X":46,"B":47,"stop-input":48,"start-output":49,"unrecognized":50},"characterTable":{"0":"o","1":"i","2":"O","3":"l","4":"á","5":"!","6":" ","7":"C","8":"m","9":"p","10":"s","11":"h","12":"e","13":"a","14":"j","15":"u","16":"d","17":"r","18":"?","19":"T","20":"b","21":"c","22":"n","23":"t","24":"g","25":"E","26":"q","27":":","28":")","29":"y","30":"H","31":",","32":"'","33":"P","34":"w","35":"I","36":"Y","37":"k","38":"v","39":"S","40":"D","41":"L","42":"ó","43":"é","44":"U","45":"ê","46":"X","47":"B","48":null,"49":null,"50":null},"characters":["o","i","O","l","á","!"," ","C","m","p","s","h","e","a","j","u","d","r","?","T","b","c","n","t","g","E","q",":",")","y","H",",","'","P","w","I","Y","k","v","S","D","L","ó","é","U","ê","X","B","stop-input","start-output","unrecognized"],"specialIndexes":[48,49,50]}},"input":{"rows":52,"columns":51,"weights":{"0":1.058091163635254,"1":0.23783880472183228,"2":-2.2137718200683594,"3":-0.8026430010795593,"4":-1.6099566221237183,"5":-0.1909293532371521,"6":2.282588481903076,"7":3.269962787628174,"8":0.267017662525177,"9":0.4498799741268158,"10":-4.477349281311035,"11":1.9886778593063354,"12":0.05425889790058136,"13":-4.445116996765137,"14":-3.428673028945923,"15":2.808637857437134,"16":-0.0672532245516777,"17":-1.2461129426956177,"18":-0.7496435642242432,"19":0.3687860369682312,"20":-4.7952189445495605,"21":-0.2184879332780838,"22":1.655799150466919,"23":-3.3656952381134033,"24":-0.45436200499534607,"25":0.5959540009498596,"26":-0.6191608309745789,"27":1.1324973106384277,"28":-0.01477866806089878,"29":0.022389546036720276,"30":-0.699704110622406,"31":0.6074880957603455,"32":-2.032599687576294,"33":0.6518468260765076,"34":-0.9478701949119568,"35":-1.020225167274475,"36":-0.7499298453330994,"37":-0.46001553535461426,"38":4.634965419769287,"39":-0.9531694650650024,"40":-0.16018089652061462,"41":0.963149905204773,"42":-2.1137728691101074,"43":-2.805237293243408,"44":-3.2192368507385254,"45":1.9567830562591553,"46":-2.0265114307403564,"47":1.2260181903839111,"48":-2.489356279373169,"49":3.027386426925659,"50":3.7214841842651367,"51":0.8650365471839905,"52":-4.8415913581848145,"53":0.23788215219974518,"54":1.1830018758773804,"55":0.07305651158094406,"56":-0.5985363721847534,"57":1.5628949403762817,"58":0.8232389688491821,"59":0.653944730758667,"60":1.9912517070770264,"61":-5.614599227905273,"62":-3.3565056324005127,"63":-2.0866668224334717,"64":-0.07694420218467712,"65":-3.7169296741485596,"66":2.5051324367523193,"67":-0.6458082795143127,"68":-1.7335569858551025,"69":-0.09725320339202881,"70":1.9910413026809692,"71":-0.7484768033027649,"72":-0.3071242868900299,"73":-0.7325274348258972,"74":0.2927507758140564,"75":0.8676095604896545,"76":-0.31699079275131226,"77":-1.3610879182815552,"78":-0.749815046787262,"79":0.20314595103263855,"80":-3.593596935272217,"81":-9.28515911102295,"82":0.1829495131969452,"83":0.4481562674045563,"84":3.5790152549743652,"85":-0.5754904747009277,"86":-0.3761819899082184,"87":-0.7742000222206116,"88":0.47318217158317566,"89":-1.6113916635513306,"90":0.9417277574539185,"91":1.1850675344467163,"92":0.5568816065788269,"93":2.1686623096466064,"94":-0.14027747511863708,"95":-1.7414019107818604,"96":-0.411380797624588,"97":-0.20330750942230225,"98":-0.6257185339927673,"99":1.536989450454712,"100":-2.9671342372894287,"101":-0.9462857842445374,"102":2.640773057937622,"103":-0.7844792008399963,"104":2.476611375808716,"105":0.9758621454238892,"106":1.1677303314208984,"107":-0.7591462731361389,"108":-0.5791457891464233,"109":-0.7126817107200623,"110":-0.6965029835700989,"111":1.2178010940551758,"112":-4.101748466491699,"113":-0.5382699370384216,"114":-0.06687604635953903,"115":-0.6052783131599426,"116":-6.608590602874756,"117":1.2588852643966675,"118":0.19431816041469574,"119":0.13771939277648926,"120":-1.4965721368789673,"121":-1.1128257513046265,"122":-0.6616796851158142,"123":0.8171647787094116,"124":1.2271510362625122,"125":-3.294931650161743,"126":1.7535557746887207,"127":-3.653337240219116,"128":1.5118211507797241,"129":0.7557386159896851,"130":-2.15356183052063,"131":-1.5641906261444092,"132":0.4179824888706207,"133":-1.1052862405776978,"134":-0.6930420994758606,"135":4.164989471435547,"136":-4.507673263549805,"137":0.15615209937095642,"138":0.42423978447914124,"139":-0.5634151101112366,"140":-0.9709729552268982,"141":-0.26092812418937683,"142":0.6545063257217407,"143":-1.018518090248108,"144":-2.5439016819000244,"145":-0.47710680961608887,"146":-0.018527647480368614,"147":-0.6991916298866272,"148":1.5312514305114746,"149":0.5321183800697327,"150":2.009617567062378,"151":-0.9906818866729736,"152":-2.375667095184326,"153":-9.773374557495117,"154":-5.049262046813965,"155":-4.1006388664245605,"156":2.7007830142974854,"157":-4.895235538482666,"158":-0.37583568692207336,"159":-1.370255708694458,"160":-2.7984607219696045,"161":2.274960994720459,"162":-1.683226227760315,"163":-8.596769332885742,"164":-6.641965866088867,"165":-0.8780275583267212,"166":0.6726265549659729,"167":-1.5214147567749023,"168":0.8354463577270508,"169":-0.1603870540857315,"170":-1.712289571762085,"171":1.7220937013626099,"172":-1.4905568361282349,"173":-4.526032447814941,"174":4.375168323516846,"175":0.19226683676242828,"176":-0.07285699248313904,"177":2.259298086166382,"178":1.1692068576812744,"179":-5.6393351554870605,"180":5.68733549118042,"181":0.6385011076927185,"182":-6.960443019866943,"183":-8.100263595581055,"184":5.355620384216309,"185":3.6782066822052,"186":-1.1602116823196411,"187":2.2766592502593994,"188":-0.339758962392807,"189":2.1265499591827393,"190":2.631171703338623,"191":2.548248529434204,"192":0.11731042712926865,"193":4.270088195800781,"194":2.2931392192840576,"195":5.551773548126221,"196":1.6757971048355103,"197":5.824428081512451,"198":3.985079288482666,"199":0.7388308048248291,"200":0.11388815194368362,"201":-4.553323745727539,"202":0.48336875438690186,"203":-5.743252277374268,"204":-2.6808066368103027,"205":-0.38756921887397766,"206":-1.3234379291534424,"207":0.0022550655994564295,"208":-2.1772332191467285,"209":2.0171310901641846,"210":-0.49473872780799866,"211":0.33331432938575745,"212":0.226128950715065,"213":-0.0634172335267067,"214":0.6461257338523865,"215":1.3408865928649902,"216":0.21168717741966248,"217":0.3914955258369446,"218":-1.5494376420974731,"219":0.046504538506269455,"220":-0.21642708778381348,"221":0.9146096110343933,"222":-0.06970248371362686,"223":-1.9745877981185913,"224":-0.07137612998485565,"225":-2.80415678024292,"226":5.884359359741211,"227":-0.14626137912273407,"228":0.9083843231201172,"229":1.0657867193222046,"230":0.5855236649513245,"231":-0.09678300470113754,"232":5.173817157745361,"233":-0.5869684815406799,"234":-0.4291072487831116,"235":-1.6770309209823608,"236":0.006290969904512167,"237":0.8665071725845337,"238":-0.020890114828944206,"239":1.3111250400543213,"240":-0.5643880367279053,"241":-1.6291821002960205,"242":1.8339574337005615,"243":1.1877249479293823,"244":-0.3145042955875397,"245":0.29906517267227173,"246":2.499796152114868,"247":0.07381900399923325,"248":0.3520992696285248,"249":-0.07308048754930496,"250":1.5426167249679565,"251":0.6471923589706421,"252":1.3510971069335938,"253":-2.5643863677978516,"254":-0.2421223670244217,"255":3.5640454292297363,"256":3.3002822399139404,"257":6.238966941833496,"258":-6.0802412033081055,"259":7.97182559967041,"260":3.185960054397583,"261":0.4909999668598175,"262":11.117929458618164,"263":-2.8311872482299805,"264":0.840997040271759,"265":-3.8296778202056885,"266":-2.2185332775115967,"267":8.183363914489746,"268":8.570608139038086,"269":-1.216917634010315,"270":0.8557751178741455,"271":-6.055484771728516,"272":2.1989405155181885,"273":-7.5323004722595215,"274":1.606945276260376,"275":-3.10184907913208,"276":-0.9089759588241577,"277":2.1793532371520996,"278":8.57470989227295,"279":5.52428674697876,"280":6.562829494476318,"281":5.8880228996276855,"282":0.49974310398101807,"283":10.833413124084473,"284":-4.24173641204834,"285":1.9971626996994019,"286":-4.251043796539307,"287":-4.283175468444824,"288":-13.23069953918457,"289":5.935661315917969,"290":15.873064994812012,"291":4.319047451019287,"292":9.799436569213867,"293":7.3454270362854,"294":2.2076497077941895,"295":-5.493942737579346,"296":5.3826069831848145,"297":-3.5791983604431152,"298":-4.478280067443848,"299":5.322977542877197,"300":-13.039383888244629,"301":0.42012178897857666,"302":1.9944875240325928,"303":-0.2967691719532013,"304":-11.571678161621094,"305":-0.3141745626926422,"306":-1.5298471450805664,"307":-0.5990521311759949,"308":4.29028844833374,"309":0.7973346710205078,"310":1.881468415260315,"311":2.759490966796875,"312":0.3040856122970581,"313":-0.04229004308581352,"314":2.2441258430480957,"315":6.609551429748535,"316":-1.9110114574432373,"317":3.342758893966675,"318":-4.692070484161377,"319":1.5926403999328613,"320":-3.0276572704315186,"321":6.331243991851807,"322":-1.1354596614837646,"323":0.785932183265686,"324":5.262765407562256,"325":-2.434936761856079,"326":-3.1736128330230713,"327":3.1818108558654785,"328":7.441863536834717,"329":7.839565277099609,"330":2.8236894607543945,"331":-7.23625373840332,"332":-1.0868664979934692,"333":2.7762866020202637,"334":2.0916199684143066,"335":0.983058512210846,"336":-1.4895273447036743,"337":0.9110065698623657,"338":6.220204830169678,"339":3.297177314758301,"340":1.0914955139160156,"341":4.1149582862854,"342":2.863680124282837,"343":-6.083735466003418,"344":1.9059805870056152,"345":-2.5948634147644043,"346":-0.7314002513885498,"347":3.4752109050750732,"348":-2.6104354858398438,"349":-6.859500885009766,"350":-0.00446530245244503,"351":1.5633950233459473,"352":-2.6280455589294434,"353":0.9676894545555115,"354":0.061500586569309235,"355":0.7430769205093384,"356":2.6210711002349854,"357":1.15507972240448,"358":3.187633752822876,"359":-2.8153798580169678,"360":-0.18471720814704895,"361":1.5147862434387207,"362":-3.3533501625061035,"363":-2.3062732219696045,"364":0.23404644429683685,"365":-3.2012007236480713,"366":2.3445286750793457,"367":-0.19067521393299103,"368":2.6140198707580566,"369":-2.335623025894165,"370":1.4588977098464966,"371":-1.424117088317871,"372":0.9385250806808472,"373":-0.3364095687866211,"374":-0.4622083008289337,"375":-0.1756466180086136,"376":0.4232715964317322,"377":0.008596082217991352,"378":-0.39006364345550537,"379":0.47341620922088623,"380":0.0051637692376971245,"381":0.0982968658208847,"382":-2.6414403915405273,"383":0.5109129548072815,"384":2.7249598503112793,"385":0.4504164159297943,"386":2.1327192783355713,"387":-2.233245849609375,"388":0.7860878109931946,"389":1.1489224433898926,"390":0.8956599831581116,"391":0.21882061660289764,"392":2.000136613845825,"393":0.14719049632549286,"394":0.9970260262489319,"395":1.0325907468795776,"396":-0.628837525844574,"397":0.2904319167137146,"398":0.47180959582328796,"399":-0.6205417513847351,"400":-0.8938074111938477,"401":-1.6007046699523926,"402":-0.4462965428829193,"403":4.392110347747803,"404":-2.8729870319366455,"405":-0.4619486927986145,"406":2.823115825653076,"407":-0.6177113652229309,"408":7.561762809753418,"409":-3.0039803981781006,"410":-6.1763224601745605,"411":0.6616272330284119,"412":10.27674674987793,"413":12.56088638305664,"414":7.858205318450928,"415":10.120504379272461,"416":7.56780481338501,"417":-2.3706698417663574,"418":-5.185290336608887,"419":7.134655952453613,"420":-4.13053035736084,"421":-5.588147163391113,"422":2.4080607891082764,"423":-9.093018531799316,"424":-10.91919231414795,"425":16.005725860595703,"426":-5.899260520935059,"427":0.6260439157485962,"428":-10.429230690002441,"429":-2.2721452713012695,"430":-3.2958598136901855,"431":14.913497924804688,"432":14.23571491241455,"433":8.012842178344727,"434":-4.6388092041015625,"435":11.256174087524414,"436":-0.7813098430633545,"437":-3.27105712890625,"438":0.6389251947402954,"439":15.87586498260498,"440":3.4973044395446777,"441":-10.376313209533691,"442":14.62087631225586,"443":9.529146194458008,"444":-0.8344376087188721,"445":1.727299690246582,"446":6.315578937530518,"447":8.708024978637695,"448":-6.099457263946533,"449":2.770024061203003,"450":2.043879508972168,"451":16.640527725219727,"452":-5.658473968505859,"453":5.472695350646973,"454":-1.1209938526153564,"455":0.7527002692222595,"456":0.8892936706542969,"457":-1.6355167627334595,"458":-5.787333011627197,"459":2.8342995643615723,"460":-2.9800496101379395,"461":-1.7712445259094238,"462":0.6551656126976013,"463":1.075883388519287,"464":-2.2388713359832764,"465":-0.8401485085487366,"466":0.15567708015441895,"467":-1.7407993078231812,"468":3.627628803253174,"469":0.547081470489502,"470":1.5851097106933594,"471":1.670228123664856,"472":-0.16908739507198334,"473":-2.554440975189209,"474":0.4676937460899353,"475":1.6601113080978394,"476":2.01385760307312,"477":-5.990664005279541,"478":3.658730983734131,"479":0.11071240156888962,"480":-1.7726532220840454,"481":0.8967891931533813,"482":-0.5274370312690735,"483":-2.7499823570251465,"484":0.3134033679962158,"485":-1.1631205081939697,"486":0.20348811149597168,"487":-0.595835268497467,"488":4.9381632804870605,"489":-2.089364767074585,"490":1.6199854612350464,"491":1.5333638191223145,"492":0.6776809692382812,"493":1.6950784921646118,"494":-0.9887810945510864,"495":4.819051265716553,"496":-0.4190237522125244,"497":2.1390132904052734,"498":-11.785622596740723,"499":0.6936740875244141,"500":3.038255214691162,"501":-1.9255698919296265,"502":-3.580916404724121,"503":1.0963068008422852,"504":-1.361035704612732,"505":2.1313042640686035,"506":-0.935395359992981,"507":1.8013205528259277,"508":6.881331920623779,"509":-1.3807631731033325,"510":-0.4257930517196655,"511":-1.9037039279937744,"512":0.5923401713371277,"513":-0.1448250263929367,"514":-1.6168140172958374,"515":1.8332096338272095,"516":1.0217100381851196,"517":-0.013892714865505695,"518":-0.688514232635498,"519":0.5305951833724976,"520":1.2065303325653076,"521":-6.129591464996338,"522":1.259673833847046,"523":-0.2032628059387207,"524":0.434216171503067,"525":1.5783904790878296,"526":-0.06694991886615753,"527":0.020840216428041458,"528":1.1165801286697388,"529":-0.21024192869663239,"530":2.013176679611206,"531":0.9025694131851196,"532":-2.632371425628662,"533":0.19203029572963715,"534":-1.8553853034973145,"535":4.240689277648926,"536":1.8852611780166626,"537":0.8917644619941711,"538":1.5849978923797607,"539":-0.9146626591682434,"540":-1.0904510021209717,"541":2.142338514328003,"542":1.0245388746261597,"543":1.3706308603286743,"544":0.1725105196237564,"545":-2.909921884536743,"546":1.0266677141189575,"547":0.8880155086517334,"548":-0.48117613792419434,"549":-0.23431243002414703,"550":0.26461660861968994,"551":1.1547306776046753,"552":1.5966683626174927,"553":0.7430327534675598,"554":1.2537486553192139,"555":0.7481802105903625,"556":-0.39192691445350647,"557":-0.6690834164619446,"558":-2.3646280765533447,"559":1.869078278541565,"560":0.7582724690437317,"561":1.290102243423462,"562":-2.8132026195526123,"563":-1.630795955657959,"564":0.01999472640454769,"565":-2.4791529178619385,"566":-0.8930128812789917,"567":-1.6016671657562256,"568":2.7374918460845947,"569":1.755545735359192,"570":-4.849432945251465,"571":-0.46930813789367676,"572":-1.1755120754241943,"573":-0.23346836864948273,"574":-2.0616531372070312,"575":3.866938829421997,"576":-0.1959833800792694,"577":-0.9887917637825012,"578":0.6925072073936462,"579":-0.8128198385238647,"580":-0.35361722111701965,"581":0.2691105604171753,"582":4.272408485412598,"583":3.2014434337615967,"584":-0.35292527079582214,"585":-0.5517551898956299,"586":0.08267822116613388,"587":0.36446622014045715,"588":0.13195715844631195,"589":-8.451245307922363,"590":0.4247344434261322,"591":2.510557174682617,"592":0.5354638695716858,"593":1.4731276035308838,"594":-2.451347589492798,"595":-2.0178401470184326,"596":-1.5922629833221436,"597":1.0036747455596924,"598":1.917427897453308,"599":-1.5530060529708862,"600":-0.3409072160720825,"601":0.6882134675979614,"602":-0.6286194920539856,"603":-1.7401864528656006,"604":-0.8678650856018066,"605":-1.8185704946517944,"606":-0.24363283812999725,"607":-2.327974557876587,"608":-2.2654378414154053,"609":-0.9493922591209412,"610":2.4550669193267822,"611":3.392873764038086,"612":-8.023431777954102,"613":-0.7484473586082458,"614":-4.480935096740723,"615":-0.4606335461139679,"616":-1.8102617263793945,"617":-2.5112454891204834,"618":0.24538172781467438,"619":0.3010371923446655,"620":5.331390380859375,"621":-0.14730851352214813,"622":0.7884261608123779,"623":0.020258594304323196,"624":4.072229862213135,"625":-3.579758405685425,"626":-6.672816753387451,"627":0.6959254145622253,"628":-3.170631170272827,"629":-1.0435936450958252,"630":3.0744307041168213,"631":-3.307478666305542,"632":-1.5426143407821655,"633":1.3166574239730835,"634":0.8427282571792603,"635":-5.353946208953857,"636":-3.219984292984009,"637":0.4007900059223175,"638":-2.678736686706543,"639":-0.11948704719543457,"640":0.7349615097045898,"641":-0.02449716068804264,"642":-1.9093633890151978,"643":-0.4356691837310791,"644":-0.3223877251148224,"645":6.220792293548584,"646":4.815499782562256,"647":0.29378893971443176,"648":-1.5007797479629517,"649":5.0956196784973145,"650":-0.06541354209184647,"651":4.104183197021484,"652":1.2212722301483154,"653":-3.173656702041626,"654":2.138122797012329,"655":-0.6588096618652344,"656":-4.290909290313721,"657":-4.94277811050415,"658":-0.537516176700592,"659":-0.3278936743736267,"660":-1.8259328603744507,"661":7.750001907348633,"662":-0.9251196384429932,"663":0.2674655616283417,"664":-1.3926458358764648,"665":-0.25049692392349243,"666":0.9585087895393372,"667":-3.231975555419922,"668":3.353806734085083,"669":0.10059957951307297,"670":1.170380711555481,"671":3.4566802978515625,"672":1.9961837530136108,"673":-0.8071349859237671,"674":0.481094092130661,"675":-0.7813416719436646,"676":-1.5691766738891602,"677":-4.180323123931885,"678":0.25997814536094666,"679":3.5466580390930176,"680":-0.15124797821044922,"681":-3.120711088180542,"682":-1.1248090267181396,"683":-0.9453606009483337,"684":-1.9379117488861084,"685":-0.16206903755664825,"686":0.9224150776863098,"687":-1.4648489952087402,"688":6.09411096572876,"689":-1.7871146202087402,"690":-0.6694318056106567,"691":1.5879483222961426,"692":-0.038016561418771744,"693":-0.9892283082008362,"694":-1.9517674446105957,"695":1.4075443744659424,"696":0.39086875319480896,"697":-1.106386661529541,"698":0.9023924469947815,"699":3.6436843872070312,"700":0.4267132580280304,"701":0.6132494807243347,"702":-0.11203888803720474,"703":0.6564571857452393,"704":3.4703640937805176,"705":0.13478173315525055,"706":0.025670869275927544,"707":1.4605402946472168,"708":-0.3902633786201477,"709":-2.426952838897705,"710":0.5876412391662598,"711":2.4749252796173096,"712":2.860461711883545,"713":0.0783376470208168,"714":0.5966017246246338,"715":-0.8016011714935303,"716":-1.2130205631256104,"717":1.9305267333984375,"718":-0.9562709331512451,"719":-0.7078843116760254,"720":0.19211313128471375,"721":0.8141064047813416,"722":0.43649017810821533,"723":-0.24496465921401978,"724":-2.555185317993164,"725":3.3595566749572754,"726":1.403510570526123,"727":-2.2930026054382324,"728":-3.3426671028137207,"729":0.30106011033058167,"730":0.5730740427970886,"731":-0.41756629943847656,"732":-3.1773242950439453,"733":-1.2563855648040771,"734":-0.09318917989730835,"735":-3.91843843460083,"736":-3.001984119415283,"737":0.44033417105674744,"738":-0.5490577816963196,"739":3.026681661605835,"740":-0.29724282026290894,"741":-0.3018089234828949,"742":1.3049460649490356,"743":1.283061146736145,"744":-4.228514671325684,"745":-1.2491486072540283,"746":-1.5679222345352173,"747":3.3533520698547363,"748":1.954815149307251,"749":1.6455180644989014,"750":3.239976167678833,"751":-1.4341139793395996,"752":-0.9913756251335144,"753":-1.1357983350753784,"754":-1.0794885158538818,"755":-0.5611575841903687,"756":1.4436566829681396,"757":-3.8109354972839355,"758":2.0998382568359375,"759":-1.080308437347412,"760":-1.3339860439300537,"761":1.060676097869873,"762":-0.4866447150707245,"763":-1.2571096420288086,"764":1.7540751695632935,"765":1.4069545269012451,"766":1.457965612411499,"767":2.7009174823760986,"768":-1.1747709512710571,"769":1.4301373958587646,"770":-7.150352954864502,"771":0.5645541548728943,"772":-0.3480335772037506,"773":3.42887544631958,"774":-1.5570032596588135,"775":-2.1413795948028564,"776":-3.573493480682373,"777":3.5990853309631348,"778":3.4466514587402344,"779":0.7707805037498474,"780":-3.3970608711242676,"781":-3.7252156734466553,"782":0.3753395676612854,"783":-0.6449224948883057,"784":-1.04829740524292,"785":5.124927043914795,"786":-4.058099269866943,"787":0.9879543781280518,"788":-5.429540634155273,"789":3.4129979610443115,"790":-3.1018388271331787,"791":-2.372880458831787,"792":-2.2815823554992676,"793":-2.4443063735961914,"794":0.7617843747138977,"795":1.2288163900375366,"796":-2.5637645721435547,"797":0.5986359119415283,"798":2.4675917625427246,"799":-0.7978941798210144,"800":-2.765101909637451,"801":1.2817978858947754,"802":3.0712738037109375,"803":-4.120545864105225,"804":1.52642822265625,"805":3.1091694831848145,"806":-2.7290728092193604,"807":7.84566068649292,"808":-0.34292492270469666,"809":3.636577606201172,"810":-5.060153961181641,"811":4.505443096160889,"812":2.704596519470215,"813":-2.932569980621338,"814":-6.85807991027832,"815":5.046332359313965,"816":4.774498462677002,"817":2.0894439220428467,"818":-0.5240875482559204,"819":0.2615630626678467,"820":-1.2163716554641724,"821":-1.3216606378555298,"822":-2.582486629486084,"823":-4.2577128410339355,"824":-3.519221305847168,"825":-5.065732002258301,"826":-0.8419032692909241,"827":0.1363970935344696,"828":0.6989519596099854,"829":3.6966712474823,"830":6.032783031463623,"831":0.4276108741760254,"832":3.35050368309021,"833":1.5835307836532593,"834":0.6842221021652222,"835":5.7436676025390625,"836":2.2094149589538574,"837":-0.9465494155883789,"838":-1.6453444957733154,"839":1.1156785488128662,"840":-0.35067200660705566,"841":2.6246347427368164,"842":1.215222954750061,"843":-0.2948194742202759,"844":3.564171075820923,"845":-2.6271049976348877,"846":-0.3096879720687866,"847":2.600919008255005,"848":3.446821928024292,"849":1.553629994392395,"850":4.486109733581543,"851":-1.1886690855026245,"852":0.7154580950737,"853":1.3461003303527832,"854":-0.4827934801578522,"855":3.2029922008514404,"856":0.8376525044441223,"857":-0.4099901020526886,"858":1.5299490690231323,"859":0.4708404242992401,"860":0.8028338551521301,"861":-3.1944832801818848,"862":3.599562644958496,"863":-4.861022472381592,"864":0.4899823069572449,"865":-1.9083455801010132,"866":-2.526315689086914,"867":-4.52755880355835,"868":1.9956575632095337,"869":-0.8927626609802246,"870":0.8550080060958862,"871":-0.974370002746582,"872":-0.8211294412612915,"873":-2.008157730102539,"874":-2.606722831726074,"875":1.6054229736328125,"876":2.367358684539795,"877":-4.102663516998291,"878":3.9750723838806152,"879":0.5815257430076599,"880":1.4663835763931274,"881":1.005384087562561,"882":-1.3008942604064941,"883":2.3533992767333984,"884":2.0460402965545654,"885":-2.1660053730010986,"886":-0.7064354419708252,"887":-0.5539202690124512,"888":3.2669501304626465,"889":-1.7520085573196411,"890":0.5019622445106506,"891":0.20293965935707092,"892":-0.34226155281066895,"893":-2.3266775608062744,"894":-0.9934375882148743,"895":0.8951593637466431,"896":-3.4511871337890625,"897":0.292624831199646,"898":1.0602291822433472,"899":-2.847320318222046,"900":-0.5082234144210815,"901":3.3478853702545166,"902":3.0931293964385986,"903":-1.0857387781143188,"904":2.9616663455963135,"905":1.506285548210144,"906":-1.1506356000900269,"907":-0.9018480181694031,"908":0.1884310096502304,"909":-2.031174898147583,"910":0.9483755826950073,"911":0.52500319480896,"912":0.5664386749267578,"913":1.1693315505981445,"914":-2.106218099594116,"915":-3.4655086994171143,"916":10.687341690063477,"917":-0.13044308125972748,"918":0.4679287075996399,"919":-1.7313416004180908,"920":-0.4244896173477173,"921":1.1277523040771484,"922":-0.9561328291893005,"923":1.8331555128097534,"924":-0.12995505332946777,"925":-0.14708904922008514,"926":0.439156711101532,"927":2.105639696121216,"928":0.21775346994400024,"929":1.5916783809661865,"930":-1.695550799369812,"931":-2.6403419971466064,"932":-2.7865710258483887,"933":-0.2374013364315033,"934":-2.3127195835113525,"935":0.07299157232046127,"936":-1.0071027278900146,"937":-0.13234375417232513,"938":0.13570821285247803,"939":-3.084630250930786,"940":-1.3798339366912842,"941":0.6074045896530151,"942":-0.2989729642868042,"943":-0.9699991345405579,"944":-2.8620591163635254,"945":0.8248410820960999,"946":-9.338357925415039,"947":-0.6490557193756104,"948":3.1419854164123535,"949":3.6496222019195557,"950":-0.15871497988700867,"951":-1.7210261821746826,"952":1.8143949508666992,"953":0.035523269325494766,"954":0.6418915390968323,"955":-1.5349723100662231,"956":-0.8854728937149048,"957":-1.2933474779129028,"958":1.6481218338012695,"959":0.44347989559173584,"960":-2.0529887676239014,"961":-0.38053953647613525,"962":-2.353450059890747,"963":0.181134432554245,"964":0.9402757883071899,"965":-0.6469599604606628,"966":0.10259968787431717,"967":0.26246577501296997,"968":0.843960165977478,"969":-3.5064215660095215,"970":2.4813992977142334,"971":-1.3370097875595093,"972":-0.18659406900405884,"973":4.595779895782471,"974":0.24999183416366577,"975":-0.14251244068145752,"976":1.607804298400879,"977":-5.3514933586120605,"978":2.0233914852142334,"979":-0.9775864481925964,"980":5.2239251136779785,"981":1.1097537279129028,"982":-2.184908628463745,"983":-0.6644168496131897,"984":2.2373008728027344,"985":0.32095012068748474,"986":-3.1349639892578125,"987":-4.094605922698975,"988":4.040716648101807,"989":1.4691760540008545,"990":4.041310787200928,"991":0.613122284412384,"992":0.7875373363494873,"993":0.6951353549957275,"994":-0.2838412821292877,"995":5.224682807922363,"996":-5.931379795074463,"997":1.2541760206222534,"998":-2.0306968688964844,"999":-0.5387468338012695,"1000":-0.7872632741928101,"1001":-1.0226805210113525,"1002":-2.632563591003418,"1003":-1.167512059211731,"1004":1.1134134531021118,"1005":-0.8235945701599121,"1006":-1.841011881828308,"1007":-0.5758885145187378,"1008":-2.544719934463501,"1009":-1.8612116575241089,"1010":-0.9241500496864319,"1011":-1.5579776763916016,"1012":0.13947346806526184,"1013":9.297316551208496,"1014":-0.5901132822036743,"1015":0.9944642186164856,"1016":-4.269443035125732,"1017":1.2592825889587402,"1018":1.5812276601791382,"1019":-6.7148871421813965,"1020":4.304660797119141,"1021":3.918229818344116,"1022":4.959426403045654,"1023":0.246189683675766,"1024":8.17375373840332,"1025":8.102764129638672,"1026":3.729268789291382,"1027":-1.5721150636672974,"1028":1.1577279567718506,"1029":7.163938522338867,"1030":-4.701256275177002,"1031":-5.263062953948975,"1032":0.18280702829360962,"1033":-1.5813019275665283,"1034":-11.137344360351562,"1035":-6.04921817779541,"1036":-8.79699420928955,"1037":5.484309673309326,"1038":-3.235084295272827,"1039":-14.468578338623047,"1040":2.1060757637023926,"1041":-3.668323040008545,"1042":7.973011493682861,"1043":6.630284786224365,"1044":-0.49807676672935486,"1045":1.9373401403427124,"1046":0.20372462272644043,"1047":0.04267444461584091,"1048":11.07909107208252,"1049":-3.3200511932373047,"1050":-2.811460494995117,"1051":0.42272523045539856,"1052":-8.027239799499512,"1053":-3.2282307147979736,"1054":-4.373095512390137,"1055":0.8009275794029236,"1056":2.956904172897339,"1057":-0.8824468851089478,"1058":-6.293854236602783,"1059":6.54971170425415,"1060":-0.937160849571228,"1061":-0.22677475214004517,"1062":-6.718559265136719,"1063":-1.2310659885406494,"1064":-3.5524823665618896,"1065":7.747332572937012,"1066":2.2858595848083496,"1067":6.01884651184082,"1068":-6.324790954589844,"1069":-12.23802661895752,"1070":7.385883808135986,"1071":-0.5224626064300537,"1072":-1.3635435104370117,"1073":1.3441071510314941,"1074":-0.276885449886322,"1075":4.968787670135498,"1076":2.417729616165161,"1077":-3.7647502422332764,"1078":4.991901874542236,"1079":0.0932898223400116,"1080":3.230879545211792,"1081":4.512754917144775,"1082":0.9190289378166199,"1083":-0.5259128212928772,"1084":-2.6317765712738037,"1085":3.3822264671325684,"1086":4.004735469818115,"1087":-0.4182449281215668,"1088":-4.72022819519043,"1089":-1.8677173852920532,"1090":1.671978235244751,"1091":-0.9074875712394714,"1092":-3.343709707260132,"1093":-1.7474157810211182,"1094":2.709005355834961,"1095":-2.0379462242126465,"1096":-0.10006177425384521,"1097":-2.5153186321258545,"1098":3.1544759273529053,"1099":-3.055403709411621,"1100":-0.503663182258606,"1101":-4.01746129989624,"1102":0.8586906790733337,"1103":0.9037898182868958,"1104":-0.4616674780845642,"1105":5.6971821784973145,"1106":-0.17403040826320648,"1107":2.7365987300872803,"1108":-3.0738048553466797,"1109":-1.553575038909912,"1110":-4.689416885375977,"1111":-2.937682628631592,"1112":-0.4793853461742401,"1113":-0.08673835545778275,"1114":-3.222433567047119,"1115":0.9001168608665466,"1116":1.2099417448043823,"1117":0.26369762420654297,"1118":-0.7355589866638184,"1119":5.538625240325928,"1120":-2.1102488040924072,"1121":-0.8198838233947754,"1122":1.5399508476257324,"1123":9.452460289001465,"1124":-3.7775919437408447,"1125":-3.5545098781585693,"1126":-2.103658437728882,"1127":4.163034915924072,"1128":-3.081773042678833,"1129":0.2370365858078003,"1130":-1.261281967163086,"1131":4.194761753082275,"1132":-0.8230747580528259,"1133":5.23913049697876,"1134":-1.2554757595062256,"1135":-7.4787445068359375,"1136":-8.87908935546875,"1137":-0.8612267971038818,"1138":-2.1286585330963135,"1139":-1.4950157403945923,"1140":7.695151329040527,"1141":-1.0043270587921143,"1142":1.2191323041915894,"1143":3.499488353729248,"1144":12.312021255493164,"1145":1.4648818969726562,"1146":-3.5617847442626953,"1147":-3.967536449432373,"1148":-2.8526995182037354,"1149":5.238781452178955,"1150":-8.342710494995117,"1151":0.4110677242279053,"1152":-3.0534191131591797,"1153":-3.9312703609466553,"1154":3.2318649291992188,"1155":-1.391916275024414,"1156":-4.427755355834961,"1157":10.037391662597656,"1158":2.029688835144043,"1159":-2.322746753692627,"1160":2.608893394470215,"1161":1.4304651021957397,"1162":-2.898775815963745,"1163":4.950467586517334,"1164":6.000621318817139,"1165":1.7208528518676758,"1166":-7.486547470092773,"1167":2.183497905731201,"1168":-3.4895989894866943,"1169":-0.3471875488758087,"1170":4.121779441833496,"1171":3.705756187438965,"1172":1.6456531286239624,"1173":-0.7204502820968628,"1174":-1.9295270442962646,"1175":-0.578866183757782,"1176":1.8332769870758057,"1177":3.4081616401672363,"1178":-1.8049405813217163,"1179":-1.4367231130599976,"1180":3.418335437774658,"1181":-1.638946294784546,"1182":-1.0208613872528076,"1183":6.216443061828613,"1184":-0.23885157704353333,"1185":-2.2734105587005615,"1186":1.0444103479385376,"1187":2.9396140575408936,"1188":-1.5006872415542603,"1189":0.44095349311828613,"1190":-0.2429824322462082,"1191":-4.415348529815674,"1192":-1.034934639930725,"1193":0.15851525962352753,"1194":5.454914569854736,"1195":-0.22845406830310822,"1196":5.420468807220459,"1197":0.3167538344860077,"1198":2.7200827598571777,"1199":1.5619523525238037,"1200":-3.3482987880706787,"1201":-4.501541614532471,"1202":-2.9764506816864014,"1203":-6.603884220123291,"1204":0.4845081865787506,"1205":2.4490373134613037,"1206":-2.136037826538086,"1207":6.789811134338379,"1208":-1.525575041770935,"1209":-0.6493179798126221,"1210":-0.5542588233947754,"1211":-2.1464359760284424,"1212":-1.5322520732879639,"1213":-2.4363346099853516,"1214":2.4758412837982178,"1215":-1.7441500425338745,"1216":-7.754431247711182,"1217":7.177961826324463,"1218":2.322704553604126,"1219":1.2311623096466064,"1220":1.8957085609436035,"1221":6.068394184112549,"1222":3.175642490386963,"1223":0.709694504737854,"1224":0.8459591865539551,"1225":-1.6740974187850952,"1226":0.35044974088668823,"1227":-0.3797275125980377,"1228":-0.30171510577201843,"1229":-0.5382632613182068,"1230":-2.0327486991882324,"1231":0.5178781747817993,"1232":-1.5551834106445312,"1233":0.39875328540802,"1234":2.5586743354797363,"1235":-0.17731451988220215,"1236":-0.7362425923347473,"1237":0.07488243281841278,"1238":7.707834243774414,"1239":-0.6822531819343567,"1240":-2.207791805267334,"1241":0.1687396913766861,"1242":1.159531593322754,"1243":0.7692741751670837,"1244":0.7570837736129761,"1245":-3.1391584873199463,"1246":0.6449826955795288,"1247":1.081087350845337,"1248":0.14727775752544403,"1249":2.367764949798584,"1250":-6.596139907836914,"1251":1.3185665607452393,"1252":1.804653525352478,"1253":-2.974212169647217,"1254":2.6784119606018066,"1255":1.4369337558746338,"1256":1.0331655740737915,"1257":0.8249214887619019,"1258":-0.35893380641937256,"1259":-3.793552875518799,"1260":0.8226839900016785,"1261":-1.3140767812728882,"1262":-3.8157033920288086,"1263":3.9646313190460205,"1264":-0.47961485385894775,"1265":-0.6792404055595398,"1266":-1.7133445739746094,"1267":-1.3913791179656982,"1268":3.240252733230591,"1269":-2.489245653152466,"1270":3.447733163833618,"1271":-0.3313956558704376,"1272":0.0435844361782074,"1273":-4.452160835266113,"1274":-1.5534858703613281,"1275":3.7428603172302246,"1276":-1.2383779287338257,"1277":-1.494255542755127,"1278":-1.2270970344543457,"1279":5.013784408569336,"1280":-0.7540695667266846,"1281":-5.318477153778076,"1282":1.5871388912200928,"1283":-3.956247568130493,"1284":1.5388106107711792,"1285":-0.9347227215766907,"1286":4.400922775268555,"1287":-0.3014683127403259,"1288":0.2743423283100128,"1289":-7.346014022827148,"1290":-0.4252930283546448,"1291":3.8832554817199707,"1292":-0.557334840297699,"1293":0.12079042196273804,"1294":1.9598972797393799,"1295":2.793861150741577,"1296":-3.980269193649292,"1297":1.3215365409851074,"1298":3.0641403198242188,"1299":1.0427954196929932,"1300":4.0332841873168945,"1301":0.831126868724823,"1302":0.707220733165741,"1303":6.0637664794921875,"1304":1.737131118774414,"1305":-2.4215312004089355,"1306":-1.609174132347107,"1307":-1.4105980396270752,"1308":0.6997937560081482,"1309":5.406834125518799,"1310":-1.6742374897003174,"1311":-0.2991076707839966,"1312":0.8017651438713074,"1313":0.6914321184158325,"1314":0.583483874797821,"1315":2.61494779586792,"1316":3.6447954177856445,"1317":-2.9014949798583984,"1318":2.425097703933716,"1319":0.7769913673400879,"1320":1.421742558479309,"1321":1.5177967548370361,"1322":0.1907946616411209,"1323":-0.1184099093079567,"1324":-0.7060258388519287,"1325":2.0990781784057617,"1326":-4.618383407592773,"1327":10.101675987243652,"1328":-1.5631892681121826,"1329":-6.404013633728027,"1330":-1.444145917892456,"1331":-7.479654788970947,"1332":-2.6344385147094727,"1333":-7.610777854919434,"1334":-3.3221993446350098,"1335":-4.254345893859863,"1336":7.562912464141846,"1337":2.2704927921295166,"1338":-1.4350404739379883,"1339":-5.409965515136719,"1340":-10.760302543640137,"1341":7.067994594573975,"1342":-10.033843040466309,"1343":11.501526832580566,"1344":-3.7083897590637207,"1345":4.642134666442871,"1346":5.997169017791748,"1347":-7.112015247344971,"1348":8.6912202835083,"1349":-8.70972728729248,"1350":-2.6714460849761963,"1351":4.182290077209473,"1352":-0.7880498170852661,"1353":-6.581817150115967,"1354":-11.235279083251953,"1355":-1.1073062419891357,"1356":2.2196238040924072,"1357":-10.949918746948242,"1358":-14.838703155517578,"1359":6.107183933258057,"1360":-1.8328900337219238,"1361":5.626821994781494,"1362":-0.5812817811965942,"1363":-5.6880316734313965,"1364":0.15442122519016266,"1365":-7.664962291717529,"1366":-1.347144365310669,"1367":-4.672018051147461,"1368":-0.41204574704170227,"1369":5.771410942077637,"1370":-12.223467826843262,"1371":-8.01662826538086,"1372":7.069445610046387,"1373":8.427567481994629,"1374":9.906913757324219,"1375":12.364694595336914,"1376":-3.9081153869628906,"1377":-6.311384201049805,"1378":-6.256871223449707,"1379":-9.026507377624512,"1380":3.890155076980591,"1381":-1.4839122295379639,"1382":-0.9212740659713745,"1383":5.575721263885498,"1384":2.382830858230591,"1385":3.577425479888916,"1386":5.508876800537109,"1387":0.795282244682312,"1388":-2.6014862060546875,"1389":-3.8440253734588623,"1390":1.1785496473312378,"1391":-6.8742570877075195,"1392":0.38262006640434265,"1393":2.6919960975646973,"1394":2.9579312801361084,"1395":3.831021785736084,"1396":-3.189321517944336,"1397":-5.594301700592041,"1398":-1.3990617990493774,"1399":-4.796769618988037,"1400":3.3424932956695557,"1401":-3.5241005420684814,"1402":-1.258279800415039,"1403":-3.141104221343994,"1404":7.011343002319336,"1405":-3.3766767978668213,"1406":0.48182937502861023,"1407":0.46027955412864685,"1408":-0.9864300489425659,"1409":4.555990695953369,"1410":2.403373956680298,"1411":7.47994327545166,"1412":-5.434235095977783,"1413":0.5600207448005676,"1414":-0.7431043982505798,"1415":0.7132406234741211,"1416":-0.27548515796661377,"1417":-3.1560940742492676,"1418":-2.5662612915039062,"1419":0.9204286932945251,"1420":-2.0129551887512207,"1421":-0.42005598545074463,"1422":-1.3341567516326904,"1423":2.935343027114868,"1424":-1.436586618423462,"1425":-8.871420860290527,"1426":1.6990101337432861,"1427":2.312441349029541,"1428":-4.5819878578186035,"1429":-8.489686012268066,"1430":-3.2577247619628906,"1431":-3.979093551635742,"1432":-6.92927360534668,"1433":-1.2123258113861084,"1434":2.0959763526916504,"1435":-1.1277581453323364,"1436":6.158255100250244,"1437":-2.4096827507019043,"1438":-1.0909422636032104,"1439":0.5565506815910339,"1440":-4.796593189239502,"1441":-1.0464802980422974,"1442":6.944268703460693,"1443":4.155879020690918,"1444":4.882717609405518,"1445":2.1713240146636963,"1446":0.5463086366653442,"1447":0.9053465723991394,"1448":5.832913875579834,"1449":4.272641181945801,"1450":-0.7543561458587646,"1451":-7.576848983764648,"1452":-6.965620517730713,"1453":-0.8469889760017395,"1454":-5.411098957061768,"1455":3.973180055618286,"1456":1.2032700777053833,"1457":0.026547102257609367,"1458":1.6936529874801636,"1459":-6.932781219482422,"1460":-0.5998597145080566,"1461":6.139169692993164,"1462":1.4224181175231934,"1463":-2.6904375553131104,"1464":6.349576473236084,"1465":-6.275035381317139,"1466":2.8225834369659424,"1467":5.516733169555664,"1468":5.068960189819336,"1469":4.711470603942871,"1470":-7.46129035949707,"1471":-6.3972249031066895,"1472":-0.23404692113399506,"1473":-0.2719833254814148,"1474":-0.9283522963523865,"1475":-1.9498010873794556,"1476":-5.795001983642578,"1477":-3.6539268493652344,"1478":-4.87601900100708,"1479":6.641970157623291,"1480":-0.5628218054771423,"1481":-0.6264306306838989,"1482":-1.8065847158432007,"1483":-0.28580915927886963,"1484":-6.274707794189453,"1485":-4.134058952331543,"1486":-0.40065184235572815,"1487":-2.1049556732177734,"1488":2.3670613765716553,"1489":-9.902693748474121,"1490":-1.8795453310012817,"1491":3.9261646270751953,"1492":12.111150741577148,"1493":-1.8838186264038086,"1494":-2.48781156539917,"1495":-2.370712995529175,"1496":3.0276808738708496,"1497":5.666163444519043,"1498":-0.1361743062734604,"1499":2.0625033378601074,"1500":-6.028526306152344,"1501":-12.260869026184082,"1502":-1.3439964056015015,"1503":2.6832523345947266,"1504":1.3712153434753418,"1505":-11.444501876831055,"1506":-7.944816589355469,"1507":0.19580599665641785,"1508":4.589581489562988,"1509":6.188622951507568,"1510":9.535209655761719,"1511":1.5539730787277222,"1512":7.097812652587891,"1513":-4.585158348083496,"1514":-11.64310359954834,"1515":8.530920028686523,"1516":5.942475318908691,"1517":-6.474844932556152,"1518":-5.207059383392334,"1519":2.0790178775787354,"1520":-6.05403995513916,"1521":4.133296966552734,"1522":-3.230923652648926,"1523":9.061022758483887,"1524":0.2146838754415512,"1525":-4.855368137359619,"1526":-3.775251626968384,"1527":-2.4639086723327637,"1528":-8.47280216217041,"1529":3.141704559326172,"1530":-4.358428955078125,"1531":0.9983240962028503,"1532":-2.7995190620422363,"1533":17.643056869506836,"1534":6.407553195953369,"1535":3.680325508117676,"1536":-4.264354228973389,"1537":0.36041852831840515,"1538":-12.77993106842041,"1539":7.312770843505859,"1540":-17.69647216796875,"1541":12.406761169433594,"1542":-9.701921463012695,"1543":-2.490457057952881,"1544":-1.0044493675231934,"1545":-1.990313172340393,"1546":-11.51242733001709,"1547":-0.4654707610607147,"1548":-8.110703468322754,"1549":7.319704055786133,"1550":5.129720687866211,"1551":-0.3866475820541382,"1552":4.9603190422058105,"1553":-4.000195503234863,"1554":0.9054130911827087,"1555":-4.858027458190918,"1556":-2.0956642627716064,"1557":-0.705626368522644,"1558":-2.209033966064453,"1559":4.775026321411133,"1560":-20.4354305267334,"1561":11.324121475219727,"1562":7.457851886749268,"1563":-7.559815883636475,"1564":6.87259578704834,"1565":-0.8059998154640198,"1566":-4.190576553344727,"1567":5.265166282653809,"1568":10.423232078552246,"1569":5.9815287590026855,"1570":3.815279960632324,"1571":1.1875085830688477,"1572":0.3917231857776642,"1573":0.5233753323554993,"1574":8.824392318725586,"1575":-1.1030391454696655,"1576":3.0245862007141113,"1577":-15.575678825378418,"1578":3.274620532989502,"1579":-6.736064910888672,"1580":-0.5312544107437134,"1581":-5.245555877685547,"1582":-5.9707231521606445,"1583":4.184145927429199,"1584":-11.088912010192871,"1585":1.2047028541564941,"1586":3.5376434326171875,"1587":3.2011935710906982,"1588":-2.762322187423706,"1589":-9.22437572479248,"1590":8.69022274017334,"1591":2.8681960105895996,"1592":-2.0990543365478516,"1593":3.60072660446167,"1594":3.2888894081115723,"1595":-1.7691632509231567,"1596":3.6559205055236816,"1597":5.6533379554748535,"1598":-0.4309822916984558,"1599":3.145551919937134,"1600":10.927124977111816,"1601":-5.484418869018555,"1602":3.0613884925842285,"1603":4.370083332061768,"1604":-5.046632289886475,"1605":5.235883712768555,"1606":-4.181341171264648,"1607":-7.456899166107178,"1608":2.415222406387329,"1609":9.249593734741211,"1610":-5.88210391998291,"1611":-2.568290948867798,"1612":-5.376010417938232,"1613":-1.1409579515457153,"1614":-4.129829406738281,"1615":-4.433815002441406,"1616":0.1727648228406906,"1617":1.1840089559555054,"1618":1.2566519975662231,"1619":-5.633389949798584,"1620":-6.231437683105469,"1621":13.482486724853516,"1622":-1.6409592628479004,"1623":-0.682611882686615,"1624":5.626921653747559,"1625":-0.23606084287166595,"1626":9.158411026000977,"1627":-11.008255004882812,"1628":1.2180346250534058,"1629":2.349149703979492,"1630":-10.594392776489258,"1631":-3.8000736236572266,"1632":-4.766699314117432,"1633":0.222084179520607,"1634":-6.006701946258545,"1635":0.8443492650985718,"1636":-1.6853067874908447,"1637":-2.9513638019561768,"1638":-0.7407281994819641,"1639":2.068598508834839,"1640":6.759705066680908,"1641":3.8926401138305664,"1642":-1.542238473892212,"1643":0.6911411285400391,"1644":-2.073394298553467,"1645":1.1538465023040771,"1646":3.8857264518737793,"1647":-4.505202770233154,"1648":-0.42536604404449463,"1649":1.5651462078094482,"1650":-1.7051535844802856,"1651":-0.35500669479370117,"1652":0.6635432839393616,"1653":-1.2052059173583984,"1654":0.9235385060310364,"1655":2.3479135036468506,"1656":-1.1639994382858276,"1657":-1.661289095878601,"1658":-0.06252751499414444,"1659":-0.23364907503128052,"1660":-1.3523662090301514,"1661":-3.0462543964385986,"1662":-3.582911252975464,"1663":-1.595724105834961,"1664":-1.9953629970550537,"1665":-0.45933660864830017,"1666":0.6904468536376953,"1667":5.488903045654297,"1668":2.7782299518585205,"1669":0.25642305612564087,"1670":-0.5100552439689636,"1671":-0.5954828858375549,"1672":0.02123541198670864,"1673":2.4982001781463623,"1674":1.065179467201233,"1675":-0.10864687711000443,"1676":-0.20909476280212402,"1677":-0.20289292931556702,"1678":-1.9819118976593018,"1679":-0.6068346500396729,"1680":1.6329295635223389,"1681":-0.5136240720748901,"1682":-3.214416980743408,"1683":3.011889696121216,"1684":-0.05123845487833023,"1685":15.049391746520996,"1686":-7.569595813751221,"1687":7.910088062286377,"1688":10.089510917663574,"1689":-0.732678234577179,"1690":-0.18539641797542572,"1691":-0.652204692363739,"1692":-1.208092451095581,"1693":2.025880813598633,"1694":-4.478285312652588,"1695":0.8444004654884338,"1696":2.3030145168304443,"1697":-16.2409610748291,"1698":10.552628517150879,"1699":-1.1623395681381226,"1700":-3.8466203212738037,"1701":10.156522750854492,"1702":8.127052307128906,"1703":-5.600263595581055,"1704":-10.725479125976562,"1705":-2.455826759338379,"1706":-0.19944295287132263,"1707":15.809126853942871,"1708":14.418993949890137,"1709":5.659962177276611,"1710":3.657275915145874,"1711":18.866647720336914,"1712":8.984644889831543,"1713":-2.518397092819214,"1714":-3.91874623298645,"1715":-4.559520244598389,"1716":2.9948477745056152,"1717":-0.31352633237838745,"1718":-3.894808292388916,"1719":-1.515593409538269,"1720":1.711021065711975,"1721":8.02507495880127,"1722":4.868350505828857,"1723":2.4000356197357178,"1724":-7.674701690673828,"1725":-3.3089795112609863,"1726":3.4166131019592285,"1727":-15.711002349853516,"1728":10.135992050170898,"1729":1.4818438291549683,"1730":-3.5681936740875244,"1731":-14.717294692993164,"1732":-0.35594290494918823,"1733":-4.952326774597168,"1734":-7.209714889526367,"1735":-8.590047836303711,"1736":4.797525405883789,"1737":3.811537504196167,"1738":-1.6666316986083984,"1739":-5.4228129386901855,"1740":-3.9481863975524902,"1741":6.3141913414001465,"1742":-5.581387519836426,"1743":-3.4792447090148926,"1744":1.4290889501571655,"1745":-1.7533444166183472,"1746":0.6048972606658936,"1747":2.2145626544952393,"1748":6.105101585388184,"1749":-0.9129089117050171,"1750":2.892974376678467,"1751":1.0469716787338257,"1752":9.527477264404297,"1753":-3.3020503520965576,"1754":-2.09482479095459,"1755":-2.584381103515625,"1756":-8.438179016113281,"1757":-3.7757606506347656,"1758":0.22666995227336884,"1759":-6.457907199859619,"1760":6.948488712310791,"1761":0.8282566666603088,"1762":4.427306652069092,"1763":1.3892995119094849,"1764":-5.200655460357666,"1765":4.2329511642456055,"1766":6.2596435546875,"1767":7.422630786895752,"1768":-3.740751028060913,"1769":-5.803918361663818,"1770":-2.4124691486358643,"1771":7.189333915710449,"1772":-3.465463638305664,"1773":3.640552520751953,"1774":2.59934139251709,"1775":3.8637452125549316,"1776":2.550302743911743,"1777":-2.5392909049987793,"1778":4.530609607696533,"1779":0.5686918497085571,"1780":1.3585929870605469,"1781":-5.319976806640625,"1782":-4.833540916442871,"1783":-3.666727066040039,"1784":-3.24069881439209,"1785":-24.020793914794922,"1786":3.069216251373291,"1787":6.871631622314453,"1788":-1.1331242322921753,"1789":-4.247976303100586,"1790":-4.902393341064453,"1791":1.3174638748168945,"1792":9.492640495300293,"1793":4.422556400299072,"1794":15.261383056640625,"1795":-1.7014687061309814,"1796":-0.03110320121049881,"1797":-5.968522071838379,"1798":2.8300859928131104,"1799":-1.5538169145584106,"1800":-17.246246337890625,"1801":-0.5474647879600525,"1802":-7.288802623748779,"1803":11.021434783935547,"1804":-6.2651047706604,"1805":-2.554924488067627,"1806":-4.003256797790527,"1807":21.51915740966797,"1808":10.414639472961426,"1809":-2.22306227684021,"1810":-1.3415497541427612,"1811":4.453032493591309,"1812":-12.425228118896484,"1813":4.424714088439941,"1814":-9.26026725769043,"1815":-17.88292121887207,"1816":-3.277193784713745,"1817":8.572681427001953,"1818":7.293097972869873,"1819":-1.3812569379806519,"1820":7.044537544250488,"1821":12.905383110046387,"1822":-5.752956390380859,"1823":12.228832244873047,"1824":2.022644281387329,"1825":-2.0839953422546387,"1826":-2.5181350708007812,"1827":13.310080528259277,"1828":6.354634761810303,"1829":5.093743324279785,"1830":-1.2049386501312256,"1831":5.880641460418701,"1832":12.23532485961914,"1833":7.145350933074951,"1834":-4.236992359161377,"1835":-15.841718673706055,"1836":-9.15314769744873,"1837":-3.325075149536133,"1838":0.8005067706108093,"1839":-6.339960098266602,"1840":4.589997291564941,"1841":5.347993850708008,"1842":-5.738232612609863,"1843":9.023268699645996,"1844":-7.714104175567627,"1845":6.993095397949219,"1846":-20.270950317382812,"1847":-1.6204596757888794,"1848":9.730508804321289,"1849":-3.2475035190582275,"1850":-21.639999389648438,"1851":-3.5346224308013916,"1852":-0.5591425895690918,"1853":0.7480701804161072,"1854":4.478604793548584,"1855":7.452423572540283,"1856":6.260323524475098,"1857":7.614178657531738,"1858":9.74739933013916,"1859":13.24498176574707,"1860":14.16341781616211,"1861":20.55592918395996,"1862":17.946712493896484,"1863":-1.5413867235183716,"1864":12.139766693115234,"1865":-11.422785758972168,"1866":9.379720687866211,"1867":1.4571629762649536,"1868":-15.660247802734375,"1869":-9.795281410217285,"1870":-8.094293594360352,"1871":22.0893497467041,"1872":5.337608814239502,"1873":-5.978372573852539,"1874":1.0749539136886597,"1875":-1.6233844757080078,"1876":1.2663943767547607,"1877":1.8850795030593872,"1878":1.2800805568695068,"1879":2.6274707317352295,"1880":-12.669068336486816,"1881":-12.181859970092773,"1882":-0.22983410954475403,"1883":5.074158191680908,"1884":-15.11376953125,"1885":-3.2802202701568604,"1886":-5.753135681152344,"1887":5.055988311767578,"1888":2.6812849044799805,"1889":-9.15359878540039,"1890":10.686654090881348,"1891":-0.8798918724060059,"1892":4.798820495605469,"1893":2.665562868118286,"1894":0.10240395367145538,"1895":-17.26167869567871,"1896":0.5449697375297546,"1897":9.421635627746582,"1898":4.665421009063721,"1899":-3.458322286605835,"1900":5.757579803466797,"1901":19.19902229309082,"1902":-3.0179789066314697,"1903":-3.9273123741149902,"1904":-1.5746217966079712,"1905":-5.406796455383301,"1906":-1.466368556022644,"1907":-5.461601734161377,"1908":14.025266647338867,"1909":-4.036589622497559,"1910":-1.0334550142288208,"1911":-8.567997932434082,"1912":0.6707835793495178,"1913":-3.4045934677124023,"1914":-1.0572516918182373,"1915":-0.5400664210319519,"1916":2.9753293991088867,"1917":4.1413164138793945,"1918":5.12420129776001,"1919":16.4239501953125,"1920":1.4786264896392822,"1921":-8.1724853515625,"1922":-2.7698187828063965,"1923":-5.707858562469482,"1924":3.3939709663391113,"1925":8.191471099853516,"1926":5.940227031707764,"1927":0.09209772199392319,"1928":-9.571915626525879,"1929":17.965810775756836,"1930":1.6848845481872559,"1931":11.328192710876465,"1932":-7.258177280426025,"1933":0.9680390357971191,"1934":14.151761054992676,"1935":2.8445370197296143,"1936":8.870512962341309,"1937":0.3910258412361145,"1938":4.229252815246582,"1939":-3.181518077850342,"1940":-8.739654541015625,"1941":2.460893392562866,"1942":-7.361388206481934,"1943":-3.257657766342163,"1944":6.757107734680176,"1945":8.668272972106934,"1946":-11.840590476989746,"1947":0.3138303756713867,"1948":4.121877670288086,"1949":-2.2091195583343506,"1950":-5.532283306121826,"1951":-5.06558084487915,"1952":10.32164478302002,"1953":8.621818542480469,"1954":7.875399589538574,"1955":-3.442268133163452,"1956":0.20929142832756042,"1957":-3.8729281425476074,"1958":-0.9520672559738159,"1959":1.4460581541061401,"1960":-18.553054809570312,"1961":9.491594314575195,"1962":-7.66644287109375,"1963":3.989224672317505,"1964":0.6506999135017395,"1965":-3.703946590423584,"1966":-2.645421028137207,"1967":10.611597061157227,"1968":13.614471435546875,"1969":19.48479652404785,"1970":7.695850372314453,"1971":6.086668014526367,"1972":9.190759658813477,"1973":-7.058126926422119,"1974":3.6543774604797363,"1975":12.370402336120605,"1976":8.840519905090332,"1977":1.671891689300537,"1978":-8.157010078430176,"1979":4.2231903076171875,"1980":-7.107250213623047,"1981":2.707512617111206,"1982":13.706202507019043,"1983":5.709507465362549,"1984":-2.137394666671753,"1985":-12.163127899169922,"1986":-1.4281747341156006,"1987":3.132187843322754,"1988":2.580932855606079,"1989":4.572293281555176,"1990":2.0900216102600098,"1991":-0.44267451763153076,"1992":3.048985481262207,"1993":-5.546505928039551,"1994":10.65692138671875,"1995":-2.3667855262756348,"1996":6.00184965133667,"1997":5.060172080993652,"1998":2.803370237350464,"1999":4.393959045410156,"2000":4.710722923278809,"2001":-1.4029464721679688,"2002":-3.1923279762268066,"2003":-0.826951801776886,"2004":11.040837287902832,"2005":8.72841739654541,"2006":1.788343071937561,"2007":-3.059548854827881,"2008":-3.26522159576416,"2009":3.226907253265381,"2010":4.386601448059082,"2011":5.739001274108887,"2012":-1.3464066982269287,"2013":-3.4957046508789062,"2014":0.9566484689712524,"2015":0.518435537815094,"2016":3.484708309173584,"2017":-0.12559159100055695,"2018":-3.9308650493621826,"2019":1.98970365524292,"2020":-0.2646661698818207,"2021":3.9533474445343018,"2022":-5.8131256103515625,"2023":-3.324708938598633,"2024":5.722442150115967,"2025":-4.235235691070557,"2026":-6.948038578033447,"2027":0.024886315688490868,"2028":-6.189750671386719,"2029":-3.4545867443084717,"2030":0.6506980657577515,"2031":1.8793927431106567,"2032":-7.804874897003174,"2033":-1.8094106912612915,"2034":-0.6802873015403748,"2035":6.191864013671875,"2036":-5.984486103057861,"2037":-2.7154605388641357,"2038":-1.7091885805130005,"2039":-1.3506910800933838,"2040":5.050299644470215,"2041":7.013740539550781,"2042":-8.818403244018555,"2043":-9.710566520690918,"2044":-8.892512321472168,"2045":-15.361058235168457,"2046":1.9685770273208618,"2047":-4.24491548538208,"2048":-0.954481840133667,"2049":-3.1558709144592285,"2050":1.5283384323120117,"2051":6.887809753417969,"2052":-10.726356506347656,"2053":6.06845760345459,"2054":9.570563316345215,"2055":-3.911139965057373,"2056":5.69928503036499,"2057":8.88330078125,"2058":-13.197957038879395,"2059":-4.328824520111084,"2060":-0.35465729236602783,"2061":-0.6082103848457336,"2062":4.667088985443115,"2063":-16.726655960083008,"2064":-9.989313125610352,"2065":-23.948518753051758,"2066":-12.424039840698242,"2067":-2.963484525680542,"2068":0.20940153300762177,"2069":-8.545035362243652,"2070":0.9719595313072205,"2071":-5.4101057052612305,"2072":-5.028266429901123,"2073":9.611567497253418,"2074":-9.75295352935791,"2075":1.652050495147705,"2076":-8.932394981384277,"2077":6.4864115715026855,"2078":3.0487563610076904,"2079":-10.006964683532715,"2080":2.960040807723999,"2081":-4.6838555335998535,"2082":-2.4789834022521973,"2083":2.219132661819458,"2084":3.042877197265625,"2085":0.4260232448577881,"2086":-5.559386253356934,"2087":-8.204034805297852,"2088":6.280653953552246,"2089":16.463882446289062,"2090":-4.726235389709473,"2091":0.03925417736172676,"2092":0.8880513906478882,"2093":8.092473983764648,"2094":-1.306516170501709,"2095":6.595575332641602,"2096":-0.8101903200149536,"2097":-3.500830888748169,"2098":3.969534158706665,"2099":-1.7938807010650635,"2100":4.940269947052002,"2101":10.085195541381836,"2102":3.1494998931884766,"2103":0.9229346513748169,"2104":-2.828084707260132,"2105":-13.615017890930176,"2106":-0.46012505888938904,"2107":-4.188961982727051,"2108":-3.531521797180176,"2109":0.3157114088535309,"2110":7.529332160949707,"2111":1.528009295463562,"2112":-3.9095029830932617,"2113":-3.6456494331359863,"2114":-2.1703040599823,"2115":13.422557830810547,"2116":-0.7635238170623779,"2117":3.243070125579834,"2118":-3.7508201599121094,"2119":5.9908881187438965,"2120":2.6471004486083984,"2121":-0.43384477496147156,"2122":-10.152580261230469,"2123":-2.567502498626709,"2124":3.4828741550445557,"2125":-6.241195201873779,"2126":1.9298326969146729,"2127":-3.8051939010620117,"2128":-5.530731201171875,"2129":-8.881260871887207,"2130":-4.685680866241455,"2131":5.096085071563721,"2132":0.9917638301849365,"2133":6.910439968109131,"2134":2.154827356338501,"2135":-9.1075439453125,"2136":-1.050142765045166,"2137":-5.015590190887451,"2138":8.975886344909668,"2139":4.273173809051514,"2140":0.944388747215271,"2141":-1.5350185632705688,"2142":-1.5208152532577515,"2143":-0.5551370978355408,"2144":-1.3441540002822876,"2145":11.265986442565918,"2146":-1.3246396780014038,"2147":4.050981521606445,"2148":-2.223736047744751,"2149":1.6501562595367432,"2150":-8.23499870300293,"2151":-10.124168395996094,"2152":4.683922290802002,"2153":-2.7994225025177,"2154":-1.6872056722640991,"2155":1.924668312072754,"2156":17.027246475219727,"2157":-14.567046165466309,"2158":0.8315808176994324,"2159":5.906257152557373,"2160":-4.7035298347473145,"2161":0.25252601504325867,"2162":14.156489372253418,"2163":4.266697406768799,"2164":-2.1537909507751465,"2165":-2.834074020385742,"2166":7.3222527503967285,"2167":-2.1803596019744873,"2168":-2.370035409927368,"2169":0.6305524110794067,"2170":-3.6222431659698486,"2171":1.998106598854065,"2172":-4.0982842445373535,"2173":0.5444437861442566,"2174":-14.795369148254395,"2175":-0.31726741790771484,"2176":3.43949294090271,"2177":-7.68035888671875,"2178":-2.4875967502593994,"2179":0.42577382922172546,"2180":0.48524782061576843,"2181":-1.514900803565979,"2182":-5.178134918212891,"2183":11.695890426635742,"2184":-9.57066535949707,"2185":-3.7198517322540283,"2186":23.044692993164062,"2187":7.391693592071533,"2188":14.015973091125488,"2189":-19.888608932495117,"2190":4.226675510406494,"2191":-2.5735254287719727,"2192":3.8637380599975586,"2193":-4.218780517578125,"2194":0.7683396935462952,"2195":-5.066272735595703,"2196":-1.3620548248291016,"2197":0.476345419883728,"2198":-2.346323251724243,"2199":-6.083948612213135,"2200":-1.2233738899230957,"2201":13.18964958190918,"2202":-2.6225695610046387,"2203":-6.577640056610107,"2204":8.41312026977539,"2205":1.8367433547973633,"2206":0.5896714925765991,"2207":-4.760157108306885,"2208":-10.859790802001953,"2209":7.753691673278809,"2210":6.092325687408447,"2211":-7.43499755859375,"2212":-6.638125419616699,"2213":-14.992612838745117,"2214":-9.986732482910156,"2215":9.169361114501953,"2216":-5.786262035369873,"2217":9.935784339904785,"2218":-2.6531660556793213,"2219":-6.802225589752197,"2220":-9.016934394836426,"2221":-2.032578229904175,"2222":3.7769694328308105,"2223":-11.504980087280273,"2224":-7.571866989135742,"2225":-0.6956658959388733,"2226":8.886713981628418,"2227":2.4518537521362305,"2228":-1.572303295135498,"2229":-4.640507698059082,"2230":1.8882365226745605,"2231":-2.6098647117614746,"2232":5.803864002227783,"2233":-1.6709332466125488,"2234":4.761964321136475,"2235":-8.279155731201172,"2236":-1.4189608097076416,"2237":-5.094847202301025,"2238":-3.1727778911590576,"2239":8.852486610412598,"2240":-2.628504514694214,"2241":3.978259325027466,"2242":0.11952986568212509,"2243":4.546306133270264,"2244":0.5248641967773438,"2245":-7.4128851890563965,"2246":7.703630447387695,"2247":-4.647242069244385,"2248":6.158273220062256,"2249":-2.619292974472046,"2250":2.665557384490967,"2251":-5.945405006408691,"2252":-5.596956253051758,"2253":0.9904651641845703,"2254":-0.6618579030036926,"2255":-11.581255912780762,"2256":4.574042320251465,"2257":1.4990559816360474,"2258":-8.085037231445312,"2259":3.2451863288879395,"2260":-5.5695366859436035,"2261":6.393303394317627,"2262":7.635721683502197,"2263":-3.5453097820281982,"2264":-0.4324427843093872,"2265":0.17306359112262726,"2266":3.799912929534912,"2267":-6.9783406257629395,"2268":0.5111203193664551,"2269":-0.07431389391422272,"2270":2.5244061946868896,"2271":-0.26254406571388245,"2272":8.991947174072266,"2273":5.212947368621826,"2274":-0.5954151153564453,"2275":-7.400787353515625,"2276":-10.530492782592773,"2277":5.422238826751709,"2278":-2.7214651107788086,"2279":0.14031586050987244,"2280":-4.055321216583252,"2281":-0.36580538749694824,"2282":-3.670320510864258,"2283":-4.5018310546875,"2284":4.466271877288818,"2285":-9.758421897888184,"2286":-14.772296905517578,"2287":-2.940251350402832,"2288":-5.193673610687256,"2289":0.7043442726135254,"2290":-10.369258880615234,"2291":1.4988619089126587,"2292":-5.449963092803955,"2293":3.6083755493164062,"2294":-6.195741176605225,"2295":-6.156214237213135,"2296":-2.9807939529418945,"2297":9.330122947692871,"2298":-8.557967185974121,"2299":10.739574432373047,"2300":-3.372073173522949,"2301":1.46980881690979,"2302":-5.823491096496582,"2303":-13.520228385925293,"2304":-0.061983685940504074,"2305":-9.338873863220215,"2306":2.8857922554016113,"2307":4.129344463348389,"2308":-13.022509574890137,"2309":4.2609734535217285,"2310":1.8898149728775024,"2311":3.164216995239258,"2312":-3.0226879119873047,"2313":5.311734199523926,"2314":1.2460026741027832,"2315":7.141536712646484,"2316":10.118138313293457,"2317":24.204818725585938,"2318":-4.105844020843506,"2319":-4.536336421966553,"2320":0.8929756879806519,"2321":11.359987258911133,"2322":16.102306365966797,"2323":13.971936225891113,"2324":-5.079625606536865,"2325":2.6468114852905273,"2326":-0.22806914150714874,"2327":-11.399895668029785,"2328":-7.218860149383545,"2329":10.446606636047363,"2330":1.2189923524856567,"2331":-2.6952121257781982,"2332":-6.684238910675049,"2333":-5.085367202758789,"2334":1.5641731023788452,"2335":9.388615608215332,"2336":0.7205512523651123,"2337":-4.788330078125,"2338":3.7413830757141113,"2339":-6.121685981750488,"2340":4.398146152496338,"2341":-13.632022857666016,"2342":2.054628610610962,"2343":-4.714555263519287,"2344":1.9319186210632324,"2345":9.051652908325195,"2346":-0.23181219398975372,"2347":-7.331999778747559,"2348":-14.274697303771973,"2349":4.594433784484863,"2350":-6.152370452880859,"2351":-4.611488342285156,"2352":5.020191192626953,"2353":5.705268859863281,"2354":-2.1864607334136963,"2355":-2.583585262298584,"2356":14.272987365722656,"2357":4.501389503479004,"2358":13.246880531311035,"2359":-4.502567291259766,"2360":-4.483448505401611,"2361":24.498567581176758,"2362":3.9097211360931396,"2363":10.675969123840332,"2364":-3.4036142826080322,"2365":-0.8403457999229431,"2366":-5.406404495239258,"2367":0.04043232649564743,"2368":15.996374130249023,"2369":-5.080927848815918,"2370":-3.871399402618408,"2371":14.663920402526855,"2372":7.998568058013916,"2373":3.5085062980651855,"2374":4.247669219970703,"2375":10.211954116821289,"2376":-11.21277904510498,"2377":-8.547699928283691,"2378":2.9552783966064453,"2379":-0.7428571581840515,"2380":17.363285064697266,"2381":-11.551026344299316,"2382":7.281363487243652,"2383":-12.147368431091309,"2384":2.778184413909912,"2385":-1.300271987915039,"2386":-28.717025756835938,"2387":7.863230228424072,"2388":-6.743595600128174,"2389":13.033858299255371,"2390":-5.209051132202148,"2391":-3.966979742050171,"2392":-10.687469482421875,"2393":6.031663417816162,"2394":3.874222993850708,"2395":4.65116024017334,"2396":-0.21593071520328522,"2397":-11.78051471710205,"2398":0.623836874961853,"2399":-11.717541694641113,"2400":10.247049331665039,"2401":11.479997634887695,"2402":11.640573501586914,"2403":-2.5623698234558105,"2404":7.3783416748046875,"2405":-17.12759017944336,"2406":8.0613374710083,"2407":-1.7008987665176392,"2408":-18.398303985595703,"2409":-3.0436923503875732,"2410":8.925695419311523,"2411":2.705517292022705,"2412":5.821385860443115,"2413":-9.990181922912598,"2414":-4.151055335998535,"2415":-3.839895725250244,"2416":-0.7745699882507324,"2417":-10.999101638793945,"2418":7.345850944519043,"2419":-6.495469093322754,"2420":0.3365807831287384,"2421":0.4017370641231537,"2422":2.4403107166290283,"2423":3.7924039363861084,"2424":3.79483699798584,"2425":-1.3055517673492432,"2426":15.964258193969727,"2427":-17.642065048217773,"2428":-5.020055294036865,"2429":0.6743111610412598,"2430":4.0456743240356445,"2431":-12.589715003967285,"2432":-6.677565574645996,"2433":4.154385089874268,"2434":6.426458835601807,"2435":-6.293394088745117,"2436":11.817790985107422,"2437":-8.418463706970215,"2438":14.760907173156738,"2439":2.2876546382904053,"2440":-0.23150219023227692,"2441":7.505960464477539,"2442":10.793755531311035,"2443":3.0824437141418457,"2444":-4.853845596313477,"2445":0.99143385887146,"2446":9.072569847106934,"2447":-11.701472282409668,"2448":-1.508650541305542,"2449":-0.5480760335922241,"2450":-0.03498586639761925,"2451":-4.4215779304504395,"2452":3.9166247844696045,"2453":4.096042156219482,"2454":3.5961480140686035,"2455":-1.3136847019195557,"2456":-9.908027648925781,"2457":10.292893409729004,"2458":13.680830955505371,"2459":1.570156455039978,"2460":0.6696082949638367,"2461":-3.269773006439209,"2462":-5.404367923736572,"2463":-4.473130702972412,"2464":-1.5315204858779907,"2465":-4.367212772369385,"2466":12.683897018432617,"2467":7.501450538635254,"2468":7.477774143218994,"2469":1.8693565130233765,"2470":1.3217424154281616,"2471":0.6657701134681702,"2472":-5.152724266052246,"2473":-7.8302836418151855,"2474":-4.307703018188477,"2475":-7.911977767944336,"2476":-5.242259979248047,"2477":0.06138181313872337,"2478":2.961789846420288,"2479":-7.533608436584473,"2480":-4.7200212478637695,"2481":-1.4706989526748657,"2482":6.225755214691162,"2483":-3.9514567852020264,"2484":-7.038491725921631,"2485":-9.338696479797363,"2486":-8.39024543762207,"2487":-6.8689045906066895,"2488":-2.4795682430267334,"2489":-3.2847278118133545,"2490":-3.038680076599121,"2491":1.0741424560546875,"2492":4.607633113861084,"2493":-7.734655380249023,"2494":-0.4671880602836609,"2495":5.717554092407227,"2496":4.343402862548828,"2497":2.8394596576690674,"2498":5.333870887756348,"2499":-0.5019297003746033,"2500":-1.9710911512374878,"2501":-1.1218587160110474,"2502":-1.1342796087265015,"2503":-0.13519316911697388,"2504":0.38811612129211426,"2505":-0.4932834804058075,"2506":3.524348020553589,"2507":0.28746166825294495,"2508":1.0557957887649536,"2509":0.22954101860523224,"2510":4.580254554748535,"2511":-0.8827280402183533,"2512":-0.8823010921478271,"2513":-2.1919102668762207,"2514":-1.3746381998062134,"2515":0.546901524066925,"2516":-2.041929006576538,"2517":-1.2302130460739136,"2518":-1.4760137796401978,"2519":-1.9537616968154907,"2520":-0.0238808523863554,"2521":-0.11655493080615997,"2522":0.9245374202728271,"2523":0.6566571593284607,"2524":0.8967655301094055,"2525":1.1796729564666748,"2526":0.2486010491847992,"2527":-0.04539527744054794,"2528":-2.6377580165863037,"2529":-0.10215476155281067,"2530":-2.061110496520996,"2531":0.8384679555892944,"2532":-3.0615100860595703,"2533":0.7786478400230408,"2534":0.45071864128112793,"2535":-0.6660239100456238,"2536":-0.6718674302101135,"2537":1.882483959197998,"2538":-2.093013048171997,"2539":-0.7399168610572815,"2540":0.03415936976671219,"2541":1.0343934297561646,"2542":0.560695469379425,"2543":-1.6347700357437134,"2544":-0.9096189737319946,"2545":-1.2827028036117554,"2546":1.8472715616226196,"2547":0.3213687837123871,"2548":-1.9006766080856323,"2549":0.5488808155059814,"2550":1.2225419282913208,"2551":1.104554295539856,"2552":-0.41068053245544434,"2553":-2.129754066467285,"2554":0.634957492351532,"2555":1.0377298593521118,"2556":0.1680023968219757,"2557":0.7071717977523804,"2558":4.854923248291016,"2559":-0.8612185716629028,"2560":1.1481631994247437,"2561":1.722227931022644,"2562":2.13842511177063,"2563":-0.39270254969596863,"2564":0.224076509475708,"2565":2.1110239028930664,"2566":-1.1500701904296875,"2567":-1.8441654443740845,"2568":-1.5824252367019653,"2569":-0.3270675241947174,"2570":2.069211006164551,"2571":1.294663429260254,"2572":3.155999183654785,"2573":-5.2147440910339355,"2574":-1.996896743774414,"2575":0.7475670576095581,"2576":0.044091638177633286,"2577":0.8165770769119263,"2578":3.2143282890319824,"2579":-0.42441076040267944,"2580":1.9923512935638428,"2581":-3.979830265045166,"2582":-2.5857179164886475,"2583":1.4051978588104248,"2584":-0.5750120878219604,"2585":1.8245153427124023,"2586":0.8314548134803772,"2587":-0.47735661268234253,"2588":-0.9280319809913635,"2589":-0.3554469347000122,"2590":1.6535953283309937,"2591":0.424013614654541,"2592":0.12094268202781677,"2593":1.6855584383010864,"2594":-3.6854844093322754,"2595":-0.5362144708633423,"2596":0.08811990171670914,"2597":1.3077664375305176,"2598":0.6476708054542542,"2599":-1.6682969331741333,"2600":-2.198732376098633,"2601":-0.01185418851673603,"2602":-0.03595837950706482,"2603":0.015561144798994064,"2604":0.0624440535902977,"2605":-0.05194682255387306,"2606":-0.0521518811583519,"2607":0.026129741221666336,"2608":-0.03129860758781433,"2609":0.02043597400188446,"2610":0.018863113597035408,"2611":-0.02936595492064953,"2612":-0.010170155204832554,"2613":0.038644254207611084,"2614":-0.04644758626818657,"2615":-0.017307598143815994,"2616":0.020017549395561218,"2617":0.03312701731920242,"2618":0.05253377929329872,"2619":0.03122996725142002,"2620":0.05881538242101669,"2621":0.044147077947854996,"2622":0.021935472264885902,"2623":-0.011768849566578865,"2624":-0.016052624210715294,"2625":-0.028893768787384033,"2626":-0.05348558351397514,"2627":-0.05725426971912384,"2628":0.02977052330970764,"2629":0.01999051682651043,"2630":0.014872165396809578,"2631":-0.05360737070441246,"2632":-0.03456568717956543,"2633":-0.0012647612020373344,"2634":0.011058381758630276,"2635":-0.028465503826737404,"2636":0.05422370880842209,"2637":0.0005346362013369799,"2638":-0.006156517658382654,"2639":-0.03488395735621452,"2640":-0.02254965901374817,"2641":-0.033485300838947296,"2642":-0.05467390641570091,"2643":-0.06001250445842743,"2644":-0.008843527175486088,"2645":0.02677423134446144,"2646":0.0434504896402359,"2647":-0.03303473815321922,"2648":-0.000004790808361576637,"2649":0.007925199344754219,"2650":-0.033540114760398865,"2651":-0.026841601356863976}},"hiddenLayers":[{"inputMatrix":{"rows":10,"columns":51,"weights":{"0":-0.08220114558935165,"1":-1.0424976348876953,"2":0.4622875154018402,"3":-0.7611008882522583,"4":-1.0292086601257324,"5":-0.43410614132881165,"6":-1.0893787145614624,"7":-0.8467223644256592,"8":0.17529858648777008,"9":1.058557391166687,"10":1.681370496749878,"11":0.40109169483184814,"12":-0.33929142355918884,"13":0.15020349621772766,"14":0.6229268312454224,"15":0.2838003933429718,"16":1.2446177005767822,"17":-0.6637360453605652,"18":1.620002031326294,"19":-1.230770230293274,"20":0.9661261439323425,"21":0.5110191106796265,"22":-0.7577341794967651,"23":0.8047361373901367,"24":-2.2568016052246094,"25":0.9411661028862,"26":0.9028015732765198,"27":0.00968353170901537,"28":-0.3925290107727051,"29":-1.5933407545089722,"30":0.5948143601417542,"31":0.5529022216796875,"32":0.8461272716522217,"33":1.2565878629684448,"34":-0.28575563430786133,"35":-0.32328006625175476,"36":0.3111496567726135,"37":0.12935799360275269,"38":-0.7836737632751465,"39":-1.1607699394226074,"40":0.2134767323732376,"41":-0.975646436214447,"42":1.0540560483932495,"43":-0.6042492389678955,"44":-0.015638260170817375,"45":0.687462568283081,"46":0.6061558723449707,"47":0.007471665274351835,"48":-1.370253086090088,"49":0.48500189185142517,"50":-1.4526039361953735,"51":-0.3846597671508789,"52":1.275614857673645,"53":0.1087370291352272,"54":-0.5675715208053589,"55":3.3798439502716064,"56":1.1797184944152832,"57":0.5900030136108398,"58":3.1676909923553467,"59":-1.1266809701919556,"60":2.479912519454956,"61":0.24210351705551147,"62":0.8555941581726074,"63":0.8543849587440491,"64":-1.8245441913604736,"65":-0.6797764301300049,"66":0.8074114322662354,"67":0.773224413394928,"68":3.2914552688598633,"69":1.1577463150024414,"70":0.39341723918914795,"71":0.5463380813598633,"72":0.15228410065174103,"73":0.18113453686237335,"74":-0.5239444971084595,"75":-0.735331118106842,"76":2.6527929306030273,"77":0.664893627166748,"78":-0.11401401460170746,"79":1.3633887767791748,"80":-4.168380260467529,"81":0.5723469257354736,"82":1.3473211526870728,"83":-0.0729677751660347,"84":-0.9531878232955933,"85":-0.44848936796188354,"86":-1.5629950761795044,"87":4.388509273529053,"88":0.41947293281555176,"89":0.7084974646568298,"90":-0.266359806060791,"91":-0.6679677367210388,"92":0.6970608234405518,"93":0.9058566689491272,"94":-4.218518257141113,"95":-0.29541972279548645,"96":0.20662921667099,"97":-0.6794074177742004,"98":-3.399718761444092,"99":-0.20641621947288513,"100":-0.1475159376859665,"101":-0.20015904307365417,"102":-0.43525516986846924,"103":-0.00044426193926483393,"104":0.8618320226669312,"105":0.8321018815040588,"106":0.3701244592666626,"107":-0.42232614755630493,"108":-0.4098064601421356,"109":0.23083369433879852,"110":0.964259684085846,"111":1.252210021018982,"112":0.9107040166854858,"113":0.7579419016838074,"114":0.0458240769803524,"115":0.0748814195394516,"116":-0.7892323732376099,"117":-1.223477840423584,"118":0.3087994158267975,"119":-0.5548297166824341,"120":1.8912277221679688,"121":-0.7710928320884705,"122":1.289638876914978,"123":-0.41678762435913086,"124":0.6221984624862671,"125":-1.0490975379943848,"126":-1.991551399230957,"127":-0.4212239980697632,"128":-1.6208213567733765,"129":-0.35032206773757935,"130":-0.3706105351448059,"131":0.5715740323066711,"132":-0.8474094867706299,"133":-1.2953838109970093,"134":-1.3719656467437744,"135":1.7616404294967651,"136":-1.3258836269378662,"137":-1.722503423690796,"138":1.093315601348877,"139":0.7471085786819458,"140":0.1092618778347969,"141":0.015201307833194733,"142":-2.22695255279541,"143":0.14188916981220245,"144":0.4589008390903473,"145":0.045869071036577225,"146":-0.22201743721961975,"147":0.5743944644927979,"148":0.501227855682373,"149":-1.9208940267562866,"150":0.44065579771995544,"151":-0.09345199912786484,"152":-1.2002664804458618,"153":-0.7562791705131531,"154":1.2753006219863892,"155":-0.6494410634040833,"156":-2.905623435974121,"157":1.4302932024002075,"158":0.041700445115566254,"159":-1.7822508811950684,"160":1.1081651449203491,"161":0.5044202208518982,"162":0.30733197927474976,"163":-1.6343644857406616,"164":0.34373602271080017,"165":0.7854867577552795,"166":-1.3572582006454468,"167":-1.5354499816894531,"168":-0.6761001944541931,"169":0.03202270716428757,"170":1.051355242729187,"171":0.9622669219970703,"172":0.626851499080658,"173":0.5321202874183655,"174":-0.49179041385650635,"175":1.047469973564148,"176":-1.5616763830184937,"177":2.528657913208008,"178":2.096848964691162,"179":1.104876160621643,"180":-0.9725874066352844,"181":-1.495908260345459,"182":0.5561792850494385,"183":0.39195019006729126,"184":1.9135655164718628,"185":0.037202104926109314,"186":-1.0652283430099487,"187":-0.005575923249125481,"188":0.6022482514381409,"189":1.0754046440124512,"190":0.9424435496330261,"191":1.142363429069519,"192":-0.35994595289230347,"193":1.5236797332763672,"194":0.37911584973335266,"195":0.7763577699661255,"196":-1.0963613986968994,"197":0.3101291358470917,"198":-0.2311745434999466,"199":-1.9270110130310059,"200":0.38028475642204285,"201":-2.259826898574829,"202":-0.739493191242218,"203":-0.793690025806427,"204":-2.498811721801758,"205":0.2914694547653198,"206":-0.18957941234111786,"207":-2.1782784461975098,"208":-0.5752971172332764,"209":3.4373323917388916,"210":2.9855360984802246,"211":-1.3349956274032593,"212":-1.1460609436035156,"213":1.1721510887145996,"214":0.5082261562347412,"215":-0.26374801993370056,"216":0.11593931913375854,"217":-0.21084921061992645,"218":-2.0949838161468506,"219":-0.7825914025306702,"220":0.4612843692302704,"221":-1.7552971839904785,"222":-1.2909839153289795,"223":-1.8761922121047974,"224":5.047921180725098,"225":1.9083110094070435,"226":0.6372024416923523,"227":1.025715947151184,"228":-0.5553342700004578,"229":2.2916557788848877,"230":-1.7603083848953247,"231":2.8228039741516113,"232":1.0535026788711548,"233":-1.3111281394958496,"234":0.10548165440559387,"235":-0.34160327911376953,"236":-1.894020438194275,"237":-1.197901725769043,"238":0.9575849771499634,"239":0.40088778734207153,"240":1.8149042129516602,"241":-1.0334177017211914,"242":0.5983261466026306,"243":-0.37764865159988403,"244":-1.8894524574279785,"245":-1.5944159030914307,"246":0.06938934326171875,"247":-3.2588202953338623,"248":1.6487091779708862,"249":-0.38160714507102966,"250":-1.7961488962173462,"251":1.7770485877990723,"252":2.668712615966797,"253":-0.685619592666626,"254":-0.7133210301399231,"255":-0.08326450735330582,"256":0.9025833606719971,"257":-0.3652147054672241,"258":-1.2506237030029297,"259":0.5040825009346008,"260":-0.5559415221214294,"261":1.6320359706878662,"262":2.158102512359619,"263":3.0854694843292236,"264":0.6490646600723267,"265":0.8145903944969177,"266":0.37273624539375305,"267":-3.2544407844543457,"268":1.7339940071105957,"269":-0.24939800798892975,"270":-0.6409479975700378,"271":1.6176375150680542,"272":-1.7359676361083984,"273":-0.26623350381851196,"274":-0.144346222281456,"275":-1.6545228958129883,"276":0.0966079831123352,"277":-1.102358341217041,"278":-1.9266353845596313,"279":-1.3244097232818604,"280":-0.698021650314331,"281":-0.05681046470999718,"282":-0.8195266127586365,"283":-0.8407241106033325,"284":-0.030147245153784752,"285":0.2895848751068115,"286":-0.46700331568717957,"287":0.651524543762207,"288":0.45676785707473755,"289":-0.5539332628250122,"290":-2.789313316345215,"291":-2.6456549167633057,"292":-1.4929561614990234,"293":-0.19112515449523926,"294":0.6346036791801453,"295":1.0075695514678955,"296":0.936272382736206,"297":0.14017583429813385,"298":-1.9161735773086548,"299":0.43386316299438477,"300":-1.0950093269348145,"301":-0.678883969783783,"302":-0.04101857170462608,"303":-0.1680770069360733,"304":0.4913484752178192,"305":2.478618860244751,"306":-1.2353450059890747,"307":1.2587242126464844,"308":-0.23100511729717255,"309":-1.4999639987945557,"310":2.7280473709106445,"311":-0.3341389000415802,"312":0.40171200037002563,"313":1.4323099851608276,"314":2.577638864517212,"315":1.3162999153137207,"316":-2.934100389480591,"317":-0.10462738573551178,"318":0.3757617771625519,"319":0.07233139127492905,"320":-0.4213416576385498,"321":-1.002237319946289,"322":1.8839746713638306,"323":0.09427371621131897,"324":2.6111536026000977,"325":-2.376677989959717,"326":-0.782834529876709,"327":0.36804232001304626,"328":-0.40461328625679016,"329":3.0071351528167725,"330":0.0725606232881546,"331":-0.8009514212608337,"332":1.5583888292312622,"333":1.3395649194717407,"334":0.9426398277282715,"335":-0.8332154154777527,"336":-1.051539659500122,"337":0.8111101388931274,"338":-1.8887832164764404,"339":0.4707578122615814,"340":-0.14336049556732178,"341":-1.6944788694381714,"342":2.4818732738494873,"343":-0.5323119759559631,"344":1.5973459482192993,"345":-2.482272148132324,"346":-2.340357780456543,"347":-0.620201051235199,"348":-2.543126106262207,"349":-6.653891563415527,"350":1.4641523361206055,"351":-0.30227988958358765,"352":0.5795217156410217,"353":-0.8037717938423157,"354":-1.659099817276001,"355":0.7753410935401917,"356":0.9323774576187134,"357":-1.8152180910110474,"358":-0.5636838674545288,"359":0.22528405487537384,"360":0.725143551826477,"361":-0.12663862109184265,"362":1.2540924549102783,"363":-0.08299300074577332,"364":-0.3560446798801422,"365":-0.6794511079788208,"366":2.957951307296753,"367":1.1714820861816406,"368":0.3584066331386566,"369":-0.21007022261619568,"370":-0.5600330233573914,"371":-0.02918638288974762,"372":0.17238712310791016,"373":0.48643532395362854,"374":-0.4568924605846405,"375":0.2024156004190445,"376":-1.335132122039795,"377":1.1303139925003052,"378":0.32032063603401184,"379":-0.22450502216815948,"380":-0.9378206133842468,"381":0.13878394663333893,"382":1.7294384241104126,"383":1.2513169050216675,"384":-0.2739761471748352,"385":-0.4585358500480652,"386":0.006433843169361353,"387":-0.3791613280773163,"388":0.21060627698898315,"389":0.9529370665550232,"390":-2.2308571338653564,"391":-0.07065088301897049,"392":0.8571770787239075,"393":0.4053517282009125,"394":2.211583137512207,"395":-0.693333089351654,"396":0.14885517954826355,"397":1.2678498029708862,"398":-0.24046997725963593,"399":0.19131116569042206,"400":-2.2044661045074463,"401":0.7539123296737671,"402":-1.5609394311904907,"403":-0.9824809432029724,"404":0.2675301432609558,"405":0.5202104449272156,"406":-0.4081196188926697,"407":-1.0964144468307495,"408":-1.6653869152069092,"409":-0.04561728984117508,"410":-1.576587200164795,"411":-2.44783091545105,"412":-0.2366119772195816,"413":0.41900014877319336,"414":1.8757268190383911,"415":2.9563536643981934,"416":-0.9726299047470093,"417":-1.1538512706756592,"418":-1.2736760377883911,"419":-0.020865987986326218,"420":-0.5198904275894165,"421":0.21660606563091278,"422":-0.840716540813446,"423":-0.11404913663864136,"424":0.5851483941078186,"425":2.834728479385376,"426":0.19766753911972046,"427":0.6622682809829712,"428":1.502626895904541,"429":-1.1206879615783691,"430":1.2139257192611694,"431":-3.495640516281128,"432":-1.012562870979309,"433":1.8212783336639404,"434":-0.15640133619308472,"435":2.9922783374786377,"436":-0.45609980821609497,"437":-2.7806646823883057,"438":-0.2299419641494751,"439":1.9174165725708008,"440":1.894504427909851,"441":0.322725385427475,"442":0.6993839144706726,"443":1.6581792831420898,"444":2.1562788486480713,"445":-0.14588816463947296,"446":0.8488386869430542,"447":0.6170030236244202,"448":0.5459116101264954,"449":1.7790955305099487,"450":2.2049295902252197,"451":0.007414764259010553,"452":1.1541067361831665,"453":-1.0689388513565063,"454":-0.33420437574386597,"455":-0.10620036721229553,"456":-0.43459632992744446,"457":-0.5238173007965088,"458":0.3525702953338623,"459":0.19809825718402863,"460":-0.46408867835998535,"461":-0.8918370008468628,"462":-3.4507148265838623,"463":0.7916517853736877,"464":1.3683192729949951,"465":1.0881526470184326,"466":0.9710931181907654,"467":-0.3084665536880493,"468":1.0290416479110718,"469":0.3535384237766266,"470":-0.7809945344924927,"471":1.0662736892700195,"472":-2.360708713531494,"473":-0.9757615923881531,"474":3.165475845336914,"475":-2.0677831172943115,"476":-0.26579898595809937,"477":0.7407471537590027,"478":-0.40933024883270264,"479":-3.2645933628082275,"480":-0.04465528577566147,"481":-0.5004629492759705,"482":1.1697537899017334,"483":2.02353572845459,"484":0.4430749714374542,"485":0.5773465037345886,"486":1.7030251026153564,"487":0.9372817277908325,"488":-0.3215356171131134,"489":-2.118027448654175,"490":-0.9266600608825684,"491":-0.4061630666255951,"492":-0.7950140237808228,"493":0.17694808542728424,"494":-0.3286406099796295,"495":-0.04138179123401642,"496":-1.0021542310714722,"497":-3.337458848953247,"498":-1.1281665563583374,"499":-0.2717430293560028,"500":1.5847073793411255,"501":-0.33957695960998535,"502":-2.6690425872802734,"503":-0.3157941699028015,"504":1.7128019332885742,"505":1.7000986337661743,"506":1.2944574356079102,"507":0.6558735966682434,"508":-0.04820607230067253,"509":0.7014530897140503}},"inputHidden":{"rows":10,"columns":10,"weights":{"0":-3.271083354949951,"1":4.705890655517578,"2":3.0972492694854736,"3":2.085679769515991,"4":-4.476407527923584,"5":3.6216530799865723,"6":7.1477508544921875,"7":3.26115083694458,"8":2.522768259048462,"9":6.000121593475342,"10":1.944745659828186,"11":-2.420121192932129,"12":3.040196657180786,"13":1.7454921007156372,"14":0.9212450981140137,"15":2.2104663848876953,"16":-1.6748942136764526,"17":3.482822895050049,"18":3.9996747970581055,"19":-5.245081901550293,"20":-4.671927452087402,"21":1.9442741870880127,"22":-0.2274683266878128,"23":1.7694659233093262,"24":0.4353201985359192,"25":3.650655746459961,"26":5.0692219734191895,"27":6.963143348693848,"28":6.116572380065918,"29":1.2335717678070068,"30":6.2390618324279785,"31":0.24771066009998322,"32":5.0934834480285645,"33":3.5726280212402344,"34":3.207098960876465,"35":7.818444728851318,"36":0.7840668559074402,"37":-1.8910768032073975,"38":5.737393379211426,"39":-7.362389087677002,"40":4.118950843811035,"41":4.512753963470459,"42":-3.673234701156616,"43":1.5303666591644287,"44":-1.6340179443359375,"45":-5.457618236541748,"46":1.339521884918213,"47":-1.7107388973236084,"48":-1.9418367147445679,"49":9.602828025817871,"50":4.143126010894775,"51":-1.2613694667816162,"52":-6.199726581573486,"53":-4.021000862121582,"54":-1.8703902959823608,"55":-3.5220425128936768,"56":5.170745849609375,"57":-2.48822021484375,"58":-1.5826071500778198,"59":3.793576717376709,"60":2.3982632160186768,"61":-2.2647297382354736,"62":11.270997047424316,"63":-1.3838642835617065,"64":-3.3719122409820557,"65":14.941627502441406,"66":-5.796111583709717,"67":-0.9241811633110046,"68":2.612633466720581,"69":-7.052216053009033,"70":1.0172200202941895,"71":6.703359603881836,"72":-3.157449722290039,"73":-5.5639519691467285,"74":2.651308059692383,"75":1.108883023262024,"76":-1.6441071033477783,"77":-3.9414584636688232,"78":1.929875135421753,"79":-0.320848673582077,"80":-0.09886690974235535,"81":-0.9244120121002197,"82":8.628339767456055,"83":-2.0919206142425537,"84":1.9267597198486328,"85":4.865320682525635,"86":2.592121124267578,"87":-5.678705215454102,"88":-4.248940467834473,"89":-6.56779670715332,"90":1.3263154029846191,"91":4.75131893157959,"92":-3.818070888519287,"93":-3.3437578678131104,"94":6.522754669189453,"95":0.9785289764404297,"96":-2.420159101486206,"97":0.5351420640945435,"98":-1.2665261030197144,"99":1.6883729696273804}},"inputBias":{"rows":10,"columns":1,"weights":{"0":-0.987645149230957,"1":-2.753222942352295,"2":-6.302968978881836,"3":2.0622024536132812,"4":-2.3427364826202393,"5":0.9894765615463257,"6":0.3051634132862091,"7":-0.4971710741519928,"8":2.0652968883514404,"9":-1.244436502456665}},"forgetMatrix":{"rows":10,"columns":51,"weights":{"0":-0.47709161043167114,"1":2.2358224391937256,"2":-2.0776541233062744,"3":-1.2761812210083008,"4":-2.7040352821350098,"5":0.7996817827224731,"6":-1.589766263961792,"7":0.05286099761724472,"8":-1.4522544145584106,"9":-0.7463619709014893,"10":-1.974238395690918,"11":0.033124178647994995,"12":3.4584901332855225,"13":0.3598991632461548,"14":1.5027934312820435,"15":-0.8711315393447876,"16":-3.630234718322754,"17":-1.4276715517044067,"18":-0.8556098937988281,"19":0.6811896562576294,"20":-0.6798377633094788,"21":1.3246386051177979,"22":-1.4705121517181396,"23":-3.0721447467803955,"24":-0.4656429588794708,"25":0.010911368764936924,"26":-2.909564733505249,"27":1.6582138538360596,"28":0.8193643689155579,"29":-1.6704983711242676,"30":-1.4692615270614624,"31":1.1950864791870117,"32":1.129499077796936,"33":-3.7815780639648438,"34":2.333578586578369,"35":2.2847161293029785,"36":2.0176517963409424,"37":-0.18412506580352783,"38":-1.4390859603881836,"39":-5.079787254333496,"40":-0.4861185550689697,"41":0.022714870050549507,"42":1.1058858633041382,"43":0.11410398036241531,"44":3.8979036808013916,"45":2.044857978820801,"46":-2.121032238006592,"47":-0.1304437667131424,"48":-0.2030489146709442,"49":-0.5369663238525391,"50":-1.3352856636047363,"51":-0.5902548432350159,"52":-0.5788922309875488,"53":0.6918272376060486,"54":-4.0710530281066895,"55":2.343238592147827,"56":-1.065623164176941,"57":-0.8738604187965393,"58":1.8131881952285767,"59":1.483895182609558,"60":-1.1534569263458252,"61":-1.814935564994812,"62":-0.25940337777137756,"63":-0.9426998496055603,"64":0.23849335312843323,"65":1.12122642993927,"66":-2.2220683097839355,"67":2.6643176078796387,"68":1.5696526765823364,"69":-1.2513322830200195,"70":4.42144250869751,"71":2.2215466499328613,"72":-2.1357262134552,"73":1.8798872232437134,"74":-3.2821602821350098,"75":0.752465009689331,"76":2.0031540393829346,"77":-0.6927465796470642,"78":-0.09130959957838058,"79":-0.18425936996936798,"80":-2.191866397857666,"81":-0.7484601736068726,"82":2.391045093536377,"83":-3.0311191082000732,"84":0.3952396810054779,"85":-2.72190523147583,"86":-1.0152347087860107,"87":0.1003962978720665,"88":0.26125648617744446,"89":-3.015916347503662,"90":-0.5045895576477051,"91":1.9125632047653198,"92":-5.869004249572754,"93":-1.4788000583648682,"94":-1.064831018447876,"95":0.7130709290504456,"96":1.068962812423706,"97":0.2811918556690216,"98":-1.1236240863800049,"99":0.17623436450958252,"100":-3.0632479190826416,"101":-1.2684324979782104,"102":-0.5820019841194153,"103":1.5022615194320679,"104":-0.49237924814224243,"105":4.135932922363281,"106":-0.7915530204772949,"107":2.163097858428955,"108":0.7255197167396545,"109":-2.6832661628723145,"110":0.06963668018579483,"111":1.7950937747955322,"112":0.9476206302642822,"113":-3.273303985595703,"114":-0.38343557715415955,"115":1.5818229913711548,"116":-3.0088112354278564,"117":-0.7863367199897766,"118":1.6897417306900024,"119":2.7089498043060303,"120":1.8618463277816772,"121":-0.9439821243286133,"122":-2.4761264324188232,"123":0.7495233416557312,"124":4.322729110717773,"125":-3.9716694355010986,"126":0.19500960409641266,"127":-1.6990835666656494,"128":-3.275604248046875,"129":0.39865195751190186,"130":0.609473466873169,"131":-0.6840335726737976,"132":-3.134855270385742,"133":2.0401499271392822,"134":-0.9958546757698059,"135":4.044060230255127,"136":-3.526677131652832,"137":0.40147241950035095,"138":0.9830774068832397,"139":1.8046038150787354,"140":4.30697774887085,"141":-1.2733180522918701,"142":-4.246359825134277,"143":0.1242910847067833,"144":-2.4717328548431396,"145":3.8941705226898193,"146":0.6325346827507019,"147":-0.5413222312927246,"148":-0.6114626526832581,"149":-1.1292351484298706,"150":0.039819907397031784,"151":4.311361312866211,"152":-4.809598922729492,"153":1.177898645401001,"154":0.5377435684204102,"155":-0.7052876949310303,"156":-2.803136110305786,"157":1.673171877861023,"158":-1.5785613059997559,"159":1.247681975364685,"160":0.7665291428565979,"161":0.9688625931739807,"162":-1.7576113939285278,"163":-0.7568162679672241,"164":0.18321600556373596,"165":-1.078535795211792,"166":2.1162328720092773,"167":0.5672262907028198,"168":1.5528264045715332,"169":-0.8883638978004456,"170":-3.394841194152832,"171":-2.7209181785583496,"172":2.3466968536376953,"173":2.2672488689422607,"174":0.8180530071258545,"175":-3.1015419960021973,"176":2.4726998805999756,"177":0.9900900721549988,"178":0.18051299452781677,"179":-1.6615201234817505,"180":0.626825749874115,"181":-1.6004207134246826,"182":-0.5747674703598022,"183":-1.1807726621627808,"184":-0.01369446236640215,"185":-0.030133232474327087,"186":-0.2456735223531723,"187":3.6957523822784424,"188":-1.0151499509811401,"189":-0.33317601680755615,"190":0.45374107360839844,"191":-1.4827710390090942,"192":0.5479960441589355,"193":1.0758761167526245,"194":-3.7937610149383545,"195":-0.394815593957901,"196":2.0411791801452637,"197":0.03890799358487129,"198":-0.06473031640052795,"199":2.0635924339294434,"200":1.5178025960922241,"201":2.9170286655426025,"202":0.4799206852912903,"203":-0.295780748128891,"204":-1.401687741279602,"205":-0.23930542171001434,"206":0.11809306591749191,"207":-2.289882183074951,"208":-0.02451353706419468,"209":1.1866133213043213,"210":1.857483148574829,"211":1.3402103185653687,"212":-1.0913196802139282,"213":1.4597575664520264,"214":-0.16448305547237396,"215":3.364417314529419,"216":0.6314149498939514,"217":-4.699816703796387,"218":-2.6272809505462646,"219":0.647005021572113,"220":0.17056800425052643,"221":3.1997931003570557,"222":-0.6410236954689026,"223":0.10233276337385178,"224":2.7154314517974854,"225":-1.3573039770126343,"226":-1.0980745553970337,"227":1.03212308883667,"228":0.8609864115715027,"229":1.9030157327651978,"230":-0.3599793612957001,"231":-1.2334719896316528,"232":-1.262494444847107,"233":2.0818824768066406,"234":-0.6682266592979431,"235":-1.4975005388259888,"236":-1.1196157932281494,"237":-1.7430860996246338,"238":-0.009202634915709496,"239":1.0811244249343872,"240":2.1790611743927,"241":1.106251835823059,"242":-1.6636998653411865,"243":2.663067579269409,"244":1.2171647548675537,"245":2.2126526832580566,"246":-0.47639864683151245,"247":0.8716738820075989,"248":4.443516731262207,"249":-2.604987144470215,"250":-1.496464729309082,"251":4.008092403411865,"252":0.9389696717262268,"253":1.6078205108642578,"254":1.0190931558609009,"255":-2.109311819076538,"256":-0.20982666313648224,"257":3.366262197494507,"258":-2.2405407428741455,"259":0.7814570069313049,"260":-2.2025513648986816,"261":-1.6242798566818237,"262":0.47251012921333313,"263":-3.285198450088501,"264":-0.2572437524795532,"265":-1.214471697807312,"266":-1.2555736303329468,"267":4.1907453536987305,"268":0.15587015450000763,"269":-0.3036796748638153,"270":-0.3220524489879608,"271":0.017460212111473083,"272":3.601854085922241,"273":-0.8329586386680603,"274":-0.6596359014511108,"275":-0.9725192785263062,"276":1.4383152723312378,"277":-0.49488869309425354,"278":0.5477621555328369,"279":-0.6518110036849976,"280":-0.07856375724077225,"281":0.664051353931427,"282":1.458832025527954,"283":3.821284294128418,"284":1.4550589323043823,"285":-0.66615229845047,"286":-2.016479969024658,"287":-1.0814568996429443,"288":2.4672794342041016,"289":0.7572727799415588,"290":-0.10652225464582443,"291":-3.8043689727783203,"292":1.8387151956558228,"293":-1.8462331295013428,"294":-0.37601467967033386,"295":2.513307809829712,"296":0.7600850462913513,"297":-0.9380821585655212,"298":-1.4765430688858032,"299":2.2101433277130127,"300":1.6157201528549194,"301":0.4729713797569275,"302":-0.29402250051498413,"303":0.7395637631416321,"304":0.1437869668006897,"305":1.6193957328796387,"306":-0.2251758873462677,"307":0.5556853413581848,"308":0.3655305504798889,"309":2.8211452960968018,"310":0.31032323837280273,"311":1.700998306274414,"312":-3.5393850803375244,"313":-0.21274545788764954,"314":2.79860782623291,"315":0.09027452021837234,"316":1.7947568893432617,"317":-1.2151105403900146,"318":1.697222352027893,"319":3.838369607925415,"320":0.39659425616264343,"321":1.1008570194244385,"322":0.6274879574775696,"323":0.08952264487743378,"324":0.5828121900558472,"325":-3.684910774230957,"326":-0.3269027769565582,"327":0.9316587448120117,"328":0.4859977960586548,"329":-1.8263760805130005,"330":1.0398573875427246,"331":0.8062794804573059,"332":-0.5182409286499023,"333":0.2733030915260315,"334":-2.6139259338378906,"335":1.6940302848815918,"336":0.22498641908168793,"337":-1.5204282999038696,"338":-0.7186407446861267,"339":0.9217731952667236,"340":0.691455066204071,"341":0.7044869065284729,"342":0.7610836029052734,"343":-0.07492216676473618,"344":-0.9290290474891663,"345":-0.6789370179176331,"346":5.089710235595703,"347":0.12496360391378403,"348":1.0950021743774414,"349":-0.21665430068969727,"350":-0.27204713225364685,"351":1.1978150606155396,"352":-0.5134307742118835,"353":0.7845768928527832,"354":-0.31724804639816284,"355":-0.8360037803649902,"356":0.2760155200958252,"357":0.19728979468345642,"358":-1.0862678289413452,"359":-0.7779646515846252,"360":2.2447915077209473,"361":3.3909082412719727,"362":0.19011229276657104,"363":0.29266977310180664,"364":-1.9248018264770508,"365":0.863012433052063,"366":-3.2226531505584717,"367":0.178481325507164,"368":0.2915622293949127,"369":3.7867226600646973,"370":-3.6631031036376953,"371":4.693666934967041,"372":-2.481969118118286,"373":0.5314119458198547,"374":-2.627737283706665,"375":-1.2101632356643677,"376":-0.7647339105606079,"377":-7.041239261627197,"378":-0.9002597332000732,"379":-2.829545736312866,"380":0.7090111374855042,"381":2.2150394916534424,"382":-3.2031421661376953,"383":0.2347603738307953,"384":0.7274617552757263,"385":-0.3040377199649811,"386":2.350802183151245,"387":1.277160882949829,"388":-0.8014348745346069,"389":-6.436270713806152,"390":2.5825035572052,"391":-1.0724647045135498,"392":0.3338009715080261,"393":-3.1040728092193604,"394":0.1565801352262497,"395":-5.17816162109375,"396":-0.8518050909042358,"397":1.8956550359725952,"398":0.40577244758605957,"399":-0.7927286028862,"400":3.3855807781219482,"401":-2.9968647956848145,"402":1.9287261962890625,"403":1.282174825668335,"404":-1.5103329420089722,"405":-0.052272453904151917,"406":2.203031539916992,"407":-1.0403705835342407,"408":0.3986964523792267,"409":2.569779396057129,"410":0.7788227200508118,"411":1.4733229875564575,"412":-0.8478145003318787,"413":-0.1973894089460373,"414":3.133864164352417,"415":5.067720413208008,"416":-0.16864338517189026,"417":-0.7729949951171875,"418":-0.738891065120697,"419":-0.010257367044687271,"420":-0.5645719170570374,"421":0.0410892479121685,"422":-4.30550479888916,"423":-1.1192551851272583,"424":1.6016920804977417,"425":-2.6659040451049805,"426":2.106388807296753,"427":2.629326105117798,"428":5.3759684562683105,"429":0.6266201734542847,"430":-0.8644835352897644,"431":-4.8615851402282715,"432":-2.4114155769348145,"433":-0.0404960960149765,"434":0.4776590168476105,"435":-1.87709641456604,"436":-2.7840704917907715,"437":1.7221438884735107,"438":2.54240345954895,"439":1.5750572681427002,"440":1.9037375450134277,"441":0.6088386178016663,"442":-1.2532882690429688,"443":-3.1698076725006104,"444":-1.2580602169036865,"445":3.023205280303955,"446":0.6144711971282959,"447":0.3646610379219055,"448":2.0559675693511963,"449":-2.138749837875366,"450":2.3047235012054443,"451":0.5259126424789429,"452":-0.33534425497055054,"453":-4.992343902587891,"454":0.37325435876846313,"455":-3.810049057006836,"456":0.5838856101036072,"457":2.813746452331543,"458":0.504601240158081,"459":-0.6837442517280579,"460":-0.2880575954914093,"461":-0.0619233101606369,"462":1.9996755123138428,"463":-2.270275354385376,"464":-0.02056821994483471,"465":3.0460445880889893,"466":0.4345264434814453,"467":4.048999309539795,"468":1.4892938137054443,"469":0.21859310567378998,"470":-0.409016877412796,"471":-0.983716607093811,"472":1.3300679922103882,"473":-0.6603653430938721,"474":-1.3941593170166016,"475":-2.1280102729797363,"476":-1.0587551593780518,"477":-4.645066738128662,"478":0.28130605816841125,"479":-2.7003672122955322,"480":-0.6653832793235779,"481":-3.167980670928955,"482":0.792306661605835,"483":1.5564161539077759,"484":-0.0006004513707011938,"485":-0.3027547597885132,"486":-3.8454201221466064,"487":-0.6823605298995972,"488":2.9322845935821533,"489":-1.4545329809188843,"490":-1.3838987350463867,"491":1.8800380229949951,"492":-0.7681415677070618,"493":3.338690757751465,"494":1.0189310312271118,"495":-1.6863927841186523,"496":0.7292659878730774,"497":2.37565279006958,"498":1.1630302667617798,"499":-2.167311906814575,"500":-0.13796158134937286,"501":0.19995683431625366,"502":-2.669900894165039,"503":-1.1092760562896729,"504":1.3118891716003418,"505":-0.24353474378585815,"506":3.15932297706604,"507":1.859083652496338,"508":-1.88427734375,"509":2.210921049118042}},"forgetHidden":{"rows":10,"columns":10,"weights":{"0":-8.668617248535156,"1":-0.5763460993766785,"2":3.143763303756714,"3":-1.537021279335022,"4":7.27618932723999,"5":-0.5181623101234436,"6":0.5509040355682373,"7":-2.8821444511413574,"8":4.800971508026123,"9":-6.989461898803711,"10":2.318777561187744,"11":-6.305738925933838,"12":13.259963989257812,"13":0.6764507293701172,"14":-3.4519970417022705,"15":-3.696105480194092,"16":6.185833930969238,"17":-0.6543510556221008,"18":-7.008186340332031,"19":2.1666364669799805,"20":7.169907569885254,"21":3.018073081970215,"22":11.239588737487793,"23":5.764298915863037,"24":-3.088411569595337,"25":-3.839857339859009,"26":14.71745777130127,"27":-0.827481746673584,"28":2.5369715690612793,"29":2.53204345703125,"30":-9.93335247039795,"31":-14.32388973236084,"32":6.482163429260254,"33":2.899176836013794,"34":-5.917292594909668,"35":-5.4056782722473145,"36":3.9444775581359863,"37":7.661677360534668,"38":-1.0267189741134644,"39":11.701532363891602,