{"type":"LSTM","options":{"inputSize":51,"inputRange":51,"hiddenLayers":[20,20],"outputSize":51,"decayRate":0.999,"smoothEps":1e-8,"regc":0.000001,"clipval":5,"maxPredictionLength":100,"dataFormatter":{"values":["oi","Olá! Como posso lhe ajudar?","ola","Oi! Tudo bem contigo? Espero que sim :) em que posso lhe ajudar?","hey","Ho, let's go! Posso lhe ajudar em algo?","hello","Hi there, how can I help? You would like to convert into english?","alguem ai?","Sempre quando sou ligado, claro!","oi tudo bem?","Opa! Tudo tranquilo por aqui, obrigado por perguntar :D no que posso lhe ajudar?","tudo bem?","Tudo na medida do possivel, no que posso lhe ajudar?","bom dia","Lhe desejo um ótimo dia também :D","oi bom dia","Olá! Um ótimo dia para você também :D","bom","Dia! XD","boa tarde","Boa tarde! Posso lhe ajudar em algo?","boa noite","Boa noite, amigo! Em que posso lhe servir?"],"indexTable":{"o":0,"i":1,"O":2,"l":3,"á":4,"!":5," ":6,"C":7,"m":8,"p":9,"s":10,"h":11,"e":12,"a":13,"j":14,"u":15,"d":16,"r":17,"?":18,"T":19,"b":20,"c":21,"n":22,"t":23,"g":24,"E":25,"q":26,":":27,")":28,"y":29,"H":30,",":31,"'":32,"P":33,"w":34,"I":35,"Y":36,"k":37,"v":38,"S":39,"D":40,"L":41,"ó":42,"é":43,"U":44,"ê":45,"X":46,"B":47,"stop-input":48,"start-output":49,"unrecognized":50},"characterTable":{"0":"o","1":"i","2":"O","3":"l","4":"á","5":"!","6":" ","7":"C","8":"m","9":"p","10":"s","11":"h","12":"e","13":"a","14":"j","15":"u","16":"d","17":"r","18":"?","19":"T","20":"b","21":"c","22":"n","23":"t","24":"g","25":"E","26":"q","27":":","28":")","29":"y","30":"H","31":",","32":"'","33":"P","34":"w","35":"I","36":"Y","37":"k","38":"v","39":"S","40":"D","41":"L","42":"ó","43":"é","44":"U","45":"ê","46":"X","47":"B","48":null,"49":null,"50":null},"characters":["o","i","O","l","á","!"," ","C","m","p","s","h","e","a","j","u","d","r","?","T","b","c","n","t","g","E","q",":",")","y","H",",","'","P","w","I","Y","k","v","S","D","L","ó","é","U","ê","X","B","stop-input","start-output","unrecognized"],"specialIndexes":[48,49,50]}},"input":{"rows":52,"columns":51,"weights":{"0":-0.8627272844314575,"1":-1.2324618101119995,"2":-1.1492364406585693,"3":-2.5418453216552734,"4":0.008069741539657116,"5":-0.787824809551239,"6":-0.5295481085777283,"7":3.1536571979522705,"8":-0.7332483530044556,"9":-1.3042439222335815,"10":-0.8297838568687439,"11":-1.9213231801986694,"12":2.143852710723877,"13":-0.5335231423377991,"14":1.0692909955978394,"15":-0.31566691398620605,"16":1.4068061113357544,"17":-3.386495590209961,"18":-2.7714269161224365,"19":0.18475066125392914,"20":-0.45364269614219666,"21":-1.2786850929260254,"22":0.718862771987915,"23":-3.8663594722747803,"24":-0.4282660186290741,"25":-2.595038890838623,"26":-3.0153608322143555,"27":0.9685887694358826,"28":-0.6784658432006836,"29":1.7990373373031616,"30":-0.7635714411735535,"31":3.390557050704956,"32":-1.6193809509277344,"33":-1.0806108713150024,"34":-0.2830490469932556,"35":-0.5911826491355896,"36":0.09342577308416367,"37":-1.4330006837844849,"38":-0.47140267491340637,"39":-0.45709189772605896,"40":1.8589774370193481,"41":1.9342732429504395,"42":0.023121727630496025,"43":-0.691574215888977,"44":-1.2023671865463257,"45":-2.4980309009552,"46":-0.7781473994255066,"47":0.6309357285499573,"48":-1.4754756689071655,"49":0.954787015914917,"50":-3.0106539726257324,"51":-1.4454549551010132,"52":1.6038826704025269,"53":0.26283344626426697,"54":0.7909770607948303,"55":-3.4376630783081055,"56":-0.8147647976875305,"57":-0.45748552680015564,"58":-0.777248203754425,"59":0.6210249662399292,"60":0.776197075843811,"61":0.16112078726291656,"62":-0.6657516956329346,"63":-0.6720741987228394,"64":-2.2864866256713867,"65":-0.22141601145267487,"66":-0.494255930185318,"67":-1.27913236618042,"68":0.5155525207519531,"69":-3.201864242553711,"70":3.5634195804595947,"71":2.7638347148895264,"72":-1.7826811075210571,"73":-1.1219792366027832,"74":1.5813038349151611,"75":0.5726361274719238,"76":-1.9252549409866333,"77":-0.9269812107086182,"78":0.5250824689865112,"79":-2.181997299194336,"80":0.298580527305603,"81":0.0400332510471344,"82":2.2313058376312256,"83":2.690505266189575,"84":1.0086287260055542,"85":0.017133917659521103,"86":0.477170467376709,"87":-0.1053534597158432,"88":1.2024463415145874,"89":-3.7710845470428467,"90":-2.747175455093384,"91":4.250908851623535,"92":2.3906054496765137,"93":-2.375291109085083,"94":0.9004549980163574,"95":-0.33586740493774414,"96":-3.682630777359009,"97":-6.533852577209473,"98":2.7958264350891113,"99":-3.2595057487487793,"100":-4.684868335723877,"101":-0.8193938136100769,"102":0.6082046627998352,"103":-2.9397952556610107,"104":-2.921773910522461,"105":-2.3517327308654785,"106":0.9805678725242615,"107":-1.9827104806900024,"108":-1.9481730461120605,"109":2.8862054347991943,"110":-1.180320382118225,"111":0.10361852496862411,"112":2.357372522354126,"113":2.0712521076202393,"114":-3.5909225940704346,"115":-0.5429773926734924,"116":0.6609503626823425,"117":1.0304288864135742,"118":2.88547682762146,"119":0.5401731133460999,"120":-1.7301932573318481,"121":-2.3414173126220703,"122":2.2812747955322266,"123":2.895162582397461,"124":3.2259695529937744,"125":0.8300822377204895,"126":1.239513635635376,"127":0.39514532685279846,"128":-1.1683346033096313,"129":-0.7049389481544495,"130":1.2466633319854736,"131":3.3815231323242188,"132":1.8273810148239136,"133":3.0357749462127686,"134":0.10107576102018356,"135":-0.3767348527908325,"136":1.3935574293136597,"137":-0.9633272886276245,"138":-2.038027763366699,"139":2.304378032684326,"140":1.8104251623153687,"141":-0.3303290009498596,"142":-0.41087809205055237,"143":-2.088885545730591,"144":2.5840930938720703,"145":1.100895881652832,"146":-3.6434524059295654,"147":-2.6477668285369873,"148":1.509671926498413,"149":1.436814785003662,"150":1.062381386756897,"151":1.6666289567947388,"152":0.27614858746528625,"153":1.8151911497116089,"154":1.5634366273880005,"155":-5.424477577209473,"156":-4.8483805656433105,"157":-1.6290936470031738,"158":-1.0546799898147583,"159":-3.4918930530548096,"160":-1.9396398067474365,"161":-4.7414727210998535,"162":-3.689652919769287,"163":1.133764624595642,"164":-0.5663042068481445,"165":-5.0053019523620605,"166":-0.011865248903632164,"167":2.3019180297851562,"168":-4.086583614349365,"169":1.8733766078948975,"170":3.899959087371826,"171":1.339404821395874,"172":3.6309123039245605,"173":2.6526362895965576,"174":0.7899248003959656,"175":-2.577183961868286,"176":1.4400677680969238,"177":0.8297616243362427,"178":0.1402910351753235,"179":0.38760140538215637,"180":2.644253969192505,"181":-0.974503755569458,"182":0.5020883083343506,"183":-0.6758970022201538,"184":3.2027993202209473,"185":3.6625871658325195,"186":2.969146251678467,"187":-2.521699905395508,"188":-4.349923133850098,"189":-1.8638570308685303,"190":2.054093360900879,"191":0.2931680381298065,"192":-2.5650291442871094,"193":2.673598527908325,"194":1.7709921598434448,"195":0.2125674933195114,"196":-1.8806458711624146,"197":-0.2870578467845917,"198":0.43602660298347473,"199":-2.0739006996154785,"200":-5.157325744628906,"201":-3.774406671524048,"202":1.0966359376907349,"203":-2.9910614490509033,"204":-3.4433658123016357,"205":-1.0013880729675293,"206":-0.427021324634552,"207":3.81892991065979,"208":-0.07861894369125366,"209":1.212365984916687,"210":1.2378076314926147,"211":-0.7069739103317261,"212":0.8462232351303101,"213":2.7105870246887207,"214":1.7790385484695435,"215":-5.245719909667969,"216":-1.1743372678756714,"217":-0.6524328589439392,"218":1.0323272943496704,"219":3.4822561740875244,"220":-4.617430210113525,"221":-0.4506211578845978,"222":-1.0723373889923096,"223":-1.7165056467056274,"224":3.38454008102417,"225":-4.167253017425537,"226":0.11136273294687271,"227":0.8317838907241821,"228":0.36558809876441956,"229":2.629931926727295,"230":-1.463614821434021,"231":-2.841444969177246,"232":0.10148582607507706,"233":-0.7457515001296997,"234":0.20821553468704224,"235":-0.2892184257507324,"236":0.2962321639060974,"237":0.029788732528686523,"238":-4.306756973266602,"239":1.6059809923171997,"240":3.537517786026001,"241":-1.2678310871124268,"242":-2.4159181118011475,"243":0.9752978682518005,"244":2.4567651748657227,"245":4.6112189292907715,"246":-2.601668357849121,"247":-1.1308684349060059,"248":1.210378646850586,"249":-0.9420006275177002,"250":-1.1113454103469849,"251":1.6690385341644287,"252":-0.8879973888397217,"253":-0.17257992923259735,"254":1.271733045578003,"255":-8.772769927978516,"256":2.827948808670044,"257":1.7786219120025635,"258":2.4437763690948486,"259":-1.5934091806411743,"260":2.2221107482910156,"261":-8.265960693359375,"262":3.1887621879577637,"263":0.13704723119735718,"264":3.4692189693450928,"265":-3.8518080711364746,"266":-11.75244140625,"267":-1.688991665840149,"268":4.112011909484863,"269":1.6727397441864014,"270":-3.1642565727233887,"271":-1.326630711555481,"272":1.988236427307129,"273":0.4294869005680084,"274":3.0338785648345947,"275":2.5780160427093506,"276":0.11896612495183945,"277":1.59173583984375,"278":1.1615760326385498,"279":-4.763711452484131,"280":-3.28523325920105,"281":9.2747220993042,"282":-5.870243072509766,"283":-3.4345381259918213,"284":-4.527859687805176,"285":5.551276206970215,"286":8.011451721191406,"287":-2.5882914066314697,"288":6.850743770599365,"289":-1.7730865478515625,"290":13.21560001373291,"291":0.3804285526275635,"292":-8.445087432861328,"293":-8.437152862548828,"294":2.1835744380950928,"295":0.7699827551841736,"296":9.236199378967285,"297":-5.360808849334717,"298":0.7702382802963257,"299":-2.527876377105713,"300":-10.012499809265137,"301":-2.122480869293213,"302":-9.196855545043945,"303":0.4514225125312805,"304":3.3217990398406982,"305":-7.755417823791504,"306":-2.0189905166625977,"307":-0.36898595094680786,"308":0.9695883989334106,"309":0.3479834198951721,"310":0.6005546450614929,"311":-0.5426656603813171,"312":-0.5844540596008301,"313":3.1480822563171387,"314":2.538578510284424,"315":-0.3419182300567627,"316":-0.2148294299840927,"317":-0.7497614026069641,"318":2.9002597332000732,"319":-1.5100723505020142,"320":1.0610655546188354,"321":3.1953437328338623,"322":1.046888828277588,"323":0.9550321102142334,"324":-1.2399414777755737,"325":5.876038551330566,"326":-0.1771024763584137,"327":-1.483851671218872,"328":-6.787302494049072,"329":-3.5518741607666016,"330":1.9838942289352417,"331":-9.599184036254883,"332":0.914018988609314,"333":-1.6250351667404175,"334":-1.3049384355545044,"335":3.0157365798950195,"336":0.489363431930542,"337":0.489350825548172,"338":-1.12844717502594,"339":0.09049960225820541,"340":0.21987567842006683,"341":1.4519373178482056,"342":1.9440282583236694,"343":-3.6854047775268555,"344":-1.1968380212783813,"345":0.7147808074951172,"346":0.4357590079307556,"347":4.641158103942871,"348":-1.2515122890472412,"349":-2.5943851470947266,"350":2.6056787967681885,"351":1.3672388792037964,"352":0.31385669112205505,"353":0.7485910654067993,"354":0.0697057843208313,"355":-1.2165436744689941,"356":0.4929942488670349,"357":3.283513307571411,"358":-0.05458923056721687,"359":-1.3178974390029907,"360":-1.0897589921951294,"361":-2.2971415519714355,"362":0.12046301364898682,"363":-0.2188340574502945,"364":0.8598899245262146,"365":-0.9441420435905457,"366":-1.4196724891662598,"367":-4.6896467208862305,"368":1.4727665185928345,"369":-5.30615234375,"370":1.0177265405654907,"371":-0.09055124968290329,"372":0.2673456370830536,"373":-3.3447890281677246,"374":2.432483196258545,"375":3.4029014110565186,"376":1.8451199531555176,"377":2.9282662868499756,"378":-2.1689565181732178,"379":-2.2957682609558105,"380":4.870657444000244,"381":0.29610946774482727,"382":-0.13914836943149567,"383":3.27111554145813,"384":0.6558064222335815,"385":0.3211369216442108,"386":-0.37538206577301025,"387":0.7256036996841431,"388":-0.6633248329162598,"389":1.0626296997070312,"390":0.9052495360374451,"391":-0.4860575497150421,"392":0.20975184440612793,"393":-2.1415367126464844,"394":1.9833742380142212,"395":1.1849726438522339,"396":0.09111163020133972,"397":0.9528672099113464,"398":-3.3762590885162354,"399":-1.1528149843215942,"400":0.018854161724448204,"401":0.6525818109512329,"402":-0.5646877884864807,"403":-3.679274082183838,"404":-1.4198065996170044,"405":0.5455437898635864,"406":3.2628848552703857,"407":-0.3113912045955658,"408":9.39287281036377,"409":2.563244104385376,"410":2.752272844314575,"411":-4.083249568939209,"412":15.813583374023438,"413":-9.617744445800781,"414":-3.3050143718719482,"415":7.562717914581299,"416":11.930438041687012,"417":-9.140604972839355,"418":-1.5958833694458008,"419":0.4853626787662506,"420":-1.560460090637207,"421":2.257195472717285,"422":4.251947402954102,"423":6.660151958465576,"424":5.199585437774658,"425":-4.549432754516602,"426":10.677845001220703,"427":-0.817980170249939,"428":-10.441218376159668,"429":10.502654075622559,"430":3.6433773040771484,"431":-3.395540237426758,"432":5.265430927276611,"433":10.0322847366333,"434":-16.35694694519043,"435":-9.460567474365234,"436":-0.45275723934173584,"437":15.200447082519531,"438":0.8964281678199768,"439":-5.316112995147705,"440":-10.018630981445312,"441":-9.755268096923828,"442":12.60618782043457,"443":-3.448268175125122,"444":2.9543051719665527,"445":-8.605555534362793,"446":6.711804389953613,"447":6.460752964019775,"448":-9.103019714355469,"449":-0.7328677773475647,"450":1.396584153175354,"451":-6.342257976531982,"452":-4.595523834228516,"453":10.215100288391113,"454":20.948143005371094,"455":17.160688400268555,"456":10.051423072814941,"457":5.376914978027344,"458":15.661213874816895,"459":0.8595712780952454,"460":0.1718321293592453,"461":0.1893976926803589,"462":1.0562289953231812,"463":0.26276692748069763,"464":1.8029086589813232,"465":-2.98018217086792,"466":-0.9694671034812927,"467":1.048763394355774,"468":-0.6261929869651794,"469":-2.481053590774536,"470":-1.0126063823699951,"471":-0.38966816663742065,"472":-0.48206469416618347,"473":-1.849457025527954,"474":2.591411828994751,"475":0.5387003421783447,"476":-0.9979750514030457,"477":-0.70644211769104,"478":-0.036126185208559036,"479":1.5479397773742676,"480":-1.5103938579559326,"481":0.825867235660553,"482":0.9584168195724487,"483":-0.04910408332943916,"484":0.5053373575210571,"485":1.6606866121292114,"486":-1.2988086938858032,"487":1.6522985696792603,"488":-3.890293598175049,"489":-1.180437684059143,"490":-1.6963918209075928,"491":1.9752815961837769,"492":-1.4017058610916138,"493":-2.1639537811279297,"494":0.005598242394626141,"495":0.4255371689796448,"496":0.4387471079826355,"497":-0.11085700988769531,"498":0.7600944638252258,"499":3.2140121459960938,"500":-0.5189998745918274,"501":-1.3888243436813354,"502":-0.5065265893936157,"503":-1.0141808986663818,"504":-0.3646450936794281,"505":-0.03564473241567612,"506":-1.2310508489608765,"507":1.3909944295883179,"508":0.38071557879447937,"509":-0.9215072989463806,"510":-1.7206530570983887,"511":0.5329281687736511,"512":2.255652904510498,"513":-3.6430084705352783,"514":-2.472672939300537,"515":-1.550730586051941,"516":2.456554889678955,"517":2.7211661338806152,"518":-0.8971843123435974,"519":4.145008087158203,"520":-3.1156535148620605,"521":4.07313346862793,"522":1.4597547054290771,"523":3.8311445713043213,"524":1.1101690530776978,"525":-3.0333688259124756,"526":-0.2577280104160309,"527":0.1468159407377243,"528":0.8117234706878662,"529":6.334672451019287,"530":-3.483231544494629,"531":-0.11097286641597748,"532":-1.8798753023147583,"533":-3.570221424102783,"534":-3.0836048126220703,"535":1.3778281211853027,"536":2.0309829711914062,"537":1.187703013420105,"538":-1.607439637184143,"539":3.2485523223876953,"540":-3.884101390838623,"541":0.6727001667022705,"542":1.194067120552063,"543":3.7755579948425293,"544":0.3643011152744293,"545":1.8671334981918335,"546":-0.8350536823272705,"547":0.9880588054656982,"548":2.3190205097198486,"549":-0.7853891849517822,"550":-0.23925884068012238,"551":-0.13114355504512787,"552":-1.1877532005310059,"553":3.872526168823242,"554":-2.333353281021118,"555":-6.495294094085693,"556":-0.8008795380592346,"557":-1.0604552030563354,"558":-1.0271680355072021,"559":-1.03961181640625,"560":-1.805075764656067,"561":-2.307645082473755,"562":-3.5155699253082275,"563":0.08782131969928741,"564":3.408623218536377,"565":2.054175615310669,"566":-0.8275247812271118,"567":-2.172605514526367,"568":-4.869847297668457,"569":5.095412731170654,"570":-3.632361888885498,"571":-1.847879409790039,"572":-1.8897855281829834,"573":3.1571602821350098,"574":-2.7114176750183105,"575":0.11672495305538177,"576":3.0200817584991455,"577":3.092851400375366,"578":-3.7117960453033447,"579":-4.751358985900879,"580":-1.259691834449768,"581":-3.462818145751953,"582":2.786834478378296,"583":-2.7122349739074707,"584":-4.46256685256958,"585":2.0669562816619873,"586":-1.7476286888122559,"587":-1.7567747831344604,"588":-5.666954517364502,"589":4.398983955383301,"590":1.1790261268615723,"591":3.016089916229248,"592":0.5799404978752136,"593":-3.7890076637268066,"594":-2.168149948120117,"595":-0.3964189291000366,"596":-0.6507659554481506,"597":-0.5716114044189453,"598":-1.9539942741394043,"599":-2.139174699783325,"600":3.011667013168335,"601":0.9293613433837891,"602":2.4080471992492676,"603":2.1328284740448,"604":-2.878758668899536,"605":1.5198990106582642,"606":2.19559907913208,"607":2.6575112342834473,"608":4.226049423217773,"609":5.737085342407227,"610":-3.6516659259796143,"611":-1.0442684888839722,"612":-4.7006144523620605,"613":-1.392337679862976,"614":1.4596331119537354,"615":-1.6494274139404297,"616":-3.539384126663208,"617":-3.5227394104003906,"618":2.5390219688415527,"619":0.42542240023612976,"620":0.10049115121364594,"621":1.9610174894332886,"622":-2.2630205154418945,"623":1.2097891569137573,"624":-5.692543029785156,"625":-0.3970639407634735,"626":3.71136474609375,"627":3.8293614387512207,"628":2.057147741317749,"629":7.604747295379639,"630":1.8476418256759644,"631":-1.3235636949539185,"632":4.761647701263428,"633":-2.6468803882598877,"634":-0.8153600692749023,"635":2.3805689811706543,"636":-0.11223527044057846,"637":-1.6618714332580566,"638":2.767698287963867,"639":0.468405157327652,"640":2.6895108222961426,"641":-6.094661712646484,"642":0.8198022246360779,"643":2.0687332153320312,"644":-0.4748108685016632,"645":1.1115546226501465,"646":0.635060727596283,"647":-0.29935309290885925,"648":-0.10447575151920319,"649":1.5234397649765015,"650":0.840043306350708,"651":4.787381172180176,"652":-4.004917144775391,"653":0.2862263023853302,"654":-0.15831595659255981,"655":0.3770807683467865,"656":-1.02235746383667,"657":-2.1591973304748535,"658":-5.225407600402832,"659":0.7196065187454224,"660":1.3455840349197388,"661":2.444370746612549,"662":-4.26207160949707,"663":1.4274522066116333,"664":-1.632019281387329,"665":-3.173266649246216,"666":-3.1400771141052246,"667":-0.6998088955879211,"668":-0.10050451755523682,"669":2.9116601943969727,"670":3.191818952560425,"671":-3.2008612155914307,"672":4.033238887786865,"673":3.32344651222229,"674":3.4307570457458496,"675":-2.437506914138794,"676":2.972587823867798,"677":-1.3960202932357788,"678":-2.3218765258789062,"679":1.4482020139694214,"680":-0.6252286434173584,"681":-1.9356873035430908,"682":-1.9605448246002197,"683":1.7003778219223022,"684":-0.35940974950790405,"685":1.5502967834472656,"686":0.22568735480308533,"687":-0.6493952870368958,"688":0.37006545066833496,"689":-1.316637635231018,"690":1.3475252389907837,"691":-1.7123440504074097,"692":-0.245749831199646,"693":0.060604412108659744,"694":0.22494687139987946,"695":-0.7934374213218689,"696":0.9834867119789124,"697":-2.5967161655426025,"698":1.6844213008880615,"699":-0.6562207341194153,"700":1.404548168182373,"701":1.365796685218811,"702":1.5983498096466064,"703":1.2400014400482178,"704":-0.5282393097877502,"705":-0.4699009656906128,"706":0.7585553526878357,"707":-2.2118728160858154,"708":-3.0193464756011963,"709":-1.7342077493667603,"710":0.15911349654197693,"711":0.3865474760532379,"712":-1.321362018585205,"713":2.8214898109436035,"714":1.4825204610824585,"715":-0.10327110439538956,"716":-1.8296469449996948,"717":0.40292394161224365,"718":-1.6162563562393188,"719":-2.769733428955078,"720":3.6113033294677734,"721":0.3570253849029541,"722":-0.7685139775276184,"723":1.2561531066894531,"724":-0.685792863368988,"725":-2.2489843368530273,"726":-1.2556489706039429,"727":0.4993022680282593,"728":-2.3847177028656006,"729":0.5498223900794983,"730":0.6110870242118835,"731":0.8159158825874329,"732":-2.162864923477173,"733":-0.08089402318000793,"734":3.285903215408325,"735":-2.131941795349121,"736":1.7539879083633423,"737":0.43616828322410583,"738":1.0752243995666504,"739":-1.1321401596069336,"740":0.5370555520057678,"741":2.197874069213867,"742":1.6904727220535278,"743":3.0069193840026855,"744":-0.6098394989967346,"745":-0.9308059811592102,"746":1.5214461088180542,"747":-1.0214024782180786,"748":1.150895118713379,"749":0.4265097379684448,"750":-4.052946090698242,"751":0.8262709975242615,"752":-3.093687057495117,"753":0.43524956703186035,"754":-4.21378755569458,"755":2.557671546936035,"756":0.7375823855400085,"757":0.6781522035598755,"758":-2.3186519145965576,"759":-0.6779943704605103,"760":-2.7190940380096436,"761":1.221203088760376,"762":1.8906911611557007,"763":-2.2711472511291504,"764":-0.675809919834137,"765":-5.8804521560668945,"766":-3.063520908355713,"767":3.8127834796905518,"768":-0.4485374093055725,"769":-2.9513275623321533,"770":-3.001096487045288,"771":3.0158538818359375,"772":2.1843326091766357,"773":2.7374677658081055,"774":1.1316626071929932,"775":3.575375556945801,"776":0.1439155489206314,"777":-3.302894115447998,"778":2.4235668182373047,"779":-0.7532883882522583,"780":-0.7608147263526917,"781":-4.012221813201904,"782":-1.9190421104431152,"783":-3.052150249481201,"784":-0.20342527329921722,"785":3.4933359622955322,"786":-3.108888626098633,"787":0.9292030930519104,"788":3.134706735610962,"789":-5.015361785888672,"790":-4.658693790435791,"791":-2.398568868637085,"792":3.007509708404541,"793":0.88837730884552,"794":5.141016483306885,"795":-5.4968767166137695,"796":-2.6280107498168945,"797":2.63642954826355,"798":-3.075737953186035,"799":-2.3172414302825928,"800":1.5592645406723022,"801":-0.9943695068359375,"802":2.2741715908050537,"803":-1.58074152469635,"804":-0.07234513759613037,"805":-1.1432067155838013,"806":-0.9865342974662781,"807":-4.395155906677246,"808":1.2170159816741943,"809":0.3977300524711609,"810":-6.493963718414307,"811":-1.7690807580947876,"812":-0.05465143918991089,"813":-1.2465343475341797,"814":-3.7210090160369873,"815":-2.635932445526123,"816":-1.2237833738327026,"817":-1.3729650974273682,"818":-1.3399200439453125,"819":-2.607295274734497,"820":1.1964367628097534,"821":-0.4713578522205353,"822":-0.5698558688163757,"823":-0.7353016138076782,"824":-0.03194454312324524,"825":-0.972743809223175,"826":-1.9562349319458008,"827":-1.9510489702224731,"828":7.447824001312256,"829":2.724290370941162,"830":-3.5257632732391357,"831":-1.225606083869934,"832":4.827483177185059,"833":-3.402526378631592,"834":-1.8989254236221313,"835":-0.14022867381572723,"836":-3.0326433181762695,"837":1.701949119567871,"838":0.9190872311592102,"839":-2.8062520027160645,"840":-0.5478925108909607,"841":0.7134565114974976,"842":-1.699760913848877,"843":-1.2773938179016113,"844":0.6666246652603149,"845":-1.3673160076141357,"846":0.3960758447647095,"847":-0.8876044154167175,"848":-0.9325871467590332,"849":-2.5021657943725586,"850":1.8430657386779785,"851":1.0030072927474976,"852":3.46376633644104,"853":-3.4975404739379883,"854":1.0246449708938599,"855":-0.4757465422153473,"856":0.7472390532493591,"857":-0.06762384623289108,"858":0.5087566375732422,"859":2.01322340965271,"860":-4.0941009521484375,"861":-1.070770263671875,"862":2.011317491531372,"863":1.2305855751037598,"864":-1.416349172592163,"865":4.751511096954346,"866":1.3079010248184204,"867":-0.18198084831237793,"868":-0.10757215321063995,"869":1.6415517330169678,"870":3.7381458282470703,"871":2.0044610500335693,"872":-0.449169397354126,"873":2.013357639312744,"874":-1.2176176309585571,"875":-0.12987077236175537,"876":1.5036777257919312,"877":1.120800256729126,"878":1.7392765283584595,"879":4.223536968231201,"880":0.10291935503482819,"881":-0.14991076290607452,"882":1.647100567817688,"883":-1.622840166091919,"884":-2.477187395095825,"885":1.5528287887573242,"886":-0.12967592477798462,"887":0.7549082636833191,"888":-2.1986966133117676,"889":-0.6611053943634033,"890":1.0067882537841797,"891":-1.2277075052261353,"892":-0.9045352935791016,"893":-1.4084433317184448,"894":-0.31610897183418274,"895":0.1302497386932373,"896":1.7191262245178223,"897":-0.612450122833252,"898":0.22389663755893707,"899":0.45678582787513733,"900":0.43785524368286133,"901":3.5287818908691406,"902":-1.8799381256103516,"903":-3.4759299755096436,"904":1.8559237718582153,"905":2.432267665863037,"906":0.021725881844758987,"907":-1.5586377382278442,"908":3.430100202560425,"909":-2.5120742321014404,"910":0.41478270292282104,"911":1.9108723402023315,"912":-0.426871120929718,"913":-0.15155121684074402,"914":0.5880770683288574,"915":3.3266773223876953,"916":-3.6263833045959473,"917":0.15958300232887268,"918":0.005987712647765875,"919":-1.636099934577942,"920":1.5436352491378784,"921":-3.207996368408203,"922":-0.8136876225471497,"923":-0.14538617432117462,"924":3.0307388305664062,"925":1.0854747295379639,"926":1.229712724685669,"927":1.6280202865600586,"928":2.3681960105895996,"929":6.869105815887451,"930":-0.382797509431839,"931":0.20449568331241608,"932":2.2811381816864014,"933":-0.025530867278575897,"934":1.4261226654052734,"935":-1.014898419380188,"936":3.4688315391540527,"937":0.72370845079422,"938":1.0505605936050415,"939":-0.23131294548511505,"940":-1.048012614250183,"941":1.994489073753357,"942":-2.7596235275268555,"943":-3.440256118774414,"944":-0.3564786911010742,"945":-0.9459130764007568,"946":-1.4092137813568115,"947":1.4326190948486328,"948":-2.3808705806732178,"949":1.7646868228912354,"950":-1.718385934829712,"951":-2.4990930557250977,"952":1.6180616617202759,"953":2.9424819946289062,"954":0.5706149935722351,"955":2.3160452842712402,"956":0.9111803770065308,"957":1.9959721565246582,"958":-0.49381327629089355,"959":-1.668062686920166,"960":-3.241480588912964,"961":-3.6549651622772217,"962":-1.7915855646133423,"963":-1.1235580444335938,"964":2.5614824295043945,"965":0.9556127190589905,"966":0.3882981538772583,"967":1.173690676689148,"968":2.4550349712371826,"969":1.1721267700195312,"970":1.8621548414230347,"971":-2.0059781074523926,"972":0.7394084334373474,"973":-0.432742178440094,"974":-4.755796909332275,"975":4.928561210632324,"976":3.0572004318237305,"977":-0.8998789191246033,"978":2.299917697906494,"979":-0.2920982539653778,"980":-4.049007892608643,"981":-2.079831838607788,"982":3.644573211669922,"983":0.07951855659484863,"984":2.349797248840332,"985":1.0888128280639648,"986":-2.4402856826782227,"987":-0.24308212101459503,"988":2.5157527923583984,"989":2.366239309310913,"990":-5.873614311218262,"991":-0.3895031809806824,"992":-1.0562652349472046,"993":-3.6082406044006348,"994":0.5591452121734619,"995":-3.464167356491089,"996":0.48590531945228577,"997":-1.9622292518615723,"998":-0.651733934879303,"999":-2.2150378227233887,"1000":-2.1887238025665283,"1001":-0.15736104547977448,"1002":2.1356120109558105,"1003":1.9773298501968384,"1004":1.4333559274673462,"1005":-2.8684651851654053,"1006":-0.6641939282417297,"1007":0.11972691118717194,"1008":3.9632740020751953,"1009":-3.6385390758514404,"1010":3.354165554046631,"1011":0.5661355257034302,"1012":-0.14638279378414154,"1013":-4.0116682052612305,"1014":-2.311666488647461,"1015":-0.8618043661117554,"1016":2.1621904373168945,"1017":1.7255823612213135,"1018":-4.133080959320068,"1019":3.8570187091827393,"1020":3.534799814224243,"1021":-4.412807464599609,"1022":-0.9928447604179382,"1023":-4.038227558135986,"1024":0.0022534108720719814,"1025":3.148550033569336,"1026":-1.6503432989120483,"1027":-8.089021682739258,"1028":0.7296364307403564,"1029":-0.12456188350915909,"1030":0.4566957354545593,"1031":4.000373363494873,"1032":2.4927666187286377,"1033":-1.787670612335205,"1034":-2.8931477069854736,"1035":-0.4773406684398651,"1036":5.0348286628723145,"1037":-12.72980785369873,"1038":-5.557521343231201,"1039":-1.386411428451538,"1040":-1.9402481317520142,"1041":1.1741138696670532,"1042":3.060662269592285,"1043":0.8627722859382629,"1044":4.47936487197876,"1045":0.9411620497703552,"1046":-2.1702096462249756,"1047":2.6535918712615967,"1048":0.23070034384727478,"1049":-0.742534339427948,"1050":-4.43405294418335,"1051":-9.853129386901855,"1052":6.687796592712402,"1053":-3.018634080886841,"1054":-5.263063430786133,"1055":4.49691104888916,"1056":-2.8401994705200195,"1057":-3.542229413986206,"1058":7.9303202629089355,"1059":-1.069922924041748,"1060":5.104334354400635,"1061":-5.377444744110107,"1062":3.9277753829956055,"1063":6.836859703063965,"1064":-3.0157594680786133,"1065":-1.9221347570419312,"1066":6.497867107391357,"1067":-5.279301643371582,"1068":0.34118252992630005,"1069":-2.344137668609619,"1070":1.1019679307937622,"1071":2.144221305847168,"1072":2.57841157913208,"1073":0.4203187823295593,"1074":2.345660924911499,"1075":-0.605002760887146,"1076":-1.790959358215332,"1077":0.8108274936676025,"1078":5.671307563781738,"1079":-1.9365622997283936,"1080":1.4344031810760498,"1081":0.3074286878108978,"1082":2.4388253688812256,"1083":-4.626080513000488,"1084":2.200756311416626,"1085":0.4091338813304901,"1086":1.9544222354888916,"1087":-4.053865432739258,"1088":4.677947521209717,"1089":0.3766416907310486,"1090":-0.8861935138702393,"1091":3.4707655906677246,"1092":-2.0803472995758057,"1093":3.5774011611938477,"1094":4.4821062088012695,"1095":-0.9067181944847107,"1096":1.8513611555099487,"1097":-0.35545679926872253,"1098":2.039842367172241,"1099":1.696465253829956,"1100":-1.741987943649292,"1101":0.31764569878578186,"1102":-3.1129326820373535,"1103":1.7452263832092285,"1104":1.0543373823165894,"1105":-2.106147289276123,"1106":4.523151874542236,"1107":3.4550838470458984,"1108":3.497976541519165,"1109":2.8856639862060547,"1110":3.5030667781829834,"1111":-1.3013200759887695,"1112":-3.7520720958709717,"1113":3.9643301963806152,"1114":0.8611330986022949,"1115":-0.2956019639968872,"1116":-3.2212274074554443,"1117":2.5677096843719482,"1118":1.1252764463424683,"1119":2.5357723236083984,"1120":-0.07151931524276733,"1121":-2.0484163761138916,"1122":-1.3228358030319214,"1123":-3.6262474060058594,"1124":4.934813976287842,"1125":6.212775707244873,"1126":-1.7905089855194092,"1127":-1.2740623950958252,"1128":3.830645799636841,"1129":2.93278169631958,"1130":3.7917802333831787,"1131":3.028276205062866,"1132":-4.010554313659668,"1133":4.163227081298828,"1134":2.906611204147339,"1135":7.083471775054932,"1136":-3.2692043781280518,"1137":4.808812141418457,"1138":-1.0706076622009277,"1139":2.937331199645996,"1140":6.541550159454346,"1141":0.9814772605895996,"1142":-2.8064446449279785,"1143":1.4487764835357666,"1144":0.37682899832725525,"1145":1.8631846904754639,"1146":1.427271842956543,"1147":-0.671916127204895,"1148":-1.4977811574935913,"1149":-9.7052583694458,"1150":2.928705930709839,"1151":0.7365354895591736,"1152":9.94028091430664,"1153":-1.2379450798034668,"1154":-2.2921059131622314,"1155":4.266336441040039,"1156":9.6560640335083,"1157":2.6516177654266357,"1158":7.4336161613464355,"1159":-3.585923194885254,"1160":-1.6178505420684814,"1161":0.4364108741283417,"1162":-1.2991440296173096,"1163":0.23694473505020142,"1164":-1.5219261646270752,"1165":-2.537912607192993,"1166":1.3625305891036987,"1167":2.006216526031494,"1168":1.541419267654419,"1169":0.14086733758449554,"1170":0.479668527841568,"1171":1.5120365619659424,"1172":-0.26357102394104004,"1173":-1.28959059715271,"1174":0.5061845183372498,"1175":0.049513157457113266,"1176":0.3754042685031891,"1177":3.5815024375915527,"1178":2.5620574951171875,"1179":-2.1976916790008545,"1180":2.6934814453125,"1181":-2.438156843185425,"1182":-3.6878840923309326,"1183":-0.8710619211196899,"1184":-2.0085690021514893,"1185":3.247576951980591,"1186":-2.194974184036255,"1187":0.39156246185302734,"1188":-0.11840901523828506,"1189":-1.1116493940353394,"1190":-0.619285523891449,"1191":-0.0920070931315422,"1192":0.13388937711715698,"1193":-1.1420025825500488,"1194":-2.699579954147339,"1195":-0.03883500024676323,"1196":-0.04249950870871544,"1197":-0.3577560484409332,"1198":0.816231906414032,"1199":2.8382809162139893,"1200":0.704951286315918,"1201":1.8772940635681152,"1202":0.25793910026550293,"1203":-0.17530296742916107,"1204":-0.17475757002830505,"1205":-0.3389826714992523,"1206":0.2101334035396576,"1207":-4.189323902130127,"1208":-0.7030607461929321,"1209":-1.1173580884933472,"1210":-4.307628154754639,"1211":-2.6652145385742188,"1212":1.2410401105880737,"1213":-2.1876819133758545,"1214":-0.17830483615398407,"1215":-1.1071977615356445,"1216":-0.03687559813261032,"1217":2.0687239170074463,"1218":1.3759232759475708,"1219":0.12320209294557571,"1220":-4.1852335929870605,"1221":0.41130876541137695,"1222":0.5465739369392395,"1223":-2.0836095809936523,"1224":-1.1426527500152588,"1225":2.0081686973571777,"1226":-0.09753631800413132,"1227":0.8196155428886414,"1228":-0.3063558042049408,"1229":1.2830442190170288,"1230":-1.401441216468811,"1231":3.8730783462524414,"1232":-1.5464040040969849,"1233":-2.3237345218658447,"1234":-0.12116333097219467,"1235":-1.0117709636688232,"1236":0.28326818346977234,"1237":-2.4794156551361084,"1238":2.602545738220215,"1239":-3.7983903884887695,"1240":-0.48284175992012024,"1241":0.42643052339553833,"1242":-0.5475403070449829,"1243":2.2242586612701416,"1244":-1.9000599384307861,"1245":-1.0390492677688599,"1246":-3.770550012588501,"1247":-2.2230000495910645,"1248":-0.5289646983146667,"1249":-1.6871038675308228,"1250":-1.0431057214736938,"1251":0.8418537974357605,"1252":1.3310855627059937,"1253":3.449507236480713,"1254":-0.6405936479568481,"1255":-0.5213027596473694,"1256":-1.7419281005859375,"1257":0.4951643943786621,"1258":1.3157751560211182,"1259":-1.7611291408538818,"1260":-1.4294133186340332,"1261":0.9232074022293091,"1262":-2.630406141281128,"1263":-5.287297248840332,"1264":1.3697389364242554,"1265":4.028059959411621,"1266":0.9008345007896423,"1267":2.4599385261535645,"1268":1.226266622543335,"1269":-1.7030004262924194,"1270":0.14738711714744568,"1271":1.1714063882827759,"1272":-1.0726207494735718,"1273":0.768487811088562,"1274":0.1898396909236908,"1275":1.027844786643982,"1276":-3.157564401626587,"1277":-2.679352045059204,"1278":-1.9476873874664307,"1279":4.20924711227417,"1280":-2.6401655673980713,"1281":1.2686221599578857,"1282":0.30024465918540955,"1283":3.180398464202881,"1284":3.8494484424591064,"1285":6.460168838500977,"1286":1.2649791240692139,"1287":-0.5863646864891052,"1288":-2.9198176860809326,"1289":1.3429630994796753,"1290":-4.125357151031494,"1291":-1.9390299320220947,"1292":-0.950584352016449,"1293":-1.5107213258743286,"1294":-2.990981101989746,"1295":0.6838290691375732,"1296":-6.493017673492432,"1297":1.7605061531066895,"1298":3.3586831092834473,"1299":-0.9039833545684814,"1300":-1.4770311117172241,"1301":-5.0599470138549805,"1302":-1.604630947113037,"1303":-0.9172205924987793,"1304":2.946256399154663,"1305":2.8794350624084473,"1306":5.517177104949951,"1307":-1.9769991636276245,"1308":-2.459442377090454,"1309":-2.8415005207061768,"1310":0.9855191707611084,"1311":0.8118499517440796,"1312":-2.1804280281066895,"1313":4.412351131439209,"1314":0.3358597159385681,"1315":5.396897315979004,"1316":-0.2691820561885834,"1317":-3.5695037841796875,"1318":-2.183154821395874,"1319":-4.809796333312988,"1320":-2.22965407371521,"1321":-4.2636260986328125,"1322":-2.923938512802124,"1323":-3.985788583755493,"1324":-3.5862925052642822,"1325":0.9462263584136963,"1326":11.839454650878906,"1327":0.8614627718925476,"1328":-13.605807304382324,"1329":-3.0973284244537354,"1330":0.0744095966219902,"1331":-4.444953918457031,"1332":9.107958793640137,"1333":-4.878911972045898,"1334":-5.723468780517578,"1335":-3.7622954845428467,"1336":-1.2314261198043823,"1337":-1.519081473350525,"1338":-1.8161898851394653,"1339":6.923219680786133,"1340":-3.0784478187561035,"1341":-2.4112391471862793,"1342":5.26694393157959,"1343":-1.8731658458709717,"1344":-1.6153253316879272,"1345":11.563471794128418,"1346":2.485546112060547,"1347":4.93703031539917,"1348":7.472061634063721,"1349":2.980746030807495,"1350":0.8339337110519409,"1351":4.499358177185059,"1352":3.114586114883423,"1353":8.231242179870605,"1354":-3.791217565536499,"1355":-3.8007335662841797,"1356":3.449032783508301,"1357":-2.2369863986968994,"1358":3.4351890087127686,"1359":-2.8932294845581055,"1360":7.790869235992432,"1361":0.43300706148147583,"1362":-2.5495450496673584,"1363":-1.280303716659546,"1364":0.2978070080280304,"1365":0.08634964376688004,"1366":-3.2931764125823975,"1367":-4.350836277008057,"1368":1.0874993801116943,"1369":4.071070194244385,"1370":-9.59904956817627,"1371":-3.8187248706817627,"1372":-9.64480972290039,"1373":-1.0550425052642822,"1374":-3.7853481769561768,"1375":6.5397233963012695,"1376":-0.04148224741220474,"1377":-6.259153366088867,"1378":-5.0836286544799805,"1379":-0.623932957649231,"1380":1.3718050718307495,"1381":3.719336748123169,"1382":-4.900079727172852,"1383":4.495080947875977,"1384":-1.393983244895935,"1385":1.798458456993103,"1386":4.949731349945068,"1387":0.08328980952501297,"1388":0.30220064520835876,"1389":3.9770209789276123,"1390":2.397150754928589,"1391":0.4462031126022339,"1392":-3.3861865997314453,"1393":1.6149948835372925,"1394":-3.4748528003692627,"1395":1.8952428102493286,"1396":0.5927672386169434,"1397":1.9891499280929565,"1398":-1.8916336297988892,"1399":1.7372636795043945,"1400":0.8921847939491272,"1401":-1.8852605819702148,"1402":-6.106123447418213,"1403":-2.444042682647705,"1404":-0.3814312815666199,"1405":-1.118753433227539,"1406":3.9078664779663086,"1407":0.9075383543968201,"1408":2.7742085456848145,"1409":-8.31374740600586,"1410":-2.9664306640625,"1411":2.216524839401245,"1412":4.106369495391846,"1413":-1.1336681842803955,"1414":-1.836298942565918,"1415":2.7736034393310547,"1416":2.0552213191986084,"1417":0.22116690874099731,"1418":-2.082540273666382,"1419":-5.678231239318848,"1420":-0.8347659707069397,"1421":0.4948350191116333,"1422":0.4284329116344452,"1423":-2.4258062839508057,"1424":-1.954850196838379,"1425":1.044122338294983,"1426":0.10083409398794174,"1427":-3.849907875061035,"1428":-0.33604326844215393,"1429":-3.2428226470947266,"1430":-2.0915520191192627,"1431":-4.685848712921143,"1432":5.1509480476379395,"1433":4.4765753746032715,"1434":-2.514284372329712,"1435":-1.8745688199996948,"1436":-2.522139310836792,"1437":-7.001583576202393,"1438":-4.057332992553711,"1439":-2.622036933898926,"1440":6.620872497558594,"1441":5.083303451538086,"1442":-0.20537696778774261,"1443":0.9106376767158508,"1444":1.6644213199615479,"1445":-4.545114994049072,"1446":-1.7695932388305664,"1447":-1.1119422912597656,"1448":-4.838776111602783,"1449":-1.5746713876724243,"1450":0.5785526037216187,"1451":-9.313865661621094,"1452":-0.8221861720085144,"1453":2.8297994136810303,"1454":-1.0921128988265991,"1455":0.823578417301178,"1456":-2.8258607387542725,"1457":-1.541279911994934,"1458":1.3843681812286377,"1459":-2.3042657375335693,"1460":6.30216646194458,"1461":-0.5344001054763794,"1462":4.891509532928467,"1463":-3.07875657081604,"1464":5.761324882507324,"1465":-2.571805477142334,"1466":1.4799686670303345,"1467":-2.877903938293457,"1468":2.9218838214874268,"1469":3.7781896591186523,"1470":-2.0060033798217773,"1471":-2.4173450469970703,"1472":-4.219180107116699,"1473":-0.5438622236251831,"1474":2.504937171936035,"1475":-4.79654598236084,"1476":1.747036099433899,"1477":0.22941388189792633,"1478":1.6856178045272827,"1479":-4.393380165100098,"1480":6.64975118637085,"1481":3.1463241577148438,"1482":2.4325966835021973,"1483":0.45710140466690063,"1484":6.099006652832031,"1485":-2.7201578617095947,"1486":2.476803779602051,"1487":4.150021553039551,"1488":-5.599752426147461,"1489":-7.807286739349365,"1490":-9.20647144317627,"1491":4.732780933380127,"1492":-1.8413738012313843,"1493":3.108950614929199,"1494":-10.034677505493164,"1495":2.3205652236938477,"1496":-4.794036865234375,"1497":1.588254690170288,"1498":9.879315376281738,"1499":0.7362598776817322,"1500":-9.650188446044922,"1501":3.4469332695007324,"1502":-5.880529403686523,"1503":-5.328146934509277,"1504":-2.8573496341705322,"1505":5.770166397094727,"1506":-0.5517590045928955,"1507":-5.84164571762085,"1508":-6.482061386108398,"1509":-2.3643884658813477,"1510":-3.529179096221924,"1511":2.76572585105896,"1512":3.4037294387817383,"1513":-1.588253140449524,"1514":-1.6768715381622314,"1515":-2.5610508918762207,"1516":-2.355903387069702,"1517":-2.512924909591675,"1518":-4.9963579177856445,"1519":0.7007381916046143,"1520":7.795287609100342,"1521":-8.075531005859375,"1522":-1.9622445106506348,"1523":1.1950007677078247,"1524":-3.7710623741149902,"1525":0.8857500553131104,"1526":0.8368222713470459,"1527":0.5174675583839417,"1528":-9.53475284576416,"1529":-5.422186851501465,"1530":-1.980481505393982,"1531":7.634997844696045,"1532":-9.928556442260742,"1533":4.185517311096191,"1534":-2.2954049110412598,"1535":4.429129600524902,"1536":-7.939965724945068,"1537":3.9933269023895264,"1538":-1.6910918951034546,"1539":-13.115962982177734,"1540":0.7434080839157104,"1541":1.6044634580612183,"1542":-5.597514629364014,"1543":-7.423671245574951,"1544":10.641799926757812,"1545":-4.668618679046631,"1546":-8.557893753051758,"1547":0.2978188693523407,"1548":-11.64172649383545,"1549":2.6497914791107178,"1550":-6.477664947509766,"1551":-3.526158094406128,"1552":-3.3639016151428223,"1553":-6.616600513458252,"1554":0.6729101538658142,"1555":-1.265599250793457,"1556":-2.5005476474761963,"1557":7.969884872436523,"1558":-5.921259880065918,"1559":-5.826988697052002,"1560":-3.485189914703369,"1561":9.11463451385498,"1562":0.9798493385314941,"1563":13.790155410766602,"1564":-5.2657904624938965,"1565":-5.528069496154785,"1566":-3.5323286056518555,"1567":0.7928324341773987,"1568":5.195305347442627,"1569":-0.5675917267799377,"1570":5.289913177490234,"1571":-0.8303390741348267,"1572":10.142986297607422,"1573":-12.203147888183594,"1574":4.811916351318359,"1575":-5.717923641204834,"1576":-4.424113750457764,"1577":1.0103830099105835,"1578":-7.893034934997559,"1579":2.5660150051116943,"1580":-12.668097496032715,"1581":3.2669501304626465,"1582":-1.8318294286727905,"1583":-7.489441394805908,"1584":6.834206581115723,"1585":4.852777004241943,"1586":6.023431777954102,"1587":-6.072737693786621,"1588":-14.003142356872559,"1589":-9.86426067352295,"1590":-6.694800853729248,"1591":7.314678192138672,"1592":-0.4716678261756897,"1593":-0.08473224192857742,"1594":-2.7882070541381836,"1595":-2.3743996620178223,"1596":2.924717426300049,"1597":-3.9010138511657715,"1598":-2.8948020935058594,"1599":0.718973696231842,"1600":2.8820130825042725,"1601":-6.597040176391602,"1602":8.054715156555176,"1603":-2.192708730697632,"1604":-3.3498051166534424,"1605":7.078333377838135,"1606":2.7852981090545654,"1607":1.6859471797943115,"1608":-2.1194019317626953,"1609":-5.969649791717529,"1610":0.8426528573036194,"1611":9.107003211975098,"1612":2.0193257331848145,"1613":-3.1816325187683105,"1614":3.5066702365875244,"1615":-0.7982519865036011,"1616":-7.3219499588012695,"1617":-3.2480969429016113,"1618":5.501477241516113,"1619":0.9129573702812195,"1620":-6.667986869812012,"1621":3.871570348739624,"1622":-0.4633011519908905,"1623":2.199167490005493,"1624":-0.8116397261619568,"1625":5.401507377624512,"1626":0.161990687251091,"1627":2.7810306549072266,"1628":-3.4612276554107666,"1629":-0.9881742596626282,"1630":2.752464532852173,"1631":-1.2186182737350464,"1632":2.2331228256225586,"1633":5.33790922164917,"1634":-1.487831711769104,"1635":-5.1986799240112305,"1636":-0.5224241018295288,"1637":3.075061559677124,"1638":-5.008594036102295,"1639":-0.9912930727005005,"1640":-6.63051176071167,"1641":-1.991227626800537,"1642":-1.4557207822799683,"1643":0.8533017635345459,"1644":-3.597318172454834,"1645":-2.732854127883911,"1646":-3.5980663299560547,"1647":1.3380666971206665,"1648":-2.6426353454589844,"1649":1.119875431060791,"1650":0.3728789985179901,"1651":0.38498300313949585,"1652":-0.7618175148963928,"1653":-4.715805530548096,"1654":0.4728245735168457,"1655":-3.2820687294006348,"1656":-1.6810721158981323,"1657":2.5484886169433594,"1658":-2.550769805908203,"1659":4.433821201324463,"1660":-2.688478946685791,"1661":-3.1320009231567383,"1662":-1.7464065551757812,"1663":5.064432621002197,"1664":-0.4598572850227356,"1665":4.575848579406738,"1666":-1.6972013711929321,"1667":-4.6284074783325195,"1668":-6.261850833892822,"1669":0.5518823862075806,"1670":1.9252275228500366,"1671":1.158432126045227,"1672":3.945873260498047,"1673":-1.2840856313705444,"1674":-1.5635511875152588,"1675":1.6114835739135742,"1676":-1.2035887241363525,"1677":-2.3186168670654297,"1678":2.3274319171905518,"1679":-6.285037517547607,"1680":-3.0226986408233643,"1681":-2.9775826930999756,"1682":-4.327939033508301,"1683":0.7494133114814758,"1684":7.44417142868042,"1685":-7.565419673919678,"1686":-4.834580421447754,"1687":-4.494210720062256,"1688":5.061226844787598,"1689":-10.355016708374023,"1690":5.731732368469238,"1691":-7.607236385345459,"1692":-6.674859523773193,"1693":-7.752425670623779,"1694":0.24114568531513214,"1695":-4.653083801269531,"1696":-9.993281364440918,"1697":4.051935195922852,"1698":-1.7222875356674194,"1699":-6.1859660148620605,"1700":-0.4600604474544525,"1701":-3.6895601749420166,"1702":4.968672752380371,"1703":-2.7348155975341797,"1704":-7.881680011749268,"1705":-1.127956748008728,"1706":-1.6718918085098267,"1707":2.8293352127075195,"1708":4.390268325805664,"1709":-3.173727035522461,"1710":1.8715649843215942,"1711":-6.676546573638916,"1712":-5.931439399719238,"1713":0.30107396841049194,"1714":4.756371021270752,"1715":-1.4560743570327759,"1716":7.712066650390625,"1717":-9.389823913574219,"1718":-10.723150253295898,"1719":-6.755026817321777,"1720":9.128131866455078,"1721":0.9534409642219543,"1722":-3.657965660095215,"1723":6.25067663192749,"1724":-3.5884103775024414,"1725":1.6383975744247437,"1726":-3.374907970428467,"1727":1.5661739110946655,"1728":-1.8020567893981934,"1729":3.7273049354553223,"1730":-5.720094680786133,"1731":-8.386897087097168,"1732":-11.287027359008789,"1733":-11.148856163024902,"1734":5.677186965942383,"1735":-2.0727500915527344,"1736":-7.55126953125,"1737":2.0149753093719482,"1738":-2.7722177505493164,"1739":1.5103367567062378,"1740":5.465121746063232,"1741":-6.780445575714111,"1742":0.6254988312721252,"1743":-3.9623489379882812,"1744":-1.5243360996246338,"1745":-1.7152152061462402,"1746":-1.1080464124679565,"1747":0.07573718577623367,"1748":3.6896872520446777,"1749":4.757439136505127,"1750":-0.8773717284202576,"1751":1.6395611763000488,"1752":-1.2311979532241821,"1753":-1.295413613319397,"1754":1.6651030778884888,"1755":-0.5894172191619873,"1756":2.080808162689209,"1757":2.046722650527954,"1758":12.280132293701172,"1759":10.628753662109375,"1760":-2.639714479446411,"1761":-5.587265491485596,"1762":7.928360939025879,"1763":-0.36866459250450134,"1764":2.604152202606201,"1765":-9.023554801940918,"1766":0.775775134563446,"1767":-2.055467367172241,"1768":12.142878532409668,"1769":-2.1998369693756104,"1770":3.529285430908203,"1771":0.07740744203329086,"1772":-0.5882261395454407,"1773":1.029236912727356,"1774":2.861267566680908,"1775":-0.43521741032600403,"1776":11.373327255249023,"1777":-2.035655975341797,"1778":7.000257968902588,"1779":5.301270008087158,"1780":6.205118656158447,"1781":6.667616367340088,"1782":-0.10347247123718262,"1783":9.919922828674316,"1784":8.284409523010254,"1785":-7.003289699554443,"1786":15.414905548095703,"1787":-1.5308563709259033,"1788":10.391857147216797,"1789":-0.0803203284740448,"1790":-1.7789855003356934,"1791":-10.615242958068848,"1792":5.575523376464844,"1793":4.583523273468018,"1794":-4.345767974853516,"1795":-14.575435638427734,"1796":-0.7350355386734009,"1797":-1.510305643081665,"1798":-18.995826721191406,"1799":-1.9885832071304321,"1800":2.1024351119995117,"1801":5.203744888305664,"1802":-7.599326133728027,"1803":-4.863393783569336,"1804":5.055416584014893,"1805":2.4744584560394287,"1806":-3.533830404281616,"1807":-3.0658113956451416,"1808":-4.15041446685791,"1809":0.6000241637229919,"1810":5.029325485229492,"1811":-8.026301383972168,"1812":-7.574436187744141,"1813":4.781388759613037,"1814":-4.782482147216797,"1815":-13.390357971191406,"1816":0.17524507641792297,"1817":1.5431269407272339,"1818":-10.103255271911621,"1819":6.112277984619141,"1820":-2.3752377033233643,"1821":-9.589408874511719,"1822":-0.3375202715396881,"1823":-2.7442405223846436,"1824":2.327329397201538,"1825":-3.3907947540283203,"1826":1.911668300628662,"1827":6.155965805053711,"1828":-6.2707905769348145,"1829":-1.6346691846847534,"1830":4.409732341766357,"1831":1.2196521759033203,"1832":5.1795973777771,"1833":2.902282238006592,"1834":1.43178391456604,"1835":-6.286225318908691,"1836":-6.119316101074219,"1837":0.7685996890068054,"1838":1.329278588294983,"1839":-1.8583693504333496,"1840":-19.78955841064453,"1841":-1.3756966590881348,"1842":6.105894088745117,"1843":11.535835266113281,"1844":-4.162349224090576,"1845":8.504756927490234,"1846":-3.508129835128784,"1847":10.25489616394043,"1848":-10.484050750732422,"1849":-1.655774712562561,"1850":-3.130984306335449,"1851":-0.8352863192558289,"1852":3.966033935546875,"1853":17.105817794799805,"1854":1.2756544351577759,"1855":-8.884710311889648,"1856":11.758088111877441,"1857":-1.4796340465545654,"1858":-4.153548240661621,"1859":-3.7130706310272217,"1860":-4.276670932769775,"1861":11.524188041687012,"1862":6.005373477935791,"1863":7.332912921905518,"1864":0.15663586556911469,"1865":-9.441529273986816,"1866":-8.035808563232422,"1867":-5.497382164001465,"1868":-1.7329953908920288,"1869":10.529003143310547,"1870":-6.137274265289307,"1871":2.1192314624786377,"1872":-3.5434820652008057,"1873":14.223844528198242,"1874":-5.064816474914551,"1875":-2.1690592765808105,"1876":2.778799295425415,"1877":-2.807263135910034,"1878":9.007670402526855,"1879":15.327393531799316,"1880":8.21904468536377,"1881":0.5171774625778198,"1882":-12.742216110229492,"1883":1.8721824884414673,"1884":-4.712784290313721,"1885":6.098052501678467,"1886":-2.837725877761841,"1887":-5.944725036621094,"1888":-6.522430896759033,"1889":3.2280125617980957,"1890":-1.1394691467285156,"1891":-4.849203586578369,"1892":-4.119153022766113,"1893":-0.9650437235832214,"1894":1.6602519750595093,"1895":10.341543197631836,"1896":0.9383535385131836,"1897":-6.597814083099365,"1898":-6.677225112915039,"1899":1.3376562595367432,"1900":0.6744969487190247,"1901":-9.284481048583984,"1902":2.6662886142730713,"1903":-1.8267573118209839,"1904":1.4123070240020752,"1905":-0.29994747042655945,"1906":-13.8773193359375,"1907":5.728208065032959,"1908":7.989037990570068,"1909":-1.387152075767517,"1910":8.914292335510254,"1911":-5.933577537536621,"1912":-6.369501113891602,"1913":13.615262985229492,"1914":1.9641377925872803,"1915":-4.654663562774658,"1916":7.101827621459961,"1917":4.033967971801758,"1918":0.9344106316566467,"1919":0.41997405886650085,"1920":1.3863872289657593,"1921":-5.26308012008667,"1922":9.47930908203125,"1923":6.159429550170898,"1924":-1.8252664804458618,"1925":-6.1829304695129395,"1926":1.9405690431594849,"1927":-3.5901806354522705,"1928":10.864045143127441,"1929":-5.20591926574707,"1930":-3.5290939807891846,"1931":7.988248825073242,"1932":-9.266128540039062,"1933":-5.272277355194092,"1934":0.05836453661322594,"1935":3.9889819622039795,"1936":2.2859489917755127,"1937":-4.854925632476807,"1938":5.80903434753418,"1939":-11.741978645324707,"1940":6.84249210357666,"1941":-8.76919937133789,"1942":7.841573715209961,"1943":7.85359001159668,"1944":6.880395889282227,"1945":-6.782232761383057,"1946":-1.026597023010254,"1947":3.229200839996338,"1948":12.358817100524902,"1949":1.2856416702270508,"1950":2.4599835872650146,"1951":5.867693901062012,"1952":14.479947090148926,"1953":-7.320404529571533,"1954":7.729007720947266,"1955":-3.350263833999634,"1956":-1.0306787490844727,"1957":-3.5184497833251953,"1958":-0.5822502374649048,"1959":-0.3479900360107422,"1960":-3.324657917022705,"1961":-5.601541996002197,"1962":-1.4458039999008179,"1963":-6.282741069793701,"1964":-1.1888744831085205,"1965":5.812528610229492,"1966":-5.4529218673706055,"1967":0.03795623779296875,"1968":-1.4801690578460693,"1969":-11.233160018920898,"1970":-6.160406112670898,"1971":-6.805257797241211,"1972":3.2981255054473877,"1973":-9.112944602966309,"1974":4.2468719482421875,"1975":-3.3810136318206787,"1976":7.881372451782227,"1977":-9.432299613952637,"1978":1.8595207929611206,"1979":14.290666580200195,"1980":-2.2845170497894287,"1981":1.7888354063034058,"1982":-2.79673433303833,"1983":-8.700214385986328,"1984":0.2544652819633484,"1985":2.6219937801361084,"1986":-11.334043502807617,"1987":-3.989722728729248,"1988":11.819988250732422,"1989":2.098426342010498,"1990":1.1463980674743652,"1991":-4.333228588104248,"1992":2.1628692150115967,"1993":3.685312509536743,"1994":4.735957622528076,"1995":-7.932220935821533,"1996":-5.455883502960205,"1997":-5.219360828399658,"1998":-0.2460256963968277,"1999":-0.047746993601322174,"2000":2.5219242572784424,"2001":-0.8470064997673035,"2002":-6.784387588500977,"2003":4.511631488800049,"2004":-0.8214375376701355,"2005":-3.3270697593688965,"2006":-3.034182071685791,"2007":5.057239532470703,"2008":2.5000576972961426,"2009":-0.3448394536972046,"2010":1.6220098733901978,"2011":1.2698832750320435,"2012":3.0693726539611816,"2013":-1.5027762651443481,"2014":9.985233306884766,"2015":2.5477771759033203,"2016":-0.6345799565315247,"2017":-0.6668956875801086,"2018":-2.1047768592834473,"2019":-3.7233541011810303,"2020":4.747038841247559,"2021":-2.1546456813812256,"2022":-5.414213180541992,"2023":-5.670753479003906,"2024":0.2166149765253067,"2025":-2.588381767272949,"2026":2.089625120162964,"2027":3.740487813949585,"2028":-7.0799126625061035,"2029":6.508615016937256,"2030":-3.9198386669158936,"2031":1.0920767784118652,"2032":-5.987061023712158,"2033":4.0049638748168945,"2034":1.0815856456756592,"2035":-2.9393324851989746,"2036":2.2461557388305664,"2037":-0.6996802687644958,"2038":5.3658857345581055,"2039":-0.8148622512817383,"2040":1.6665796041488647,"2041":-8.122105598449707,"2042":0.13652899861335754,"2043":0.18778951466083527,"2044":-1.2587283849716187,"2045":2.19720458984375,"2046":3.9419398307800293,"2047":-9.381024360656738,"2048":-0.38705524802207947,"2049":-4.8010993003845215,"2050":-2.955587148666382,"2051":15.666975021362305,"2052":10.715739250183105,"2053":3.761868953704834,"2054":-0.00414903974160552,"2055":-6.690941333770752,"2056":10.714325904846191,"2057":-13.185750007629395,"2058":8.882640838623047,"2059":-10.996609687805176,"2060":-11.220752716064453,"2061":1.365752100944519,"2062":2.0298845767974854,"2063":2.9359936714172363,"2064":-5.315382480621338,"2065":3.4044599533081055,"2066":-5.419303894042969,"2067":-2.6149914264678955,"2068":10.121004104614258,"2069":-16.88787078857422,"2070":-9.252691268920898,"2071":1.8267266750335693,"2072":-5.315327167510986,"2073":-0.4831239879131317,"2074":4.673659324645996,"2075":0.6821357607841492,"2076":0.0215498898178339,"2077":-11.778129577636719,"2078":19.793655395507812,"2079":-0.23446902632713318,"2080":3.2554125785827637,"2081":-16.048490524291992,"2082":9.386018753051758,"2083":0.24220961332321167,"2084":-0.7787399291992188,"2085":0.4926632046699524,"2086":9.783265113830566,"2087":-1.761091709136963,"2088":-4.176502227783203,"2089":1.489277958869934,"2090":-2.5516324043273926,"2091":-6.5647711753845215,"2092":-1.6499481201171875,"2093":1.3796459436416626,"2094":-0.9057534337043762,"2095":-0.618453860282898,"2096":0.7224416732788086,"2097":5.038880348205566,"2098":-1.2170196771621704,"2099":-2.1517345905303955,"2100":-0.685741662979126,"2101":4.686744689941406,"2102":-2.27677321434021,"2103":4.995513439178467,"2104":1.46577787399292,"2105":-8.30862045288086,"2106":2.184380531311035,"2107":0.4514363408088684,"2108":2.1283631324768066,"2109":-7.4695940017700195,"2110":8.79078197479248,"2111":-4.861166954040527,"2112":5.8530378341674805,"2113":-0.06464740633964539,"2114":-4.3162007331848145,"2115":4.390501499176025,"2116":-6.522598743438721,"2117":3.2924399375915527,"2118":0.3925415277481079,"2119":-3.6431450843811035,"2120":5.927952766418457,"2121":3.4400551319122314,"2122":-5.297778606414795,"2123":0.2044583112001419,"2124":5.05895471572876,"2125":0.3997362554073334,"2126":-1.2942378520965576,"2127":-2.1122772693634033,"2128":-11.368781089782715,"2129":-4.806845188140869,"2130":2.71732759475708,"2131":-0.016768721863627434,"2132":2.6257779598236084,"2133":-1.6197121143341064,"2134":-0.6368228793144226,"2135":4.170929431915283,"2136":-8.652889251708984,"2137":-9.302774429321289,"2138":-0.5665575861930847,"2139":5.213095188140869,"2140":-7.334882736206055,"2141":5.233011722564697,"2142":-8.041728019714355,"2143":-4.52158260345459,"2144":4.358893394470215,"2145":6.897976875305176,"2146":6.965461730957031,"2147":-5.760517120361328,"2148":0.8300909399986267,"2149":8.950041770935059,"2150":-1.6539208889007568,"2151":-1.0965890884399414,"2152":-7.361459732055664,"2153":8.478181838989258,"2154":17.61782455444336,"2155":0.46749863028526306,"2156":0.3483428657054901,"2157":-5.237016677856445,"2158":-0.48374664783477783,"2159":-10.765606880187988,"2160":19.384233474731445,"2161":-7.617692470550537,"2162":-10.727437019348145,"2163":-0.9745301008224487,"2164":-2.768573522567749,"2165":3.2482120990753174,"2166":-11.3088960647583,"2167":0.9145095348358154,"2168":-7.23094367980957,"2169":0.07578279078006744,"2170":18.001359939575195,"2171":-4.246644020080566,"2172":-17.189083099365234,"2173":11.7785005569458,"2174":-12.536311149597168,"2175":-19.25490951538086,"2176":3.6253468990325928,"2177":-1.9406843185424805,"2178":-5.2974982261657715,"2179":2.1037936210632324,"2180":2.0283565521240234,"2181":-5.72707986831665,"2182":-2.325375556945801,"2183":-2.339266061782837,"2184":-7.550280570983887,"2185":10.454607009887695,"2186":4.725146293640137,"2187":-9.856893539428711,"2188":19.77690315246582,"2189":3.1200523376464844,"2190":12.305327415466309,"2191":-1.48013174533844,"2192":-0.8515546917915344,"2193":-0.2798713743686676,"2194":6.266244411468506,"2195":5.109762191772461,"2196":-7.550485610961914,"2197":9.391754150390625,"2198":1.6796245574951172,"2199":0.29842931032180786,"2200":1.6993937492370605,"2201":-3.0190842151641846,"2202":-3.1648287773132324,"2203":7.957637310028076,"2204":-2.5966856479644775,"2205":-9.570858001708984,"2206":6.1529083251953125,"2207":5.589184284210205,"2208":-4.14017915725708,"2209":-9.366315841674805,"2210":2.3482794761657715,"2211":2.220282554626465,"2212":-1.9718149900436401,"2213":2.930518388748169,"2214":-0.23126813769340515,"2215":0.033080436289310455,"2216":-3.7088937759399414,"2217":-5.02537202835083,"2218":0.10246723145246506,"2219":8.190168380737305,"2220":-0.08840515464544296,"2221":1.3731911182403564,"2222":-1.8207627534866333,"2223":2.425905466079712,"2224":2.740649938583374,"2225":-2.243666410446167,"2226":-0.7707647681236267,"2227":-1.3574391603469849,"2228":1.1626815795898438,"2229":1.0837182998657227,"2230":2.566627025604248,"2231":-5.218853950500488,"2232":0.168585404753685,"2233":-2.0789639949798584,"2234":14.616044998168945,"2235":-6.744030952453613,"2236":-3.7391550540924072,"2237":-0.40505701303482056,"2238":-2.1605050563812256,"2239":-12.341001510620117,"2240":0.066912442445755,"2241":-1.136877179145813,"2242":4.196920394897461,"2243":2.4214117527008057,"2244":-10.484966278076172,"2245":-1.9350289106369019,"2246":0.5030978918075562,"2247":9.966263771057129,"2248":-3.5774290561676025,"2249":2.3913726806640625,"2250":-10.975263595581055,"2251":-3.0559332370758057,"2252":-1.5318167209625244,"2253":-9.335229873657227,"2254":-5.996614456176758,"2255":-6.975664138793945,"2256":-0.1755218505859375,"2257":-6.909506320953369,"2258":1.7708933353424072,"2259":-5.363687515258789,"2260":-1.3632206916809082,"2261":-4.047262668609619,"2262":4.114891529083252,"2263":1.1849896907806396,"2264":2.1737329959869385,"2265":-2.1559085845947266,"2266":-3.652514696121216,"2267":-6.353084564208984,"2268":-0.4061167538166046,"2269":-0.5477992296218872,"2270":-2.5852630138397217,"2271":-2.6433799266815186,"2272":6.334022045135498,"2273":2.3252134323120117,"2274":0.8608108162879944,"2275":7.454466819763184,"2276":-0.45358920097351074,"2277":-7.144321441650391,"2278":4.524923801422119,"2279":-3.6854488849639893,"2280":-9.547151565551758,"2281":-0.17680144309997559,"2282":-1.6104594469070435,"2283":-8.458510398864746,"2284":5.21720552444458,"2285":0.6117570996284485,"2286":-9.431328773498535,"2287":5.845178127288818,"2288":-0.7820424437522888,"2289":-5.836571216583252,"2290":0.612655758857727,"2291":-0.6961998343467712,"2292":1.5303887128829956,"2293":-0.9344742894172668,"2294":2.284255027770996,"2295":-6.054025173187256,"2296":3.356891632080078,"2297":4.375050067901611,"2298":5.563229084014893,"2299":0.6460744142532349,"2300":5.930473804473877,"2301":-6.445422172546387,"2302":-9.757254600524902,"2303":6.1722002029418945,"2304":-0.7242001295089722,"2305":5.923646926879883,"2306":13.81100845336914,"2307":-3.020836353302002,"2308":-6.711603164672852,"2309":6.37746524810791,"2310":6.39899206161499,"2311":3.1937501430511475,"2312":-0.9260039925575256,"2313":-7.005374908447266,"2314":2.1058425903320312,"2315":-16.01770782470703,"2316":6.712406635284424,"2317":-8.540943145751953,"2318":-5.439972400665283,"2319":11.091414451599121,"2320":-2.7873833179473877,"2321":-4.96646785736084,"2322":-14.428977012634277,"2323":-10.251222610473633,"2324":-5.791316986083984,"2325":-1.4763007164001465,"2326":3.0590970516204834,"2327":-4.393500804901123,"2328":1.8177611827850342,"2329":2.5309886932373047,"2330":-0.7800388336181641,"2331":4.413696765899658,"2332":6.7536749839782715,"2333":24.707469940185547,"2334":-6.305419921875,"2335":8.254056930541992,"2336":-5.703664302825928,"2337":-2.4495108127593994,"2338":-9.398299217224121,"2339":-0.1423429399728775,"2340":9.113231658935547,"2341":8.36976146697998,"2342":-8.3292818069458,"2343":-1.0984207391738892,"2344":-1.227874994277954,"2345":-0.650649905204773,"2346":-4.892238616943359,"2347":13.572467803955078,"2348":-6.0009541511535645,"2349":-14.131126403808594,"2350":5.2819647789001465,"2351":-2.3869216442108154,"2352":8.453685760498047,"2353":0.02509160526096821,"2354":-1.5017679929733276,"2355":4.187297821044922,"2356":-6.255935192108154,"2357":-1.16017484664917,"2358":3.7262356281280518,"2359":-3.784426689147949,"2360":-9.140962600708008,"2361":-6.160547256469727,"2362":3.736276865005493,"2363":-3.9090499877929688,"2364":0.7378144264221191,"2365":-7.3029866218566895,"2366":-0.03700349107384682,"2367":15.103431701660156,"2368":8.067187309265137,"2369":-8.83362102508545,"2370":-12.453733444213867,"2371":-3.280393123626709,"2372":3.8965630531311035,"2373":4.693414211273193,"2374":1.0141959190368652,"2375":6.4973344802856445,"2376":-9.54516887664795,"2377":1.8085522651672363,"2378":6.159154891967773,"2379":-13.536551475524902,"2380":-10.890335083007812,"2381":6.034182071685791,"2382":-5.4520087242126465,"2383":-4.646267890930176,"2384":-5.68411922454834,"2385":-2.123243808746338,"2386":5.025429725646973,"2387":3.8811583518981934,"2388":-5.025413513183594,"2389":12.796598434448242,"2390":-7.540351867675781,"2391":-5.933719635009766,"2392":1.403305172920227,"2393":1.4242448806762695,"2394":-5.112209320068359,"2395":8.688835144042969,"2396":-3.878265380859375,"2397":11.380847930908203,"2398":-1.8272438049316406,"2399":-3.9378139972686768,"2400":1.9585001468658447,"2401":-3.743194818496704,"2402":-4.339247226715088,"2403":-1.4032130241394043,"2404":-4.971738815307617,"2405":-2.501358985900879,"2406":-2.4988105297088623,"2407":6.183541774749756,"2408":-5.054391860961914,"2409":-4.304751396179199,"2410":6.145401477813721,"2411":-11.206612586975098,"2412":3.4304466247558594,"2413":17.063207626342773,"2414":-2.7540793418884277,"2415":4.868278503417969,"2416":2.8377163410186768,"2417":5.25657844543457,"2418":2.8009538650512695,"2419":7.508539199829102,"2420":2.0917069911956787,"2421":6.188501358032227,"2422":6.8197150230407715,"2423":3.977451801300049,"2424":2.2505812644958496,"2425":-1.938596487045288,"2426":-5.023291110992432,"2427":-0.6885561943054199,"2428":-3.021174430847168,"2429":19.021976470947266,"2430":4.864081859588623,"2431":6.9054951667785645,"2432":-4.784928321838379,"2433":3.668466091156006,"2434":-2.7037668228149414,"2435":3.8713531494140625,"2436":11.196409225463867,"2437":-3.683286428451538,"2438":1.9188916683197021,"2439":0.36403006315231323,"2440":1.542073130607605,"2441":-14.290837287902832,"2442":4.298986911773682,"2443":5.2006516456604,"2444":-3.3185696601867676,"2445":-1.7224104404449463,"2446":-3.504213809967041,"2447":7.403093338012695,"2448":8.765270233154297,"2449":4.4675469398498535,"2450":2.3209824562072754,"2451":-3.3007588386535645,"2452":7.126576900482178,"2453":-0.40420469641685486,"2454":-4.013340950012207,"2455":-5.090388298034668,"2456":-7.359659671783447,"2457":-1.9090898036956787,"2458":-1.831308126449585,"2459":10.376105308532715,"2460":2.2980587482452393,"2461":-1.0647212266921997,"2462":-2.4836015701293945,"2463":-1.935703992843628,"2464":-5.138272285461426,"2465":3.4788103103637695,"2466":9.993315696716309,"2467":-1.0806831121444702,"2468":-9.741678237915039,"2469":5.518078327178955,"2470":6.033623695373535,"2471":0.8932172656059265,"2472":3.3280367851257324,"2473":2.918565034866333,"2474":-1.8593934774398804,"2475":-4.131763935089111,"2476":2.768373966217041,"2477":-0.5562552809715271,"2478":5.937096118927002,"2479":-5.240565776824951,"2480":-0.022338977083563805,"2481":-6.365363597869873,"2482":7.7131733894348145,"2483":-6.2886881828308105,"2484":3.6468303203582764,"2485":-0.4370545744895935,"2486":8.47671890258789,"2487":-6.4951558113098145,"2488":4.517262935638428,"2489":-8.301828384399414,"2490":3.1380767822265625,"2491":4.085937976837158,"2492":-1.0638535022735596,"2493":5.888938903808594,"2494":1.7604583501815796,"2495":2.913848876953125,"2496":4.0033040046691895,"2497":0.9439830183982849,"2498":6.382784843444824,"2499":0.8693810701370239,"2500":2.3413171768188477,"2501":0.1340646892786026,"2502":0.054486408829689026,"2503":-1.3695687055587769,"2504":0.07409200817346573,"2505":0.8628477454185486,"2506":0.8334788680076599,"2507":-2.6354727745056152,"2508":-1.9021892547607422,"2509":-2.123793601989746,"2510":2.9749667644500732,"2511":-1.4959379434585571,"2512":-0.03340380638837814,"2513":0.6618224382400513,"2514":-6.284749984741211,"2515":-0.25223293900489807,"2516":3.2080605030059814,"2517":3.7571938037872314,"2518":2.6616098880767822,"2519":-1.993436336517334,"2520":-0.6368739008903503,"2521":-2.7694449424743652,"2522":-0.49348631501197815,"2523":1.5737619400024414,"2524":-3.477290153503418,"2525":4.371841907501221,"2526":1.7006913423538208,"2527":-3.001558303833008,"2528":2.1246628761291504,"2529":-3.173818588256836,"2530":0.6035622954368591,"2531":4.4499430656433105,"2532":2.5840532779693604,"2533":0.3186210095882416,"2534":1.5521918535232544,"2535":0.36682695150375366,"2536":2.3591880798339844,"2537":0.6256868243217468,"2538":-1.0543440580368042,"2539":-0.24404548108577728,"2540":0.17128513753414154,"2541":0.049429040402173996,"2542":4.129746437072754,"2543":2.200192451477051,"2544":-0.662630558013916,"2545":3.85404372215271,"2546":-4.815816879272461,"2547":-2.5419747829437256,"2548":-0.41778114438056946,"2549":-2.949939250946045,"2550":0.23786409199237823,"2551":1.3487234115600586,"2552":-2.495609760284424,"2553":2.3638672828674316,"2554":-2.7778279781341553,"2555":-1.3165616989135742,"2556":0.7652702927589417,"2557":2.5493483543395996,"2558":-1.7093822956085205,"2559":-1.8161051273345947,"2560":-4.4699482917785645,"2561":-4.762814044952393,"2562":-0.3141174912452698,"2563":-1.2730752229690552,"2564":-1.3171405792236328,"2565":0.30550915002822876,"2566":0.6065632700920105,"2567":0.21585862338542938,"2568":-1.199769377708435,"2569":0.3631143867969513,"2570":1.5690230131149292,"2571":1.0553394556045532,"2572":-3.1869804859161377,"2573":-0.2927224934101105,"2574":-0.4850847125053406,"2575":-1.0938035249710083,"2576":-0.48091357946395874,"2577":0.24275848269462585,"2578":1.65561842918396,"2579":0.8729857206344604,"2580":-0.9200904965400696,"2581":0.3146619498729706,"2582":-0.5092800855636597,"2583":1.4219651222229004,"2584":1.9867265224456787,"2585":-2.539210081100464,"2586":-1.6561540365219116,"2587":0.896583616733551,"2588":-5.567863464355469,"2589":1.6888004541397095,"2590":-0.5228766798973083,"2591":4.222257614135742,"2592":1.0749927759170532,"2593":-0.17140480875968933,"2594":0.12197783589363098,"2595":0.5163668394088745,"2596":-1.2668179273605347,"2597":-0.4084191918373108,"2598":1.1836520433425903,"2599":1.5545423030853271,"2600":-2.2009732723236084,"2601":0.011575303040444851,"2602":0.058660514652729034,"2603":0.0554337203502655,"2604":-0.061229705810546875,"2605":-0.04570005461573601,"2606":-0.031327154487371445,"2607":-0.05914926528930664,"2608":-0.04552930220961571,"2609":0.06108125299215317,"2610":-0.030396897345781326,"2611":0.05189737677574158,"2612":0.05700712651014328,"2613":-0.040519922971725464,"2614":0.029963284730911255,"2615":0.007795785553753376,"2616":-0.024529455229640007,"2617":0.03322472423315048,"2618":0.010783697478473186,"2619":0.04350515082478523,"2620":-0.05009971559047699,"2621":-0.023976588621735573,"2622":0.008236170746386051,"2623":-0.013295399025082588,"2624":0.05755462124943733,"2625":-0.04762716963887215,"2626":0.051974184811115265,"2627":0.045585546642541885,"2628":0.030203599482774734,"2629":-0.05894266068935394,"2630":-0.02792889066040516,"2631":0.043498244136571884,"2632":-0.040029752999544144,"2633":-0.05486466363072395,"2634":-0.0464039221405983,"2635":0.032929856330156326,"2636":0.043363701552152634,"2637":0.035347409546375275,"2638":-0.014986958354711533,"2639":-0.0403943732380867,"2640":-0.00006562443741131574,"2641":-0.061539724469184875,"2642":-0.03859754651784897,"2643":-0.021196803078055382,"2644":-0.02197263017296791,"2645":0.03911614045500755,"2646":-0.010264517739415169,"2647":-0.04881613701581955,"2648":-0.058098241686820984,"2649":-0.000028677044610958546,"2650":-0.02147846296429634,"2651":0.0012772746849805117}},"hiddenLayers":[{"inputMatrix":{"rows":20,"columns":51,"weights":{"0":4.2483744621276855,"1":1.2147382497787476,"2":-3.7428383827209473,"3":-0.2350379228591919,"4":1.06454598903656,"5":-0.00789768435060978,"6":-0.7186168432235718,"7":0.8804658651351929,"8":-3.1562016010284424,"9":-3.343519926071167,"10":-3.077726125717163,"11":-2.035953998565674,"12":1.457823395729065,"13":0.949066162109375,"14":-2.3551156520843506,"15":-0.8136534690856934,"16":-0.9673901796340942,"17":-1.6360334157943726,"18":1.9896355867385864,"19":1.632986307144165,"20":-1.166526436805725,"21":-0.4436742961406708,"22":0.30490779876708984,"23":0.17849254608154297,"24":-0.15638640522956848,"25":-0.14811696112155914,"26":0.5605555176734924,"27":1.16915762424469,"28":1.5443905591964722,"29":0.031770575791597366,"30":-0.3484858274459839,"31":0.3588238060474396,"32":1.0708423852920532,"33":-0.4166862964630127,"34":0.03497021645307541,"35":-4.7026591300964355,"36":-0.6649042963981628,"37":-0.40993425250053406,"38":-1.7875357866287231,"39":0.5400141477584839,"40":-2.053316831588745,"41":1.069598913192749,"42":-1.5907953977584839,"43":-0.9897466897964478,"44":-0.13172702491283417,"45":2.2484254837036133,"46":-1.0911240577697754,"47":-2.3953957557678223,"48":1.52617609500885,"49":0.9332259297370911,"50":-0.9262863993644714,"51":-0.04024720937013626,"52":-1.7395941019058228,"53":-1.231616735458374,"54":0.09666173905134201,"55":-2.744213342666626,"56":-0.6894029974937439,"57":2.5809412002563477,"58":2.4046852588653564,"59":1.8243799209594727,"60":4.230900764465332,"61":-0.6015785336494446,"62":-1.044921636581421,"63":-0.33471399545669556,"64":1.3165764808654785,"65":-2.378976583480835,"66":0.49996352195739746,"67":0.41452139616012573,"68":-0.08055427670478821,"69":-0.2553611695766449,"70":-0.7890041470527649,"71":2.404352903366089,"72":2.7938802242279053,"73":2.5956528186798096,"74":3.112647294998169,"75":-2.889314889907837,"76":-0.3595602512359619,"77":0.45636454224586487,"78":0.10430096089839935,"79":2.2757973670959473,"80":-1.8848133087158203,"81":-0.774142861366272,"82":-1.8518764972686768,"83":1.5676003694534302,"84":1.7100812196731567,"85":0.17731206119060516,"86":2.8202075958251953,"87":2.053623676300049,"88":-0.048264410346746445,"89":-1.1047563552856445,"90":4.100382328033447,"91":-0.8612309098243713,"92":-2.303734302520752,"93":-0.1360989660024643,"94":0.9267688393592834,"95":-3.569535255432129,"96":-1.2649744749069214,"97":0.3194769620895386,"98":-1.823735237121582,"99":1.90150785446167,"100":1.7462741136550903,"101":-1.1590522527694702,"102":1.0083216428756714,"103":1.6264079809188843,"104":-1.190170168876648,"105":-0.4046702980995178,"106":0.21983787417411804,"107":-0.8638933300971985,"108":1.682640552520752,"109":-0.9619263410568237,"110":-1.4756319522857666,"111":0.7274275422096252,"112":1.0266751050949097,"113":4.588379383087158,"114":-1.6459929943084717,"115":-0.3599699139595032,"116":1.055126667022705,"117":-0.5509058833122253,"118":1.7790756225585938,"119":-1.1563736200332642,"120":-0.25732752680778503,"121":1.5817102193832397,"122":0.10731840878725052,"123":-1.2628074884414673,"124":-0.35879945755004883,"125":1.5248908996582031,"126":0.12153474241495132,"127":-3.1644468307495117,"128":-2.572063446044922,"129":3.6549408435821533,"130":-2.04685640335083,"131":-0.024672463536262512,"132":-1.7700313329696655,"133":2.3867132663726807,"134":0.8238629698753357,"135":2.2433860301971436,"136":1.9810417890548706,"137":-0.9685698747634888,"138":-2.479231119155884,"139":4.788580894470215,"140":3.505704164505005,"141":-0.4547857642173767,"142":-0.9377138614654541,"143":-0.1999610960483551,"144":0.8971405625343323,"145":3.424463987350464,"146":-0.3921986222267151,"147":-2.161454200744629,"148":0.12777450680732727,"149":-0.2507248818874359,"150":-1.6571804285049438,"151":-1.3842939138412476,"152":-2.0949254035949707,"153":2.085775375366211,"154":0.9415323734283447,"155":-0.6817374229431152,"156":-1.328263282775879,"157":1.890786051750183,"158":2.184540271759033,"159":-0.9606430530548096,"160":1.1408287286758423,"161":0.8623821139335632,"162":-0.8595265746116638,"163":-1.213578701019287,"164":0.8539228439331055,"165":-2.0166876316070557,"166":-1.5941404104232788,"167":0.9089624285697937,"168":2.1009788513183594,"169":-0.9864804744720459,"170":0.8871553540229797,"171":-2.6195147037506104,"172":-0.7227619886398315,"173":0.6219695806503296,"174":-1.828730583190918,"175":0.15706166625022888,"176":1.3929498195648193,"177":0.30091607570648193,"178":2.917353630065918,"179":-1.5606595277786255,"180":0.4775415360927582,"181":0.23976321518421173,"182":0.1405102163553238,"183":2.2899444103240967,"184":-3.822166681289673,"185":-2.115220785140991,"186":-1.6616698503494263,"187":-4.099284648895264,"188":0.16233929991722107,"189":-2.8954918384552,"190":-0.42327171564102173,"191":-0.002079382073134184,"192":0.34659871459007263,"193":1.8941634893417358,"194":-2.6819701194763184,"195":2.0155787467956543,"196":-1.6611884832382202,"197":1.538324236869812,"198":-0.6649989485740662,"199":-1.0083426237106323,"200":1.9287813901901245,"201":1.2509771585464478,"202":0.002571526449173689,"203":-0.9310964941978455,"204":0.11705721169710159,"205":-3.108133316040039,"206":0.318250834941864,"207":-3.731389284133911,"208":-1.308308482170105,"209":-2.4716904163360596,"210":4.286620140075684,"211":0.7017804384231567,"212":1.0820395946502686,"213":1.387921929359436,"214":-1.2693909406661987,"215":2.526398181915283,"216":-0.6269553303718567,"217":3.415668487548828,"218":0.18739482760429382,"219":-0.2747759521007538,"220":0.5201330780982971,"221":0.6731791496276855,"222":1.6559662818908691,"223":-1.4856003522872925,"224":1.2293416261672974,"225":-1.2658661603927612,"226":3.074244737625122,"227":2.138648748397827,"228":-0.11543089151382446,"229":1.6778393983840942,"230":0.04330356419086456,"231":0.8846580982208252,"232":0.9074605703353882,"233":-0.8383949398994446,"234":2.66450834274292,"235":-1.3881540298461914,"236":1.4157555103302002,"237":-0.054324209690093994,"238":2.6053977012634277,"239":2.700524091720581,"240":1.9909332990646362,"241":-1.5719009637832642,"242":1.4408395290374756,"243":3.117046594619751,"244":-1.8012168407440186,"245":-1.8580526113510132,"246":-2.0327703952789307,"247":0.6027648448944092,"248":-4.725989818572998,"249":-0.257892370223999,"250":-0.540198802947998,"251":0.7813265919685364,"252":-0.1899767369031906,"253":1.8330624103546143,"254":2.6432619094848633,"255":-0.16135644912719727,"256":0.18393707275390625,"257":-2.2322323322296143,"258":3.3963844776153564,"259":-1.1279820203781128,"260":-0.8306834697723389,"261":-1.0717592239379883,"262":-2.5200037956237793,"263":-0.2388664186000824,"264":-1.216392159461975,"265":-2.120884418487549,"266":-2.6282215118408203,"267":0.30125343799591064,"268":-4.207376480102539,"269":0.5202646255493164,"270":0.239822655916214,"271":1.2381556034088135,"272":-0.11250892281532288,"273":-2.8477659225463867,"274":-1.33159339427948,"275":1.2643388509750366,"276":-2.960444450378418,"277":-0.45273369550704956,"278":2.3018298149108887,"279":1.2629458904266357,"280":-4.315341472625732,"281":-1.754662036895752,"282":1.1594518423080444,"283":-1.5305367708206177,"284":3.1596014499664307,"285":0.9252195358276367,"286":4.916443824768066,"287":-0.9839193224906921,"288":0.517754316329956,"289":-0.9823663234710693,"290":-2.0671205520629883,"291":-1.3395111560821533,"292":0.9318490624427795,"293":-2.113438606262207,"294":0.5051563382148743,"295":0.6567950248718262,"296":2.4894800186157227,"297":-4.593564510345459,"298":0.6256750822067261,"299":2.1028826236724854,"300":0.8915522694587708,"301":-1.4030789136886597,"302":-4.5530476570129395,"303":0.7903393507003784,"304":-0.734822154045105,"305":-2.2956998348236084,"306":2.4538564682006836,"307":0.15396687388420105,"308":1.0959961414337158,"309":-1.2430980205535889,"310":2.7867515087127686,"311":0.06803964823484421,"312":2.961784839630127,"313":-0.42796120047569275,"314":0.7954579591751099,"315":0.5742824673652649,"316":0.617170512676239,"317":2.1515698432922363,"318":3.1351585388183594,"319":2.129171848297119,"320":-1.5347120761871338,"321":0.1523311585187912,"322":1.3561290502548218,"323":-0.33511894941329956,"324":0.8186911940574646,"325":1.4626823663711548,"326":-1.071569800376892,"327":-1.196777105331421,"328":-0.021364431828260422,"329":-0.4593436121940613,"330":1.0553556680679321,"331":-1.0160990953445435,"332":1.1403883695602417,"333":-0.6706504225730896,"334":-1.5619968175888062,"335":0.8677158355712891,"336":-0.9612114429473877,"337":0.028147950768470764,"338":0.5096198916435242,"339":-0.9209932088851929,"340":1.8521721363067627,"341":0.36174291372299194,"342":1.7438451051712036,"343":-1.4372562170028687,"344":3.4778237342834473,"345":-0.7025286555290222,"346":0.49617141485214233,"347":2.1377971172332764,"348":-1.0945124626159668,"349":1.7021198272705078,"350":1.576712965965271,"351":2.092900276184082,"352":0.30512142181396484,"353":-1.3581992387771606,"354":-0.6772474646568298,"355":-0.399517297744751,"356":1.4244589805603027,"357":0.6966543793678284,"358":-0.978905975818634,"359":-0.0025282520800828934,"360":1.2571183443069458,"361":0.6174531579017639,"362":-1.7966967821121216,"363":0.4072107970714569,"364":-0.6798909306526184,"365":0.10203440487384796,"366":-1.9910918474197388,"367":-0.744307279586792,"368":-0.9104121327400208,"369":2.9875662326812744,"370":2.267150640487671,"371":-1.9619040489196777,"372":0.7464582324028015,"373":1.364396095275879,"374":0.9668468236923218,"375":0.6198575496673584,"376":-0.46435630321502686,"377":-4.020747661590576,"378":-1.5533621311187744,"379":-0.273892879486084,"380":0.5157508850097656,"381":1.2876018285751343,"382":0.9212215542793274,"383":-1.0577081441879272,"384":-0.45035409927368164,"385":-0.8851601481437683,"386":-0.2615700662136078,"387":2.1438775062561035,"388":0.01207988616079092,"389":-1.9523563385009766,"390":0.8927051424980164,"391":3.123080015182495,"392":-0.22534075379371643,"393":0.7818661332130432,"394":-1.3598358631134033,"395":2.029264450073242,"396":1.8358205556869507,"397":-4.4808502197265625,"398":-0.5744428634643555,"399":-0.9866721034049988,"400":-0.8905166387557983,"401":2.506260395050049,"402":4.6936163902282715,"403":0.93304842710495,"404":0.733953595161438,"405":1.0879160165786743,"406":-0.32824063301086426,"407":-0.16420617699623108,"408":-1.4226171970367432,"409":1.6342560052871704,"410":1.5966925621032715,"411":-0.7221071720123291,"412":0.29984378814697266,"413":1.8820512294769287,"414":-1.9874482154846191,"415":0.42149490118026733,"416":-0.12119706720113754,"417":-0.3331211805343628,"418":-3.631230354309082,"419":2.7027339935302734,"420":1.106618046760559,"421":0.6618778705596924,"422":-0.8227851986885071,"423":-0.8089417815208435,"424":-0.6551143527030945,"425":-1.1245728731155396,"426":2.384120464324951,"427":0.10259289294481277,"428":-1.2568916082382202,"429":-1.3571709394454956,"430":2.18385910987854,"431":-1.419675588607788,"432":-0.7457670569419861,"433":1.8899140357971191,"434":1.1904256343841553,"435":-2.2634637355804443,"436":1.1689363718032837,"437":-3.124838352203369,"438":-2.6483936309814453,"439":-0.7891333103179932,"440":-0.3402603566646576,"441":-0.7151774764060974,"442":-1.7013131380081177,"443":1.0174483060836792,"444":-0.6272024512290955,"445":-0.1561986356973648,"446":2.4453165531158447,"447":-0.12698894739151,"448":1.7948509454727173,"449":-4.628166675567627,"450":-0.31041672825813293,"451":1.266754388809204,"452":-0.6075661778450012,"453":-0.8126598000526428,"454":0.9506034851074219,"455":-1.817565679550171,"456":0.30382493138313293,"457":0.8195044994354248,"458":-2.217487335205078,"459":-1.229218602180481,"460":-2.9424424171447754,"461":1.5903277397155762,"462":-0.9831632971763611,"463":0.6760866641998291,"464":-2.804400682449341,"465":3.103020191192627,"466":1.5621157884597778,"467":0.9899023175239563,"468":1.1789509057998657,"469":0.7913492918014526,"470":-0.5807891488075256,"471":2.5219173431396484,"472":2.051145076751709,"473":-0.838990330696106,"474":0.4198349118232727,"475":3.1208198070526123,"476":-1.9586268663406372,"477":0.6630467772483826,"478":1.093945026397705,"479":-0.9933229684829712,"480":0.3379465937614441,"481":2.8750393390655518,"482":-0.8815106153488159,"483":-1.073454737663269,"484":-0.5283938646316528,"485":0.7198547124862671,"486":0.11859352141618729,"487":-0.9587053656578064,"488":1.5123885869979858,"489":0.00923705380409956,"490":-1.0391072034835815,"491":-0.5991293787956238,"492":0.668510377407074,"493":1.3019121885299683,"494":0.053179431706666946,"495":-2.436535596847534,"496":-2.6091761589050293,"497":2.2957611083984375,"498":2.40932035446167,"499":-2.501798629760742,"500":0.6080597043037415,"501":-1.270592212677002,"502":-0.7247356176376343,"503":-0.0835551917552948,"504":0.5867322087287903,"505":1.0215883255004883,"506":1.0519133806228638,"507":1.362019658088684,"508":-1.364350438117981,"509":0.4016663730144501,"510":-1.4590635299682617,"511":0.6374045014381409,"512":0.6793274879455566,"513":2.837604284286499,"514":-2.9538183212280273,"515":-0.13836883008480072,"516":-0.7433032989501953,"517":1.122001051902771,"518":1.0867745876312256,"519":-0.1866012066602707,"520":-3.42775559425354,"521":-2.3745007514953613,"522":0.04923156276345253,"523":-1.4214255809783936,"524":-1.6304630041122437,"525":4.798148155212402,"526":-1.6123645305633545,"527":2.355079412460327,"528":-0.8218032717704773,"529":1.5952396392822266,"530":0.46887174248695374,"531":-3.611567735671997,"532":1.1478619575500488,"533":1.6366000175476074,"534":0.7291427850723267,"535":0.38038793206214905,"536":-0.3821416199207306,"537":-2.942910671234131,"538":0.8835681080818176,"539":-0.06637843698263168,"540":0.6852541565895081,"541":-0.8618372082710266,"542":0.5808608531951904,"543":1.7942841053009033,"544":-0.8555431365966797,"545":-1.2331433296203613,"546":-1.5919581651687622,"547":-0.3398473560810089,"548":-0.9607348442077637,"549":1.8454174995422363,"550":-0.4997549057006836,"551":-1.797684669494629,"552":-2.3018791675567627,"553":1.975637674331665,"554":1.7283995151519775,"555":0.5338072776794434,"556":0.9384920597076416,"557":-1.56936776638031,"558":3.185663938522339,"559":-2.535667657852173,"560":-0.7340549230575562,"561":1.189911127090454,"562":-0.7722668647766113,"563":3.017460823059082,"564":-1.1724625825881958,"565":1.9561055898666382,"566":0.417507529258728,"567":1.1092219352722168,"568":-0.4647660255432129,"569":1.4413083791732788,"570":0.21516375243663788,"571":3.9781057834625244,"572":-0.4384784698486328,"573":0.1501157134771347,"574":1.8754850625991821,"575":-0.43186309933662415,"576":3.7026138305664062,"577":-0.44624707102775574,"578":0.6590943336486816,"579":-1.0436773300170898,"580":-0.6601386070251465,"581":2.205613136291504,"582":2.0519769191741943,"583":0.6864887475967407,"584":-0.17141325771808624,"585":0.7210181951522827,"586":-1.0914576053619385,"587":-1.424830436706543,"588":-0.6269952058792114,"589":0.01853213831782341,"590":1.5856293439865112,"591":1.7074940204620361,"592":-1.8326168060302734,"593":-0.9638473391532898,"594":-0.39184659719467163,"595":1.5495390892028809,"596":0.38231703639030457,"597":2.0365214347839355,"598":0.23521505296230316,"599":1.4657071828842163,"600":1.5373951196670532,"601":-0.365655779838562,"602":0.7768546342849731,"603":-3.047638177871704,"604":-3.1999495029449463,"605":-2.259683609008789,"606":1.8147369623184204,"607":1.0974041223526,"608":0.21255967020988464,"609":1.9359149932861328,"610":-1.255203127861023,"611":3.7648069858551025,"612":-1.1972459554672241,"613":2.68449330329895,"614":-2.3602182865142822,"615":1.395758032798767,"616":0.5198048949241638,"617":0.017312070354819298,"618":-3.031503915786743,"619":-0.23783744871616364,"620":-1.2479263544082642,"621":2.0815927982330322,"622":1.39748215675354,"623":-0.7459986209869385,"624":0.6038783192634583,"625":-1.2401947975158691,"626":3.5320210456848145,"627":-1.168823480606079,"628":-0.8173723220825195,"629":0.06701625138521194,"630":-0.6988316178321838,"631":2.179332971572876,"632":1.7434797286987305,"633":-1.2318850755691528,"634":-4.1328840255737305,"635":-0.6718090176582336,"636":0.9379884600639343,"637":-3.905353546142578,"638":-1.5319314002990723,"639":0.5118652582168579,"640":-2.8494088649749756,"641":3.11381459236145,"642":-0.5105627179145813,"643":4.0108323097229,"644":-1.7900723218917847,"645":0.7893574237823486,"646":-0.8996005654335022,"647":-1.6994953155517578,"648":-1.3634673357009888,"649":-0.5673540830612183,"650":-1.821790337562561,"651":-1.621359944343567,"652":-1.6754554510116577,"653":0.7823941111564636,"654":0.6994344592094421,"655":-3.0860049724578857,"656":4.543994903564453,"657":2.6247000694274902,"658":-2.5294458866119385,"659":-2.5719666481018066,"660":-1.3506250381469727,"661":-3.0155532360076904,"662":-3.0055177211761475,"663":-0.7653500437736511,"664":-1.577283263206482,"665":-1.1135698556900024,"666":-1.518584966659546,"667":-0.9604567289352417,"668":-2.941728353500366,"669":2.62263560295105,"670":2.217913866043091,"671":-3.2507846355438232,"672":0.9894187450408936,"673":1.51026451587677,"674":-1.1551356315612793,"675":-1.437175989151001,"676":1.5834908485412598,"677":3.5413970947265625,"678":-0.7927973866462708,"679":0.20374837517738342,"680":1.1873592138290405,"681":-0.894431471824646,"682":0.2801840305328369,"683":0.17564453184604645,"684":0.0649750679731369,"685":0.11948403716087341,"686":-0.5874549150466919,"687":-0.45787662267684937,"688":-0.7023664712905884,"689":-0.6746271252632141,"690":1.6441272497177124,"691":-4.314413070678711,"692":-0.4491736590862274,"693":1.3115824460983276,"694":2.23374080657959,"695":-1.2503982782363892,"696":2.7527172565460205,"697":3.452291965484619,"698":-1.49111008644104,"699":2.4106273651123047,"700":-0.2204219251871109,"701":-1.1572203636169434,"702":0.7426487803459167,"703":-1.9074437618255615,"704":2.0064055919647217,"705":0.49885740876197815,"706":1.6186511516571045,"707":-4.551724433898926,"708":-3.0982425212860107,"709":1.8130979537963867,"710":0.055159199982881546,"711":-3.4552273750305176,"712":-0.6925883889198303,"713":-0.08196244388818741,"714":0.34302058815956116,"715":-3.7621281147003174,"716":2.1136996746063232,"717":1.5876619815826416,"718":-1.8441559076309204,"719":-1.7628341913223267,"720":1.6146342754364014,"721":2.1782548427581787,"722":0.8296788930892944,"723":3.4862329959869385,"724":3.586151123046875,"725":-0.5464277863502502,"726":-0.8932128548622131,"727":1.8840430974960327,"728":-0.3527834415435791,"729":1.228165626525879,"730":-3.419951915740967,"731":0.6592429876327515,"732":1.2575762271881104,"733":-2.884199619293213,"734":0.5243002772331238,"735":-3.2031631469726562,"736":1.1171616315841675,"737":1.7406227588653564,"738":-1.0498971939086914,"739":1.1029239892959595,"740":0.28505775332450867,"741":-0.5166711807250977,"742":0.04785223677754402,"743":0.535944938659668,"744":1.8350536823272705,"745":0.6330475807189941,"746":-0.203183114528656,"747":3.065669059753418,"748":0.9061786532402039,"749":2.2167165279388428,"750":-0.2584604322910309,"751":1.682368278503418,"752":0.8737856149673462,"753":3.123466730117798,"754":-3.0130622386932373,"755":1.266764521598816,"756":-0.8126474022865295,"757":0.44734594225883484,"758":-0.18287134170532227,"759":0.5150139331817627,"760":-1.007080316543579,"761":1.0699763298034668,"762":-0.6326607465744019,"763":-0.5097403526306152,"764":-0.29417818784713745,"765":1.5437346696853638,"766":-0.43655601143836975,"767":-0.7012972235679626,"768":1.866104006767273,"769":-0.010942027904093266,"770":-2.740755796432495,"771":1.4574824571609497,"772":-0.7343633770942688,"773":0.8821223974227905,"774":0.7587342858314514,"775":5.069334506988525,"776":-1.8028684854507446,"777":-1.5447611808776855,"778":1.4659100770950317,"779":1.4709821939468384,"780":-0.9525896906852722,"781":0.8803303837776184,"782":1.0125479698181152,"783":-2.830742835998535,"784":-2.636101722717285,"785":2.3856005668640137,"786":0.6938458681106567,"787":0.810944139957428,"788":2.387232780456543,"789":-0.2235867828130722,"790":2.1617884635925293,"791":0.2655249834060669,"792":-1.89231538772583,"793":0.7453310489654541,"794":-0.07467444241046906,"795":0.15475577116012573,"796":0.5803377628326416,"797":1.93043851852417,"798":1.68804132938385,"799":0.8827139735221863,"800":-0.6445900797843933,"801":-2.707345962524414,"802":0.06553677469491959,"803":-0.24939875304698944,"804":0.5482615232467651,"805":-1.7748222351074219,"806":0.9707465767860413,"807":1.61766517162323,"808":2.5645737648010254,"809":-2.6391749382019043,"810":-0.11934524029493332,"811":-3.8175010681152344,"812":2.0380516052246094,"813":0.7565794587135315,"814":-2.3854563236236572,"815":1.5096641778945923,"816":-2.935458183288574,"817":-1.359058141708374,"818":0.521172285079956,"819":-0.09018361568450928,"820":-0.7982714772224426,"821":-0.5255719423294067,"822":-3.4495596885681152,"823":2.569553852081299,"824":2.5339081287384033,"825":1.224057912826538,"826":-0.5441074967384338,"827":1.1671569347381592,"828":-0.38771501183509827,"829":-1.8339253664016724,"830":1.804463267326355,"831":1.2898818254470825,"832":-0.4541234076023102,"833":-0.23716473579406738,"834":-1.6749317646026611,"835":-0.5066145658493042,"836":-0.29077014327049255,"837":-0.7951081395149231,"838":0.5677552223205566,"839":-0.8217515349388123,"840":-3.1838855743408203,"841":0.3383006155490875,"842":0.7768003940582275,"843":-2.0932774543762207,"844":0.7006087303161621,"845":-2.2116172313690186,"846":-3.2164299488067627,"847":3.0125560760498047,"848":-2.2265238761901855,"849":-1.0674207210540771,"850":-2.983330488204956,"851":1.9389742612838745,"852":-0.0544854998588562,"853":-0.36348268389701843,"854":0.9425566792488098,"855":0.9438997507095337,"856":1.2994540929794312,"857":-2.5485422611236572,"858":-0.8547414541244507,"859":-2.560898780822754,"860":-0.006105712614953518,"861":-0.1289358139038086,"862":-0.2183055728673935,"863":-0.4298587441444397,"864":1.28196382522583,"865":-4.529613494873047,"866":-1.606230616569519,"867":-1.1142551898956299,"868":-0.9759023785591125,"869":0.8718900680541992,"870":3.50244140625,"871":3.090332508087158,"872":-0.8942577838897705,"873":-0.8049654960632324,"874":-2.141789197921753,"875":1.161713719367981,"876":1.4948502779006958,"877":-0.5882342457771301,"878":4.026840686798096,"879":0.7376916408538818,"880":-0.3286791145801544,"881":0.6277024745941162,"882":-0.579096257686615,"883":-0.07530087977647781,"884":-2.2781991958618164,"885":1.0028345584869385,"886":-2.00343918800354,"887":-1.623216986656189,"888":1.5934228897094727,"889":0.9877085089683533,"890":1.6254324913024902,"891":2.832098960876465,"892":2.341034412384033,"893":-0.7066491842269897,"894":-3.020531415939331,"895":1.1684404611587524,"896":2.8489480018615723,"897":-0.2585258185863495,"898":1.6672310829162598,"899":-0.10984408855438232,"900":-1.9992486238479614,"901":1.362964391708374,"902":1.5967310667037964,"903":0.47287434339523315,"904":0.09447567909955978,"905":3.7470057010650635,"906":-0.06109319627285004,"907":0.732261061668396,"908":-1.2733964920043945,"909":0.39426881074905396,"910":-0.6442435383796692,"911":-0.0868888571858406,"912":3.1961071491241455,"913":1.1577187776565552,"914":1.0423885583877563,"915":1.0771567821502686,"916":1.6359474658966064,"917":-1.9613488912582397,"918":2.1022369861602783,"919":2.7504074573516846,"920":-3.7249722480773926,"921":-1.0842467546463013,"922":1.0773729085922241,"923":0.5445825457572937,"924":0.6583410501480103,"925":1.3031928539276123,"926":-1.6872038841247559,"927":-0.6522570848464966,"928":2.144935131072998,"929":2.0707876682281494,"930":-0.9691527485847473,"931":-1.1140687465667725,"932":1.6931389570236206,"933":-0.8674061298370361,"934":3.593590259552002,"935":-2.4701106548309326,"936":-1.7081501483917236,"937":-0.9869399666786194,"938":-1.3331364393234253,"939":-0.3501666784286499,"940":0.34760740399360657,"941":-0.6470478177070618,"942":3.404853343963623,"943":2.863612174987793,"944":-6.155287265777588,"945":3.131983518600464,"946":-1.1934326887130737,"947":0.3214903473854065,"948":-1.1023236513137817,"949":-0.46329769492149353,"950":1.2677732706069946,"951":-2.1490800380706787,"952":0.7866334319114685,"953":-0.9975632429122925,"954":0.75692218542099,"955":0.6251152753829956,"956":3.332717180252075,"957":-0.5530199408531189,"958":3.206543445587158,"959":0.4327165484428406,"960":0.8230994343757629,"961":4.291265487670898,"962":-0.26534467935562134,"963":-1.2624319791793823,"964":1.6092650890350342,"965":0.5309126377105713,"966":-1.706070065498352,"967":0.638542652130127,"968":2.423154592514038,"969":2.4809677600860596,"970":-1.8570311069488525,"971":-2.8173975944519043,"972":-0.8966695070266724,"973":0.5448443293571472,"974":2.9645419120788574,"975":0.17768608033657074,"976":-1.2740739583969116,"977":-2.7336254119873047,"978":-5.598123073577881,"979":-0.9780110120773315,"980":-0.6510859727859497,"981":-0.26564961671829224,"982":-1.031058430671692,"983":2.925995111465454,"984":-1.7992956638336182,"985":-1.9365116357803345,"986":0.779059112071991,"987":-0.2531217634677887,"988":0.7322149872779846,"989":1.6470204591751099,"990":0.09407216310501099,"991":-0.994979202747345,"992":-1.5039640665054321,"993":1.5231177806854248,"994":-4.755125522613525,"995":1.3661445379257202,"996":3.423271894454956,"997":-0.177702859044075,"998":1.7001242637634277,"999":0.9812343716621399,"1000":2.982489824295044,"1001":-0.39038345217704773,"1002":-0.8391709327697754,"1003":-0.08131451904773712,"1004":-3.4633371829986572,"1005":-1.245731234550476,"1006":-0.3595094084739685,"1007":-1.0265084505081177,"1008":-0.49851182103157043,"1009":-0.7958316206932068,"1010":-0.5988684296607971,"1011":1.5955253839492798,"1012":0.3226916790008545,"1013":0.5616074204444885,"1014":0.34254854917526245,"1015":-1.2898287773132324,"1016":0.17500513792037964,"1017":1.328861951828003,"1018":-2.5641839504241943,"1019":-0.7433584928512573}},"inputHidden":{"rows":20,"columns":20,"weights":{"0":-4.780878067016602,"1":0.8842222094535828,"2":0.6326850652694702,"3":2.0298376083374023,"4":-0.859841525554657,"5":-1.3364306688308716,"6":7.086979389190674,"7":-0.04286746680736542,"8":-0.17348620295524597,"9":1.3182439804077148,"10":2.2514915466308594,"11":-0.47952133417129517,"12":-0.23008933663368225,"13":-2.1025075912475586,"14":0.9454963803291321,"15":-0.7920265793800354,"16":2.1835718154907227,"17":-4.548720359802246,"18":-2.3188462257385254,"19":0.8258973956108093,"20":0.3658747673034668,"21":0.5968201756477356,"22":-1.5257182121276855,"23":0.6989327669143677,"24":1.6771581172943115,"25":0.5075787305831909,"26":-1.9203170537948608,"27":-0.24977311491966248,"28":0.014895474538207054,"29":-1.5202302932739258,"30":-2.4051942825317383,"31":0.05377965047955513,"32":0.9941274523735046,"33":1.0274099111557007,"34":-1.1690438985824585,"35":-1.8365522623062134,"36":-2.4471147060394287,"37":-0.8614000082015991,"38":0.35624852776527405,"39":1.641457438468933,"40":4.529181003570557,"41":3.0299792289733887,"42":-0.4269110858440399,"43":3.668930768966675,"44":0.8807234764099121,"45":-0.8977498412132263,"46":1.932857632637024,"47":-3.7791366577148438,"48":-0.5367636680603027,"49":-1.3607953786849976,"50":0.1962180733680725,"51":-6.578823089599609,"52":-5.737988471984863,"53":0.9559728503227234,"54":-1.0674022436141968,"55":-1.3058491945266724,"56":0.8301630020141602,"57":-1.5061991214752197,"58":0.3375049829483032,"59":-2.4387762546539307,"60":2.8343279361724854,"61":1.0499223470687866,"62":-3.2606799602508545,"63":-1.470125436782837,"64":3.3645577430725098,"65":-0.4793214201927185,"66":0.6750271916389465,"67":-1.1142874956130981,"68":-0.08155572414398193,"69":-5.246145725250244,"70":1.80226731300354,"71":-3.0261592864990234,"72":-0.6395598649978638,"73":0.3642725944519043,"74":0.5214375853538513,"75":1.1441841125488281,"76":1.8932396173477173,"77":-0.8224156498908997,"78":1.206297755241394,"79":0.024588044732809067,"80":-1.7649312019348145,"81":0.6785808801651001,"82":0.5121637582778931,"83":0.3520192801952362,"84":1.4845013618469238,"85":-0.40105557441711426,"86":2.0825326442718506,"87":-0.07630752772092819,"88":-0.5088071227073669,"89":1.5010533332824707,"90":0.7099120020866394,"91":-0.3244641423225403,"92":-0.9897772669792175,"93":-2.538752317428589,"94":0.8249959945678711,"95":-1.1045968532562256,"96":1.229888677597046,"97":0.3389154076576233,"98":-1.2313494682312012,"99":-1.622397780418396,"100":-0.8521816730499268,"101":1.4224797487258911,"102":1.4876166582107544,"103":1.1513148546218872,"104":1.5165071487426758,"105":3.661342144012451,"106":0.24122147262096405,"107":-1.222021222114563,"108":1.5450936555862427,"109":-1.491287112236023,"110":0.12113310396671295,"111":5.129322052001953,"112":1.2499717473983765,"113":0.6504967212677002,"114":0.493512362241745,"115":0.7083517909049988,"116":1.0126466751098633,"117":0.6298647522926331,"118":2.86944317817688,"119":-2.165349245071411,"120":0.54939866065979,"121":2.38031268119812,"122":1.9423125982284546,"123":0.8084372878074646,"124":-0.23130549490451813,"125":-3.527388572692871,"126":4.537489414215088,"127":0.5355403423309326,"128":-3.185377359390259,"129":4.428789138793945,"130":5.52907657623291,"131":12.414877891540527,"132":-1.7986681461334229,"133":-1.0862866640090942,"134":-2.183220863342285,"135":-0.544049084186554,"136":6.6034722328186035,"137":0.6980431079864502,"138":1.0378227233886719,"139":2.9631989002227783,"140":-0.8462263345718384,"141":0.1591477394104004,"142":-0.5979467630386353,"143":1.5915077924728394,"144":1.0622618198394775,"145":-2.2981250286102295,"146":-1.6609548330307007,"147":0.02755858190357685,